{"version": "0.5.1", "metadata": {"date": {"year": 2023, "month": 6, "day": 8, "hour": 8, "minute": 36, "second": 25}, "loudness": -12.113504409790039, "gain": 0.8670146182411602, "name": null, "modeled_by": null, "gear_type": null, "gear_make": null, "gear_model": null, "tone_type": null}, "architecture": "WaveNet", "config": {"layers": [{"input_size": 1, "condition_size": 1, "head_size": 8, "channels": 16, "kernel_size": 3, "dilations": [1, 2, 4, 8, 16, 32, 64, 128, 256, 512], "activation": "Tanh", "gated": false, "head_bias": false}, {"input_size": 16, "condition_size": 1, "head_size": 1, "channels": 8, "kernel_size": 3, "dilations": [1, 2, 4, 8, 16, 32, 64, 128, 256, 512], "activation": "Tanh", "gated": false, "head_bias": true}], "head": null, "head_scale": 0.02}, "weights": [-0.18392173945903778, 0.6764835715293884, -1.0424257516860962, -0.7546924352645874, -0.5449753999710083, 0.39550837874412537, -0.07222688943147659, 0.8824013471603394, -0.16577033698558807, 0.38794228434562683, -0.4572198688983917, -0.32089856266975403, -1.1640712022781372, -0.8804647922515869, -0.5229368209838867, 0.2550731301307678, 0.015472665429115295, 0.6859481334686279, -0.4508117437362671, 0.04538891091942787, -0.4338259994983673, 0.33711349964141846, -0.1408364176750183, 0.5837668180465698, -0.23369818925857544, -0.09236876666545868, 0.6040140986442566, -0.34320738911628723, -0.18800000846385956, 0.4640088975429535, -0.27982190251350403, 0.22565875947475433, -0.5766488909721375, 0.1760454922914505, -0.1691802591085434, 0.38808172941207886, -0.4065198600292206, 0.23213669657707214, -0.4121513068675995, 0.27839329838752747, -0.06787353754043579, 0.4434336721897125, -0.2249240130186081, -0.035957541316747665, -0.5968286395072937, 0.15525153279304504, -0.01765526458621025, 0.571222722530365, -0.2969397306442261, -0.10727440565824509, 0.5794906616210938, -0.09465809911489487, -0.05329671874642372, 0.4996996223926544, -0.11327474564313889, -0.19261503219604492, 0.511344313621521, -0.32534292340278625, -0.20264531672000885, 0.41675034165382385, -0.15290619432926178, 0.11383598297834396, -0.669525682926178, 0.3719841539859772, 0.24326969683170319, -0.18905210494995117, -0.003690298181027174, -0.14174585044384003, 0.17712368071079254, 0.1066071018576622, 0.06515674293041229, -0.12871907651424408, 0.09419360756874084, 0.29186996817588806, 0.05055711790919304, 0.16375204920768738, 0.20287802815437317, -0.21734493970870972, 0.04351300001144409, -0.2640295922756195, -0.05284248664975166, 0.09293098747730255, 0.2532350718975067, -0.26863688230514526, 0.028434669598937035, -0.1987575888633728, 0.05183107405900955, -0.10279947519302368, 0.2128150314092636, -0.19015713036060333, 0.07009879499673843, -0.0966963991522789, 0.19106392562389374, 0.0246520284563303, 0.02839653566479683, -0.18132714927196503, 0.1005781963467598, 0.1942855566740036, -0.2026020586490631, -0.05714812129735947, 0.31224218010902405, 0.017864137887954712, -0.027096368372440338, 0.13919036090373993, -0.21840418875217438, 0.032072849571704865, 0.06477854400873184, -0.1979650855064392, 0.023454803973436356, -0.1584930270910263, 0.08789914101362228, 0.0819501280784607, -0.011150800622999668, 0.2596764862537384, 0.02734156884253025, -0.18359002470970154, -0.08691474795341492, 0.12929211556911469, 0.0755414292216301, 0.07398317009210587, -0.0746847465634346, 0.0627427026629448, -0.030702248215675354, -0.06095447018742561, -0.0771939679980278, -0.02716408483684063, -0.1533699482679367, -0.12300258129835129, -0.1016787439584732, 0.0011656316928565502, 0.03240448608994484, 0.1331835836172104, -0.1620689183473587, -0.062273431569337845, 0.06293022632598877, 0.11377643793821335, 0.07285350561141968, 0.06686145067214966, -0.06912585347890854, 0.031119242310523987, 0.08062723278999329, 0.20899491012096405, 0.1950756311416626, 0.041133224964141846, -0.2484017312526703, -0.00753155630081892, 0.1562858670949936, -0.11557351797819138, -0.014317126013338566, -0.06881696730852127, -0.2650972306728363, -0.06361596286296844, 0.015772409737110138, -0.047657959163188934, 0.13785625994205475, -0.087503582239151, -0.03190729767084122, -0.179574653506279, -0.1405791938304901, 0.02121805213391781, 0.07221385091543198, 0.06818421185016632, -0.21988651156425476, -0.2059135138988495, -0.10104969143867493, 0.04819004610180855, 0.023889975622296333, 0.1385565549135208, -0.1664246916770935, 0.07838399708271027, 0.20973818004131317, -0.09484384208917618, 0.21685324609279633, 0.13182929158210754, -0.18368352949619293, -0.0024735673796385527, -0.09754111617803574, -0.013135569170117378, 0.20734316110610962, -0.05227190628647804, -0.09061498939990997, -0.11848315596580505, 0.019360974431037903, 0.07662808150053024, 0.15602219104766846, 0.12377797067165375, -0.09889426827430725, -0.1168091744184494, -0.19587396085262299, 0.12983015179634094, 0.20211300253868103, 0.17879246175289154, -0.1510680913925171, 0.09148707240819931, -0.029648583382368088, -0.1370866745710373, 0.0017501241527497768, 0.13372661173343658, -0.12139860540628433, 0.08381341397762299, 0.08921415358781815, 0.0542839877307415, -0.022454649209976196, -0.01707577332854271, -0.1284269094467163, -0.0008576507098041475, -0.14499177038669586, 0.21564479172229767, 0.0037624244578182697, -0.5993761420249939, 0.24464131891727448, -0.01773267239332199, 0.5294772386550903, -0.21839134395122528, -0.014598228968679905, -0.4826953113079071, 0.06346600502729416, -0.093168243765831, -0.37896907329559326, 0.057866986840963364, -0.032148297876119614, -0.37888652086257935, 0.2405455857515335, 0.023562150076031685, 0.37395089864730835, -0.12849558889865875, -0.14003172516822815, -0.55622398853302, 0.19087111949920654, -0.005888401065021753, 0.500757098197937, -0.05665760114789009, -0.010926027782261372, -0.3904837965965271, 0.2839527130126953, -0.07042257487773895, 0.5755890607833862, -0.2866899073123932, -0.07350030541419983, -0.46179285645484924, 0.23852814733982086, 0.08840726315975189, -0.5498906373977661, 0.19093522429466248, 0.06303045153617859, -0.6454043388366699, 0.28083428740501404, -0.1326112300157547, -0.5052025318145752, 0.153387188911438, -0.09147737920284271, -0.49367663264274597, 0.3027421236038208, -0.010135051794350147, 0.5189646482467651, -0.28752464056015015, -0.07942445576190948, 0.2050965577363968, -0.21617040038108826, -0.15132379531860352, -0.12258496880531311, 0.28563275933265686, 0.1241450160741806, 0.13806813955307007, -0.1581116020679474, -9.434185631107539e-05, -0.012860706076025963, -0.16449765861034393, 0.17227549850940704, 0.08642593771219254, -0.26690325140953064, -0.11378911137580872, -0.176993265748024, 0.22932985424995422, -0.02381763607263565, -0.022255148738622665, -0.010608132928609848, -0.14210258424282074, -0.0442756786942482, 0.2486252337694168, 0.0657801553606987, -0.025721730664372444, -0.2928796410560608, 0.06255226582288742, -0.02092074602842331, 0.3171114921569824, 0.0045219967141747475, 0.08602652698755264, -0.2282569408416748, 0.04925407096743584, -0.03926912695169449, -0.14358334243297577, 0.09643889218568802, 0.027166590094566345, -0.24088190495967865, -0.038173384964466095, 0.13276349008083344, -0.31390705704689026, 0.11107432842254639, -0.008727050386369228, -0.2716624438762665, -0.02190988138318062, -0.1906231939792633, 0.18935737013816833, 0.1482815146446228, -0.29687145352363586, 0.24074327945709229, -0.03953199088573456, 0.22935715317726135, -0.13308334350585938, -0.028480825945734978, -0.19584758579730988, 0.15205495059490204, 0.03356897085905075, -0.11294592916965485, 0.19494971632957458, 0.018744727596640587, -0.1723790466785431, 0.18032772839069366, -0.07769722491502762, 0.17267903685569763, -0.11070121079683304, -0.025102751329541206, -0.11678231507539749, 0.2937834858894348, 0.040733709931373596, 0.25502365827560425, -0.08249078691005707, 0.16647250950336456, -0.22387675940990448, 0.0206927303224802, -0.21873605251312256, 0.3089916706085205, -0.028031667694449425, -0.005529465619474649, -0.10691956430673599, 0.2311139851808548, 0.2394229620695114, -0.03042588196694851, 0.2388874739408493, 0.06224003806710243, -0.22538812458515167, 0.22145359218120575, 0.17549952864646912, -0.2600225806236267, 0.23619475960731506, 0.16555063426494598, -0.09498704224824905, 0.022987155243754387, -0.07909368723630905, 0.1411060392856598, -0.10107920318841934, -0.19604729115962982, -0.15710346400737762, 0.11083526909351349, 0.235247403383255, 0.14622043073177338, 0.0006131498957984149, -0.2816721796989441, -0.16490967571735382, -0.0343237966299057, -0.32116082310676575, -0.310977578163147, 0.17649465799331665, -0.09875781834125519, -0.06000670790672302, 0.18793708086013794, 0.051724646240472794, 0.09152832627296448, -0.10037253797054291, -0.25463199615478516, -0.06726919114589691, -0.005646200850605965, 0.108677938580513, 0.05747926980257034, -0.1450156718492508, -0.05063356086611748, -0.06551996618509293, 0.18162937462329865, 0.2871626317501068, 0.31904906034469604, -0.10943931341171265, -0.11379193514585495, -0.06393913924694061, 0.12214971333742142, -0.028934231027960777, -0.10802225023508072, 0.16979877650737762, -0.22876723110675812, -0.13088777661323547, 0.0783965066075325, -0.21311843395233154, -0.2794409394264221, -0.01659909263253212, -0.28723791241645813, -0.09963550418615341, 0.17041584849357605, 0.16028472781181335, 0.1292216181755066, 0.02636208012700081, 0.04908553883433342, 0.018192710354924202, 0.10265220701694489, 0.18087081611156464, 0.11101236939430237, -0.18844977021217346, 0.08077674359083176, 0.04840148240327835, 0.01667730137705803, 0.025258217006921768, -0.14006087183952332, 0.04548520967364311, 0.07247822731733322, -0.04005042836070061, -0.014296566136181355, 0.00986743625253439, 0.006947274319827557, -0.11795344948768616, -0.04156189039349556, 0.13382965326309204, 0.15819956362247467, -0.03396633267402649, 0.06584062427282333, -0.0015195704763755202, 0.025285962969064713, -0.15497197210788727, 0.0817432701587677, -0.054963771253824234, -0.015265598893165588, -0.03402591124176979, -0.1584211140871048, 0.0008194003603421152, 0.20515954494476318, -0.04356582090258598, -0.13957913219928741, 0.0375337079167366, -0.02213251404464245, -0.17063680291175842, 0.14040111005306244, -0.18380187451839447, -0.19548344612121582, -0.0655999556183815, -0.07986872643232346, 0.04719329625368118, -0.05440599098801613, 0.17357835173606873, -0.04893652722239494, -0.12660665810108185, -0.02135424315929413, -0.2917388379573822, 0.3050881028175354, 0.12196817249059677, 0.3016541600227356, 0.010758182033896446, -0.148471862077713, -0.03914822265505791, 0.058931559324264526, 0.015848210081458092, -0.26803094148635864, 0.009756113402545452, -0.19115635752677917, -0.21661987900733948, 0.09951108694076538, -0.06120605766773224, 0.1946815401315689, -0.001335046486929059, -0.007510530296713114, -0.19400431215763092, 0.06519727408885956, 0.007922438904643059, 0.21973015367984772, 0.09074170887470245, 0.04500651732087135, -0.1539960503578186, 0.15212318301200867, -0.09538652747869492, 0.02742660604417324, -0.005301207769662142, -0.12620320916175842, -0.07674921303987503, -0.02557024545967579, -0.11236575245857239, -0.25784626603126526, 0.15968018770217896, -0.06397836655378342, -0.04970794916152954, 0.1410197913646698, 0.03054692968726158, -0.15451525151729584, 0.011193315498530865, -0.07967521250247955, -0.14124290645122528, 0.13428895175457, -0.06397956609725952, 0.29655516147613525, -0.1846930831670761, 0.252001017332077, -0.7007765173912048, -0.05284712091088295, -0.2454375922679901, 0.4136951267719269, 0.31287580728530884, 0.4406716525554657, -0.45725345611572266, -0.1001366451382637, 0.2859332859516144, -0.48688018321990967, -0.15728138387203217, 0.32257553935050964, -0.5084901452064514, -0.25776201486587524, -0.27496999502182007, 0.497293084859848, 0.14795370399951935, 0.39424803853034973, -0.4635283350944519, -0.22558024525642395, -0.35410046577453613, 0.6214527487754822, 0.20333987474441528, 0.40786439180374146, -0.5805060863494873, -0.15386278927326202, -0.4714922308921814, 0.4603297710418701, 0.14175383746623993, 0.5061807632446289, -0.5785101056098938, -0.20624594390392303, 0.3003220856189728, -0.38912343978881836, -0.06403693556785583, 0.26410242915153503, -0.6621264815330505, -0.32763320207595825, 0.37183621525764465, -0.5829672813415527, -0.3138318657875061, 0.3182540833950043, -0.5229340195655823, -0.2921307384967804, -0.3393879234790802, 0.6015249490737915, 0.14158695936203003, 0.24159014225006104, -0.07341945916414261, 0.47263196110725403, -0.2054264396429062, 0.10158487409353256, -0.36740168929100037, 0.08624165505170822, -0.2817785143852234, 0.656114935874939, 0.12944374978542328, -0.11215715855360031, 0.49247515201568604, 0.1864408701658249, -0.1929841786623001, 0.6023722887039185, -0.22106219828128815, -0.0023165815509855747, -0.6084926724433899, 0.2120654582977295, -0.06310336291790009, 0.44850459694862366, -0.08368997275829315, 0.1108478382229805, -0.5311988592147827, 0.33530309796333313, -0.07528200000524521, 0.64006507396698, -0.14278572797775269, 0.10181429237127304, -0.6153168678283691, 0.21859309077262878, -0.026418112218379974, 0.4728783965110779, 0.1003938689827919, -0.07914947718381882, 0.667023777961731, 0.17436809837818146, -0.26787126064300537, 0.3776340186595917, 0.2558663487434387, -0.16032692790031433, 0.4395674467086792, 0.24785377085208893, -0.0950891301035881, 0.6272799372673035, -0.1270333230495453, 0.16085007786750793, -0.7093032002449036, -0.1895478516817093, 0.17324452102184296, 0.10614013671875, 0.12365676462650299, -0.12826277315616608, 0.13078270852565765, 0.07332465797662735, 0.12548792362213135, -0.1288812756538391, -0.11652472615242004, -0.10205753147602081, 0.1325162798166275, -0.1276845932006836, -0.06433787941932678, 0.0762643963098526, -0.004015731159597635, -0.07383671402931213, -0.014251768589019775, -0.0656057819724083, -0.0814431756734848, 0.1530146300792694, -0.0014977882383391261, 0.05393178015947342, 0.12976710498332977, 0.023023277521133423, 0.038857005536556244, 0.1380537897348404, 0.07428308576345444, -0.07487361133098602, 0.1312696933746338, -0.024349568411707878, -0.13611389696598053, -0.035318613052368164, -0.15024060010910034, 0.13800133764743805, -0.013565974310040474, -0.19356684386730194, -0.011661660857498646, 0.08655176311731339, -0.0227938462048769, 0.04587206244468689, 0.011864409781992435, -0.007995765656232834, -0.035219889134168625, -0.05991244316101074, -0.07637190073728561, -0.1362532079219818, 0.03903558850288391, -0.012115024030208588, 0.1182953491806984, -0.10788226872682571, -0.06220124661922455, -0.2004024088382721, 0.24634627997875214, -0.003130231751129031, 0.23185205459594727, -0.2146642804145813, 0.04449800029397011, 0.18876458704471588, -0.1572272926568985, 0.19650883972644806, 0.004939761944115162, -0.23620866239070892, -0.14699992537498474, -0.08095560222864151, 0.24874766170978546, 0.005391033366322517, 0.12605871260166168, -0.19570963084697723, -0.11035142093896866, -0.005446090362966061, -0.01203029416501522, 0.08625758439302444, 0.22682105004787445, -0.14470595121383667, 0.03615017980337143, -0.147329181432724, 0.22950971126556396, -0.060714688152074814, 0.08661101758480072, -0.13639573752880096, 0.12125811725854874, 0.15363161265850067, -0.008867464028298855, 0.05592814087867737, 0.10784806311130524, 0.0004813583509530872, 0.03846820443868637, 0.23781292140483856, -0.19869323074817657, 0.05953472480177879, 0.09921491891145706, -0.0445748046040535, 0.020264949649572372, -0.12476791441440582, 0.04104376956820488, -0.11030779033899307, -0.008521546609699726, 0.17084810137748718, 0.07468661665916443, 0.15324316918849945, 0.03869228437542915, -0.15732474625110626, -0.19995662569999695, 0.19447070360183716, -0.2741270959377289, -0.02987123653292656, 0.11476866900920868, -0.2322748601436615, -0.004603158216923475, -0.02376239374279976, 0.20404231548309326, -0.0362553745508194, -0.12080635130405426, -0.14139199256896973, 0.10412196815013885, 0.07776685059070587, 0.2604677975177765, 0.04564203321933746, -0.16268225014209747, -0.28471067547798157, -0.1700299084186554, 0.2573661208152771, 0.12861792743206024, 0.059352289885282516, -0.06642031669616699, -0.07001331448554993, 0.06426259875297546, 0.22116771340370178, -0.2681858539581299, -0.06965997815132141, 0.02783426083624363, -0.2501867413520813, -0.03242809697985649, 0.22648540139198303, -0.2830345034599304, 0.024584610015153885, 0.020740702748298645, -0.19286008179187775, 0.05649334564805031, 0.06732652336359024, 0.18959951400756836, -0.061173491179943085, -0.004000306129455566, 0.0400039367377758, -0.46393370628356934, 0.2626373767852783, -0.13427089154720306, 0.2131929099559784, -0.14369377493858337, 0.13668283820152283, -0.3664587438106537, 0.20437197387218475, 0.14209960401058197, -0.2238338142633438, 0.06067904084920883, 0.00817479845136404, -0.37696728110313416, 0.035745520144701004, -0.02009086310863495, 0.4216700792312622, -0.03769825026392937, 0.045157793909311295, -0.2450602948665619, 0.14811407029628754, 0.08810722082853317, 0.26330262422561646, -0.23766860365867615, 0.053371429443359375, -0.22193647921085358, 0.03001951240003109, 0.10425909608602524, 0.3706439435482025, -0.248720183968544, -0.004905165173113346, -0.19307014346122742, 0.04146185144782066, -0.01258801482617855, -0.25918638706207275, 0.031219063326716423, 0.10548224300146103, -0.2540064752101898, 0.2280520349740982, -0.06593487411737442, -0.18355831503868103, 0.054101813584566116, 0.17229808866977692, -0.4657045006752014, 0.016977107152342796, 0.027416817843914032, 0.3713909685611725, -0.19707591831684113, -0.034789953380823135, 0.00015900378639344126, -0.0790010541677475, -0.1444193720817566, -0.37100183963775635, -0.0758214071393013, 0.029295973479747772, -0.060874126851558685, 0.10621427744626999, 0.08670537173748016, -0.4045165777206421, 0.16305232048034668, -0.05145656690001488, -0.005452609620988369, 0.02328265644609928, -0.17367693781852722, 0.638411819934845, -0.46898525953292847, 0.9364977478981018, -0.6780198216438293, -0.1615985929965973, 1.1160672903060913, 0.9097263813018799, -0.6326040029525757, 0.12239409238100052, 0.08404555171728134, -0.2415284961462021, -0.8467785716056824, 0.2821125388145447, -0.6085785627365112, 0.08121445775032043, 0.30867552757263184, -0.34340816736221313, 0.25206121802330017, -0.19537529349327087, 0.12650838494300842, 0.5017153024673462, -0.31872233748435974, -0.011907849460840225, 0.0006562208873219788, -0.05706716328859329, -0.08849114924669266, 0.3957020044326782, 0.0923810601234436, -0.038045670837163925, 0.10292277485132217, 0.037218037992715836, -0.05715293064713478, 0.0024058755952864885, -0.3222281038761139, -0.29247477650642395, 0.061317287385463715, -0.2560587525367737, -0.09591584652662277, -0.06159890815615654, 0.17986762523651123, -0.04317227751016617, 0.1845601350069046, -0.4854655861854553, 0.03335918113589287, 0.168723002076149, -0.16072990000247955, 0.22564396262168884, 0.008399306796491146, 0.19110703468322754, 0.13394232094287872, -0.16418491303920746, 0.24203218519687653, -0.2776833176612854, -0.3076143264770508, -0.09961966425180435, -0.3175743520259857, -0.008861956186592579, -0.2834106981754303, 0.12741808593273163, -0.1690683513879776, 0.07525225728750229, 0.3311586380004883, -0.06338268518447876, -0.21615077555179596, -0.0013056499883532524, -0.19898812472820282, -0.01803915947675705, -0.1726347655057907, -0.26098987460136414, 0.12153258174657822, 0.02031232789158821, -0.02748112566769123, -0.13375544548034668, 0.06542589515447617, -0.653312623500824, -0.15220624208450317, 0.17857153713703156, 0.18012292683124542, -0.14665643870830536, -0.20019696652889252, 0.15463565289974213, 0.029538452625274658, -0.3845004439353943, 0.152170792222023, 0.2719362676143646, -0.10188771784305573, 0.13836653530597687, -0.09135957807302475, 0.1243637204170227, 0.23630408942699432, -0.13813023269176483, 0.20371612906455994, -0.13807833194732666, 0.13108955323696136, -0.11617493629455566, 0.1536298245191574, -0.02233709581196308, -0.14997628331184387, 0.13301484286785126, -0.04283072054386139, 0.31351375579833984, 0.25383681058883667, 0.2962375283241272, 0.2996480166912079, 0.22562138736248016, 0.06719504296779633, -0.18451106548309326, 0.16036979854106903, 0.03246975690126419, -0.21857067942619324, 0.32729920744895935, 0.18294748663902283, -0.08659724146127701, 0.2106040120124817, 0.09742278605699539, 0.3616396486759186, -0.5718868970870972, -0.32459715008735657, -0.036615774035453796, -0.28149980306625366, -0.08600488305091858, -0.47795599699020386, -0.5670979022979736, 0.2561141848564148, 0.13296657800674438, -0.005149195436388254, -0.21916130185127258, -0.47610005736351013, 0.3502490520477295, 0.024932803586125374, 0.27506497502326965, -0.20622117817401886, -0.08366396278142929, 0.25480079650878906, 0.2797986567020416, 0.08019008487462997, 0.13531282544136047, -0.20117908716201782, 0.2448824942111969, -0.2604539394378662, 0.06190863624215126, -0.1299169361591339, -0.09442310035228729, 0.13416419923305511, -0.2099194973707199, -0.2332748919725418, -0.22354725003242493, -0.2145821452140808, 0.06597798317670822, -0.15767303109169006, -0.2963494062423706, 0.022547384724020958, -0.22221645712852478, -0.26513442397117615, 0.20653490722179413, 0.1754811853170395, 0.10386346280574799, -0.07275142520666122, 0.18803007900714874, -0.06986035406589508, -0.2679694592952728, 0.08676856011152267, 0.22403398156166077, -0.24422144889831543, -0.24453216791152954, 0.0010845629731193185, 0.26424920558929443, -0.09542691707611084, 0.0874946117401123, 0.24060752987861633, 0.2563183009624481, 0.24897019565105438, 0.16648739576339722, 0.1561717540025711, -0.08886297792196274, 0.08718562871217728, -0.021165551617741585, 0.22830653190612793, -0.31497371196746826, 0.2183586061000824, -0.13792678713798523, -0.32864120602607727, -0.06391605734825134, -0.2309545874595642, -0.03663615509867668, -0.25601401925086975, -0.17580434679985046, -0.037233054637908936, -0.06145256757736206, 0.26247715950012207, -0.095677949488163, 0.03436506539583206, 0.09915575385093689, -0.09359847754240036, -0.022312872111797333, 0.22265809774398804, -0.20294001698493958, -0.190643772482872, -0.29992249608039856, -0.2538965046405792, -0.20083236694335938, -0.4678758382797241, -0.5236029028892517, -0.3448593020439148, -0.07973398268222809, 0.34051087498664856, -0.3865128755569458, -0.5376713871955872, -0.1178804412484169, 0.021622495725750923, -0.06707630306482315, -0.19153617322444916, 0.3257542848587036, -0.42070841789245605, 0.17200171947479248, 0.45032110810279846, 0.3215901851654053, 0.18752554059028625, 0.335795134305954, 0.5180730819702148, 0.023952564224600792, -0.30475109815597534, 0.14070063829421997, 0.31541934609413147, -0.4781992435455322, -0.027187177911400795, -0.2595387101173401, 0.10853080451488495, 0.01783793792128563, -0.06568698585033417, 0.18280869722366333, -0.035259805619716644, -0.060421302914619446, -0.08873958140611649, 0.130218505859375, 0.24284864962100983, -0.23789983987808228, 0.02933625876903534, -0.35916247963905334, 0.15381097793579102, -0.30607110261917114, 0.30517053604125977, -0.04634520038962364, -0.2056891918182373, 0.24405062198638916, -0.08694141358137131, 0.2406487762928009, 0.19366349279880524, -0.14821811020374298, 0.18010906875133514, 0.39018431305885315, 0.14942167699337006, 0.15693898499011993, 0.08479926735162735, -0.15458981692790985, 0.10543829202651978, 0.28806912899017334, 0.024197284132242203, 0.3231324255466461, -0.07872378081083298, -0.29231634736061096, 0.37742429971694946, 0.14505557715892792, 0.20695160329341888, -0.0894385352730751, -0.12420260906219482, -0.36491286754608154, -0.3746279776096344, 0.16743409633636475, 0.1256173849105835, 0.13701042532920837, -0.03149757906794548, 0.31894785165786743, -0.26809579133987427, 0.2901812791824341, -0.35837510228157043, -0.06650830805301666, 0.0004845808434765786, -0.01088621560484171, 0.13166840374469757, 0.03515489399433136, -0.10625967383384705, 0.00678755808621645, -0.1274033933877945, 0.20173028111457825, 0.12829647958278656, 0.1722416877746582, -0.1738881915807724, -0.09034167230129242, -0.008504757657647133, -0.3879164755344391, 0.030501993373036385, -0.15583369135856628, 0.5579367280006409, -0.20255033671855927, -0.12798407673835754, 0.1216069757938385, -0.1483752578496933, -0.05143972858786583, 0.22585004568099976, -0.010191797278821468, -0.10709895938634872, 0.2505793273448944, 0.2580791413784027, -0.022722482681274414, -0.10878074169158936, -0.14851686358451843, -0.21055585145950317, 0.29406508803367615, 0.1354966163635254, -0.032881446182727814, -0.3666606843471527, -0.18067382276058197, -0.04523136094212532, 0.07825633138418198, 6.733380723744631e-05, 0.20048943161964417, -0.17645037174224854, -0.26590365171432495, -0.10345405340194702, 0.23267234861850739, -0.23066942393779755, -0.20006538927555084, 0.27575579285621643, -0.27553725242614746, 0.27286502718925476, -0.12366648763418198, -0.18874065577983856, 0.028147608041763306, -0.0773920789361, -0.26039600372314453, 0.20139259099960327, -0.22223317623138428, 0.3300190269947052, -0.04926051199436188, -0.022684888914227486, 0.055564552545547485, 0.4952370226383209, 0.1519785374403, -0.1511877328157425, -0.2521347403526306, 0.14174284040927887, -0.06451035290956497, -0.05517933890223503, 0.2125440239906311, -0.20722901821136475, -0.10094508528709412, -0.12015021592378616, 0.04289757460355759, -0.24728666245937347, -0.049940790981054306, -0.10153059661388397, -0.0741521418094635, -0.10425073653459549, 0.10578953474760056, -0.24677874147891998, 0.05455261841416359, 0.10683631896972656, -0.08808881044387817, 0.05095100402832031, 0.01435774564743042, 0.17010824382305145, -0.09803961217403412, 0.14460527896881104, 0.06436071544885635, -0.2484617829322815, 0.0864776000380516, 0.08764401078224182, 0.12032274901866913, -0.14213210344314575, -0.13908860087394714, 0.2585618793964386, 0.10622678697109222, 0.5336904525756836, -0.06717149913311005, 0.13275793194770813, 0.21816468238830566, 0.048168621957302094, -0.0813705176115036, 0.2681494355201721, -0.18585559725761414, -0.0812234878540039, -0.06743911653757095, -0.023806240409612656, -0.033737845718860626, -0.1885468065738678, 0.2624189853668213, 0.03286976367235184, 0.4273838400840759, -0.3774435222148895, -0.09853003174066544, 0.05652492865920067, 0.0625842809677124, 0.10121038556098938, 0.17044879496097565, -0.1562478393316269, 0.09896524995565414, 0.1807471215724945, 0.16282716393470764, 0.009677832946181297, 0.06778236478567123, 0.08708221465349197, 0.13048385083675385, -0.049662090837955475, -0.1173786148428917, -0.014214366674423218, -0.32778099179267883, 0.1446455419063568, -0.1264350563287735, 0.06342492997646332, -0.027942245826125145, 0.0544692687690258, -0.047185540199279785, -0.08532251417636871, -0.20395232737064362, -0.07360371202230453, 0.05256044864654541, 0.07120568305253983, 0.01525447890162468, 0.006126092281192541, -0.024051880463957787, 0.10293496400117874, 0.10511452704668045, -0.019068190827965736, 0.11497894674539566, 0.16992872953414917, -0.036269161850214005, 0.23505808413028717, 0.34219714999198914, -0.016443032771348953, -0.0455353818833828, -0.0394512303173542, -0.0737662985920906, -0.4426848888397217, 0.19159971177577972, 0.08330733329057693, 0.20799079537391663, -0.10383089631795883, 0.334651380777359, -0.17590324580669403, -0.43141400814056396, 0.26616448163986206, 0.09606262296438217, -0.32155317068099976, 0.04551337659358978, -0.07769625633955002, -0.05518350377678871, -0.3860176205635071, 0.10694082826375961, 0.3308074176311493, 0.29403406381607056, 0.13495108485221863, -0.2916569709777832, -0.40631768107414246, 0.21881285309791565, 0.3504922091960907, 0.431328684091568, -0.5774396657943726, 0.09469504654407501, -0.03235127404332161, -0.1411174088716507, 0.22902320325374603, 0.3851618766784668, -0.16605356335639954, -0.333430677652359, 0.3606026768684387, 0.08667637407779694, -0.23515217006206512, 0.17803813517093658, -0.7894736528396606, 0.18664011359214783, 0.2343464344739914, -0.3516511023044586, -0.2841399610042572, 0.1319345086812973, -0.4778733253479004, 0.24391254782676697, -0.2847388982772827, 0.3028377294540405, 0.24568530917167664, -0.26989397406578064, -0.09491008520126343, 0.05504550412297249, 0.19696299731731415, 0.22517597675323486, -0.11812764406204224, -0.041493337601423264, 0.06887947022914886, -0.14677461981773376, -0.0377468466758728, 0.15893517434597015, 0.06793540716171265, 0.041340671479701996, 0.15215472877025604, -0.02898663468658924, -0.13945268094539642, 0.09800862520933151, 0.07287295907735825, 0.16750138998031616, -0.04883931949734688, -0.16534361243247986, -0.006730346009135246, 0.033150818198919296, 0.17765016853809357, 0.04711056873202324, 0.11975071579217911, 0.005590123124420643, -0.07153134793043137, -0.11887278407812119, 0.017109956592321396, 0.11373309046030045, -0.07540340721607208, -0.1872330904006958, -0.08047139644622803, 0.0800749659538269, -0.09369851648807526, -0.18936942517757416, -0.313514769077301, 0.198805570602417, 0.0377262681722641, 0.060959331691265106, 0.05201411992311478, -0.11190108209848404, -0.09622467309236526, -0.03343333303928375, 0.09496017545461655, -0.10814221948385239, -0.16629672050476074, -0.15164795517921448, 0.045462146401405334, -0.2748264670372009, -0.04776962846517563, -0.09725500643253326, 0.40313011407852173, -0.16399826109409332, -0.10301967710256577, 0.13289640843868256, -0.02126152068376541, 0.023839905858039856, 0.2350751757621765, -0.10792973637580872, -0.05310449376702309, 0.057753026485443115, 0.2082393765449524, -0.0623108446598053, -0.19815051555633545, 0.019129369407892227, -0.2809257507324219, 0.07806389778852463, 0.19913794100284576, -0.08795825392007828, 0.0012550271349027753, 0.20922888815402985, 0.2529786229133606, 0.13489443063735962, 0.2059309482574463, 0.026179879903793335, -0.22909574210643768, -0.01439454685896635, 0.03926127776503563, 0.278429239988327, 0.060305237770080566, -0.1515873819589615, 0.2652062773704529, -0.08954553306102753, 0.10584069043397903, 0.05906403809785843, -0.11356381326913834, -0.13794606924057007, 0.07418853789567947, -0.24668167531490326, 0.206538125872612, -0.38112062215805054, 0.13578137755393982, 0.01378135196864605, 0.2122955173254013, -0.20572587847709656, -0.12822295725345612, -0.17733098566532135, 0.21251608431339264, 0.24493230879306793, 0.19641125202178955, -0.07151097804307938, -0.17197461426258087, 0.03439900651574135, 0.2127194106578827, -0.0050323945470154285, 0.10848445445299149, -0.07806858420372009, 0.16548579931259155, 0.22140376269817352, 0.10194491595029831, 0.10870444774627686, 0.2166249305009842, 0.18502748012542725, -0.061079755425453186, 0.09087380021810532, -0.055408019572496414, 0.17902253568172455, -0.0617184042930603, -0.08885464072227478, -0.21675027906894684, -0.24277180433273315, 0.18310342729091644, 0.2007225900888443, 0.08880491554737091, 0.09149892628192902, -0.15293681621551514, 0.00662354938685894, 0.060916997492313385, 0.03753485903143883, 0.010385875590145588, -0.15904824435710907, -0.08937479555606842, 0.114747554063797, -0.19338160753250122, -0.05307968705892563, -0.19374333322048187, -0.2897768020629883, -0.051968764513731, 0.02140720747411251, 0.0870518907904625, 0.03968267887830734, -0.06866569817066193, -0.5777457356452942, 0.45388826727867126, -0.5372461676597595, 0.7492105960845947, -0.3218604624271393, 0.5221136808395386, -0.015614986419677734, -0.07655175030231476, 0.06250803172588348, 0.06701358407735825, -0.3177938759326935, -0.016593798995018005, 0.005555202253162861, -0.14795227348804474, -0.25690990686416626, 0.04700613021850586, 0.07652120292186737, 0.06944237649440765, 0.24472357332706451, -0.17090731859207153, 0.07176808267831802, -0.02404945157468319, -0.04865412414073944, 0.21368375420570374, 0.12490937858819962, 0.10623611509799957, -0.15434622764587402, 0.0635182112455368, 0.19341112673282623, -0.05628212168812752, 0.19948355853557587, -0.17403078079223633, -0.10699126124382019, 0.204159677028656, -0.3193243443965912, 0.11041188985109329, -0.49905309081077576, 0.3444482386112213, -0.6604840159416199, -0.14133428037166595, 0.0647360235452652, -0.2932129204273224, -0.38078609108924866, 0.44765517115592957, -0.6136993765830994, 0.2003498673439026, -0.1512143611907959, 0.5263440012931824, 0.3283095955848694, 0.1100725531578064, 0.045277487486600876, -0.2693431079387665, 0.025003565475344658, -0.37585294246673584, 0.17912323772907257, 0.1429799348115921, 0.19189609587192535, 0.04512573778629303, 0.10173218697309494, -0.15417321026325226, 0.04078241065144539, 0.09108886122703552, -0.11363156884908676, -0.1587696224451065, -0.0018178224563598633, -0.07828588783740997, 0.007730065379291773, 0.13116545975208282, -0.01757768914103508, -0.11003132909536362, -0.17947155237197876, 0.1885414719581604, -0.014535686932504177, 0.06755854189395905, -0.12123895436525345, -0.02495652064681053, 0.006489800754934549, -0.15615367889404297, 0.07021060585975647, 0.030099667608737946, -0.05277928337454796, -0.04202830418944359, 0.185310959815979, 0.09420415014028549, -0.03350229561328888, -0.08522114902734756, -0.038885895162820816, -0.04773697257041931, -0.11057596653699875, -0.21536773443222046, 0.17244818806648254, -0.29565486311912537, 0.016526049003005028, -0.14075665175914764, -0.020973024889826775, -0.05777747184038162, 0.2850704491138458, 0.17032797634601593, 0.04831104725599289, -0.3773118257522583, -0.02662470191717148, 0.014960963279008865, -0.03858039528131485, 0.03159697353839874, 0.0076184868812561035, -0.08370341360569, 0.06743823736906052, -0.04461214691400528, 0.10521777719259262, -0.16257303953170776, -0.10636667907238007, -0.14136600494384766, -0.060985371470451355, 0.02392931468784809, 0.0554756261408329, -0.14195239543914795, 0.07150154560804367, -0.1509028822183609, 0.09958970546722412, 0.11360334604978561, 0.03372661769390106, 0.16687509417533875, 0.20010896027088165, -0.1822114884853363, -0.13630445301532745, 0.015121379867196083, -0.03731904551386833, 0.01027272455394268, 0.14075472950935364, -0.008009699173271656, -0.1526770144701004, -0.04697831720113754, 0.06935214251279831, 0.09031429886817932, -0.011537916958332062, -0.023017585277557373, 0.002375606680288911, 0.030479982495307922, 0.18568821251392365, -0.06301500648260117, 0.16300725936889648, -0.12712235748767853, 0.017614351585507393, -0.080332450568676, 0.004850775934755802, 0.25730693340301514, 0.007554724812507629, 0.044221051037311554, 0.13111288845539093, -0.4279674291610718, -0.014185486361384392, 0.09477107226848602, 0.25576868653297424, -0.193130761384964, -0.0010339916916564107, -0.06614553928375244, -0.05634543299674988, 0.06081229820847511, -0.18498258292675018, 0.23141397535800934, 0.02464398741722107, -0.17443546652793884, -0.12286756187677383, 0.10800697654485703, 0.262019544839859, -0.0243410412222147, -0.1792735755443573, 0.020186157897114754, 0.02450070157647133, 0.5502058267593384, -0.01049060095101595, -0.11457743495702744, -0.19072021543979645, -0.054751135408878326, 0.09456296265125275, 0.15074682235717773, 0.13489356637001038, 0.03437184914946556, 0.04816921055316925, 0.10026264935731888, 0.35624679923057556, 0.712000846862793, 0.09607172012329102, 0.0697512999176979, 0.21312449872493744, 0.17160020768642426, 0.2115490436553955, 0.382218599319458, 0.11586152762174606, 0.1034519299864769, -0.5038573145866394, -0.06486872583627701, 0.13472840189933777, 0.21963080763816833, -0.030076991766691208, -0.18169115483760834, -0.20703013241291046, -0.21567164361476898, -0.041148845106363297, 0.30794757604599, 0.30018898844718933, -0.058126386255025864, -0.05164405331015587, -0.13540710508823395, -0.018237588927149773, -0.10405132174491882, -0.3920159339904785, 0.07028872519731522, 0.04213083162903786, -0.14638842642307281, -0.04238482937216759, -0.046371329575777054, 0.2282799333333969, 0.2252180576324463, 0.0635208934545517, 0.08832018822431564, 0.05076051875948906, 0.26741841435432434, -0.35354727506637573, -0.2749500572681427, -0.01779625006020069, -0.096434086561203, -0.08525950461626053, 0.14157436788082123, 0.09122574329376221, -0.17687469720840454, 0.02746153250336647, 0.15300029516220093, -0.14530938863754272, 0.4150881767272949, -0.26314353942871094, 0.23941658437252045, 0.2600136399269104, -0.02769894152879715, 0.048802684992551804, 0.23768460750579834, -0.11835005134344101, -0.038047343492507935, -0.19377432763576508, 0.17590880393981934, 0.11553191393613815, 0.06588101387023926, -0.001661147689446807, -0.1720069795846939, -0.09353285282850266, -0.17621487379074097, 0.13207997381687164, 0.1457211822271347, -0.062490951269865036, 0.047104593366384506, 0.05929147079586983, -0.05062909051775932, 0.1614503115415573, -0.11070868372917175, -0.16968898475170135, -0.12592901289463043, -0.24615578353405, 0.1057802215218544, -0.10481002181768417, -0.1132093220949173, -0.10431049764156342, -0.1810939610004425, -0.012161791324615479, 0.0449674092233181, -0.021078133955597878, 0.16539566218852997, 0.15279486775398254, -0.1223248615860939, -0.02525431476533413, -0.04634202644228935, 0.13320410251617432, 0.11988651007413864, 0.003039464121684432, 0.19262473285198212, -0.05579390004277229, -0.05612679570913315, -0.06926298141479492, -0.4339580833911896, -0.02232237160205841, -0.04403173550963402, -0.12045326828956604, -0.13353516161441803, 0.21039645373821259, -0.17123055458068848, 0.1879124939441681, 0.008057702332735062, 0.1954348385334015, -0.03955397009849548, 0.1123075932264328, -0.40150752663612366, 0.1987033188343048, -0.28284284472465515, 0.43559572100639343, -0.04990628734230995, -0.011314274743199348, -0.13659203052520752, 0.1696203052997589, -0.23256580531597137, 0.14614947140216827, 0.08301959931850433, -0.15855899453163147, -0.05825243890285492, 0.15014249086380005, 0.010117863304913044, 0.03205866739153862, -0.24865679442882538, -0.13708804547786713, 0.10447569191455841, 0.20440270006656647, 0.26758185029029846, -0.028741618618369102, -0.12518298625946045, -0.13614590466022491, -0.05482376739382744, 0.28460627794265747, 0.2121434062719345, -0.10380799323320389, 0.07747616618871689, -0.07013694941997528, 0.08575861155986786, 0.14656558632850647, -0.17606860399246216, 0.12010344117879868, 0.1238110363483429, -0.20823732018470764, 0.009820085018873215, 0.1705179512500763, 0.06925853341817856, 0.0455642007291317, -0.08721514791250229, 0.12569840252399445, -0.284013032913208, -0.05746142566204071, -0.04504996910691261, 0.09297638386487961, 0.08582291752099991, -0.0741054117679596, 0.06821849942207336, -0.66739422082901, -0.264808714389801, -0.3597705364227295, 0.6483482718467712, -0.2532668709754944, -0.15465882420539856, -0.13393224775791168, 0.014458542689681053, -0.1622527688741684, 0.25340554118156433, 0.1337996870279312, 0.08516178280115128, 0.2635759711265564, 0.23220431804656982, 0.08102705329656601, 0.029963959008455276, -0.08522210270166397, -0.15114669501781464, 0.1527562141418457, 0.01935066282749176, 0.18748940527439117, -0.2692323327064514, 0.09698782861232758, -0.3694060742855072, 0.052683502435684204, 0.08618417382240295, 0.2989453971385956, 0.13094422221183777, -0.14624737203121185, -0.16677483916282654, 0.03695742413401604, -0.02869987115263939, -0.24553841352462769, 0.0037124918308109045, 0.18021062016487122, -0.021827856078743935, 0.0479179248213768, -0.07385195046663284, -0.13773953914642334, -0.09001277387142181, -0.17385375499725342, -0.05009148269891739, -0.5117729306221008, 0.2021184265613556, 0.02598804235458374, 0.0933539867401123, -0.16670070588588715, -0.41699934005737305, -0.5417333841323853, 0.37319913506507874, 0.43177545070648193, 0.033480823040008545, -0.12254799157381058, 0.19404444098472595, 0.22480857372283936, 0.08550140261650085, 0.3444352447986603, 0.041867077350616455, 0.007925916463136673, 0.03422741964459419, -0.02303461916744709, 0.08965516090393066, -0.3651884198188782, -0.34831157326698303, -0.05865172669291496, 0.2591084837913513, 0.04831652715802193, 0.03257913142442703, -0.24400417506694794, -0.17303526401519775, 0.361748605966568, -0.03859207034111023, -0.39708152413368225, -0.12846477329730988, -0.010108924470841885, 0.15640822052955627, -0.06870082020759583, 0.29674988985061646, 0.1315179020166397, -0.14922486245632172, 0.2550671696662903, 0.34688907861709595, 0.17554409801959991, -0.2396756112575531, -0.5259979367256165, -0.03639647364616394, 0.049215663224458694, -0.1556445062160492, 0.07255228608846664, -0.5841066241264343, -0.35235294699668884, 0.0359320268034935, 0.34407663345336914, 0.23659151792526245, 0.05456049367785454, 0.11380627006292343, -0.028145067393779755, 0.07156392186880112, -0.16929642856121063, 0.04316112771630287, 0.06753308326005936, 0.156977578997612, -0.06335355341434479, -0.028944307938218117, 0.1325630247592926, 0.31086045503616333, 0.055282190442085266, 0.03490341827273369, -0.03673090413212776, -0.07411421090364456, -0.5021061301231384, 0.4159426987171173, 0.2929086685180664, -0.30465707182884216, 0.19764310121536255, -0.9538152813911438, -0.3615482449531555, -0.12378083169460297, 0.8611745834350586, -1.0228039026260376, -0.5761333703994751, -0.9073053002357483, 0.10738032311201096, -0.7589756846427917, 0.1442715972661972, -0.7684966921806335, -0.12480903416872025, -0.2723570466041565, -0.21131889522075653, -0.0011146507458761334, 0.06174018234014511, -0.23216527700424194, -0.15603289008140564, -0.18601959943771362, -0.19708360731601715, -0.12348325550556183, 0.10435987263917923, 0.23815631866455078, -0.11112158000469208, 0.11818031966686249, 0.046245474368333817, -0.0829063430428505, 0.16002096235752106, -0.23655098676681519, -0.049659594893455505, -0.18364165723323822, -0.05522724613547325, 0.14350198209285736, 0.04185933247208595, -0.10315369814634323, 0.15217667818069458, -0.39725252985954285, 0.0594279021024704, 0.2674356698989868, 0.17567741870880127, 0.08427497744560242, 0.24864231050014496, 0.21404817700386047, 0.04670838639140129, -0.13427892327308655, -0.01991579495370388, -0.048984214663505554, 0.17351162433624268, 0.2078043818473816, 0.026527229696512222, -0.06680048257112503, 0.0012665953254327178, -0.18862256407737732, -0.27198266983032227, -0.22057490050792694, 0.15987804532051086, 0.09672484546899796, 0.16817431151866913, 0.04884492978453636, 0.26690638065338135, -0.09519972652196884, -0.11134613305330276, -0.27846869826316833, -0.119683176279068, -0.12538625299930573, 0.09416083991527557, 0.030400825664401054, -0.10787433385848999, 0.15483376383781433, 0.09080623090267181, 0.3694968521595001, 0.19604836404323578, -0.2583393454551697, 0.0878182053565979, -0.014339141547679901, -0.11024104058742523, 0.18456973135471344, 0.012685545720160007, -0.08708052337169647, 0.1035015732049942, -0.08478883653879166, -0.47460058331489563, 0.1312970668077469, 0.16188371181488037, 0.14146015048027039, -0.1253032684326172, 0.22772544622421265, 0.09451619535684586, -0.007650601677596569, -0.12171739339828491, -0.24022182822227478, -0.39834922552108765, 0.12184742838144302, -0.08561567217111588, 0.04371019825339317, 0.052816957235336304, -0.005003445781767368, 0.11485432088375092, -0.1632690280675888, 0.22943580150604248, 0.09857427328824997, -0.08592081069946289, -0.3485073447227478, -0.2566547691822052, -0.0076847500167787075, -0.06562069058418274, 0.08719422668218613, 0.29842594265937805, -0.10802282392978668, 0.18755055963993073, -0.41196879744529724, 0.23976926505565643, 0.23853875696659088, -0.0787791907787323, -0.11358232796192169, 0.014896747656166553, 0.011768265627324581, -0.18915408849716187, 0.09600885957479477, -0.0030081658624112606, -0.05710649862885475, 0.020649848505854607, 0.1368202269077301, 0.19565705955028534, 0.28181472420692444, -0.20913353562355042, 0.1713477224111557, 0.07306227833032608, 0.06491901725530624, -0.004145590588450432, 0.08940040320158005, -0.11360093951225281, 0.4100857377052307, -0.345975786447525, -0.042304519563913345, -0.13544104993343353, 0.03373981639742851, 0.24749064445495605, 0.0734764039516449, 0.10928256809711456, -0.06359729915857315, -0.10511951893568039, -0.22952930629253387, -0.0385817289352417, -0.07389139384031296, 0.11653824150562286, -0.10388629883527756, 0.016660284250974655, -0.044216807931661606, 0.2552085220813751, -0.010904820635914803, -0.14335772395133972, 0.09104932844638824, -0.0014233379624783993, 0.17618298530578613, -0.17856943607330322, 0.1602180153131485, 0.09211994707584381, 0.3388577997684479, 0.13506247103214264, -0.05224507302045822, 0.20145481824874878, 0.1752796471118927, -0.043067559599876404, -0.12234031409025192, 0.10764766484498978, 0.1272398680448532, -0.04918791353702545, -0.10565073788166046, 0.058287110179662704, -0.0998387485742569, -0.06537164747714996, -0.18119265139102936, -0.024365868419408798, 0.1336136907339096, 0.09476473182439804, -0.16768038272857666, 0.08685430139303207, 0.06845632195472717, 0.11316417902708054, 0.11492031067609787, -0.2064737230539322, 0.16247445344924927, 0.08027387410402298, -0.1933555155992508, 0.12916810810565948, -0.07371785491704941, 0.22248494625091553, 0.13654020428657532, -0.43928247690200806, -0.21697914600372314, -0.23272134363651276, -0.14798760414123535, 0.02901878021657467, 0.06734397262334824, -0.20983929932117462, 0.12280372530221939, 0.17611834406852722, -0.004315623547881842, 0.1347315013408661, -0.10555308312177658, 0.19749481976032257, -0.12515941262245178, -0.4022872745990753, -0.10677133500576019, -0.08801766484975815, 0.5617778897285461, 0.019025243818759918, -0.10684000700712204, -0.10796703398227692, 0.03945346176624298, -0.037157781422138214, -0.08900678157806396, -0.21384191513061523, -0.3544001877307892, 0.13932166993618011, -0.26088300347328186, -0.08379510790109634, 0.011403130367398262, -0.14187650382518768, -0.09813268482685089, -0.10627251863479614, 0.4953564703464508, -0.2768545150756836, -0.020143285393714905, 0.11435237526893616, -0.05899721756577492, 0.16949108242988586, 0.32442760467529297, 0.1510481834411621, 0.026284005492925644, 0.18161842226982117, 0.10189827531576157, -0.0016024837968870997, -0.08501654118299484, 0.12300082296133041, 0.25203388929367065, -0.32242438197135925, -0.23178617656230927, -0.11988741904497147, -0.21316266059875488, -0.19951997697353363, 0.012343568727374077, 0.06189936399459839, 0.057212475687265396, -0.0782359316945076, 0.004720596130937338, 0.04091210290789604, 0.2036590576171875, 0.2597675621509552, 0.2749519944190979, 0.23135852813720703, -0.2820501923561096, -0.208348348736763, 0.059335023164749146, -0.07680818438529968, 0.028081826865673065, 0.15098963677883148, 0.03535470366477966, 0.350978285074234, -0.37618422508239746, 0.2165050059556961, 0.037380244582891464, 0.13047078251838684, 0.2409292608499527, -0.27859488129615784, -0.1299588978290558, -0.024355139583349228, 0.09411445260047913, 0.1482042670249939, -0.12941624224185944, -0.11074463278055191, 0.07169216871261597, 0.08937647938728333, 0.25296810269355774, -0.09068772941827774, -0.02566385827958584, 0.03161460906267166, -0.1678987443447113, 0.0951060950756073, -0.2857818305492401, -0.0293873380869627, -0.22591659426689148, -0.16278615593910217, -0.2586122155189514, -0.23923568427562714, -0.03291718661785126, -0.36765190958976746, 0.029922517016530037, -0.04143751040101051, -0.2163839340209961, -0.046177126467227936, 0.047427088022232056, -0.18265533447265625, 0.0524488165974617, 0.22028504312038422, 0.06126493215560913, -0.09423691779375076, 0.19240884482860565, 0.23342755436897278, -0.03191692754626274, -0.11988411098718643, -0.2188624143600464, 0.09875787049531937, -0.05110945180058479, 0.16477708518505096, -0.32807761430740356, -0.12051958590745926, -0.08570320904254913, 0.150693878531456, 0.05535032972693443, 0.21617284417152405, -0.16180787980556488, -0.09007498621940613, -0.08403031527996063, -0.056393127888441086, -0.12747693061828613, -0.0771089419722557, 0.013307697139680386, 0.061898473650217056, 0.18015150725841522, -0.11250458657741547, 0.002911842428147793, 0.06718865036964417, 0.07355494052171707, 0.04478319734334946, -0.1802036166191101, 0.10678672045469284, 0.5008686184883118, -0.10178640484809875, 0.264301061630249, 0.030072126537561417, -0.06480740010738373, 0.17059779167175293, 0.06207336112856865, 0.1551777422428131, -0.12204845994710922, -0.13182689249515533, -0.08597129583358765, -0.03495750576257706, 0.13964933156967163, 0.00841902382671833, -0.14570972323417664, 0.15803220868110657, -0.11507906019687653, 0.11672455072402954, -0.061874330043792725, -0.1444946527481079, -0.041886091232299805, 0.12362582236528397, -0.08979647606611252, 0.08223036676645279, 0.011022777296602726, 0.04087452590465546, 0.061721786856651306, -0.012624245136976242, -0.1599164754152298, -0.27563753724098206, 0.15668834745883942, 0.2207874208688736, 0.15458691120147705, 0.0864933654665947, -0.040253639221191406, -0.012244846671819687, 0.11662840098142624, -0.05049975588917732, -0.0979289561510086, -0.20821380615234375, -0.0440952405333519, -0.1257074475288391, -0.002174566499888897, -0.0886518582701683, -0.17307257652282715, 0.2352904975414276, -0.03620638698339462, -0.0891193225979805, -0.0024248945992439985, 0.1190277561545372, 0.3236324191093445, -0.003497057594358921, -0.07580079883337021, -0.05178206413984299, 0.1719207465648651, -0.11641272902488708, -0.04813893511891365, 0.001813320443034172, -0.45803388953208923, -0.26669859886169434, -0.14569008350372314, 0.13152074813842773, 0.24279896914958954, -0.1537734717130661, -0.022347040474414825, -0.08575083315372467, 0.34695541858673096, 0.03871305659413338, -0.07799016684293747, -0.17465732991695404, -0.03552072495222092, -0.031917449086904526, -0.11163065582513809, 0.027885491028428078, -0.16200587153434753, 0.08141322433948517, -0.06043177843093872, 0.0886356458067894, -0.056298453360795975, 0.2607460618019104, 0.07369545102119446, -0.27592113614082336, 0.11392314732074738, -0.022720664739608765, -0.2919301688671112, 0.16145187616348267, 0.06701481342315674, 0.18906362354755402, -0.08007799834012985, 0.044951654970645905, -0.1942884922027588, 0.2364855706691742, 0.33952760696411133, -0.04945117235183716, -0.17044343054294586, -0.07509062439203262, 0.1579505354166031, -0.05142425745725632, -0.010209000669419765, 0.014743941836059093, 0.09009598940610886, 0.2853606939315796, -0.0032243516761809587, 0.33428534865379333, 0.019887663424015045, 0.001157671445980668, 0.1507391333580017, 0.003920848947018385, 0.09432410448789597, -0.04356548935174942, -0.18690498173236847, -0.18052007257938385, -0.16033698618412018, -0.06379146128892899, -0.12145419418811798, -0.06145432963967323, -0.0006487949867732823, 0.25008848309516907, 0.12326952815055847, -0.0687066838145256, -0.1282554566860199, -0.15874896943569183, 0.12293872237205505, 0.07434245944023132, 0.25059500336647034, 0.046233758330345154, -0.006500728894025087, -0.11408882588148117, -0.1503373086452484, 0.14420457184314728, 0.12141155451536179, 0.03495144471526146, 0.10294032096862793, -0.3021506071090698, 0.009011548012495041, -0.055301498621702194, -0.015426580794155598, -0.08396396785974503, 0.27876171469688416, 0.15381397306919098, 0.11848510801792145, -0.14948733150959015, -0.019833678379654884, 0.013653412461280823, -0.11092056334018707, 0.2852858304977417, 0.0066778529435396194, -0.0755787342786789, -0.38615402579307556, -0.16405023634433746, -0.0354917049407959, -0.0034964224323630333, 0.09584905207157135, 0.00829993560910225, 0.06661511957645416, -0.011756103485822678, -0.02380693517625332, -0.022364908829331398, -0.05924869328737259, -0.11000809818506241, -0.02281983755528927, -0.058251816779375076, 0.03503470867872238, 0.30079904198646545, -0.13736651837825775, -0.10009123384952545, -0.10734184086322784, 0.2012791782617569, -0.014182253740727901, -0.025497877970337868, 0.007519555743783712, 0.06723861396312714, -0.16958966851234436, 0.1793597936630249, -0.002381104975938797, 0.11108074337244034, -0.05719641223549843, -0.16320699453353882, -0.05113905295729637, 0.11335127800703049, -0.010619080625474453, -0.2158057540655136, 0.009348521009087563, -0.2713906764984131, 0.23454807698726654, -0.22616350650787354, -0.07519667595624924, -0.06347749382257462, 0.22343029081821442, 0.11955664306879044, -0.1909111887216568, 0.20036917924880981, 0.0629938617348671, -0.17485062777996063, -0.038792360574007034, 0.0416860356926918, -0.07802178710699081, -0.15897686779499054, 0.11767014861106873, -0.1189335435628891, -0.08394929021596909, 0.0366193912923336, 0.19148604571819305, 0.10749074071645737, 0.3095000684261322, -0.1456104964017868, 0.0372154638171196, 0.1909121870994568, -0.12980537116527557, -0.02130371332168579, -0.31556034088134766, -0.17211070656776428, 0.04831194505095482, -0.04651472344994545, 0.12682630121707916, -0.0033984710462391376, 0.01358496118336916, -0.14553216099739075, 0.1711341291666031, -0.0757804736495018, -0.18590448796749115, -0.2812213897705078, -0.1565944254398346, 0.01723938249051571, -0.07092074304819107, 0.1501796990633011, 0.23800420761108398, 0.13187187910079956, 0.5240200757980347, 0.0597933754324913, 0.11406592279672623, -0.03808264434337616, 0.08663298934698105, -0.02113485150039196, 0.2227962464094162, 0.16724488139152527, 0.09230991452932358, 0.08597502112388611, -0.34831851720809937, -0.2386942058801651, 0.14704735577106476, -0.011244685389101505, 0.16757532954216003, -0.3601502776145935, -0.35009777545928955, -0.2812357246875763, 0.0754830613732338, -0.12485174834728241, 0.09113114327192307, -0.024236392229795456, -0.19038711488246918, -0.2453213930130005, -0.07682064920663834, 0.2890465557575226, 0.1318749338388443, 0.04574260115623474, 0.05154348909854889, -0.18436184525489807, -0.08813118934631348, 0.007735210005193949, 0.03950671851634979, -0.08068031072616577, 0.043157365173101425, -0.023290321230888367, 0.39870861172676086, 0.044808730483055115, -0.20966652035713196, -0.2146603763103485, 0.00990440882742405, 0.24973787367343903, 0.1391877830028534, 0.2262568473815918, 0.018327411264181137, -0.24909256398677826, 0.012107371352612972, -0.11176871508359909, -0.1897590458393097, -0.05691772326827049, -0.08051364868879318, -0.13711079955101013, -0.1602507084608078, 0.006690824870020151, -0.13897694647312164, -0.06352541595697403, 0.0882326140999794, 0.15265201032161713, 0.15047675371170044, 0.23600387573242188, 0.4497777223587036, -0.34564918279647827, 0.08486369252204895, 0.14996641874313354, 0.04246125370264053, -0.06731240451335907, 0.18785762786865234, 0.040517691522836685, 0.12209007889032364, -0.21781879663467407, -0.0355447418987751, -0.1768406629562378, 0.04102577269077301, 0.002947223139926791, 0.04451509192585945, -0.18019992113113403, 0.05313514173030853, 0.19146038591861725, -0.03589148446917534, 0.13731001317501068, 0.0378328375518322, -0.07413380593061447, -0.0182659849524498, 0.10201936215162277, 0.09139235317707062, 0.1395592838525772, -0.1369190514087677, 0.014656012877821922, 0.03506072983145714, -0.06495007127523422, -0.22337085008621216, 0.08334750682115555, -0.10642042756080627, -0.1283603459596634, -0.2820267379283905, 0.05372437462210655, 0.3366226851940155, -0.09003870189189911, -0.23394833505153656, -0.4223659932613373, -0.026981592178344727, -0.016882335767149925, -0.26764678955078125, -0.20586217939853668, 0.16806308925151825, 0.4413264989852905, -0.10598275810480118, -0.0859156921505928, -0.004064764361828566, -0.03684861585497856, 0.08732187002897263, -0.10173660516738892, 0.014500794000923634, 0.1776772439479828, 0.286607950925827, -0.1960613876581192, 0.0444381907582283, 0.3953689634799957, -0.05945991352200508, -0.07859788089990616, 0.04585225507616997, 0.19387519359588623, 0.10787934809923172, -0.34974661469459534, 0.21951447427272797, 0.03986918181180954, -0.0849008858203888, -0.3517531752586365, -0.061206866055727005, 0.3877078592777252, -0.021755894646048546, -0.007494057063013315, -0.10524498671293259, -0.04953867569565773, 0.056042347103357315, 0.29971835017204285, -0.17371699213981628, 0.06365401297807693, 0.12241146713495255, 0.17792215943336487, 0.11740268766880035, 0.4643890857696533, -0.04437512904405594, -0.17527209222316742, 0.10723230242729187, 0.09423656016588211, -0.0722457617521286, 0.2421550154685974, 0.1566692292690277, -0.007788325659930706, 0.3744889795780182, -0.31752508878707886, -0.07605624198913574, -0.08853926509618759, -0.0929715484380722, -0.24305741488933563, -0.08910483866930008, -0.541172206401825, -0.0835535079240799, -0.17797355353832245, -0.05338871851563454, -0.18402844667434692, 0.042431458830833435, 0.04712795093655586, 0.2551864683628082, -0.1420547515153885, -0.19934359192848206, 0.13698747754096985, -0.07613575458526611, -0.1417108029127121, 0.027508489787578583, 0.08676716685295105, -0.1621248424053192, -0.026271766051650047, -0.021496843546628952, 0.24858762323856354, -0.14137139916419983, -0.1207445040345192, -0.08861915022134781, 0.034011032432317734, 0.0935952216386795, -0.05738883838057518, -0.289689838886261, -0.06859279423952103, -0.23006083071231842, 0.2530459463596344, 0.1421595960855484, 0.011036982759833336, -0.07288392633199692, -0.021102523431181908, -0.0800991877913475, 0.08093013614416122, -0.0914815291762352, -0.06706263870000839, 0.05367392301559448, -0.18399764597415924, 0.178482323884964, -0.2915055453777313, -0.10501009970903397, -0.17227327823638916, 0.18591265380382538, -0.21010994911193848, -0.1700318604707718, -0.029040202498435974, 0.369165301322937, 0.2133592814207077, 0.0508936308324337, -0.28575900197029114, -0.14425387978553772, -0.05078807473182678, 0.14388561248779297, 0.08730993419885635, 0.1482832282781601, 0.047858476638793945, -0.13236764073371887, -0.17378859221935272, -0.12079790234565735, 0.012096531689167023, -0.08497916162014008, 0.09945458173751831, 0.03955363854765892, 0.14290983974933624, 0.07531905174255371, -0.07015223056077957, 0.2628156244754791, 0.14513181149959564, 0.1319601833820343, -0.2213006466627121, 0.012970714829862118, 0.019707918167114258, 0.036757417023181915, 0.11476357281208038, 0.17587870359420776, 0.09645126760005951, 0.03114371746778488, 0.194380521774292, 0.26399165391921997, 0.004625472705811262, -0.20072971284389496, -0.07163600623607635, -0.02917858585715294, -0.18941962718963623, -0.34953436255455017, 0.06041921675205231, -0.05763038247823715, 0.2820158898830414, 0.2643234133720398, -0.21543939411640167, -0.06792664527893066, 0.05050273984670639, 0.07435519993305206, 0.10447109490633011, 0.23605415225028992, -0.2132517695426941, -0.3660792410373688, -0.0058461143635213375, -0.026892485097050667, -0.03974245488643646, -0.1141657680273056, -0.16699890792369843, 0.3035091161727905, -0.0770018994808197, -0.061863649636507034, 0.2891245186328888, -0.21004313230514526, 0.04077368974685669, 0.35509705543518066, -0.0324331670999527, -0.23190708458423615, -0.029184365645051003, 0.017085954546928406, -0.11152186244726181, -0.22711315751075745, -0.0821128860116005, 0.08950763195753098, 0.4083864092826843, 0.31306758522987366, 0.08231230080127716, -0.29810217022895813, -0.2651577889919281, -0.0402018278837204, 0.08492948114871979, -0.026046259328722954, -0.009304176084697247, -0.3782767653465271, -0.23152011632919312, -0.1659165918827057, 0.04561426490545273, 0.06507772952318192, 0.11660109460353851, 0.3995368182659149, -0.04189370200037956, -0.06065245345234871, -0.5060426592826843, -0.30481797456741333, -0.211912140250206, 0.22633413970470428, -0.03059438243508339, -0.22815197706222534, 0.3189985156059265, 0.0327506959438324, -0.2878080904483795, 0.035887811332941055, -0.3002357482910156, 0.04212561994791031, 0.1925230175256729, -0.04443861544132233, 0.17246206104755402, -0.1672557294368744, 0.0797097384929657, 0.15836027264595032, 0.08794822543859482, -0.37244167923927307, 0.06597018241882324, -0.050754886120557785, -0.06205841526389122, 0.041377682238817215, -0.051442284137010574, 0.042877715080976486, -0.18077200651168823, -0.11384826898574829, -0.11352700740098953, 0.270527184009552, -0.08224684745073318, 0.08105397969484329, -0.26733916997909546, 0.07546598464250565, 0.02935665100812912, 0.0733809843659401, 0.14125162363052368, -0.11002414673566818, -0.22445377707481384, -0.07535885274410248, 0.1277327686548233, 0.18783600628376007, -0.11322889477014542, -0.32814449071884155, 0.14628854393959045, 0.1965499222278595, 0.18795259296894073, -0.06936685740947723, -0.004548908676952124, -0.10002592951059341, 0.14888319373130798, -0.07554160803556442, -0.3601653277873993, 0.4689510762691498, 0.10362689197063446, 0.06404682248830795, 0.009087933227419853, -0.016836661845445633, -0.13980643451213837, -0.04780780151486397, -0.18798375129699707, 0.11456054449081421, -0.039197273552417755, -0.24112330377101898, -0.05907605215907097, 0.09258899837732315, -0.03663865476846695, 0.1109529584646225, -0.0651153028011322, 0.10499166697263718, 0.2051687240600586, 0.24260060489177704, 0.5170466899871826, -0.04616839811205864, -0.08728399127721786, -0.05632996931672096, 0.08119940757751465, 0.040601182729005814, -0.09459099918603897, 0.05335799977183342, -0.05223744735121727, 0.10090471804141998, -0.0316348671913147, 0.006802162621170282, -0.25372400879859924, 0.08293800055980682, -0.10936769843101501, 0.1719183474779129, -0.0814412534236908, -0.10656395554542542, -0.1363106071949005, 0.42151740193367004, 0.039485953748226166, 0.21181093156337738, -0.23865564167499542, 0.0727103129029274, -0.028204187750816345, 0.2571197748184204, 0.1590033769607544, -0.0834510326385498, 0.3036605715751648, 0.08702726662158966, 0.011568520218133926, -0.24976137280464172, 0.0620146282017231, -0.060552552342414856, 0.561539351940155, 0.0755520910024643, 0.02064821869134903, -0.08819876611232758, -0.04953018203377724, -0.011826341971755028, -0.08206623792648315, -0.02101438120007515, 0.12822070717811584, -0.22680571675300598, -0.16774587333202362, -0.0493556410074234, 0.1979459971189499, 0.11228346824645996, -0.15802450478076935, -0.006884689908474684, 0.14021804928779602, -0.18286468088626862, -0.1361880898475647, -0.0001516901102149859, -0.11486116796731949, -0.006008606404066086, -0.10093113780021667, -0.018167495727539062, 0.04500710964202881, -0.09669259935617447, -0.004567004274576902, 0.014073388651013374, -0.002776234643533826, 0.08856130391359329, -0.27961474657058716, 0.09241777658462524, 0.11238152533769608, -3.903486140188761e-05, 0.14998790621757507, -0.06930653005838394, -0.2669108211994171, -0.02505931816995144, -0.037136826664209366, -0.12111146003007889, 0.16119346022605896, 0.22250182926654816, 0.290806382894516, -0.05754319950938225, -0.02175358310341835, -0.22252129018306732, 0.0976099967956543, -0.1847868710756302, 0.02069958671927452, 0.2770252823829651, 0.04198538139462471, -0.08664452284574509, -0.06396128982305527, 0.10871824622154236, -0.07426859438419342, 0.14238181710243225, 0.17392084002494812, -0.06862647086381912, 0.06753945350646973, 0.21209463477134705, -0.1581638902425766, -0.05125601962208748, 0.10782033205032349, 0.012962061911821365, -0.16797523200511932, -0.35437262058258057, 0.026588279753923416, -0.029240235686302185, 0.13928966224193573, 0.12419864535331726, 0.15922527015209198, 0.09230207651853561, -0.06378407031297684, -0.14670179784297943, -0.03504154086112976, -0.09998146444559097, 0.01838875561952591, -0.014002892188727856, -0.1310960203409195, -0.25189295411109924, 0.0673341453075409, -0.04881042242050171, 0.3502673804759979, 0.2315349280834198, -0.010368782095611095, 0.21379102766513824, -0.1885269582271576, -0.21148307621479034, -0.0510326586663723, -0.10430897027254105, 0.0780373066663742, -0.14562377333641052, 0.05517167970538139, -0.49081671237945557, -0.2193712294101715, -0.10650335252285004, -0.06702958047389984, 0.03634142875671387, -0.15359003841876984, 0.061012182384729385, 0.07335126399993896, -0.02101086638867855, -0.12800189852714539, -0.06182046979665756, 0.3280582129955292, -0.018638350069522858, 0.11974388360977173, -0.0025931017007678747, -0.13239647448062897, -0.039605557918548584, -0.006996563170105219, 0.04969704523682594, -0.40036332607269287, -0.11932238191366196, 0.6374316811561584, 0.3147255480289459, -0.25040382146835327, 0.36319947242736816, -0.10021371394395828, 0.19848713278770447, 0.46736979484558105, -0.9708782434463501, 1.0814026594161987, 0.5574964880943298, -0.29396429657936096, -0.19512751698493958, 0.19047226011753082, -0.9211093783378601, 0.3193112313747406, 0.12490736693143845, 0.09342867881059647, -0.32626965641975403, 0.2415018081665039, 0.3189552128314972, 0.34080013632774353, 0.40440014004707336, 0.06511174142360687, 0.20727033913135529, 0.15739785134792328, 0.2359621375799179, -0.32440251111984253, 0.32509446144104004, 0.09398812800645828, -0.09700862318277359, 0.3062986731529236, -0.05338800325989723, 0.1584690511226654, -0.027264302596449852, 0.025806710124015808, 0.060342371463775635, -0.013569672591984272, -0.16885757446289062, -0.35504183173179626, 0.07341058552265167, -0.07012557983398438, -0.12565825879573822, 0.12694412469863892, 0.21273472905158997, 0.24226239323616028, 0.004393100272864103, 0.07503506541252136, -0.3357587158679962, 0.20731747150421143, -0.25721806287765503, 0.08409193158149719, -0.18402938544750214, -0.015880785882472992, -0.1360987424850464, -0.2848324477672577, 0.12507621943950653, -0.12277503311634064, 0.2989196479320526, 0.3179034888744354, -0.3338063359260559, 0.002181496238335967, 0.12260589003562927, 0.26377853751182556, 0.006844846997410059, 0.09590058773756027, -0.08567731827497482, -0.09390099346637726, 0.15923288464546204, -0.18656207621097565, 0.29965198040008545, 0.3272368311882019, 0.10361688584089279, 0.12963926792144775, 0.31098997592926025, 0.06230893358588219, 0.1867554485797882, -0.01390001643449068, -0.0933929830789566, 0.016730885952711105, -0.3026964068412781, 0.5061661005020142, -0.35321471095085144, 0.008817780762910843, -0.4457004964351654, 0.12009869515895844, -0.3168569505214691, -0.2160184681415558, -0.06372741609811783, -0.09768366068601608, 0.12510910630226135, -0.04348144680261612, -0.47081097960472107, 0.23731735348701477, -0.0956098735332489, -0.13168983161449432, 0.030892405658960342, 0.036081090569496155, 0.025982188060879707, 0.0801074355840683, 0.09246033430099487, -0.010100629180669785, 0.22381101548671722, -0.3695569336414337, -0.08867425471544266, -0.4843004047870636, 0.09524227678775787, -0.05382802337408066, 0.19755132496356964, 0.4385569989681244, -0.033101439476013184, 0.09698674082756042, 0.07971370965242386, -0.07975572347640991, 0.061689216643571854, -0.043211355805397034, -0.15488530695438385, -0.03453618660569191, -0.16482415795326233, -0.23044715821743011, 0.13008637726306915, 0.09076066315174103, 0.012141169048845768, 0.06505602598190308, 0.11145064234733582, 0.10662977397441864, 0.09171657264232635, 0.2941782474517822, -0.008244406431913376, -0.2570511996746063, 0.012865446507930756, 0.1746000498533249, 0.0377836674451828, 0.04882708936929703, 0.07434797286987305, 0.07288439571857452, 0.004531655926257372, -0.003356274915859103, -0.012847404927015305, 0.10127072781324387, -0.022671222686767578, -0.23690976202487946, -0.14649152755737305, -0.09791338443756104, 0.258808434009552, -0.2571370303630829, 0.2310207039117813, 0.13688090443611145, 0.03129976615309715, -0.2671726942062378, 0.27030837535858154, -0.006681452039629221, 0.1986820250749588, -0.18359051644802094, 0.32813459634780884, -0.24166852235794067, -0.0556730218231678, 0.0094991410151124, 0.15038836002349854, 0.16689036786556244, -0.04885471984744072, -0.2523784339427948, 0.1662975251674652, 0.22975297272205353, 0.09164085984230042, -0.23942077159881592, 0.15903322398662567, -0.234188973903656, 0.042826853692531586, -0.09145429730415344, -0.42607516050338745, -0.22182130813598633, -0.05412762984633446, 0.35647618770599365, 0.005081735551357269, 0.31041792035102844, -0.1901823729276657, -0.07874903082847595, -0.20582124590873718, 0.2061130255460739, -0.2623918354511261, 0.07019243389368057, -0.14953115582466125, 0.24108561873435974, 0.010098457336425781, -0.1620751917362213, 0.0934772863984108, -0.034936729818582535, -0.18806599080562592, 0.13422617316246033, 0.22760635614395142, 0.10945083200931549, 0.1950995773077011, -0.14652575552463531, -0.051322732120752335, -0.12168459594249725, 0.22823014855384827, 0.33582788705825806, 0.28640541434288025, -0.06169848144054413, -0.19611132144927979, 0.012990052811801434, 0.08182811737060547, -0.21774333715438843, -0.06593755632638931, -0.13483618199825287, 0.1193583682179451, -0.029838157817721367, 0.27400580048561096, -0.3333217203617096, 0.11887810379266739, 0.29689905047416687, 0.47360697388648987, -0.07613413780927658, 0.11358171701431274, 0.26077762246131897, 0.05623888969421387, -0.4153531789779663, 0.026980718597769737, -0.11155693233013153, 0.34127745032310486, -0.25365883111953735, -0.1589156985282898, -0.2441108375787735, 0.05972114950418472, -0.1490802764892578, -0.08538008481264114, -0.1097162589430809, -0.28640392422676086, 0.11839822679758072, -0.4908652603626251, 0.18752476572990417, 0.14392010867595673, 0.28806665539741516, -0.2087714523077011, 0.046413272619247437, 0.11615044623613358, -0.2795219421386719, 0.0632646381855011, -0.0024749580770730972, -0.10472985357046127, 0.17770928144454956, -0.07004373520612717, 0.05485186725854874, -0.13945060968399048, 0.3791588544845581, -0.1598232537508011, 0.07770146429538727, 0.059269897639751434, 0.04409678280353546, 0.16518685221672058, 0.029270479455590248, -0.35858291387557983, -0.07470519840717316, -0.28979602456092834, -0.28233951330184937, -0.08551281690597534, -0.10087570548057556, -0.10319305211305618, -0.16885510087013245, -0.05269597843289375, -0.25891855359077454, 0.036960527300834656, 0.07629498839378357, 0.04253356531262398, 0.013758410699665546, 0.22492507100105286, -0.4378095865249634, -0.08809073269367218, 0.016221992671489716, 0.013143578544259071, 0.11140387505292892, 0.20094695687294006, 0.2704491913318634, -0.08316607028245926, 0.03064030036330223, 0.2912634313106537, 0.1335153877735138, 0.08928381651639938, -0.32623276114463806, -0.016802197322249413, -0.04320383444428444, 0.07491474598646164, -0.0040405793115496635, 0.02412256971001625, 0.19662660360336304, -0.09456084668636322, -0.06505799293518066, -0.32776349782943726, 0.15664686262607574, 0.022614605724811554, -0.18326328694820404, 0.09987983852624893, 0.25789472460746765, -0.274909645318985, 0.10375117510557175, -0.026378359645605087, -0.24202324450016022, 0.2684975266456604, -0.031851187348365784, -0.21054747700691223, -0.15416070818901062, 0.30670374631881714, 0.1230151504278183, -0.1652172952890396, 0.12143992632627487, -0.21768604218959808, -0.14837464690208435, -0.27874282002449036, 0.13998210430145264, 0.16002416610717773, 0.04373595863580704, -0.3741438388824463, -0.13003931939601898, -0.05873382091522217, 0.262879341840744, -0.1824508160352707, -0.06995972245931625, -0.3467106223106384, 0.15178003907203674, 0.09003531187772751, -0.44430726766586304, 0.0680684968829155, -0.005935302469879389, 0.20871827006340027, 7.07488288753666e-05, 0.19140195846557617, 0.012723053805530071, -0.12225694954395294, -0.05247035622596741, -0.18291546404361725, -0.021907765418291092, 0.29600054025650024, 0.18392212688922882, 0.09073912352323532, 0.2235478311777115, 0.31586602330207825, -0.15824759006500244, -0.0918588861823082, -0.15518030524253845, -0.0070856655947864056, -0.021922966465353966, 0.06446247547864914, 0.020779768005013466, 0.035424020141363144, 0.3653564453125, 0.05921587347984314, 0.05923978239297867, 0.09135100990533829, 0.12267833203077316, 0.27547454833984375, -0.30195286870002747, -0.5290338397026062, -0.04325098916888237, 0.22014577686786652, -0.012943332083523273, -0.1421237736940384, -0.3475412428379059, -0.022330638021230698, -0.07101139426231384, 0.02505458891391754, -0.20331448316574097, -0.08863655477762222, 0.13876807689666748, 0.2501579523086548, 0.2520703077316284, 0.5924616456031799, 0.2804575264453888, 0.25766822695732117, 0.3664812743663788, -0.1308950036764145, -0.2904789447784424, -0.28911757469177246, 0.015247619710862637, 0.0050569744780659676, 0.25294947624206543, -0.11168575286865234, -0.24839000403881073, -0.13114777207374573, -0.21212390065193176, -0.27630940079689026, 0.06648730486631393, -0.18488413095474243, -0.4195060431957245, -0.2321801483631134, -0.1522723138332367, 0.08343986421823502, 0.04539427161216736, 0.2745151221752167, -0.06784003973007202, 0.19489099085330963, 0.044317346066236496, -0.19046050310134888, 0.11371966451406479, 0.02983473800122738, 0.09871486574411392, 0.08465542644262314, -0.011174059472978115, -0.1914927363395691, -0.0414813756942749, -0.004769167397171259, 0.012210226617753506, 0.09923321008682251, -0.09357539564371109, -0.0396481528878212, -0.0069730244576931, 0.17692984640598297, 7.960601942613721e-05, 0.11517909169197083, 0.13672882318496704, 0.1496751606464386, -0.21084006130695343, 0.07227005809545517, -0.09248369932174683, 0.04678069055080414, -0.08412186801433563, -0.20120778679847717, -0.08508899062871933, 0.08584064245223999, -0.01254830602556467, -0.14820720255374908, -0.18543846905231476, -0.06576335430145264, -0.11811482906341553, -0.1121821328997612, 0.11648883670568466, 0.17334355413913727, -0.16557839512825012, -0.25053784251213074, 0.18618889153003693, 0.12137676775455475, -0.19150061905384064, 0.14384597539901733, 0.0927785336971283, 0.13059385120868683, 0.07258463650941849, 0.03131008893251419, -0.12445459514856339, 0.023551132529973984, 0.07932331413030624, 0.1148146316409111, 0.00434538722038269, -0.1478947103023529, -0.08852016925811768, 0.06491153687238693, -0.02317204140126705, -0.10739509761333466, 0.11640699952840805, 0.3186309039592743, 0.2367059588432312, 0.08302464336156845, 0.008515783585608006, -0.05477912724018097, -0.010403725318610668, 0.2462310940027237, 0.12998344004154205, -0.14891459047794342, -0.17377904057502747, -0.07765699923038483, -0.03201016038656235, 0.1070270910859108, -0.030403809621930122, 0.05222184956073761, -0.0035726430360227823, -0.07256300002336502, 0.29785585403442383, -0.04834386333823204, 0.10741743445396423, -0.020087793469429016, -0.20198765397071838, 0.31594693660736084, 0.11973606050014496, -0.3222813606262207, -0.17997275292873383, -0.03797159343957901, -0.03676804155111313, -0.1510339230298996, -0.03896563872694969, 0.11288952827453613, 0.21814660727977753, -0.45563653111457825, 0.14162221550941467, 0.24088378250598907, 0.04608306661248207, 0.19662290811538696, 0.09727755188941956, 0.3822006285190582, -0.011060797609388828, 0.14446775615215302, -0.3137951195240021, 0.056842394173145294, 0.08832252025604248, -0.13940580189228058, -0.0711393728852272, -0.012395629659295082, 0.27774062752723694, 0.1661040037870407, 0.07758224010467529, 0.04680945351719856, 0.041081205010414124, 0.06654805690050125, -0.05909831449389458, 0.024087976664304733, -0.02168426662683487, 0.11119445413351059, -0.2667240500450134, -0.20813705027103424, -0.23225106298923492, -0.012201858684420586, 0.06149502471089363, 0.07334379851818085, 0.061498258262872696, 0.20777730643749237, -0.2609027326107025, 0.012354942969977856, -0.008702339604496956, 0.029241785407066345, 0.02021140791475773, -0.028548993170261383, 0.15744566917419434, -0.04037036374211311, 0.08742555230855942, -0.03952775150537491, 0.023494666442275047, 0.07597894221544266, 0.25061899423599243, -0.11770284175872803, 0.17416703701019287, -0.026859574019908905, 0.02157606929540634, -0.058315981179475784, 0.10042222589254379, -0.24177387356758118, 0.11818381398916245, 0.42647412419319153, 0.17679081857204437, -0.1044066771864891, 0.28278857469558716, -0.3024253249168396, 0.1302269548177719, -0.18548595905303955, -0.10102436691522598, 0.16282720863819122, -0.13373516499996185, 0.1874839961528778, 0.05573546141386032, 0.22950798273086548, 0.09394381940364838, 0.06165533512830734, -0.07318726927042007, 0.1106632873415947, -0.12392298132181168, 0.18292838335037231, -0.176857128739357, 0.013308563269674778, -0.02087508887052536, -0.07626096904277802, -0.02312922477722168, 0.08617811650037766, 0.0039283703081309795, 0.17345139384269714, 0.212110236287117, 0.0738559439778328, 0.03221970796585083, -0.00038832452264614403, -0.16133442521095276, -0.06431856751441956, 0.07322262972593307, -0.10029976069927216, 0.004569446202367544, 0.03782017156481743, -0.05587829649448395, -0.11187195777893066, 0.15291820466518402, -0.01735399290919304, 0.0434403270483017, 0.2533065974712372, -0.05510580912232399, -0.23967227339744568, 0.2670215666294098, -0.07438735663890839, 0.3587666451931, 0.17781001329421997, 0.051734209060668945, -0.18185003101825714, -0.12235192209482193, -0.08124309778213501, -0.24725139141082764, -0.06466130167245865, -0.18706217408180237, -0.3542436361312866, -0.31373077630996704, -0.23642891645431519, -0.1948329508304596, -0.0194685198366642, -0.03956323489546776, 0.23071376979351044, 0.08990099281072617, -0.07177718728780746, -0.10409571975469589, 0.0946727842092514, -0.004172825254499912, -0.05668341740965843, 0.24371638894081116, 0.10747282952070236, 0.045636747032403946, -0.08287718147039413, 0.20747855305671692, -0.17545773088932037, -0.06409872323274612, -0.06462490558624268, 0.17938394844532013, -0.09334826469421387, 0.05216577649116516, -0.228928342461586, -0.2803211212158203, 0.012951384298503399, 0.002586803864687681, -0.18481133878231049, 0.022778034210205078, 0.24146929383277893, -0.07658205181360245, -0.41247862577438354, -0.11656758189201355, -0.20608961582183838, 0.008566278964281082, 0.1827222853899002, -0.44012194871902466, 0.0530300997197628, -0.06698493659496307, -0.49603259563446045, 0.08563030511140823, -0.09123081713914871, -0.19200831651687622, 0.04162322357296944, -0.027494169771671295, 0.1887880265712738, -0.04737542197108269, 0.2665999233722687, 0.3062382638454437, 0.002353651449084282, -0.013950916938483715, -0.31525057554244995, -0.0379481166601181, -0.1981535255908966, -0.0859794169664383, -0.16985954344272614, 0.07037752121686935, -0.11504101753234863, 0.21552513539791107, -0.015541673637926579, -0.007155911531299353, 0.05259842798113823, -0.0189236868172884, -0.3190566897392273, -0.29188045859336853, -0.07326844334602356, -0.256916880607605, 0.019545219838619232, 0.0193529911339283, 0.059465400874614716, 0.1669364720582962, 0.057747337967157364, -0.1546376645565033, -0.06840323656797409, -0.05702897906303406, -0.37542858719825745, -0.05384122207760811, 0.06376396119594574, 0.13488782942295074, 0.1102445051074028, -0.2733391225337982, 0.1278599053621292, 0.07552003115415573, 0.22824952006340027, -0.14370577037334442, 0.12735706567764282, 0.12238434702157974, -0.3559684157371521, 0.1215963065624237, -0.01194992195814848, -0.3173084557056427, -0.012921194545924664, -0.14022459089756012, 0.06341911852359772, 0.07085337489843369, -0.022409500554203987, -0.059785548597574234, 0.05661351978778839, -0.03849230706691742, -0.2525121569633484, -0.15804554522037506, -0.17443667352199554, -0.02858606167137623, -0.09116450697183609, -0.024367569014430046, -0.24372552335262299, -0.07842885702848434, 0.022906731814146042, 0.25229212641716003, -0.004935394506901503, 0.09203548729419708, -0.2506485879421234, -0.21499961614608765, 0.20522552728652954, -0.23131966590881348, 0.017723513767123222, 0.08144041895866394, -0.0678631141781807, -0.1527242362499237, 0.011131491512060165, 0.13034074008464813, -0.10427252948284149, -0.1106104850769043, 0.12069781124591827, -0.15527476370334625, 0.18956361711025238, -0.35273945331573486, 0.017241353169083595, -0.11735937744379044, -0.027434946969151497, 0.17618827521800995, 0.0669962540268898, -0.41137123107910156, -0.2709237337112427, 0.13790035247802734, -0.022260624915361404, 0.010611834935843945, 0.004411354195326567, -0.5322204828262329, -0.007414861116558313, 0.07876637578010559, 0.1141914427280426, 0.06435345113277435, 0.32793936133384705, 0.28059250116348267, -0.38633444905281067, -0.1379806250333786, -0.17166858911514282, 0.004243131726980209, -0.025971153751015663, 0.10451266169548035, 0.2506764829158783, 0.06957865506410599, -0.242080420255661, -0.01280788891017437, -0.00280970660969615, -0.04516935721039772, -0.04261559620499611, -0.14617814123630524, -0.1890568882226944, -0.1397109180688858, -0.16378533840179443, -0.2526540160179138, 0.038280606269836426, -0.07633225619792938, -0.17268304526805878, -0.0011038669617846608, -0.22318026423454285, -0.00843583419919014, -0.10219179093837738, 0.13500452041625977, 0.1021713837981224, -0.1881597489118576, 0.29676923155784607, -0.1462915688753128, 0.17790456116199493, -0.09388566762208939, -0.09247653931379318, 0.24379222095012665, 0.03345101326704025, -0.17963020503520966, 0.14736434817314148, -0.2045578509569168, -0.04747661575675011, 0.18321512639522552, 0.11642393469810486, -0.07151580601930618, -0.13844051957130432, -0.04293530061841011, -0.0751381665468216, 0.04344582557678223, -0.2137443721294403, 0.21378174424171448, 0.19338807463645935, 0.10786419361829758, 0.14255023002624512, -0.08742494136095047, -0.10375811904668808, -0.06590121239423752, 0.08438004553318024, -0.021059736609458923, 0.06167692318558693, 0.06466110050678253, 0.07968342304229736, 0.07857069373130798, -0.007676281966269016, 0.18925322592258453, 0.1141534373164177, -0.05430343747138977, -0.10425420850515366, 0.05948816239833832, -0.04721586033701897, 0.12872961163520813, -0.08560313284397125, -0.004979757126420736, 0.13954424858093262, -0.007541306782513857, -0.014540037140250206, 0.2780442535877228, 0.055939462035894394, 0.33781808614730835, 0.38044703006744385, 0.21365609765052795, 0.20468975603580475, -0.26166293025016785, 0.17868857085704803, 0.16227348148822784, 0.043605271726846695, -0.141197070479393, 0.05457272380590439, -0.15212328732013702, -0.3158506155014038, 0.239827498793602, -0.04955869913101196, -0.15595684945583344, 0.03395145758986473, -0.3781205117702484, -0.15937106311321259, 0.06062924861907959, -0.23497144877910614, -0.1256686896085739, 0.2825917601585388, 0.06474900990724564, -0.15687216818332672, -0.07950536161661148, 0.0651065781712532, 0.24387800693511963, 0.14325693249702454, -0.04897385090589523, -0.3458053171634674, -0.08605489134788513, -0.12303375452756882, 0.2586212754249573, 0.14990852773189545, 0.11319557577371597, -0.3190781772136688, 0.17694425582885742, -0.18841195106506348, -0.03177403658628464, 0.146868035197258, 0.2723310589790344, 0.13076505064964294, -0.06867925822734833, 0.3439864218235016, -0.12288172543048859, 0.09508233517408371, -0.05648549273610115, -0.07045567780733109, -0.09158250689506531, -0.03963096812367439, -0.4948478937149048, -0.11612440645694733, -0.2674379348754883, 0.8200090527534485, 0.43869221210479736, -0.34167033433914185, -0.17109066247940063, -0.21363507211208344, -1.2770131826400757, -0.05492910370230675, 0.2447693645954132, -0.5585075616836548, 0.4424072504043579, -0.0933661237359047, -0.07570578157901764, 0.2808419167995453, 0.039262428879737854, -0.867411196231842, -0.5514637231826782, 0.1665194034576416, -0.3797304332256317, 0.007822749204933643, -0.24078699946403503, 0.16753123700618744, 0.1960088312625885, 0.18677584826946259, -0.6063669323921204, -0.08377575129270554, -0.21587081253528595, 0.6901293992996216, 0.03239603713154793, -0.04098091274499893, -0.3553537130355835, 0.4416128396987915, 0.13303275406360626, -1.00300931930542, 0.20238113403320312, 0.15380877256393433, 0.45196202397346497, -0.26404985785484314, -0.20195814967155457, 0.3152504563331604, -0.14570513367652893, -0.08015855401754379, -0.6920593976974487, -0.11569440364837646, 0.21127042174339294, -0.21007521450519562, 0.3065105378627777, 0.246876522898674, -0.16748782992362976, 0.07299286127090454, -0.05320676043629646, -0.02942153438925743, 0.2674061059951782, 0.11685461550951004, -0.15745185315608978, 0.011379474774003029, 0.020117655396461487, -0.10623686760663986, 0.07458710670471191, 0.1513178050518036, 0.21856972575187683, -0.09254494309425354, 0.1505042016506195, 0.22963464260101318, 0.12731824815273285, 0.03700454905629158, -0.17638735473155975, 0.21305018663406372, 0.2844401001930237, -0.022153479978442192, 0.009364167228341103, -0.25440582633018494, -0.15629413723945618, 0.1503113955259323, 0.21939639747142792, 0.08574296534061432, -0.11768411099910736, 0.11921090632677078, -0.15398484468460083, -0.20223164558410645, 0.057976607233285904, 0.044846631586551666, 0.08389076590538025, -0.08598703891038895, -0.11231577396392822, -0.021124375984072685, -0.10143794864416122, -0.14413611590862274, -0.08197900652885437, 0.21024103462696075, -0.10348007082939148, 0.06550370156764984, 0.32777732610702515, 0.4955484867095947, 0.03476666286587715, -0.053614646196365356, 0.138424351811409, -0.002311605028808117, 0.03118128888309002, -0.05254784971475601, 0.17614145576953888, 0.08612997829914093, 0.05546179413795471, 0.19294379651546478, 0.026869218796491623, -0.17545188963413239, 0.22922158241271973, 0.009548908099532127, -0.015276775695383549, -0.12412572652101517, -0.10194581747055054, 0.5536250472068787, -0.34207883477211, 0.1050516813993454, 0.14356069266796112, 0.024164821952581406, 0.1462649405002594, -0.022381583228707314, -0.024753091856837273, 0.02525591477751732, -0.11250463873147964, 0.18930979073047638, 0.05854016914963722, -0.05558221414685249, 0.03479054942727089, 0.03726264461874962, 0.010597635060548782, 0.0991702601313591, 0.12206775695085526, -0.013190822675824165, 0.10914868861436844, -0.2191702425479889, -0.08369190990924835, -0.03177561238408089, 0.021005889400839806, -0.08434415608644485, 0.29008492827415466, -0.004029607865959406, -0.11360669136047363, -0.01909632235765457, -0.06615374237298965, -0.20310311019420624, 0.1924220323562622, -0.09269767999649048, -0.23671676218509674, 0.16948610544204712, 0.0027520323637872934, -0.18396714329719543, -0.21862143278121948, 0.4465852677822113, -0.1530400812625885, -0.3464893102645874, -0.11118156462907791, 0.11219891905784607, -0.264119952917099, -0.05897577106952667, -0.14591456949710846, 0.05500476807355881, -0.2213374227285385, -0.2381138950586319, 0.22152310609817505, 0.3497180938720703, 0.0591229572892189, -0.12125011533498764, 0.10701336711645126, -0.1544271856546402, 0.25863131880760193, 0.039777349680662155, 0.16709020733833313, -0.18499504029750824, 0.03417334333062172, -0.13036195933818817, 0.13648249208927155, 0.1927059441804886, -0.05614059790968895, -0.026162920519709587, -0.18888050317764282, -0.36008700728416443, -0.6982238292694092, 0.005700297188013792, 0.022990144789218903, 0.14377479255199432, -0.05702810734510422, 0.04526256024837494, -0.03518098592758179, -0.041617441922426224, 0.26883792877197266, 0.15430298447608948, -0.28348928689956665, 0.14242422580718994, -0.2752232849597931, 0.35872793197631836, 0.054959774017333984, -0.06125833839178085, 0.09838362783193588, -0.08636002242565155, 0.19404374063014984, 0.23764444887638092, -0.0439777635037899, -0.24534691870212555, 0.028239859268069267, 0.12787678837776184, 0.02141115814447403, 0.07078183442354202, 0.05623340979218483, 0.06089342385530472, 0.017408981919288635, 0.3140380382537842, 0.6540131568908691, 0.2885676622390747, 1.080835223197937, -0.9621461629867554, -0.7051397562026978, 0.22808285057544708, -0.14548362791538239, -0.2266378104686737, 0.15347068011760712, 0.3200879395008087, -1.110914945602417, 0.30281028151512146, 0.4594419598579407, -0.8704433441162109, 0.16161005198955536, 0.1067475974559784, -0.11378806084394455, -0.09317907691001892, 0.11751856654882431, -0.5872697830200195, 0.0031562296207994223, 0.32614055275917053, 0.07710206508636475, -0.407817006111145, -0.37409937381744385, -0.08823121339082718, -0.28095370531082153, -0.16843298077583313, 0.07614464312791824, 0.0764913260936737, 0.21834176778793335, -0.15911750495433807, -0.26465338468551636, -0.12508226931095123, -0.13603350520133972, -0.3654218316078186, -0.16792695224285126, -0.048136886209249496, 0.46031275391578674, 0.008310887031257153, -0.366260290145874, -0.16862021386623383, -0.3390427231788635, -0.1981353461742401, 0.153427392244339, 0.11624443531036377, 0.07648631930351257, 0.12194054573774338, -0.09029470384120941, 0.30795496702194214, -0.37713760137557983, -0.4382859170436859, 0.04763244837522507, -0.24572226405143738, -0.2552095651626587, 0.22937366366386414, 0.27029043436050415, -0.1287175565958023, -0.17562171816825867, -0.17054414749145508, -0.017411958426237106, -0.013703946955502033, -0.09805907309055328, 0.1843981295824051, -0.298369824886322, -0.022983327507972717, -0.008448074571788311, 0.25977903604507446, 0.1854860782623291, 0.2317875325679779, 0.2171250581741333, 0.07110582292079926, -0.12470592558383942, -0.11176714301109314, 0.21037276089191437, -0.13384845852851868, 0.06393547356128693, 0.15308108925819397, 0.035654205828905106, -0.22478902339935303, 0.2646975815296173, -0.17058071494102478, 0.009546590968966484, 0.030861156061291695, -0.003068074118345976, -0.3489040434360504, 0.05643373355269432, 0.12158787995576859, 0.34701967239379883, 0.3337112367153168, 0.05196887254714966, 0.33463454246520996, -0.10334014147520065, -0.2684977650642395, -0.30894312262535095, -0.019842064008116722, -0.26074278354644775, 0.4527239501476288, 0.1374991536140442, 0.2536149322986603, -0.2529314160346985, 0.12175757437944412, 0.09018559008836746, 0.012797960080206394, 0.11210012435913086, 0.17857788503170013, -0.3362292945384979, 0.10452538728713989, 0.1469566524028778, -0.00876010861247778, -0.17020146548748016, -0.08518394082784653, -0.07861798256635666, 0.00506408978253603, -0.14438475668430328, 0.12398956716060638, -0.12672436237335205, -0.2688620686531067, 0.20749732851982117, 0.17178001999855042, -0.08305087685585022, 0.15426142513751984, -0.02489103190600872, 0.11772666871547699, 0.09378258138895035, 0.060314279049634933, 0.01546018011868, -0.27689647674560547, 0.03584397956728935, 0.22104087471961975, -0.29778367280960083, 0.012633269652724266, 0.09455349296331406, -0.1846449226140976, -0.02109612338244915, 0.20216429233551025, -0.12114830315113068, -0.13816256821155548, -0.06733562797307968, -0.0588146448135376, -0.1576378047466278, -0.02369154430925846, 0.2307986170053482, -0.03150598704814911, -0.25531336665153503, 0.16160333156585693, -0.24021634459495544, 0.14755190908908844, -0.21552519500255585, 0.18570509552955627, 0.13363271951675415, -0.38315802812576294, -0.04024539887905121, -0.2155063897371292, -0.0892510861158371, 0.11744585633277893, 0.17937859892845154, -0.07637573033571243, 0.2659517228603363, 0.1666063368320465, -0.19180481135845184, 0.21384049952030182, -0.110606849193573, 0.1898929327726364, -0.20615968108177185, -0.05407915636897087, -0.3209961950778961, 0.18035471439361572, -0.21434740722179413, -0.1287965476512909, 0.1487705558538437, -0.20962217450141907, 0.23878179490566254, -0.15064944326877594, 0.121086984872818, 0.07716286182403564, -0.284722238779068, 0.06446033716201782, -0.279642790555954, -0.04694322124123573, -0.0827716737985611, 0.047548532485961914, 0.13263407349586487, -0.2722896635532379, 0.27435338497161865, 0.05243432894349098, -0.0008322091889567673, -0.3246176838874817, -0.15350162982940674, 0.31638187170028687, -0.13341474533081055, -0.020522819831967354, 0.3299298882484436, 0.32692015171051025, -0.2539980113506317, -0.06119460612535477, -0.030496271327137947, -0.05499780550599098, 0.2734970152378082, -0.12316235154867172, -0.12559069693088531, -0.16064117848873138, 0.2199118733406067, 0.3321049213409424, 0.07033605873584747, -0.21635475754737854, -0.042237017303705215, -0.30889078974723816, -0.128623828291893, 0.3596264719963074, 0.264214426279068, 0.42982345819473267, -0.04418270289897919, 0.31852081418037415, -0.33057740330696106, -0.16479359567165375, -0.06854386627674103, -0.00011218344297958538, -0.16342683136463165, -0.387006938457489, -0.30546998977661133, 0.03981025516986847, 0.05624201148748398, -0.2847842872142792, 0.07782872021198273, -0.11255240440368652, 0.07037613540887833, 0.5277590155601501, 0.14332535862922668, 0.0812036395072937, -0.10521820187568665, 0.04384097829461098, 0.08802184462547302, 0.25573623180389404, 0.26625487208366394, -0.0221759881824255, -0.1510034203529358, -0.2138139009475708, -0.1445312798023224, 0.09072340279817581, -0.051150985062122345, -0.03795398771762848, 0.028497012332081795, -0.0026618666015565395, -0.17055903375148773, -0.2132675051689148, 0.15189385414123535, 0.22551017999649048, -0.32173725962638855, -0.008774369023740292, -0.39556121826171875, -0.06406013667583466, 0.09304473549127579, 0.049139611423015594, 0.05343376472592354, 0.07437991350889206, -0.10937592387199402, 0.4796167314052582, -0.10136132687330246, -0.4730420708656311, -0.15877151489257812, 0.0352594293653965, 0.441476970911026, -0.34253257513046265, -0.13811293244361877, 0.14809462428092957, -0.25087401270866394, 0.018977029249072075, 0.1991983950138092, -0.004564400762319565, 0.20572242140769958, -0.07951537519693375, -0.13474756479263306, 0.30362409353256226, 0.19837446510791779, -0.15096935629844666, 0.055740728974342346, 0.12020586431026459, 0.09351448714733124, 0.12360621988773346, -0.3133843243122101, 0.1212562769651413, 0.036346156150102615, 0.06340239197015762, 0.004452383611351252, -0.2302769273519516, 0.05975598841905594, 0.05984257161617279, -0.056844692677259445, 0.10083235055208206, -0.2411659061908722, 0.023941293358802795, 0.5453395843505859, -0.07402719557285309, 0.29236751794815063, -0.0455683209002018, -0.2154795378446579, -0.2146114557981491, 0.280549019575119, -0.2275741994380951, 0.012335117906332016, -0.23453907668590546, -0.04002271592617035, 0.10014110803604126, -0.2910671830177307, 0.15169844031333923, 0.05646977573633194, -0.021754253655672073, 0.14520114660263062, 0.14037349820137024, 0.05801434814929962, -0.09711559861898422, -0.13734304904937744, 0.16171135008335114, 0.041628096252679825, 0.11817953735589981, 0.30064284801483154, -0.05040165036916733, -0.011298203840851784, 0.5142044425010681, -0.12419862300157547, 0.6437614560127258, -1.0812715291976929, -0.251310795545578, -0.009048555977642536, 0.582086980342865, 0.042873844504356384, -0.12336938828229904, 0.28861764073371887, -0.024883486330509186, 0.09628675878047943, -0.24697241187095642, 0.0852084830403328, 0.49126967787742615, -0.05861421301960945, -0.24235571920871735, 0.23699410259723663, -0.24419909715652466, 0.025414245203137398, 0.16368725895881653, 0.023290639743208885, 0.0343143492937088, 0.18645527958869934, 0.059218090027570724, -0.3102606236934662, -0.23063236474990845, 0.08513174951076508, 0.195967435836792, 0.17505906522274017, -0.010102969594299793, -0.14737334847450256, 0.13632553815841675, -0.010238510556519032, -0.20706303417682648, -0.23294802010059357, 0.11597572267055511, 0.15648145973682404, 0.13787959516048431, 0.03161473944783211, -0.13161534070968628, -0.015087499283254147, 0.17484277486801147, 0.27415943145751953, 0.04825630784034729, 0.08015275746583939, 0.07364026457071304, 0.06692079454660416, -0.15821324288845062, 0.03849846497178078, -0.1780490279197693, -0.10742763429880142, -0.030683597549796104, -0.02890092507004738, -0.0716388151049614, 0.1322631686925888, -0.26429665088653564, -0.06379857659339905, 0.1414029747247696, 0.18069982528686523, 0.013320960104465485, -0.1625657081604004, 0.05965240299701691, -0.15194597840309143, -0.09592106193304062, -0.19326889514923096, -0.3401602506637573, -0.08979904651641846, -0.047581251710653305, 0.057593632489442825, -0.15947291254997253, 0.04597384110093117, 0.06010696291923523, 0.18711413443088531, -0.13928478956222534, 0.07354333251714706, -0.2091217339038849, -0.1988692432641983, -0.21491511166095734, -0.027428239583969116, 0.05987978354096413, -0.10448260605335236, 0.3648310899734497, -0.06725732982158661, 0.0035613160580396652, -0.022489598020911217, 0.03329126164317131, -0.34794652462005615, -0.3309125006198883, -0.031783778220415115, -0.16635079681873322, -0.28043729066848755, -0.021171405911445618, -0.17741923034191132, -0.0036852487828582525, -0.15106987953186035, -0.0022021112963557243, 0.14946049451828003, -0.011797287501394749, -0.2544138729572296, 0.19827738404273987, 0.07704059779644012, 0.18073955178260803, 0.17037072777748108, 0.08977048099040985, 0.08923093974590302, 0.22517625987529755, 0.08962812274694443, 0.12401749193668365, -0.05514094978570938, -0.09257873892784119, -0.37462931871414185, 0.18263083696365356, -0.028912179172039032, -0.17701800167560577, 0.4410659968852997, -0.5252386331558228, -0.4497307240962982, -0.16081827878952026, -0.5240411162376404, 0.03447365015745163, -0.5594884753227234, 0.28409019112586975, -0.25554996728897095, 0.2517436444759369, 0.05299776419997215, -0.006510449573397636, 0.053694967180490494, 0.076756551861763, 0.17219047248363495, 0.5871627330780029, 0.024514038115739822, -0.5885205864906311, 0.08812318742275238, -0.020312540233135223, 0.028514375910162926, -0.5935624837875366, -0.0016690782504156232, -0.5190626978874207, 0.2633911967277527, -0.15873117744922638, 0.40101805329322815, 0.15027551352977753, 0.12251504510641098, 0.05902837961912155, -0.05358625203371048, -0.2808523178100586, -0.8161943554878235, -0.16926448047161102, 0.030839143320918083, 0.39016836881637573, -0.17864900827407837, 0.17717380821704865, 0.298236221075058, -0.5289881825447083, -0.0032012732699513435, -0.34993189573287964, 0.2634087800979614, -0.1895572692155838, 0.09095197170972824, 0.7841622233390808, 0.16074828803539276, 0.07861731201410294, 0.05540138855576515, 0.0605524480342865, 0.18953852355480194, -0.11474204063415527, 0.23373940587043762, 0.23797330260276794, 0.42167046666145325, -0.16852425038814545, 0.12802638113498688, 0.057056985795497894, 0.010575719177722931, 0.008988220244646072, 0.0965118557214737, 0.1308097094297409, -0.057768188416957855, -0.08839935809373856, 0.12944373488426208, 0.2315748929977417, 0.0033599776215851307, 0.05028633773326874, -0.2854830324649811, 0.1683172583580017, -0.01634562760591507, 0.02237001247704029, 0.15872249007225037, 0.07928865402936935, 0.0744265541434288, 0.21001023054122925, 0.08899179100990295, 0.030338475480675697, -0.1725035458803177, 0.06545592099428177, 0.0008537489338777959, -0.46801596879959106, -0.0672268271446228, -0.0020865476690232754, 0.009070677682757378, -0.004203942138701677, 0.2337537705898285, -0.159585103392601, -0.04542143642902374, -0.10270532965660095, -0.021532760933041573, 0.19408302009105682, 0.1128874197602272, 0.03095119819045067, 0.05732586234807968, 0.007146966177970171, -0.4306166172027588, -0.012436389923095703, -0.13363711535930634, 0.1320146918296814, 0.1812943071126938, 0.11195426434278488, -0.1723790317773819, -0.2567344903945923, 0.023264648392796516, 0.047357331961393356, -0.08230218291282654, -0.03163089230656624, -0.08415666967630386, -0.0029359450563788414, 0.046619877219200134, -0.04863199219107628, 0.04156462848186493, -0.108255535364151, -0.04086439311504364, 0.028145357966423035, 0.10019707679748535, -0.21277140080928802, -0.04091338440775871, -0.016172554343938828, 0.2095632255077362, -0.2750830054283142, 0.07023920118808746, 0.013455487787723541, 0.07693479210138321, 0.09137322008609772, -0.12115924805402756, -0.041081786155700684, -0.02133667841553688, 0.11853557825088501, 0.1065804734826088, -0.02322598360478878, -0.12473838031291962, -0.3635590970516205, 0.0038346219807863235, 0.12489556521177292, 0.07230108231306076, 0.25477343797683716, -0.09475403279066086, 0.21462473273277283, 0.09217732399702072, 0.21472665667533875, 0.12055958807468414, -0.028379814699292183, -0.3081788718700409, 0.16524477303028107, -0.1642206609249115, -0.12017244100570679, 0.0723947286605835, -0.2134055346250534, -0.001440674066543579, -0.1778300255537033, -0.05031562224030495, 0.10146193206310272, 0.05510841682553291, 0.11729942262172699, -0.1564832180738449, 0.15302032232284546, 0.14414745569229126, -0.08848640322685242, 0.010373059660196304, 0.0825311467051506, 0.12830601632595062, -0.012491149827837944, 0.02504957653582096, -0.005663505755364895, -0.12151787430047989, 0.010937757790088654, 0.06997333467006683, 0.18009209632873535, 0.2981361448764801, 0.10250671952962875, -0.13704225420951843, -0.06954753398895264, 0.03362370282411575, -0.2797752618789673, -0.19378818571567535, -0.07261811196804047, -0.0696054995059967, 0.08784989267587662, 0.08141633868217468, -0.1327589750289917, 0.05821944773197174, 0.2723454535007477, -0.004799521062523127, -0.09317032247781754, -0.10665395110845566, 0.17502793669700623, 