{"version": "0.5.1", "metadata": {"date": {"year": 2023, "month": 6, "day": 7, "hour": 22, "minute": 28, "second": 55}, "loudness": -12.23383903503418, "gain": 0.8697108572586818, "name": null, "modeled_by": null, "gear_type": null, "gear_make": null, "gear_model": null, "tone_type": null}, "architecture": "WaveNet", "config": {"layers": [{"input_size": 1, "condition_size": 1, "head_size": 8, "channels": 16, "kernel_size": 3, "dilations": [1, 2, 4, 8, 16, 32, 64, 128, 256, 512], "activation": "Tanh", "gated": false, "head_bias": false}, {"input_size": 16, "condition_size": 1, "head_size": 1, "channels": 8, "kernel_size": 3, "dilations": [1, 2, 4, 8, 16, 32, 64, 128, 256, 512], "activation": "Tanh", "gated": false, "head_bias": true}], "head": null, "head_scale": 0.02}, "weights": [-0.12174169719219208, 0.8666536211967468, -0.9574487805366516, -0.8922225832939148, -0.47376877069473267, 0.5149103403091431, 0.011294765397906303, 0.9424079060554504, -0.11237039417028427, 0.26748910546302795, -0.39233168959617615, -0.32635146379470825, -1.0511966943740845, -0.9029729962348938, -0.5700437426567078, 0.33518338203430176, -0.09897899627685547, 0.35742464661598206, -0.47011759877204895, 0.07365782558917999, -0.2128988355398178, 0.4537203013896942, -0.1615830808877945, 0.3663748502731323, -0.3498011529445648, -0.11913351714611053, 0.38794296979904175, -0.46300220489501953, -0.2257273942232132, 0.2161087542772293, -0.38608476519584656, 0.2737678289413452, -0.3501357436180115, 0.2796344459056854, -0.11801671236753464, 0.1637071967124939, -0.3347216248512268, 0.2571749985218048, -0.19403159618377686, 0.39755547046661377, -0.14341427385807037, 0.17209205031394958, -0.3245623707771301, 0.0061492919921875, -0.3370521068572998, 0.2623133957386017, -0.04436924308538437, 0.33109304308891296, -0.3979039192199707, -0.1308915615081787, 0.3490579128265381, -0.18397527933120728, -0.07495243847370148, 0.27472764253616333, -0.22986437380313873, -0.22073028981685638, 0.2899213433265686, -0.442656546831131, -0.2380264401435852, 0.18042469024658203, -0.26698580384254456, 0.2565711736679077, -0.3804091513156891, 0.4554421901702881, 0.19264796376228333, -0.11655480414628983, -0.036330703645944595, -0.09654614329338074, 0.16630971431732178, 0.14265531301498413, 0.01856628991663456, -0.12496861815452576, 0.056493427604436874, 0.2500613033771515, 0.05269215255975723, 0.12670782208442688, 0.15986096858978271, -0.19618737697601318, 0.01246553286910057, -0.2208891361951828, -0.05591881275177002, 0.13122186064720154, 0.14170388877391815, -0.2560417354106903, -0.08255637437105179, -0.15425211191177368, 0.049312129616737366, -0.06583737581968307, 0.17983683943748474, -0.15986201167106628, 0.04623960331082344, -0.05689288303256035, 0.17054417729377747, 0.0532381497323513, -0.011281155981123447, -0.16321821510791779, 0.07332602888345718, 0.15153296291828156, -0.19699661433696747, -0.09829366207122803, 0.26760047674179077, 0.02884257584810257, -0.060882747173309326, 0.0941368043422699, -0.2109496146440506, -0.0036034388467669487, 0.021593211218714714, -0.18566866219043732, -0.009161609224975109, -0.10644330829381943, 0.058680210262537, 0.1370677500963211, 0.17305538058280945, 0.010882245376706123, -0.00726466067135334, -0.337668776512146, 0.1305670142173767, 0.1720205694437027, 0.224814310669899, -0.13086062669754028, -0.11081039905548096, 0.21916790306568146, -0.23377461731433868, -0.09455174207687378, 0.07188594341278076, -0.24128882586956024, -0.19156666100025177, -0.3012847900390625, 0.11515343189239502, 0.03809038922190666, 0.14401957392692566, -0.046742815524339676, -0.15995998680591583, -0.2168559730052948, 0.2652011513710022, 0.14743851125240326, 0.2566019296646118, -0.12349265068769455, -0.07986562699079514, -0.1232345923781395, 0.26542848348617554, 0.22944886982440948, 0.34606751799583435, -0.1555095911026001, -0.28099289536476135, 0.14405407011508942, -0.0470057912170887, -0.14417679607868195, 0.13192243874073029, -0.2696244716644287, -0.2985713481903076, 0.09261578321456909, -0.19418048858642578, -0.08445988595485687, 0.2914893627166748, -0.3023417592048645, -0.06929949671030045, -0.39546170830726624, 0.14047351479530334, 0.10314424335956573, -0.086117222905159, 0.34876933693885803, -0.4402737617492676, -0.06486877799034119, -0.37457767128944397, 0.22148242592811584, -0.11851814389228821, 0.3976191282272339, -0.33650901913642883, -0.0657307505607605, 0.4698793888092041, -0.2675197124481201, 0.07757654786109924, 0.3923666775226593, -0.3479802906513214, 0.16448433697223663, -0.3594483435153961, 0.16353552043437958, 0.14116179943084717, 0.21953852474689484, -0.23276935517787933, 0.027300061658024788, -0.23788245022296906, 0.24621742963790894, -0.02445579506456852, 0.36437657475471497, -0.2803153991699219, 0.03953448310494423, -0.42584624886512756, 0.29967546463012695, 0.054577216506004333, 0.4252229928970337, -0.31865137815475464, -0.03254275023937225, 0.24402371048927307, -0.31014755368232727, -0.1399632841348648, 0.3877878189086914, -0.29067763686180115, -0.06379106640815735, 0.35382694005966187, -0.11803898960351944, -0.16431234776973724, 0.2444242238998413, -0.2971406579017639, 0.20471158623695374, -0.4246317744255066, 0.5390626788139343, -0.13032560050487518, 0.4023227393627167, -0.1197737380862236, 0.11541405320167542, -0.38321951031684875, -0.008663672022521496, -0.1350182443857193, 0.41367921233177185, -0.12768566608428955, -0.21685855090618134, 0.5083144307136536, -0.13599474728107452, -0.15274350345134735, 0.5269495248794556, 0.022290684282779694, 0.1634720414876938, -0.5188377499580383, 0.10190174728631973, -0.2165111005306244, 0.2828028202056885, -0.12416141480207443, 0.11861346662044525, -0.3894641697406769, 0.13574326038360596, -0.16842633485794067, 0.4723331928253174, 0.016690846532583237, 0.06374982744455338, -0.28454431891441345, -0.05439980700612068, -0.19932317733764648, 0.42064788937568665, 0.019858049228787422, -0.03423255681991577, 0.3310777544975281, -0.0459054633975029, -0.06027233228087425, 0.25058412551879883, 0.08874242752790451, -0.26280075311660767, 0.39963555335998535, -0.04297541826963425, -0.2205798178911209, 0.4086533188819885, 0.09685716032981873, 0.13971570134162903, -0.5164885520935059, 0.09600572288036346, -0.056954629719257355, 0.021544324234128, -0.01939268968999386, -0.1531149446964264, -0.008154341951012611, 0.07688478380441666, 0.12711744010448456, 0.033066753298044205, 0.05411606654524803, 0.0054875630885362625, -0.11622318625450134, 0.04719395563006401, 0.1699034422636032, -0.03885480388998985, -0.06435752660036087, -0.13101734220981598, -0.06472717970609665, 0.020585663616657257, 0.0024154186248779297, -0.11525756865739822, 0.19884108006954193, -0.14978186786174774, 0.05589751526713371, 0.033996134996414185, 0.09247292578220367, -0.13688483834266663, -0.08186892420053482, 0.05522828921675682, 0.08710618317127228, 0.10781009495258331, 0.012257255613803864, -0.020789843052625656, -0.019001325592398643, 0.05251622945070267, -0.1528259515762329, 0.06905899196863174, 0.09841202199459076, -0.07771503925323486, -0.028510095551609993, -0.03232475370168686, 0.024907521903514862, -0.10193686932325363, 0.11129134148359299, -0.12701910734176636, -0.06537628173828125, -0.05454782769083977, -0.026400214061141014, -0.00738923205062747, 0.02974099852144718, -0.3018700182437897, 0.2723611295223236, 0.09649748355150223, 0.2894382178783417, -0.2207062691450119, -0.16075989603996277, -0.2547110915184021, 0.2476128786802292, -0.08960073441267014, -0.17450609803199768, 0.2978878319263458, -0.11335810273885727, -0.22497281432151794, 0.2648102939128876, 0.036442775279283524, 0.23985376954078674, -0.1946999728679657, -0.15265072882175446, -0.12878632545471191, 0.2671700417995453, 0.16599172353744507, 0.31173980236053467, -0.18461844325065613, 0.0729721188545227, -0.25117844343185425, 0.1225658506155014, -0.0985637903213501, 0.34695330262184143, -0.12333578616380692, -0.13145139813423157, -0.1563851237297058, 0.322041392326355, 0.10830054432153702, -0.09033475071191788, 0.33245187997817993, -0.07189639657735825, -0.2773961126804352, 0.31781575083732605, 0.04620235040783882, -0.3175989091396332, 0.33174967765808105, 0.032062746584415436, -0.1516326665878296, 0.1155996322631836, 0.032477784901857376, 0.1802152842283249, -0.10713784396648407, 0.056200455874204636, -0.06589191406965256, 0.08531565964221954, 0.01668558642268181, 0.11842340230941772, 0.04955287650227547, -0.060756128281354904, -0.13662949204444885, -0.08072572201490402, -0.09963879734277725, -0.28382062911987305, 0.1319771260023117, 0.12467960268259048, -0.0269198939204216, 0.13714571297168732, -0.18003183603286743, 0.0656689777970314, -0.047738928347826004, -0.08846449106931686, -0.0007630574982613325, -0.11855784058570862, -0.11125112324953079, 0.02984635718166828, -0.09915415197610855, 0.18379569053649902, -0.02025291509926319, 0.14110055565834045, 0.0657937154173851, 0.2853615880012512, -0.058559805154800415, 0.10366161167621613, -0.03660987690091133, 0.06547278165817261, 0.19899395108222961, -0.07471917569637299, 0.12348027527332306, -0.013856719247996807, -0.10315487533807755, 0.028972111642360687, 0.008595420978963375, -0.25051987171173096, -0.06323564797639847, -0.06434649974107742, -0.06814641505479813, 0.12353404611349106, -0.102607861161232, 0.03408828377723694, 0.016008447855710983, -0.1560204178094864, -0.1039533019065857, -0.0030460881534963846, 0.4051259756088257, 0.22201889753341675, -0.1080600917339325, -0.1349998414516449, -0.05706116184592247, -0.0619160421192646, -0.1907091587781906, -0.24710792303085327, -0.027868857607245445, -0.14570440351963043, -0.15411877632141113, -0.10009314864873886, 0.22152435779571533, 0.12045062333345413, -0.0328763909637928, -0.19097955524921417, 0.09908988326787949, 0.08973848074674606, 0.18347050249576569, 0.1739383488893509, 0.07690789550542831, -0.16655011475086212, -0.25937506556510925, 0.00046953820856288075, 0.1507449746131897, 0.09004630148410797, 0.05041113495826721, -0.37413671612739563, -0.11012757569551468, 0.11456920206546783, -0.25980427861213684, -0.24697643518447876, -0.03048975020647049, -0.24124719202518463, -0.2790740430355072, 0.058081720024347305, -0.4013702869415283, -0.303070068359375, -0.1454409956932068, -0.3009997010231018, -0.06607173383235931, -0.13593512773513794, 0.39193251729011536, 0.04682360589504242, -0.04695756733417511, 0.020521484315395355, -0.27268749475479126, 0.3221852481365204, 0.10430344939231873, 0.32424846291542053, -0.08306637406349182, -0.12885156273841858, -0.05946619436144829, 0.15833313763141632, 0.03911055624485016, -0.2943972945213318, 0.11158265173435211, -0.17066365480422974, -0.23227035999298096, 0.18575097620487213, -0.09478713572025299, 0.22424820065498352, -0.08406171947717667, 0.03495055437088013, -0.11904412508010864, 0.08602438867092133, -0.01563640497624874, 0.2393006831407547, -0.013225234113633633, 0.09550769627094269, -0.149033322930336, 0.2387397587299347, -0.12297123670578003, 0.029500821605324745, -0.09808424115180969, -0.10488778352737427, -0.08978399634361267, 0.06524699926376343, -0.09570810198783875, -0.2820448875427246, 0.2466708868741989, -0.04582136124372482, -0.06426768004894257, 0.24192523956298828, 0.052740029990673065, -0.17553630471229553, 0.10914144665002823, -0.06096021831035614, -0.16042156517505646, 0.2266354113817215, -0.10668010264635086, 0.30687761306762695, -0.19139137864112854, -0.10801233351230621, -0.5136861801147461, 0.41232535243034363, 0.14767634868621826, 0.2994688153266907, -0.09550566226243973, 0.05069652944803238, -0.34086915850639343, 0.3066880404949188, -0.0959511250257492, -0.3791939318180084, 0.24780090153217316, -0.06039198115468025, -0.3719024360179901, 0.15344959497451782, 0.09365333616733551, 0.38473615050315857, -0.2597205340862274, -0.03978026658296585, -0.3662387728691101, 0.15177737176418304, 0.030408591032028198, 0.5077272653579712, -0.2006475329399109, 0.06443359702825546, -0.42995837330818176, 0.2802519202232361, -0.10084468126296997, 0.30588820576667786, -0.2778211832046509, 0.11776739358901978, -0.4492901563644409, 0.19622424244880676, -0.09535779803991318, -0.2779310643672943, 0.3470191955566406, -0.12836672365665436, -0.5396721959114075, 0.0751131996512413, -0.01638399437069893, -0.4676112234592438, 0.09515204280614853, -0.06873762607574463, -0.39696991443634033, 0.11612886190414429, -0.01905665174126625, 0.39229872822761536, -0.44309309124946594, -0.23391027748584747, 0.5414374470710754, -0.2304578721523285, 0.2238520085811615, -0.49129900336265564, 0.16807514429092407, -0.34517988562583923, 0.29101675748825073, 0.12597283720970154, -0.30404505133628845, 0.45480626821517944, -0.03208770602941513, -0.24596963822841644, 0.3860674798488617, 0.060437481850385666, 0.23510266840457916, -0.5708931088447571, -0.05006210505962372, -0.23465074598789215, 0.4186638593673706, -0.19732025265693665, 0.34783926606178284, -0.45939871668815613, -0.009272746741771698, -0.13555802404880524, 0.464483380317688, 0.052467793226242065, 0.30850639939308167, -0.4302583634853363, -0.05586950108408928, -0.22665803134441376, 0.5294967889785767, -0.07696862518787384, -0.3481966257095337, 0.4751264452934265, 0.09785227477550507, -0.2501537501811981, 0.3045414388179779, -0.14745382964611053, -0.17847034335136414, 0.42309558391571045, -0.09451256692409515, -0.1869344413280487, 0.4797671139240265, 0.08952929079532623, 0.39020416140556335, -0.4947248101234436, 0.02972443401813507, -0.16769284009933472, 0.07182208448648453, 0.2340843230485916, 0.1380683034658432, -0.03218771517276764, -0.015235476195812225, 0.052847471088171005, 0.03383603319525719, 0.02049827389419079, -0.13265906274318695, -0.19253401458263397, 0.2822200357913971, -0.14140863716602325, -0.15865756571292877, 0.2196490615606308, 0.005903450306504965, 0.025630129501223564, -0.16086143255233765, -0.08276236802339554, -0.14658904075622559, 0.21956543624401093, 0.013142050243914127, 0.1412450224161148, -0.023614933714270592, 0.02506416290998459, -0.04527171328663826, 0.2849706709384918, 0.09134772419929504, 0.011410555802285671, -0.013928812928497791, -0.04317973181605339, -0.22427186369895935, 0.11055820435285568, -0.16722027957439423, 0.05079729110002518, 0.13625800609588623, -0.21233201026916504, -0.10098408907651901, 0.2351544052362442, -0.038817454129457474, -0.04827497899532318, 0.15977153182029724, -0.025209933519363403, -0.12977200746536255, 0.08865880221128464, -0.06103269010782242, 0.02515503764152527, -0.060129355639219284, 0.15657764673233032, 0.0720275342464447, -0.18702535331249237, -0.2518651485443115, -0.18149517476558685, 0.3343713879585266, 0.18115441501140594, 0.2114909440279007, -0.3041447103023529, 0.22811445593833923, 0.16976799070835114, -0.2492930144071579, 0.3823201060295105, -0.011074893176555634, -0.31645122170448303, -0.3245532214641571, -0.06204064562916756, 0.33208101987838745, 0.12731415033340454, 0.08730045706033707, -0.1765596568584442, -0.2949111759662628, 0.0133966701105237, 0.07647878676652908, 0.25036394596099854, 0.20136907696723938, -0.22026780247688293, -0.1443338394165039, -0.13143955171108246, 0.3029082119464874, 0.12563098967075348, 0.07279136776924133, -0.21020576357841492, 0.30659088492393494, 0.13468128442764282, -0.1003616452217102, 0.24392792582511902, 0.09088901430368423, -0.08315260708332062, 0.22201530635356903, 0.21695514023303986, -0.28665265440940857, 0.24734143912792206, 0.08193118125200272, -0.1309652030467987, -0.1288710981607437, -0.014092427678406239, 0.22192132472991943, -0.004263748414814472, 0.29055851697921753, -0.05034017190337181, -0.002849276876077056, -0.11410663276910782, 0.2725508213043213, -0.07904991507530212, 0.058357857167720795, -0.03946489840745926, -0.19718526303768158, 0.2292538583278656, -0.11845073848962784, -0.1582249402999878, 0.2448725402355194, -0.26501721143722534, 0.12204784899950027, -0.2974846363067627, 0.12681931257247925, -0.04848315194249153, 0.3188358545303345, -0.16664576530456543, 0.18240247666835785, -0.21310243010520935, 0.07159093022346497, -0.20676766335964203, 0.07243476808071136, 0.0051169139333069324, 0.057392872869968414, -0.1785673052072525, 0.17639406025409698, 0.001898828661069274, 0.3101302981376648, -0.026397626847028732, -0.18922749161720276, 0.18692277371883392, -0.20444829761981964, -0.17571143805980682, 0.22293901443481445, -0.006998573429882526, -0.20327231287956238, 0.2873362600803375, -0.21447443962097168, -0.11880040913820267, 0.31059080362319946, -0.1718677133321762, 0.06612136960029602, -0.43382906913757324, 0.1745160073041916, -0.23985286056995392, -0.22730156779289246, 0.2646433115005493, 0.16092398762702942, 0.05062449350953102, -0.16768920421600342, -0.15204684436321259, -0.20987364649772644, 0.23565933108329773, -0.14005382359027863, -0.07144912332296371, 0.09461455047130585, -0.27624937891960144, -0.2098005712032318, 0.05603631213307381, 0.2606670558452606, 0.27180659770965576, -0.05804101750254631, -0.1284397840499878, -0.029539557173848152, 0.10451620817184448, 0.3741430342197418, 0.1076454445719719, -0.2698845863342285, -0.20983290672302246, -0.051823168992996216, 0.05815039575099945, 0.3869026303291321, 0.21141594648361206, -0.27105486392974854, -0.2983621060848236, -0.042508792132139206, 0.05624512955546379, -0.29651808738708496, -0.10375937819480896, 0.06172339990735054, -0.1887214332818985, -0.09694703668355942, 0.2524998188018799, -0.35495978593826294, -0.023381659761071205, 0.08579408377408981, -0.11858721077442169, -0.30411985516548157, 0.04470991715788841, 0.3113263249397278, 0.10479272902011871, -0.28378787636756897, -0.15462177991867065, 0.016632312908768654, -0.4213850200176239, -0.0827227532863617, 0.28749969601631165, -0.06991361081600189, -0.18022720515727997, -0.0652935802936554, 0.33713242411613464, -0.12159528583288193, -0.0012008864432573318, 0.24099530279636383, -0.06800135970115662, 0.03502095863223076, -0.16001687943935394, 0.030574340373277664, 0.7683021426200867, -0.43119093775749207, 0.9695321321487427, -0.5082706809043884, 0.007114373613148928, 0.9007432460784912, 0.8024532198905945, -0.588830828666687, 0.19704629480838776, -0.02742762863636017, -0.643772542476654, -0.34042787551879883, 0.13008521497249603, -0.5162665247917175, 0.30994102358818054, 0.27230361104011536, -0.39643600583076477, 0.17220467329025269, 0.026019195094704628, -0.11786241829395294, 0.12102056294679642, 0.04664963483810425, 0.15564824640750885, 0.0812763199210167, -0.0911981612443924, 0.04735695198178291, 0.14164789021015167, -0.2541501820087433, 0.1265568882226944, -0.012063859961926937, 0.14961038529872894, -0.02258908376097679, 0.851692795753479, -0.2362511307001114, -0.5023335814476013, 0.3533672094345093, 0.6686850786209106, 0.03728697821497917, -0.20918050408363342, 0.0730065107345581, -0.04593797028064728, 0.01113500539213419, -0.45794954895973206, 1.0456653833389282, 0.06864878535270691, -0.0976819321513176, 0.41968363523483276, 0.1560012400150299, -0.27110931277275085, 0.15439768135547638, -0.24434150755405426, 0.06494002044200897, 0.0467447005212307, -0.3207401931285858, -0.11387433856725693, -0.24659398198127747, 0.006202081684023142, -0.3009977638721466, 0.243269681930542, -0.16095343232154846, -0.07330788671970367, 0.32132741808891296, -0.1554417759180069, -0.04674743488430977, 0.22733359038829803, -0.1851852983236313, -0.3652905523777008, -0.17029276490211487, 0.2727115750312805, -0.0010846522636711597, -0.25412416458129883, -0.08958237618207932, -0.35743799805641174, -0.22038120031356812, -0.040795013308525085, 0.39808404445648193, 0.06420554965734482, 0.3593754172325134, -0.13658179342746735, -0.18820501863956451, 0.12611018121242523, -0.34835052490234375, -0.33695608377456665, 0.25213518738746643, 0.3553420305252075, 0.08939307928085327, 0.06331858038902283, -0.24808090925216675, 0.14809264242649078, 0.1086612343788147, -0.26395997405052185, 0.5535120964050293, -0.04306181147694588, 0.10799315571784973, -0.012133759446442127, 0.15318143367767334, 0.472366601228714, 0.025422045961022377, 0.17557504773139954, 0.4450775384902954, 0.35685405135154724, 0.21278047561645508, 0.2653517425060272, 0.052786607295274734, -0.0029545719735324383, -0.11055348813533783, -0.5328553915023804, 0.23712585866451263, 0.0007800105959177017, -0.10635485500097275, 0.17407050728797913, 0.06279083341360092, 0.14221154153347015, -0.045312315225601196, 0.1659216731786728, -0.059648606926202774, -0.10064063221216202, -0.1417268067598343, 0.08406851440668106, 0.03154553100466728, -0.1257101595401764, -0.22313810884952545, -0.09085728973150253, 0.44756224751472473, 0.11853715032339096, -0.16370131075382233, 0.1705072522163391, -0.19881220161914825, 0.30039361119270325, 0.07996197789907455, 0.463774174451828, -0.24753648042678833, -0.4291144907474518, 0.08636371046304703, 0.416043221950531, 0.16529811918735504, 0.13317514955997467, -0.04366930574178696, 0.2268192619085312, -0.3508965075016022, 0.06255001574754715, -0.23713770508766174, -0.16655109822750092, 0.1242438405752182, -0.35629117488861084, -0.13068100810050964, -0.19732223451137543, -0.3950416147708893, -0.00013683413271792233, 0.04099433496594429, -0.07705888152122498, 0.0006298830849118531, -0.16208231449127197, -0.05918712168931961, 0.35579851269721985, -0.14934365451335907, 0.05771974101662636, -0.21425949037075043, 0.1747281402349472, 0.11864902079105377, -0.7043436765670776, -0.014809809625148773, 0.38925692439079285, -0.4999481439590454, -0.690804660320282, -0.04501524940133095, 0.34333232045173645, -0.0010567504214122891, 0.10482194274663925, 0.4137142300605774, 0.434296190738678, -0.6060580611228943, 0.30222076177597046, 0.10123469680547714, -0.2495928853750229, 0.05881106108427048, 0.020466439425945282, 0.11081965267658234, -0.34999123215675354, 0.1075398176908493, 0.04670526087284088, -0.23152993619441986, 0.01403820514678955, -0.027894575148820877, -0.036106258630752563, -0.09777073562145233, -0.1544564962387085, 0.2150583416223526, -0.043431248515844345, 0.1430608630180359, 0.04269575700163841, 0.1838562786579132, 0.00019284168956801295, -0.03285989910364151, -0.1788652241230011, 0.10652001202106476, 0.43463948369026184, -0.21065805852413177, -0.392828106880188, -0.26024681329727173, -0.48216763138771057, -0.4938845634460449, -0.25451189279556274, 0.15649303793907166, -0.2711867690086365, 0.45820489525794983, -0.40084588527679443, -0.533492386341095, -0.19882291555404663, 0.054630789905786514, 0.018329132348299026, 0.0037610267754644156, 0.07161370664834976, -0.11583031713962555, -0.05301554501056671, 0.1678706556558609, 0.3134600818157196, 0.003932890482246876, -0.06867600232362747, -0.1266266107559204, 0.0971970409154892, -0.1255958527326584, -0.1999456286430359, 0.097627192735672, -0.6461196541786194, -0.030149122700095177, -0.08838105201721191, -0.2648148238658905, -0.34437668323516846, 0.13676460087299347, 0.25051194429397583, 0.13504517078399658, 0.04874330759048462, 0.06247325986623764, 0.35656267404556274, -0.5884871482849121, -0.13218837976455688, -0.017174124717712402, -0.37503084540367126, 0.09017659723758698, -0.2021922618150711, 0.25453832745552063, -0.27691590785980225, -0.18624092638492584, 0.2984125018119812, -0.19214147329330444, -0.010638519190251827, 0.05071740224957466, -0.2022964507341385, -0.05730796977877617, 0.004542959854006767, 0.01269451342523098, 0.021377669647336006, 0.2294023185968399, -0.2877148687839508, -0.07019373029470444, 0.14191500842571259, 0.15478649735450745, 0.23319445550441742, -0.1687738299369812, -0.13168494403362274, 0.26903554797172546, -0.06986526399850845, 0.11661016196012497, -0.19855941832065582, -0.30011042952537537, -0.11808352172374725, -0.29759156703948975, -0.17581281065940857, 0.2616702616214752, -0.15753664076328278, -0.11570599675178528, 0.12517738342285156, -0.19618694484233856, 0.28101295232772827, -0.08985594660043716, -0.1336912363767624, -0.06898915022611618, 0.17069093883037567, 0.02276267297565937, -0.019119536504149437, -0.07584378123283386, 0.11530008912086487, 0.2831982672214508, -0.02948761358857155, 0.03981969133019447, 0.22416631877422333, 0.15685617923736572, -0.06806839257478714, 0.027353599667549133, 0.14386902749538422, 0.004872218240052462, -0.3384016454219818, 0.29871371388435364, -0.2719782590866089, -0.025794880464673042, 0.26902878284454346, -0.3333008289337158, -0.04835179075598717, 0.18008099496364594, -0.20122329890727997, -0.19954267144203186, 0.23404018580913544, 0.3841695487499237, -0.1098111942410469, -0.19436083734035492, -0.16648156940937042, -0.1743701994419098, 0.16762544214725494, 0.27746865153312683, -0.02226688712835312, -0.46106255054473877, -0.19037772715091705, 0.1792486160993576, -0.011608150787651539, 0.03552525117993355, 0.13775640726089478, -0.38969624042510986, -0.3034355938434601, -0.05905964970588684, 0.3544272184371948, -0.4066970944404602, -0.1856928914785385, 0.2807590067386627, -0.2812253534793854, 0.13046972453594208, 0.2236832231283188, -0.07161173969507217, 0.32255202531814575, -0.2583073377609253, -0.3579190671443939, 0.028717052191495895, 0.25856682658195496, 0.06353067606687546, -0.08017650246620178, 0.03972708061337471, -0.10553715378046036, -0.06706081330776215, 0.21534059941768646, -0.06272690743207932, 0.05484083667397499, 0.42913171648979187, -0.23461146652698517, -0.125792995095253, 0.27379149198532104, -0.24189797043800354, 0.009153967723250389, 0.10181096941232681, 0.017488684505224228, -0.19999812543392181, 0.26211783289909363, -0.012603783048689365, 0.03482842072844505, -0.22158926725387573, 0.03487904369831085, -0.1299286037683487, 0.07914614677429199, 0.2949637472629547, 0.0698472112417221, -0.19871561229228973, -0.10317198932170868, -0.23911698162555695, 0.2168438583612442, 0.26915043592453003, 0.15141095221042633, -0.3191561996936798, -0.07467454671859741, -0.04414790868759155, 0.2477332204580307, -0.2615170180797577, -0.14639919996261597, 0.35329437255859375, -0.0984819307923317, -0.07369861751794815, 0.26251235604286194, 0.0060788532719016075, -0.36002907156944275, 0.08157447725534439, -0.2222704142332077, -0.174735888838768, 0.14981609582901, -0.2417907565832138, 0.08164010941982269, -0.20989124476909637, -0.12331457436084747, -0.010467469692230225, 0.19556204974651337, 0.18490605056285858, 0.2839779555797577, -0.7788017988204956, -0.20455747842788696, 0.1264842003583908, 0.2365555465221405, -0.017382655292749405, 0.1031428724527359, -0.052020180970430374, 0.08684509247541428, 0.18187019228935242, -0.017726900056004524, 0.262393593788147, -0.05283531919121742, -0.3007824122905731, 0.001484328880906105, -0.2075500637292862, -0.28625065088272095, 0.11798205971717834, -0.18577831983566284, 0.08014632016420364, -0.2206500619649887, -0.005887624341994524, 0.3454603850841522, 0.05583396553993225, 0.06026022508740425, 0.14610238373279572, -0.2911125421524048, -0.06514576822519302, 0.11992096900939941, -0.08945531398057938, -0.0386546291410923, 0.18173496425151825, 0.0187491737306118, 0.4506073296070099, 0.2744802236557007, -0.012359421700239182, 0.0981043204665184, 0.9676874876022339, -0.2999092936515808, 0.0724024847149849, 0.20929695665836334, -0.35831350088119507, -0.36254510283470154, 0.2687015235424042, 0.03380255773663521, -0.13791444897651672, -0.1229974776506424, -0.2218717485666275, 0.231397807598114, -0.16633440554141998, 0.27711546421051025, -0.1401887685060501, -0.36177656054496765, 0.2254462093114853, 0.12961561977863312, -0.28162744641304016, 0.04404878616333008, 0.03293418511748314, -0.19064757227897644, -0.3636009395122528, 0.07030706852674484, 0.17007511854171753, 0.027163106948137283, 0.11741020530462265, -0.12270611524581909, -0.3377608358860016, -0.0034834116231650114, 0.2720199227333069, 0.35186153650283813, -0.22986286878585815, -0.15303651988506317, 0.019316155463457108, -0.2207818627357483, 0.2391568422317505, 0.2690999507904053, -0.06757236272096634, -0.2301819622516632, 0.2653351426124573, 0.12311561405658722, -0.0720444768667221, 0.2677932381629944, -0.014158456586301327, -0.317806601524353, 0.3013356626033783, -0.08018018305301666, -0.032922469079494476, 0.15264476835727692, -0.028449470177292824, -0.09565294533967972, 0.016385382041335106, 0.10687482357025146, 0.13402369618415833, -0.07759472727775574, 0.21841904520988464, -0.03966344892978668, 0.02354048192501068, 0.2223467081785202, -0.6991916298866272, -0.07432248443365097, 0.3009021580219269, 0.004365498665720224, -0.11281093955039978, 0.3005632758140564, 0.055685125291347504, 0.013109998777508736, 0.2307458370923996, -0.36604711413383484, -0.049902573227882385, -0.20084036886692047, -0.15575850009918213, 0.059215862303972244, -0.08163515478372574, -0.14031249284744263, 0.03112134151160717, -0.11435012519359589, 0.18884852528572083, 0.01453105453401804, 0.20956562459468842, -0.5516908764839172, -0.06090908497571945, -0.2593025267124176, 0.2565726935863495, 0.10319848358631134, 0.12221021950244904, -0.12365490198135376, -0.09949824213981628, 0.23147641122341156, 0.20897172391414642, -0.15984408557415009, 0.2749795615673065, -0.17325390875339508, 0.13360747694969177, 0.13967430591583252, 0.11931218951940536, -0.021476570516824722, 0.07097124308347702, -0.06391090154647827, -0.18006989359855652, -0.15973767638206482, 0.89505934715271, 0.12803106009960175, 0.14578522741794586, 0.05295811593532562, 0.20700493454933167, -0.002259236527606845, 0.04710978642106056, -0.17364732921123505, -0.08317013084888458, -0.12691421806812286, -0.060983818024396896, 0.059469353407621384, 0.022416505962610245, 0.00018742015527095646, 0.05555877834558487, -0.0178986843675375, 0.29592251777648926, -0.03240159526467323, 0.1773497462272644, 0.168570414185524, -0.1773277223110199, -0.150416761636734, 0.08026616275310516, -0.1440548151731491, 0.2107730358839035, 0.34198203682899475, 0.11724738031625748, -0.05640152096748352, 0.006095743738114834, -0.10152522474527359, -0.0313509963452816, 0.10003350675106049, 0.045512646436691284, -0.056048136204481125, 0.1283605992794037, 0.00011018403165508062, 0.0024285675026476383, 0.159436896443367, 0.054385893046855927, -0.11224905401468277, -0.06624183803796768, -0.07490122318267822, -0.00963979959487915, -0.14956583082675934, 0.13795864582061768, -0.22965240478515625, -0.37560364603996277, 0.025314293801784515, -0.07822535187005997, 0.07674432545900345, 0.047485705465078354, 0.09095986187458038, 0.13030916452407837, -0.0818212628364563, -0.16006319224834442, 0.011267237365245819, -0.07952278107404709, 0.23965969681739807, 0.19543401896953583, -0.01280700508505106, 0.005450404714792967, 0.04161493852734566, -0.005549289286136627, -0.002690936205908656, 0.11900248378515244, 0.07546507567167282, -0.04492417350411415, 0.0998026505112648, -0.1879541426897049, 0.058057308197021484, -0.05122171714901924, 0.15872600674629211, -0.09371612966060638, -0.16253215074539185, -0.07199157774448395, -0.0026349020190536976, 0.036393169313669205, 0.18268105387687683, 0.051782943308353424, 0.14151686429977417, -0.11142509430646896, 0.15722423791885376, -0.07681307196617126, -0.01551984902471304, 0.07793328166007996, 0.41013646125793457, 0.15031090378761292, 0.2963832914829254, 0.03175121545791626, 0.18731717765331268, 0.02465297468006611, -0.10268153250217438, -0.04218370094895363, 0.0543491430580616, -0.2863398790359497, 0.023286718875169754, 0.05547282099723816, -0.11689643561840057, 0.19352179765701294, 0.24840165674686432, 0.0256577730178833, -0.3216113746166229, -0.14864817261695862, -0.16408421099185944, 0.04292949289083481, 0.25378328561782837, -0.11508186161518097, -0.12699054181575775, -0.021592706441879272, -0.0987405851483345, -0.27654829621315, -0.13162218034267426, 0.2362605631351471, -0.21430665254592896, -0.23762278258800507, 0.043022576719522476, -0.135368213057518, 0.06983484327793121, 0.12245466560125351, -0.07180249691009521, -0.19783781468868256, -0.11863455921411514, 0.27267393469810486, 0.17876483500003815, 0.15606115758419037, 0.20274068415164948, -0.11973138898611069, 0.05091683194041252, -0.09537363052368164, 0.17858876287937164, -0.07851828634738922, -0.04052596539258957, 0.2857961654663086, -0.08328001201152802, 0.15164589881896973, 0.0926855206489563, -0.33671680092811584, 0.6371604204177856, 0.005670974962413311, -0.00020567496540024877, 0.05587374046444893, 0.251753568649292, 0.16300170123577118, -0.1731913834810257, 0.34600961208343506, 0.29879307746887207, 0.48105117678642273, 0.11461220681667328, -0.17086590826511383, 0.0687989667057991, -0.44222238659858704, 0.09435579925775528, 0.2516331374645233, 0.16125589609146118, 0.020049944519996643, 0.10549036413431168, -0.18651513755321503, 0.093988798558712, 0.2763122320175171, -0.10719620436429977, 0.03099362552165985, -0.07925398647785187, -0.002180251060053706, 0.025309313088655472, 0.2766863703727722, 0.07902167737483978, -0.069959357380867, -0.29156139492988586, 0.10827673226594925, -0.2153557986021042, 0.13275793194770813, -0.08523926883935928, -0.04087875410914421, -0.22282227873802185, -0.1266624927520752, 0.005344058386981487, 0.19034706056118011, -0.04099180921912193, -0.10688427090644836, 0.14559875428676605, 0.08514343947172165, 0.02471637725830078, 0.33614811301231384, -0.09359651803970337, -0.05520862713456154, -0.008016285486519337, -0.042104631662368774, -0.043682944029569626, 0.09346907585859299, 0.03591933101415634, -0.1796514391899109, -0.2187212109565735, 0.1507803052663803, 0.19552822411060333, 0.270669549703598, 0.10990030318498611, 0.019995886832475662, -0.2805585563182831, 0.44179052114486694, -0.02669183723628521, -0.0865231528878212, 0.0276856180280447, 0.003868469037115574, -0.041203342378139496, -0.00724585959687829, 0.10973436385393143, -0.3020836412906647, -0.012245489284396172, -0.18758410215377808, -0.1720583587884903, 0.017429931089282036, 0.23600618541240692, -0.09660949558019638, 0.30399879813194275, -0.1586058884859085, 0.2613188326358795, 0.13977859914302826, -0.041718218475580215, 0.45626363158226013, 0.21892490983009338, -0.22423185408115387, 0.12408984452486038, -0.06870058178901672, -0.0012205560924485326, -0.14833566546440125, 0.1375742256641388, 0.16927236318588257, -0.18774819374084473, 0.03858739137649536, -0.23940400779247284, -0.23916016519069672, -0.18922850489616394, -0.3954663872718811, 0.35809192061424255, -0.09378287196159363, 0.06973128020763397, -0.2372788041830063, 0.10937616974115372, 0.051811493933200836, -0.05111372843384743, -0.2513437271118164, -0.04892154783010483, 0.025759320706129074, -0.11593704670667648, 0.02371116541326046, 0.17838223278522491, -0.03027142398059368, 0.027569515630602837, 0.027666224166750908, 0.08860653638839722, -0.07779049128293991, 0.01898648776113987, 0.032021135091781616, 0.041306573897600174, 0.0979301929473877, -0.04957966133952141, -0.047091711312532425, 0.054375577718019485, -0.03327123075723648, 0.027543144300580025, 0.1941569447517395, 0.08149553835391998, -0.09780637174844742, 0.005438768304884434, 0.08808177709579468, 0.10492989420890808, -0.17439663410186768, 0.17635123431682587, -0.10434181243181229, -0.26038071513175964, -0.07906337827444077, 0.1377398669719696, 0.018149880692362785, -0.09827921539545059, 0.11810950189828873, 0.09327734261751175, -0.13747602701187134, 0.1502181589603424, 0.060537200421094894, 0.17831279337406158, 0.031831976026296616, -0.14211152493953705, 0.10767048597335815, 0.09853315353393555, 0.10709889233112335, -0.02425411157310009, -0.21791453659534454, -0.09244710952043533, -0.24059008061885834, -0.08949217945337296, -0.11317060887813568, -0.0845877155661583, 0.07901353389024734, 0.05312178656458855, 0.08724843710660934, -0.2688399851322174, 0.045930586755275726, 0.22406543791294098, 0.014195685274899006, 0.03573216497898102, 0.17003601789474487, -0.015378976240754128, -0.025537945330142975, 0.023988038301467896, 0.25654086470603943, 0.2733893096446991, -0.11508406698703766, -0.05931617692112923, -0.1406521052122116, 0.1635206639766693, 0.27164268493652344, 0.20835021138191223, -0.1330713927745819, -0.2111300528049469, -0.19697070121765137, 0.10782073438167572, -0.04434535652399063, 0.2539202570915222, -0.09750335663557053, -0.20249101519584656, -0.03435857221484184, 0.11054030060768127, -0.22680798172950745, -0.05701050907373428, 0.18330280482769012, -0.3663617968559265, -0.1109389141201973, 0.17358814179897308, -0.015283293090760708, -0.20621199905872345, -0.12267442047595978, -0.07874008268117905, -0.06830208003520966, -0.008389579132199287, 0.5509759187698364, -0.0646013468503952, 0.3170681893825531, 0.005993350874632597, 0.06866089999675751, -0.04480726271867752, 0.07956964522600174, 0.2228873074054718, -0.1018575131893158, 0.16194377839565277, 0.1313457190990448, -0.07754234969615936, 0.008060931228101254, 0.0709977000951767, -0.06463809311389923, 0.19288183748722076, 0.10359431803226471, -0.07676079869270325, -0.17161400616168976, -0.17214033007621765, 0.07628880441188812, -0.07063805311918259, -0.04568164423108101, -0.066910021007061, -0.16846993565559387, -0.13317298889160156, 0.12989307940006256, 0.004585050046443939, -0.01953910104930401, 0.22686828672885895, -0.07457761466503143, -0.07840436697006226, -0.07891878485679626, 0.15102429687976837, 0.18529735505580902, -0.03695188835263252, 0.15447242558002472, -0.11890918761491776, -0.11931220442056656, 0.1591653674840927, -0.019794369116425514, 0.19720321893692017, 0.12007156759500504, -0.0035763238556683064, 0.21940670907497406, 0.15061704814434052, -0.011896512471139431, -0.02801833301782608, -0.12153395265340805, -0.06830459088087082, -0.38637226819992065, -0.28740525245666504, -0.2337513566017151, 0.07557029277086258, 0.32603585720062256, 0.5895978212356567, 0.15006442368030548, 0.012792074121534824, -0.15699101984500885, 0.06343839317560196, -0.15384502708911896, 0.018983161076903343, 0.08504224568605423, -0.02964625135064125, 0.19794955849647522, 0.20405882596969604, 0.16342884302139282, 0.3630968928337097, -0.03846436366438866, 0.027519412338733673, 0.2811303734779358, 0.1233111098408699, 0.12739765644073486, -0.020174965262413025, -0.06939195841550827, 0.058207396417856216, -0.2708934247493744, 0.2538102865219116, 0.01164962537586689, -0.3343524634838104, 0.05120427533984184, -0.007771980948746204, 0.06403997540473938, -0.07862107455730438, -0.12681208550930023, 0.05688321217894554, -0.09549865126609802, -0.09589484333992004, -0.12118922919034958, -0.08677393198013306, -0.33833077549934387, -0.39018675684928894, -0.17790383100509644, -0.15492258965969086, -0.06714209914207458, -0.10021266341209412, -0.2326314002275467, -0.20314206182956696, 0.05973565950989723, -0.1098385602235794, -0.11764748394489288, 0.03115491010248661, 0.1818828135728836, -0.13882072269916534, 0.03365577384829521, -0.12230224907398224, 0.008695549331605434, 0.1024492084980011, 0.024231282994151115, -0.10203636437654495, 0.08746320009231567, 0.0727909654378891, -0.08885707706212997, 0.08584706485271454, 0.2609458863735199, 0.15288937091827393, -0.2456490397453308, 0.084197998046875, -0.005950896069407463, 0.10305001586675644, 0.0748562142252922, 0.1462153047323227, -0.18939803540706635, 0.17798496782779694, -0.5703974366188049, 0.6410890817642212, -0.06870228797197342, 0.06547296792268753, 0.11108721047639847, -0.07341933995485306, -0.06437668204307556, 0.1968703716993332, 0.05980333685874939, 0.009361005388200283, 0.10697583109140396, -0.06749777495861053, -0.22456076741218567, 0.03310728818178177, -0.2172316014766693, -0.23479630053043365, 0.10009603947401047, -0.17563997209072113, -0.08567831665277481, -0.039922188967466354, -0.11120100319385529, 0.8691055774688721, -0.10804325342178345, 0.06558234244585037, 0.2722751498222351, -0.00033124437322840095, 0.32471349835395813, 0.23328369855880737, 0.15774022042751312, -0.04638443514704704, 0.059312764555215836, 0.06430278718471527, -0.04584033042192459, 0.07685108482837677, -0.09697239845991135, 0.037114426493644714, 0.12243419140577316, 0.06919626891613007, 0.04502001777291298, -0.09481294453144073, 0.061906926333904266, 0.024893075227737427, 0.09177058935165405, -0.17368419468402863, 0.09789272397756577, -0.16583849489688873, -0.10719545185565948, -0.08049425482749939, -0.08513051271438599, -0.17555563151836395, -0.18281887471675873, 0.0059168338775634766, 0.08380094170570374, 0.05101236701011658, 0.15812866389751434, -0.0851733535528183, -0.09593813866376877, 0.021995972841978073, 0.020859623327851295, -0.08530237525701523, -0.08805768936872482, 0.00047183275455608964, -0.01464978139847517, 0.05805618315935135, -0.31144970655441284, -0.027834171429276466, -0.050051432102918625, 0.06829746067523956, -0.30055341124534607, 0.06871300935745239, 0.03513943403959274, 0.0984291285276413, 0.052598439157009125, -0.03538287803530693, 0.09787731617689133, -0.06687676906585693, 0.13652721047401428, 0.06399433314800262, 0.19459079205989838, 0.08328049629926682, 0.018798239529132843, 0.06336179375648499, -0.039690420031547546, 0.1418188512325287, -0.0007222866988740861, 0.023953460156917572, 0.021276181563735008, -0.6086593270301819, 0.1306334137916565, -0.03469850495457649, -0.4255470335483551, 0.15903080999851227, -0.6643914580345154, -0.34678125381469727, -0.47892138361930847, 0.8750066757202148, -0.7466278076171875, -0.6648582816123962, -1.077744722366333, 0.1787242889404297, -0.8763142228126526, 0.29412776231765747, -0.6530605554580688, -0.8748802542686462, -0.17911681532859802, 0.15224817395210266, 0.2732712924480438, 0.1501336395740509, 0.03621356189250946, -0.0603812150657177, -0.073436439037323, -0.3063962757587433, -0.047689519822597504, 0.10455372929573059, 0.20902392268180847, 0.06171848252415657, 0.027621528133749962, -0.07017898559570312, -0.012520554475486279, 0.17087766528129578, 0.10458097606897354, -0.13071143627166748, -0.16652491688728333, -0.45317816734313965, 0.26281067728996277, -0.24213577806949615, 0.01748627796769142, 0.206646129488945, 0.01872510090470314, 0.19932948052883148, 0.3437565565109253, 0.10204567015171051, 0.050220802426338196, 0.23140552639961243, 0.2762870490550995, -0.19576339423656464, -0.1801231950521469, 0.023027628660202026, 0.0650363564491272, -0.03774401172995567, 0.22179992496967316, 0.04722193628549576, -0.08914779126644135, 0.009356915019452572, -0.12302722036838531, -0.13505707681179047, 0.039865389466285706, 0.14386306703090668, -0.06689627468585968, 0.2115754336118698, 0.10036833584308624, 0.4636213779449463, 0.28554925322532654, -0.1764126867055893, -0.34081023931503296, -0.3188248574733734, 0.09143730252981186, -0.15165163576602936, 0.012238453142344952, -0.23118343949317932, 0.13831758499145508, 0.02402532286942005, 0.4296560287475586, 0.1369618922472, 0.11224686354398727, 0.12259214371442795, 0.05535196140408516, 0.582456111907959, 0.11927366256713867, -0.07340828329324722, -0.2157764732837677, 0.21168546378612518, -0.04343325272202492, -0.16049912571907043, 0.11689988523721695, 0.19942301511764526, -0.16662277281284332, -0.20989350974559784, 0.14925280213356018, -0.10628630965948105, -0.041486646980047226, -0.358146071434021, -0.17671984434127808, -0.3770008087158203, -0.1995641142129898, -0.5797122120857239, -0.01667986623942852, -0.2161521017551422, -0.2363615781068802, -0.10013449937105179, 0.06094718724489212, 0.08383016288280487, 0.2943522334098816, -0.0886862650513649, -0.18931438028812408, -0.11426921933889389, -0.26722002029418945, -0.13314862549304962, 0.10834156721830368, 0.7732958197593689, 0.048849619925022125, 0.24949043989181519, -0.34754425287246704, 0.2541576623916626, 0.11526321619749069, -0.08065333217382431, 0.10843832790851593, 0.16113898158073425, -0.1367592066526413, -0.06979165226221085, 0.24683694541454315, -0.04028182849287987, -0.21730074286460876, -0.0007614108617417514, 0.16364489495754242, 0.1558304727077484, 0.08771800994873047, -0.11864273995161057, 0.04806257411837578, -0.04549483209848404, -0.3615966737270355, 0.11882084608078003, 0.23280537128448486, -0.0003899566363543272, 0.11376313120126724, -0.3130902647972107, 0.013064788654446602, -0.24830174446105957, 0.19303089380264282, -0.018085921183228493, -0.143748477101326, 0.07643352448940277, 0.12384337186813354, 0.06358978152275085, -0.1568402647972107, -0.09218043833971024, -0.21679569780826569, 0.09514816850423813, -0.03246292099356651, 0.07718358933925629, 0.0034134630113840103, 0.24226509034633636, -0.04378374293446541, -0.15409496426582336, -0.021707912907004356, 0.18718090653419495, 0.10886146128177643, -0.14958807826042175, -0.050843674689531326, -0.31001368165016174, 0.09203313291072845, -0.18500566482543945, -0.12888506054878235, 0.12369561195373535, 0.1553431898355484, -0.04667430371046066, 0.27510225772857666, 0.057180728763341904, 0.15992116928100586, 0.11672485619783401, 0.09149198234081268, 0.30998438596725464, -0.09370437264442444, -0.06426950544118881, 0.1068904846906662, -0.1508565992116928, 0.03767085075378418, -0.2022360861301422, 0.13213670253753662, -0.25361374020576477, -0.3243628442287445, -0.04956020042300224, 0.0021447360049933195, -0.166196808218956, 0.35196444392204285, 0.008632689714431763, 0.34253841638565063, 0.30557170510292053, 0.031212706118822098, 0.39635637402534485, 0.41602611541748047, -0.06708313524723053, -0.2463688999414444, -0.19497446715831757, -0.032971978187561035, 0.012927011586725712, 0.2821201980113983, -0.36134839057922363, 0.10551746934652328, 0.18980033695697784, 0.03886210918426514, -0.08143827319145203, -0.14308978617191315, 0.09469961374998093, -0.12781371176242828, -0.31605100631713867, -0.2554568946361542, -0.19976365566253662, 0.2699151039123535, -0.07753900438547134, 0.12514550983905792, -0.21225684881210327, 0.02924037165939808, -0.13668332993984222, -0.18003660440444946, -0.1280701607465744, -0.11914480477571487, 0.2075846642255783, 0.04466335475444794, -0.1516648679971695, -0.0351528525352478, -0.057531435042619705, 0.04854786396026611, -0.37210702896118164, 0.3992798328399658, -0.4460044205188751, -0.17444215714931488, -0.2371986359357834, -0.003184919711202383, 0.11269454658031464, 0.15817402303218842, 0.18316750228405, -0.08628106862306595, 0.27930182218551636, 0.13242530822753906, 0.1869552582502365, -0.09602706134319305, 0.3053375482559204, 0.4514145851135254, 0.2488480508327484, -0.2390539050102234, -0.1371612697839737, -0.15688754618167877, 0.23473426699638367, -0.16305440664291382, -0.12459713220596313, -0.03942490369081497, -0.21606118977069855, 0.12024351954460144, -0.19148457050323486, 0.29667574167251587, 0.3251849412918091, 0.08438599109649658, 0.1774052530527115, -0.2913336157798767, -0.2476954460144043, 0.22084029018878937, -0.14081113040447235, 0.40539827942848206, -0.509986400604248, 0.10765893012285233, 0.13260504603385925, -0.04690331593155861, 0.3229318857192993, 0.09310311824083328, 0.03977705538272858, 0.3863756060600281, 0.05453280359506607, 0.10249306261539459, -0.024238144978880882, 0.03940427303314209, 0.12439500540494919, -0.055324114859104156, -0.20288677513599396, 0.07415775954723358, 0.2638559639453888, 0.40366074442863464, 0.07697269320487976, 0.1395287811756134, 0.07978422194719315, -0.04198352247476578, 0.06349015235900879, -0.2702156603336334, -0.04660262539982796, -0.15514591336250305, -0.005842369515448809, 0.2709323763847351, -0.16682326793670654, -0.03133061155676842, -0.31323733925819397, -0.0633184015750885, -0.016545526683330536, -0.09211718291044235, -0.02287103235721588, 0.11197914183139801, -0.25787293910980225, -0.010143628343939781, 0.2255256623029709, -0.11855895817279816, 0.05776216834783554, 0.1742221713066101, 0.5129504203796387, -0.2682323455810547, -0.15784414112567902, -0.35608235001564026, 0.0043963356874883175, -0.021239101886749268, 0.14232178032398224, -0.2048918604850769, -0.16896383464336395, -0.044913846999406815, -0.03888346999883652, 0.08406960219144821, 0.22035524249076843, -0.06470126658678055, -0.20495906472206116, 0.03636077418923378, -0.11371216922998428, -0.228995680809021, -0.34446796774864197, 0.1201043576002121, -0.012926070019602776, -0.01592230424284935, -0.008794744499027729, -0.11079825460910797, 0.3019062876701355, 0.09639213979244232, 0.013228806667029858, -0.2769976556301117, -0.04579540342092514, 0.018271347507834435, -0.10166613757610321, 0.15990370512008667, -0.2203037142753601, -0.3753263056278229, -0.049645692110061646, 0.24630631506443024, 0.06368208676576614, -0.03170075640082359, 0.02809552475810051, 0.04945388436317444, 0.164486363530159, -0.05231676995754242, -0.17659522593021393, -0.0609387643635273, 0.28945618867874146, -0.04487421363592148, -0.009358935058116913, 0.12016087770462036, 0.3766859471797943, -0.05969684198498726, 0.09825555980205536, -0.07950810343027115, 0.0478915236890316, -0.049003321677446365, -0.021092059090733528, -0.10278280824422836, 0.2216777801513672, -0.11878778040409088, -0.1391366422176361, 0.1548423171043396, 0.26737016439437866, 0.07549215108156204, 0.22060085833072662, -0.4270648658275604, 0.12108497321605682, -0.08617997169494629, -0.08327656239271164, 0.10903993993997574, -0.11849348247051239, 0.023715069517493248, -0.04972062259912491, 0.10194231569766998, 0.028875891119241714, -0.11809874325990677, -0.1330980360507965, -0.1646702140569687, 0.07169241458177567, 0.1137467473745346, -0.09232094883918762, 0.03493773937225342, 0.0056467726826667786, -0.1079939603805542, -0.15443001687526703, 0.12456706166267395, 0.04030695930123329, 0.11176850646734238, 0.024795420467853546, 0.014917351305484772, 0.16849581897258759, -0.23554521799087524, -0.12916044890880585, 0.030559293925762177, -0.054826755076646805, -0.14005890488624573, -0.2582152187824249, 0.048854537308216095, 0.03640017285943031, -0.25264179706573486, 0.1237713173031807, 0.18559232354164124, 0.11148307472467422, 0.26183435320854187, 0.305186003446579, 0.12615437805652618, -0.060015719383955, 0.05487877130508423, 0.5084276795387268, 0.05934416875243187, 0.08391303569078445, -0.030455542728304863, 0.313289999961853, 0.1558859944343567, 0.025455957278609276, -0.011495588347315788, 0.0069357543252408504, 0.0995999127626419, 0.07501821964979172, 0.013245107606053352, 0.16213877499103546, -0.34023579955101013, -0.18352316319942474, 0.5164473652839661, 0.12587396800518036, -0.13595576584339142, -0.019833195954561234, -0.24413056671619415, 0.0745977833867073, 0.1303451508283615, -0.029102524742484093, -0.10008761286735535, 0.013011562637984753, -0.07074157148599625, 0.17109595239162445, 0.07609604299068451, 0.2420726716518402, 0.18221284449100494, -0.08464062958955765, -0.006832082290202379, -0.059409406036138535, -0.25816115736961365, -0.12560997903347015, -0.1921232044696808, -0.07360278069972992, 0.04637504369020462, 0.21080312132835388, 0.17534421384334564, 0.2452234923839569, 0.03498665988445282, 0.15298093855381012, -0.06185596436262131, 0.060355957597494125, 0.16946899890899658, 0.1345367282629013, 0.10483360290527344, 0.05176090821623802, -0.0772022157907486, -0.023192936554551125, -0.07916624844074249, -0.023326801136136055, -0.04606163874268532, 0.04726571589708328, 0.035544220358133316, -0.016390565782785416, -0.20332586765289307, 0.14809083938598633, -0.0063854665495455265, -0.04424821957945824, 0.01578996516764164, 0.06990644335746765, -0.06162681803107262, -0.13384822010993958, -0.29899147152900696, -0.019140945747494698, -0.029780441895127296, 0.11827927827835083, 0.027203388512134552, 0.03913258761167526, -0.07724884897470474, -0.16004882752895355, 0.17247426509857178, 0.06126042455434799, -0.1093255952000618, 0.2558419108390808, 0.19712527096271515, -0.17248141765594482, 0.07910022139549255, 0.202108696103096, -0.09327604621648788, -0.09553181380033493, 0.03493758663535118, 0.09448124468326569, -0.1278158575296402, -0.030355846509337425, 0.062181953340768814, 0.04841631278395653, 0.019008465111255646, 0.12599758803844452, -0.34444552659988403, -0.2302602231502533, 0.0777801126241684, 0.29531148076057434, 0.0338667593896389, 0.01044204831123352, -0.15668649971485138, 0.13139864802360535, 0.11338020861148834, -0.4221869707107544, -0.1079593151807785, -0.030761824920773506, 0.08846431970596313, 0.06743358820676804, -0.07361792027950287, -0.004110477864742279, 0.12330322712659836, -0.20939579606056213, 0.12377049773931503, -0.05119582265615463, 0.005107653792947531, -0.055518634617328644, -0.17651061713695526, 0.2079503983259201, 0.27171850204467773, -0.22190600633621216, -0.08995811641216278, 0.5958950519561768, 0.1769111603498459, -0.2038683444261551, 0.15982742607593536, -0.005408067721873522, 0.06935225427150726, 0.07409216463565826, -0.11070877313613892, -0.1348370760679245, -0.025129839777946472, -0.3118835389614105, 0.08374746888875961, -0.4915516972541809, -0.2295471429824829, 0.011518917977809906, 0.39368608593940735, -0.32189562916755676, 0.15704412758350372, -0.35799306631088257, 0.11786889284849167, 0.014817883260548115, -0.1303330957889557, -0.07211162149906158, 0.24987635016441345, 0.16991977393627167, -0.024043720215559006, -0.127604678273201, -0.10312219709157944, 0.04343028739094734, 0.10505545139312744, 0.29912441968917847, -0.012490570545196533, 0.036001384258270264, -0.11027904599905014, -0.053647205233573914, -0.0453147366642952, 0.3358210027217865, -0.07303418219089508, -0.14058968424797058, 0.1681869477033615, -0.08741269260644913, -0.1000722199678421, -0.11437205225229263, -0.004405580461025238, 0.12494436651468277, 0.16183997690677643, 0.020233597606420517, -0.0821327194571495, -0.15227724611759186, -0.08671917766332626, -0.019159115850925446, 0.1285819709300995, -0.21499507129192352, 0.18701396882534027, 0.028298605233430862, -0.2154686450958252, -0.02706785500049591, 0.09047669917345047, 0.13422724604606628, 0.11681807041168213, -0.051246870309114456, -0.06445431709289551, -0.020019464194774628, -0.04529476538300514, 0.2353823482990265, -0.06447234004735947, -0.050106748938560486, -0.2448744922876358, -0.07743387669324875, 0.23548686504364014, 0.24401842057704926, -0.2300127148628235, -0.19934792816638947, -0.041660208255052567, 0.13238775730133057, -0.0317111499607563, 0.28875863552093506, -0.20513613522052765, -0.08190211653709412, 0.2013772428035736, -0.2826909124851227, -0.15585705637931824, -0.1550806611776352, 0.07614564150571823, -0.10229276120662689, -0.151382178068161, 0.1666463315486908, -0.004218763671815395, -0.05336085706949234, 0.33116036653518677, -0.22839167714118958, 0.06858911365270615, -0.06793798506259918, 0.0951434001326561, -0.33377885818481445, 0.4085976481437683, 0.5421102046966553, 0.00772559130564332, -0.2116796374320984, 0.030158592388033867, -0.013340393081307411, 0.05500397831201553, 0.0919581726193428, 0.08627551048994064, -0.06395374238491058, -0.3701244592666626, -0.03027425706386566, 0.03714938834309578, -0.7016010284423828, 0.084213986992836, 0.00903001707047224, 0.6000192761421204, 0.09743613749742508, 0.08043255656957626, -0.43203631043434143, -0.07596646249294281, 0.03158304840326309, -0.14793114364147186, 0.13438042998313904, 0.07688314467668533, 0.041506484150886536, 0.009293092414736748, -0.23238211870193481, -0.032288748770952225, 0.11925214529037476, -0.08493392169475555, 0.22835001349449158, -0.1560327559709549, 0.035791028290987015, -0.3961332440376282, 0.07207262516021729, -0.24698513746261597, 0.32686832547187805, -0.0017715354915708303, 0.06750142574310303, 0.4376884996891022, -0.13291096687316895, -0.09035061299800873, -0.515421986579895, 0.19924207031726837, 0.051428694278001785, -0.017726438120007515, -0.18419301509857178, -0.14846991002559662, 0.03463292494416237, -0.45385512709617615, 0.08208407461643219, 0.10751444846391678, 0.16343115270137787, 0.09001738578081131, 0.10183549672365189, 0.08988577872514725, -0.07158792018890381, -0.03285972774028778, 0.3471193313598633, -0.05382116138935089, -0.2231731414794922, 0.1875687688589096, -0.061213523149490356, 0.23518511652946472, -0.2930105924606323, -0.1003178283572197, 0.04992588981986046, 0.13732311129570007, -0.015935296192765236, -0.013552352786064148, -0.1202857717871666, 0.07774053514003754, 0.09892796725034714, -0.06752310693264008, 0.0017010674346238375, -0.030554404482245445, -0.008075602352619171, 0.15138623118400574, 0.09769005328416824, 0.13510781526565552, -0.148440882563591, 0.1856660395860672, 0.3787129819393158, -0.19935323297977448, -0.006664657965302467, 0.020109621807932854, -0.03292752057313919, 0.12643657624721527, -0.33595550060272217, -0.01060478575527668, 0.13509783148765564, 0.4922390282154083, -0.15053465962409973, 0.0724930688738823, 5.815971690026345e-06, -0.08593374490737915, -0.1647014021873474, 0.13578230142593384, -0.24612300097942352, 0.019806958734989166, 0.29005521535873413, -0.06848902255296707, -0.15896183252334595, 0.011755027808248997, -0.02462138794362545, -0.12772059440612793, -0.1549087017774582, 0.007215127348899841, 0.12455350160598755, -0.007175871636718512, 0.13623175024986267, -0.12199889123439789, -0.27611854672431946, 0.35821858048439026, -0.16715273261070251, 0.050604838877916336, -0.32251110672950745, 0.1523497998714447, -0.2976445257663727, -0.019887836650013924, -0.2942219078540802, -0.12577909231185913, -0.014681701548397541, 0.10243655741214752, -0.11353722214698792, 0.17464715242385864, 0.07938996702432632, 0.35853853821754456, 0.09189823269844055, -0.05111418664455414, -0.032591547816991806, -0.0007890703273005784, -0.17360499501228333, 0.04806678742170334, -0.11615075170993805, -0.29714900255203247, 0.12301194667816162, 0.07084297388792038, 0.09208820760250092, -0.003781561041250825, -0.07509862631559372, 0.07218088954687119, 0.3931349813938141, -0.3631337881088257, -0.11103793233633041, -0.1689700037240982, -0.1709137260913849, 0.1486363410949707, 0.1349031627178192, 0.41201433539390564, 0.05856911465525627, 0.1046348512172699, 0.25681355595588684, -0.388884574174881, -0.1365857869386673, -0.00808045081794262, 0.27720481157302856, -0.10377892851829529, -0.05058196187019348, -0.20367489755153656, 0.03434236720204353, -0.11422863602638245, 0.34438180923461914, 0.21121175587177277, -0.04552696272730827, 0.13881751894950867, 0.2120564579963684, 0.09850695729255676, 0.226350799202919, 0.1541212499141693, 0.37320324778556824, -0.012389115989208221, -0.004377484787255526, 0.0695740133523941, -0.10647158324718475, -0.05779455974698067, 0.12025637179613113, -0.029423123225569725, 0.05588821321725845, 0.22036655247211456, 0.10036753863096237, 0.05828806757926941, 0.13052654266357422, 0.12681277096271515, -0.06344513595104218, 0.14494208991527557, -0.2889413833618164, 0.05099869892001152, -0.23047494888305664, 0.06772862374782562, -0.05736177787184715, 0.03362814709544182, -0.27823057770729065, -0.08725401759147644, -0.021445345133543015, -0.06374036520719528, -0.0371696799993515, 0.091121606528759, -0.06727813929319382, -0.023503461852669716, 0.14147959649562836, -0.13628508150577545, -0.009761634282767773, 0.15682420134544373, 0.13707739114761353, -0.06057897210121155, -0.033576205372810364, -0.14217613637447357, 0.274345725774765, -0.0887032151222229, 0.08979623764753342, 0.1396941840648651, 0.2545796036720276, 0.2257508486509323, 0.034554820507764816, -0.15457886457443237, -0.20077262818813324, 0.03473636507987976, -0.007800862658768892, -0.10878018289804459, -0.08400379866361618, -0.2017834335565567, -0.27350789308547974, 0.011215009726583958, -0.04393808916211128, 0.23157717287540436, -0.1640574336051941, 0.3088216483592987, -0.10421488434076309, 0.02316546067595482, -0.023815780878067017, -0.25449100136756897, -0.20835807919502258, 0.12660621106624603, 0.09664785116910934, -0.21877959370613098, 0.23561683297157288, -0.060702815651893616, -0.14227086305618286, -0.09175188839435577, -0.06614309549331665, -0.24222637712955475, 0.28998443484306335, 0.1676144152879715, -0.12424061447381973, 0.023493604734539986, -0.016421932727098465, -0.15618197619915009, 0.18979088962078094, 0.10980994999408722, -0.0035569656174629927, -0.057151999324560165, 0.11108297109603882, 0.02680073119699955, 0.2125403732061386, 0.38465768098831177, -0.05301963537931442, -0.20484839379787445, -0.23037922382354736, 0.028364138677716255, -0.0367082916200161, -0.01352273765951395, -0.16968801617622375, -0.3454292118549347, -0.018650392070412636, -0.04022837430238724, 0.005000685341656208, -0.1473054140806198, 0.15713708102703094, -0.3459877669811249, -0.25704750418663025, -0.4322180449962616, 0.3373230993747711, 0.0832589715719223, 0.11157616227865219, 0.09157995879650116, -0.020473681390285492, 0.0040693823248147964, 0.004849021788686514, 0.20919838547706604, 0.3792343735694885, 0.1861359030008316, -0.15341678261756897, 0.018987370654940605, -0.13883113861083984, 0.170682892203331, 0.009386680088937283, 0.37075597047805786, -0.015587077476084232, -0.11949633061885834, -0.11531872302293777, 0.16295336186885834, -0.11775898188352585, 0.13205592334270477, 0.025490473955869675, -0.06742007285356522, -0.036230769008398056, -0.16790395975112915, -0.08320991694927216, 0.13245196640491486, -0.14643335342407227, 0.13432522118091583, 0.0898369699716568, -0.20210716128349304, -0.10607965290546417, -0.3442380726337433, 0.03144215792417526, -0.08340469747781754, 0.031228192150592804, 0.09151449054479599, 0.14317801594734192, -0.15052111446857452, 0.06603291630744934, 0.04166462644934654, 0.14649616181850433, 0.12223435938358307, 0.04544959217309952, 0.15187080204486847, 0.041587650775909424, 0.008376643992960453, 0.022644024342298508, -0.17857004702091217, 0.07578770816326141, 0.060893356800079346, -0.09702134132385254, 0.04690339043736458, -0.013663488440215588, 0.08345746248960495, 0.10399502515792847, 0.1965010166168213, -0.161088764667511, -0.041406821459531784, -0.023662300780415535, 0.06963783502578735, 0.046248648315668106, 0.36279502511024475, 0.6025769710540771, 0.3297604024410248, -0.08957730233669281, 0.12717118859291077, -0.3190695345401764, 0.12945035099983215, 0.18355850875377655, -0.05124928429722786, 0.047022655606269836, -0.24901343882083893, -0.1790880560874939, 0.047759875655174255, -0.43072760105133057, -0.29790574312210083, 0.0673089250922203, 0.7848309874534607, 0.3927018344402313, -0.4611857831478119, -0.5010448098182678, -0.44234585762023926, 0.05662042275071144, -0.17552664875984192, 0.12816430628299713, -0.03200644254684448, -0.1295834630727768, -0.21093544363975525, -0.11148681491613388, -0.018033454194664955, 0.2937239408493042, -0.11113035678863525, 0.02650972083210945, 0.23063433170318604, 0.1670333296060562, -0.4829384982585907, -0.22272081673145294, -0.16001497209072113, 0.319663405418396, -0.007026486564427614, -0.18107055127620697, 0.366110235452652, 0.23676545917987823, -0.015633728355169296, -0.669598400592804, -0.3011587858200073, 0.11348168551921844, 0.40646445751190186, -0.039109837263822556, 0.2691742777824402, -0.19686636328697205, 0.09537281841039658, 0.10663188248872757, -0.35435304045677185, 0.24535329639911652, 0.1864011287689209, -0.17409704625606537, 0.14121055603027344, 0.028714332729578018, -0.3336850702762604, -0.10634990781545639, 0.001647781697101891, 0.29909294843673706, -0.0850127562880516, -0.025141162797808647, -0.20054160058498383, 0.011286530643701553, 0.14032533764839172, 0.2797167897224426, 0.06084859371185303, 0.10552513599395752, 0.06932824850082397, -0.014525811187922955, 0.12275245040655136, -0.14865688979625702, 0.076307013630867, -0.023989200592041016, -0.1586812287569046, -0.07633119821548462, -0.07783235609531403, -0.4418356418609619, -0.1294851452112198, -0.05558396875858307, 0.15900355577468872, 1.634219916013535e-05, 0.08577841520309448, -0.21706071496009827, 0.2613915801048279, -0.07534189522266388, -0.41081318259239197, 0.15611256659030914, -0.23326300084590912, 0.3830106258392334, -0.2554953098297119, -0.172834113240242, -0.3267483115196228, -0.011759797111153603, -0.038103315979242325, -0.04445367306470871, 0.0036131839733570814, 0.33123478293418884, 0.09880585223436356, 0.1760699301958084, 0.03577493876218796, -0.20376497507095337, -0.06878985464572906, 0.20692665874958038, 0.030285673215985298, 0.43013182282447815, 0.04045010358095169, -0.18175871670246124, 0.07043514400720596, -0.1304956078529358, 0.07456150650978088, -0.30910614132881165, -0.45324474573135376, 0.9413026571273804, 0.47057637572288513, -0.4173223376274109, 0.21624968945980072, -0.2032826989889145, -0.031814828515052795, 0.49018630385398865, -0.7357391715049744, 1.1194158792495728, 0.6443758010864258, -0.3314448297023773, -0.46252650022506714, 0.30484768748283386, -0.5707076787948608, 0.027642780914902687, -0.07892364263534546, 0.16859909892082214, -0.26141995191574097, -0.055064644664525986, 0.05111963301897049, 0.3234296143054962, 0.04399728775024414, 0.23934204876422882, 0.20060060918331146, 0.1474485993385315, -0.12794604897499084, -0.1795339584350586, 0.16866067051887512, -0.007633214816451073, -0.1467927247285843, 0.23964093625545502, -0.15411363542079926, 0.11393748223781586, -0.05161502584815025, 0.19778703153133392, -0.08447801321744919, 0.012261341325938702, -0.18006858229637146, -0.3110567331314087, 0.2124786376953125, -0.04619733616709709, 0.041151244193315506, 0.04428410157561302, 0.065088652074337, 0.2127399742603302, -0.15490412712097168, 0.05316329374909401, -0.14055347442626953, -0.005083074793219566, -0.022469621151685715, 0.29111865162849426, -0.11812474578619003, -0.12843173742294312, -0.28863221406936646, -0.023450003936886787, 0.17166852951049805, -0.4120803475379944, 0.03995134308934212, 0.03033328801393509, -0.19432799518108368, -0.106714628636837, 0.12346822768449783, 0.1301364153623581, 0.0026924312114715576, 0.2334449142217636, -0.2998688220977783, -0.10863914340734482, 0.0288497656583786, -0.003270822111517191, 0.09749749302864075, 0.1913089007139206, -0.13530148565769196, 0.16315695643424988, 0.20818591117858887, 0.1661677062511444, 0.2782845199108124, -0.017933079972863197, -0.12157127261161804, -0.09014325588941574, -0.3585042953491211, 0.5174866914749146, -0.21829670667648315, -0.004658306948840618, -0.19453196227550507, 0.20315951108932495, 0.03192337974905968, 0.10014299303293228, -0.09443683922290802, 0.07059182971715927, 0.038885314017534256, -0.041130006313323975, -0.14923228323459625, 0.11569670587778091, 0.01462259329855442, 0.16620975732803345, 0.03899211436510086, 0.1786193549633026, -0.3304648697376251, -0.20467016100883484, -0.44586801528930664, 0.4025060832500458, -0.07213645428419113, -0.059043172746896744, -0.3923691511154175, 0.0851612389087677, 0.08390063047409058, 0.05051941052079201, 0.15734189748764038, 0.14729924499988556, -0.14925234019756317, 0.053451307117938995, 0.05216456949710846, -0.10095313936471939, -0.05198195204138756, 0.18134577572345734, -0.2102881371974945, 0.04036136716604233, -0.26402711868286133, -0.23790113627910614, 0.18154595792293549, 0.19640885293483734, -0.07938674837350845, 0.14103586971759796, 0.05946408212184906, 0.10088860988616943, 0.06109880283474922, 0.09416187554597855, -0.04024310037493706, 0.02454053796827793, -0.28137752413749695, -0.03498614579439163, -0.12964242696762085, 0.12928666174411774, -0.06766967475414276, 0.2299620807170868, -0.1909809559583664, 0.261753648519516, 0.06954681128263474, 0.12604188919067383, 0.10119783133268356, -0.010637329891324043, 0.006798415910452604, 0.03544296324253082, 0.16177776455879211, -0.19052407145500183, 0.22141705453395844, 0.10954669117927551, -0.0274693351238966, -0.22128602862358093, -0.18819838762283325, -0.2060113400220871, 0.12717023491859436, -0.09713733196258545, 0.13843420147895813, -0.26058176159858704, -0.22349810600280762, -0.020180007442831993, 0.12067646533250809, 0.19480179250240326, 0.08595085889101028, -0.18133696913719177, 0.10974324494600296, 0.2139160931110382, 0.001070809201337397, -0.12953631579875946, -0.11384142190217972, -0.06201111152768135, -0.012424998916685581, 0.20029368996620178, -0.11633379012346268, -0.09479469060897827, -0.06380618363618851, 0.356641948223114, -0.15751922130584717, 0.1918572038412094, -0.04764625057578087, -0.05474458262324333, -0.3510131239891052, 0.14580321311950684, -0.1789764165878296, 0.14236406981945038, -0.30263620615005493, 0.23462548851966858, 0.10151318460702896, -0.20343731343746185, 0.02101774699985981, 0.0037981097120791674, -0.05116405338048935, 0.012172515504062176, 0.3320585787296295, 0.10686029493808746, 0.11046146601438522, -0.02539173513650894, -0.12608349323272705, -0.10616390407085419, 0.12253234535455704, 0.31877973675727844, 0.056190356612205505, -0.16472317278385162, -0.25815504789352417, -0.1621328741312027, 0.11514276266098022, -0.2513188123703003, -0.10118792951107025, 0.04384402185678482, 0.11078598350286484, -0.21580204367637634, -0.05147134140133858, -0.16330774128437042, 0.035603687167167664, 0.24430611729621887, 0.27523985505104065, -0.23434315621852875, -0.027720831334590912, 0.27421849966049194, -0.17089557647705078, -0.3595535159111023, -0.024008307605981827, -0.17533406615257263, 0.04826398566365242, 0.05532371625304222, -0.04224154353141785, -0.22996297478675842, 0.22681035101413727, -0.21383421123027802, 0.11519518494606018, 0.10484647750854492, 0.21670818328857422, 0.056091390550136566, -0.020369021221995354, 0.15077978372573853, -0.04040980339050293, 0.008749304339289665, -0.2756926119327545, -0.021328113973140717, 0.03889616206288338, -0.22864317893981934, 0.0699625238776207, -0.006903665605932474, -0.05190138891339302, 0.015193101949989796, -0.2532156705856323, -0.09409123659133911, -0.10200077295303345, 0.05982748046517372, -0.2226727306842804, 0.1874672770500183, 0.2776067852973938, 0.11284453421831131, 0.15938396751880646, -0.05901799723505974, 0.05309928581118584, -0.016351627185940742, -0.15819473564624786, -0.13002225756645203, -0.23438528180122375, -0.28065648674964905, 0.03362375125288963, -0.35425108671188354, 0.12783391773700714, -0.016812659800052643, -0.059202197939157486, 0.05659627541899681, 0.2916127145290375, -0.17211967706680298, -0.08498026430606842, -0.18951153755187988, -0.12893620133399963, -0.17636406421661377, 0.3410744369029999, 0.1856677085161209, 0.08775649219751358, 0.23824447393417358, 0.09268630295991898, -0.04896172508597374, 0.3474171459674835, 0.2090880125761032, -0.004505156073719263, -0.304474413394928, -0.02215515822172165, 0.1426001340150833, 0.17436352372169495, 0.13268931210041046, 0.0421205498278141, 0.04870685189962387, 0.037272099405527115, 0.1139553114771843, -0.12324754893779755, 0.24545098841190338, -0.06450720876455307, 0.07581035792827606, 0.09823285043239594, 0.23231348395347595, -0.1280185431241989, -0.0034598619677126408, -0.24479658901691437, 0.156231090426445, 0.3293294310569763, -0.07970060408115387, -0.11397751420736313, -0.07291659712791443, -0.1156589463353157, -0.06078340485692024, -0.040837667882442474, 0.06179296225309372, -0.08651158958673477, -0.026608530431985855, -0.31702518463134766, 0.11583311855792999, 0.11034689098596573, 0.17186768352985382, -0.06676679104566574, -0.042607199400663376, -0.08166828006505966, 0.11687913537025452, -0.1171155497431755, -0.025655463337898254, -0.2055203765630722, 0.15284760296344757, -0.05093321204185486, -0.27720385789871216, -0.22288061678409576, 0.07116671651601791, -0.018596703186631203, -0.11745281517505646, 0.15681985020637512, -0.054401904344558716, -0.12717442214488983, -0.36058250069618225, -0.13236437737941742, -0.004143135156482458, -0.01822979375720024, -0.11521285772323608, -0.07122702896595001, 0.6760497689247131, 0.28974705934524536, -0.09653889387845993, -0.2162942737340927, 0.027650265023112297, -0.09530912339687347, 0.19673055410385132, -0.18012890219688416, -0.0035307242069393396, -0.13015182316303253, 0.12389367818832397, -0.048062317073345184, -0.022465500980615616, 0.19420750439167023, 0.22672529518604279, 0.0338403657078743, -0.1416493058204651, -0.24123434722423553, -0.47618478536605835, -0.36464405059814453, -0.1668669879436493, -0.377022922039032, -0.2295490950345993, -0.0158016886562109, 0.17150121927261353, -0.004428371321409941, -0.22944475710391998, -0.09286151826381683, 0.10382755100727081, 0.13228799402713776, 0.3291667401790619, -0.08342024683952332, 0.11168994009494781, 1.1662077903747559, 0.15780775249004364, -0.1547561138868332, -0.021230923011898994, 0.0030282887164503336, -0.19978448748588562, -0.33398136496543884, -0.10388389974832535, -0.32212069630622864, 0.08546219766139984, 0.0815773531794548, 0.20979128777980804, 0.032593678683042526, 0.15161322057247162, 0.16191202402114868, 0.009380201809108257, 0.022366508841514587, 0.2628771662712097, -0.17340387403964996, 0.1733350306749344, -0.1859460026025772, -0.09533378481864929, 0.03413785994052887, 0.024523016065359116, -0.07588747888803482, 0.03952992707490921, 0.47894087433815, 0.18033678829669952, -0.009387573227286339, 0.21884919703006744, -0.3262576162815094, -0.3020203709602356, 0.2506890296936035, -0.1569400429725647, -0.07978513091802597, -0.17462526261806488, -0.028858939185738564, -0.2398059070110321, 0.10934922099113464, 0.1480204164981842, 0.12384813278913498, -0.2343614250421524, -0.033893126994371414, -0.15486083924770355, 0.06607737392187119, -0.028428293764591217, 0.07971056550741196, -0.23281431198120117, -0.1762038618326187, -0.24030160903930664, 0.10009163618087769, -0.11372636258602142, 0.007227899506688118, -0.11026090383529663, 0.004881627392023802, -0.0735904723405838, -0.2625434100627899, 0.08485061675310135, -0.041927073150873184, -0.06570767611265182, -0.06378906965255737, 0.40719708800315857, 0.00967113021761179, -0.09029513597488403, 0.20840448141098022, 0.18994802236557007, -0.1782609224319458, 0.10857103019952774, 0.070564404129982, 0.21251437067985535, -0.021586067974567413, -0.11443734914064407, -0.623384416103363, -0.020991019904613495, -0.12866905331611633, 0.059660814702510834, 0.27412667870521545, 0.1578032374382019, 0.20678521692752838, -0.19835935533046722, -0.021761124953627586, 0.09119944274425507, -0.02255212515592575, 0.12050627917051315, -0.07149077206850052, 0.04780789092183113, 0.2815532684326172, -0.13509613275527954, -0.1369461864233017, -0.027550311759114265, -0.38174107670783997, 0.04733734205365181, 0.048259150236845016, -0.12211763858795166, -0.01077573373913765, 0.022475028410553932, 0.07433059811592102, 0.018912604078650475, -0.15388363599777222, 0.14021968841552734, 0.10072203725576401, -0.20596162974834442, 0.05772722139954567, -0.10295766592025757, -0.26644831895828247, -0.5254095196723938, 0.129343181848526, 0.12273312360048294, 0.13440419733524323, 0.050441671162843704, 0.22804494202136993, 0.28819775581359863, -0.2883841097354889, -0.19987770915031433, 0.3582635819911957, 0.01666315458714962, 0.052211761474609375, -0.09151317179203033, 0.2197592556476593, 0.0397188775241375, 0.9738942980766296, -0.17223036289215088, -0.06054004654288292, 0.37297147512435913, -0.06542050838470459, -0.016521114856004715, -0.08454969525337219, 0.0744679719209671, 0.21315854787826538, 0.10380011796951294, 0.08106163144111633, -0.0009795863879844546, 0.11448917537927628, 0.023750977590680122, -0.048551976680755615, -0.4615316689014435, 0.21702507138252258, -0.08394929021596909, -0.3176417350769043, -0.10948295146226883, 0.028369460254907608, 0.12716427445411682, 0.2037913203239441, -0.08738388121128082, 0.14212526381015778, -0.10200534760951996, -0.07649869471788406, -0.1782446652650833, 0.07945775240659714, -0.01667664386332035, -0.1727246344089508, -0.057379212230443954, -0.13731534779071808, 0.305205762386322, -0.06474214047193527, 0.09821447730064392, 0.08135227113962173, -0.16636346280574799, 0.12388984113931656, 0.19840209186077118, -0.27303749322891235, 0.05532035231590271, 0.13750359416007996, -0.000313574040774256, 0.04711555317044258, 0.2704039216041565, 0.28271856904029846, 0.06699617207050323, 0.2535049021244049, -0.10228575766086578, 0.007081892807036638, 0.12766416370868683, -0.19253188371658325, -0.06378254294395447, 0.1090274304151535, 0.005556917283684015, -0.06388794630765915, 0.11202322691679001, 0.23839792609214783, 0.020255297422409058, -0.1521100401878357, 0.06877855211496353, 0.030009910464286804, -0.33349093794822693, 0.06998751312494278, -0.03571352735161781, -0.41983604431152344, -0.09163122624158859, -0.023976974189281464, 0.024786677211523056, 0.2382005751132965, -0.16279514133930206, 0.7395452260971069, -0.058727625757455826, -0.021219616755843163, 0.26651039719581604, 0.1626097559928894, -0.005212195683270693, 0.33268144726753235, 0.0750698521733284, -0.10111521184444427, -0.04433776065707207, -0.014276535250246525, 0.0167988408356905, 0.2372397482395172, -0.0023911194875836372, -0.044214796274900436, -0.70283043384552, -0.291322261095047, -0.12202968448400497, -0.2919042706489563, 0.17200957238674164, -0.0582779236137867, -0.09983685612678528, 0.3610822260379791, -0.0007159474189393222, -0.5479640960693359, -0.1081654280424118, 0.009080576710402966, 0.1134825050830841, -0.00015106680803000927, -0.016722850501537323, 0.2387024313211441, -0.010405899956822395, -0.03290953114628792, -0.4561310410499573, -0.11536604166030884, -0.1904234141111374, 0.3180112838745117, -0.21215760707855225, -0.1460636854171753, -0.1782202273607254, 0.11020486801862717, 0.09257558733224869, 0.09683636575937271, 0.16964653134346008, -0.10010489076375961, -0.024249594658613205, -0.00366698089055717, 0.1061902716755867, -0.425902396440506, -0.23446503281593323, -0.04169664904475212, 0.05321624130010605, -0.16816289722919464, -0.07200369983911514, -0.3589172065258026, -0.11508993804454803, -0.02529502660036087, -0.08129138499498367, 0.13852158188819885, -0.05909649655222893, 0.2138708382844925, 0.21026210486888885, -0.13372965157032013, -0.12200461328029633, 0.0027444143779575825, 0.15914587676525116, -0.18289709091186523, 0.04311808943748474, 0.20164228975772858, -0.11306176334619522, -0.2813267111778259, 0.08064986765384674, -1.0891367197036743, 0.16816765069961548, -0.001560193719342351, -0.2216806411743164, 0.13786564767360687, -0.08651583641767502, 0.1563594788312912, 0.02124372497200966, -0.06217997521162033, -0.0684429183602333, -0.20793239772319794, 0.03954605758190155, -0.039141930639743805, 0.08279874175786972, -0.010754531249403954, 0.03136501833796501, -0.15641140937805176, -0.10869385302066803, 0.056916266679763794, 0.05689849331974983, 0.024957984685897827, -0.233989879488945, -0.2606563866138458, -0.11700396984815598, -0.40006136894226074, 4.980399171472527e-05, 0.06243479624390602, 0.14859400689601898, -0.10438566654920578, 0.05346250906586647, -0.014151102863252163, -0.30433499813079834, 0.00981504563242197, -0.45807549357414246, -0.16724933683872223, -0.0990997701883316, 0.05345766618847847, -0.1567150354385376, -0.01924489066004753, 0.22897613048553467, 0.3725680708885193, 0.15980836749076843, 0.38740840554237366, -0.17068226635456085, 0.03544217348098755, 0.1280277520418167, -0.23467956483364105, 0.004818612243980169, -0.35144731402397156, 0.27456846833229065, 0.0917723998427391, -0.40515202283859253, 0.014137206599116325, 0.042156629264354706, -0.18697647750377655, 0.26774436235427856, -0.09300456196069717, -0.09289603680372238, -0.19934867322444916, -0.048132043331861496, -0.16549184918403625, -0.07117508351802826, -0.04211035743355751, 0.19149070978164673, -0.22930848598480225, 0.09269215911626816, 0.0728728249669075, 0.1281403750181198, -0.06367014348506927, 0.22159157693386078, -0.2676793038845062, -0.022931620478630066, -0.11888335645198822, 0.14035353064537048, -0.044702883809804916, 0.2019193172454834, -0.020530162379145622, -0.1500440537929535, 0.1247456818819046, 0.12688685953617096, -0.018510200083255768, -0.07109419256448746, 0.013639725744724274, -0.052966177463531494, 0.07860063761472702, -0.23320288956165314, 0.06590813398361206, -0.4662873148918152, 0.3741024434566498, 0.0389924980700016, 0.059395741671323776, -0.47535091638565063, -0.02802329882979393, 0.1648588478565216, -0.04074224457144737, 0.046146541833877563, 0.4276023507118225, 0.16971032321453094, 0.0907096117734909, -0.009642050601541996, 0.1993926465511322, 0.08296851813793182, -0.2712246775627136, 0.23717446625232697, -0.16728363931179047, -0.06720491498708725, -0.09398490935564041, 0.12794674932956696, -0.04907909780740738, 0.1017630323767662, 0.05747068300843239, -0.04846084490418434, -0.39558282494544983, 0.12050310522317886, -0.24321305751800537, 0.00963155459612608, 0.08481062948703766, 0.09572890400886536, 0.19542808830738068, 0.06275399029254913, -0.15841689705848694, 0.06665179878473282, -0.011043007485568523, 0.19277924299240112, -0.1764197051525116, -0.12229496985673904, 0.11092200130224228, 0.1017933264374733, -0.0856727883219719, 0.009357151575386524, 0.29938167333602905, -0.10679948329925537, 0.3131367266178131, -0.022843915969133377, 0.03909039869904518, -0.44720640778541565, 0.2698996067047119, 0.08964505791664124, -0.1040254756808281, -0.027247430756688118, -0.006545663345605135, -0.06461836397647858, 0.05694986879825592, 0.08794517815113068, -0.25324690341949463, 0.10252466052770615, -0.049085021018981934, -0.11027194559574127, -0.02512696199119091, 0.028482742607593536, 0.3608955442905426, -0.2576928734779358, 0.16895659267902374, 0.16551370918750763, 0.09291375428438187, -0.03155175969004631, -0.015893125906586647, -0.12596505880355835, 0.19648362696170807, 0.03359607979655266, 0.09282364696264267, 0.24603328108787537, -0.2110959142446518, 0.12153472006320953, -0.05947330221533775, -0.07686812430620193, 0.07548954337835312, 0.1348717212677002, -0.2085677981376648, 0.08975255489349365, -0.032903674989938736, 0.1486179530620575, 0.13657152652740479, 0.07868223637342453, 0.07058271020650864, -0.17568659782409668, -0.12292013317346573, -0.21020184457302094, 0.3016456961631775, 0.03462225943803787, 0.09024256467819214, 0.6365143656730652, 0.19463573396205902, 0.015550902113318443, -0.1907116323709488, -0.00943022407591343, 0.030059903860092163, -0.053121715784072876, 0.0026546253357082605, 0.06907105445861816, -0.0933883860707283, -0.033156927675008774, -0.012509648688137531, -0.07102992385625839, 0.21485064923763275, -0.32640689611434937, -0.11055823415517807, 0.12583501636981964, -0.28949201107025146, -0.08787775039672852, -0.1828828603029251, -0.006546089891344309, -0.009222752414643764, -0.08751575648784637, -0.07446269690990448, 0.054271895438432693, 0.17825442552566528, 0.06835447996854782, -0.1358577460050583, -0.02760881744325161, -0.13845588266849518, 0.12588724493980408, 0.16681885719299316, 0.28837937116622925, -0.007486987393349409, -0.030490491539239883, -0.20054064691066742, 0.24786292016506195, -0.1918514221906662, 0.199257031083107, 0.07192807644605637, -0.20647521317005157, 0.2802104949951172, -0.007837875746190548, 0.04128602519631386, -0.2785574197769165, -0.15168139338493347, -0.18681661784648895, 0.25018492341041565, -0.16556315124034882, 0.07105538249015808, -0.14394816756248474, -1.0720938444137573, 0.2642432153224945, 0.24976158142089844, 0.21542152762413025, -0.23929865658283234, 0.09172829985618591, -0.06614775955677032, -0.2411641627550125, -0.01889391988515854, -0.7367501258850098, 0.3045654892921448, -0.057579945772886276, -0.16864624619483948, 0.0473119355738163, 0.38075196743011475, -0.4262508153915405, -0.4621385633945465, -0.13692541420459747, 0.09908565878868103, -0.2534477412700653, -0.11534006893634796, 0.002590528456494212, 0.0372186005115509, 0.11119315773248672, 0.8217345476150513, -0.5835546255111694, -0.14245612919330597, 0.4702931344509125, 0.05282466486096382, -0.03296850621700287, 0.012371492572128773, -0.3146246075630188, -0.042905569076538086, 0.17004899680614471, 0.12272494286298752, -0.058066967874765396, -0.014604352414608002, -0.0005026385770179331, -0.02873345836997032, -0.015106183476746082, 0.08831325173377991, -0.19550557434558868, -0.3175925314426422, 0.03262777253985405, 0.5753347277641296, -0.1917429119348526, 0.06541529297828674, -0.5108823776245117, 0.13699357211589813, 0.5026066899299622, 0.2023697793483734, 0.15766847133636475, -0.022729983553290367, -0.31730228662490845, 0.2677062749862671, 0.026934053748846054, 0.6308280229568481, 0.020288977771997452, 0.0018446686444804072, 0.41848164796829224, -0.11462162435054779, 0.138286292552948, 0.3286128640174866, 0.2148110568523407, 0.38721320033073425, 0.060724686831235886, 0.26018425822257996, 0.11785401403903961, -0.016712868586182594, -0.03081364929676056, -0.19911029934883118, -0.22293250262737274, 0.1974015235900879, -0.1215849444270134, -0.02051488868892193, 0.03796305134892464, 0.28364014625549316, -0.07303954660892487, 0.41344258189201355, 0.11265687644481659, 0.3465883433818817, 0.030452609062194824, 0.08790434151887894, -0.11350087821483612, -0.10164369642734528, 0.044064611196517944, -0.393406480550766, -0.1377556324005127, -0.013825595378875732, 0.18965855240821838, 0.06796291470527649, 0.023217834532260895, -0.22991347312927246, -0.12650984525680542, -0.1345350593328476, -0.12675555050373077, -0.1325882077217102, -0.17672863602638245, -0.003794784191995859, 0.09167933464050293, -0.02391488291323185, -0.13965530693531036, 0.07846330106258392, 0.04783639311790466, -0.12310301512479782, -0.04606766998767853, 0.023639360442757607, -0.07221097499132156, -0.09325750917196274, -0.1146944910287857, 0.20111459493637085, -0.20760956406593323, 0.12626715004444122, 0.1324172168970108, -0.014870602637529373, 0.07679492980241776, 0.07743478566408157, 0.004096034448593855, 0.01334574818611145, -0.08772986382246017, 0.07694010436534882, -0.16803722083568573, 0.10898011922836304, 0.007596693467348814, 0.05437314510345459, -0.14746621251106262, -0.0017303343629464507, -0.04301895573735237, 0.3274584114551544, -0.06857654452323914, -0.09770962595939636, -0.26763713359832764, -0.0022899084724485874, -0.033921655267477036, -0.20823393762111664, 0.09662338346242905, -0.08357219398021698, 0.027070242911577225, 0.08807611465454102, -0.09250950068235397, -0.17979839444160461, 0.1540733426809311, -0.05345949903130531, -0.10341906547546387, 0.1928568184375763, 0.03319675102829933, -0.11897517740726471, 0.022745026275515556, -0.021097684279084206, -0.1190379336476326, -0.13275262713432312, -0.11389902234077454, -0.4233793318271637, 0.14357130229473114, 0.0496622696518898, 0.031119193881750107, 0.06885843724012375, -0.04940599948167801, 0.011061323806643486, -0.12544341385364532, 0.10174623876810074, 0.01827051490545273, 0.0029348714742809534, -0.05271610990166664, -0.04951392859220505, 0.029737764969468117, -0.09659086912870407, 0.031450167298316956, -0.042917732149362564, 0.1507289558649063, -0.14123615622520447, 0.056175559759140015, 0.11448224633932114, -0.17430952191352844, -0.27515915036201477, -0.052680615335702896, -0.6286006569862366, -0.07340576499700546, 0.06404624879360199, -0.12049636244773865, -0.11919087916612625, 0.012614816427230835, -0.25028911232948303, -0.09774662554264069, 0.02915426902472973, -0.11942744255065918, 0.0353226363658905, -0.056896768510341644, 0.018256139010190964, 0.01894725300371647, 0.005797722842544317, 0.08738043904304504, -0.32819077372550964, 0.07051848620176315, -0.09954860061407089, 0.1377154141664505, 0.19892777502536774, -0.37455159425735474, -0.12392690777778625, 0.12415856122970581, 0.14536753296852112, 0.05257195979356766, -0.18784497678279877, -0.03274302929639816, 0.13601315021514893, -0.028154252097010612, 0.139684796333313, 0.6118427515029907, 0.3183099627494812, 0.4613330066204071, -0.8191375136375427, -0.4411046504974365, 0.13917534053325653, 0.16774646937847137, -0.13484099507331848, 0.3897722363471985, 0.2625480592250824, -0.8034347891807556, 0.4142240881919861, -0.01905117928981781, -0.8003652691841125, 0.07189137488603592, -0.27534347772598267, -0.25221580266952515, 0.00390983372926712, 0.26172664761543274, -0.08757124841213226, 0.31205734610557556, 0.38131287693977356, -0.20841850340366364, -0.4418664872646332, -0.4167039394378662, 0.13193243741989136, -0.14951175451278687, -0.06049775332212448, 0.07672257721424103, -0.0028226219583302736, 0.3035305142402649, -0.19666267931461334, -0.29353833198547363, -0.42688730359077454, 0.09439419955015182, 0.001222175662405789, 0.09708437323570251, -0.07134143263101578, 0.27216774225234985, -0.27757856249809265, -0.17326314747333527, -0.2111905813217163, -0.1494261920452118, -0.054193492978811264, 0.16715000569820404, 0.40755969285964966, 0.24787858128547668, 0.17097090184688568, 0.07774388790130615, 0.17889763414859772, 0.36951667070388794, 0.25139477849006653, -0.10728934407234192, -0.4219876825809479, 0.345648854970932, 0.22267495095729828, 0.4719887375831604, 0.007030340377241373, 0.06493024528026581, -0.20108118653297424, -0.1237882524728775, 0.140801802277565, -0.07997821271419525, 0.5090373158454895, -0.22186774015426636, 0.04224006459116936, -0.1577128916978836, 0.27650535106658936, 0.09321488440036774, 0.29906538128852844, 0.08199267834424973, 0.12044935673475266, -0.24270449578762054, -0.25559133291244507, 0.07323300093412399, -0.1886816918849945, -0.0804305225610733, -0.07277216762304306, 0.16362713277339935, -0.2684486508369446, 0.07917731255292892, -0.19494058191776276, -0.13787181675434113, -0.2274964153766632, -0.2513841986656189, -0.22619812190532684, 0.118744857609272, -0.008345266804099083, 0.1539720594882965, 0.16466671228408813, 0.255609393119812, 0.17455324530601501, -0.059874873608350754, -0.08568363636732101, -0.049239810556173325, -0.06085884943604469, -0.00562708918005228, 0.6171345114707947, -0.24880392849445343, 0.01846950687468052, -0.18950839340686798, 0.29825547337532043, -0.3029179871082306, 0.17264975607395172, 0.3062302768230438, 0.27050909399986267, -0.4443277418613434, 0.2956660985946655, 0.18575389683246613, -0.18587781488895416, -0.249612957239151, -0.07453086972236633, -0.13299323618412018, -0.16250485181808472, -0.3158356249332428, -0.4238237738609314, -0.1492963284254074, 0.1503879427909851, 0.22470863163471222, 0.1306353658437729, -0.30589205026626587, -0.11018731445074081, 0.11449677497148514, 0.010205769911408424, 0.0982716828584671, -0.0099249966442585, 0.18758314847946167, -0.3077571392059326, -0.12779495120048523, 0.1944667100906372, -0.26476237177848816, -0.04130445420742035, 0.389242559671402, 0.03712008148431778, -0.24003157019615173, 0.15709716081619263, 0.11528276652097702, 0.4188011884689331, -0.1594291776418686, 0.10291094332933426, -0.13006390631198883, 0.2610374093055725, -0.05800354853272438, -0.09467551112174988, 0.1278383582830429, 0.39643141627311707, 0.04762015864253044, -0.21181389689445496, 0.2526419758796692, 0.4016764461994171, -1.0353662967681885, -0.11857499927282333, -0.11240829527378082, -0.1578577160835266, -0.15922419726848602, -0.2890991270542145, 0.18236537277698517, 0.0852363258600235, 0.17118260264396667, -0.2587442398071289, 0.0036156708374619484, 0.3166102170944214, 0.24564342200756073, 0.21351709961891174, -0.2653346359729767, 0.19668397307395935, -0.04092438519001007, 0.0037678079679608345, -0.1951514184474945, -0.6102901697158813, 0.18755999207496643, -0.28188154101371765, 0.06667809188365936, -0.2596774101257324, 0.22543534636497498, -0.09907292574644089, -0.14427746832370758, 0.5499932765960693, -0.21758238971233368, -0.15429234504699707, 0.025360509753227234, 0.18341824412345886, -0.33392640948295593, -0.18563173711299896, 0.2825267016887665, -0.16271209716796875, -0.22608597576618195, -0.04113318398594856, -0.21884503960609436, 0.02825682982802391, 0.008959821425378323, -0.138931542634964, 0.04702839255332947, 0.2559031546115875, -0.3353326916694641, 0.14283211529254913, -0.0883801057934761, -0.15444928407669067, 0.2162916213274002, -0.03813619911670685, -0.3384079039096832, -0.005794449709355831, 0.3920630216598511, 0.42919331789016724, 0.22005468606948853, 0.11461164057254791, 0.12835246324539185, -0.16476602852344513, 0.10277917236089706, 0.30274155735969543, 0.09062448889017105, 0.4356900751590729, 0.12960702180862427, 0.08050139993429184, -0.19894270598888397, -0.010131905786693096, -0.2318142056465149, 0.3402828872203827, -0.058827027678489685, -0.176614910364151, -0.0412009172141552, 0.3132076561450958, 0.15587112307548523, -0.1667625904083252, 0.039828892797231674, 0.24972282350063324, 0.08320483565330505, 0.5364025831222534, 0.1419878900051117, 0.147506982088089, -0.23287034034729004, -0.1107586994767189, -0.20937728881835938, 0.3275734484195709, 0.3340299725532532, -0.16642023622989655, -0.3660859763622284, -0.2314053177833557, -0.05410773307085037, 0.1509379744529724, 0.24446716904640198, -0.5067983269691467, -0.1380864679813385, 0.09478344768285751, -0.4172388017177582, -0.42301473021507263, 0.3361600935459137, 0.30194467306137085, 0.022734029218554497, 0.08903153240680695, -0.24151721596717834, -0.0037120033521205187, 0.02984590455889702, 0.09607002884149551, -0.1080724224448204, 0.3046901822090149, 0.04827278479933739, 0.10556084662675858, 0.19941194355487823, -0.34820225834846497, -0.3124259412288666, -0.25858360528945923, 0.470053493976593, 0.16344308853149414, -0.5243854522705078, 0.1820707768201828, -0.020846977829933167, -0.2950505316257477, -0.39283323287963867, 0.1464693397283554, 0.32358890771865845, 0.17032071948051453, -0.11461009085178375, 0.089777372777462, 0.2889913022518158, -0.2026834338903427, 0.05867587774991989, 0.28103530406951904, 0.19484275579452515, 0.13679368793964386, -0.2579452693462372, 0.2698993384838104, 0.20602329075336456, 0.17737816274166107, 0.032510146498680115, -0.26592788100242615, -0.18033714592456818, 0.03452283889055252, 0.10792216658592224, -0.03794069588184357, -0.1241430714726448, -0.23247778415679932, 0.2926790416240692, 0.03264922276139259, 0.004282308276742697, 0.045592840760946274, -0.10821438580751419, -0.08803053200244904, -0.09861716628074646, 0.1047002375125885, 0.179252490401268, 0.10725205391645432, 0.05326256901025772, -0.14713819324970245, 0.3829582631587982, -0.1414278745651245, -0.021522602066397667, -0.16300438344478607, 0.02208860218524933, 0.28033700585365295, 0.19289880990982056, -0.2804586887359619, 0.06852321326732635, -0.041917674243450165, 0.045525629073381424, -0.038292959332466125, -0.043599117547273636, 0.062233198434114456, 0.1016874685883522, 0.06607826054096222, -0.095706507563591, 0.16098397970199585, -0.0033461367711424828, -0.1639210283756256, 0.01172457356005907, 0.09633070230484009, 0.23978498578071594, 0.002452440094202757, -0.10845877230167389, 0.08159899711608887, 0.19254441559314728, -0.06343649327754974, 0.0012850455241277814, 0.32857388257980347, 0.08895497769117355, -0.25452741980552673, -0.05480624735355377, -0.015717405825853348, 0.48948678374290466, 0.2840256094932556, -0.18022160232067108, 0.1491568237543106, -0.06708041578531265, -0.37088465690612793, -0.23416545987129211, -0.13133832812309265, 0.444328248500824, 0.24369286000728607, -0.1297256052494049, 0.13720709085464478, -0.24161188304424286, 0.16807609796524048, 0.015516091138124466, -0.22287242114543915, -0.13644346594810486, 0.1764092743396759, 0.14038099348545074, -0.15217526257038116, 0.15936847031116486, -0.16485773026943207, 0.010233297012746334, 0.03819756954908371, 0.3473295271396637, -0.05865401029586792, 0.03339484706521034, -0.12449689954519272, 0.02846873365342617, -0.26773568987846375, 0.018720127642154694, -0.2181520015001297, -0.16978225111961365, -0.03702511265873909, -0.049865324050188065, -0.30656322836875916, 0.0753745287656784, -0.12087806314229965, -0.15686820447444916, 0.2003234475851059, 0.03531566634774208, 0.1696016639471054, -0.2831636667251587, 0.06912893801927567, -0.15376894176006317, -0.11845481395721436, -0.12001656740903854, 0.008332355879247189, -0.25067654252052307, 0.04802428558468819, 0.33349016308784485, -0.08139912784099579, -0.15787240862846375, -0.253379762172699, -0.15291628241539001, -0.05645958334207535, 0.48146364092826843, 0.2152525931596756, -0.03234490007162094, -0.08726075291633606, 0.07343314588069916, -0.11080004274845123, 0.15161901712417603, -0.04684160649776459, -0.19963261485099792, -0.1260221004486084, -0.1193222925066948, -0.2025531381368637, -0.17362508177757263, -0.2713329792022705, 0.16728636622428894, -0.1805793195962906, 0.03204941749572754, -0.0531780943274498, 0.23913024365901947, 0.16228991746902466, 0.1179460734128952, -0.017387934029102325, -0.009397052228450775, -0.0005397101631388068, 0.10552874207496643, 0.00379605358466506, -0.13418905436992645, -0.32036417722702026, 0.11211855709552765, 0.13790975511074066, -0.16092579066753387, 0.10021555423736572, 0.07371591776609421, 0.15055295825004578, -0.07622615993022919, 0.00012682312808465213, -0.27375710010528564, 0.14369246363639832, 0.006688226945698261, 0.1699984073638916, -0.24124807119369507, -0.06375110149383545, 0.02007574588060379, -0.3653467297554016, -0.17477428913116455, 0.4683762192726135, 0.09815610945224762, 0.18416863679885864, -0.1651303470134735, -0.0036248588003218174, 0.002946128137409687, -0.16502079367637634, 0.03723008185625076, 0.0806405171751976, 0.02194397523999214, 0.370906263589859, 0.08144766837358475, -0.06651186943054199, 0.1402634084224701, 0.3040975332260132, -0.3264603614807129, -0.11342193931341171, -0.06672486662864685, -0.09526070952415466, -0.04221714287996292, -0.06337457150220871, -0.04315695911645889, 0.21947738528251648, -0.0036667671520262957, 0.1118004098534584, 0.016681648790836334, -0.19245634973049164, -0.21873578429222107, -0.11231963336467743, -0.06688705831766129, 0.27188095450401306, -0.05207337811589241, 0.018330926075577736, 0.16184936463832855, -0.1122584342956543, 0.09005964547395706, -0.3020191490650177, 0.11999141424894333, -0.08385433256626129, -0.029634207487106323, -0.08277538418769836, -0.024597957730293274, 0.45059970021247864, 0.0515303835272789, -0.03726766258478165, -0.4192662239074707, -0.005849349778145552, -0.07340732216835022, 0.28500255942344666, 0.05521966516971588, 0.06330210715532303, 0.1596817970275879, 0.14640170335769653, 0.12472250312566757, -0.15519948303699493, 0.011480865068733692, -0.057780612260103226, 0.24796457588672638, -0.14144277572631836, 0.0074191526509821415, -0.11031431704759598, -0.1965477168560028, 0.15776889026165009, -0.5839788913726807, -0.06887010484933853, 0.03767894580960274, -0.0001952569291461259, 0.14694543182849884, 0.04391736909747124, -0.4526236355304718, 0.08995664864778519, -0.06642519682645798, 0.06007010117173195, -0.026519346982240677, -0.10461492091417313, 0.4724852740764618, 0.04640001058578491, -0.12906916439533234, 0.2016959935426712, -0.10873586684465408, 0.13284720480442047, -0.1230102926492691, 0.06307703256607056, -0.01588989794254303, -0.07386671006679535, 0.04088335484266281, 0.03656082600355148, 0.33882996439933777, 0.2672107219696045, -0.3070242702960968, -0.05870359018445015, -0.1551949679851532, -0.09495439380407333, 0.1690264791250229, -0.14630934596061707, -0.18432973325252533, -0.48483291268348694, 0.013222158886492252, 0.17781615257263184, 0.17067621648311615, -0.024983583018183708, -0.41736897826194763, 0.049573518335819244, 0.1435685157775879, -0.1756262332201004, -0.09675977379083633, -0.1230616644024849, 0.0392000675201416, -0.67799973487854, -0.2787306308746338, -0.40268436074256897, 0.40061238408088684, -0.06973299384117126, 0.02723192423582077, -0.046039387583732605, 0.027310645207762718, -0.30872535705566406, 0.39071470499038696, -0.006490316241979599, 0.06662731617689133, 0.1225614845752716, 0.010362189263105392, -0.16064275801181793, 0.21305681765079498, 0.1810493916273117, -0.00579006178304553, -0.5313490629196167, -0.07255849242210388, -0.06132731959223747, -0.018326671794056892, -0.06898824125528336, -0.022217078134417534, 0.2960652709007263, 0.047121740877628326, -0.03990890830755234, 0.3103817105293274, 0.19503049552440643, 0.07183970510959625, -0.13331976532936096, 0.24294933676719666, -0.10593989491462708, -0.31283020973205566, -0.09211006760597229, -0.0897027999162674, -0.4304576516151428, -0.12703125178813934, -0.1182517483830452, -0.190565288066864, 0.1793203204870224, 0.06389666348695755, 0.13260897994041443, -0.20320749282836914, -0.03372801095247269, -0.07603827863931656, 0.12079451233148575, 0.08536131680011749, 0.20817632973194122, -0.04128804802894592, 0.04595997557044029, 0.364288866519928, -0.22326810657978058, -0.00890785176306963, -0.09905502945184708, 0.11341574043035507, 0.07858406752347946, 0.29416966438293457, -0.018201671540737152, -0.006662874482572079, -0.03271251544356346, 0.08197834342718124, 0.015702111646533012, -0.018393363803625107, 0.28649505972862244, -0.14730697870254517, -0.08047973364591599, 0.20567189157009125, 0.03751007840037346, -0.05470087379217148, 0.14566758275032043, 0.01855839416384697, -0.04017889127135277, -0.17967399954795837, 