{"version": "0.5.1", "metadata": {"date": {"year": 2023, "month": 6, "day": 7, "hour": 19, "minute": 41, "second": 48}, "loudness": -12.180919647216797, "gain": 0.855428702895578, "name": null, "modeled_by": null, "gear_type": null, "gear_make": null, "gear_model": null, "tone_type": null}, "architecture": "WaveNet", "config": {"layers": [{"input_size": 1, "condition_size": 1, "head_size": 8, "channels": 16, "kernel_size": 3, "dilations": [1, 2, 4, 8, 16, 32, 64, 128, 256, 512], "activation": "Tanh", "gated": false, "head_bias": false}, {"input_size": 16, "condition_size": 1, "head_size": 1, "channels": 8, "kernel_size": 3, "dilations": [1, 2, 4, 8, 16, 32, 64, 128, 256, 512], "activation": "Tanh", "gated": false, "head_bias": true}], "head": null, "head_scale": 0.02}, "weights": [-1.689230884949211e-05, 0.6795492768287659, -0.6936367154121399, -0.7543371319770813, -0.4229346513748169, 0.18257291615009308, -0.13962000608444214, 0.8662794828414917, -0.11798384040594101, 0.23629872500896454, -0.38791486620903015, -0.20647309720516205, -0.9709413647651672, -0.7140430212020874, -0.5698999166488647, 0.3358135521411896, 0.08896318823099136, -0.007588451728224754, -0.11096575111150742, -0.14706476032733917, 0.09262696653604507, 0.0682130679488182, 0.04416634142398834, 0.06401269882917404, 0.026258237659931183, 0.09565398097038269, 0.08979951590299606, -0.08266891539096832, -0.005243434105068445, -0.07228370755910873, 0.0026471070013940334, 0.0436575673520565, -0.04777383431792259, -0.10781323164701462, 0.007216388825327158, -0.1704769879579544, -0.016011586412787437, 0.045967161655426025, 0.10610804706811905, 0.017744658514857292, 0.1299436241388321, -0.05880950018763542, 0.11962449550628662, -0.211942657828331, -0.06481339782476425, -0.12812559306621552, 0.1707027703523636, 0.04319079592823982, -0.007886862382292747, 0.08282560110092163, 0.051511649042367935, 0.18866117298603058, 0.13163763284683228, -0.023617727681994438, 0.14765587449073792, -0.0051788100972771645, -0.013862598687410355, -0.059284474700689316, -0.011855251155793667, -0.11024779081344604, 0.12385732680559158, -0.09516353160142899, -0.06896200776100159, -0.032046008855104446, 0.17912238836288452, 0.051620274782180786, -0.04156365618109703, -0.11898208409547806, 0.07272445410490036, 0.1079525351524353, 0.04120826721191406, -0.031839609146118164, 0.08855748176574707, 0.2730550467967987, 0.14312537014484406, 0.1579597145318985, 0.1861211508512497, -0.10706021636724472, 0.04641040042042732, -0.22420743107795715, -0.15353652834892273, 0.10796528309583664, 0.24885119497776031, -0.1547018587589264, 0.03404504433274269, -0.1814403384923935, -0.04511376842856407, -0.10017650574445724, 0.15399391949176788, -0.08829198032617569, 0.039991527795791626, -0.07994439452886581, 0.08438281714916229, 0.020768292248249054, 0.013451780192553997, -0.07489712536334991, 0.10392114520072937, 0.17123009264469147, -0.09732181578874588, -0.06520014256238937, 0.29463866353034973, 0.11966927349567413, -0.02718709222972393, 0.12075202167034149, -0.11795567721128464, 0.02872529812157154, 0.046267103403806686, -0.0962948277592659, 0.02002261020243168, -0.14059463143348694, -0.07329492270946503, 0.004683100618422031, 0.028353864327073097, 0.1269993931055069, 0.021427687257528305, -0.17022889852523804, 0.06590748578310013, -0.05539611726999283, 0.06439735740423203, -0.06369581073522568, 0.12425834685564041, 0.05559195578098297, -0.16954539716243744, 0.13302934169769287, -0.08548234403133392, -0.17814677953720093, 0.03538791835308075, -0.10628318041563034, 0.04510460048913956, -0.17248380184173584, 0.03658966347575188, -0.05102216452360153, -0.007341744378209114, -0.052494775503873825, 0.20148040354251862, -0.0864994153380394, 0.1049535721540451, -0.0293585155159235, 0.15781837701797485, 0.03721936419606209, 0.21712572872638702, 0.004124864470213652, 0.18805086612701416, -0.1001824215054512, -0.0442424900829792, -0.02241060696542263, -0.007323774043470621, 0.039532262831926346, -0.028118599206209183, -0.21037326753139496, -0.06543237715959549, -0.0730305016040802, -0.12438155710697174, 0.1518251597881317, 0.13269886374473572, -0.23138518631458282, 0.16676659882068634, -0.17355892062187195, 0.0635804757475853, -0.1618892401456833, -0.3683045506477356, -0.35912489891052246, -0.32608407735824585, 0.040459685027599335, -0.02706804685294628, 0.016263119876384735, -0.21857544779777527, 0.06283796578645706, -0.1468939185142517, -0.170881986618042, 0.13054707646369934, -0.07570365816354752, -0.033119864761829376, 0.05344201624393463, -0.15203966200351715, 0.24494439363479614, -0.010647513903677464, -0.055585604161024094, -0.07713733613491058, -0.13525913655757904, -0.023815447464585304, 0.12533996999263763, 0.09597603976726532, 0.0615236759185791, -0.06367632746696472, 0.05373430997133255, -0.05025463178753853, 0.12591342628002167, -0.11600880324840546, 0.10791950672864914, -0.03982705622911453, 0.10692612826824188, -0.12979069352149963, -0.16194310784339905, -0.10053230077028275, -0.07615415751934052, -0.23893313109874725, 0.0571579784154892, -0.10687822848558426, -0.16150547564029694, 0.010513643734157085, 0.07110138237476349, -0.27172285318374634, -0.09502515941858292, -0.1062159612774849, 0.3313841223716736, 0.022403227165341377, 0.23499055206775665, -0.10658814013004303, -0.062309786677360535, -0.09979887306690216, -0.012831205502152443, 0.02876760996878147, -0.0505770668387413, -0.012389334850013256, 0.00945946853607893, -0.09894544631242752, -0.08981920778751373, 0.10669580847024918, -0.10090524703264236, -0.030213871970772743, 0.1292228400707245, 0.06249105557799339, 0.017560461536049843, -0.12063734978437424, 0.04714832454919815, -0.1275208443403244, -0.04883342981338501, -0.029829468578100204, -0.0064800637774169445, 0.014758049510419369, 0.10647832602262497, -0.009609459899365902, 0.0814589336514473, 0.08464297652244568, -0.07154681533575058, 0.08063613623380661, -0.10952060669660568, -0.07817968726158142, 0.02595379203557968, 0.05495624244213104, 0.0938405767083168, -0.05251862481236458, 0.028535833582282066, 0.06115613132715225, -0.151030033826828, 0.11688462644815445, -0.134809210896492, -0.010407851077616215, -0.010766820050776005, -0.09575605392456055, 0.002830818761140108, 0.13108764588832855, 0.04908556491136551, 0.006816307082772255, 0.027485612779855728, -0.09912185370922089, 0.1723664551973343, -0.08262108266353607, -0.08444783091545105, -0.22422318160533905, 0.2487364262342453, 0.055367473512887955, 0.24008825421333313, -0.10965196043252945, -0.06372077763080597, 0.09777001291513443, -0.12012124806642532, 0.10064487904310226, 0.17664380371570587, -0.2312806248664856, -0.05750754475593567, -0.2734810709953308, 0.19798332452774048, -0.07152596861124039, 0.05270500108599663, -0.016678664833307266, -0.0711338222026825, -0.14784182608127594, 0.20343521237373352, 0.024002887308597565, 0.059012867510318756, -0.22019514441490173, 0.13301849365234375, -0.11469564586877823, 0.27228251099586487, -0.07186150550842285, 0.1753002405166626, -0.18950355052947998, -0.0029609627090394497, 0.059803202748298645, -0.12102194130420685, 0.022279907017946243, 0.1273251622915268, -0.19443964958190918, -0.1085127592086792, 0.23423552513122559, -0.2658940553665161, 0.042450256645679474, 0.09074341505765915, -0.2276872843503952, 0.05168212577700615, -0.25774163007736206, 0.21689246594905853, -0.042527321726083755, -0.19616100192070007, -0.0246890801936388, 0.07532374560832977, -0.031090380623936653, -0.07676507532596588, -0.13406531512737274, 0.06463047116994858, 0.11241206526756287, -0.06749243289232254, 0.14288261532783508, 0.15704147517681122, -0.08787501603364944, 0.09165766090154648, 0.12526395916938782, 0.030087193474173546, -0.07725891470909119, -0.057147808372974396, -0.12913954257965088, 0.11088361591100693, 0.18829092383384705, 0.14418548345565796, -0.008699312806129456, -0.04577751085162163, 0.06841153651475906, 0.0622885562479496, -0.03238007798790932, -0.1135285422205925, 0.04656004160642624, 0.017334861680865288, -0.11412930488586426, 0.15304197371006012, 0.17996461689472198, 0.12357615679502487, 0.20501504838466644, 0.16165241599082947, -0.04820592701435089, 0.03949077054858208, 0.180637389421463, 0.06592896580696106, 0.00539816590026021, 0.19373568892478943, 0.05823175981640816, 0.1754782646894455, -0.023376286029815674, 0.004246180411428213, -0.2271849662065506, -0.043153442442417145, 0.03297746554017067, 0.22506605088710785, 0.036233846098184586, 0.12003931403160095, -0.16635620594024658, 0.1932441145181656, -0.16090068221092224, 0.14086763560771942, -0.2243591547012329, -0.200710728764534, -0.0006787417223677039, -0.009732413105666637, 0.014383411966264248, 0.24630317091941833, -0.011950155720114708, -0.08383537083864212, -0.21480238437652588, 0.09823645651340485, -0.14651669561862946, 0.22707031667232513, -0.23705120384693146, -0.007836990989744663, -0.2482396513223648, 0.045957326889038086, 0.034224171191453934, 0.17486917972564697, -0.03408082202076912, 0.18018829822540283, 0.02853153645992279, 0.10192056745290756, -0.005229873117059469, 0.23009295761585236, -0.08766207844018936, 0.10201049596071243, 0.20250609517097473, -0.016977718099951744, -0.11295049637556076, 0.17883038520812988, -0.11086603254079819, -0.0971241220831871, 0.027495965361595154, -0.20713120698928833, -0.1758953034877777, 0.20589499175548553, -0.02466682717204094, 0.1195341944694519, -0.18371671438217163, 0.23339170217514038, 0.037633076310157776, 0.09571315348148346, -0.0693017840385437, 0.2623293101787567, -0.09860207140445709, -0.14539623260498047, 0.0034601108636707067, 0.254142165184021, -0.020390886813402176, -0.05034890025854111, 0.07152001559734344, 0.013378223404288292, -0.009983036667108536, 0.15955378115177155, -0.06639228761196136, 0.07030355930328369, -0.19039660692214966, -0.07163334637880325, -0.10769964009523392, 0.32016777992248535, 0.07460401207208633, 0.04965807497501373, -0.1395328938961029, 0.03512563556432724, -0.02944638393819332, 0.026427719742059708, 0.05821666494011879, 0.028813641518354416, -0.20791161060333252, 0.018264224752783775, -0.2469489723443985, 0.1971152275800705, 0.1583709567785263, -0.10474739968776703, 0.06742340326309204, -0.011761022731661797, -0.10826675593852997, 0.034784670919179916, 0.10272596031427383, -0.2690454423427582, 0.008588925004005432, -0.10437087714672089, -0.1643064171075821, 0.25214841961860657, -0.09516394883394241, 0.26576438546180725, -0.2813817262649536, -0.06726358085870743, 0.00020982434216421098, -0.1008920818567276, 0.1137007549405098, 0.03294556587934494, 0.11531177908182144, 0.09788374602794647, -0.05854550376534462, 0.14069144427776337, -0.019813407212495804, 0.10950624942779541, -0.09016133099794388, -0.06734420359134674, -0.1053108349442482, -0.033747125416994095, 0.0008946919115260243, -0.15812118351459503, 0.019938461482524872, 0.10582098364830017, 0.10726888477802277, -0.015774745494127274, -0.1011345311999321, -0.08199629932641983, 0.04220521077513695, 0.16885201632976532, 0.1661032736301422, 0.026498407125473022, 0.06836258620023727, -0.1817820966243744, -0.1496831625699997, 0.09025435894727707, -0.04213590919971466, 0.093806691467762, -0.1251831203699112, -0.021450938656926155, -0.08934137225151062, 0.05312410742044449, 0.021729599684476852, 0.13208523392677307, 0.06293531507253647, 0.1192944273352623, 0.02802857756614685, -0.06858296692371368, 0.008437030017375946, 0.043084148317575455, 0.04660286754369736, -0.15957070887088776, 0.06842497736215591, 0.05020766332745552, 0.00411800853908062, -0.20903223752975464, -0.09623079001903534, -0.039710383862257004, 0.2088467925786972, 0.16162648797035217, 0.23789925873279572, -0.24311529099941254, 0.0719466581940651, 0.09212840348482132, -0.2912268340587616, 0.0030038217082619667, 0.13537631928920746, -0.2809446454048157, -0.09057915210723877, -0.05774866044521332, 0.2844158411026001, 0.013188977725803852, 0.23322275280952454, -0.281038761138916, -0.1130751296877861, -0.16097497940063477, 0.41803452372550964, 0.03325170651078224, 0.26054006814956665, -0.28835391998291016, 0.04925202205777168, -0.28535351157188416, 0.22870616614818573, -0.04164613410830498, 0.31613293290138245, -0.36298656463623047, -0.03372036665678024, 0.08550472557544708, -0.20422214269638062, 0.05516275390982628, 0.062478240579366684, -0.45140302181243896, -0.15811039507389069, 0.17523573338985443, -0.36989009380340576, -0.1428544670343399, 0.13099710643291473, -0.3071768581867218, -0.12203244119882584, -0.22248147428035736, 0.26467984914779663, -0.12447348237037659, -0.0558747872710228, 0.1497085690498352, 0.12617547810077667, 0.17131458222866058, -0.10413046181201935, 0.022018857300281525, -0.2892599105834961, -0.08816074579954147, 0.25620344281196594, -0.2521643042564392, 0.07674933969974518, 0.10352274030447006, -0.19771596789360046, 0.010992579162120819, 0.19876377284526825, 0.14265984296798706, -0.18300886452198029, -0.2113441675901413, -0.2436923235654831, 0.1003003865480423, -0.002214113948866725, 0.29590705037117004, -0.08070733398199081, -0.1368052065372467, -0.07079339027404785, 0.041186124086380005, 0.19742795825004578, 0.24178527295589447, -0.08265844732522964, -0.1943056732416153, -0.17371468245983124, 0.16464783251285553, 0.05417522415518761, -0.287911593914032, 0.11359387636184692, 0.2851659059524536, -0.19907639920711517, -0.06922975182533264, -0.019560091197490692, -0.12572649121284485, 0.036546073853969574, 0.038457583636045456, -0.13975484669208527, 0.10103651136159897, 0.22526861727237701, 0.3262138068675995, -0.05074555054306984, -0.19813314080238342, -0.18356573581695557, -0.08317074924707413, 0.014396974816918373, 0.07851237058639526, 0.14614064991474152, -0.003879573894664645, 0.12546899914741516, -0.126654252409935, 0.022067217156291008, -0.06768487393856049, -0.3645085096359253, 0.2763506770133972, -0.06964270025491714, -0.3263978064060211, 0.21886084973812103, -0.035082295536994934, 0.19190765917301178, -0.14069534838199615, -0.02298131212592125, -0.38266128301620483, 0.2568029463291168, -0.05606381595134735, 0.3104369044303894, -0.0207474734634161, 0.11511991918087006, -0.16434770822525024, 0.29816314578056335, 0.019042782485485077, 0.17775017023086548, -0.022092457860708237, 0.039789579808712006, -0.3858688473701477, 0.11711090058088303, -0.130337655544281, -0.15516434609889984, 0.09234157204627991, -0.13927049934864044, -0.2681831121444702, 0.2366950362920761, 0.03233860433101654, -0.21160006523132324, 0.15899206697940826, 0.04941411316394806, -0.2956025302410126, 0.08811550587415695, -0.1549329161643982, 0.1869615912437439, -0.017127981409430504, -0.09735919535160065, -0.10826931148767471, 0.08381727337837219, -0.07871676981449127, 0.028760509565472603, 0.007690947502851486, 0.010463466867804527, 0.006369314156472683, 0.019840000197291374, 0.05620951950550079, -0.04050531983375549, 0.07233015447854996, 0.2146112322807312, -0.21750974655151367, 0.011839566752314568, -0.13509047031402588, 0.1440650075674057, 0.0014956222148612142, 0.018180061131715775, -0.07856617867946625, 0.09277280420064926, -0.13228821754455566, 0.21572349965572357, -0.24690081179141998, 0.1146048977971077, 0.05392945930361748, 0.10197753459215164, 0.01257149688899517, 0.06413169950246811, -0.023491360247135162, -0.029869701713323593, -0.12343019992113113, 0.11257611215114594, 0.10717131197452545, -0.08039869368076324, 0.23005852103233337, 0.07977952063083649, -0.11562874168157578, 0.23461976647377014, 0.06140724942088127, 0.016450781375169754, 0.036917418241500854, 0.08348633348941803, -0.12166459113359451, 0.1950596123933792, -0.011037012562155724, 0.16686208546161652, -0.09295760095119476, -0.05765919014811516, 0.017161553725600243, -0.0251462422311306, 0.02233516052365303, -0.004651907365769148, 0.17567752301692963, -0.10373350232839584, -0.04979339987039566, 0.05582896247506142, -0.21957075595855713, 0.1270749866962433, -0.01944687031209469, -0.1831381916999817, 0.14240418374538422, -0.1711210161447525, 0.12333948910236359, -0.18864957988262177, 0.018975766375660896, -0.08896884322166443, 0.2341155856847763, -0.09896130114793777, 0.21322962641716003, -0.1041276603937149, -0.023912515491247177, -0.23274315893650055, -0.07403262704610825, 0.11209117621183395, 0.08067330718040466, -0.07967273145914078, 0.08510839939117432, -0.02831757441163063, 0.20496468245983124, 0.0696006789803505, -0.1962863802909851, 0.08310512453317642, -0.11016865074634552, -0.2036767303943634, 0.11981775611639023, 0.0898682102560997, -0.23428934812545776, 0.17478415369987488, -0.11643324792385101, -0.14567764103412628, 0.20644979178905487, -0.0704352930188179, 0.14366015791893005, -0.282577782869339, 0.052848029881715775, 0.045237947255373, 0.050946176052093506, 0.0780002698302269, -0.19482892751693726, -0.3718491494655609, 0.09433380514383316, 0.2029564529657364, 0.20456184446811676, -0.024304309859871864, 0.21509650349617004, 0.34828490018844604, -0.16371096670627594, 0.06943617761135101, 0.2014622539281845, -0.2088160663843155, -0.10449671000242233, -0.13867178559303284, 0.202115997672081, 0.10583490133285522, 0.2849128544330597, -0.15878801047801971, 0.021414238959550858, -0.30837756395339966, -0.006722642108798027, 0.07261361181735992, 0.2737436294555664, -0.2517681121826172, 0.05272733047604561, -0.1801086664199829, 0.006415706593543291, 0.047574128955602646, 0.3636588156223297, -0.21487443149089813, 0.06375851482152939, 0.3120919167995453, -0.19469797611236572, 0.16646996140480042, 0.3236177861690521, -0.0035346101503819227, -0.005718323867768049, 0.3910827934741974, -0.1781078577041626, 0.22855882346630096, 0.10954056680202484, -0.22280307114124298, 0.04464099556207657, -0.24725355207920074, 0.06871438771486282, -0.0132472338154912, -0.07746081054210663, -0.11143019050359726, -0.10244575142860413, 0.0013059094781056046, -0.04332013800740242, -0.0024272319860756397, 0.006673565600067377, 0.004659156780689955, 0.07467160373926163, -0.2628631293773651, 0.04496634379029274, -0.194615438580513, 0.054139282554388046, -0.08374550938606262, 0.19345971941947937, 0.3971949815750122, -0.46473056077957153, 0.7351937890052795, -0.6825802326202393, -0.013129869475960732, 1.0638630390167236, 0.9348775744438171, -0.4566630423069, 0.14711681008338928, 0.14490127563476562, -0.4126834273338318, -0.4611823260784149, 0.13117410242557526, -0.8291956186294556, 0.20986124873161316, 0.5186927318572998, -0.12658196687698364, 0.11688439548015594, -0.059367742389440536, 0.14750179648399353, 0.0962330773472786, -0.23932650685310364, 0.13423685729503632, 0.015579549595713615, -0.023443222045898438, 0.03568563610315323, 0.15605895221233368, 0.03360551968216896, 0.26791128516197205, 0.15822726488113403, 0.1886267364025116, -0.34859201312065125, 0.020968060940504074, -0.12262746691703796, -0.16174672544002533, 0.010743680410087109, -0.007677377201616764, 0.01749284565448761, -0.07937708497047424, -0.0311224777251482, -0.008746462874114513, 0.10966561734676361, -0.19332623481750488, 0.03643558546900749, -0.04712562635540962, -0.17727625370025635, 0.0903758853673935, 0.5174997448921204, 0.045311834663152695, 0.0372251495718956, 0.013647343963384628, 0.181910902261734, -4.87648430862464e-05, 0.00868314504623413, 0.043434225022792816, 0.060374464839696884, 0.11401727795600891, -0.02109774574637413, 0.32850736379623413, -0.29055336117744446, 0.16682253777980804, 0.0938069298863411, 0.2214341014623642, -0.017976978793740273, 0.3551894724369049, -0.12009944766759872, -0.04389442130923271, -0.46220168471336365, -0.1540108025074005, 0.08592157810926437, -0.14956410229206085, 0.07223398238420486, -0.30984172224998474, 0.23177313804626465, 0.08580208569765091, -0.2681887745857239, 0.1532546579837799, 0.12665767967700958, -0.3911129832267761, -0.040431149303913116, -0.06777316331863403, -0.2436261624097824, -0.26449698209762573, 0.031343165785074234, 0.03866581246256828, -0.099180206656456, 0.00022601544333156198, -0.059682317078113556, 0.05265937000513077, 0.16222764551639557, -0.1572829782962799, 0.20896722376346588, -0.014479735866189003, 0.22833813726902008, -0.20235811173915863, 0.007783127017319202, -0.21563303470611572, -0.052839942276477814, 0.04059949517250061, 0.2084628939628601, 0.20341597497463226, 0.22291183471679688, 0.16854241490364075, 0.22130535542964935, 0.22231115400791168, -0.07770247757434845, -0.3240548372268677, 0.15629544854164124, -0.06986434012651443, -0.07890475541353226, 0.27001962065696716, 0.12061667442321777, -0.04767090082168579, 0.18578360974788666, 0.15302146971225739, 0.18485265970230103, -0.0471329428255558, -0.33003073930740356, 0.14025110006332397, 0.19060347974300385, 0.07044698297977448, -0.1747819036245346, -0.15196558833122253, 0.19818520545959473, 0.17754361033439636, -0.04368186369538307, 0.04247023165225983, -0.27770036458969116, 0.030400831252336502, 0.10351578146219254, 0.19344227015972137, -0.14582966268062592, -0.02697608806192875, 0.21389193832874298, 0.2192905992269516, 0.21850433945655823, 0.1506858915090561, -0.1854832023382187, 0.1535583883523941, -0.11703737825155258, 0.13407975435256958, -0.19442400336265564, -0.04624539986252785, -0.017956595867872238, -0.008642449975013733, -0.04636261239647865, -0.21047061681747437, -0.26532089710235596, 0.05815533548593521, -0.09675848484039307, -0.07162317633628845, -0.16371895372867584, -0.19428274035453796, -0.11029659956693649, 0.14084045588970184, -0.0208169873803854, -0.09076522290706635, -0.07734095305204391, 0.03659045323729515, 0.16075937449932098, -0.0689811035990715, 0.033782683312892914, 0.1628354787826538, -0.19900575280189514, -0.1572212427854538, 0.1990305781364441, 0.12335125356912613, 0.08787348866462708, 0.09302011132240295, 0.18611450493335724, 0.04311570152640343, 0.031203366816043854, 0.11706547439098358, -0.05130719020962715, 0.06054805964231491, 0.1746935099363327, 0.15819373726844788, 0.18048006296157837, -0.2640798091888428, 0.0388176329433918, -0.09800797700881958, -0.1984323412179947, 0.004133982118219137, -0.02928687073290348, 0.06289910525083542, -0.11423810571432114, -0.28519245982170105, -0.05119870975613594, -0.2671961188316345, 0.13548755645751953, 0.06656383723020554, 0.39442527294158936, 0.012210131622850895, -0.033322446048259735, 0.13105492293834686, -0.03455715253949165, 0.02715817093849182, -0.18089494109153748, -0.07337217777967453, -0.141084223985672, -0.10330745577812195, -0.09918809682130814, 0.17399214208126068, -0.21981284022331238, 0.08263467997312546, 0.2122589349746704, -0.29323887825012207, -0.5119077563285828, -0.09059522300958633, -0.12910626828670502, 0.06450320780277252, 0.03909683972597122, 0.07759399712085724, -0.10309512913227081, 0.07794567942619324, 0.23892000317573547, 0.2823162376880646, 0.04177774861454964, -0.12684664130210876, 0.0789189413189888, 0.14984606206417084, -0.17710551619529724, -0.0012824421282857656, 0.11379439383745193, 0.005493787582963705, -0.25283393263816833, -0.0905623584985733, 0.032294727861881256, -0.16555781662464142, 0.2732689380645752, 0.20447303354740143, 0.005121393129229546, 0.05328354984521866, -0.03602954372763634, -0.03997151553630829, -0.03813191130757332, -0.2789355516433716, -0.11869495362043381, -0.032283514738082886, 0.2955053746700287, -0.1553369015455246, 0.39264926314353943, -0.1134648248553276, -0.16180594265460968, 0.14928559958934784, -0.11095861345529556, 0.07536353170871735, 0.143928661942482, -0.290021151304245, 0.008011857978999615, -0.018210330978035927, -0.18344342708587646, 0.06327639520168304, 0.27238404750823975, -0.37278297543525696, 0.07836461067199707, 0.1169343814253807, 0.05155566334724426, 0.2529957890510559, -0.052346982061862946, -0.011980040930211544, 0.36348313093185425, 0.04457857459783554, 0.1588229089975357, -0.040379881858825684, -0.14072851836681366, -0.03929932042956352, -0.32238221168518066, 0.14961430430412292, -0.01677917130291462, -0.029226066544651985, 0.025617294013500214, 0.0625898689031601, -0.17850318551063538, 0.17180071771144867, 0.12084207683801651, -0.043923456221818924, -0.08891484141349792, 0.16154539585113525, 0.01056651957333088, 0.11510832607746124, -0.17561614513397217, 0.14956842362880707, 0.13370150327682495, 0.05148553475737572, 0.052350692451000214, 0.18733689188957214, -0.10255337506532669, 0.2606826722621918, -0.014886390417814255, 0.4137874245643616, -0.12892287969589233, 0.06054007634520531, -0.42861586809158325, -0.08761414140462875, -0.11873603612184525, 0.49218547344207764, -0.2287062406539917, -0.16135144233703613, 0.16579389572143555, -0.17469747364521027, -0.22911565005779266, 0.15683726966381073, 0.289130836725235, 0.10354442894458771, -0.4121381938457489, 0.029188036918640137, -0.12351947277784348, 0.39591899514198303, 0.18453910946846008, 0.09216354042291641, -0.38051220774650574, -0.18785670399665833, 0.010594516061246395, 0.14914651215076447, -0.06549986451864243, 0.061837997287511826, -0.371824711561203, -0.302219033241272, -0.18841452896595, 0.22433960437774658, 0.09250693768262863, -0.17125533521175385, 0.3744336664676666, -0.1804952174425125, -0.06989085674285889, 0.2589188516139984, -0.1295776069164276, 0.11183394491672516, 0.10908546298742294, -0.30170854926109314, -0.08803977072238922, 0.31816595792770386, 0.15324236452579498, -0.005923462100327015, -0.3636936545372009, 0.03462027758359909, -0.49925732612609863, 0.23823139071464539, 0.02008798159658909, 0.4694889187812805, 0.04767481982707977, -0.2261798083782196, -0.416843980550766, 0.3184228241443634, -0.09417133033275604, -0.09427943825721741, 0.07641709595918655, 0.11378281563520432, -0.2760053873062134, 0.126458078622818, -0.0448780320584774, 0.1663568913936615, -0.34703028202056885, -0.022775093093514442, -0.5648818016052246, -0.08063019812107086, 0.16619479656219482, 0.13849657773971558, -0.056731659919023514, -0.3116312623023987, -0.15295390784740448, -0.01596839725971222, 0.2083437740802765, 0.23647542297840118, -0.14713738858699799, -0.0336260125041008, -0.13218346238136292, 0.03150885924696922, -0.015754692256450653, -0.3283659517765045, 0.4109574854373932, -0.09246284514665604, -0.3006661534309387, 0.09287207573652267, -0.13345777988433838, -0.0986621305346489, -0.003942567389458418, -0.13817602396011353, -0.3381994962692261, 0.0849086120724678, 0.05864737555384636, 0.3877430260181427, -0.1244320496916771, -0.059844620525836945, -0.046855051070451736, -0.11945401132106781, 0.18305663764476776, -0.06039916351437569, 0.1942424774169922, -0.01997823268175125, 0.10933800786733627, -0.12399578839540482, 0.42230144143104553, 0.11541792750358582, -0.12950055301189423, 0.2945069372653961, -0.14883549511432648, 0.34215953946113586, -0.2750166952610016, -0.09330125153064728, 0.41641828417778015, 0.11745387315750122, -0.28647568821907043, -0.03209575265645981, -0.12875938415527344, 0.09325861185789108, -0.02205008827149868, -0.03081561252474785, -0.23192735016345978, -0.01020230446010828, -0.07912059128284454, 0.2953769862651825, -0.18068170547485352, -0.09680284559726715, -0.3593935966491699, 0.12864503264427185, 0.12661832571029663, 0.41772234439849854, -0.1749848872423172, 0.038567785173654556, -0.23225092887878418, 0.07468578219413757, -0.027430685237050056, -0.2253475934267044, 0.1303739696741104, 0.04937007278203964, 0.0869520828127861, 0.07719428092241287, -0.11463974416255951, 0.3480764925479889, 0.018831323832273483, -0.20892859995365143, -0.018541330471634865, 0.18139931559562683, -0.11891776323318481, 0.06019749492406845, -0.32158026099205017, 0.2910274863243103, 0.031103508546948433, -0.2669079303741455, 0.17236176133155823, 0.1621013879776001, -0.23343715071678162, 0.029507996514439583, -0.08571918308734894, -0.18112769722938538, -0.3025813102722168, -0.25958919525146484, 0.08321984112262726, 0.21243500709533691, 0.19756177067756653, 0.08492732793092728, -0.3274211287498474, -0.005795113276690245, 0.22862766683101654, 0.4381706416606903, 0.00793385412544012, -0.05653216317296028, -0.12732742726802826, -0.2074398249387741, 0.1669079065322876, 0.3735446631908417, 0.0005335765890777111, -0.1372709721326828, -0.1468937247991562, 0.24169765412807465, 0.18818581104278564, 0.3036896586418152, 0.1524244099855423, -0.25811436772346497, 0.4411635100841522, -0.03547113761305809, -0.2558180093765259, 0.29385268688201904, 0.20545703172683716, -0.04953122138977051, -0.1899392306804657, 0.04545863717794418, 0.2062455415725708, -0.355063259601593, 0.08121775835752487, -0.0026584418956190348, 0.3792761266231537, -0.2039799988269806, -0.03951960429549217, -0.2359168827533722, 0.28253549337387085, -0.029302753508090973, -0.08925472944974899, 0.3003767430782318, 0.1225883811712265, 0.20195108652114868, -0.18617410957813263, 0.08083566278219223, 0.10989430546760559, -0.36410531401634216, -0.026584727689623833, 0.16248656809329987, -0.16618208587169647, 0.14529745280742645, -0.11434171348810196, 0.3073437213897705, 0.004887477960437536, 0.17090977728366852, -0.09162504971027374, 0.005702011287212372, -0.1907620131969452, 0.09638622403144836, -0.07569002360105515, 0.23958155512809753, -0.27652955055236816, 0.01730252429842949, -0.4018712341785431, 0.6085649132728577, 0.09249885380268097, -0.11448083072900772, -0.39764559268951416, 0.18134501576423645, 0.12201981246471405, -0.2528214752674103, 0.04693636670708656, 0.07544165104627609, -0.021670356392860413, -0.1208399161696434, -0.07430770993232727, 0.2739299535751343, -0.1992235630750656, -0.04046405851840973, 0.032846372574567795, 0.08325760811567307, -0.2804272472858429, 0.14091399312019348, -0.11004338413476944, -0.21408900618553162, 0.050023630261421204, 0.006347974296659231, -0.16086147725582123, 0.18503016233444214, 0.08319965749979019, -0.21809442341327667, 0.2506178617477417, -0.18273858726024628, 0.44629549980163574, -0.007505151908844709, -0.17231395840644836, 0.18499210476875305, 0.04073812812566757, -0.10799956321716309, 0.2653372287750244, -0.4403979182243347, 0.320991188287735, 0.11033548414707184, 0.44242408871650696, -0.017416564747691154, 0.3493097126483917, -0.5470690727233887, 0.046199530363082886, -0.09233315289020538, 0.412279337644577, 0.04322785884141922, 0.2502797245979309, -0.4338094890117645, 0.22641968727111816, 0.040136583149433136, 0.5781450271606445, -0.05214265361428261, -0.07494140416383743, 0.29728206992149353, 0.09755964577198029, -0.3352545201778412, 0.22861002385616302, 0.026077857241034508, 0.011422649957239628, -0.6175627708435059, 0.1433543711900711, 0.3422378897666931, 0.26805683970451355, 0.1061064749956131, -0.11736007034778595, 0.036128975450992584, -0.027906209230422974, 0.26588794589042664, 0.13197658956050873, 0.2682323455810547, 0.39129215478897095, 0.09161327034235, -0.08045025914907455, 0.001028392231091857, 0.11483915895223618, -0.15511028468608856, -0.15948687493801117, 0.02327035553753376, 0.040525659918785095, 0.21970200538635254, -0.006212788634002209, 0.02379033714532852, -0.13261476159095764, 0.06838061660528183, 0.06887521594762802, -0.015115669928491116, -0.15130163729190826, -0.15258251130580902, -0.05394253879785538, -0.02982483059167862, -0.0022574702743440866, 0.1401170790195465, -0.12008769810199738, -0.023622829467058182, 0.21765489876270294, 0.24272289872169495, 0.08049783855676651, 0.10112956166267395, 0.16350781917572021, 0.1063927635550499, -0.011867845430970192, 0.044728558510541916, -0.14882130920886993, -0.012738723307847977, -0.01892237924039364, -0.08414134383201599, -0.12253021448850632, -0.0068099480122327805, 0.09934095293283463, -0.14160975813865662, 0.2889595925807953, -0.018424462527036667, 0.2151995599269867, -0.32938268780708313, 0.15178169310092926, -0.3265008330345154, 0.1544191986322403, 0.24111482501029968, -0.1602037101984024, 0.042684249579906464, -0.10094553232192993, -0.10969875752925873, -0.047339607030153275, -0.17660914361476898, 0.2292122095823288, -0.15146717429161072, -0.18538640439510345, -0.20140878856182098, 0.004051184747368097, -0.12543782591819763, 0.18792428076267242, -0.034674689173698425, -0.09337300062179565, -0.17898596823215485, -0.3574925661087036, 0.18773213028907776, 0.27885201573371887, 0.22128133475780487, -0.06739003956317902, -0.07984951883554459, -0.3339686095714569, 0.015034129843115807, -0.028505686670541763, 0.28912103176116943, 0.000989257823675871, -0.31110680103302, -0.06726403534412384, 0.010554165579378605, -0.27965372800827026, -0.2877656817436218, -0.08950407058000565, -0.045601021498441696, -0.0035660038702189922, 0.22297370433807373, 0.14125381410121918, 0.037921372801065445, 0.07092345505952835, -0.029054710641503334, 0.04144855961203575, -0.21115738153457642, -0.020132945850491524, 0.11789720505475998, 0.03996219485998154, 0.04549185559153557, 0.025889869779348373, -0.13639499247074127, -0.06583059579133987, 0.05282480642199516, -0.2630581855773926, 0.11377004534006119, 0.15309713780879974, -0.013701669871807098, 0.12634631991386414, 0.10880418866872787, 0.25542470812797546, -0.050756994634866714, -0.09500163793563843, -0.1752488762140274, -0.15516722202301025, -0.16258925199508667, 0.2584083378314972, -0.04571402072906494, -0.09430859237909317, -0.11148984730243683, 0.024110835045576096, 0.06560204923152924, 0.06864804774522781, 0.0701853334903717, 0.12064500153064728, -0.18302851915359497, -0.0776837021112442, -0.22402611374855042, -0.015269933268427849, 0.0611482597887516, 0.10110528767108917, -0.15635880827903748, -0.042729802429676056, -0.018289584666490555, -0.30027303099632263, -0.09628164768218994, -0.050151675939559937, -0.20833590626716614, 0.06133994832634926, -0.004917294252663851, 0.09030263125896454, 0.5508096814155579, 0.3885765075683594, 0.005976779852062464, -0.1811474710702896, -0.04049894958734512, -0.006628759205341339, -0.07771525532007217, 0.14605912566184998, 0.02258148044347763, -0.2370491474866867, 0.10499969124794006, -0.1869620382785797, 0.20839017629623413, -0.0612499825656414, -0.17220374941825867, 0.032402217388153076, -0.21183261275291443, 0.06714723259210587, 0.3286621868610382, 0.11469599604606628, 0.18051518499851227, -0.22868862748146057, 0.042859550565481186, 0.27821823954582214, -0.0314776785671711, 0.15737299621105194, -0.09689531475305557, -0.24608422815799713, -0.2141970545053482, 0.06527306884527206, 0.014857431873679161, 0.045199405401945114, 0.006914351135492325, -0.024819839745759964, 0.015377637930214405, -0.003285778919234872, 0.11752615123987198, -0.05585875362157822, -0.19468407332897186, -0.08967727422714233, 0.07157567143440247, -0.017094554379582405, -0.06270474195480347, -0.14482103288173676, -0.08644585311412811, -0.2410437911748886, -0.05426490306854248, -0.015061049722135067, 0.08399957418441772, 0.043999090790748596, -0.209946408867836, -0.14357614517211914, 0.0169791579246521, 0.09139957278966904, 0.03887266665697098, -0.029905231669545174, 0.16414104402065277, 0.05764797329902649, -0.045975279062986374, -0.019618241116404533, 0.0980110615491867, 0.03227165713906288, -0.15907235443592072, -0.07182157039642334, 0.1262814849615097, -0.07206184417009354, 0.037888821214437485, 0.12756836414337158, 0.1272975355386734, -0.03241937607526779, 0.14706340432167053, 0.027452899143099785, -0.12397658824920654, -0.09348732978105545, 0.22037167847156525, -0.03336917981505394, -0.029658250510692596, -0.07368203997612, 0.030282821506261826, -0.17439481616020203, -0.06327084451913834, 0.12451814860105515, 0.13745906949043274, -0.22350044548511505, -0.1003611758351326, -0.09948468953371048, 0.07219909131526947, -0.025838948786258698, -0.12559150159358978, 0.16148436069488525, 0.003943131770938635, -0.00846979022026062, -0.007744078990072012, -0.06327103078365326, -0.08321728557348251, 0.03883581608533859, 0.2907925546169281, -0.3231402039527893, -0.21360522508621216, -0.28143832087516785, 0.29376834630966187, 0.2254546582698822, -0.1083737313747406, -0.0798482894897461, 0.17354264855384827, 0.07212194055318832, -0.04769822582602501, 0.08592952787876129, 0.007765204645693302, -0.020835116505622864, -0.07849543541669846, -0.007554077077656984, 0.3863673210144043, -0.12984904646873474, -0.02690010331571102, -0.23954033851623535, 0.025961168110370636, 0.2563011944293976, 0.23668166995048523, -0.03830404952168465, -0.10870549827814102, -0.1989213228225708, 0.029542256146669388, -0.010078544728457928, 0.2074265033006668, -0.05882679298520088, -0.25658702850341797, -0.06954947113990784, 0.024127105250954628, 0.2880094647407532, -0.12287990003824234, 0.1375473439693451, -0.17459818720817566, -0.17405550181865692, 0.1999872326850891, -0.07592630386352539, -0.034311749041080475, 0.016834978014230728, -0.11222401261329651, -0.17414343357086182, -0.03577997907996178, 0.06786632537841797, 0.139194056391716, 0.08875555545091629, -0.23534156382083893, -0.01589960604906082, -0.12118204683065414, 0.09836070239543915, 0.14847013354301453, -0.17099681496620178, -0.09352236986160278, 0.05639747902750969, -0.2567460834980011, -0.20895709097385406, 0.20022818446159363, 0.040165066719055176, 0.15873491764068604, 0.0058557442389428616, -0.0026256961282342672, 0.2753787338733673, -0.20660661160945892, 0.272294282913208, -0.12773928046226501, -0.13655690848827362, -0.0470723882317543, -0.08330798149108887, -0.11814617365598679, 0.1139233261346817, -0.15754064917564392, 0.09901818633079529, -0.05341847240924835, 0.0544111505150795, 0.031020546332001686, 0.017427807673811913, 0.08775388449430466, 0.22554343938827515, -0.010403689928352833, 0.1288696676492691, -0.15345793962478638, 0.13775216042995453, 0.16902677714824677, -0.15024082362651825, 0.009234122931957245, -0.07842521369457245, -0.02374357543885708, -0.23980383574962616, 0.01920049823820591, -0.02389601804316044, -0.0632593110203743, 0.13778871297836304, 0.14427344501018524, 0.08336993306875229, -0.12201152741909027, -0.05556603521108627, 0.02274538204073906, 0.04609903693199158, 0.19346533715724945, 0.16111822426319122, 0.12184217572212219, -0.1443585306406021, -0.2882329225540161, -0.031595561653375626, 0.09082446992397308, -0.1701936274766922, -0.07856960594654083, -0.2029094696044922, 0.2544706165790558, -0.21404658257961273, -0.22178317606449127, 0.3473275303840637, -0.09256387501955032, -0.04190990701317787, 0.0979069396853447, 0.06870722770690918, 0.12275142967700958, 0.029638860374689102, 0.1520465463399887, -0.007856614887714386, -0.04902419447898865, -0.011735845357179642, -0.1672200858592987, 0.21920780837535858, 0.08497225493192673, 0.06338503211736679, -0.0615178681910038, -0.10262014716863632, -0.05993974953889847, -0.262593150138855, -0.08213093876838684, -0.2098608911037445, -0.044263582676649094, 0.1319422721862793, 0.0866544246673584, -0.14252685010433197, 0.025200743228197098, 0.0017542039277032018, -0.25056758522987366, -0.059605374932289124, 0.004856398794800043, -0.029110005125403404, -0.20859158039093018, 0.11646776646375656, -0.46797871589660645, -0.15275819599628448, -0.324157178401947, 0.21569077670574188, 0.011703644879162312, 0.21619483828544617, -0.14584235846996307, 0.06429845839738846, 0.18337132036685944, -0.09308590739965439, 0.09686639904975891, 0.3381199538707733, 0.009378540329635143, 0.08648403733968735, -0.15818488597869873, 0.1537831425666809, 0.037127524614334106, 0.3467114269733429, -0.025703877210617065, -0.038047969341278076, -0.11301849782466888, -0.031214455142617226, 0.05670017749071121, -0.1440543681383133, -0.07584691792726517, -0.048784416168928146, -0.10686147958040237, 0.21830642223358154, -0.0018327782163396478, 0.10010720789432526, 0.04564535990357399, 0.1747732311487198, 0.2844281792640686, -0.3311702609062195, 0.037617094814777374, 0.12535424530506134, -0.053294721990823746, -0.0765605941414833, -0.06808418780565262, -0.08228621631860733, -0.10403142124414444, 0.024682361632585526, -0.2053307145833969, 0.2227696180343628, -0.026457572355866432, 0.18726837635040283, -0.0565040148794651, 0.06018489599227905, -0.09360019862651825, 0.016424935311079025, 0.2904602587223053, 0.023087341338396072, 0.0964297503232956, -0.009104168973863125, 0.07874897867441177, -0.09900891780853271, 0.01585254818201065, -0.03855480998754501, -0.0033626360818743706, 0.08328772336244583, -0.06824283301830292, 0.1435008943080902, -0.03639250248670578, -0.10944610834121704, 0.021828506141901016, -0.06374895572662354, -0.3499230742454529, -0.019063839688897133, -0.2858182489871979, -0.03934210538864136, -0.08617392182350159, 0.03512059897184372, -0.11455484479665756, -0.15161007642745972, -0.02807309292256832, 0.21518848836421967, 0.08764688670635223, 0.29229506850242615, -0.11717545986175537, -0.12955114245414734, -0.3197888433933258, 0.07071026414632797, 0.09719382226467133, 0.05774001404643059, -0.03072798065841198, 0.10361619293689728, 0.29269739985466003, -0.14325620234012604, 0.04728548228740692, -0.07954707741737366, -0.009071185253560543, -0.043390341103076935, 0.03856645151972771, 0.21274183690547943, 0.2573457956314087, -0.07238125056028366, -0.05678845942020416, 0.2070523202419281, -0.062004540115594864, 0.24828095734119415, 0.08478335291147232, -0.05524592474102974, -0.20285363495349884, -0.015628021210432053, 0.039445970207452774, 0.04089067131280899, 0.044542346149683, 0.05221213772892952, -0.02044498361647129, -0.1431351751089096, -0.6659508943557739, 0.10079757869243622, 0.188478022813797, -0.35585078597068787, 0.06228156387805939, -0.6069387197494507, -0.32415515184402466, -0.5384331941604614, 1.1027504205703735, -0.8220620155334473, -0.6427666544914246, -1.123038411140442, 0.32687050104141235, -0.6518654823303223, 0.32418832182884216, -0.690757691860199, 0.05010171979665756, -0.2669753134250641, 0.31076884269714355, 0.5028278827667236, 0.4379257261753082, -0.16044881939888, -0.14175419509410858, -0.049036189913749695, -0.21516264975070953, -0.15152381360530853, 0.13425463438034058, -0.007958845235407352, 0.05999235808849335, 0.17141245305538177, -0.04143531620502472, -0.027607666328549385, -0.13394448161125183, -0.158901184797287, -0.0935053750872612, 0.06527397036552429, -0.21792574226856232, 0.3875294327735901, -0.19565975666046143, -0.4875565767288208, 0.31184765696525574, -0.16781148314476013, -0.11268186569213867, 0.14945074915885925, 0.20622947812080383, 0.23587730526924133, -0.17532578110694885, 0.29385843873023987, -0.057379111647605896, -0.06829013675451279, 0.12393160164356232, 0.09871724992990494, 0.1332954317331314, 0.07156874984502792, -0.04116098955273628, -0.10171249508857727, -0.07362861931324005, 0.16645342111587524, -0.19682878255844116, -0.16821537911891937, 0.02413482777774334, 0.22543112933635712, 0.10361576080322266, 0.10202206671237946, 0.42405426502227783, 0.2870683968067169, -0.19615690410137177, -0.4082387387752533, -0.1387908160686493, -0.07991015166044235, -0.18645910918712616, 0.09165026992559433, -0.12665466964244843, 0.03399868682026863, 0.23887978494167328, 0.3445376753807068, 0.05974475294351578, -0.08734600245952606, 0.2003723829984665, -0.05944226682186127, 0.37057948112487793, 0.029971010982990265, -0.16095711290836334, -0.24118323624134064, 0.19490115344524384, -0.1373520940542221, -0.032028838992118835, 0.22357694804668427, 0.1737108826637268, 0.05810026824474335, -0.1768176257610321, 0.24816645681858063, -0.14725624024868011, -0.14784634113311768, -0.06449342519044876, -0.12920819222927094, -0.4107804298400879, -0.19955424964427948, -0.11285103112459183, 0.052908286452293396, 0.2040850669145584, -0.16276073455810547, -0.06494531780481339, -0.1183159202337265, 0.23178672790527344, 0.3267122507095337, -0.24045330286026, -0.2561335563659668, 0.10305343568325043, -0.16025087237358093, -0.1261194795370102, 0.141605943441391, 0.23755572736263275, 0.05097271502017975, 0.12583841383457184, -0.3692176342010498, 0.10807675868272781, 0.16485783457756042, -0.21314743161201477, -0.13702939450740814, 0.1271675080060959, 0.023374348878860474, -0.19819872081279755, 0.25341156125068665, 0.3182290196418762, -0.021923651918768883, -0.13791881501674652, 0.17701223492622375, 0.15841691195964813, -0.10728322714567184, 0.18964578211307526, 0.21627120673656464, -0.04631661996245384, -0.28111863136291504, 0.26086801290512085, 0.21109209954738617, -0.11761318892240524, 0.4120643734931946, -0.01006111316382885, 0.05739250406622887, -0.3593088686466217, -0.11432239413261414, 0.14751899242401123, -0.10388468950986862, -0.21304656565189362, 0.2509620189666748, -0.19813954830169678, -0.26650470495224, -0.2521050274372101, -0.18313273787498474, 0.0626969113945961, -0.21942907571792603, 0.11171276122331619, 0.032029855996370316, 0.055377740412950516, -0.030799640342593193, 0.14978843927383423, 0.02690793201327324, -0.10449426621198654, 0.26648804545402527, -0.23745958507061005, 0.049276452511548996, 0.03938348963856697, 0.058512065559625626, 0.39596644043922424, -0.4917713403701782, -0.021853309124708176, 0.20942285656929016, 0.15244531631469727, -0.023281561210751534, 0.14688973128795624, 0.2501901090145111, 0.22202593088150024, 0.19810299575328827, 0.06984159350395203, -0.16696180403232574, -0.04685109108686447, 0.03695237264037132, -0.3039611577987671, -0.03712760657072067, 0.10656166076660156, -0.11419065296649933, -0.2099536657333374, 0.031519897282123566, 0.17972305417060852, 0.04184739664196968, -0.05002658814191818, 0.1903994232416153, 0.02713196910917759, -0.06858211010694504, 0.09301265329122543, 0.07283804565668106, 0.25039681792259216, 0.22046580910682678, -0.3952224850654602, -0.1030568778514862, -0.14082157611846924, -0.18776190280914307, 0.0817994624376297, 0.26661863923072815, -0.35992273688316345, 0.2922777235507965, 0.2797497808933258, -0.24219956994056702, -0.07154610008001328, 0.11617915332317352, 0.15559370815753937, -0.09686782211065292, -0.13975226879119873, -0.14178447425365448, -0.18188826739788055, 0.10372646152973175, -0.09323827177286148, 0.10122457146644592, -0.21311664581298828, 0.07938852161169052, -0.07375738769769669, -0.08763136714696884, -0.10747835785150528, -0.1041078269481659, 0.23820608854293823, -0.17594943940639496, 0.11503458768129349, -0.05374942719936371, 0.040514856576919556, 0.06801563501358032, -0.06742595136165619, 0.26461061835289, -0.28164124488830566, 0.1497448980808258, 0.026760924607515335, -0.12676778435707092, 0.23759020864963531, 0.2182275801897049, 0.17595945298671722, 0.03633397817611694, 0.15221713483333588, -0.053723983466625214, 0.40946146845817566, -0.13399678468704224, 0.012331431731581688, 0.28083840012550354, -0.05509865656495094, -0.11501774936914444, -0.21826261281967163, -0.104121632874012, 0.09873927384614944, -0.15981215238571167, -0.07143804430961609, 0.016896644607186317, -0.10213741660118103, 0.054713696241378784, -0.1521586924791336, 0.14571447670459747, 0.004318478982895613, 0.28438621759414673, 0.1793166995048523, -0.28252220153808594, -0.390779972076416, 0.04571634903550148, -0.2247253656387329, 0.3308912217617035, -0.25650298595428467, -0.05984201282262802, 0.2085207849740982, -0.044236838817596436, -0.14006690680980682, 0.08162715286016464, 0.2252322882413864, 0.5069409012794495, -0.3643857538700104, -0.22280576825141907, -0.18152473866939545, -0.1498720496892929, -0.036801233887672424, 0.16447776556015015, -0.12716975808143616, -0.03610317036509514, 0.20769581198692322, 0.35977211594581604, 0.14735949039459229, 0.11131299287080765, 0.058999285101890564, 0.12114500254392624, -0.015962423756718636, -0.37528321146965027, -0.1262146234512329, -0.16924436390399933, 0.013077598996460438, -0.07047514617443085, -0.20013509690761566, 0.04746582731604576, -0.3658747971057892, -0.10992731153964996, 0.11271676421165466, -0.12691988050937653, 0.023609139025211334, -0.0011555288219824433, -0.07119820266962051, -0.13289740681648254, 0.16734622418880463, 0.23282566666603088, -0.019839422777295113, 0.17674493789672852, 0.18321141600608826, -0.08106110990047455, -0.10068456828594208, -0.18807707726955414, -0.16293427348136902, -0.03918931260704994, 0.169862300157547, -0.1356685310602188, 0.12046582996845245, -0.0867730975151062, 0.3594341278076172, 0.12468668818473816, 0.39425522089004517, 0.07032085955142975, -0.09586276859045029, -0.107016421854496, -0.10622306913137436, -0.1486271768808365, 0.11636023968458176, 0.011110840365290642, -0.07152575999498367, -0.2583863139152527, -0.09824021905660629, -0.09363957494497299, -0.07855197787284851, -0.09517443180084229, 0.21969036757946014, -0.025557516142725945, 0.03977053984999657, 0.16574957966804504, -0.26228606700897217, 0.1009959802031517, -0.2604582905769348, 0.28197380900382996, -0.16904568672180176, -0.11514025181531906, 0.2416539341211319, -0.115714430809021, 0.03208128362894058, 0.14565405249595642, -0.10303331166505814, 0.17088860273361206, -0.0770009383559227, 0.0420454703271389, 0.35044434666633606, 0.07142569124698639, 0.18838107585906982, 0.2866227626800537, 0.15088105201721191, 0.10433153808116913, -0.42496171593666077, -0.05484211444854736, -0.20529894530773163, -0.33436083793640137, -0.29526588320732117, -0.063282810151577, 0.34095603227615356, -0.08802682906389236, -0.14256010949611664, 0.14029555022716522, 0.16464050114154816, 0.24829509854316711, 0.39395442605018616, 0.07686789333820343, -0.07409773766994476, -0.06677205860614777, -0.27842965722084045, -0.08875355869531631, -0.06856777518987656, 0.04766061156988144, -0.24042466282844543, 0.15625432133674622, -0.1234230250120163, -0.05615083500742912, 0.45547807216644287, 0.43491092324256897, 0.21540172398090363, -0.7770982384681702, -0.28817641735076904, -0.1965438425540924, -0.12745869159698486, -0.008913823403418064, 0.030941065400838852, 0.04898809269070625, -0.2797212600708008, -0.18528388440608978, 0.1409256011247635, -0.06912222504615784, 0.17808949947357178, -0.15530353784561157, 0.06407396495342255, 0.04013296961784363, -0.03920989856123924, -0.0026102839037775993, 0.09168978035449982, -0.017390336841344833, 0.0054930723272264, -0.12641458213329315, 0.22421498596668243, 0.07722002267837524, 0.12952865660190582, -0.006560929119586945, 0.2454587072134018, 0.03400261327624321, 0.07902031391859055, -0.2957773804664612, -0.13117240369319916, -0.01224424596875906, 0.17648236453533173, -0.17924146354198456, -0.25055667757987976, -0.03245526924729347, -0.018357492983341217, 0.06010453775525093, 0.23811794817447662, 0.0394539013504982, 0.031494807451963425, -0.1039750948548317, 0.09176412224769592, -0.13519848883152008, -0.13340115547180176, 0.04123597964644432, -0.014173983596265316, -0.32201358675956726, -0.06373746693134308, -0.015591496601700783, -0.30485665798187256, 0.13669413328170776, -0.2574537694454193, 0.3015049695968628, 0.09475578367710114, -0.1764080673456192, -0.05522828921675682, 0.04562021419405937, -0.019751382991671562, 0.14969395101070404, 0.008745661936700344, 0.1127878800034523, 0.1405208706855774, -0.12403610348701477, 0.038456402719020844, 0.04698844254016876, -0.20216171443462372, -0.024727368727326393, -0.47344696521759033, -0.1156294196844101, 0.2010861039161682, 0.2213926762342453, 0.08063654601573944, 0.153811976313591, -0.03842343017458916, 0.027630940079689026, -0.09960062056779861, -0.5039793252944946, -0.3131624460220337, 0.007663212716579437, -0.33053722977638245, -0.4285472631454468, -0.14371812343597412, 0.18027348816394806, 0.20173320174217224, 0.10775090008974075, 0.0929219052195549, -0.09375020861625671, -0.0033057047985494137, 0.15338867902755737, 0.1602652221918106, 0.09728987514972687, 0.12698116898536682, 0.34790655970573425, -0.36488935351371765, -0.2162296324968338, 0.24769119918346405, 0.06758188456296921, 0.04472929611802101, 0.07659577578306198, 0.19056425988674164, -0.2348736971616745, -0.3065609335899353, 0.039424777030944824, 0.2974250614643097, 0.014656178653240204, 0.1672491431236267, 0.1845759153366089, -0.18048454821109772, 0.01020351517945528, 0.014391410164535046, 0.026728523895144463, -0.10755755752325058, -0.13190023601055145, 0.012697998434305191, -0.12373518943786621, 0.08669739216566086, -0.09656704217195511, -0.04163064435124397, -0.047790784388780594, 0.09516960382461548, -0.17382757365703583, -0.12622179090976715, 0.22566136717796326, 0.009527592919766903, -0.11593667417764664, -0.1357448548078537, -0.1398468166589737, -0.025698121637105942, 0.09795672446489334, 0.10058140754699707, -0.11048416048288345, -0.11959808319807053, -0.0730607807636261, -0.06630857288837433, 0.07399535924196243, 0.08425299823284149, 0.14216651022434235, -0.1476421356201172, 0.06958628445863724, -0.1275666356086731, 0.04772435128688812, 0.07117234170436859, -0.15419401228427887, -0.025646599009633064, 0.07499052584171295, -0.04542791470885277, -0.03392942622303963, -0.14232508838176727, -0.483674019575119, -0.31322047114372253, 0.42267337441444397, -0.15803128480911255, 0.012510879896581173, 0.1566365659236908, -0.1968601495027542, -0.11044420301914215, -0.5584418177604675, -0.12395147234201431, 0.08979345113039017, -0.4153108596801758, -0.08720557391643524, 0.08527485281229019, 0.5534864068031311, 0.035711728036403656, 0.08910459280014038, -0.47327232360839844, -0.05512022227048874, -0.017622245475649834, -0.19112823903560638, 0.07435992360115051, 0.1287451535463333, 0.4187934994697571, -0.01622423715889454, -0.1781841516494751, -0.17044322192668915, 0.31338080763816833, 0.159713014960289, 0.16302646696567535, -0.12845459580421448, -0.07507941871881485, -0.39039936661720276, 0.21951253712177277, 0.10654130578041077, 0.303291380405426, -0.22601935267448425, -0.10830739140510559, 0.23759140074253082, -0.12042143195867538, 0.0054586357437074184, 0.010919855907559395, -0.3155476152896881, -0.245030015707016, 0.3055557310581207, 0.38250765204429626, 0.0871143639087677, -0.0006265310803428292, -0.03381067514419556, 0.14387424290180206, 0.06437937915325165, -0.226227268576622, -0.05896908789873123, 0.14545844495296478, -0.09424670040607452, 0.08034756779670715, -0.09545216709375381, 0.12621471285820007, -0.011272957548499107, -0.0647764652967453, 0.06507377326488495, -0.026723895221948624, -0.11371873319149017, 0.07039013504981995, -0.16563566029071808, -0.0788596048951149, 0.0322432778775692, -0.08860831707715988, 0.1929512470960617, 0.13852696120738983, -0.1336495280265808, 0.0023098033852875233, -0.14468498528003693, 0.21246807277202606, -0.09580311924219131, 0.24886128306388855, -0.20255626738071442, -0.13283607363700867, 0.17597760260105133, 0.08573836833238602, -0.10420366376638412, -0.02199503779411316, -0.10563210397958755, -0.07567864656448364, -0.06343551725149155, 0.20045369863510132, 0.05947765335440636, -0.17234399914741516, 0.11965406686067581, -0.1659577190876007, -0.1415090411901474, 0.20593120157718658, 0.15938261151313782, -0.21211323142051697, -0.030517198145389557, 0.06589630991220474, 0.8006736636161804, -0.1249016672372818, 0.22782285511493683, -0.21439047157764435, -0.0010705512249842286, 0.12363778054714203, -0.04040961712598801, -0.014065411873161793, -0.3972313702106476, -0.1354740709066391, 0.13294315338134766, -0.37779784202575684, 0.06760111451148987, 0.04088599979877472, 0.24289146065711975, 0.38983336091041565, -0.06692982465028763, -0.2985892593860626, -0.35749825835227966, 0.02280474081635475, -0.20071129500865936, 0.35248062014579773, -0.04573874920606613, -0.0057951644994318485, -0.26168787479400635, -0.1385551393032074, -0.24120187759399414, 0.4765893816947937, -0.07900795340538025, 0.19059358537197113, -0.3407999277114868, -0.023039788007736206, -0.20032811164855957, 0.08323899656534195, -0.020793180912733078, 0.15844450891017914, -0.17662262916564941, 0.10526798665523529, 0.06943193823099136, -0.3058217167854309, 0.012949411757290363, 0.0769793838262558, -0.4646068215370178, -0.132747083902359, 0.17215628921985626, -0.4699016213417053, 0.023454388603568077, -0.11373613774776459, 0.2598440945148468, -0.2845352292060852, 0.3603517413139343, -0.319378137588501, -0.014494930393993855, 0.28821250796318054, 0.017034154385328293, -0.09917020052671432, -0.3496103882789612, 0.28307175636291504, 0.13231202960014343, -0.3434004783630371, 0.26330551505088806, 0.09729379415512085, 0.5086201429367065, -0.2389070838689804, -0.05586658790707588, -0.10257001221179962, -0.10159683972597122, -0.02212234027683735, -0.18771430850028992, -0.036884769797325134, 0.003982730209827423, 0.5375881791114807, -0.4637361764907837, 0.09450843185186386, -0.1798781156539917, 0.17634475231170654, 0.14705684781074524, 0.3294903635978699, -0.018441088497638702, -0.1535627841949463, -0.32883420586586, 0.29718202352523804, 0.014217482879757881, 0.0563928484916687, 0.023057755082845688, -0.11319879442453384, 0.30935609340667725, -0.1870191991329193, 0.033285390585660934, 0.35055652260780334, 0.019691428169608116, -0.030932337045669556, 0.32502731680870056, -0.318085253238678, 0.16802987456321716, -0.3965327739715576, -0.11446958035230637, -0.24066919088363647, -0.017715314403176308, 0.2980344593524933, -0.03407909721136093, -0.058501072227954865, 0.1305893063545227, -0.023833192884922028, 0.06600964814424515, -0.018409568816423416, -0.0047266134060919285, -0.0060792057774960995, -0.19146648049354553, -0.023725254461169243, -0.1139029785990715, -0.08842204511165619, -0.11422859132289886, 0.03733113035559654, 0.14066371321678162, -0.03971158340573311, 0.06298501789569855, -0.19036421179771423, 0.06775549799203873, 0.3258970081806183, 0.12426793575286865, 0.14580488204956055, 0.16479475796222687, -0.31070244312286377, 0.04691039025783539, 0.14807280898094177, 0.14468598365783691, -0.05849404260516167, 0.0045601967722177505, 0.10373572260141373, 0.013256238773465157, 0.015770655125379562, 0.171467587351799, -0.07282333076000214, -0.15654797852039337, 0.006305392365902662, -0.09414248913526535, -0.1026255190372467, 0.23546770215034485, -0.23713339865207672, 0.02838476374745369, 0.2192954272031784, -0.3852630853652954, -0.3254294693470001, -0.13812975585460663, 0.41917097568511963, -0.08234784752130508, -0.09219785779714584, 0.19793154299259186, -0.09351050108671188, 0.013691602274775505, 0.24645118415355682, 0.025434570387005806, 0.18110260367393494, -0.07571946084499359, 0.1620267778635025, -0.11408151686191559, -0.05243958532810211, 0.130903959274292, -0.0674791932106018, 0.017314070835709572, 0.15524922311306, 0.2040397971868515, -0.27037447690963745, 0.29484012722969055, 0.20601387321949005, -0.029174480587244034, 0.0937279760837555, -0.009848950430750847, -0.40702858567237854, 0.0956810936331749, 0.032583173364400864, -0.05097069591283798, -0.20597176253795624, -0.08600332587957382, 0.17795921862125397, 0.13426634669303894, 0.042391449213027954, -0.09732511639595032, -0.02806277573108673, -0.02763555571436882, 0.17920620739459991, -0.02155768871307373, -0.15909840166568756, 0.08233645558357239, -0.4774415194988251, 0.0339147187769413, -0.18240056931972504, 0.06790679693222046, -0.012180406600236893, 0.059295203536748886, -0.07030287384986877, -0.6832242012023926, 0.28935444355010986, -0.03472156077623367, 0.028165798634290695, 0.030896661803126335, 0.06918036937713623, 0.04541388899087906, 0.12002824991941452, -0.12261517345905304, 0.10241332650184631, 0.13425222039222717, -0.028962235897779465, -0.19061435759067535, 0.007428168784826994, -0.046321503818035126, -0.09361357241868973, -0.05584511160850525, -0.03698165342211723, 0.3276236951351166, 0.09835542738437653, 0.15294262766838074, -0.06546782702207565, -0.08540980517864227, 0.3726007342338562, 0.4523809254169464, -0.22813589870929718, -0.06564228981733322, -0.08517862111330032, -0.10749340057373047, -0.06452585011720657, -0.019019795581698418, -0.03647909313440323, 0.1314324140548706, -0.1489611268043518, 0.036909040063619614, 0.008856359869241714, 0.02724566124379635, 0.01767042651772499, -0.15671895444393158, -0.044325362890958786, 0.1575329303741455, 0.006886489223688841, -0.05503036081790924, 0.1235673651099205, -0.20888052880764008, 0.06107335910201073, -0.045072585344314575, 0.452689528465271, -0.18389475345611572, 0.15859942138195038, 0.09304248541593552, 0.16112126410007477, -0.13443905115127563, 0.1064172238111496, -0.27069342136383057, -0.022598320618271828, -0.02769768238067627, -0.022156810387969017, 0.06004072725772858, 0.06560802459716797, 0.14581337571144104, 0.25756704807281494, -0.0022159365471452475, -0.03834903985261917, 0.08320710808038712, -0.09371138364076614, 0.10897994041442871, -0.16533103585243225, -0.06737188249826431, -0.11031238734722137, -0.08238565921783447, 0.16066598892211914, -0.1788514405488968, -0.23010468482971191, -0.05820726230740547, -0.0032271065283566713, -0.060052745044231415, 0.158023864030838, 0.06729081273078918, 0.08536255359649658, 0.035740260034799576, -0.10057347267866135, 0.16868078708648682, -0.035803455859422684, -0.12861628830432892, -0.08421177417039871, -0.09351346641778946, 0.10677079856395721, 0.13667482137680054, 0.2966654300689697, 0.21781274676322937, -0.05847501754760742, 0.3369399905204773, -0.012699218466877937, -0.0038190586492419243, 0.11741451919078827, 0.36706820130348206, -0.23172977566719055, 0.1109868660569191, -0.2600453495979309, -0.08740285784006119, 0.2827851176261902, 0.03723936527967453, -0.10527799278497696, -0.31976187229156494, -0.016624655574560165, 0.10822597146034241, -0.1862017661333084, 0.14828573167324066, 0.07387083768844604, 0.07912087440490723, -0.21999245882034302, -0.005193077493458986, 0.0711635947227478, -0.14700418710708618, 0.02627648040652275, -0.05380134657025337, 0.13266532123088837, 0.012586375698447227, 0.13219484686851501, -0.3178047835826874, -0.06599269807338715, -0.11003722250461578, -0.08001790195703506, 0.14018379151821136, 0.21774537861347198, 0.005453661549836397, -0.12503603100776672, -0.2291036993265152, 0.21679864823818207, -0.011072107590734959, 0.07279300689697266, 0.04716263711452484, -0.060958847403526306, 0.20331554114818573, 0.09290556609630585, -0.10611177235841751, 0.05631910637021065, -0.04404411092400551, -0.06937646120786667, -0.022923273965716362, -0.24825190007686615, 0.044364798814058304, -0.05385090038180351, 0.3200909495353699, 0.24952229857444763, 0.14125657081604004, -0.2087247669696808, 0.021092182025313377, 0.061147160828113556, -0.06864998489618301, 0.17427557706832886, -0.2385820597410202, -0.16455776989459991, -0.0785737857222557, -0.07406739890575409, 0.007887213490903378, -0.13043759763240814, 0.12269816547632217, 0.05657174810767174, -0.18108104169368744, 0.02490241266787052, -0.1588124781847, -0.13731393218040466, -0.043081410229206085, 0.11485224962234497, -0.036927055567502975, 0.1353033483028412, -0.5187088847160339, -0.09400154650211334, 0.08908100426197052, 0.1754654496908188, 0.04153049364686012, -0.1570071130990982, -0.11083158105611801, 0.010368550196290016, -0.2150431126356125, 0.16151617467403412, -0.16657549142837524, -0.11297447979450226, -0.19005747139453888, -0.07746541500091553, -0.04353092238306999, -0.17663846909999847, 0.05547419562935829, -0.015013511292636395, -0.3004102408885956, 0.12383446842432022, 0.44104647636413574, 0.12944063544273376, 0.1854647547006607, 0.28855231404304504, 0.26176801323890686, 0.3730543553829193, 0.0479407012462616, 0.3306354582309723, 0.03445475175976753, -0.09511133283376694, 0.15787740051746368, -0.07705222815275192, -0.062393173575401306, -0.059164296835660934, 0.19842959940433502, 0.05051475763320923, 0.05157027393579483, 0.14277970790863037, 0.024697715416550636, 0.07495357096195221, 0.017731767147779465, -0.07755148410797119, -0.07265200465917587, -0.09769998490810394, -0.03957660123705864, -0.1371440589427948, 0.2528252601623535, -0.24453550577163696, 0.022250283509492874, -0.14287306368350983, -0.19042880833148956, -0.12767358124256134, 0.09396020323038101, 0.06365995854139328, -0.0722685381770134, -0.15900662541389465, -0.11758585274219513, -0.11342059075832367, 0.3305811882019043, -0.08373019099235535, 0.26573896408081055, -0.30295583605766296, 0.07210124284029007, 0.19565312564373016, -0.1862604171037674, 0.1868547946214676, 0.0713919922709465, -0.12412428855895996, -0.00521326158195734, 0.03278696537017822, -0.15060074627399445, -0.06580331921577454, -0.2975984215736389, 0.08536972850561142, 0.08731313049793243, 0.1629408448934555, -0.0756591334939003, -0.0011633741669356823, -0.17907677590847015, 0.03503737598657608, 0.2580915093421936, 0.16697153449058533, 0.1577528566122055, -0.2274044156074524, 0.1145496517419815, -0.07664839923381805, -0.06427396088838577, -0.2546863853931427, -0.5868439674377441, 0.7314770817756653, 0.12568344175815582, -0.17091448605060577, 0.33419549465179443, -0.432197630405426, -0.055125556886196136, 0.586572527885437, -0.7269165515899658, 0.7585569024085999, 0.5384864211082458, 0.06881319731473923, -0.22199676930904388, 0.13987477123737335, -0.48372721672058105, 0.18988162279129028, -0.19635018706321716, 0.10083264857530594, -0.26819536089897156, -0.03211842104792595, 0.4631783068180084, 0.006889356300234795, 0.12376019358634949, -0.12385505437850952, 0.08436698466539383, 0.22072891891002655, 0.0950995534658432, -0.2618860900402069, 0.002233039354905486, -0.006669172551482916, -0.1931958645582199, 0.20926068723201752, -0.1138794794678688, 0.09784428775310516, 0.20484484732151031, 0.11747168004512787, 0.14268648624420166, -0.10223913937807083, 0.15055391192436218, 0.08256654441356659, 0.04748198017477989, 0.0922861397266388, -0.10360147058963776, 0.055905651301145554, 0.0728125348687172, 0.16210366785526276, 0.04227621108293533, -0.022423790767788887, 0.12201504409313202, -0.1755693107843399, -0.10895485430955887, 0.19033122062683105, -0.36836108565330505, -0.12041784077882767, -0.530422031879425, -0.21864759922027588, 0.16565178334712982, -0.256248414516449, 0.1698986291885376, 0.34428107738494873, -0.2652696669101715, -0.24599985778331757, 0.00300356512889266, 0.4978029131889343, -0.19411912560462952, 0.37315523624420166, -0.014527822844684124, -0.41958823800086975, 0.12622570991516113, -0.2334301620721817, -0.06261705607175827, 0.32644200325012207, -0.22759179770946503, 0.2500999867916107, 0.2115289568901062, -0.015107471495866776, 0.09221149235963821, 0.23638251423835754, -0.5096359252929688, 0.11552097648382187, -0.3522205352783203, 0.3728426694869995, -0.05547152832150459, 0.003155648708343506, -0.047226086258888245, 0.17899933457374573, 0.06749241054058075, 0.1435757577419281, -0.12618541717529297, 0.0606459304690361, 0.2723761200904846, -0.31024038791656494, -0.17601102590560913, 0.2380911409854889, -0.2379254251718521, 0.2967853844165802, -0.179881751537323, -0.08790095895528793, -0.06454627215862274, -0.3043989837169647, -0.35561084747314453, 0.7794529795646667, 0.10486767441034317, -0.3309575319290161, -0.3743237853050232, 0.00689611304551363, -0.000657847966067493, -0.1471826732158661, -0.16482332348823547, 0.36767226457595825, 0.06398332864046097, 0.06845265626907349, 0.23575645685195923, -0.16096870601177216, 0.008616202510893345, 0.16275851428508759, -0.24640484154224396, -0.05907424911856651, -0.5062423944473267, -0.510827898979187, 0.11260288208723068, 0.18862248957157135, -0.19403380155563354, 0.14795899391174316, -0.1524346023797989, -0.06535303592681885, 0.034515224397182465, 0.16120517253875732, 0.15633152425289154, -0.31495383381843567, -0.3817847669124603, 0.012216386385262012, -0.03894275426864624, -0.23043210804462433, -0.035376597195863724, 0.16650524735450745, 0.22499200701713562, 0.02855311706662178, 0.21538522839546204, -0.14268845319747925, 0.04038011282682419, -0.07422758638858795, -0.31373360753059387, -0.23905502259731293, 0.23252642154693604, -0.19171777367591858, 0.45918625593185425, 0.11458975821733475, -0.10435649752616882, -0.19180051982402802, -0.3149125277996063, -0.367341548204422, 0.09072428941726685, -0.11320041120052338, 0.08796826004981995, -0.14871831238269806, -0.1488082855939865, -0.18504539132118225, 0.023263681679964066, 0.07653293758630753, -0.0443451814353466, -0.28030773997306824, -0.00047138528316281736, 0.398450642824173, 0.1442643105983734, -0.41182368993759155, -0.28097033500671387, -0.2202550768852234, 0.17822597920894623, -0.023379510268568993, -0.24618251621723175, 0.038418810814619064, 0.03812103718519211, 0.21639898419380188, -0.0410003624856472, 0.35619497299194336, -0.2678247392177582, -0.012291086837649345, -0.22095231711864471, 0.09356672316789627, -0.08082675188779831, 0.17907023429870605, 0.06735790520906448, 0.2865571975708008, -0.1092873215675354, -0.23700736463069916, -0.07506609708070755, -0.08982379734516144, -0.1605243682861328, 0.15795260667800903, 0.23874801397323608, 0.2540420889854431, 0.24551190435886383, -0.15122535824775696, -0.18454162776470184, -0.31362542510032654, 0.2223908007144928, 0.1687895953655243, -0.12787006795406342, -0.2876611053943634, -0.22099512815475464, -0.09769320487976074, 0.1061621904373169, -0.17162930965423584, -0.34071794152259827, 0.034196555614471436, -0.15151800215244293, -0.18503838777542114, -0.13105730712413788, -0.14422591030597687, 0.061413221061229706, 0.19773879647254944, 0.04698210209608078, -0.34655293822288513, -0.11974576860666275, 0.43226513266563416, -0.02706490084528923, -0.17093710601329803, -0.031552497297525406, 0.04424659162759781, 0.24014638364315033, -0.00315362261608243, -0.06520303338766098, -0.2647448182106018, 0.08262728899717331, -0.23064792156219482, 0.2573247253894806, 0.12083245068788528, -0.18074673414230347, 0.24246591329574585, -0.14093400537967682, 0.2641618549823761, 0.07257822155952454, -0.07354024052619934, -0.3226170837879181, 0.26643943786621094, 0.3785621225833893, -0.22720859944820404, 0.27008911967277527, 0.057052768766880035, 0.6049691438674927, -0.07929301261901855, -0.004255596082657576, -0.2368617206811905, -0.12234225124120712, -0.15079514682292938, -0.3101903200149536, 0.4060156047344208, 0.319051057100296, 0.25037336349487305, 0.21564768254756927, -0.016013655811548233, 0.028365297242999077, 0.09500063210725784, -0.27298134565353394, -0.1365002691745758, 0.1965913027524948, -0.20510618388652802, -0.2351072132587433, -0.13634832203388214, -0.22626890242099762, -0.32564055919647217, -0.6433842778205872, -0.35751432180404663, 0.25370657444000244, 0.16673457622528076, 0.22450536489486694, -0.02301696315407753, -0.12294205278158188, -0.156049445271492, 0.014286831952631474, 0.09922812879085541, -0.06772715598344803, 0.15123489499092102, 0.3880661129951477, -0.08871744573116302, 0.2576715052127838, 0.18517997860908508, 0.22983458638191223, -0.2499028742313385, 0.1267433762550354, 0.19226761162281036, 0.31462571024894714, 0.12337173521518707, -0.11451694369316101, 0.1831817924976349, -0.06918399035930634, -0.08223303407430649, 0.09543891251087189, 0.25934934616088867, 0.006453896872699261, 0.04194410517811775, 0.07630358636379242, 0.263542115688324, -0.2570857107639313, -0.02037057653069496, -0.25756165385246277, 0.1871691197156906, 0.12981727719306946, -0.15026941895484924, -0.07076579332351685, -0.06833147257566452, -0.17137832939624786, 0.17181317508220673, 0.12327461689710617, 0.3204953968524933, -0.25141504406929016, -0.04671123996376991, -0.17367041110992432, 0.09452454745769501, 0.0676555410027504, 0.2618708312511444, -0.3341338634490967, -0.09600288420915604, -0.09544263035058975, 0.08317814022302628, -0.061021216213703156, 0.017468050122261047, -0.1596878468990326, 0.1917017102241516, -0.0985916405916214, -0.10029692947864532, -0.07919073849916458, -0.022610316053032875, -0.061414383351802826, -0.0860934928059578, 0.13347353041172028, -0.11875744163990021, -0.17422139644622803, 0.04624045640230179, -0.26458898186683655, -0.08373398333787918, 0.43255284428596497, -0.24593399465084076, 0.07052444666624069, 0.03166676685214043, 0.3893245458602905, -0.09496749937534332, 0.2965684235095978, 0.030314765870571136, -0.13241058588027954, -0.07848459482192993, -0.05472128465771675, 0.005376228131353855, 0.13402009010314941, -0.04608792066574097, 0.11331384629011154, 0.09800250083208084, -0.14702309668064117, 0.07478056848049164, -0.07383111864328384, -0.5089759826660156, -0.08423081785440445, 0.011029722169041634, 0.11015665531158447, -0.03286726400256157, 0.2373531609773636, 0.010964986868202686, -0.11590628325939178, 0.00511409854516387, 0.22685173153877258, -0.18822188675403595, 0.1625358611345291, -0.011143120005726814, 0.06965290755033493, -0.17939339578151703, -0.10372191667556763, -0.022793268784880638, 0.22027471661567688, -0.24373911321163177, -0.06542760133743286, -0.13262444734573364, 0.13896067440509796, 0.018923191353678703, -0.30083444714546204, 0.3162238299846649, -0.08226584643125534, 0.05291583016514778, 0.15496988594532013, -0.2358495593070984, -0.05715211480855942, 0.17332132160663605, -0.2582046389579773, 0.07279311120510101, 0.10101281106472015, 0.27555885910987854, 0.1687595099210739, -0.04546571895480156, -0.11537599563598633, -0.07593222707509995, -0.012001236900687218, 0.16429069638252258, -0.23921601474285126, 0.010213380679488182, -0.04846978187561035, 0.06718296557664871, -0.037871744483709335, -0.019214050844311714, 0.2566250264644623, -0.18280866742134094, -0.454973042011261, 0.0682845339179039, -0.019274024292826653, -0.07914698868989944, -0.18416692316532135, -0.03668623045086861, 0.07133632898330688, 0.05088864639401436, 0.06038849428296089, 0.10753469914197922, -0.15074145793914795, -0.07686562836170197, -0.07646578550338745, 0.06792143732309341, 0.024001767858862877, 0.045188989490270615, -0.28385046124458313, -0.16903814673423767, -0.13868553936481476, 0.07642346620559692, 0.06109672784805298, 0.11175564676523209, -0.04510188847780228, -0.04776595160365105, -0.05001029744744301, -0.24552452564239502, -0.43916916847229004, -0.17516198754310608, -0.03727219998836517, 0.10004526376724243, 0.09480072557926178, -0.009999326430261135, 0.29600030183792114, 0.0036790864542126656, 0.1346132755279541, 0.006193576846271753, 0.03635433688759804, 0.20126360654830933, -0.16783715784549713, -0.027967724949121475, -0.0410601831972599, 0.2605169415473938, 0.08073820918798447, -0.08870047330856323, 0.203562393784523, -0.0382201261818409, -0.23558929562568665, -0.2215518355369568, -0.12390769273042679, 0.15944212675094604, -0.23512953519821167, 0.10839588195085526, 0.028756264597177505, 0.08400148153305054, 0.18133142590522766, 0.1530383825302124, -0.2605438232421875, 0.03694339841604233, -0.2645753026008606, -0.0505157969892025, 0.06435330212116241, 0.2325119525194168, 0.1056198850274086, -0.01051557157188654, -0.11049074679613113, 0.1736239641904831, 0.12416749447584152, 0.12740662693977356, 0.07807788252830505, -0.11194562911987305, 0.1933208853006363, 0.02967224083840847, -0.15473027527332306, -0.030146030709147453, -0.005726378411054611, 0.09158435463905334, -0.06650880724191666, -0.37886640429496765, 0.012399191036820412, 0.31593143939971924, -0.1823190301656723, -0.10760239511728287, -0.05767957866191864, 0.05589291825890541, 0.032806988805532455, -0.10777343064546585, 0.26985499262809753, -0.032824281603097916, 0.25526681542396545, -0.10387542843818665, 0.05534916743636131, 0.220810204744339, -0.17001239955425262, -0.08639803528785706, -0.3747973144054413, 0.3292118012905121, 0.1544874906539917, 0.038543883711099625, 0.18866191804409027, 0.013289887458086014, 0.20059378445148468, 0.07252231985330582, 0.015023698098957539, -0.18409012258052826, 0.25560909509658813, -0.08868478983640671, -0.04458954557776451, -0.06187624856829643, 0.043442435562610626, -0.13186131417751312, 0.0613897331058979, -0.15807485580444336, 0.11123920232057571, -0.11783607304096222, -0.08007271587848663, -0.15095916390419006, 0.11806976050138474, 0.009184594266116619, -0.28759217262268066, -0.05135457590222359, -0.09593629091978073, -0.22226369380950928, -0.08670272678136826, -0.12725473940372467, 0.07509904354810715, 0.17405299842357635, 0.0812361091375351, -0.06927963346242905, -0.32358062267303467, -0.17905645072460175, -0.19722683727741241, -0.020701982080936432, -0.024243999272584915, 0.03566959500312805, 0.3440815508365631, 0.1124311313033104, -0.009887933731079102, -0.10838104784488678, -0.15828563272953033, 0.20746327936649323, -0.2715972661972046, -0.10395883768796921, 0.042788807302713394, -0.22148969769477844, -0.02348129078745842, -0.005887904670089483, 0.22549287974834442, -0.1232483759522438, 0.02143876813352108, -0.033095669001340866, -0.11231621354818344, -0.16886508464813232, 0.28869810700416565, -0.15116889774799347, 0.012713873758912086, 0.02804942987859249, -0.05983150377869606, -0.0733342096209526, -0.128125861287117, -0.08390455693006516, 0.19551987946033478, -0.11759696900844574, 0.08292251825332642, -0.04420465975999832, 0.07150387018918991, -0.08538419753313065, -0.05622164160013199, 0.10325165092945099, -0.025767667219042778, 0.12602631747722626, 0.27328619360923767, 0.005602684337645769, 0.037439752370119095, 0.4584007263183594, -0.11338776350021362, 0.18821114301681519, 0.1969214826822281, -0.2513591945171356, -0.03647712618112564, 0.026556160300970078, -0.0220378078520298, 0.06544407457113266, 0.1405266672372818, 0.09128262847661972, 0.03197236359119415, -0.20399369299411774, -0.04376629739999771, -0.06682777404785156, -0.07150226086378098, -0.013896627351641655, 0.34087932109832764, -0.4466983377933502, -0.0029170627240091562, -0.03768575191497803, -0.14420047402381897, 0.01554622408002615, 0.31353524327278137, 0.04082183912396431, 0.07496605068445206, -0.14953014254570007, 0.2515770196914673, -0.0014093725476413965, 0.017101947218179703, -0.15888723731040955, 0.14675825834274292, 0.18299153447151184, -0.19294428825378418, 0.012380559928715229, 0.10657329857349396, -0.2530321776866913, 0.10911328345537186, 0.17661356925964355, 0.08786828815937042, -0.007466430310159922, -0.23507939279079437, 0.10327623784542084, -0.16247709095478058, 0.4259382486343384, 0.24527959525585175, 0.24355384707450867, 0.1352473646402359, 0.15879467129707336, -0.23882175981998444, -0.09491583704948425, 0.16389085352420807, 0.11129430681467056, 0.25089946389198303, -0.013748877681791782, 0.1455930918455124, -0.034752827137708664, -0.38566479086875916, 0.07415946573019028, -0.2558789551258087, 0.3022257685661316, 0.10891705006361008, -0.3010103106498718, 0.22302891314029694, -0.009007822722196579, -0.16826419532299042, -0.08039747923612595, -0.06723028421401978, 0.022684341296553612, -0.3852115571498871, 0.020664265379309654, -0.08680611103773117, 0.09674707055091858, 0.01299994345754385, 0.1645575910806656, -0.2545531094074249, 0.014064433984458447, -0.11209564656019211, -0.09970680624246597, 0.0051453630439937115, 0.1276060789823532, -0.056368160992860794, -0.08289971947669983, -0.21571312844753265, -0.023845920339226723, 0.11577942967414856, 0.2173968404531479, -0.02379699796438217, 0.09216620028018951, 0.1970943957567215, -0.2438172847032547, -0.06175977364182472, -0.05862301588058472, -0.24404391646385193, -0.004340609535574913, -0.009426101110875607, -0.517300546169281, 0.000625777873210609, -0.09809508919715881, 0.16120316088199615, 0.17740020155906677, 0.14818735420703888, 0.047168128192424774, -0.0003019968862645328, -0.027644043788313866, -0.17433421313762665, 0.09448165446519852, -0.13173483312129974, -0.05900229513645172, -0.06718818098306656, -0.10477440804243088, -0.007186606526374817, 0.05479571595788002, -0.029479671269655228, 0.11408335715532303, -0.016543816775083542, -0.07601016759872437, -0.11496050655841827, -0.05806918442249298, -0.07397156208753586, -0.26448604464530945, -0.15986940264701843, 0.0350818932056427, 0.0551888681948185, -0.03622015565633774, 0.11351104080677032, 0.24287183582782745, -0.15440408885478973, 0.28786641359329224, -0.019532719627022743, 0.07639401406049728, 0.16835904121398926, -0.024614889174699783, -0.16787400841712952, 0.06527059525251389, -0.07988494634628296, -0.14016327261924744, -0.06363745778799057, 0.14972122013568878, 0.028903458267450333, 0.027539854869246483, -0.09203261882066727, -0.24687187373638153, 0.021750561892986298, -0.2692570984363556, 0.13858021795749664, 0.23517371714115143, -0.156295046210289, 0.19323600828647614, 0.07280361652374268, -0.05236557871103287, 0.07909024506807327, 0.19828258454799652, -0.02117440477013588, 0.052793800830841064, -0.08112695813179016, -0.10899516195058823, 0.13780075311660767, -0.11651767790317535, 0.1638152152299881, 0.23567244410514832, -0.20771457254886627, 0.012897235341370106, -0.09862727671861649, -0.019119998440146446, -0.09353015571832657, 0.12602970004081726, -0.1695975363254547, -0.28499940037727356, -0.06980448961257935, 0.024100877344608307, 0.20302748680114746, 0.15447182953357697, -0.2242555320262909, -0.06590539962053299, -0.12202969938516617, -0.060259781777858734, -0.17801928520202637, -0.2110779881477356, -0.17117838561534882, -0.3332686424255371, -0.11393182724714279, 0.13728846609592438, -0.13057111203670502, -0.09907545149326324, 0.06344977766275406, 0.13637158274650574, -0.14973753690719604, 0.07727941870689392, -0.2192225456237793, 0.08569294214248657, -0.02551255375146866, 0.03343846648931503, 0.3092459738254547, -0.32411515712738037, -0.7192816734313965, 0.10730583965778351, 0.017487136647105217, -0.11427392810583115, 0.2664218544960022, -0.024875478819012642, -0.060603681951761246, 0.04529019817709923, -0.1294359564781189, 0.03615303337574005, -0.12038049101829529, -0.11571188271045685, -0.12167011946439743, 0.1386064887046814, 0.33090800046920776, 0.563988208770752, -0.1647055298089981, 0.13946521282196045, 0.22730274498462677, -0.07272588461637497, -0.08608361333608627, -0.2627110481262207, 0.024187680333852768, 0.08899401873350143, 0.0387519970536232, -0.00017613092495594174, -0.30423590540885925, 0.16861207783222198, -0.0011755003361031413, -0.08550243824720383, 0.13885462284088135, 0.2619822025299072, -0.43793341517448425, 0.06276126205921173, -0.24874013662338257, 0.13876399397850037, -0.24630771577358246, 0.0880846232175827, 0.299988329410553, -0.06438437849283218, 0.019730065017938614, -0.09870479255914688, -0.42240357398986816, -0.09513256698846817, -0.06582539528608322, -0.20269712805747986, 0.07418114691972733, -0.049825046211481094, -0.0501595102250576, 0.18736879527568817, 0.08082079142332077, -0.14401739835739136, -0.11361660063266754, 0.018186816945672035, -0.07672286778688431, 0.10721907764673233, -0.22459867596626282, -0.09997956454753876, -0.01483201514929533, -0.2003573179244995, -0.13409388065338135, 0.1732245534658432, 0.016122519969940186, -0.6202821135520935, -0.14905931055545807, -0.0918743833899498, -0.14941845834255219, -0.21634840965270996, -0.07078798115253448, 0.049419138580560684, 0.009139083325862885, -0.10403136909008026, -0.05898899585008621, 0.05895837023854256, -0.22357328236103058, 0.2681383192539215, 0.01284679677337408, 0.2751148045063019, -0.226409450173378, 0.08336930721998215, 0.07936406880617142, -0.06389264017343521, 0.05063934624195099, 0.09139041602611542, -0.003183967201039195, -0.22023551166057587, 0.1966574639081955, -0.07746453583240509, 0.0047952234745025635, -0.04724128544330597, -0.2643250823020935, -0.06197449564933777, 0.12296432256698608, -0.049225617200136185, 0.28096556663513184, 0.008314118720591068, -0.028874868527054787, 0.05409557744860649, 0.16732485592365265, -0.4208495616912842, 0.0005032259505242109, 0.1556451916694641, -0.16790814697742462, -0.08285138010978699, -0.19547775387763977, 0.15756669640541077, -0.13090083003044128, -0.05662108585238457, 0.2317289412021637, 0.06671976298093796, 0.010796938091516495, -0.30139538645744324, -0.13078661262989044, -0.19995634257793427, 0.005133382976055145, -0.08713807165622711, -0.020080430433154106, 0.37462034821510315, -0.1194118782877922, -0.06930550932884216, -0.025787541642785072, -0.15435710549354553, -0.28794798254966736, 0.3052895665168762, -0.004835286643356085, -0.1859399378299713, -0.11669222265481949, 0.03473411872982979, -0.23829011619091034, 0.16331200301647186, -0.007809326518326998, 0.07103415578603745, -0.078889861702919, -0.03768550604581833, 0.20061950385570526, -0.16745366156101227, 0.0491056889295578, -0.16394348442554474, -0.3720206022262573, 0.0684404969215393, 0.06424398720264435, 0.1106589138507843, 0.09281917661428452, -0.34805694222450256, 0.45831939578056335, 0.2636803090572357, -0.18975722789764404, 0.30161118507385254, 0.06043801084160805, -0.07465189695358276, 0.0004816093423869461, -0.02377973683178425, 0.04159454256296158, 0.1120477244257927, -0.06615713238716125, 0.09569250792264938, -0.13930372893810272, -0.06875666230916977, 0.5803525447845459, -0.03139906004071236, -0.18286822736263275, -0.09808025509119034, 0.0952325239777565, 0.014525172300636768, 0.0926939994096756, -0.013709811493754387, 0.049325890839099884, 0.17713485658168793, -0.1508527398109436, -0.1273196041584015, -0.10542390495538712, -0.06422030180692673, 0.05380098149180412, -0.22420614957809448, 0.2902039885520935, 0.4692731499671936, -0.02264932543039322, 0.12883196771144867, -0.05682295188307762, 0.01981019414961338, 0.06296329200267792, 0.10394939035177231, -0.01851034350693226, -0.09080702811479568, 0.22236000001430511, 0.13512106239795685, -0.22251063585281372, -0.08444377034902573, 0.28299203515052795, -0.13671481609344482, -0.0012193626025691628, -0.038597073405981064, -0.035405099391937256, -0.09472322463989258, -0.17533044517040253, -0.07275620102882385, -0.03708814084529877, -0.04123923182487488, 0.1783464252948761, 0.064395010471344, 0.021349404007196426, -0.1137022003531456, 0.14421021938323975, 0.0175898689776659, -0.18987348675727844, -0.07773668318986893, 0.3258979320526123, -0.36975041031837463, 0.05019088834524155, 0.06763721257448196, 0.05651388689875603, 0.10120166093111038, 0.024693448096513748, 0.027693171054124832, 0.06880248337984085, -0.09795529395341873, 0.18530312180519104, 0.026217902079224586, 0.032676856964826584, 0.04371757432818413, 0.07756323367357254, -0.17125742137432098, -0.13103829324245453, -0.013413757085800171, 0.11630096286535263, -0.1248127892613411, -0.061037108302116394, -0.20513221621513367, 0.10499916225671768, -0.06951918452978134, -0.1328502595424652, 0.19688044488430023, -0.026123903691768646, 0.051470573991537094, 0.1619269847869873, -0.0016728142509236932, -0.045042820274829865, 0.20564605295658112, -0.08159197866916656, -0.0353715643286705, 0.045656993985176086, 0.060835424810647964, -0.09656072407960892, 0.06260241568088531, -0.06426454335451126, -0.1308625489473343, -0.3758060038089752, -0.11407658457756042, -0.08152446150779724, 0.2602206766605377, 0.08959103375673294, 0.13020531833171844, 0.3998573422431946, 0.2171575427055359, -0.4370606243610382, -0.1466456800699234, -0.01156167034059763, 0.07045990973711014, -0.27006155252456665, -0.13251709938049316, -0.19219009578227997, 0.05578651279211044, -0.17695370316505432, 0.11140146106481552, -0.32148268818855286, 0.01008828729391098, 0.1913023442029953, 0.1590813845396042, 0.13127924501895905, -0.21781016886234283, 0.18072554469108582, -0.35816261172294617, -0.03511027619242668, 0.1064174547791481, -0.048804592341184616, -0.19279147684574127, -0.26172778010368347, -0.14771641790866852, -0.08182835578918457, -0.08467014133930206, 0.10947998613119125, -0.3040144741535187, -0.0648249015212059, 0.06152740865945816, -0.24466319382190704, -0.23936495184898376, 0.20473095774650574, 0.030230708420276642, 0.028861815109848976, 0.16439104080200195, -0.09229034930467606, 0.19883261620998383, 0.11406344175338745, -0.015398403629660606, -0.10377125442028046, -0.013499424792826176, 0.11419015377759933, -0.09107370674610138, -0.2809727191925049, -0.011598852463066578, 0.2754432260990143, 0.004410651978105307, -0.04522918909788132, 0.5882936716079712, 0.07898484170436859, 0.4050794243812561, -1.0166622400283813, -0.3123098313808441, 0.09365745633840561, 0.29275012016296387, -0.15007148683071136, 0.313383013010025, 0.2937033474445343, -0.8644170761108398, 0.22696061432361603, -0.18925076723098755, -0.6416031122207642, 0.1392158567905426, -0.29036927223205566, -0.1624467372894287, -0.048789601773023605, 0.1938229501247406, -0.2668827176094055, 0.3520551323890686, 0.3749537765979767, 0.025839490815997124, -0.41144928336143494, -0.3036871552467346, -0.0004843201022595167, -0.2556929290294647, -0.11664846539497375, 0.11780253052711487, -0.15020334720611572, 0.22149613499641418, -0.12043873965740204, -0.2820950150489807, -0.18121975660324097, 0.2157096117734909, -0.23082174360752106, 0.011855514720082283, 0.13624383509159088, -0.11159877479076385, -0.13254597783088684, -0.21057100594043732, -0.2233124077320099, -0.17620623111724854, -0.002421681070700288, 0.14038284122943878, 0.09232666343450546, 0.011733261868357658, 0.11708034574985504, 0.04569369554519653, 0.22137565910816193, -0.5061683058738708, -0.2850937843322754, -0.034692488610744476, -0.31824564933776855, -0.6574257612228394, 0.14671003818511963, 0.18650923669338226, -0.46977144479751587, 0.012198049575090408, -0.5230945944786072, -0.3101622462272644, 0.5049061179161072, -0.15169231593608856, 0.27943599224090576, 0.005324664060026407, -0.18253134191036224, -0.19089849293231964, 0.1751193404197693, 0.10995788872241974, 0.47096124291419983, 0.1791604459285736, -0.13103874027729034, -0.26805025339126587, 0.1673738658428192, 0.17435912787914276, -0.15212176740169525, 0.4363669157028198, 0.026443295180797577, 0.1924566626548767, -0.2481008768081665, 0.07464008033275604, -0.4350241720676422, -0.14078083634376526, 0.22408030927181244, -0.0630909875035286, 0.08237491548061371, 0.0022531352005898952, 0.03805195167660713, 0.43075433373451233, 0.29307955503463745, 0.13128237426280975, 0.0866677388548851, -0.6756454706192017, -0.01743388921022415, -0.3898281157016754, 0.00646236864849925, -0.10178104788064957, 0.4453371465206146, 0.12087178975343704, 0.36163026094436646, -0.3238832652568817, 0.0835331380367279, 0.1695980578660965, 0.3077300488948822, 0.22458675503730774, 0.10725922882556915, -0.24915571510791779, 0.5267259478569031, 0.2264636754989624, 0.021921517327427864, -0.45704391598701477, 0.12728841602802277, 0.24179579317569733, -0.3038698136806488, -0.14227738976478577, 0.12051893770694733, 0.02363041415810585, 0.14115379750728607, 0.041037119925022125, -0.0072160824202001095, -0.41308051347732544, 0.29199859499931335, 0.17413093149662018, -0.04685473442077637, 0.1884324699640274, -0.09511066973209381, 0.010079419240355492, -0.286947637796402, -0.10505154728889465, 0.3028605878353119, -0.3461768627166748, -6.325545837171376e-05, 0.043441664427518845, -0.0012282459065318108, -0.15014366805553436, 0.19948533177375793, 0.17018930613994598, -0.31710344552993774, -0.11529495567083359, 0.012812530621886253, -0.2605006694793701, 0.0707312673330307, -0.012625634670257568, -0.11253461986780167, -0.03751472383737564, 0.3533727526664734, -0.2679550051689148, -0.11626425385475159, 0.22328490018844604, 0.35984185338020325, -0.4010002911090851, -0.10289308428764343, -0.381340354681015, -0.715385913848877, -0.012025008909404278, -0.4236917793750763, 0.28686413168907166, 0.389859139919281, 0.17577621340751648, -0.2854348421096802, -0.053837358951568604, -0.08859967440366745, 0.020849402993917465, 0.12030411511659622, -0.0710042342543602, 0.019046936184167862, -0.180319681763649, 0.0013341616140678525, -0.017382657155394554, 0.07250984758138657, 0.20899997651576996, -0.02469482086598873, 0.08379234373569489, -0.10428114235401154, 0.05102798342704773, 0.1923925131559372, -0.11980829387903214, 0.3156765103340149, -0.26595979928970337, -0.1309627890586853, 0.0398339219391346, 0.20177040994167328, 0.24233776330947876, -0.47228872776031494, 0.1954667568206787, -0.0871833935379982, -0.16246528923511505, 0.020227525383234024, -0.26984915137290955, 0.02695395238697529, 0.3090706467628479, -0.23575903475284576, 0.02019989676773548, 0.08359919488430023, -0.2189294993877411, -0.21938039362430573, 0.42707642912864685, -0.033227380365133286, -0.3389429748058319, -0.1603579819202423, -0.05041373893618584, 0.14483222365379333, 0.14167822897434235, 0.14670559763908386, -0.13669289648532867, 0.12196120619773865, -0.2557377219200134, -0.16412095725536346, 0.004150995519012213, 0.24935734272003174, 0.09480088204145432, 0.22410249710083008, -0.013593626208603382, -0.17752709984779358, -0.1296459436416626, 0.24061422049999237, 0.0905800610780716, 0.2999635636806488, -0.49386918544769287, -0.21940691769123077, -0.7025870680809021, 0.08673564344644547, 0.03792763873934746, -0.1267615407705307, -0.003924048040062189, 0.09738656878471375, -0.24452652037143707, 0.4201294183731079, 0.0890485867857933, 0.14791685342788696, 0.07740877568721771, -0.04519661143422127, -0.08896297216415405, 0.334573358297348, -0.02099347673356533, -0.2490970939397812, -0.47538599371910095, -0.15997318923473358, 0.09551594406366348, -0.029725970700383186, 0.2139262557029724, -0.08142539858818054, 0.10939063876867294, 0.17922945320606232, -0.4007519781589508, -0.374895840883255, 0.006444098427891731, 0.3955773115158081, -0.24635767936706543, -0.042857978492975235, -0.16460873186588287, 0.13585343956947327, 0.18818384408950806, -0.11840055137872696, -0.06200522184371948, 0.09370450675487518, 0.23455795645713806, 0.43395742774009705, -0.41568830609321594, 0.1380864530801773, -0.3059847354888916, -0.06500573456287384, 0.8097679615020752, -0.004894531797617674, -0.42182934284210205, -0.021184198558330536, -0.2927612364292145, 0.05995452031493187, 0.12947730720043182, 0.10005927085876465, 0.775478720664978, -0.180366650223732, -0.10164285451173782, 0.07004865258932114, 0.1311875432729721, 0.06718946993350983, -0.08308163285255432, 0.1669480800628662, 0.22257530689239502, 0.4576115906238556, -0.16073033213615417, 0.38119131326675415, 0.2213122695684433, 0.17399613559246063, 0.1559954583644867, -0.19134311378002167, -0.12297295033931732, -0.10870177298784256, 0.07219991832971573, 1.0619752407073975, -0.06171441450715065, -0.064662404358387, 0.4410094916820526, -0.10967997461557388, -0.6326817274093628, 0.3497520685195923, -0.35946887731552124, -0.009819761849939823, -0.2294195294380188, -0.1182553842663765, 0.10067395865917206, -0.2665178179740906, -0.07733480632305145, 0.5368270874023438, -1.0257596969604492, -0.183742955327034, -0.07147126644849777, 0.1379411518573761, 0.08192847669124603, 0.31187185645103455, 0.2324555665254593, -0.1417871117591858, -0.2985987365245819, 0.8645486831665039, 0.011090213432908058, 0.19475029408931732, -0.20511609315872192, 0.004043887834995985, -0.2985173761844635, 0.42704716324806213, -0.024486316367983818, 0.4035622477531433, 0.08964479714632034, -0.20547159016132355, -0.04988888278603554, 0.12665154039859772, 0.10309620946645737, -0.33855873346328735, 0.07153183221817017, 0.037090763449668884, 0.3428351581096649, -0.33537858724594116, 0.14218904078006744, -0.5251940488815308, 0.1609572172164917, -0.06988438218832016, -0.06693275272846222, 0.11874311417341232, 0.34760189056396484, -0.04340120404958725, -0.30907905101776123, 0.026038553565740585, -0.17829343676567078, -0.3392100930213928, -0.0185223575681448, -0.13561278581619263, 0.1638810932636261, 0.17528750002384186, 0.06805098801851273, 0.11383762210607529, 0.15488308668136597, -0.027766786515712738, 0.04946761950850487, -0.13126683235168457, -0.07210031151771545, -0.16465504467487335, 0.24733266234397888, -0.17037749290466309, 0.059464987367391586, -0.11891306936740875, -0.09289468824863434, -0.15147602558135986, 0.2427462637424469, 0.1107054054737091, 0.2412434071302414, -0.002064740750938654, 0.06711554527282715, -0.257612019777298, 0.02120688185095787, -0.020376967266201973, -0.02907373756170273, 0.08576244115829468, -0.040678851306438446, -0.2928987443447113, 0.026788610965013504, 0.04488437995314598, -0.25559985637664795, 0.07092832773923874, -0.031433504074811935, -0.06021362543106079, -0.2647280693054199, -0.04045781493186951, -0.031736619770526886, -0.02513296529650688, 0.16819003224372864, -0.168553426861763, -0.49301865696907043, -0.13798946142196655, -0.06481347978115082, -0.44024667143821716, -0.11688206344842911, -0.26617109775543213, 0.10498664528131485, -0.035491593182086945, 0.22270192205905914, -0.15062616765499115, 0.10880669951438904, 0.4603719413280487, 0.06818820536136627, 0.0934615209698677, 0.12913164496421814, 0.43284451961517334, -0.10896667093038559, -0.03542051464319229, -0.3872561454772949, -0.014074387960135937, 0.2926728427410126, -0.008763860911130905, 0.05289103835821152, -0.10904412716627121, -0.1176738515496254, 0.14278824627399445, 0.7535446882247925, 0.14000539481639862, -0.14138935506343842, -0.11743180453777313, -0.11299003660678864, 0.147462397813797, 0.2136479616165161, -0.0764649361371994, -0.057681020349264145, -0.22176651656627655, -0.2067047357559204, -0.06823363155126572, -0.1931265890598297, -0.06857125461101532, 0.0039455178193748, -0.36749011278152466, 0.21947753429412842, -0.073371022939682, 0.12439129501581192, 0.029216362163424492, 0.012992995791137218, -0.14593158662319183, -0.11307033151388168, 0.10844734311103821, 0.19854670763015747, -0.3958788812160492, 0.23168782889842987, 0.07777946442365646, -0.01966759003698826, 0.10483023524284363, -0.212738037109375, 0.03793013468384743, -0.009441669099032879, -0.1307586282491684, 0.047141898423433304, -0.07183191180229187, -0.12253079563379288, 0.4032040238380432, 0.08565860986709595, -0.11350712180137634, 0.13119952380657196, 0.10347463935613632, -0.053732868283987045, -0.01643311232328415, 0.08969175815582275, 0.04806232824921608, -0.03452807292342186, -0.18514540791511536, 0.008959434926509857, 0.19415873289108276, 0.04395652934908867, 0.2617289125919342, -0.22394955158233643, 0.007659219205379486, -0.3512502908706665, 0.046261388808488846, -0.06352994590997696, 0.17754295468330383, -0.08374827355146408, -0.08003906160593033, 0.23817013204097748, -0.26477867364883423, 0.11623495072126389, -0.06796880066394806, 0.40024882555007935, -0.04211470112204552, 0.0651642456650734, 0.145120307803154, -0.062300559133291245, 0.024774689227342606, -0.22554686665534973, -0.01225232519209385, 0.10870266705751419, 0.20546236634254456, 0.05982942879199982, 0.11443734169006348, 0.019589725881814957, 0.13985396921634674, 0.1431078016757965, -0.04247082397341728, -0.05457325279712677, -0.032204411923885345, 0.2603701055049896, -0.09507628530263901, 0.031929560005664825, -0.06364127993583679, 0.12568546831607819, -0.05964875966310501, -0.15381596982479095, 0.1194184198975563, 0.3496793806552887, -0.11868946999311447, -0.07791145145893097, -0.09313211590051651, 0.01216441486030817, 0.2044733762741089, 0.30869990587234497, 0.03998012840747833, 0.22429817914962769, 0.054637741297483444, -0.0751672089099884, 0.18536755442619324, -0.0007632745546288788, -0.45117655396461487, -0.23958048224449158, -0.0023385947570204735, 0.10589119046926498, 0.013290073722600937, -0.1699858009815216, 0.038016173988580704, 0.1988966017961502, -0.06451418250799179, -0.10921849310398102, -0.04316241666674614, 0.12452249228954315, 0.026712359860539436, -0.11079791933298111, 0.1302863508462906, -0.010542959906160831, -0.012670311145484447, -0.029584122821688652, -0.12014653533697128, -0.10429438203573227, -0.17947442829608917, -0.09052962064743042, -0.13054148852825165, 0.16838353872299194, -0.1876116544008255, -0.08495781570672989, 0.143434539437294, 0.10246145725250244, -0.08917885273694992, -0.20238180458545685, -0.11588709056377411, 0.07847394794225693, -0.28012701869010925, -0.16805943846702576, -0.2966573238372803, 0.03446569666266441, -0.195529043674469, -0.1401180922985077, -0.2025383710861206, -0.013075985945761204, 0.04609989747405052, 0.2054637223482132, -0.20563660562038422, 0.11315448582172394, -0.15507136285305023, 0.01884293369948864, -0.12177707999944687, 0.21118539571762085, -0.049811992794275284, -0.016768574714660645, -0.3563673496246338, -0.15662425756454468, 0.24013324081897736, -0.17236727476119995, 0.0801224559545517, -0.037434957921504974, 0.20084095001220703, 0.0022757896222174168, -0.00485481321811676, 0.28098416328430176, 0.1639433652162552, -0.03898347541689873, 0.174068883061409, 0.34865516424179077, 0.06217217072844505, -0.1282035857439041, -0.007204648107290268, -0.12675374746322632, -0.2761763334274292, -0.09276175498962402, 0.05531539395451546, -0.0920770987868309, 0.27171260118484497, 0.08855995535850525, 0.26622894406318665, -0.137821227312088, 0.1386331170797348, 0.2891809344291687, -0.10785204917192459, -0.017032967880368233, 0.10683609545230865, 0.15610912442207336, 0.07954628765583038, -0.006861714646220207, 0.011884267441928387, -0.11960607767105103, -0.2077307105064392, 0.3711792230606079, 0.16682350635528564, 0.2755700945854187, -0.1553295999765396, -0.07795307785272598, -0.06651277840137482, 0.15264089405536652, 0.11868051439523697, 0.01461106352508068, 0.13004657626152039, -0.07194781303405762, 0.01032752264291048,