{"version": "0.5.1", "metadata": {"date": {"year": 2023, "month": 6, "day": 8, "hour": 3, "minute": 53, "second": 13}, "loudness": -11.624128341674805, "gain": 0.83853164046832, "name": null, "modeled_by": null, "gear_type": null, "gear_make": null, "gear_model": null, "tone_type": null}, "architecture": "WaveNet", "config": {"layers": [{"input_size": 1, "condition_size": 1, "head_size": 8, "channels": 16, "kernel_size": 3, "dilations": [1, 2, 4, 8, 16, 32, 64, 128, 256, 512], "activation": "Tanh", "gated": false, "head_bias": false}, {"input_size": 16, "condition_size": 1, "head_size": 1, "channels": 8, "kernel_size": 3, "dilations": [1, 2, 4, 8, 16, 32, 64, 128, 256, 512], "activation": "Tanh", "gated": false, "head_bias": true}], "head": null, "head_scale": 0.02}, "weights": [-0.09610637277364731, 0.6093851327896118, -1.074407935142517, -0.8535001873970032, -0.37002259492874146, 0.4360474944114685, 0.012693498283624649, 0.8837031126022339, -0.3340596556663513, 0.3529066741466522, -0.5490986108779907, -0.262064665555954, -1.0313465595245361, -0.775507390499115, -0.5176286101341248, 0.1836831122636795, -0.14725808799266815, 0.3513093888759613, -0.058788951486349106, 0.18932460248470306, -0.17378351092338562, 0.11029224842786789, -0.29056254029273987, 0.33527901768684387, -0.013667736202478409, -0.24086415767669678, 0.35544487833976746, -0.1265743523836136, -0.34544095396995544, 0.1853780299425125, -0.05104760080575943, 0.38994887471199036, -0.31424030661582947, -0.06608693301677704, -0.25722891092300415, 0.03551880642771721, -0.15174545347690582, 0.3775447905063629, -0.1619756668806076, 0.06014205887913704, -0.2617095410823822, 0.15678630769252777, 0.02255990169942379, 0.12003261595964432, -0.3274303376674652, -0.07860887050628662, -0.17495514452457428, 0.31043770909309387, -0.060274556279182434, -0.2630932331085205, 0.30700719356536865, 0.13916441798210144, -0.1955898553133011, 0.24485377967357635, 0.1061631441116333, -0.34077778458595276, 0.2522027790546417, -0.10378887504339218, -0.35922756791114807, 0.1496889740228653, 0.07076923549175262, 0.330114483833313, -0.3162664771080017, 0.0492919385433197, 0.033417925238609314, 0.05158340185880661, -0.02266766130924225, 0.04625308886170387, -0.02748018130660057, 0.08314847946166992, -0.12268125265836716, 0.06710546463727951, 0.11722622811794281, 0.10815030336380005, 0.2446182668209076, 0.18529684841632843, 0.01030366774648428, -0.013468063436448574, 0.060740161687135696, -0.06969106197357178, -0.24419353902339935, 0.07775872945785522, 0.030298229306936264, -0.10735822468996048, -0.04553220421075821, -0.014103486202657223, -0.14240430295467377, -0.1250503808259964, 0.022997595369815826, 0.015961330384016037, 0.08902185410261154, 0.09237951785326004, -0.00424333568662405, 0.009608172811567783, -0.16482721269130707, 0.015086066909134388, 0.1249806135892868, 0.006035509053617716, -0.010136822238564491, -0.04505408555269241, 0.12622618675231934, 0.21684053540229797, -0.003320332383736968, -0.048498205840587616, -0.018918830901384354, 0.055110182613134384, -0.12534552812576294, 0.0021593051496893167, 0.04562815651297569, 0.06567922979593277, -0.14775213599205017, 0.08243057876825333, 0.0068643889389932156, 0.10576704889535904, 0.16911129653453827, -0.18544358015060425, 0.03432818874716759, 0.04209919646382332, 0.08263073116540909, -0.03992852196097374, 0.014631718397140503, 0.07020958513021469, -0.14381521940231323, 0.029289433732628822, -0.06883087009191513, -0.15177586674690247, -0.06330268085002899, -0.14149589836597443, 0.011739455163478851, -0.08798759430646896, -0.006452023517340422, -0.07251132279634476, -0.1425279676914215, -0.06595754623413086, 0.17629177868366241, 0.02563806064426899, 0.09533053636550903, -0.06116538122296333, 0.025309182703495026, 0.022703159600496292, 0.1965092271566391, 0.11295100301504135, 0.20812849700450897, -0.07190591096878052, -0.1640428602695465, 0.006109548266977072, 0.04288628697395325, -0.016668707132339478, -0.013573466800153255, -0.18493081629276276, -0.1767226755619049, -0.05875026062130928, -0.10125754028558731, 0.041019998490810394, 0.1436769962310791, -0.20667487382888794, 0.054398804903030396, -0.2164648026227951, 0.008694973774254322, -0.09262138605117798, 0.06664608418941498, 0.08477775752544403, -0.2653271555900574, -0.2818642556667328, -0.2133478969335556, 0.0229509174823761, 0.09644611924886703, 0.24792227149009705, -0.14787957072257996, 0.149754598736763, 0.319502592086792, -0.07785744965076447, 0.27898383140563965, 0.23556743562221527, -0.16019199788570404, -0.06381677091121674, -0.20207951962947845, -0.03919587284326553, -0.04064206779003143, -0.280376672744751, -0.2050207257270813, -0.19121664762496948, -0.08850286155939102, 0.05916495993733406, 0.21320025622844696, 0.22588880360126495, -0.07923748344182968, -0.18032638728618622, -0.2980167269706726, 0.11383133381605148, 0.2703990638256073, 0.282157301902771, -0.12650272250175476, 0.15003468096256256, 0.0730806216597557, -0.11953822523355484, 0.07670409977436066, 0.24212756752967834, -0.10377667099237442, 0.15568780899047852, 0.19821687042713165, 0.07384729385375977, 0.048217855393886566, 0.08900602906942368, -0.10610803216695786, -0.02018536441028118, -0.203342005610466, 0.20952481031417847, 0.21017354726791382, 0.16336776316165924, -0.21904461085796356, -0.2553153336048126, -0.2159540355205536, 0.08684872835874557, 0.23341159522533417, 0.2569265365600586, -0.23259183764457703, 0.1546877920627594, 0.3535163402557373, -0.23554743826389313, 0.20871976017951965, 0.3711921274662018, -0.07358558475971222, -0.222681924700737, -0.3554401099681854, 0.19735722243785858, 0.0067643336951732635, 0.13104024529457092, 0.029006944969296455, -0.25373804569244385, -0.23421640694141388, 0.23835353553295135, 0.2306148260831833, 0.34650951623916626, -0.06034524366259575, -0.31074801087379456, -0.15698792040348053, 0.03236131742596626, 0.1682158261537552, 0.2718339264392853, -0.07876433432102203, 0.3206457793712616, 0.17186951637268066, -0.13562284409999847, 0.3066155016422272, 0.09786180406808853, -0.012617457658052444, 0.11011042445898056, 0.23855586349964142, -0.1429954469203949, 0.15213662385940552, 0.25117677450180054, -0.0036172554828226566, -0.22799251973628998, -0.2735532522201538, 0.13632577657699585, -0.08650580048561096, 0.11006490886211395, -0.0643654465675354, -0.12003371119499207, -0.08554671704769135, 0.18720415234565735, 0.09804791212081909, 0.11066897958517075, -0.058900974690914154, -0.026365743950009346, -0.04055209457874298, -0.06501687318086624, 0.14858579635620117, 0.04539455845952034, -0.16406233608722687, -0.09907621145248413, -0.14847297966480255, 0.12993744015693665, 0.00946038868278265, -0.11018909513950348, 0.222810298204422, -0.11296474188566208, -0.017071697860956192, 0.1501111537218094, 0.053518522530794144, -0.07286253571510315, -0.19258831441402435, 0.0855659618973732, 0.010273139923810959, 0.2097007781267166, -0.017141705378890038, 0.05621244013309479, -0.13601066172122955, 0.028723375871777534, -0.07038094103336334, -0.034540630877017975, 0.06457498669624329, -0.0037925883661955595, -0.14226889610290527, -0.0659683421254158, 0.10077392309904099, -0.21441905200481415, 0.08500539511442184, -0.04204631224274635, -0.1733768880367279, -0.03468244522809982, -0.10755126178264618, 0.0694606676697731, 0.16438212990760803, -0.13305559754371643, 0.06118781119585037, -0.054583676159381866, 0.1067984476685524, 0.0355846993625164, -0.0030827887821942568, -0.07552509009838104, -0.009929591789841652, 0.061585962772369385, 0.00196050014346838, 0.039183359593153, 0.04668128862977028, -0.045931581407785416, 0.013286810368299484, -0.11365446448326111, 0.05158267170190811, 0.06615903228521347, -0.14633958041667938, -0.20658496022224426, -0.06872119754552841, 0.020410289987921715, 0.1366070955991745, 0.0771573930978775, 0.21912923455238342, -0.09589290618896484, -0.14171935617923737, -0.24467122554779053, 0.1819966733455658, 0.13007181882858276, 0.02380485087633133, 0.01658051460981369, 0.054946284741163254, 0.2700835168361664, 0.09159432351589203, 0.07766029238700867, 0.07623575627803802, -0.10429638624191284, 0.059210728853940964, 0.1967102289199829, -0.1381591111421585, 0.07338441908359528, 0.18727326393127441, 0.03238239511847496, -0.14423757791519165, -0.12070266902446747, -0.026343801990151405, 0.09938185662031174, 0.0480196513235569, -0.2679978609085083, 0.12591850757598877, 0.025153325870633125, 0.350821316242218, 0.03623843565583229, -0.06271504610776901, -0.3728116750717163, -0.06278427690267563, -0.10628702491521835, -0.5175798535346985, 0.1476842612028122, 0.1206381693482399, -0.2553670108318329, 0.15845933556556702, -0.17391441762447357, 0.3016056716442108, -0.06385858356952667, 0.08086873590946198, 0.12099313735961914, 0.0030236979946494102, -0.10519203543663025, 0.2633506655693054, -0.11421076208353043, 0.17695607244968414, -0.28188177943229675, 0.15652628242969513, 0.0671265572309494, 0.5216453075408936, -0.08161640167236328, 0.11094639450311661, -0.2735971212387085, 0.08830484747886658, 0.19357557594776154, -0.30998286604881287, 0.14056366682052612, -0.016465460881590843, -0.3330642282962799, 0.048320017755031586, 0.0020922687835991383, -0.48300865292549133, -0.047375161200761795, -0.06983873248100281, -0.3032394051551819, 0.14036941528320312, -0.09564926475286484, 0.2861041724681854, 0.02169918268918991, 0.029447246342897415, -0.2822871506214142, 0.05356733873486519, 0.22014062106609344, 0.38430362939834595, -0.1454615592956543, 0.04792452231049538, -0.22041055560112, -0.018621232360601425, -0.008608357980847359, -0.41046926379203796, 0.011071618646383286, 0.04123220965266228, -0.3160873353481293, -0.06026460602879524, 0.0320555679500103, 0.2783772647380829, -0.07513069361448288, -0.007835579104721546, -0.007823127321898937, -0.04509302228689194, 0.0018697744235396385, 0.33213573694229126, 0.03337577357888222, 0.004503389820456505, -0.4490770399570465, 0.044367752969264984, -0.027181988582015038, 0.25110986828804016, -0.002801160328090191, -0.18372657895088196, -0.26304706931114197, 0.16854429244995117, -0.0648953840136528, -0.4049542248249054, 0.006042172200977802, -0.06002689152956009, -0.43694838881492615, 0.10455989837646484, -0.2196388989686966, -0.46607276797294617, -0.10598091781139374, -0.11483355611562729, -0.22459237277507782, -0.09569789469242096, 0.18124090135097504, 0.26072418689727783, -0.05747467651963234, 0.007155201397836208, -0.002044428139925003, 0.0812373235821724, 0.1273343861103058, 0.06512059271335602, 0.22813646495342255, -0.15017899870872498, 0.1960458606481552, -0.15636378526687622, 0.015793556347489357, -0.0409139059484005, -0.201238751411438, -0.1855192482471466, 0.0218827947974205, -0.12028367072343826, -0.06819558143615723, -0.041653428226709366, 0.2318757325410843, 0.1233314573764801, 0.09212136268615723, 0.0047317808493971825, 0.010946789756417274, -0.013083580881357193, 0.301192045211792, 0.059315938502550125, 0.09096335619688034, -0.0828138142824173, -0.09820572286844254, -0.21245592832565308, 0.20897282660007477, -0.12819312512874603, 0.16140905022621155, -0.25889453291893005, -0.10882024466991425, -0.029609814286231995, -0.06419350951910019, -0.07017400860786438, 0.18491701781749725, -0.07105548679828644, 0.028462449088692665, 0.08141957968473434, -0.20341089367866516, -0.08288200944662094, 0.10071025043725967, -0.08650199323892593, -0.08316940814256668, 0.0182638056576252, 0.09100261330604553, -0.16155807673931122, -0.10290683060884476, 0.35303008556365967, 0.23745733499526978, -0.0821632519364357, -0.11923649907112122, -0.03445085510611534, 0.03619363158941269, 0.34839627146720886, -0.18231980502605438, -0.003655768698081374, 0.28366363048553467, -0.1507171243429184, -0.006861246190965176, 0.17521695792675018, 0.20026633143424988, 0.013563132844865322, -0.27675268054008484, 0.11187855899333954, 0.06715873628854752, 0.16034050285816193, 0.11639882624149323, 0.13192173838615417, -0.23840148746967316, -0.06772717833518982, -0.0869922786951065, 0.2805134952068329, 0.0012661372311413288, -0.031485386192798615, -0.29013851284980774, 0.022707143798470497, -0.0874524638056755, 0.23009257018566132, -0.17817014455795288, 0.08605974167585373, 0.3530470132827759, -0.212307870388031, -0.16556638479232788, 0.11461042612791061, -0.10653333365917206, -0.08686754107475281, 0.12924179434776306, -0.16055458784103394, -0.02424204722046852, 0.1476721465587616, 0.12623880803585052, 0.014645722694694996, -0.29438167810440063, -0.1311766803264618, 0.07978706806898117, 0.16309256851673126, 0.15925836563110352, -0.04199841246008873, -0.16135306656360626, -0.28763315081596375, -0.14524540305137634, 0.452678918838501, -0.24267642199993134, 0.018811145797371864, 0.29437553882598877, -0.19007940590381622, -0.050535961985588074, 0.3886983096599579, 0.16702032089233398, -0.12438243627548218, -0.3849092423915863, -0.24147912859916687, -0.12535493075847626, -0.00978604331612587, 0.28504878282546997, -0.025952991098165512, -0.3316807448863983, -0.05963299423456192, 0.04335538297891617, 0.41711294651031494, 0.24149808287620544, -0.026426395401358604, -0.38775238394737244, -0.17050452530384064, 0.10608233511447906, 0.2557385265827179, -0.29573091864585876, 0.03691812604665756, 0.42801231145858765, -0.19003206491470337, -0.1256224811077118, 0.17590010166168213, -0.11637704074382782, -0.021019183099269867, 0.23240649700164795, -0.12528271973133087, 0.04415998235344887, 0.4180022180080414, 0.28741535544395447, 0.019267847761511803, -0.4048473834991455, 0.0035894527100026608, 0.10921797901391983, 0.006594832055270672, -0.05443790927529335, -0.07157126814126968, 0.2709081768989563, 0.25222715735435486, 0.07096283882856369, -0.26813286542892456, 0.06020133197307587, -0.15707972645759583, -0.005374009720981121, 0.05943251773715019, -0.11783010512590408, -0.05595267191529274, -0.1920042335987091, -0.02604326605796814, 0.12167761474847794, -0.038360245525836945, -0.2733290493488312, -0.05859300494194031, -0.1743665635585785, 0.10782229900360107, 0.2668331563472748, 0.222770556807518, -0.01147224847227335, 0.006225631106644869, -0.1012432798743248, -0.02426474541425705, 0.25893568992614746, 0.15908192098140717, -0.18672417104244232, -0.18054862320423126, 0.026356352493166924, 0.0872824490070343, -0.14289939403533936, -0.021364469081163406, -0.06725584715604782, -0.05187853425741196, 0.15435801446437836, -0.01002687867730856, -0.12735740840435028, 0.1727829873561859, -0.08598767966032028, -0.19606101512908936, -0.29555562138557434, -0.08171474933624268, 0.152155339717865, -0.13807645440101624, 0.22482429444789886, -0.06569589674472809, 0.03493756055831909, -0.33714786171913147, 0.1731686145067215, -0.10740077495574951, 0.36655768752098083, -0.14728179574012756, -0.05810848996043205, 0.32418233156204224, -0.09244856983423233, 0.09006214141845703, 0.13872770965099335, -0.16505074501037598, -0.03221404552459717, -0.21327082812786102, 0.1769348382949829, -0.06666085124015808, 0.19494126737117767, -0.003926826175302267, -0.009792584925889969, -0.13880655169487, -0.0798046812415123, -0.031395893543958664, 0.36793050169944763, -0.0845109149813652, 0.14350008964538574, -0.2785817086696625, 0.16411878168582916, -0.17236384749412537, 0.21628937125205994, -0.06665792316198349, 0.008452948182821274, 0.28317221999168396, 0.054992709308862686, -0.04256538301706314, 0.24023190140724182, 0.06800982356071472, -0.06317540258169174, 0.3716758191585541, -0.12977367639541626, -0.04393548518419266, 0.23218666017055511, 0.02536044828593731, 0.1592153161764145, -0.24156612157821655, -0.019500013440847397, 0.19521403312683105, -0.3708217740058899, 0.18648552894592285, -0.20995654165744781, 0.528346836566925, 0.06158532202243805, 0.1335521787405014, -0.578548789024353, 0.17445464432239532, 0.012607318349182606, -0.40560829639434814, 0.09468025714159012, 0.05935651436448097, -0.38000646233558655, -0.04437655210494995, -0.09751086682081223, 0.3395160138607025, -0.10086352378129959, 0.008045198395848274, -0.12958680093288422, -0.12057798355817795, -0.024532513692975044, 0.41940680146217346, -0.14010362327098846, 0.01956569030880928, -0.5685805678367615, 0.24700212478637695, -0.16206981241703033, 0.434570848941803, -0.048344966024160385, 0.22809281945228577, -0.31175509095191956, 0.19752947986125946, 0.025409923866391182, -0.4409481883049011, 0.010839110240340233, 0.03437565267086029, -0.4035428464412689, 0.20643821358680725, 0.005274569615721703, -0.350382924079895, -0.000762954237870872, 0.0971541553735733, -0.3187384605407715, 0.046783119440078735, -0.1443575620651245, 0.3206590712070465, -0.020816819742321968, 0.19222164154052734, -0.32004794478416443, 0.10050612688064575, -0.37959378957748413, 0.037595704197883606, -0.10050874948501587, 0.40472790598869324, -0.19352157413959503, 0.18163375556468964, 0.405530720949173, -0.05530156195163727, 0.036703210324048996, 0.2578005790710449, -0.19843462109565735, -0.002383139915764332, -0.2901405394077301, 0.25800013542175293, 0.00331394886597991, 0.1432781219482422, -0.24899213016033173, 0.058130472898483276, -0.1715659499168396, 0.0919933170080185, -0.20974040031433105, 0.3157678544521332, -0.07719410210847855, -0.00943420734256506, -0.1433384120464325, 0.20743867754936218, -0.20997890830039978, 0.2640113830566406, -0.030391380190849304, 0.0036938944831490517, 0.2268630862236023, -0.10167175531387329, -0.011949736624956131, 0.35758814215660095, -0.07613063603639603, 0.1992836594581604, 0.18947766721248627, -0.007773010525852442, 0.025697944685816765, 0.43232348561286926, -0.2882519066333771, -0.012669201008975506, -0.21003231406211853, 0.17132587730884552, -0.1279486119747162, -0.03461283817887306, -0.07243662327528, -0.08007238060235977, -0.13753050565719604, 0.030161326751112938, 0.006343134678900242, 0.034965451806783676, -0.013098914176225662, 0.14278270304203033, 0.018975820392370224, 0.011047822423279285, 0.1901237815618515, -0.04355962574481964, -0.07224447280168533, -0.10765288770198822, 0.0595649890601635, 0.4335516691207886, -0.4947661757469177, 0.8485645055770874, -0.692818820476532, 0.11270327866077423, 1.0183476209640503, 1.0626157522201538, -0.6044753193855286, 0.1534428596496582, 0.286441445350647, -0.6950239539146423, -0.6580548286437988, 0.42117205262184143, -0.6730174422264099, 0.10241656005382538, 0.3224327862262726, -0.362318217754364, 0.156960129737854, 0.12381768971681595, 0.0886472836136818, 0.15743672847747803, -0.021114464849233627, 0.2501959204673767, 0.07147565484046936, -0.027854694053530693, -0.0490618571639061, -0.08045800030231476, -0.23414084315299988, 0.1913127303123474, -0.08548308908939362, 0.23322796821594238, 0.44721707701683044, 0.01688256300985813, 0.1121029481291771, -0.319570928812027, 0.30108457803726196, 0.4639964997768402, -0.17646971344947815, -0.23568491637706757, -0.2682034969329834, -0.2303660660982132, -0.012232244946062565, -0.3405589461326599, -0.3542679250240326, 0.03785004839301109, 0.16330863535404205, -0.21866337954998016, 0.280886709690094, 0.3695577383041382, 0.24556507170200348, -0.13105204701423645, 0.3557979166507721, 0.21454256772994995, -0.34790387749671936, -0.07607736438512802, -0.481112003326416, -0.25205716490745544, -0.36689138412475586, 0.2806626558303833, -0.004954671021550894, 0.00019627039728220552, 0.46838366985321045, -0.31366539001464844, -0.09827003628015518, 0.044557783752679825, -0.08195032179355621, -0.048596885055303574, -0.1447535902261734, -0.0496906116604805, -0.017658883705735207, 0.000641689810436219, 0.10285035520792007, -0.19098147749900818, -0.05805042013525963, 0.10594042390584946, 0.017387844622135162, 0.10578223317861557, 0.1993407905101776, -0.14257504045963287, 0.11263469606637955, 0.37161126732826233, -0.2648254334926605, -0.21178704500198364, 0.17377610504627228, 0.32365095615386963, 0.28015008568763733, 0.17406943440437317, -0.41972121596336365, 0.1454336941242218, 0.36102962493896484, -0.3793688416481018, -0.07079014182090759, 0.036286965012550354, 0.16328445076942444, -0.3233763873577118, -0.00694106612354517, -0.47659796476364136, -0.08150699734687805, 0.17176103591918945, 0.018915219232439995, 0.19983424246311188, 0.3517715036869049, 0.29515838623046875, 0.08225100487470627, 0.18540966510772705, 0.006972052156925201, -0.3620053231716156, -0.3676731586456299, 0.056432563811540604, -0.2289929986000061, 0.19208702445030212, 0.24728040397167206, 0.4864753484725952, 0.04962534457445145, 0.2944595217704773, 0.1256117969751358, -0.37551140785217285, -0.04804607108235359, 0.19253301620483398, 0.041565701365470886, -0.05419337749481201, -0.028711797669529915, -0.14853252470493317, 0.24669162929058075, 0.17934934794902802, -0.15066705644130707, 0.10887135565280914, -0.34441518783569336, 0.3730902075767517, 0.13474398851394653, 0.1367444545030594, -0.20375153422355652, -0.2137482911348343, 0.1487835794687271, 0.08612324297428131, -0.016804683953523636, 0.13968724012374878, -0.17571410536766052, 0.14559215307235718, -0.21760277450084686, -0.04828716441988945, -0.0622873418033123, -0.11129424721002579, -0.08942397683858871, -0.22918647527694702, 0.08046302199363708, -0.3599097728729248, -0.14248913526535034, 0.2690556049346924, -0.30354440212249756, -0.26108095049858093, -0.18348470330238342, -0.26057448983192444, -0.4201669991016388, 0.2348456084728241, 0.23944860696792603, -0.059993840754032135, -0.05858374014496803, -0.15347202122211456, 0.23534853756427765, -0.051183752715587616, 0.1008584201335907, 0.15824370086193085, -0.25415945053100586, -0.2619539201259613, -0.014375726692378521, 0.08558143675327301, -0.19974064826965332, 0.08618266135454178, 0.20155879855155945, 0.15815132856369019, 0.04656687751412392, 0.20108315348625183, 0.24149537086486816, -0.12993218004703522, -0.34803506731987, 0.011453554965555668, 0.3009178340435028, -0.3384581208229065, 0.2188223898410797, 0.04064474254846573, -0.3747482895851135, -0.04379308968782425, -0.1197943240404129, -0.07749490439891815, -0.3075166940689087, 0.0280538909137249, 0.18510030210018158, -0.2173449993133545, 0.24197672307491302, -0.10659373551607132, 0.22501534223556519, 0.16118116676807404, -0.04859928414225578, 0.1977144479751587, 0.02114650048315525, 0.044532839208841324, -0.1365002691745758, 0.03748312219977379, 0.05120975524187088, -0.032225776463747025, -0.29115867614746094, 0.08752714097499847, -0.19549474120140076, -0.03242610767483711, 0.11349227279424667, -0.23892071843147278, -0.0940699428319931, -0.8343217968940735, -0.1537313014268875, 0.2131139189004898, -0.025582805275917053, -0.06953239440917969, -0.17944937944412231, 0.1857900321483612, 0.47192704677581787, 0.3845577538013458, -0.16070054471492767, 0.007856633514165878, 0.1573897749185562, 0.2825346887111664, -0.3893294334411621, 0.18177849054336548, 0.6176241636276245, -0.0586077906191349, -0.20004434883594513, -0.19243809580802917, 0.11326941847801208, 0.03697913885116577, 0.08959601074457169, 0.15854430198669434, -0.02498500794172287, -0.029906580224633217, -0.14129595458507538, -0.11571761220693588, 0.09079501777887344, -0.15991440415382385, -0.034667711704969406, -0.3167165517807007, 0.23687700927257538, -0.08895207196474075, 0.2671310305595398, -0.16080796718597412, -0.11400191485881805, 0.2892712950706482, -0.08759503811597824, 0.0757746547460556, 0.04412737861275673, -0.29381054639816284, -0.021148260682821274, 0.2862851917743683, 0.4196797013282776, 0.03963857516646385, 0.2232821136713028, -0.37182000279426575, -0.18966557085514069, -0.1318264901638031, 0.1272186040878296, 0.2573974132537842, -0.033244047313928604, -0.16675041615962982, 0.31194445490837097, 0.1349424123764038, 0.21961845457553864, -0.04228430986404419, -0.056628067046403885, -0.5150180459022522, -0.9760470390319824, 0.27518072724342346, 0.17258182168006897, 0.25571972131729126, 0.34116238355636597, 0.17623832821846008, -0.12767840921878815, 0.20311224460601807, -0.3464972674846649, -0.13461026549339294, 0.0724484845995903, 0.427518755197525, 0.07692614197731018, -0.010523728094995022, -0.09289602935314178, 0.16821233928203583, -0.1339322179555893, -0.019242797046899796, 0.14040450751781464, 0.16852924227714539, -0.22296689450740814, 0.2395721822977066, -0.016211537644267082, -0.08647600561380386, 0.07902733981609344, -0.09326357394456863, 0.05642267316579819, 0.10363008826971054, 0.056915633380413055, -0.03663763403892517, -0.08885307610034943, 0.008848040364682674, -0.06493140757083893, 0.012078819796442986, -0.10740195214748383, 0.2553556263446808, -0.11251118034124374, -0.28112858533859253, 0.0976862981915474, -0.1588563472032547, -0.16788215935230255, 0.07600949704647064, -0.22936710715293884, -0.21681515872478485, -0.11620862036943436, 0.12009686231613159, 0.15709370374679565, -0.20809343457221985, -0.30914029479026794, -0.07393791526556015, -0.05610519275069237, 0.15623855590820312, 0.13754020631313324, -0.01800207793712616, 0.015620105899870396, -0.02858552522957325, 0.001251637819223106, 0.10567656904459, 0.15335962176322937, -0.3486761152744293, 0.029839009046554565, 0.14064347743988037, -0.15716475248336792, 0.06152476370334625, 0.1864212304353714, -0.030850596725940704, -0.04605654254555702, -0.1760588437318802, 0.016522228717803955, -0.08706530928611755, 0.126909077167511, -0.060276348143815994, -0.328612357378006, -0.2419276386499405, 0.21472758054733276, -0.36113011837005615, -0.06354823708534241, 0.3747120797634125, -0.3122401833534241, 0.032421011477708817, 0.10082392394542694, 0.30477768182754517, -0.33564919233322144, 0.13316893577575684, 0.22679895162582397, -0.16345688700675964, -0.4424063265323639, 0.3232877850532532, 0.0166940800845623, -0.2635352313518524, 0.3835162818431854, -0.09896432608366013, -0.22501230239868164, -0.40696102380752563, 0.040371138602495193, 0.2582232356071472, 0.27209457755088806, -0.03915058448910713, -0.3242241144180298, -0.2883910834789276, 0.03277898579835892, 0.24477805197238922, -0.28835469484329224, -0.06543310731649399, 0.3825737535953522, -0.2404392808675766, 0.3513187766075134, -0.3498441278934479, -0.11632150411605835, 0.024661358445882797, 0.16104452311992645, -0.3774856925010681, -0.10435595363378525, 0.2958948612213135, 0.2995965778827667, 0.08342886716127396, -0.4562258720397949, -0.01598324440419674, 0.2628026604652405, 0.014788199216127396, 0.1387215256690979, 0.15082165598869324, -0.11898242682218552, 0.08679147809743881, -0.06435345858335495, 0.11936848610639572, 0.09703444689512253, -0.10571560263633728, -0.12201759219169617, 0.016985807567834854, -0.12706264853477478, 0.027747271582484245, -0.15137150883674622, 0.3976510465145111, 0.054121118038892746, 0.1668797731399536, -0.07405772060155869, -0.035028908401727676, -0.15904781222343445, 0.04863206669688225, 0.1030057966709137, 0.10514667630195618, -0.2268046736717224, 0.022271549329161644, -0.14185115694999695, -0.01323776412755251, -0.19072669744491577, -0.01877569779753685, -0.2784683108329773, 0.13059420883655548, 0.042891088873147964, -0.13803717494010925, 0.0364319309592247, 0.06962255388498306, 0.19788071513175964, -0.14984092116355896, 0.07844676822423935, -0.05139456316828728, 0.1373864859342575, 0.01640508323907852, -0.1491031050682068, 0.14284580945968628, -0.22492092847824097, 0.36318784952163696, 0.010339321568608284, -0.008523283526301384, 0.20277611911296844, -0.04737183824181557, 0.0434546172618866, 0.051233235746622086, 0.10864845663309097, 0.21387319266796112, -0.2856532633304596, -0.15067017078399658, 0.2080518752336502, 0.05777820572257042, -0.07395710051059723, 0.10455352813005447, -0.12120815366506577, 0.0026021709199994802, -0.20508445799350739, 0.3684253394603729, 0.06578689813613892, -0.07025164365768433, 0.13472674787044525, 0.025320187211036682, -0.31228750944137573, 0.15779522061347961, 0.07372426241636276, 0.2355223149061203, -0.26896947622299194, 0.049095965921878815, 0.021936791017651558, -0.12076051533222198, 0.06301507353782654, 0.29345405101776123, -0.24437394738197327, -0.028963984921574593, 0.28489428758621216, -0.001483525731600821, 0.10942850261926651, 0.021957464516162872, 0.4841117560863495, -0.08734212070703506, 0.1274220049381256, -0.22196151316165924, -0.1272885650396347, 0.08790717273950577, -0.228075310587883, 0.09229106456041336, -0.06042418256402016, 0.22370249032974243, 0.0620836466550827, 0.30659064650535583, -0.1267170011997223, -0.12097325921058655, 0.31438007950782776, 0.31659266352653503, -0.042076703161001205, 0.0059516471810638905, 0.1318635642528534, -0.17853249609470367, -0.04784900322556496, 0.09002846479415894, 0.07058894634246826, 0.15056748688220978, 0.0052446057088673115, -0.2353002429008484, 0.026704387739300728, 0.08590025454759598, -0.08149972558021545, -0.030444029718637466, -0.28139737248420715, 0.04456846043467522, -0.09074468165636063, 0.13337406516075134, 0.26523706316947937, 0.14004196226596832, -0.015863223001360893, -0.16119618713855743, -0.17947039008140564, -0.03194192796945572, 0.13599038124084473, 0.20649512112140656, -0.06372076272964478, -0.16967961192131042, -0.005545319058001041, 0.14241598546504974, 0.05679980665445328, -0.02295454777777195, -0.639251172542572, -0.2250143438577652, 0.08169244229793549, -0.07696471363306046, -0.07653894275426865, -0.014728929847478867, -0.08809834718704224, -0.23553936183452606, 0.26944708824157715, 0.08935332298278809, 0.09996964782476425, 0.027285777032375336, 0.019024908542633057, -0.05318286642432213, -0.34918951988220215, 0.08367098867893219, 0.04677226394414902, -0.14379975199699402, 0.0006241396768018603, -0.0003886949270963669, 0.006643954198807478, 0.12047921121120453, 0.07299566268920898, -0.3816196620464325, 0.14340661466121674, 0.16413167119026184, 0.020330900326371193, -0.17025330662727356, 0.0047606490552425385, 0.12762875854969025, -0.17618776857852936, -0.03465668112039566, 0.06328888982534409, -0.18620260059833527, 0.1577669382095337, 0.14049121737480164, 0.18434301018714905, -0.10167141258716583, 0.1409887820482254, -0.08406748622655869, 0.022556768730282784, 0.08869437128305435, 0.13032861053943634, 0.023725731298327446, 0.14718151092529297, -0.010193543508648872, 0.0767158791422844, 0.6292832493782043, 0.18448111414909363, -0.12717962265014648, -0.08437497168779373, -0.0917472317814827, 0.05811076611280441, -0.10485275834798813, 0.15372127294540405, -0.18807806074619293, -0.06461358070373535, -0.006305044051259756, 0.1732146143913269, -0.023993298411369324, 0.2659987509250641, -0.123336061835289, -0.12777473032474518, 0.09831331670284271, 0.011577242985367775, -0.20473118126392365, -0.14894695580005646, 0.28104937076568604, 0.012585574761033058, -0.07554949820041656, 0.07080566138029099, -0.10737444460391998, 0.1293495148420334, -0.11046165972948074, 0.3343258202075958, 0.2708391845226288, -0.08707044273614883, 0.2922497093677521, 0.0032682830933481455, -0.050498608499765396, 0.1460491418838501, 0.17276333272457123, -0.15114188194274902, -0.12005121260881424, -0.14791254699230194, 0.06767907738685608, 0.09970695525407791, -0.015826329588890076, -0.12086419761180878, -0.14693593978881836, -0.1838020235300064, 0.19329839944839478, -0.282143235206604, -0.021932806819677353, 0.09479275345802307, 0.07266934216022491, 0.21409408748149872, 0.07491911202669144, -0.0355810672044754, 0.06945746392011642, -0.017199311405420303, -0.31721749901771545, -0.12220839411020279, 0.1522829234600067, 0.07109466940164566, 0.06399782001972198, -0.2731437385082245, -0.28770023584365845, 0.013018426485359669, 0.09707557410001755, 0.17453622817993164, 0.10213812440633774, -0.030321337282657623, -0.1502905637025833, -0.03703939542174339, 0.12925399839878082, -0.04988132417201996, -0.08874864131212234, -0.04152412712574005, -0.14130230247974396, 0.04138244688510895, -0.15804439783096313, 0.1300264447927475, 0.05529892072081566, -0.040344566106796265, -0.04897403344511986, -0.09648359566926956, -0.010989009402692318, 0.02721576951444149, -0.01816149242222309, -0.05366223305463791, 0.023594578728079796, -0.17094124853610992, 0.1840628683567047, 0.12805545330047607, 0.09952103346586227, -0.11373505741357803, 0.08611935377120972, -0.16879665851593018, 0.02400638721883297, -0.06097635254263878, -0.05988530442118645, 0.09773675352334976, -0.21598397195339203, -0.34075936675071716, -0.008992312476038933, -0.1925155222415924, -0.06769419461488724, -0.10362212359905243, 0.057068828493356705, -0.030395353212952614, 0.11552751809358597, -0.13585740327835083, 0.06031389161944389, -0.06915637105703354, 0.4066280424594879, 0.07518051564693451, 0.07551955431699753, -0.14453718066215515, -0.20422737300395966, -0.025107000023126602, 0.11353445798158646, 0.11086668819189072, 0.2655212879180908, 0.09787071496248245, 0.032063961029052734, -0.03981774300336838, 0.1141396090388298, -0.08273933082818985, 0.12244977802038193, 0.06199074909090996, 0.03786728158593178, -0.05436117202043533, 0.11386281996965408, 0.05004464089870453, 0.001682863337919116, -0.12288158386945724, -0.11143279820680618, -0.05246853083372116, -0.09958794713020325, -0.14828085899353027, 0.14229342341423035, -0.045221034437417984, 0.13530002534389496, -0.1614966094493866, -0.00760191073641181, -0.08228427916765213, -0.00427226722240448, 0.06888191401958466, 0.05016820877790451, 0.2605065107345581, 0.1944080889225006, 0.20056119561195374, -0.08767104148864746, -0.08495654165744781, -0.11292155832052231, -0.1423279196023941, -0.10527801513671875, -0.075393445789814, 0.05161668732762337, 0.17605580389499664, -0.0682370737195015, -0.054134953767061234, 0.07880481332540512, 0.05973462387919426, 0.28479668498039246, -0.2320622354745865, 0.09432237595319748, -0.019496919587254524, -0.20026691257953644, 0.18018853664398193, -0.09542930126190186, -0.14016464352607727, 0.1332700252532959, -0.08496472984552383, -0.13167846202850342, -0.042212240397930145, -0.19678236544132233, -0.1339341253042221, -0.3397277593612671, 0.19925077259540558, 0.16891661286354065, -0.03259240463376045, 0.19184339046478271, -0.010246285237371922, -0.08272077888250351, 0.17971421778202057, -0.10166597366333008, 0.2731325328350067, -0.02993876300752163, -0.07659353315830231, -0.1789826899766922, -0.06864546239376068, -0.16042464971542358, 0.17111842334270477, 0.03715471550822258, -0.022147128358483315, 0.09052186459302902, 0.020592089742422104, -0.08286847919225693, -0.3600311875343323, 0.22468407452106476, -0.15892864763736725, 0.09898759424686432, 0.046146366745233536, -0.12015186250209808, 0.06535226851701736, -0.03985720872879028, 0.05818188935518265, -0.05742675065994263, 0.10113890469074249, 0.5921446681022644, 0.11659165471792221, -0.2919765114784241, -0.2378229945898056, -0.012237914837896824, -0.270367830991745, 0.1815256029367447, 0.06595779955387115, 0.014154893346130848, -0.20824693143367767, -0.15067437291145325, -0.20627710223197937, 0.003127624746412039, 0.1261904537677765, -0.030954813584685326, 0.02228020876646042, 0.12947246432304382, 0.128849059343338, 0.019164295867085457, 0.19556023180484772, 0.26258584856987, -0.16537433862686157, 0.13417665660381317, 0.2719666361808777, 0.19074849784374237, 0.004164327401667833, -0.010450192727148533, -0.5270025730133057, -0.3394007086753845, -0.026336045935750008, 0.37552425265312195, 0.02707536332309246, -0.16686776280403137, 0.1338679939508438, -0.006203905213624239, -0.2532561719417572, 0.7566350102424622, -0.10207320004701614, -0.37925973534584045, 0.6047083139419556, 0.2823999226093292, 0.11727284640073776, 0.21031996607780457, 0.13072894513607025, -0.05598224699497223, -0.27505022287368774, -0.31158342957496643, -0.029695216566324234, 0.3663577735424042, 0.14684107899665833, -0.04133637621998787, 0.22389157116413116, -0.1293821930885315, -0.26218244433403015, 0.035397909581661224, -0.09028536826372147, 0.030528776347637177, 0.0784028172492981, -0.04536425322294235, 0.015545758418738842, 0.11916688829660416, -0.025277189910411835, -0.3067217469215393, 0.06384114921092987, 0.62109375, 0.10908382385969162, -0.19324082136154175, 0.07000958919525146, 0.18228773772716522, -0.07857276499271393, 0.4494208097457886, 0.04714066535234451, 0.22503741085529327, -0.30775946378707886, -0.08300904184579849, -0.28984376788139343, 0.14161263406276703, -0.0429779514670372, 0.04991486296057701, -0.3002273142337799, -0.20302164554595947, 0.0400327704846859, -0.1522030532360077, -0.13883133232593536, -0.04306856542825699, -0.007313659880310297, 0.4155248999595642, 0.20084607601165771, -0.01712106727063656, -0.012224558740854263, 0.17113982141017914, -0.21990634500980377, -0.19485948979854584, -0.10779736936092377, 0.22961749136447906, 0.07838981598615646, 0.21907436847686768, 0.053864736109972, -0.07115071266889572, 0.12395858764648438, -0.08230090141296387, 0.09262461215257645, -0.048909470438957214, 0.0007875683368183672, -0.021376287564635277, -0.05241958796977997, 0.015278944745659828, -0.041667964309453964, 0.12667138874530792, -0.25525444746017456, -0.05152098834514618, 0.22240403294563293, -0.2323807030916214, 0.12699396908283234, -0.0876358300447464, -0.010553441010415554, -0.07470083236694336, -0.017053933814167976, -0.09349973499774933, 0.06131274998188019, -0.15058280527591705, 0.14910359680652618, 0.14785435795783997, -0.10048723965883255, 0.022800125181674957, -0.13570120930671692, 0.017361419275403023, 0.15620625019073486, 0.06890147924423218, 0.0939384177327156, -0.2697383761405945, -0.03872652351856232, 0.22050683200359344, 0.0566517636179924, -0.17690247297286987, -0.029803920537233353, -0.010119934566318989, -0.06408407539129257, -0.08288337290287018, -0.09329567104578018, 0.04247386381030083, 0.2407277375459671, 0.007579869590699673, 0.012033537030220032, -0.30166760087013245, 0.3404026925563812, 0.07112405449151993, 0.0024900988209992647, -0.034442175179719925, 0.06109856814146042, 0.05739755183458328, -0.29134586453437805, 0.2535616159439087, -0.08480780571699142, -0.1237073466181755, 0.0785684585571289, 0.030413918197155, -0.011325781233608723, 0.1714928299188614, -0.0726223960518837, 0.3163432776927948, -0.2802598178386688, 0.03801968693733215, 0.24463480710983276, 0.007525665685534477, 0.17536026239395142, 0.17817260324954987, -0.19471973180770874, -0.02860608696937561, -0.19292280077934265, 0.26449331641197205, 0.08286257833242416, -0.15141208469867706, -0.015544272027909756, -0.08563395589590073, -0.16033855080604553, 0.10873443633317947, -0.019016209989786148, -0.037123311311006546, 0.09190154820680618, -0.5616524815559387, 0.41477587819099426, 0.09674567729234695, 0.05490056052803993, 0.028275910764932632, 0.01913115568459034, -0.06550347805023193, -0.274626761674881, 0.042966850101947784, -0.017875613644719124, 0.14868582785129547, -0.14171546697616577, -0.4977455735206604, -0.11018788814544678, -0.09067931026220322, -0.04236834868788719, 0.24371753633022308, 0.07889887690544128, -0.220431387424469, 0.11285088211297989, 0.03733692690730095, -0.03972799703478813, 0.028913240879774094, 0.0913470983505249, -0.07727614790201187, 0.09316691011190414, 0.016240471974015236, 0.1937781274318695, -0.0402655266225338, -0.05026775598526001, 0.06943891197443008, 0.023628028109669685, 0.013464950025081635, 0.18118984997272491, -0.013691257685422897, -0.1332506537437439, -0.09744375199079514, -0.09883522242307663, -0.015558152459561825, 0.14532481133937836, -0.08743297308683395, 0.042437803000211716, -0.27482789754867554, 0.04531795158982277, 0.11394733190536499, -0.05969201773405075, 0.12646523118019104, 0.10854639112949371, -0.11235411465167999, -0.03765054792165756, 0.08214019238948822, -0.30073317885398865, -0.15426911413669586, -0.08297958225011826, -0.32873257994651794, -0.043565891683101654, -0.13506776094436646, 0.2525610029697418, 0.04680415242910385, 0.018692806363105774, -0.449871689081192, -0.18087972700595856, -0.21983389556407928, 0.2565164864063263, 0.24528230726718903, 0.49112191796302795, -0.058187954127788544, 0.19794149696826935, 0.14859966933727264, 0.4116407334804535, 0.5704736709594727, 0.3147151470184326, -0.13566814363002777, 0.20618011057376862, 0.34602633118629456, 0.08027587085962296, -0.4285600185394287, 0.0105868149548769, -0.34404245018959045, -0.30567920207977295, -0.6106842160224915, 0.09186941385269165, -0.39208048582077026, -0.2761634588241577, -0.23621529340744019, 0.061476707458496094, 0.010107530280947685, 0.07232755422592163, 0.21201105415821075, 0.2571478486061096, -0.10622789710760117, 0.2554587125778198, -0.02574039436876774, 0.054287560284137726, 0.3643976151943207, 0.4791669249534607, 0.14906959235668182, -0.2700548470020294, -0.0003592455177567899, -0.14856235682964325, -0.017861275002360344, -0.25033989548683167, -0.0890253484249115, 0.031811535358428955, 0.07024375349283218, 0.20538727939128876, 0.1048278659582138, 0.2388400137424469, 0.15117019414901733, 0.10430878400802612, 0.057339053601026535, 0.033677197992801666, -0.1367150992155075, 0.07850281149148941, 0.19155269861221313, 0.12454076111316681, -0.0807514488697052, -0.008961683139204979, 0.34158599376678467, 0.09469033032655716, 0.0906420424580574, 0.12383996695280075, -0.018112443387508392, -0.4207199811935425, -0.20739702880382538, 0.13612815737724304, 0.3685436248779297, -0.6318588256835938, 0.47720009088516235, -0.7263453602790833, -0.39000841975212097, -0.36948391795158386, 0.63871830701828, -0.8177961111068726, -0.4766339361667633, -1.128981351852417, 0.300496369600296, -1.055578589439392, 0.36280009150505066, -0.8988948464393616, -0.24098753929138184, -0.060000739991664886, 0.013937847688794136, 0.28275835514068604, 0.3334878087043762, -0.2155170887708664, -0.12397104501724243, 0.06633678823709488, -0.20149140059947968, -0.12219883501529694, 0.10481982678174973, 0.3202398717403412, -0.38438352942466736, 0.12762483954429626, 0.010110912844538689, -0.18449360132217407, -0.11805836111307144, 0.08475744724273682, -0.061591241508722305, 0.007754172198474407, -0.1184588223695755, 0.14208553731441498, 0.06345152109861374, -0.2422107607126236, 0.019614288583397865, -0.05718229338526726, 0.1247841939330101, 0.4517160654067993, -0.11731512099504471, -0.20183521509170532, 0.0932343602180481, 0.18986114859580994, -0.08821699023246765, 0.057488661259412766, 0.03232671320438385, -0.07008014619350433, 0.040433887392282486, 0.297480970621109, -0.04721541702747345, -0.05687669292092323, -0.11996864527463913, 0.14713530242443085, -0.22285473346710205, -0.15047632157802582, -0.09153012186288834, -0.08620484918355942, 0.06741316616535187, 0.15704414248466492, 0.117491215467453, 0.044377829879522324, -0.12932270765304565, -0.16758841276168823, -0.22702184319496155, 0.12622851133346558, -0.07845893502235413, -0.07742061465978622, -0.12451118975877762, 0.014267685823142529, 0.28573477268218994, 0.3271327018737793, -0.15232966840267181, -0.27011698484420776, 0.001989289652556181, -0.0237545445561409, 0.09810647368431091, -0.07928997278213501, -0.06166169419884682, -0.08190546184778214, 0.10387799143791199, -0.3667731285095215, 0.14052344858646393, 0.2053219974040985, 0.011694783344864845, 0.03225165978074074, -0.07399812340736389, 0.32663533091545105, 0.026305366307497025, -0.1373750865459442, -0.12491697818040848, -0.3712516129016876, -0.07320097088813782, -0.050165265798568726, -0.2778717577457428, -0.417970210313797, 0.00930341798812151, 0.13444586098194122, -0.011141501367092133, -0.0404726080596447, -0.1162463128566742, 0.3471437394618988, -0.11954635381698608, -0.31422361731529236, -0.23644688725471497, -0.28756824135780334, 0.1334609091281891, 0.07598984986543655, 0.21561136841773987, -0.2188325822353363, 0.09024283289909363, -0.0702100470662117, 0.12414128333330154, 0.02423473633825779, -0.3676241636276245, -0.03612425550818443, 0.19981451332569122, -0.022166237235069275, -0.2067999243736267, 0.1569276750087738, 0.12402448803186417, 0.004324601963162422, -0.19040153920650482, 0.3631114363670349, 0.19021467864513397, 0.01830541156232357, -0.08391033858060837, -0.02548133209347725, -0.05771445482969284, 0.034351203590631485, -0.11453557759523392, 0.07937701046466827, 0.07191236317157745, 0.20376960933208466, -0.2543480396270752, -0.030205052345991135, 0.06091005355119705, 0.1623288244009018, 0.13296760618686676, -0.045397114008665085, 0.010223422199487686, 0.15416072309017181, -0.06168428808450699, -0.12168466299772263, -0.15648528933525085, -0.09981713443994522, -0.0729922354221344, -0.17282141745090485, -0.07809703797101974, -0.0891445204615593, 0.49096617102622986, -0.08827146887779236, -0.20735374093055725, -0.020205408334732056, -0.1620817631483078, 0.11841516941785812, -0.21072617173194885, -0.023295816034078598, -0.21694962680339813, 0.11081738024950027, 0.014919497072696686, 0.025467852130532265, 0.1701475828886032, -0.07023519277572632, -0.10781383514404297, 0.12490063160657883, 0.0670420378446579, 0.3505266308784485, 0.09576411545276642, 0.061343707144260406, 0.13484233617782593, -0.09902939200401306, -0.2656041085720062, -0.08616825938224792, -0.13606621325016022, 0.20318813621997833, 0.2439814656972885, 0.012696978636085987, 0.009578453376889229, 0.002647646702826023, 0.1325124353170395, 0.12924537062644958, -0.24669060111045837, 0.2773008942604065, 0.1133902296423912, -0.02068149670958519, 0.04103324934840202, 0.18953701853752136, 0.13830958306789398, 0.1591631919145584, -0.10140585899353027, -0.026058822870254517, 0.06697452068328857, -0.03714599832892418, 0.08146987855434418, -0.03048231266438961, -0.13323016464710236, 0.08563872426748276, 0.23679789900779724, -0.1365157812833786, 0.11003151535987854, -0.34913381934165955, 0.06508752703666687, -0.1374412626028061, -0.10522535443305969, -0.24789471924304962, -0.23040135204792023, 0.14328956604003906, 0.006271106190979481, 0.043266452848911285, -0.02496049553155899, 0.2014014720916748, -0.13323457539081573, -0.18812674283981323, -0.09443032741546631, -0.1701529175043106, 0.027544109150767326, -0.2037421315908432, 0.08372229337692261, -0.09506531059741974, 0.1301746517419815, 0.12094040215015411, -0.2546517550945282, -0.17224539816379547, -0.3909926414489746, -0.14774462580680847, -0.07475326955318451, 0.0887996181845665, 0.12541192770004272, 0.23674078285694122, 0.07628322392702103, -0.11018574237823486, 0.11060525476932526, 0.23608167469501495, 0.03762342780828476, -0.1587998867034912, -0.05107579380273819, 0.5525927543640137, 0.1162111908197403, -0.2517053782939911, -0.17815235257148743, 0.003432400757446885, 0.24770963191986084, 0.025380782783031464, -0.010688169859349728, 0.1899898648262024, -0.33306366205215454, -0.017518041655421257, -0.11798437684774399, 0.3420252799987793, 0.31558194756507874, 0.1549779623746872, 0.16459538042545319, -0.2952721118927002, -0.1124943196773529, 0.08617454022169113, -0.3111738860607147, 0.039323996752500534, -0.16863717138767242, -0.060091108083724976, 0.3270944654941559, -0.2556200325489044, 0.5183019638061523, 0.09383244812488556, 0.09467568248510361, 0.1347760409116745, -0.3269146978855133, -0.2332339733839035, -0.009978773072361946, 0.17124366760253906, 0.050991520285606384, -0.2647915482521057, -0.34601882100105286, 0.10111095011234283, 0.45345360040664673, 0.21201036870479584, -0.011305421590805054, 0.12913911044597626, 0.17581431567668915, -0.3812717795372009, 0.10386525094509125, -0.27434295415878296, -0.034440863877534866, -0.2359379529953003, -0.09410557150840759, -0.24803426861763, -0.19550372660160065, -0.4608911871910095, -0.19202201068401337, -0.1819138526916504, -0.15452590584754944, 0.0035973081830888987, 0.006866516079753637, -0.1384831815958023, -0.1651800274848938, -0.03647191822528839, 0.019229628145694733, -0.006642501801252365, -0.21831633150577545, 0.0114747928455472, 0.005596016068011522, -0.051717277616262436, -0.2274836152791977, -0.09293482452630997, 0.008141053840517998, 0.37059882283210754, 0.2202620953321457, -0.20319868624210358, -0.12113365530967712, 0.1306595355272293, 0.17165379226207733, 0.17502941191196442, 0.010709566064178944, -0.10309658944606781, -0.5477066040039062, -0.26243847608566284, -0.12217535078525543, -0.2833166718482971, -0.10901497304439545, -0.004985286854207516, -0.06146221607923508, -0.12586867809295654, 0.4285357892513275, -0.0662422701716423, 0.11613337695598602, 0.0003435944381635636, 0.21823498606681824, 0.057484228163957596, -0.11772041022777557, 0.08977439999580383, -0.03266987204551697, 0.09337381273508072, 0.03902585804462433, -0.19010230898857117, 0.116908960044384, -0.0019722222350537777, -0.006349833216518164, -0.14736506342887878, 0.09143959730863571, 0.12037544697523117, 0.20963603258132935, -0.04783545434474945, -0.15503185987472534, -0.07656219601631165, 0.027372153475880623, -0.2040414661169052, -0.05790884420275688, 0.24870425462722778, 0.25771674513816833, -0.4362354278564453, 0.15852965414524078, -0.2563932538032532, 0.20611746609210968, -0.055127907544374466, -0.09465513378381729, -0.1179547905921936, 0.021968288347125053, -0.00780858239158988, -0.07072770595550537, 0.12590071558952332, 0.06841830909252167, -0.04233093187212944, 0.15168562531471252, 0.12066182494163513, 0.2502692937850952, -0.057127755135297775, 0.004228620324283838, 0.002641506027430296, -0.23508532345294952, 0.11373025923967361, 0.03788379952311516, -0.0015089110238477588, -0.04741879925131798, -0.00644005136564374, -0.09344751387834549, 0.5466264486312866, 0.26743075251579285, 0.1592569649219513, -0.6236399412155151, -0.12704966962337494, 0.1711404174566269, 0.1316547989845276, 0.05732076242566109, 0.09336791187524796, 0.06774777919054031, -0.0567178837954998, 0.05753390118479729, 0.04202594608068466, 0.13772299885749817, -0.25948622822761536, 0.050800539553165436, 0.13400021195411682, -0.1538986712694168, 0.014385418966412544, -0.07153478264808655, 0.11478498578071594, -0.025955326855182648, -0.13581033051013947, 0.07531223446130753, 0.3258746862411499, 0.20979084074497223, 0.0590621754527092, 0.0791725292801857, -0.09071046113967896, -0.12739796936511993, -0.13126733899116516, 0.074635349214077, 0.15885859727859497, 0.10257347673177719, -0.1307297945022583, 0.13681666553020477, 0.2822292447090149, 0.27603238821029663, -0.31820446252822876, -0.026169821619987488, 0.032590482383966446, 0.13578484952449799, 0.15160278975963593, 0.07193204760551453, -0.1980840563774109, -0.07115805149078369, 0.08175303041934967, 0.16406220197677612, -0.26551100611686707, -0.05765369161963463, -0.2973352074623108, -0.030372148379683495, -0.07252005487680435, -0.054350003600120544, -0.05992026627063751, 0.13513898849487305, -0.37703970074653625, -0.1740913838148117, 0.043228697031736374, 0.286509245634079, 0.15643717348575592, -0.13339084386825562, 0.11248333007097244, -0.02222800813615322, -0.21261699497699738, -0.07732674479484558, -0.14237837493419647, -0.051340751349925995, -0.14489580690860748, 0.16030631959438324, 0.3373306393623352, 0.3289269208908081, 0.05131550133228302, -0.029674790799617767, -0.112184077501297, 0.028576290234923363, 0.30347388982772827, 0.1105172261595726, 0.10930360853672028, -0.03226959705352783, -0.27882346510887146, -0.07585206627845764, -0.05201725661754608, 0.3787699341773987, 0.26539307832717896, 0.22794774174690247, -0.09891486912965775, -0.05971716344356537, -0.24706250429153442, 0.3250342309474945, -0.028067762032151222, -0.06686047464609146, 0.17960293591022491, -0.03995275869965553, 0.018614940345287323, 0.05947672948241234, -0.08883459120988846, 0.15551340579986572, -0.03518180176615715, -0.06066197529435158, -0.1425647884607315, 0.007643356453627348, 0.04713243246078491, -0.10551789402961731, -0.26169517636299133, 0.019282875582575798, -0.07693047821521759, 0.13553109765052795, 0.09167882055044174, -0.020087899640202522, 0.09564478695392609, 0.20581334829330444, -0.07044007629156113, 0.186003640294075, 0.33246949315071106, 0.023860236629843712, -0.238861545920372, -0.033232349902391434, 0.32185617089271545, 0.028492506593465805, 0.22893394529819489, -0.04822162538766861, -0.1341293901205063, -0.1599113494157791, 0.08903773874044418, -0.004365886095911264, -0.21422851085662842, 0.02523208037018776, -0.05951397120952606, 0.12375786900520325, 0.10744839906692505, 0.0577450729906559, 0.18341277539730072, 0.017528334632515907, 0.06605388224124908, -0.0020023947581648827, -0.07430153340101242, 0.20834405720233917, 0.46347880363464355, -0.12753456830978394, -0.11058367043733597, -0.17050309479236603, 0.0650077760219574, -0.08346245437860489, -0.6755828261375427, 0.3771027624607086, 0.06425841152667999, 0.2046603560447693, -0.40090471506118774, -0.033652883023023605, 0.026362719014286995, -0.047846902161836624, 0.016456734389066696, -0.06729946285486221, 0.15341368317604065, 0.05622772499918938, -0.10738454014062881, -0.08182511478662491, -0.08352147787809372, -0.0011826342670246959, 0.08786290138959885, 0.10730711370706558, 0.01673886738717556, 0.04493936523795128, 0.0020229737274348736, -0.14940312504768372, 0.016595909371972084, -0.2676042914390564, -0.17014393210411072, -0.20678576827049255, -0.10614078491926193, -0.24070541560649872, -0.018708577379584312, 0.03279948979616165, -0.0452730730175972, -0.2841368019580841, -0.1910134106874466, 0.12475080043077469, 0.23660480976104736, -0.1488465666770935, -0.04473694786429405, 0.23205411434173584, 0.12210617959499359, 0.2913634181022644, -0.014373724348843098, 0.09065712243318558, -0.16307786107063293, -0.03791698068380356, 0.03573701158165932, 0.10429201275110245, -0.007138661574572325, 0.28667792677879333, -0.13163664937019348, 0.029566379263997078, -0.008090909570455551, 0.045928895473480225, -0.0980663076043129, -0.3800298273563385, -0.2673293650150299, -0.025900444015860558, 0.09836123883724213, 0.058181606233119965, -0.108759805560112, 0.06038634851574898, 0.16445475816726685, -0.06605149805545807, -0.07197455316781998, 0.25031736493110657, 0.16701844334602356, -0.045441221445798874, 0.011334806680679321, 0.16351178288459778, 0.07385720312595367, -0.004292401485145092, -0.1733083426952362, 0.06578276306390762, 0.20912136137485504, -0.07016090303659439, 0.1870175153017044, -0.014691667631268501, -0.24058103561401367, -0.3268568217754364, -0.3286639153957367, 0.004648094531148672, -0.07832179218530655, -0.02576288767158985, -0.13177452981472015, -0.7613266706466675, 0.03156635910272598, -0.2029876708984375, -0.008926181122660637, -0.011367091909050941, 0.16609148681163788, -0.11547764390707016, 0.0535539872944355, 0.06523261219263077, -0.09481794387102127, -0.32070422172546387, -0.03145904466509819, -0.1521083414554596, -0.03497478738427162, 0.011308868415653706, 0.2066616415977478, -0.1544262021780014, -0.03897283226251602, 0.2608051598072052, 0.11460531502962112, -0.055566541850566864, 0.09797562658786774, 0.14414075016975403, 0.26964497566223145, -0.08045421540737152, 0.2446395307779312, 0.021082574501633644, 0.01861483044922352, 0.38054051995277405, -0.030636174604296684, -0.1968834549188614, -0.09182114899158478, 0.11794696003198624, -0.12216675281524658, 0.33051010966300964, -0.07912807911634445, -0.17863957583904266, -0.20709502696990967, 0.26882195472717285, -0.3485586941242218, -0.08138281852006912, 0.15350666642189026, 0.014205786399543285, 0.14711852371692657, -0.30968111753463745, -0.034802842885255814, 0.05898858606815338, -0.030929703265428543, 0.6678116321563721, -0.20709280669689178, 0.2179621160030365, -0.005875605624169111, 0.5658457279205322, -0.34826499223709106, 0.45489323139190674, -0.22685667872428894, -0.05304747074842453, -0.033460862934589386, 0.052222367376089096, -0.07809587568044662, 0.32981547713279724, -0.018271563574671745, -0.039505522698163986, -0.2510271370410919, -0.10183660686016083, -0.1114458441734314, -0.05744055286049843, 0.005309837404638529, -0.0292527936398983, 0.12804068624973297, -0.09645560383796692, 0.039462536573410034, 0.05107580125331879, 0.0002487209567334503, -0.10838829725980759, -0.18935462832450867, 0.0026060703676193953, -0.1356118768453598, 0.17609255015850067, -0.052474964410066605, -0.1271304041147232, -0.7048102021217346, 0.03443611040711403, 0.011749474331736565, 0.11054813116788864, -0.07280264049768448, 0.12073225528001785, 0.05572589486837387, -0.054250944405794144, 0.045039448887109756, 0.15979179739952087, 0.08116722106933594, 0.1509448140859604, -0.0012337052030488849, 0.13835644721984863, 0.17810730636119843, 0.5123385787010193, -0.04292990267276764, 0.019967474043369293, -0.2120669037103653, -0.09214130789041519, -0.381915420293808, -0.4108355641365051, 0.06131500378251076, 0.05523788183927536, 0.05676098167896271, 0.140232115983963, 0.1062295064330101, 0.5123998522758484, 0.03496609628200531, 0.008043312467634678, -0.2350597381591797, 0.1573338806629181, -0.09230868518352509, 0.04376192390918732, -0.015736769884824753, -0.06142173707485199, 0.23437297344207764, 0.1496795415878296, -0.11347569525241852, 0.020244596526026726, -0.0070594605058431625, 0.07604748010635376, 0.06278010457754135, -0.0490129329264164, -0.12431395798921585, -0.020497361198067665, 0.10791908204555511, 0.12092074006795883, 0.11020713299512863, 0.20909789204597473, 0.1630592793226242, -0.12663112580776215, -0.08865755796432495, -0.3100358843803406, -0.09806877374649048, -0.18951676785945892, -0.11060746759176254, 0.0036755430046468973, -0.19236218929290771, 0.08298879861831665, 0.0860602855682373, -0.06708364933729172, -0.003078468842431903, -0.02576754055917263, 0.09183260798454285, -0.08776813745498657, 0.06344469636678696, 0.24773775041103363, 0.023549798876047134, 0.024475542828440666, 0.1367618590593338, -0.044920459389686584, -0.0670672282576561, -0.2569814920425415, -0.0392058864235878, -0.6199747920036316, 0.0132118696346879, -0.1065446212887764, 0.5986583828926086, -0.26239868998527527, -0.2674435079097748, -0.0346386581659317, -0.21920140087604523, 0.13844001293182373, 0.06572238355875015, 0.07237787544727325, 0.10492391884326935, 0.009562649764120579, 0.06796469539403915, 0.04622216150164604, 0.06646589934825897, 0.054949164390563965, 0.05480613932013512, 0.23333469033241272, -0.1767180860042572, 0.09603078663349152, -0.015025794506072998, 0.4609181582927704, -0.1535768061876297, 0.15653590857982635, 0.0456322580575943, -0.170196071267128, 0.06015908345580101, 0.15639276802539825, 0.0009244985412806273, -0.04539865627884865, 0.06193002313375473, -0.09085913002490997, -0.019931184127926826, -0.03841794654726982, 0.1045243889093399, -0.0157635398209095, -0.12364525347948074, 0.3181381821632385, 0.10515783727169037, 0.04017201066017151, 0.0869598537683487, 0.1854552924633026, -0.14661458134651184, 0.19453132152557373, 0.1058347076177597, -0.2126864492893219, -0.122796930372715, -0.8159988522529602, 0.46062320470809937, -0.09559396654367447, 0.33855900168418884, -0.41452479362487793, -0.1436677873134613, 0.07953014224767685, 0.17889410257339478, 0.20670124888420105, -0.36332592368125916, -0.07558948546648026, 0.00937576312571764, 0.21881511807441711, -0.06907477974891663, 0.09307088702917099, -0.18252317607402802, 0.02898370660841465, -0.002426168182864785, -0.20601192116737366, 0.017910905182361603, 0.11623657494783401, -0.18879707157611847, -0.34670233726501465, -0.09619486331939697, 0.037274084985256195, 0.03208744153380394, 0.14288175106048584, -0.07179471105337143, -0.3363002836704254, -0.18156492710113525, -0.027624431997537613, 0.18573343753814697, -0.11646822094917297, -0.2428368628025055, -0.023735767230391502, -0.11234129965305328, 0.3781108260154724, 0.15113727748394012, -0.01712593249976635, -0.05396610125899315, -0.0869501382112503, -0.036714211106300354, 0.21947799623012543, 0.12586502730846405, 0.13875959813594818, -0.05397351086139679, 0.057365838438272476, 0.13031405210494995, -0.028599709272384644, -0.2833620011806488, 0.0023983195424079895, -0.1357405036687851, 0.07084867358207703, -0.07557518035173416, 0.13082066178321838, -0.006203445140272379, 0.2881462574005127, 0.40871140360832214, 0.3445184528827667, -0.1636742502450943, -0.03802315890789032, -0.08895665407180786, 0.09620581567287445, -0.2456781268119812, -0.049708615988492966, 0.04563681781291962, 0.13959470391273499, 0.24152985215187073, 0.1331740915775299, -0.03896741569042206, 0.22143986821174622, 0.0236783679574728, -0.2046101689338684, 0.1500692069530487, -0.14504270255565643, 0.12690430879592896, -0.08978085964918137, -0.14255903661251068, -0.2424868941307068, -0.30258938670158386, 0.08599550276994705, 0.2137892097234726, 0.06052812188863754, -0.10915299504995346, 0.9308409094810486, 0.4970631003379822, 0.16735321283340454, -0.10299354791641235, -0.08485592901706696, 0.31707677245140076, -0.32285892963409424, 0.12456075102090836, 0.014675724320113659, -0.061469078063964844, -0.057478781789541245, 0.0985141173005104, -0.02232103981077671, 0.16678287088871002, -0.10602085292339325, 0.07450330257415771, -0.14354953169822693, 0.08496188372373581, -0.016692088916897774, -0.09447382390499115, 0.04323941096663475, 0.07366900146007538, -0.2335091084241867, -0.029814187437295914, 0.03847605735063553, 0.006823364179581404, -0.13917899131774902, -0.19009347259998322, -0.16743184626102448, 0.19875182211399078, -0.10827989876270294, 0.14083340764045715, 0.09796315431594849, 0.0841587632894516, 0.13608288764953613, -0.0753440111875534, 0.06522894650697708, 0.00099600397516042, -0.11216011643409729, 0.12323374301195145, 0.16971668601036072, -0.07068558782339096, -0.026443861424922943, -0.025273257866501808, 0.05378353223204613, 0.07036047428846359, -0.09051893651485443, 0.09114626049995422, -0.16493503749370575, -0.11990974843502045, -0.056728117167949677, -0.04735469073057175, -0.008947521448135376, 0.12771278619766235, -0.29005882143974304, 0.00445581367239356, -0.0013063258957117796, 0.08479554951190948, 0.0945201963186264, 0.020697638392448425, -0.35728776454925537, 0.10544529557228088, 0.03328890725970268, 0.16133490204811096, -0.16380833089351654, -0.007780485786497593, -0.030927715823054314, 0.09785199165344238, 0.11219574511051178, -0.16925905644893646, 0.08130213618278503, -0.06216724216938019, -0.21312540769577026, -0.0055552455596625805, 0.08217467367649078, -0.29909542202949524, -0.07229676097631454, 0.03009645827114582, -0.1270122230052948, -0.10282786190509796, -0.2457631528377533, 0.03117583692073822, -0.3670327365398407, -0.11920700967311859, -0.22254203259944916, 0.03395147621631622, 0.022435355931520462, 0.2166784256696701, -0.041369274258613586, -0.06254436075687408, -0.1299765557050705, -0.12455696612596512, 0.12874454259872437, 0.3951050341129303, 0.014799628406763077, -0.005397862754762173, 0.03590765967965126, 0.0258456002920866, -0.015278237871825695, -0.13535039126873016, 0.04910420626401901, -0.09517395496368408, -0.129489928483963, -0.05648267641663551, 0.04328075796365738, -0.17749999463558197, -0.14488284289836884, 0.10543743520975113, 0.10563073307275772, -0.08519832044839859, -0.09157495945692062, -0.18339906632900238, 0.066083163022995, 0.06184561550617218, 0.005736043211072683, 0.1469438225030899, -0.023402253165841103, 0.34570014476776123, 0.07488636672496796, 0.1678522527217865, -0.018245482817292213, 0.05964861065149307, 0.14814163744449615, 0.003110793884843588, 0.11094354093074799, 0.10919131338596344, 0.16162337362766266, 0.29969650506973267, 0.1967773288488388, -0.010588143020868301, -0.5010959506034851, -0.32864028215408325, -0.06615090370178223, -0.08740483969449997, 0.12657248973846436, -0.04425071179866791, -0.006870830897241831, 0.12258333712816238, 0.11898459494113922, 0.05893004685640335, 0.028074245899915695, -0.13424940407276154, 0.04464748874306679, -0.0538552962243557, 0.04895324259996414, -0.14498959481716156, -0.08941085636615753, -0.04156331717967987, 0.12520073354244232, 0.01981215551495552, -0.20963864028453827, 0.025332370772957802, -0.2763994634151459, 0.07119951397180557, 0.21109433472156525, -0.04943963140249252, 0.38829517364501953, -0.13187119364738464, 0.002223910763859749, -0.19825150072574615, 0.07690834254026413, 0.18652544915676117, 0.21177202463150024, 0.06192660331726074, 0.017142320051789284, -0.08927075564861298, -0.07389407604932785, -0.2259248048067093, -0.36367449164390564, -0.21035698056221008, 0.37583619356155396, 0.1093938872218132, 0.04941120371222496, -0.00801095925271511, -0.17699629068374634, 0.17661535739898682, 0.010801522992551327, 0.011208534240722656, -0.40091726183891296, -0.5345426201820374, 0.7033737301826477, 0.41358882188796997, -0.46670636534690857, 0.03388294577598572, -0.04058515653014183, 0.056413859128952026, 0.34860000014305115, -0.6930748224258423, 1.0358989238739014, 0.6049351096153259, -0.09868671000003815, -0.34978187084198, 0.17790639400482178, -0.7583669424057007, -0.04332520067691803, -0.441349595785141, -0.14786411821842194, 0.21333430707454681, 0.3964255452156067, 0.20846402645111084, 0.2745918333530426, 0.10761676728725433, 0.09097622334957123, -0.044991910457611084, 0.12943965196609497, 0.3071938455104828, -0.29562997817993164, -0.041268642991781235, -0.3589572608470917, -0.12191356718540192, 0.22753584384918213, -0.20123186707496643, 0.20341145992279053, 0.022548411041498184, 0.13572773337364197, 0.2165442258119583, -0.14471010863780975, -0.1161048486828804, -0.21001872420310974, -0.06724296510219574, -0.12105502188205719, -0.050776395946741104, 0.28712743520736694, 0.17937611043453217, 0.4134695827960968, 0.013469011522829533, 0.22877562046051025, -0.2553116977214813, 0.02505030483007431, -0.5251486301422119, -0.09720689803361893, -0.3022044897079468, 0.24277715384960175, -0.5258970856666565, -0.2453952133655548, 0.15364159643650055, -0.2111016809940338, -0.043123919516801834, 0.47840502858161926, -0.048954494297504425, 0.17249120771884918, -0.0027064091991633177, 0.42763781547546387, 0.06324360519647598, -0.34811121225357056, 0.08091073483228683, 0.046199213713407516, 0.39685431122779846, -0.30844950675964355, 0.07676579803228378, 0.11822454631328583, 0.26142093539237976, 0.1946241855621338, 0.2788481116294861, -0.06515417248010635, 0.06659825146198273, 0.028288114815950394, -0.16770003736019135, 0.11945445835590363, -0.27101758122444153, -0.1061873733997345, -0.043724216520786285, 0.3696395456790924, 0.40479013323783875, -0.07731033861637115, 0.03168245032429695, 0.26600053906440735, -0.06575093418359756, -0.19723211228847504, 0.11475849151611328, -0.30970364809036255, -0.2480810284614563, 0.2390790432691574, -0.19899681210517883, 0.07517889887094498, -0.07907013595104218, 0.47626569867134094, -0.32171326875686646, -0.20589159429073334, -0.30743393301963806, 0.5983448028564453, -0.10598684847354889, -0.3214576542377472, -0.14109690487384796, -0.24580854177474976, -0.14566545188426971, 0.16411755979061127, 0.33218157291412354, 0.1535031497478485, 0.14461493492126465, -0.07222630828619003, 0.23920027911663055, 0.26319271326065063, 0.011669422499835491, 0.34200209379196167, -0.37272539734840393, 0.18738049268722534, 0.009270013310015202, -0.3661207854747772, 0.19635528326034546, 0.03833168372511864, -0.2757936120033264, 0.12553462386131287, 0.10486910492181778, 0.052578601986169815, 0.09525708854198456, 0.3460639417171478, 0.40076398849487305, -0.03435487300157547, -0.16770923137664795, 0.013890555128455162, -0.11887580156326294, 0.02178756147623062, -0.13153915107250214, -0.009551269933581352, 0.2959781885147095, 0.08167821913957596, 0.2629498839378357, 0.003981676883995533, 0.1938318908214569, 0.12855874001979828, -0.09004192054271698, -0.245921328663826, 0.29911231994628906, -0.3608538508415222, 0.4473552703857422, 0.31115269660949707, 0.06823606789112091, -0.5414910316467285, -0.043136365711688995, 0.12152978032827377, 0.19135384261608124, 0.04719369858503342, 0.39135587215423584, -0.31682324409484863, -0.11787763237953186, -0.2019105851650238, -0.008959156461060047, 0.33493486046791077, -0.0640224739909172, -0.3411121964454651, -0.03162911534309387, -0.035563137382268906, 0.004096643067896366, 0.29804039001464844, -0.2728048861026764, -0.3761307895183563, 0.18319599330425262, 0.2529454231262207, -0.28813832998275757, 0.2720206677913666, 0.41591915488243103, 0.2947305142879486, -0.2567702531814575, 0.16548140347003937, -0.306548148393631, -0.0016727682668715715, -0.15159974992275238, 0.0557459332048893, -0.14161810278892517, 0.11926671862602234, -0.0025111360009759665, 0.14865919947624207, -0.10123513638973236, -0.4752308428287506, 0.016415037214756012, 0.02194145694375038, -0.3715705871582031, 0.04265735298395157, 0.3125130832195282, 0.03720710799098015, -0.16473600268363953, -0.23065608739852905, 0.2147352695465088, -0.018354732543230057, 0.379905641078949, -0.024713532999157906, 0.13230906426906586, 0.18544989824295044, -0.38193243741989136, -0.31564271450042725, 0.24397584795951843, -0.29634594917297363, -0.44915395975112915, -0.07172200828790665, 0.19360415637493134, -0.43650496006011963, -0.04139203205704689, 0.03799924999475479, 0.11195304244756699, 0.08471042662858963, 0.2246818244457245, -0.4804122745990753, 0.09359410405158997, 0.18682166934013367, 0.18773117661476135, 0.024355988949537277, 0.20350044965744019, -0.19486339390277863, -0.18342915177345276, 0.049070488661527634, -0.08769923448562622, -0.10989446192979813, 0.39390814304351807, -0.2699953317642212, -0.061460502445697784, -0.07785855233669281, -0.5989208221435547, 0.35775768756866455, -0.33689749240875244, -0.2812531590461731, 0.8102524876594543, 0.22431595623493195, -0.32671108841896057, 0.09675998240709305, 0.34877386689186096, -0.299658864736557, -0.1719082146883011, 0.17153026163578033, 0.07916221767663956, 0.23484832048416138, -0.18398605287075043, -0.2309083789587021, -0.10958176851272583, 0.13449084758758545, -0.361913800239563, 0.020560938864946365, 0.5283843874931335, 0.05308661609888077, 0.17118121683597565, 0.06254250556230545, 0.13837803900241852, 0.1881953775882721, -0.326074481010437, -0.17296653985977173, 0.2678280174732208, -0.3695782423019409, -0.16163180768489838, -0.1272985339164734, 0.06514407694339752, -0.08752083778381348, -0.159201979637146, -0.045410893857479095, 0.4170231521129608, 0.514325737953186, 0.1932721585035324, -0.1321294754743576, 0.005289803259074688, -0.295145720243454, -0.0024383245036005974, 0.12045197188854218, 0.06785903126001358, 0.058122679591178894, 0.0286637581884861, -0.2523230016231537, 0.3375697433948517, 0.4209592044353485, 0.13707983493804932, -0.40076345205307007, -0.14228969812393188, 0.003978983033448458, -0.10254594683647156, 0.18077760934829712, 0.24126221239566803, 0.044388365000486374, -0.0837201178073883, 0.032394200563430786, -0.10990238934755325, -0.21652893722057343, 0.040432095527648926, -0.0017383643426001072, -0.15441739559173584, -0.01270954217761755, 0.01808028295636177, 0.1515776813030243, 0.2015722095966339, 0.1656246781349182, 0.3786347210407257, 0.14131177961826324, -0.25699281692504883, -0.4625725746154785, 0.14880932867527008, 0.07287855446338654, 0.05934533849358559, -0.42845630645751953, -0.2872519791126251, -0.2220105528831482, -0.005910969339311123, 0.1374451220035553, 0.08758930116891861, 0.011960119940340519, -0.1327522099018097, 0.18465068936347961, 0.13145758211612701, 0.1802489161491394, -0.195944681763649, 0.1861565113067627, 0.383048951625824, 0.11634784191846848, 0.006601453293114901, -0.16207917034626007, 0.026825526729226112, -0.2776343822479248, -0.0872233659029007, -0.026354456320405006, -0.17299707233905792, -0.22320762276649475, 0.12967216968536377, -0.11208851635456085, -0.06109191104769707, 0.07475057989358902, 0.07416046410799026, -0.3748500645160675, -0.010966905392706394, 0.20483052730560303, 0.3829868733882904, -0.2762909531593323, -0.02609872631728649, -0.1664235144853592, 0.23320911824703217, 0.2159435749053955, -0.3741455674171448, 0.19323775172233582, 0.14017656445503235, 0.06907960027456284, -0.02054695598781109, -0.3176819384098053, 0.06966427713632584, 0.142678901553154, -0.25210100412368774, -0.13362951576709747, 0.1600327044725418, -0.04468968138098717, 0.12689894437789917, 0.1128164753317833, -0.20915807783603668, -0.16282404959201813, -0.01967565529048443, 0.3243599534034729, 0.0826740488409996, -0.2385992556810379, -0.1978495568037033, 0.16812165081501007, 0.2838019132614136, 0.0719863772392273, 0.1008283793926239, -0.16001108288764954, 0.23107783496379852, -0.03558887913823128, -0.37907645106315613, 0.1912713646888733, 0.13546882569789886, -0.23768384754657745, 0.0526234433054924, -0.14891952276229858, -0.2119540572166443, -0.13302212953567505, -0.1560794562101364, 0.2967160940170288, 0.44499602913856506, 0.17497019469738007, -0.37427961826324463, -0.5988832712173462, 0.27652162313461304, 0.2781892716884613, 0.15524902939796448, -0.1272703856229782, -0.3313004970550537, 0.06566570699214935, -0.2370186746120453, -0.1180359274148941, -0.29345571994781494, 0.13085466623306274, 0.02759666182100773, -0.024699125438928604, -0.09568566828966141, -0.19793933629989624, 0.10383810102939606, -0.17502965033054352, -0.088650181889534, 0.3209644556045532, 0.37211352586746216, 0.24009448289871216, 0.12368331104516983, -0.1089264452457428, 0.06160182133316994, -0.18584898114204407, 0.12903334200382233, 0.18556953966617584, 0.13517507910728455, -0.16960661113262177, -0.058703213930130005, -0.19541111588478088, 0.2782999277114868, -0.13759037852287292, -0.2737351059913635, -0.03953787684440613, -0.06357944756746292, -0.2192561775445938, 0.031893014907836914, 0.042281508445739746, 0.03364025428891182, -0.1210072860121727, 0.12329614162445068, 0.3036436140537262, -0.3763456642627716, -0.19538941979408264, -0.4489949643611908, 0.0891217291355133, 0.28622937202453613, -0.1981867402791977, 0.6208577156066895, 0.22808405756950378, -0.07283573597669601, -0.09950029850006104, 0.3038424551486969, 0.32075005769729614, -0.274250864982605, -0.010356809012591839, 0.05918118730187416, 0.08287939429283142, -0.14036451280117035, -0.09135393053293228, 0.18280182778835297, 0.048618681728839874, -0.09219368547201157, -0.1810355931520462, 0.1636914610862732, 0.04942542687058449, -0.1636572778224945, 0.011161182075738907, -0.06685782968997955, -0.11716628819704056, 0.11120764166116714, 0.1291043758392334, -0.11412227153778076, -0.2299794852733612, -0.2525348961353302, -0.008896020241081715, 0.18487326800823212, -0.026803866028785706, 0.258577436208725, -0.13297736644744873, 0.0747724175453186, 0.227174773812294, -0.014023395255208015, -0.06320882588624954, 0.23435598611831665, -0.20553439855575562, 0.0991620272397995, -0.18796756863594055, -0.3020971417427063, -0.19791291654109955, -0.3000607192516327, -0.05285472050309181, -0.019186971709132195, 0.143523707985878, -0.21480832993984222, 0.035010430961847305, 0.09855128079652786, -0.08697441965341568, -0.004677809774875641, -0.07474160194396973, 0.17257829010486603, 0.10381195694208145, -0.04060967639088631, 0.021306082606315613, 0.11688597500324249, -0.03600199520587921, 0.08427548408508301, -0.33672231435775757, -0.0909825935959816, 0.11958960443735123, -0.13518430292606354, 0.0981743261218071, 0.24249586462974548, 0.07757293432950974, -0.3466653525829315, -0.19398233294487, -0.017762620002031326, 0.009855189360678196, 0.027850689366459846, 0.06168670952320099, 0.08729054033756256, -0.18015030026435852, -0.3409613370895386, -0.0021614485885947943, 0.042459383606910706, 0.06234319508075714, -0.011719395406544209, 0.06983587890863419, -0.02176126278936863, -0.07846195995807648, -0.08707252144813538, -0.03154134750366211, 0.002879783743992448, -0.11506359279155731, 0.0627395510673523, -0.009817050769925117, -0.1916327178478241, -0.07458744943141937, 0.07686653733253479, 0.16140924394130707, 0.06772436946630478, -0.25481662154197693, -0.06210775673389435, -0.11997797340154648, -0.10159242153167725, -0.11564787477254868, -0.15224161744117737, -0.08532613515853882, -0.014270148240029812, 0.007153017912060022, 0.1011340394616127, 0.12261921912431717, 0.152706116437912, 0.011756304651498795, -0.1119147464632988, 0.22970688343048096, -0.02012564241886139, 0.045156773179769516, -0.21696697175502777, -0.09436091780662537, 0.05327930301427841, -0.32350724935531616, 0.077550008893013, 0.18124404549598694, 0.04911138117313385, -0.03852688893675804, -0.006079765968024731, 0.04185689613223076, -0.0018935729749500751, -0.10493666678667068, -0.17435233294963837, 0.056845881044864655, -0.07271911948919296, -0.014343404211103916, 0.03907790035009384, -0.08874905854463577, 0.24231576919555664, -0.02905012108385563, 0.0840110257267952, 0.24313870072364807, 0.03374898433685303, -0.0620366670191288, 0.12996812164783478, -0.030624257400631905, -0.04578797519207001, -0.002261730143800378, -0.04144151881337166, -0.05533204600214958, 0.16718687117099762, 0.007120694499462843, 0.15505267679691315, 0.08694623410701752, 0.10647758096456528, 0.06171717867255211, 0.031112566590309143, -0.06291286647319794, -0.10273315757513046, -0.1992875337600708, 0.18773320317268372, 0.06567344814538956, -0.09381232410669327, 0.024586355313658714, -0.018690789118409157, 0.002208020305261016, 0.016315853223204613, -0.18806597590446472, -0.04431026056408882, -0.16792969405651093, -0.09385822713375092, 0.0865197628736496, -0.12561161816120148, -0.13463929295539856, 0.3563348352909088, -0.013279354199767113, -0.09400372207164764, -0.23279868066310883, 0.17487001419067383, 0.12254635989665985, 0.18100303411483765, -0.05633361265063286, -0.030397990718483925, -0.2537895739078522, 0.005293841939419508, -0.03709163889288902, -0.22609497606754303, -0.07893560826778412, -0.021316414698958397, 0.25184929370880127, 0.11536972224712372, 0.11854285001754761, -0.30311399698257446, -0.06209755688905716, 0.07929489761590958, 0.15188618004322052, 0.04585013911128044, 0.06256873905658722, -0.10920664668083191, 0.09573777765035629, -0.12534359097480774, -0.3899618089199066, 0.46553587913513184, -0.029790038242936134, -0.025577252730727196, -0.3734060525894165, 0.3952360451221466, 0.2543620467185974, -1.0855497121810913, 0.13578373193740845, -0.13210515677928925, 0.07936073839664459, -0.1793864220380783, -0.10906513035297394, 0.21782775223255157, -0.0015495180850848556, -0.11127018928527832, -0.3393661081790924, -0.05091996118426323, -0.23996973037719727, 0.07987265288829803, 0.566866397857666, -0.2528945505619049, -0.17017793655395508, -0.016454029828310013, 0.10763745754957199, -0.004039919003844261, -0.12693174183368683, -0.1083664745092392, -0.08748830854892731, 0.23762549459934235, -0.15071508288383484, -0.32267603278160095, -0.5695395469665527, 0.03242066502571106, -0.012880782596766949, -0.11693128198385239, -0.07665187865495682, 0.08825042098760605, -0.02417222410440445, 0.12248403578996658, -0.5043095350265503, -0.07557734102010727, 0.04526104778051376, -0.9091150760650635, 0.26955342292785645, -0.05744687840342522, 0.5000380873680115, 0.05766419321298599, -0.1583384871482849, 0.49668607115745544, 0.021168800070881844, 0.17854158580303192, -0.03202711045742035, 0.21799398958683014, -0.08883492648601532, 0.02368931844830513, 0.18816335499286652, 0.07646343857049942, -0.08588910847902298, -0.016323372721672058, -0.15566055476665497, 0.042537789791822433, 0.04319231957197189, -0.1283070594072342, 0.10518663376569748, 0.006109758745878935, -0.17119264602661133, -0.10504178702831268, -0.1928703486919403, -0.13692927360534668, -0.15254072844982147, -0.1044624075293541, 0.07821410894393921, -0.057079557329416275, -0.09605620801448822, -0.0698341652750969, 0.22443850338459015, -0.07287301868200302, 0.24897710978984833, 0.1454075276851654, 0.02209853194653988, 0.20096834003925323, -0.011353230103850365, -0.1108812764286995, 0.317903995513916, 0.08209919184446335, -0.15111593902111053, -0.19476529955863953, 0.025833619758486748, -0.026192989200353622, -0.0945209488272667, -0.043043527752161026, 0.05213925987482071, 0.22097232937812805, 0.03233411908149719, 0.1524452418088913, -0.09647518396377563, 0.34024399518966675, 0.12002915143966675, 0.0005801056395284832, -0.15386396646499634, -0.11388369649648666, 0.04737954959273338, 0.03252007067203522, 0.045771628618240356, -0.22319111227989197, -0.15805281698703766, -0.019968148320913315, -0.08213703334331512, 0.10873523354530334, -0.07017083466053009, 0.07463687658309937, -0.03467913717031479, -0.08498594164848328, 0.3792562186717987, 0.009623006917536259, -0.04271751642227173, -0.08438824862241745, 0.002820469904690981, 0.018422676250338554, -0.14222216606140137, 0.036041226238012314, 0.007440864574164152, -0.10051034390926361, 0.013341047801077366, 0.02024584449827671, -0.2314879298210144, 0.1499076932668686, -0.08124011754989624, -0.27920985221862793, -0.10068263858556747, -0.1215101107954979, -0.029536740854382515, -0.011209698393940926, -0.15550579130649567, -0.2225750982761383, 0.021845676004886627, 0.028440620750188828, 0.02615588903427124, 0.03274497017264366, -0.08383741974830627, -0.10713809728622437, -0.0076662092469632626, 0.08419428765773773, 0.17046718299388885, -0.13453038036823273, -0.04811535030603409, -0.02095203287899494, -0.15404245257377625, 0.24097144603729248, 0.002400859957560897, -0.17385731637477875, 0.25411710143089294, -0.04088790714740753, 0.05630943924188614, -0.09384629875421524, -0.3778059780597687, -0.11464103311300278, 0.027118999511003494, 0.062324319034814835, -0.10086136311292648, 0.19725453853607178, 0.10777962952852249, -0.05605502799153328, 0.09163226187229156, -0.2644650638103485, -0.13746848702430725, 0.03135247528553009, 0.05031827092170715, 0.1570245623588562, -0.036731135100126266, -0.08468326926231384, -0.020848659798502922, 0.04608361795544624, -0.08769714087247849, -0.13884559273719788, 0.2948252260684967, -0.07044270634651184, 0.0859646126627922, -0.37290340662002563, 0.04406031593680382, -0.14115945994853973, 0.0036563770845532417, 0.17321035265922546, -0.01605624333024025, -0.06677992641925812, 0.030263440683484077, 0.11270716786384583, 0.11829177290201187, -0.16929621994495392, -0.13217560946941376, -0.22128717601299286, -0.08832184225320816, 0.09024733304977417, 0.1575556844472885, 0.09507922828197479, 0.1301041841506958, -0.22330667078495026, -0.05268731713294983, 0.01639396697282791, 0.13106447458267212, -0.23631903529167175, 0.010467611253261566, 0.13471226394176483, -0.04861646890640259, -0.1161525771021843, -0.006936622783541679, 0.10898663103580475, -0.1178743913769722, -0.22161197662353516, 0.19154417514801025, -0.22165192663669586, -0.2757798135280609, 0.169013112783432, 0.023613516241312027, 0.05955524742603302, -0.2777429223060608, 0.012828757986426353, 0.09268936514854431, 0.029646018519997597, 0.07417736947536469, 0.10493948310613632, 0.06271954625844955, -0.16960106790065765, 0.2832280397415161, -0.0022115842439234257, 0.056141674518585205, 0.11058171093463898, -0.15935677289962769, 0.09282536059617996, 0.0017522919224575162, 0.14771774411201477, -0.02419220842421055, 0.15060818195343018, -0.03460179641842842, -0.1501273661851883, -0.13317345082759857, 0.0035027621779590845, -0.01421019621193409, 0.13979777693748474, 0.04784109815955162, 0.03029419295489788, 0.0645979568362236, -0.02308271825313568, 0.1421358436346054, -0.1846008598804474, 0.025229567661881447, -0.1628095656633377, 0.17632785439491272, -0.16554050147533417, 0.24046069383621216, -0.036082424223423004, 0.09071807563304901, 0.14510296285152435, 0.12246017903089523, 0.10922452807426453, -0.09979528188705444, -0.23815521597862244, -0.33943429589271545, -0.12807229161262512, -0.16780242323875427, 0.1763598769903183, 0.03383050486445427, -0.021379699930548668, -0.22671279311180115, 0.23264411091804504, -0.11441546678543091, 0.052971456199884415, 0.015790969133377075, -0.06991428881883621, -0.2120731920003891, -0.11322402209043503, 0.21132953464984894, -0.05673125758767128, 0.09445127844810486, 0.12734055519104004, 0.00756691861897707, 0.039119426161050797, 0.05644850805401802, 0.0780506432056427, -0.09057455509901047, 0.16703760623931885, -0.015373187139630318, 0.004427311941981316, -0.12992696464061737, 0.32693976163864136, 0.19018897414207458, 0.31358322501182556, -0.15889593958854675, -0.5370303988456726, 0.34483179450035095, 0.2616543173789978, 0.23966346681118011, -0.37645435333251953, -0.2696874737739563, 0.43517252802848816, -0.034693989902734756, -0.06921083480119705, 0.1947854459285736, 0.20263303816318512, 0.15860366821289062, -0.13041599094867706, 0.06231926381587982, 0.33215856552124023, 0.10985444486141205, -0.10534036159515381, -0.10849961638450623, 0.09623204916715622, 0.03584359958767891, 0.17110911011695862, 0.010452193208038807, -0.16097985208034515, -0.30922868847846985, 0.04512127488851547, 0.27012935280799866, 0.23828130960464478, -0.16958767175674438, -0.0611119419336319, -0.12059895694255829, 0.04236339405179024, 0.18269456923007965, -0.1636200249195099, -0.0043760063126683235, 0.18843239545822144, -0.1970715969800949, -0.12676075100898743, 0.06972318142652512, -0.19851046800613403, 0.042504820972681046, 0.2547336220741272, 0.2510016858577728, 0.07266746461391449, -0.18514691293239594, -0.3033455014228821, 0.048267435282468796, 0.35390663146972656, 0.07401326298713684, -0.4118037521839142, 0.17972910404205322, -0.24501968920230865, -0.01750878244638443, 0.20157809555530548, -0.14975377917289734, 0.16144505143165588, -0.015922537073493004, 0.02802259288728237, -0.09671053290367126, 0.0028713629581034184, -0.1910347193479538, -0.1677691638469696, 0.1260569542646408, -0.1182316392660141, -0.0556856244802475, 0.02570735476911068, 0.3405579924583435, 0.08051756769418716, 0.11460930109024048, -0.15378716588020325, 0.10069037228822708, 0.05370398610830307, 0.12501771748065948, 0.0009898472344502807, -0.07221583276987076, -0.18733084201812744, 0.13351447880268097, 0.19995030760765076, -0.03520591929554939, -0.39382612705230713, 0.0391048900783062, 0.17385819554328918, -0.22008371353149414, -0.11971639841794968, 0.05219250172376633, 0.07180675864219666, -0.028764167800545692, 0.2479293793439865, 0.34337180852890015, -0.24897712469100952, -0.18165066838264465, 0.2044592648744583, -0.013731499202549458, 0.5508320331573486, 0.06953362375497818, -0.2054046243429184, 0.14193405210971832, 0.5126102566719055, 0.226083904504776, -0.16756872832775116, -0.14044946432113647, 0.23858943581581116, 0.12104824930429459, -0.6785240769386292, -0.2557624280452728, 0.14298714697360992, -0.054423365741968155, -0.012433581054210663, -0.12404786050319672, -0.0003067699435632676, -0.020835155621170998, -0.10421858727931976, 0.027966922149062157, 0.2183457612991333, 0.20216581225395203, 0.12119882553815842, 0.2279222011566162, -0.11772452294826508, 0.17441870272159576, 0.023957980796694756, 0.17899033427238464, -0.061489835381507874, -0.1276925504207611, -0.250400573015213, -0.0798245295882225, 0.20405852794647217, -0.08389224857091904, 0.03338824585080147, -0.0126517154276371, 0.14275392889976501, -0.11498032510280609, -0.21853534877300262, -0.015744613483548164, 0.15426407754421234, -0.05826760455965996, -0.0031618201173841953, -0.0973803699016571, 0.08797077089548111, 0.004004753660410643, -0.037329692393541336, 0.2465781569480896, 0.11627563834190369, -0.006042515393346548, -0.016708828508853912, 0.11246166378259659, -0.042941998690366745, 0.13145126402378082, -0.11965108662843704, 0.2378414124250412, 0.11766136437654495, -0.0879681184887886, -0.3398388624191284, 0.14994433522224426, 0.12838439643383026, 0.037484511733055115, -0.12769779562950134, -0.010932807810604572, 0.0503338985145092, -0.061954449862241745, 0.3087138533592224, 0.530716061592102, 0.3769552707672119, 0.40092378854751587, -0.6640452146530151, -0.4959425628185272, 0.191637322306633, 0.12594376504421234, 0.04699738323688507, 0.365210622549057, 0.278821736574173, -1.1288272142410278, 0.19943098723888397, -0.40839093923568726, -0.8033124208450317, 0.25825610756874084, -0.09288199990987778, -0.13464102149009705, -0.20057567954063416, 0.10505560785531998, -0.20759707689285278, 0.03236093372106552, 0.19302456080913544, -0.09712498635053635, -0.2169744074344635, -0.13765648007392883, 0.0018910608487203717, -0.1365804225206375, -0.1098426878452301, -0.057719603180885315, 0.12871718406677246, 0.10438086837530136, -0.033603206276893616, -0.20922869443893433, -0.3267079293727875, 0.2645048201084137, -0.093905508518219, -0.39243340492248535, -0.6845899820327759, 0.3749190866947174, -0.2498798370361328, -0.29372623562812805, 0.22586779296398163, -0.09986985474824905, 0.6411516666412354, 0.4095593988895416, 0.30362996459007263, -0.1262938231229782, 0.14086084067821503, 0.08375507593154907, 0.11698056012392044, 0.26381003856658936, -0.2231786698102951, -0.42964744567871094, -0.4930073022842407, 0.017440443858504295, 0.117479108273983, 0.22545301914215088, -0.029544131830334663, -0.2732154130935669, 0.16420985758304596, 0.41813573241233826, 0.18704761564731598, -0.3690624535083771, 0.24777162075042725, -0.2406565397977829, 0.0037166974507272243, -0.06894633173942566, 0.2189500778913498, 0.30296674370765686, 0.44995638728141785, 0.07704294472932816, 0.09193367511034012, -0.1665911078453064, -0.4699894189834595, 0.11376088112592697, -0.44867759943008423, 0.09852039068937302, 0.15194718539714813, -0.016598576679825783, -0.18179212510585785, 0.21738505363464355, -0.09548527002334595, -0.30479198694229126, -0.025599174201488495, -0.04259299486875534, -0.1925710290670395, 0.27112314105033875, -0.2668016850948334, 0.1557912975549698, 0.11938408762216568, -0.042113400995731354, -0.13149060308933258, -0.51619553565979, -0.14821361005306244, -0.24094358086585999, -0.04817909002304077, -0.23743396997451782, 0.18109968304634094, 0.24186132848262787, 0.1955491453409195, -0.24348142743110657, 0.21522997319698334, 0.10623443126678467, 0.036390069872140884, 0.03952926769852638, 0.15976910293102264, -0.21972346305847168, 0.3859696090221405, 0.10652776062488556, -0.0159610528498888, -0.2567427456378937, 0.007874826900660992, -0.23383590579032898, 0.0283611249178648, 0.16236619651317596, -0.04042526334524155, -0.05853322520852089, -0.2315194010734558, 0.20363189280033112, -0.07135554403066635, -0.12041358649730682, 0.4603913724422455, 0.3145759701728821, -0.05899403616786003, -0.217333123087883, 0.2734955847263336, 0.12802353501319885, -0.2251845747232437, -0.13861745595932007, 0.2873024046421051, -0.17559364438056946, 0.2793828248977661, 0.2559741735458374, -0.24222908914089203, -0.18488594889640808, 0.4498836100101471, -0.1306162178516388, 0.10264986008405685, 0.17842848598957062, 0.29117855429649353, -0.05405629426240921, -0.46231338381767273, 0.182347372174263, 0.08857027441263199, -0.3197668790817261, 0.0560363344848156, 0.2802474796772003, -0.07834931463003159, 0.09518923610448837, -0.05125326290726662, 0.04958733543753624, -0.16588525474071503, -0.020001288503408432, 0.03445203974843025, -0.03150566294789314, 0.008050475269556046, 0.4693891108036041, 0.2691025137901306, 0.019755542278289795, 0.03350107744336128, 0.102387934923172, 0.0647626593708992, 0.02900766395032406, -0.07785158604383469, -0.2016947716474533, 0.15640173852443695, -0.3423413336277008, 0.2617018520832062, -0.1851099133491516, -0.16206081211566925, 0.00026773230638355017, -0.2926654517650604, 0.14822350442409515, -0.18914486467838287, 0.17406168580055237, 0.1714777946472168, 0.028335992246866226, 0.21331410109996796, -0.3504180610179901, -0.15066935122013092, -0.2861741781234741, 0.1943800300359726, 0.24727296829223633, -0.10541179031133652, 0.40816476941108704, 0.06053827702999115, -0.2772071659564972, -0.32584404945373535, -0.44504544138908386, 0.35457366704940796, 0.006407418753951788, -0.3410581946372986, 0.09586115926504135, 0.14838102459907532, 0.04707073047757149, -0.07807845622301102, -0.025579173117876053, -0.2914498448371887, 0.0575743168592453, -0.27325499057769775, -0.17720091342926025, 0.12170299142599106, 0.27212220430374146, 0.18350598216056824, -0.015383461490273476, 0.3637813627719879, -0.215082585811615, -0.394367516040802, 0.07270167768001556, 0.30351969599723816, 0.5138549208641052, 0.2306724488735199, -0.13724958896636963, 0.0020294615533202887, -0.10387083888053894, -0.2825309634208679, 0.03641081973910332, 0.2567114233970642, -0.009914728812873363, -0.0669112280011177, -0.16011188924312592, 0.28341567516326904, -0.15852569043636322, -0.3158116638660431, -0.007405537646263838, 0.11767246574163437, -0.01591426320374012, 0.3758538067340851, 0.18614329397678375, 0.2758137881755829, -0.31256330013275146, 0.22817012667655945, 0.0826399177312851, 0.14815278351306915, 0.1276938021183014, -0.32623183727264404, -0.3751422166824341, -0.4340703785419464, -0.1999826580286026, 0.15970829129219055, 0.1873694211244583, -0.04002311825752258, 0.41432908177375793, 0.15202607214450836, -0.24465645849704742, -0.041129983961582184, 0.3184053897857666, 0.10627083480358124, -0.11242344230413437, 0.0058180601336061954, -0.36058637499809265, 0.04591674357652664, 0.23430782556533813, 0.2699805498123169, -0.24180953204631805, 0.0752502828836441, -0.053516119718551636, 0.22993974387645721, -0.2923305630683899, -0.13797439634799957, 0.021870162338018417, -0.18914204835891724, 0.2133939415216446, -0.05161113664507866, -0.4521075189113617, -0.025043681263923645, 0.10985332727432251, -0.2127782553434372, 0.05527611821889877, -0.2660369575023651, 0.14610639214515686, -0.0473991297185421, -0.2626552879810333, -0.05671137571334839, 0.026936480775475502, -0.04158322140574455, -0.08063028007745743, 0.11676642298698425, 0.1948227435350418, 0.17716200649738312, -0.2832990288734436, 0.14637015759944916, -0.01889772340655327, -0.18208904564380646, -0.018893642351031303, -0.09353559464216232, -0.07122338563203812, 0.0794249176979065, 0.5853790044784546, -0.5260398387908936, 0.12025664001703262, 0.025800731033086777, -0.3328392505645752, -0.2539380192756653, -0.4722330570220947, -0.372620552778244, -0.3492286205291748, 0.23200459778308868, 0.07414539158344269, 0.2792166471481323, 0.12366549670696259, 0.3957250714302063, -0.08053964376449585, 0.1728907823562622, -0.4245179295539856, -0.24687115848064423, -0.11231627315282822, -0.36451810598373413, 0.02940482832491398, 0.5029902458190918, 0.579900324344635, 0.020642809569835663, -0.1461048573255539, -0.31680986285209656, 0.15114492177963257, 0.5694587230682373, -0.01623641327023506, -0.10184485465288162, -0.25730225443840027, 0.7762554287910461, -0.22531965374946594, -0.07849502563476562, -0.2016104757785797, -0.0443577878177166, -0.07277151197195053, -0.44373366236686707, 0.36392515897750854, -0.14454111456871033, -0.022032605484128, 0.06101074442267418, -0.04477803781628609, -0.5669146180152893, 0.2851134240627289, 0.38344332575798035, 0.5001803636550903, -0.16309915482997894, -0.013848076574504375, 0.1804998219013214, 0.08829911798238754, 0.17942026257514954, 0.013166043907403946, -0.0013543810928240418, -0.06045372039079666, 0.08052502572536469, 0.008785484358668327, -0.22729560732841492, 0.16814599931240082, 0.04549480602145195, 0.2879179120063782, -0.0510118268430233, 0.028048425912857056, 0.14130458235740662, -0.16742126643657684, -0.12045963108539581, -0.09566304087638855, 0.0797012448310852, -0.024890078231692314, -0.06284942477941513, -0.36095762252807617, -0.11624347418546677, -0.17931897938251495, 0.2891818583011627, 0.15466521680355072, 0.1042499840259552, -0.1744171679019928, 0.030493948608636856, 0.021569842472672462, -0.019278690218925476, -0.16284947097301483, -0.23075003921985626, 0.131548210978508, -0.00986205879598856, -0.058149002492427826, 0.01155513059347868, 0.03147156909108162, -0.22019986808300018, -0.19850564002990723, 0.1057954654097557, 0.3302738666534424, 0.015115977264940739, -0.05137913301587105, -0.17452621459960938, -0.0741008073091507, -0.20818470418453217, 0.28805673122406006, 0.5404402613639832, 0.23142126202583313, 0.17322950065135956, 0.21938295662403107, 0.04779205098748207, -0.21214982867240906, 0.12383813410997391, 0.008255927823483944, -0.22673864662647247, -0.08915659785270691, 0.09250843524932861, -0.0026075453497469425, -0.2528417110443115, -0.27695077657699585, 0.0643387958407402, 0.13644689321517944, -0.03902551904320717, 0.18732687830924988, 0.27899736166000366, -0.22464372217655182, -0.11973221600055695, -0.12383562326431274, -0.11233317106962204, -0.03739967569708824, -0.07418964803218842, 0.031156182289123535, 0.0818781927227974, -0.3667212426662445, -0.022795487195253372, -0.05491407588124275, 0.33407506346702576, 0.12642614543437958, -0.18191272020339966, 0.07187046855688095, 0.025211280211806297, -0.12878507375717163, 0.11636687815189362, 0.14711962640285492, -0.23365215957164764, -0.11752593517303467, 0.2530285120010376, -0.11641126126050949, -0.059845831245183945, 0.008179211989045143, 0.049173176288604736, -0.24244756996631622, -0.03326224163174629, -0.17479164898395538, -0.15536269545555115, 0.07738334685564041, -0.138640895485878, 0.01848759315907955, -0.16672131419181824, 0.06216530501842499, 0.15147899091243744, -0.03498438373208046, 0.2143527865409851, -0.20360320806503296, 0.09349454194307327, -0.1121947169303894, 0.09853904694318771, 0.016775522381067276, -0.12942488491535187, 0.12741275131702423, 0.14970164000988007, 0.10048220306634903, -0.054049890488386154, 0.1132892370223999, 0.06316669285297394, 0.3258775472640991, -0.111639603972435, 0.13099496066570282, -0.21584779024124146, 0.03765546530485153, -0.2630145251750946, 0.28642240166664124, -0.012135169468820095, 0.1440146267414093, 0.04562874883413315, 0.03992341831326485, -0.00864722952246666, -0.32601675391197205, -0.12472718954086304, 0.09848731756210327, -0.08789415657520294, -0.021036405116319656, 0.16013050079345703, 0.17580053210258484, -0.055603399872779846, -0.08674953877925873, 0.0076085045002400875, 0.0812004953622818, 0.07735335826873779, -0.03353789076209068, 0.1858217418193817, 0.09045985341072083, 0.22120381891727448, 0.08401016891002655, -0.0069338614121079445, 0.04216708615422249, 0.024076854810118675, 0.08321605622768402, 0.2003074586391449, 0.22277149558067322, -0.17376163601875305, 0.24513587355613708, 0.05563702806830406, 0.2057170271873474, 0.011104146018624306, 0.15894021093845367, 0.12993188202381134, -0.1142822802066803, -0.1432509869337082, 0.06510009616613388, -0.15627337992191315, -0.17210693657398224, 0.05451028421521187, -0.2041620910167694, 0.12183834612369537, -0.05296899378299713, 0.17849396169185638, 0.19747304916381836, 0.15333439409732819, -0.15047666430473328, 0.09588833153247833, 0.1759682446718216, 0.22791950404644012, -0.18183481693267822, 0.062350183725357056, 0.12711848318576813, -0.13765011727809906, -0.1382473260164261, 0.2878170609474182, -0.0034314552322030067, -0.027742285281419754, -0.0012533090775832534, -0.04961000382900238, 0.10806301236152649, -0.10684867203235626, 0.012673035264015198, -0.33496540784835815, 0.19247062504291534, 0.17968080937862396, 0.044085755944252014, -0.025531841441988945, -0.160856693983078, -0.04196739196777344, -0.05887719243764877, 0.06080006808042526, 0.03160974755883217, 0.09685344249010086, -0.09502826631069183, -0.13983774185180664, 0.0954451933503151, 0.01311662420630455, -0.08390282094478607, -0.14494562149047852, -0.0782461166381836, 0.05920926854014397, -0.17102506756782532, 0.04621213302016258, 0.2315312623977661, -0.2153564840555191, -0.17685215175151825, 0.07454929500818253, 0.008111702278256416, 0.1005617156624794, -0.18716271221637726, 0.008723516017198563, 0.046539876610040665, 0.0869542583823204, -0.09822429716587067, -0.05416052043437958, 0.15018059313297272, -0.054419439285993576, -0.09202270954847336, -0.2646980583667755, 0.22001734375953674, 0.007430117577314377, 0.03401649370789528, 0.08833599835634232, -0.13006946444511414, -0.17796149849891663, -0.083003468811512, -0.0261381845921278, 0.04090237244963646, 0.1091570034623146, -0.16630879044532776, -0.11610378324985504, 0.10049793124198914, 0.09909048676490784, -0.15070001780986786, 0.2915385067462921, -0.018875813111662865, 0.15830369293689728, -0.1194964349269867, -0.11717348545789719, -0.08023291826248169, 0.1012876108288765, -0.2127683162689209, -0.06469308584928513, -0.1839977353811264, 0.18995945155620575, 0.29123276472091675, 0.08159610629081726, -0.14399975538253784, 0.23903952538967133, 0.09457823634147644, -0.061701953411102295, -0.06395570933818817, -0.06221547722816467, -0.12048055976629257, -0.03725869581103325, -0.058467667549848557, -0.06276661902666092, -0.21893519163131714, -0.049681007862091064, 0.16908670961856842, 0.13727684319019318, 0.08987008035182953, -0.046898167580366135, -0.0475429929792881, -0.09336681663990021, 0.05826815590262413, -0.07174662500619888, -0.20504042506217957, 0.06195412576198578, -0.1040273979306221, 0.01337298471480608, 0.1539888083934784, -0.10022907704114914, 0.1829371601343155, 0.16417831182479858, 0.07778631895780563, -0.09124577045440674, 