{"version": "0.5.1", "metadata": {"date": {"year": 2023, "month": 5, "day": 16, "hour": 13, "minute": 3, "second": 30}, "loudness": -11.98008918762207, "gain": 0.75530140270911, "name": null, "modeled_by": null, "gear_type": null, "gear_make": null, "gear_model": null, "tone_type": null}, "architecture": "WaveNet", "config": {"layers": [{"input_size": 1, "condition_size": 1, "head_size": 8, "channels": 16, "kernel_size": 3, "dilations": [1, 2, 4, 8, 16, 32, 64, 128, 256, 512], "activation": "Tanh", "gated": false, "head_bias": false}, {"input_size": 16, "condition_size": 1, "head_size": 1, "channels": 8, "kernel_size": 3, "dilations": [1, 2, 4, 8, 16, 32, 64, 128, 256, 512], "activation": "Tanh", "gated": false, "head_bias": true}], "head": null, "head_scale": 0.02}, "weights": [-0.02685300074517727, 0.39371034502983093, -0.9042418003082275, -0.6868546605110168, -0.46463748812675476, 0.35571956634521484, -0.1534440666437149, 0.7339978218078613, -0.09883812814950943, 0.09192439168691635, -0.3544108271598816, -0.17502111196517944, -0.7325018644332886, -0.7120524644851685, -0.3512999415397644, 0.12004519253969193, 0.1799781769514084, 0.0040979161858558655, -0.06734685599803925, 0.0348522923886776, -0.13162118196487427, 0.14913028478622437, -0.12652893364429474, 0.29821258783340454, -0.04728543758392334, -0.07593166828155518, 0.32432854175567627, -0.15244796872138977, -0.18738986551761627, 0.15415041148662567, -0.0776456668972969, 0.2193036526441574, -0.2936602532863617, -0.04357927292585373, -0.15553298592567444, 0.11016272753477097, -0.06595681607723236, 0.2139815092086792, -0.13251656293869019, 0.08666829764842987, -0.05971217155456543, 0.15292277932167053, 0.02963298186659813, -0.0387873612344265, -0.2799304723739624, -0.044300276786088943, -0.009248715825378895, 0.2747851610183716, -0.08733418583869934, -0.10321587324142456, 0.2854229807853699, 0.10689177364110947, -0.03886772692203522, 0.20606392621994019, 0.07162213325500488, -0.1772310733795166, 0.22169806063175201, -0.13140356540679932, -0.19761307537555695, 0.11175870895385742, 0.0396609865128994, 0.1449122428894043, -0.3023514747619629, 0.05994195491075516, -0.021993273869156837, 0.022133031859993935, -0.04132818803191185, -0.009611385874450207, 0.2795144021511078, 0.04503655061125755, -0.07671371847391129, -0.2561943829059601, 0.14068716764450073, 0.15060390532016754, -0.07978542894124985, 0.20736129581928253, 0.07093112915754318, -0.3236938714981079, 0.10228181630373001, -0.12176788598299026, 0.07707394659519196, 0.045576151460409164, 0.13226549327373505, -0.3780801296234131, 0.09154471009969711, -0.05284849926829338, 0.18575629591941833, -0.14348076283931732, 0.08799122273921967, -0.29465627670288086, 0.12882372736930847, 0.026727015152573586, 0.2772810757160187, -0.041611719876527786, -0.10542894899845123, -0.30027082562446594, 0.15456022322177887, 0.06559134274721146, -0.31165987253189087, 0.007091626524925232, 0.1687641143798828, -0.10249483585357666, 0.021178562194108963, -0.004265176597982645, -0.3429832458496094, 0.07918290048837662, -0.06845780462026596, -0.3058304786682129, 0.08117366582155228, -0.03320222347974777, 0.1300673931837082, -0.0263506006449461, -0.0006692508468404412, 0.08776194602251053, 0.07437775284051895, -0.03747621178627014, -0.16543851792812347, -0.06308963894844055, -0.06380477547645569, 0.16876807808876038, 0.13159017264842987, -0.07207661867141724, 0.06503981351852417, 0.1448095738887787, -0.21907882392406464, 0.05324973911046982, 0.04337215796113014, 0.019248593598604202, -0.19063174724578857, -0.19453053176403046, -0.08997699618339539, 0.20466798543930054, 0.01174074411392212, 0.07377197593450546, -0.03424840420484543, -0.09231606870889664, -0.05863596498966217, 0.14998391270637512, 0.12503710389137268, 0.16670092940330505, 0.009300483390688896, 0.020680321380496025, 0.050200480967760086, 0.12748420238494873, -0.050758957862854004, -0.16088080406188965, 0.2280697077512741, 0.06428469717502594, -0.15637187659740448, 0.01941296085715294, -0.06318008154630661, -0.20329290628433228, 0.108729287981987, 0.1572471708059311, -0.004521011840552092, -0.006105619948357344, 0.16418136656284332, -0.03798976540565491, -0.19175544381141663, -0.15648651123046875, -0.16543684899806976, -0.06295949220657349, -0.1373121291399002, -0.11285663396120071, 0.004276450257748365, -0.0012507387436926365, -0.0797814130783081, 0.0286407433450222, -0.1288936585187912, -0.025347596034407616, 0.10142647475004196, -0.058175165206193924, 0.10728886723518372, 0.023643245920538902, -0.1346054971218109, 0.09597544372081757, 0.011522434651851654, -0.07056581974029541, 0.06591132283210754, -0.18082575500011444, -0.025192873552441597, -0.014728153124451637, 0.1303718388080597, 0.04070020094513893, 0.04747569561004639, -0.005788570269942284, -0.05987425893545151, -0.017357202246785164, -0.07803773880004883, 0.09202245622873306, 0.09492038935422897, 0.06780708581209183, -0.11014612764120102, -0.005979339126497507, -0.13755768537521362, -0.0792861133813858, -0.0956888496875763, 0.02434311993420124, -0.08355101197957993, -0.018575089052319527, -0.022018156945705414, 0.09196975827217102, -0.12301366031169891, -0.12674632668495178, -0.08506029099225998, 0.13435465097427368, 0.0060710301622748375, 0.1467791348695755, 0.14183160662651062, -0.1672997623682022, 0.0019570202566683292, 0.15224747359752655, -0.21719184517860413, 0.02734602615237236, -0.17971967160701752, 0.2625005543231964, -0.16470958292484283, -0.24843670427799225, 0.36260277032852173, -0.16493621468544006, -0.19262349605560303, 0.3816417157649994, -0.0028813271783292294, 0.17843307554721832, -0.38761797547340393, 0.11645019054412842, -0.24244827032089233, 0.2608959972858429, -0.06134095415472984, 0.1510007232427597, -0.24744343757629395, 0.16607330739498138, -0.14010824263095856, 0.402389794588089, 0.04933495819568634, 0.08835874497890472, -0.15756408870220184, -0.035884346812963486, -0.24541465938091278, 0.28766244649887085, -0.001303511206060648, -0.07110489904880524, 0.20478035509586334, -0.06047902628779411, -0.1035660058259964, 0.09952424466609955, 0.05045146122574806, -0.2934858202934265, 0.250529408454895, -0.07277905195951462, -0.25772786140441895, 0.25507137179374695, 0.06133405864238739, 0.13741730153560638, -0.35264483094215393, -0.00041874140151776373, 0.05642789229750633, 0.02602643519639969, 0.20253169536590576, -0.05914384499192238, -0.3826232850551605, 0.21543626487255096, 0.042386047542095184, 0.418377161026001, -0.07363349944353104, -0.0757656991481781, 0.2706144154071808, -0.077045738697052, 0.08272768557071686, 0.3443003296852112, -0.19275733828544617, -0.03899472579360008, -0.4611245393753052, 0.1592130810022354, -0.054003093391656876, 0.25136131048202515, 0.04517744854092598, -0.06717973202466965, -0.3313414752483368, 0.1588420271873474, -2.5220735551556572e-05, 0.2493896633386612, -0.2227862924337387, 0.14862178266048431, -0.2701452970504761, 0.24831199645996094, -0.07970036566257477, 0.3564601242542267, -0.1543029248714447, -0.025133924558758736, 0.2369343638420105, -0.08707715570926666, 0.011973492801189423, 0.3004215955734253, -0.1589014232158661, -0.11814112216234207, 0.41220036149024963, -0.22960489988327026, 0.02072073332965374, 0.2518526315689087, -0.19913354516029358, 0.04655851423740387, -0.4079192876815796, 0.17631222307682037, 0.11455156654119492, -0.17388072609901428, 0.05739840120077133, 0.07180234789848328, -0.15770067274570465, 0.02572937123477459, -0.12467643618583679, 0.20152044296264648, 0.01226457953453064, -0.053387098014354706, 0.2823519706726074, 0.06332727521657944, -0.08818316459655762, 0.22031287848949432, 0.017060592770576477, 0.014260098338127136, -0.2234351933002472, 0.05085524916648865, -0.10711575299501419, 0.2657272517681122, 0.0828988254070282, 0.12901192903518677, -0.1463409662246704, 0.04966092109680176, 0.06648769974708557, 0.16657502949237823, -0.14407436549663544, -0.10951392352581024, -0.05668064206838608, 0.1379939615726471, -0.10925504565238953, 0.28158536553382874, 0.07092156261205673, 0.1441323161125183, 0.356438547372818, 0.07487286627292633, -0.03683006763458252, 0.17094624042510986, 0.08119679987430573, 0.07759255915880203, 0.13976506888866425, 0.09450504928827286, 0.05625932663679123, 0.29298245906829834, -0.13457746803760529, 0.06784605234861374, -0.26696401834487915, 0.1713177114725113, -0.013024570420384407, 0.104451023042202, 0.19033178687095642, 0.21323636174201965, -0.07221772521734238, 0.09144940227270126, -0.257795125246048, 0.056277986615896225, -0.12096183001995087, -0.2956436574459076, -0.09084688872098923, 0.09217332303524017, -0.07600066065788269, 0.16707150638103485, 0.09967319667339325, 0.02714412659406662, -0.12088822573423386, 0.0032052011229097843, -0.2264917939901352, 0.15357668697834015, -0.11886385828256607, 0.08346670866012573, -0.164900541305542, -0.0589282363653183, -0.005628781393170357, 0.16002099215984344, 0.08990077674388885, 0.2506646513938904, 0.1108907088637352, -0.015027442947030067, -0.09698989242315292, 0.15363170206546783, 0.022264987230300903, -0.013304910622537136, 0.08982795476913452, 0.05715785548090935, -0.20672819018363953, 0.08865240216255188, -0.007993284612894058, -0.18821920454502106, -0.0555657260119915, -0.102467842400074, -0.2631741762161255, 0.12144248187541962, 0.08214182406663895, 0.12340913712978363, -0.1287764012813568, 0.11093427985906601, 0.19127634167671204, -0.026907652616500854, -0.07415421307086945, 0.32983988523483276, -0.10697649419307709, -0.1679229736328125, -0.0610317625105381, 0.2829452157020569, 0.00971121247857809, -0.11307480186223984, 0.09158077836036682, 0.042224667966365814, -0.07523883879184723, 0.18201565742492676, -0.04098454490303993, 0.15535880625247955, -0.21962174773216248, -0.09879960119724274, -0.1790740191936493, 0.34097447991371155, 0.09015558660030365, 0.10767529904842377, -0.16748179495334625, 0.004713418427854776, -0.11364639550447464, 0.05745721980929375, 0.05731566622853279, 0.07729926705360413, -0.2137022465467453, -0.006869342178106308, -0.3113725185394287, 0.22580081224441528, 0.17767512798309326, -0.20454874634742737, 0.06389494240283966, 0.001046738470904529, -0.16563504934310913, 0.056474536657333374, 0.13217461109161377, -0.32708558440208435, 0.037138279527425766, -0.0745135024189949, -0.22377456724643707, 0.2674938440322876, -0.07441592961549759, 0.3271845877170563, -0.24476557970046997, -0.031046276912093163, 0.05204777047038078, -0.15401585400104523, 0.1721722036600113, -0.013727731071412563, 0.03406741842627525, 0.17130634188652039, 0.0026992536149919033, 0.23672451078891754, -0.08677386492490768, 0.16943377256393433, 0.0037065923679620028, -0.1315346360206604, -0.05176205188035965, 0.0522117018699646, -0.07020539790391922, -0.21640950441360474, -0.07924623042345047, 0.1659029871225357, 0.1252702921628952, 0.036186061799526215, -0.19037897884845734, -0.14837054908275604, -0.059609755873680115, 0.22965997457504272, 0.17305415868759155, 0.10388915985822678, -0.03577801212668419, -0.22176547348499298, -0.2221515029668808, 0.16848459839820862, 0.01648223213851452, 0.18692031502723694, -0.1945420801639557, 0.03277846425771713, 0.006763363257050514, -0.010063446126878262, 0.08432977646589279, 0.2271975427865982, -0.004040203522890806, 0.1791917085647583, 0.1226784884929657, -0.13727602362632751, 0.057276759296655655, 0.12674008309841156, -0.029742278158664703, -0.17757552862167358, 0.02130633220076561, 0.10599343478679657, 0.004140346776694059, 0.14739133417606354, 0.2951417863368988, 0.07268991321325302, -0.03015116974711418, 0.03759993985295296, 0.1261306256055832, -0.028353052213788033, 0.17842327058315277, -0.026806160807609558, -0.07012806087732315, 0.1121610552072525, 0.01970919594168663, -0.058857258409261703, 0.02136908657848835, 0.0442744642496109, 0.08567367494106293, -0.10129726678133011, 0.08829981088638306, -0.08131197839975357, -0.030203647911548615, -0.03939815238118172, 0.19965213537216187, -0.06778644770383835, 0.10199348628520966, -0.1486608386039734, 0.10201402753591537, -0.1701446771621704, 0.002085526008158922, -0.14355918765068054, 0.1940201073884964, -0.1500283181667328, 0.058313868939876556, -0.015512736514210701, 0.03210826590657234, 0.20101380348205566, -0.05632835254073143, -0.22767527401447296, -0.051924929022789, 0.05121450126171112, -0.15228921175003052, -0.040018122643232346, 0.008809850551187992, -0.07688334584236145, -0.011965700425207615, -0.03940359875559807, 0.07040442526340485, -0.14718042314052582, -0.037171244621276855, 0.21874099969863892, -0.03912298008799553, -0.09721071273088455, 0.021591167896986008, 0.16315722465515137, -0.030301271006464958, -0.2165265679359436, 0.11765626817941666, 0.010442957282066345, -0.05276420712471008, -0.039853159338235855, 0.07281860709190369, -0.11633987724781036, 0.06079448387026787, -0.09969708323478699, -0.05640719085931778, -0.05626028776168823, 0.024489624425768852, -0.05425102263689041, -0.1567952036857605, 0.03402011841535568, 0.050016939640045166, 0.0018993180710822344, 0.1937102973461151, -0.03045925870537758, 0.07895305752754211, -0.015673933550715446, 0.020553356036543846, -0.08174047619104385, 0.09939534962177277, 0.038621872663497925, -0.07473786175251007, -0.022205006331205368, -0.016704203560948372, 0.12457776814699173, 0.06490354984998703, -0.19329388439655304, -0.15275350213050842, 0.13902784883975983, -0.09237021952867508, -0.1005527675151825, 0.13494952023029327, -0.02016342803835869, 0.09266147762537003, 0.01842193864285946, 0.08997034281492233, -0.0704575702548027, -0.011597133241593838, 0.24625709652900696, 0.09944747388362885, -0.10665919631719589, -0.044734250754117966, 0.17949247360229492, 0.3093309700489044, 0.043309494853019714, -0.1681012511253357, 0.11562506854534149, -0.1845477968454361, 0.09117697924375534, 0.10944200307130814, -0.16175444424152374, 0.02444804459810257, -0.23983882367610931, 0.01384170912206173, 0.029087990522384644, 0.14693231880664825, -0.2268565148115158, 0.07559401541948318, -0.23699124157428741, 0.13450941443443298, 0.16706472635269165, 0.22286909818649292, -0.0647883340716362, 0.0840250700712204, -0.1321626901626587, -0.0007700806600041687, 0.18177536129951477, 0.2139710932970047, -0.23044659197330475, -0.08173202723264694, 0.08503168076276779, 0.061504073441028595, -0.05198023468255997, 0.03981786593794823, -0.08822277188301086, 0.04554346948862076, 0.20789311826229095, -0.041457947343587875, -0.03313852474093437, 0.21889948844909668, -0.12232284247875214, -0.10773357003927231, -0.29876580834388733, -0.0020750195253640413, 0.12815169990062714, -0.1746850162744522, -0.046709176152944565, -0.03903451934456825, -0.0639294758439064, 0.021478384733200073, 0.17458079755306244, -0.009826905094087124, -0.0021930087823420763, -0.15371693670749664, 0.03663816303014755, -0.04215440899133682, -0.09832548350095749, 0.19115260243415833, -0.22627899050712585, -0.1653706431388855, -0.14105664193630219, 0.14429326355457306, 0.16902558505535126, -0.015842696651816368, -0.09358727931976318, -0.08596599102020264, -0.10385221987962723, 0.22705546021461487, -0.07393857836723328, 0.06834277510643005, 0.005159654188901186, -0.06500612944364548, 0.04474630951881409, 0.06131201609969139, 0.15369270741939545, -0.06346093118190765, -0.14354830980300903, -0.0640299990773201, 0.12412144243717194, -0.05506354942917824, 0.08004110306501389, 0.05363048240542412, -0.12111981958150864, 0.06169566884636879, 0.03281271457672119, 0.004234494641423225, -0.13633131980895996, 0.05484028533101082, -0.12769900262355804, 0.02324093133211136, 0.03763505071401596, 0.11423088610172272, -0.06275840848684311, 0.02447381056845188, -0.11789209395647049, 0.021408861503005028, 0.04732322320342064, -0.016419293358922005, 0.07231198996305466, -0.12655913829803467, -0.02270626649260521, 0.16832414269447327, -0.24042613804340363, 0.14868299663066864, 0.09172573685646057, -0.20378777384757996, 0.16701379418373108, -0.056450001895427704, 0.16994145512580872, -0.2111758142709732, -0.08636219799518585, -0.08571905642747879, 0.2802637815475464, 0.02963811159133911, 0.22673721611499786, -0.13440313935279846, -0.1384202241897583, -0.2322819083929062, 0.010753028094768524, 0.2277376502752304, 0.08926694095134735, -0.10084898769855499, -0.02503102645277977, -0.04380843788385391, 0.2364797741174698, 0.18506644666194916, -0.24827300012111664, 0.08549673855304718, -0.029345683753490448, -0.22054599225521088, 0.14290302991867065, 0.20037180185317993, -0.2503828704357147, 0.20363187789916992, -0.003976588603109121, -0.16359128057956696, 0.22681722044944763, 0.03545316681265831, 0.13698561489582062, -0.2400822788476944, 0.03272596374154091, 0.09652815759181976, -0.02885015495121479, 0.10540218651294708, -0.15136544406414032, -0.14010745286941528, 0.0785997062921524, 0.1673145294189453, -0.011630276218056679, -8.006423740880564e-05, 0.17829690873622894, 0.1279386579990387, -0.13989387452602386, 0.030360158532857895, -0.02384001575410366, -0.19120869040489197, -0.056907009333372116, 0.07383639365434647, 0.18367747962474823, 0.05376551300287247, 0.05872992053627968, -0.12780673801898956, 0.052465055137872696, -0.09476637095212936, -0.038768380880355835, 0.05710989981889725, 0.11093173921108246, -0.1922915279865265, 0.09592313319444656, 0.03687845915555954, -0.026505516842007637, 0.02015223540365696, 0.15125928819179535, -0.18162848055362701, 0.016155825927853584, 0.08591341227293015, -0.18344838917255402, 0.13362745940685272, 0.10607331991195679, 0.023097623139619827, -0.0396474152803421, 0.17338083684444427, -0.1526026427745819, 0.1885848045349121, -0.11680696159601212, -0.20267388224601746, 0.06652093678712845, 0.014940408058464527, 0.10931341350078583, -0.04517883434891701, -0.11190026998519897, -0.05145583301782608, -0.03493766486644745, 0.004926751833409071, 0.04735632985830307, -0.0018666533287614584, -0.027130311354994774, 0.04389464482665062, 0.11661126464605331, -0.052420902997255325, 0.0324111133813858, -0.04654993861913681, 0.011390806175768375, -0.06361065804958344, -0.025349028408527374, 0.4685356318950653, -0.5056720972061157, 0.7258733510971069, -0.7068146467208862, 0.05289985612034798, 1.0229789018630981, 1.0264456272125244, -0.5491997003555298, 0.11782947182655334, 0.20566539466381073, -0.5185865759849548, -0.32314223051071167, 0.3108452558517456, -0.6614211201667786, 0.10266242176294327, 0.49253740906715393, -0.34989187121391296, 0.29852384328842163, -0.04965309053659439, 0.117068812251091, -0.1368488371372223, -0.2934839129447937, 0.012486269697546959, -0.027345076203346252, -0.030847890302538872, -0.0782235711812973, 0.04337502643465996, 0.06217118352651596, -0.0107876006513834, 0.05910154804587364, 0.20729519426822662, -0.16279681026935577, -0.15933668613433838, -0.16943658888339996, -0.31924736499786377, 0.10845734179019928, -0.0024912990629673004, -0.2096589356660843, -0.126844123005867, -0.0009878067066892982, -0.0830410048365593, 0.17962360382080078, -0.03236325457692146, 0.13130159676074982, 0.14075659215450287, -0.058925941586494446, -0.050164807587862015, 0.26996931433677673, -0.016229715198278427, 0.17880454659461975, 0.11657710373401642, 0.10859236866235733, -0.2204156219959259, -0.2055598348379135, -0.012493698857724667, -0.06905438005924225, 0.02828959934413433, -0.2270287424325943, 0.2983822822570801, -0.26715439558029175, 0.07270712405443192, 0.12001117318868637, 0.13686327636241913, -0.10234161466360092, 0.12303952872753143, -0.20291538536548615, -0.047390200197696686, -0.09339147806167603, -0.27859240770339966, 0.1333761066198349, 0.24378493428230286, -0.19478066265583038, -0.2604895830154419, 0.3922157883644104, -0.10372629016637802, 0.022180501371622086, 0.40183278918266296, 0.18884029984474182, -0.2937667965888977, 0.2122536301612854, -0.14501741528511047, -0.22530287504196167, -0.12083364278078079, 0.08579603582620621, 0.008625057525932789, 0.14426065981388092, 0.07798311114311218, -0.08494779467582703, 0.09649170935153961, 0.33372586965560913, -0.06180793419480324, 0.13816452026367188, 0.01734362728893757, -0.008341782726347446, -0.1175532266497612, 0.07270287722349167, 0.30353406071662903, -0.19636757671833038, 0.020605752244591713, 0.02153770439326763, 0.8972814083099365, 0.5665526986122131, 0.3235929310321808, 0.10349182784557343, 0.23352433741092682, -0.02646011859178543, -0.1740177571773529, 0.049819763749837875, -0.11082865297794342, -0.014991615898907185, 0.4293332099914551, -0.0009399437112733722, -0.02695700153708458, 0.15713904798030853, 0.19841130077838898, 0.17226111888885498, -0.19827666878700256, -0.4070245325565338, 0.05699516087770462, 0.23645754158496857, 0.12328632920980453, -0.31797343492507935, -0.12429437041282654, 0.17119261622428894, 0.05765630677342415, -0.1157359853386879, 0.2455575317144394, -0.18219706416130066, 0.10879109054803848, 0.16586723923683167, 0.16697652637958527, -0.031953729689121246, -0.1205504909157753, 0.10923775285482407, 0.03722808137536049, 0.24456743896007538, 0.15346932411193848, -0.39738383889198303, 0.267342209815979, -0.22300472855567932, -0.04493485018610954, -0.10364094376564026, -0.11102396249771118, -0.0252371858805418, -0.46460822224617004, 0.12194589525461197, -0.2535977065563202, -0.11873095482587814, -0.3837090730667114, -0.47590160369873047, -0.21305012702941895, -0.13284407556056976, -0.3085736334323883, -0.2827678322792053, 0.09620735049247742, 0.12305381894111633, 0.11739671975374222, -0.02557690069079399, -0.08061610907316208, 0.07590833306312561, -0.1810646653175354, 0.0019313330994918942, 0.14181193709373474, -0.12608876824378967, -0.22586573660373688, -0.06251635402441025, 0.24257273972034454, -0.23338782787322998, 0.01633097231388092, 0.20553119480609894, -0.04518647491931915, 0.053303658962249756, 0.24629396200180054, 0.014822331257164478, -0.19929885864257812, 0.02514454908668995, 0.18337397277355194, 0.2770232856273651, -0.04602772742509842, 0.02923966757953167, -0.10148783028125763, -0.3210184574127197, -0.016359740868210793, 0.062208544462919235, 0.12292589247226715, -0.19027242064476013, -0.11216270923614502, -0.200503870844841, -0.11419960856437683, -0.04372037947177887, 0.14109671115875244, 0.21546226739883423, 0.005416549742221832, -0.0044042253866791725, 0.1310489922761917, -0.1111760288476944, 0.10859782993793488, -0.32129356265068054, -0.11062750965356827, 0.13386601209640503, 0.09124355018138885, -0.3924705982208252, 0.061207130551338196, -0.09914383292198181, -0.2626953125, 0.32455840706825256, 0.033391498029232025, -0.24840493500232697, 0.1279338002204895, 0.03802826255559921, 0.2600294053554535, -0.08470732718706131, 0.11492137610912323, -0.12217515707015991, -0.06320776790380478, 0.21163323521614075, 0.2547971308231354, -0.1465197205543518, -0.059380944818258286, -0.08175378292798996, 0.13857030868530273, -0.2978493571281433, -0.03690837696194649, 0.0951915830373764, 0.12226499617099762, -0.16569401323795319, -0.02519403025507927, -0.09194080531597137, 0.17509715259075165, 0.17891618609428406, 0.1367879956960678, 0.19225531816482544, 0.06264954805374146, -0.13607734441757202, 0.10313192009925842, -0.022907575592398643, -0.24791833758354187, -0.13428813219070435, -0.07392647117376328, 0.09056834876537323, -0.20539650321006775, 0.2987992465496063, 0.05558878928422928, -0.1832740306854248, -0.11087118834257126, 0.02825877070426941, 0.05157782882452011, 0.2032245695590973, -0.23930519819259644, 0.09354355931282043, 0.042593248188495636, -0.11205218732357025, 0.11983253806829453, 0.05419408157467842, -0.2588472068309784, -0.09665805101394653, 0.04848963022232056, -0.00956765003502369, 0.1427057683467865, -0.051997821778059006, -0.1282586306333542, 0.3424769937992096, 0.1252422034740448, 0.12226436287164688, -0.08948241919279099, -0.14450672268867493, -0.034561384469270706, -0.12710726261138916, 0.03284633159637451, 0.13808853924274445, 0.07479720562696457, -0.11796120554208755, 0.11464053392410278, -0.0908862054347992, 0.1284717172384262, -0.1480506956577301, -0.16497693955898285, -0.07927568256855011, 0.13565783202648163, -0.04715206101536751, 0.06904204934835434, -0.16662932932376862, 0.08806924521923065, 0.042073093354701996, 0.07366004586219788, 0.20341756939888, 0.06932318210601807, 0.016141561791300774, 0.06233157217502594, -0.023223338648676872, 0.070582814514637, 0.19537238776683807, 0.07821963727474213, 0.06420136988162994, 0.04254215583205223, 0.0206974558532238, -0.05087563395500183, -0.12245659530162811, -0.06550092250108719, -0.14239493012428284, 0.010814654640853405, -0.0652446299791336, 0.01192631758749485, 0.05001821368932724, -0.2098434716463089, 0.13250967860221863, -0.060464709997177124, -0.13054031133651733, -0.02465403825044632, -0.05536544322967529, -0.05712185427546501, -0.02277282625436783, 0.020825369283556938, 0.28694549202919006, -0.1547044813632965, -0.030984386801719666, -0.024927591904997826, -0.16392262279987335, 0.04718691483139992, -0.019671546295285225, -0.08961226791143417, -0.1515635997056961, -0.10778307914733887, 0.09502823650836945, -0.07887957245111465, -0.014558842405676842, -0.1338793933391571, -0.0653238296508789, 0.037978895008563995, -0.21446512639522552, -0.032542333006858826, 0.12154794484376907, -0.035375937819480896, -0.04709054157137871, -0.10670799762010574, 0.08846235275268555, 0.06501463055610657, -0.029817495495080948, 0.028142910450696945, -0.12284672260284424, 0.09951824694871902, 0.06645601242780685, -0.013538233004510403, -0.015058529563248158, 0.04910092055797577, -0.21497327089309692, 0.12036897242069244, -0.08798084408044815, 0.03923426568508148, -0.0373588465154171, 0.12652407586574554, -0.16796466708183289, -0.23648886382579803, 0.3799469769001007, 0.17697134613990784, -0.15667341649532318, -0.11446089297533035, 0.14464376866817474, -0.10673995316028595, -0.04847555607557297, -0.17702160775661469, -0.035841088742017746, -0.34566664695739746, 0.10967385768890381, 0.13142217695713043, -0.3878158926963806, 0.09990101307630539, 0.026074159890413284, -0.04905317723751068, -0.050492942333221436, -0.11334932595491409, 0.0743132159113884, -0.06351497024297714, -0.06249510496854782, 0.073829285800457, 0.05073152482509613, 0.05896607041358948, 0.14238479733467102, 0.0042528798803687096, 0.0499429851770401, -0.16248765587806702, -0.1243467628955841, 0.08143521845340729, 0.021349800750613213, -0.03800031915307045, -0.041086651384830475, 0.07408713549375534, 0.035183437168598175, 0.15878380835056305, -0.23458752036094666, 0.09017906337976456, 0.019333770498633385, 0.016857324168086052, 0.11680029332637787, 0.05298284813761711, -0.1659066528081894, 0.1374606192111969, -0.00031522262725047767, 0.025424281135201454, -0.007623856421560049, -0.10855142027139664, 0.09286554157733917, 0.1861245185136795, -0.32666492462158203, -0.09988301992416382, -0.18417944014072418, -0.10251712799072266, 0.2093794047832489, 0.07493101060390472, 0.13672280311584473, 0.011464690789580345, -0.18430854380130768, 0.19316750764846802, -0.050939928740262985, -0.054094020277261734, -0.1993410438299179, 0.11661261320114136, 0.2266262024641037, -0.39216136932373047, 0.1269856095314026, 0.21292367577552795, -0.11240299046039581, -0.10537031292915344, 0.09411107748746872, -0.06097956746816635, 0.020218783989548683, -0.0410526841878891, 0.1342737376689911, 0.032624196261167526, -0.14693759381771088, 0.13452088832855225, 0.07613744586706161, 0.025884339585900307, -0.4111209809780121, -0.04850034788250923, -0.16210322082042694, 0.08759171515703201, 0.08209597319364548, 0.08394692838191986, -0.41337817907333374, -0.2387816607952118, 0.08613616973161697, 0.21496008336544037, -0.10158366709947586, -0.0430438295006752, -0.03739440441131592, -0.08111310750246048, 0.03525096923112869, 0.697052538394928, 0.047755204141139984, 0.07542005181312561, -0.499796599149704, 0.019762258976697922, -0.18060557544231415, 0.088206946849823, 0.04753565043210983, 0.14434675872325897, -0.8247371315956116, 0.10346359759569168, -0.00011814868048531935, 0.2731850743293762, 0.0764576643705368, 0.09009960293769836, -0.4841597378253937, -0.10602553933858871, 0.18193329870700836, -0.6913129091262817, 0.14695048332214355, 0.12237723171710968, -0.10509178787469864, -0.13849307596683502, 0.11707475036382675, -0.2529381513595581, -0.144677996635437, -0.02707470767199993, -0.12001682072877884, 0.10805309563875198, 0.06883488595485687, 0.3422310948371887, 0.12013698369264603, -0.10463308542966843, -0.015174899250268936, 0.06537874788045883, 0.1721251904964447, 0.1462927907705307, -0.05097349360585213, -0.14588604867458344, 0.1676822006702423, 0.08832468837499619, -0.14232219755649567, 0.16900691390037537, 0.16152653098106384, -0.09323439002037048, 0.027297867462038994, -0.015374281443655491, -0.14320290088653564, -0.12677119672298431, -0.026992006227374077, 0.1723349243402481, -0.05013103038072586, 0.03805670887231827, 0.09568283706903458, 0.03469438478350639, 0.02353205718100071, 0.18796660006046295, 0.21093355119228363, -0.12190933525562286, -0.03200869262218475, -0.03374004364013672, -0.03570392355322838, 0.05891282111406326, 0.06500997394323349, 0.19323034584522247, -0.03381913900375366, 0.026928842067718506, -0.01943969912827015, -0.28169310092926025, -0.12305835634469986, 0.18584847450256348, -0.14037959277629852, -0.035038579255342484, 0.1536836326122284, -0.07162734866142273, 0.005991656333208084, -0.08727259188890457, 0.16721659898757935, -0.1194395124912262, -0.14206328988075256, 0.3278316855430603, -0.2842196822166443, -0.035753946751356125, -0.2514503598213196, 0.11523571610450745, -0.0012956891441717744, 0.07797641307115555, -0.1846328228712082, -0.05702024698257446, -0.22377291321754456, 0.09814785420894623, -0.00207479833625257, -0.14140109717845917, 0.12886999547481537, 0.0008110402268357575, 0.2566872239112854, 0.5003809332847595, 0.2746013402938843, 0.3496314287185669, -0.6032391786575317, -0.11189951747655869, 0.09857084602117538, -0.06175670027732849, 0.1808587610721588, 0.18121211230754852, -0.5092392563819885, -0.20736382901668549, 0.04982146620750427, 0.09708375483751297, -0.03906805440783501, 0.30008238554000854, -0.1170206367969513, -0.055887285619974136, 0.616560697555542, -0.6660854816436768, 0.18728801608085632, 0.21429437398910522, -0.06409276276826859, 0.047841913998126984, 0.050928570330142975, -0.14415337145328522, 0.013635094277560711, -0.015345854684710503, 0.07395032048225403, -0.2549896836280823, -0.09995963424444199, 0.1924077421426773, 0.13355188071727753, 0.07586245238780975, 0.23612943291664124, -0.04477057233452797, 0.21177001297473907, 0.15142638981342316, -0.044347867369651794, 0.08401478826999664, 0.014344756491482258, -0.06519085168838501, 0.36235666275024414, -0.14108246564865112, -0.10260894894599915, 0.06450028717517853, -0.012921704910695553, -0.11839278042316437, -0.523199737071991, -0.11210969090461731, 0.4009362459182739, 0.13849830627441406, 0.16747607290744781, -0.03817213699221611, -0.15952709317207336, 0.1777302324771881, 0.09308396279811859, 0.3812795877456665, 0.07558997720479965, -0.40526145696640015, 0.4071974456310272, -0.07658778131008148, -0.08211705833673477, 0.1616564840078354, 0.03370954096317291, -0.17820703983306885, -0.3376816511154175, 0.3214430809020996, 0.13012175261974335, 0.05311144143342972, 0.15387064218521118, 0.06333047151565552, -0.025620410218834877, 0.03279764577746391, -0.3059987723827362, 0.13594764471054077, -0.05147635191679001, -0.24615781009197235, -0.2547639310359955, -0.13880445063114166, 0.13531972467899323, 0.005951656028628349, -0.06186959892511368, -0.10819929093122482, 0.1719854474067688, -0.009823396801948547, 0.049833059310913086, -0.2427041232585907, 0.03584843501448631, 0.1416807770729065, -0.23577389121055603, 0.017965512350201607, 0.12194375693798065, -0.16374143958091736, -0.0723913386464119, 0.040492795407772064, 0.1375623643398285, -0.1164604127407074, 0.012637234292924404, 0.050321079790592194, -0.09629330039024353, -0.024906208738684654, 0.25682544708251953, -0.1364133208990097, -0.1455274224281311, 0.08498583734035492, -0.11360160261392593, 0.08150405436754227, 0.06379621475934982, 0.17040729522705078, 0.03161061182618141, 0.04814339801669121, -0.08262865245342255, 0.03559000790119171, 0.16239355504512787, -0.05699333921074867, -0.15958528220653534, -0.21498842537403107, 0.053210094571113586, -0.0028408702928572893, -0.32587867975234985, -0.005774934310466051, -0.05713116377592087, -0.06697729229927063, 0.1339540183544159, 0.23332436382770538, -0.010803974233567715, -0.11298056691884995, -0.07489297538995743, 0.04252909868955612, 0.19792918860912323, -0.007958625443279743, -0.25320690870285034, -0.15446285903453827, -0.31625568866729736, 0.23762769997119904, 0.06565376371145248, 0.18478982150554657, 0.2819575369358063, -0.03948147967457771, -0.173647940158844, 0.2530936300754547, 0.044891584664583206, -0.06350281834602356, -0.10437232255935669, 0.08795666694641113, -0.04976396635174751, 0.04771360009908676, 0.05938837677240372, 0.11339886486530304, -0.3047012984752655, -0.07019509375095367, 0.11111640185117722, -0.08876354992389679, -0.10427197813987732, 0.17507679760456085, -0.023464959114789963, -0.026040012016892433, -0.2494284212589264, 0.10534259676933289, -0.07418512552976608, -0.09512916207313538, -0.13411006331443787, 0.005411261692643166, 0.31567302346229553, 0.15155169367790222, 0.13592149317264557, 0.15218862891197205, 0.1243695542216301, -0.03725424036383629, -0.07553699612617493, 0.04974798485636711, -0.12721791863441467, 0.00642298674210906, -0.025565002113580704, 0.051661666482686996, -0.053681883960962296, 0.008389121852815151, 0.1477964222431183, 0.23915433883666992, -0.008813036605715752, 0.25746849179267883, 0.048186421394348145, -0.1655883938074112, -0.12415577471256256, 0.08316249400377274, 0.0613325797021389, 0.072580985724926, -0.18799105286598206, 0.17025554180145264, -0.07509774714708328, -0.2024156153202057, -0.06420358270406723, -0.21449604630470276, -0.1516159176826477, -0.09177474677562714, -0.055484674870967865, 0.3909090757369995, -0.11411403119564056, 0.1778368204832077, 0.15662148594856262, -0.21089130640029907, 0.3073884844779968, 0.31120628118515015, 0.036497559398412704, 0.027830801904201508, -0.17550510168075562, -0.13111843168735504, -0.05603860318660736, 0.24423933029174805, -0.14276520907878876, -0.16384808719158173, 0.4665226638317108, -0.11435922235250473, -0.2780187726020813, 0.073540598154068, -0.16830864548683167, -0.11549398303031921, -0.03244556114077568, -0.033422794193029404, -0.15612488985061646, 0.04495047405362129, -0.025577396154403687, 0.008407261222600937, -0.22960354387760162, -0.05085056275129318, 0.0003183557419106364, -0.22348083555698395, -0.11970590800046921, 0.10685501992702484, 0.013443789444863796, -0.22309105098247528, -0.06713073700666428, 0.047570422291755676, -0.32690173387527466, 0.064293272793293, 0.10309550166130066, -0.21256758272647858, 0.07519320398569107, -0.049486614763736725, 0.25474244356155396, 0.01981671154499054, 0.0656621977686882, -0.025921668857336044, 0.09511595219373703, 0.096763975918293, 0.21381023526191711, 0.06266658008098602, 0.05020641162991524, -0.09963729977607727, -0.025084465742111206, 0.04418114945292473, -0.11873512715101242, 0.004873302299529314, 0.07381431013345718, -0.014739817008376122, -0.03658744692802429, 0.0084866713732481, 0.30315113067626953, 0.033998627215623856, -0.2981928288936615, -0.07115985453128815, -0.009714528918266296, -0.0058894832618534565, -0.11679330468177795, -0.16229784488677979, 0.015462974086403847, -0.22051765024662018, 0.08746813982725143, -0.09971179068088531, 0.13091692328453064, -0.13404934108257294, -0.004225654061883688, -0.005184617824852467, 0.0286190677434206, -0.027878671884536743, -0.027444425970315933, 0.08195416629314423, -0.19160397350788116, 0.029503583908081055, 0.1411554366350174, -0.00787353701889515, 0.29319116473197937, 0.062355201691389084, -0.102638378739357, 0.25848132371902466, 0.08674825727939606, -0.1922578066587448, -0.09061616659164429, -0.012062137015163898, 0.02212456613779068, -0.17913170158863068, -0.10099177807569504, -0.07256793975830078, -0.10833186656236649, 0.1451074779033661, 0.1744701862335205, 0.09982732683420181, -0.03726901859045029, -0.12545263767242432, -0.09772945195436478, 0.09315258264541626, -0.0559941865503788, 0.0007667273748666048, 0.06002577766776085, -0.22946137189865112, -0.30606937408447266, 0.008542150259017944, 0.05392591655254364, 0.034372396767139435, -0.1544346958398819, -0.029434559866786003, 0.2465604692697525, 0.0010373300174251199, -0.19133929908275604, 0.239494189620018, 0.026609933003783226, -0.20844502747058868, -0.19310694932937622, 0.05591985583305359, 0.27261388301849365, -0.03343651071190834, 0.23902012407779694, -0.20917914807796478, 0.17453143000602722, 0.18389984965324402, -0.06589531898498535, 0.061751846224069595, 0.041633494198322296, -0.045422498136758804, 0.08712051063776016, 0.01959635131061077, -0.02908184751868248, 0.2383347898721695, -0.040236517786979675, -0.08224394172430038, -0.16515034437179565, -0.6035467386245728, 0.3623720407485962, -0.19480542838573456, -0.02123124524950981, 0.05150390788912773, -0.10664987564086914, -0.004539634101092815, 0.03804967179894447, -0.16702771186828613, 0.39656171202659607, 0.04756047576665878, 0.18364152312278748, 0.2286759614944458, -0.10515888780355453, 0.09425769001245499, 0.19010615348815918, 0.03811568766832352, -0.10351885855197906, -0.209411159157753, 0.13159364461898804, -0.04811475798487663, -0.2453104555606842, 0.21009336411952972, -0.13570091128349304, -0.22513724863529205, -0.1151665449142456, 0.13739469647407532, -0.06081915274262428, -0.06527552753686905, 0.1136135384440422, -0.003445371985435486, -0.11268080770969391, -0.15277409553527832, -0.2728019058704376, 0.07649820297956467, 0.06688952445983887, 0.1816694736480713, 0.11514183133840561, 0.07415714114904404, -0.3222697973251343, -0.017455385997891426, 0.005283132195472717, 0.018167244270443916, -0.029528655111789703, 0.04693756252527237, 0.07430247962474823, 0.10347706824541092, 0.12634378671646118, 0.4212389886379242, -0.17282822728157043, -0.12098760157823563, -0.2263040691614151, -0.0010426598601043224, 0.06826409697532654, 0.1364908218383789, 0.05672949552536011, -0.06363863497972488, -0.35742634534835815, 0.1691838800907135, 0.13484840095043182, 0.15009547770023346, 0.31772273778915405, -0.0333126075565815, -0.11803782731294632, -0.156903475522995, -0.00798942893743515, -0.14988866448402405, 0.047015152871608734, -0.10173632204532623, -0.23160813748836517, -0.13602973520755768, 0.08545055985450745, -0.023208903148770332, -0.2912454903125763, -0.030701985582709312, -0.16241677105426788, -0.1272456794977188, -0.03115944005548954, 0.028145553544163704, 0.08173585683107376, -0.31650257110595703, 0.4135223627090454, -0.06363670527935028, 0.11039922386407852, 0.24992156028747559, -0.04863967373967171, 0.03761134296655655, 0.28726446628570557, -0.06439665704965591, 0.19471903145313263, -0.16336286067962646, -0.12254540622234344, 0.15364859998226166, 0.0025844471529126167, -0.12419871985912323, -0.24545665085315704, -1.118419885635376, 0.27699294686317444, -0.2036823183298111, 0.6287010312080383, 0.06195802614092827, -0.12192211300134659, 0.04826676473021507, -0.012851355597376823, 0.009395666420459747, 0.7469509243965149, -0.2707984745502472, 0.1615578681230545, -0.16409529745578766, -0.13678143918514252, 0.05497094243764877, 0.4192454516887665, -0.020589543506503105, -0.46977314352989197, 0.352525532245636, 0.16779960691928864, 0.034677110612392426, 0.050007931888103485, 0.08496969938278198, 0.0534801222383976, -0.0276371818035841, -0.05906721204519272, 0.13901160657405853, 0.08886811882257462, -0.3398984968662262, 0.020288152620196342, -0.24411974847316742, 0.20067910850048065, -0.05083566531538963, 0.18372681736946106, -0.08596375584602356, -0.04177704453468323, 0.12993362545967102, 0.039757613092660904, 0.1852802336215973, -0.015359741635620594, -0.0037086931988596916, 0.16247297823429108, 0.07294836640357971, -0.18082021176815033, 0.09617532789707184, 0.03587885573506355, -0.06286176294088364, -0.13236908614635468, -0.2549125552177429, -0.0185258686542511, 0.026819806545972824, -0.025191914290189743, -0.23326775431632996, -0.10454969108104706, -0.06827807426452637, -0.03885718807578087, -0.08964129537343979, -0.01434217020869255, 0.017390355467796326, -0.05256665498018265, 0.26711201667785645, 0.19363528490066528, 0.1478808969259262, 0.04817788675427437, -0.23034067451953888, -0.027887703850865364, -0.10930360108613968, 0.27560561895370483, 0.047423407435417175, -0.25929343700408936, 0.0008169881766662002, 0.13208222389221191, -0.020247984677553177, -0.2407732903957367, 0.09208747744560242, -0.06466292589902878, -0.03068486414849758, -0.12498435378074646, 0.18824325501918793, 0.19964510202407837, 0.04926595464348793, 0.17542074620723724, 0.00327050662599504, 0.15481580793857574, -0.16126109659671783, 0.15113180875778198, 0.06486403942108154, 0.10614433139562607, -0.009576618671417236, -0.14792896807193756, -0.07288858294487, 0.03343517333269119, -0.04941866919398308, -0.08900889754295349, 0.10766366869211197, -0.19213144481182098, -0.3508357107639313, 0.2088407427072525, 0.4238988757133484, -0.4751167297363281, 0.012442554347217083, -0.7059013247489929, -0.21490295231342316, -0.46799176931381226, 0.8366503119468689, -1.0400587320327759, -0.5722021460533142, -0.888430118560791, 0.17502129077911377, -0.6648809909820557, 0.2790265679359436, -0.630690336227417, -0.044005684554576874, -0.03467131778597832, -8.853737199387979e-06, 0.16904698312282562, 0.22447311878204346, -0.14848916232585907, -0.03416560962796211, 0.06846220791339874, -0.09879765659570694, -0.11815803498029709, 0.1393672376871109, 0.11984285712242126, 0.34734243154525757, 0.09049376845359802, 0.01182881835848093, -0.021721158176660538, -0.1588721126317978, -0.3508671224117279, -0.11721485108137131, -0.007478040177375078, -0.23002435266971588, -0.1976408213376999, -0.0355275422334671, -0.18425968289375305, 0.17004822194576263, -0.30800533294677734, 0.09555743634700775, 0.10344646871089935, 0.031835928559303284, 0.06131308525800705, -0.1813783347606659, 0.10058842599391937, -0.09155365824699402, -0.15129566192626953, -0.10537482798099518, 0.36040499806404114, 0.06665513664484024, -0.2644203007221222, 0.03587125614285469, 0.09068874269723892, -0.14903907477855682, -0.04700121656060219, -0.08323713392019272, -0.1622743010520935, -0.13929001986980438, 0.09784054011106491, -0.07603325694799423, -0.04902591556310654, 0.14836269617080688, 0.03865377604961395, -0.08727665990591049, -0.3075936436653137, -0.27874279022216797, -0.07606878876686096, 0.01012897677719593, -0.13856171071529388, 0.1545097976922989, -0.017552314326167107, -0.20237652957439423, 0.24014706909656525, -0.01278528943657875, -0.20873920619487762, 0.1356695592403412, 0.07147935032844543, 0.12676124274730682, -0.0588403195142746, -0.022273192182183266, -0.16951730847358704, 0.013760220259428024, -0.06114943325519562, -0.1494799256324768, -0.02976066991686821, 0.3136623799800873, -0.0318169966340065, -0.2657145857810974, 0.33755290508270264, -0.16045092046260834, -0.1347084790468216, -0.04778921604156494, 0.06712043285369873, -0.2514278292655945, -0.19256514310836792, 0.04021167755126953, -0.16109856963157654, -0.006078982725739479, 0.05559249967336655, 0.04603128135204315, -0.17164747416973114, 0.1333536058664322, 0.3326077461242676, -0.14062468707561493, -0.11582988500595093, -0.10124466568231583, -0.23269368708133698, 0.20511573553085327, 0.18147359788417816, 0.10928536206483841, -0.14440666139125824, 0.08369729667901993, -0.07653389126062393, 0.23930221796035767, -0.04079899564385414, -0.1978054791688919, -0.04873352497816086, -0.0007665982702746987, -0.03241604566574097, -0.006345620844513178, 0.2696564197540283, -0.24253836274147034, 0.15329545736312866, -0.30606213212013245, 0.19689035415649414, 0.10000679641962051, -0.005378128029406071, 0.16855567693710327, 0.17873725295066833, -0.07459001988172531, -0.11828906089067459, 0.2191796600818634, 0.016534002497792244, 0.05358082801103592, 0.19829076528549194, -0.3294207751750946, 0.24998512864112854, 0.011473964899778366, 0.259743332862854, 0.1832868903875351, 0.1429734081029892, 0.16606420278549194, 0.30787163972854614, 0.023510271683335304, -0.15467655658721924, 0.11558787524700165, -0.15186753869056702, 0.3213801383972168, -0.2919559180736542, 0.1365799903869629, 0.12615740299224854, 0.22977790236473083, 0.05127691477537155, 0.04341365024447441, 0.09438580274581909, 0.02152065746486187, 0.2988012135028839, 0.02538732811808586, -0.009009869769215584, -0.38326823711395264, -0.04244291037321091, 0.12080816179513931, -0.3057502508163452, 0.11881330609321594, -0.05817152187228203, -0.11249212920665741, 0.12454571574926376, 0.1010851040482521, 0.2689080834388733, 0.05304013192653656, -0.06019442155957222, 0.3951203525066376, -0.04930949583649635, -0.035536330193281174, -0.10838359594345093, -0.018914809450507164, 0.154269739985466, -0.1047840341925621, -0.15855471789836884, 0.06480040401220322, -0.18580055236816406, 0.2642081677913666, 0.0804184079170227, -0.2526848316192627, 0.2746637463569641, 0.022668324410915375, 0.11613333225250244, -0.0011568439658731222, 0.18112297356128693, 0.16348841786384583, 0.3209134340286255, -0.27000582218170166, -0.08240827918052673, -0.08113705366849899, -0.08547685295343399, 0.04111706092953682, 0.18968696892261505, -0.367596298456192, 0.20537038147449493, 0.316195011138916, -0.037500254809856415, -0.20814451575279236, -0.19401323795318604, 0.21931849420070648, -0.18164896965026855, 0.10849034041166306, 0.0025415036361664534, -0.26583024859428406, 0.10603614896535873, 0.19302034378051758, 0.06877029687166214, -0.11174393445253372, 0.10614624619483948, -0.3020995259284973, -0.021191425621509552, -0.12035542726516724, -0.22038064897060394, -0.022501371800899506, -0.1670619696378708, 0.08700013160705566, -0.21827149391174316, 0.02740981988608837, 0.0627359002828598, -0.046305522322654724, 0.3170001208782196, -0.34044840931892395, 0.13267891108989716, 0.16869549453258514, -0.09572047740221024, 0.1185619905591011, 0.18815909326076508, 0.10645786672830582, -0.01677962765097618, 0.27062129974365234, 0.1626175343990326, 0.03802095353603363, -0.08234792947769165, 0.2187831997871399, 0.27118393778800964, 0.10394918918609619, 0.020761631429195404, -0.09691492468118668, -0.126275897026062, 0.3152562081813812, 0.020663021132349968, -0.029468435794115067, -0.08147396147251129, -0.14091305434703827, 0.023007065057754517, 0.06746664643287659, 0.05794890597462654, 0.18816718459129333, 0.17275559902191162, 0.21768249571323395, -0.2472051978111267, -0.190763920545578, -0.14464156329631805, -0.2283293455839157, -0.1572231501340866, -0.20368692278862, 0.15676361322402954, 0.24890780448913574, -0.10433464497327805, 0.21676811575889587, 0.04966820403933525, -0.037503913044929504, 0.17280764877796173, -0.16828693449497223, -0.12483257800340652, 0.07917634397745132, 0.11150669306516647, 0.02054271474480629, -0.04827561601996422, -0.19736705720424652, -0.035489633679389954, 0.13486289978027344, 0.2450585961341858, 0.12803508341312408, 0.005134375765919685, 0.039944928139448166, -0.20411592721939087, -0.09174926578998566, -0.17365285754203796, -0.09298132359981537, -0.04107041284441948, 0.2608165144920349, -0.001618651207536459, -0.05531126633286476, 0.011823601089417934, -0.7183232307434082, -0.032081831246614456, -0.16309122741222382, -0.37678971886634827, -0.1303802728652954, 0.010009173303842545, -0.10474403947591782, -0.1500607579946518, 0.0550689771771431, -0.0626986101269722, -0.09488588571548462, 0.12561017274856567, 0.5142940878868103, 0.1119474321603775, -0.13888846337795258, -0.4480615556240082, 0.003307043807581067, 0.14540337026119232, -0.1670614331960678, -0.2300683557987213, -0.03778758645057678, 0.24994206428527832, -0.13144473731517792, -0.005340385250747204, 0.6091194748878479, -0.18929113447666168, -0.12151031196117401, -0.015429387800395489, -0.2342970222234726, -0.3936276435852051, 0.6991637349128723, 0.13651077449321747, -0.09947489202022552, 0.2995032072067261, -0.002021043561398983, -0.1260795146226883, 0.16716578602790833, -0.12282955646514893, 0.13408075273036957, 0.21007484197616577, -0.32459819316864014, 0.012310161255300045, -0.575401246547699, 0.11362221837043762, -0.2137838751077652, -0.07547277957201004, 0.30958813428878784, -0.11462941765785217, 0.032266732305288315, 0.005863607861101627, 0.1247994601726532, -0.00894162617623806, 0.1916516274213791, 0.20249223709106445, -0.13355053961277008, -0.09471753239631653, 0.2207927703857422, -0.16710186004638672, -0.09592672437429428, 0.009434853680431843, 0.01964719220995903, -0.35677528381347656, 0.07175495475530624, -0.04810165986418724, -0.025952020660042763, -0.24260416626930237, 0.06377129256725311, 0.024542784318327904, 0.031110165640711784, 0.13560885190963745, -0.22184264659881592, 0.021968843415379524, -0.11762125790119171, -0.010402499698102474, 0.11317473649978638, 0.0721249207854271, -0.14593440294265747, -0.14953435957431793, -0.023928865790367126, -0.060945358127355576, 0.014086189679801464, 0.08784893155097961, -0.0348019115626812, 0.012143697589635849, -0.13092441856861115, -0.3152149021625519, 0.12790895998477936, 0.15525564551353455, -0.08429832011461258, -0.07488229125738144, -0.008576340973377228, 0.2574004530906677, 0.09447211772203445, -0.18356972932815552, -0.14466463029384613, 0.019343586638569832, 0.12092053890228271, -0.1517215371131897, -0.047183189541101456, 0.11466705054044724, 0.0881514921784401, -0.23918238282203674, 0.17012925446033478, -0.03750823810696602, -0.07155438512563705, 0.09882228821516037, 0.12441921979188919, 0.0393761470913887, 0.17638036608695984, 0.12585178017616272, 0.017124710604548454, 0.13104385137557983, 0.06622568517923355, -0.14272381365299225, -0.07361383736133575, 0.17325474321842194, 0.36139631271362305, -0.15037953853607178, 0.04401387274265289, 0.12128898501396179, 0.26095154881477356, 0.08313699811697006, -0.212091326713562, 0.16688990592956543, 0.09162884205579758, 0.08253586292266846, 0.0830296203494072, -0.05774083733558655, 0.0841742530465126, -0.08636467903852463, -0.04332069307565689, -0.3865410089492798, 0.014150761067867279, 0.07666031271219254, -0.11467963457107544, -0.1412511020898819, 0.061290398240089417, -0.061687808483839035, 0.07609148323535919, 0.11604238301515579, -0.017086168751120567, 0.06935684382915497, 0.03476160392165184, -0.2857072055339813, -0.10518020391464233, -0.1393042802810669, 0.29359862208366394, -0.04179024323821068, 0.022167222574353218, 0.10233883559703827, -0.13707594573497772, -0.031182190403342247, 0.0027142141479998827, -0.21520502865314484, -0.039847634732723236, -0.11062164604663849, -0.19038130342960358, 0.29057782888412476, 0.20583586394786835, -0.15557125210762024, -0.2028672695159912, -0.21258890628814697, 0.2720740735530853, 0.16400668025016785, 0.1722971647977829, -0.04632255807518959, -0.020477984100580215, -0.11680512875318527, -0.5718570351600647, -0.1677679717540741, 0.0021889572963118553, 0.07817890495061874, 0.19546234607696533, 0.2875232696533203, -0.41032686829566956, 0.031851328909397125, 0.21867868304252625, -0.022297194227576256, 0.1535947322845459, 0.1461971402168274, 0.13507743179798126, 0.3520010709762573, 0.03399566188454628, -0.07709603756666183, 0.21177572011947632, -0.13848602771759033, -0.11054834723472595, -0.10258270800113678, 0.12017485499382019, -0.19630299508571625, -0.08280409127473831, -0.10881958156824112, 0.037796750664711, 0.09575006365776062, 0.2690807282924652, 0.32164472341537476, -0.17017577588558197, -0.03806542605161667, 0.28087183833122253, -0.06734300404787064, -0.1324547827243805, 0.1255287230014801, -0.0833025872707367, -0.16635268926620483, -0.08859684318304062, 0.15363560616970062, -0.19653715193271637, -0.06725562363862991, 0.008747274056077003, -0.11726163327693939, -0.37976688146591187, 0.05281431972980499, 0.13050606846809387, -0.14160563051700592, 0.09158172458410263, 0.10055363178253174, 0.12219928205013275, 0.02538977563381195, -0.0018283675890415907, -0.0801759883761406, -0.053708210587501526, -0.024822408333420753, 0.14443422853946686, -0.14647319912910461, 0.11383587121963501, 0.18030880391597748, -0.05129045248031616, 0.0822146087884903, -0.10539112985134125, -0.012699960730969906, -0.06607821583747864, -0.1603143960237503, 0.14219127595424652, 0.0865660309791565, -0.05023888126015663, 0.010835383087396622, 0.2061740607023239, 0.1160070151090622, -0.16399723291397095, -0.04595685377717018, -0.08535756915807724, -0.04353949800133705, 0.013452243059873581, -0.10908856242895126, -0.1113775447010994, -0.34903520345687866, -0.26640036702156067, 0.10768062621355057, -0.16948750615119934, -0.06223975867033005, 0.18896286189556122, -0.000791119528003037, -0.061507705599069595, 0.0824689194560051, -0.3267233371734619, 0.040965501219034195, 0.01549194473773241, -0.1264701634645462, -0.058910027146339417, 0.055322080850601196, -0.1794026792049408, 0.005470846313983202, -0.07184547930955887, -0.05547655001282692, 0.01303391344845295, 0.06198696792125702, -0.19029086828231812, 0.06296135485172272, 0.13412171602249146, 0.2823348641395569, 0.08168897032737732, -0.06010988727211952, 0.2358391135931015, -0.03396901115775108, -0.1614956259727478, -0.11422073841094971, 0.2267151176929474, 0.19032083451747894, -0.2620392441749573, -0.09941571205854416, 0.09093707799911499, 0.36307230591773987, -0.15267033874988556, -0.13480201363563538, 0.028249621391296387, -0.20236408710479736, -0.032633695751428604, 0.18468761444091797, 0.1355312168598175, 0.07306557148694992, -0.03753603622317314, -0.13167957961559296, 0.06878642737865448, -0.1420222520828247, 0.17007316648960114, 0.033790551126003265, -0.09994708746671677, -0.022053638473153114, 0.08469142019748688, 0.018779821693897247, 0.3639993965625763, 0.1104656457901001, -0.28356415033340454, -0.18679791688919067, -0.09399246424436569, 0.10495126992464066, -0.05992963910102844, -0.159546360373497, -0.32148078083992004, -0.4300397038459778, -0.016976596787571907, -0.16699248552322388, -0.19192571938037872, -0.3186289072036743, -0.3890439569950104, -0.2104494720697403, -0.08411494642496109, 0.13321509957313538, -0.2914988398551941, -0.04304483160376549, -0.03306225314736366, -0.08570152521133423, 0.16647963225841522, 0.050203271210193634, -0.07016998529434204, 0.14921653270721436, -0.3193654417991638, -0.11245149374008179, 0.0345735028386116, 0.3904910981655121, 0.1729622483253479, 0.03389723598957062, 0.22417250275611877, -0.07079487293958664, -0.12131570279598236, -0.036812879145145416, 0.2388012409210205, 0.1286005973815918, -0.15866559743881226, 0.1328277885913849, 0.032864224165678024, -0.33586955070495605, 0.06150621548295021, 0.01420943345874548, -0.20744355022907257, 0.22024796903133392, 0.033987801522016525, -0.1369670182466507, 0.06722940504550934, 0.06595320254564285, -0.1452357918024063, 0.09432711452245712, 0.22891373932361603, -0.28203728795051575, 0.08244168758392334, 0.038533683866262436, 0.05011330172419548, -0.013107678852975368, 0.09979767352342606, -0.2324906289577484, 0.0760430321097374, 0.018185622990131378, -0.1787450611591339, -0.05180210992693901, 0.10568053275346756, 0.15298157930374146, -0.10385165363550186, -0.19919353723526, 0.03176025673747063, -0.13676778972148895, -0.02375144138932228, -0.25956979393959045, -0.012605493888258934, -0.07342641800642014, -0.35418397188186646, 0.0015886962646618485, -0.024984823539853096, -0.09320831298828125, 0.035780057311058044, 0.17078658938407898, -0.09025257080793381, -0.29794982075691223, 0.013136637397110462, 0.20278365910053253, -0.1830798089504242, -0.1100861057639122, -0.3034273386001587, 0.08139250427484512, 0.09002162516117096, -0.1074109598994255, 0.29054781794548035, -0.069193534553051, -0.23878535628318787, 0.09497643262147903, -0.07645071297883987, 0.125382199883461, 0.12110094726085663, -0.005037207156419754, -0.013656790368258953, 0.07493903487920761, 0.07245451956987381, 0.23781633377075195, -0.31848764419555664, -0.04083651676774025, -0.14811357855796814, 0.18056060373783112, 0.03695311397314072, -0.063276506960392, 0.737084686756134, 0.17791298031806946, -0.07854357361793518, 0.05103880167007446, -0.20559978485107422, -0.13290587067604065, 0.7574934959411621, 0.006279831752181053, -0.3040544092655182, 0.23033572733402252, 0.00243446440435946, -0.04799835383892059, -0.17714346945285797, 0.07030384987592697, 0.01254243589937687, 0.13652588427066803, -0.15438739955425262, 0.192554771900177, 0.0799255222082138, -0.014628552831709385, -0.16858524084091187, -0.06334684044122696, 0.05134183540940285, 0.1665097177028656, 0.1642160564661026, 0.07181890308856964, 0.05151485651731491, 0.004393550101667643, 0.029970530420541763, 0.03536353260278702, 0.04692751169204712, -0.25516191124916077, 0.012867351062595844, -0.028080493211746216, -0.14850172400474548, -0.1869177520275116, -0.11149219423532486, -0.02448652684688568, -0.04418295994400978, -0.057148028165102005, -0.2767741084098816, 0.013200289569795132, -0.4901168644428253, 0.04128485172986984, 0.1327562928199768, -0.16338308155536652, 0.009283359162509441, 0.16626235842704773, 0.09056561440229416, -0.10191494971513748, 0.14319179952144623, -0.12647537887096405, -0.1552763283252716, -0.26131144165992737, 0.2244722992181778, -0.009379107505083084, 0.021145742386579514, 0.1347946673631668, 0.022387126460671425, 0.02520674653351307, -0.3264286518096924, -0.01738380268216133, 0.02012300118803978, 0.04518475756049156, -0.1822616159915924, -0.12090323865413666, 0.025843946263194084, -0.00876186415553093, -0.1698254942893982, 0.08021152764558792, -0.03334978595376015, 0.05085812136530876, 0.14649803936481476, 0.015359225682914257, -0.011807654984295368, -0.02031053602695465, 0.089991495013237, 0.09019933640956879, -0.10660802572965622, 0.08389599621295929, 0.22189496457576752, -0.18695318698883057, 0.12028668820858002, 0.052324648946523666, 0.21683727204799652, 0.030125027522444725, 0.1378762125968933, 0.13744431734085083, -0.13830538094043732, 0.026551777496933937, 0.13359324634075165, -0.14623768627643585, 0.03327995538711548, 0.20206458866596222, 0.1889159083366394, 0.028259843587875366, 0.1214522123336792, 0.2901897132396698, 0.13860876858234406, 0.03559330850839615, 0.15241923928260803, 2.7624409995041788e-05, -0.0650627613067627, 0.177326038479805, -0.034440942108631134, -0.10880309343338013, 0.05340966582298279, 0.050222158432006836, -0.3287683129310608, -0.22080475091934204, 0.04736641049385071, 0.032275062054395676, -0.11152225732803345, -0.05034225806593895, 0.01818104460835457, -0.03128765895962715, 0.011370120570063591, -0.15407277643680573, -0.07115180790424347, -0.09851941466331482, -0.04390757903456688, 0.06619050353765488, -0.1506323665380478, -0.019059576094150543, 0.2107326239347458, -0.25231462717056274, 0.15584753453731537, 0.04976966232061386, -0.07730584591627121, 0.08169624209403992, 0.0375455878674984, -0.10254546999931335, -0.11801426857709885, -0.10130834579467773, -0.09568159282207489, 0.1154494434595108, 0.2385980188846588, 0.19613954424858093, -0.13696888089179993, -0.29679256677627563, -0.07261398434638977, 0.194068044424057, -0.22098049521446228, -0.00545151112601161, 0.20465868711471558, -0.05849665403366089, -0.1121254488825798, -0.058926619589328766, -0.07203923165798187, 0.18857786059379578, -0.06816770136356354, 0.07395000010728836, 0.08579088747501373, -0.0267411470413208, 0.03481104597449303, -0.3689618706703186, -0.14853933453559875, 0.09060243517160416, -0.06797534972429276, -0.042302098125219345, 0.17162692546844482, -0.1748373657464981, -0.2903427183628082, -0.1368934065103531, -0.22843994200229645, 0.004162466153502464, 0.10433836281299591, 0.07186522334814072, -0.1383388489484787, -0.17321524024009705, -0.03584519773721695, -0.17063957452774048, -0.23852747678756714, 0.1780511736869812, 0.055823914706707, -0.009218934923410416, 0.2035241574048996, 0.05284802243113518, -0.038975272327661514, 0.06815355271100998, -0.13366247713565826, 0.14724978804588318, 0.004370570182800293, 0.017049625515937805, -0.32441380620002747, -0.0908052995800972, -0.2015085071325302, 0.0011025036219507456, 0.23524147272109985, -0.03401555120944977, -0.0926399677991867, -0.08434278517961502, 0.16562533378601074, -0.11869142204523087, 0.23232872784137726, 0.1136082261800766, -0.11386722326278687, -0.14358919858932495, 0.01443923357874155, 0.0707411915063858, -0.12664712965488434, 0.14339660108089447, -0.09875895082950592, 0.3040207624435425, -0.010650659911334515, 0.022352341562509537, 0.10180039703845978, 0.09705044329166412, -0.23613867163658142, -0.057761501520872116, -0.16771362721920013, 0.1125335693359375, -0.2513663172721863, -0.14502698183059692, -0.21455489099025726, 0.20105761289596558, 0.036559123545885086, -0.031092965975403786, 0.12071240693330765, 0.015801841393113136, -0.199229434132576, 0.0873163491487503, -0.05412745475769043, 0.09088369458913803, 0.03181933984160423, 0.08647589385509491, 0.04104616120457649, 0.020880671218037605, -0.02370784804224968, -0.141740620136261, 0.06961026787757874, 0.042037591338157654, 0.00672081159427762, -0.06935480237007141, -0.034367501735687256, 0.12168050557374954, 0.07945404946804047, -0.04269669950008392, 0.05815691873431206, 0.06166328117251396, -0.08084506541490555, 0.10311346501111984, 0.13311658799648285, -0.06313072144985199, -0.16691119968891144, -0.2679128646850586, -0.010409687645733356, 0.015458695590496063, -0.1609099805355072, -0.01288196723908186, -0.06418192386627197, 0.23826515674591064, -0.13503502309322357, -0.375090092420578, 0.025311322882771492, -0.1922135204076767, -0.13633978366851807, -0.15950611233711243, 0.24044950306415558, 0.14791986346244812, 0.12608662247657776, 0.1608978807926178, -0.11743512004613876, 0.32620933651924133, 0.05682460218667984, 0.14590054750442505, -0.07800386846065521, -0.003330243518576026, 0.202138289809227, -0.19288571178913116, -0.13444262742996216, 0.13337098062038422, -0.09533289074897766, -0.06931313127279282, -0.020640220493078232, 0.007739434950053692, 0.0016589023871347308, -0.21052072942256927, -0.10958230495452881, -0.044766418635845184, 0.11065459251403809, 0.5558973550796509, 0.024531129747629166, -0.041710689663887024, 0.03831830993294716, -0.08889861404895782, -0.0011238344013690948, 0.20289422571659088, 0.09163084626197815, -0.10259824991226196, 0.15092000365257263, 0.08376232534646988, 0.21530631184577942, -0.2258155345916748, 0.11529157310724258, -0.13907985389232635, -0.18720798194408417, -0.04010864719748497, -0.05870968848466873, -0.061528656631708145, 0.005895810667425394, 0.3272656202316284, 0.15745499730110168, -0.11049386858940125, 0.20594923198223114, 0.120744988322258, 0.06070584058761597, -0.2839418649673462, -0.06901035457849503, 0.06003568321466446, 0.07397479563951492, 0.10167209059000015, 0.14049586653709412, 0.14015865325927734, 0.030655309557914734, -0.2613997161388397, -0.24626018106937408, 0.0924791619181633, 0.12318731099367142, 0.1784433275461197, 0.07686342298984528, 0.015464856289327145, -0.07652197033166885, 0.0758354440331459, -0.11323942989110947, -0.05558152124285698, 0.01541784405708313, -0.1461847722530365, -0.030461985617876053, -0.13000839948654175, 0.10965031385421753, 0.09982404857873917, -0.12776115536689758, -0.26283204555511475, 0.29044318199157715, 0.0731172040104866, -0.1389467716217041, 0.042399052530527115, -0.08170467615127563, -0.4046328663825989, -0.06921213865280151, -0.23985172808170319, -0.16638408601284027, 0.1862751692533493, -0.07536523044109344, 0.10932472348213196, -0.07809579372406006, 0.10289858281612396, -0.04786332696676254, -0.3036000728607178, 0.2403634786605835, -0.07899857312440872, -0.03184850513935089, 0.01622302643954754, -0.057268887758255005, 0.01850133202970028, 0.0691552609205246, 0.05382314324378967, 0.010213455185294151, -0.024430207908153534, 0.14523907005786896, -0.08179540932178497, -0.04187949746847153, -0.10518237948417664, 0.050646137446165085, 0.0506388321518898, 0.11104998737573624, 0.14551842212677002, -0.0726737529039383, 0.04473840072751045, -0.03521982207894325, 0.03447365760803223, -0.3301198184490204, -0.42655235528945923, 0.9066234827041626, 0.23212361335754395, -0.5320306420326233, -0.02941550500690937, -0.5016779899597168, -0.1394488364458084, 0.586356520652771, -0.6203931570053101, 1.1346067190170288, 0.6414322257041931, 0.17869359254837036, -0.08328051120042801, -0.07629802078008652, -0.5222464203834534, 0.04533888399600983, -0.3889712691307068, 0.08465845882892609, -0.1916925609111786, 0.004216908477246761, 0.5038051605224609, 0.5267230272293091, 0.20402464270591736, 0.14818191528320312, 0.042751993983983994, 0.09952877461910248, 0.3183133006095886, -0.39292851090431213, -0.08844271302223206, 0.3487080931663513, -0.06372714042663574, 0.39072126150131226, -0.16042836010456085, 0.001152376877143979, 0.39453938603401184, 0.31363555788993835, 0.338702529668808, 0.0461270734667778, -0.22563175857067108, -0.1560736447572708, -0.16715885698795319, -0.12722869217395782, -0.2470996081829071, 0.07772579789161682, 0.2008940428495407, -0.13146156072616577, 0.03795589506626129, 0.1953316032886505, -0.15652979910373688, -0.2966022491455078, 0.043813981115818024, 0.18627730011940002, 0.1353677362203598, -0.2898934483528137, -0.3094800114631653, -0.08774904161691666, 0.04561988264322281, -0.19773642718791962, -0.0852527916431427, 0.2914681136608124, -0.2376309484243393, -0.31436699628829956, 0.11587310582399368, 0.15100936591625214, -0.28418129682540894, 0.334789901971817, 0.06783915311098099, 0.11622069031000137, 0.3431842029094696, -0.15113519132137299, 0.37643492221832275, 0.29744628071784973, -0.16184435784816742, -0.07363905757665634, 0.4353143274784088, -0.1327780932188034, -0.13484688103199005, 0.21159763634204865, -0.39004555344581604, 0.15301857888698578, -0.04224948212504387, 0.11971942335367203, 0.009275694377720356, 0.2226843684911728, -0.07927830517292023, 0.017046425491571426, 0.0021631785202771425, 0.11662247776985168, 0.12809914350509644, -0.21350358426570892, 0.04870767518877983, -0.03346894308924675, 0.026134049519896507, 0.13827458024024963, -0.012526093050837517, 0.05729232728481293, 0.326898992061615, -0.2831863462924957, -0.0568397231400013, -0.2728129029273987, -0.21218539774417877, -0.09942344576120377, -0.06908246129751205, -0.11474896967411041, -0.004550636745989323, -0.196811705827713, -0.07484155148267746, -7.08960069459863e-05, 0.28458788990974426, 0.3665890693664551, 0.2285940945148468, 0.09754438698291779, 0.23328158259391785, -0.2882521152496338, 0.06364002078771591, 0.39231276512145996, -0.15826134383678436, 0.29289278388023376, -0.24883516132831573, -0.33817097544670105, 0.06741206347942352, 0.015603441745042801, -0.3769603669643402, 0.11419264227151871, -0.039100416004657745, -0.04915572330355644, 0.20772887766361237, 0.4391227960586548, 0.2479826658964157, -0.26042860746383667, -0.016813673079013824, 0.32533422112464905, -0.20775224268436432, -0.1361120045185089, -0.15709622204303741, 0.3140241205692291, 0.24644659459590912, 0.1817573606967926, 0.08376078307628632, 0.05420010909438133, 0.14369359612464905, -0.10053523629903793, 0.05554758384823799, -0.09793119877576828, 0.284116268157959, -0.08698947727680206, -0.04396151378750801, -0.15336734056472778, -0.01981537416577339, -0.036993615329265594, -0.04731639474630356, 0.007656221278011799, 0.0024527241475880146, -0.008612046018242836, 0.2145051658153534, -0.22104385495185852, 0.2640843093395233, -0.0886593908071518, -0.19175751507282257, 0.14691585302352905, 0.047305040061473846, -0.08160566538572311, 0.040863037109375, -0.044209692627191544, 0.020187143236398697, -0.21460935473442078, -0.23623371124267578, -0.20669445395469666, 0.2079564929008484, -0.16688334941864014, 0.02254183404147625, 0.06916913390159607, -0.18784670531749725, 0.6756514310836792, -0.4774174094200134, 0.30474910140037537, -0.17755135893821716, -0.04151983931660652, -0.11368276178836823, 0.2573211193084717, -0.09987854212522507, 0.07696513086557388, 0.0375806950032711, 0.22723601758480072, 0.12982815504074097, -0.2638966143131256, 0.02084149233996868, 0.020597582682967186, -0.11660951375961304, -0.035590339452028275, 0.17477501928806305, -0.08909262716770172, 0.06287667155265808, -0.008636100217700005, 0.009000860154628754, -0.08293363451957703, 0.35216811299324036, 0.130211740732193, 0.3773316740989685, -0.22183534502983093, -0.19222469627857208, -0.3249119222164154, 0.38184693455696106, -0.3733746409416199, -0.2999538481235504, 0.02025611884891987, -0.12123434245586395, -0.553173303604126, -0.3264133930206299, 0.10506346076726913, -0.2904001474380493, 0.01016052532941103, 0.06626279652118683, -0.30043673515319824, -0.2169807106256485, 0.1518499106168747, 0.07006768882274628, 0.16972894966602325, 0.22408922016620636, -0.08442448079586029, 0.20736953616142273, 0.5673836469650269, -0.1869635432958603, -0.17231018841266632, 0.14356009662151337, 0.06540685147047043, -0.3097376227378845, -0.019521011039614677, -0.09481173753738403, 0.07540762424468994, 0.2096032053232193, 0.13618940114974976, -0.04254797473549843, 0.10656282305717468, -0.23246867954730988, -0.1150001510977745, 0.4252157211303711, -0.4167473614215851, -0.11326730251312256, 0.08072206377983093, 0.44332170486450195, -0.14574502408504486, 0.07444211840629578, 0.005664441734552383, -0.22520364820957184, 0.1258697360754013, -0.26066479086875916, 0.1544121354818344, 0.19823594391345978, 0.08966231346130371, 0.11312445253133774, -0.00602320209145546, 0.070980004966259, -0.10717189311981201, -0.1930345743894577, -0.015446747653186321, -0.28623950481414795, -0.049869686365127563, 0.08990197628736496, -0.2243768870830536, 0.04176962003111839, -0.01717700995504856, -0.16732817888259888, 0.04681931436061859, -0.10200107842683792, 0.08917562663555145, 0.2214701920747757, -0.26396167278289795, -0.4099763035774231, 0.052748844027519226, -0.040106676518917084, 0.08670537173748016, 0.022715648636221886, -0.020246148109436035, 0.12902949750423431, -0.16851398348808289, 0.09968554973602295, 0.1459074169397354, 0.020519720390439034, -0.1176513284444809, -0.18922816216945648, 0.0024010855704545975, 0.10211622714996338, 0.15973477065563202, 0.14099548757076263, -0.027012644335627556, 0.07915978878736496, 0.22416038811206818, 0.07019219547510147, -0.1670926958322525, -0.14899325370788574, -0.3233802616596222, 0.3528144061565399, 0.03650590404868126, -0.30208244919776917, 0.3979754149913788, -0.016875009983778, -0.016416577622294426, -0.04404309764504433, 0.1361328661441803, -0.07186259329319, 0.0005202700849622488, 0.19154012203216553, -0.0308371614664793, 0.2748633921146393, 0.010869397781789303, -0.06745901703834534, 0.09241876751184464, 0.0071778250858187675, -0.23911471664905548, 0.010740659199655056, -0.011294323951005936, 0.2905181050300598, 0.2122570127248764, -0.020505603402853012, -0.13896170258522034, 0.17269013822078705, 0.19291287660598755, -0.09207914769649506, 0.31972503662109375, 0.340776264667511, 0.011658020317554474, -0.1155395433306694, 0.0913655236363411, 0.24696330726146698, -0.10247209668159485, -0.1514214277267456, 0.1271834522485733, 0.038515616208314896, -0.20689402520656586, -0.1574312448501587, 0.20630547404289246, -0.08035390824079514, 0.09007780998945236, -0.23129954934120178, -0.1366906464099884, 0.09916580468416214, -0.10669618099927902, -0.04279877990484238, 0.2623743414878845, -0.40057918429374695, 0.2034377157688141, -0.35083144903182983, 0.11405640840530396, 0.06472595036029816, 0.014241798780858517, -0.2286142259836197, 0.7798372507095337, 0.560699999332428, 0.2052459418773651, 0.2034500688314438, -0.23789945244789124, -0.02274337038397789, -0.14314186573028564, 0.19502820074558258, -0.053648967295885086, -0.4469543397426605, -0.3928928077220917, 0.07714754343032837, 0.17497390508651733, 0.06878510117530823, -0.06396197527647018, 0.10636011511087418, 0.20583441853523254, 0.39272361993789673, 0.3409014940261841, 0.3076866865158081, 0.08107423782348633, 0.39507725834846497, -0.08886938542127609, -0.1831870675086975, -0.020808152854442596, -0.08680576086044312, -0.36442434787750244, 0.0025979711208492517, 0.27752169966697693, -0.123139888048172, 0.07782840728759766, -0.2850090563297272, 0.029280534014105797, -0.2420342117547989, -0.2632421553134918, -0.022267291322350502, -0.20183022320270538, -0.26624056696891785, -0.1288599669933319, 0.1658688634634018, 0.15088911354541779, 0.17545616626739502, -0.03225100785493851, -0.17008356750011444, 0.26464831829071045, -0.035507164895534515, 0.006221203599125147, -0.09796284884214401, 0.10872699320316315, -0.14361563324928284, -0.14530324935913086, -0.23239611089229584, -0.13074445724487305, -0.01964544877409935, 0.15949583053588867, 0.1929740160703659, 0.0893205776810646, 0.022680876776576042, 0.10682624578475952, 0.41751450300216675, 0.18837952613830566, 0.34850838780403137, 0.1779128462076187, 0.05476345121860504, -0.12269692122936249, 0.12584902346134186, 0.11198677867650986, 0.06624400615692139, 0.06880751252174377, -0.15895292162895203, -0.13005855679512024, -0.15560877323150635, -0.041125040501356125, -0.12877622246742249, -0.037512365728616714, 0.10717722028493881, 0.25199151039123535, -0.034760281443595886, 0.22068756818771362, 0.08012942969799042, 0.19019918143749237, -0.10309190303087234, -0.03131930157542229, 0.03790717199444771, 0.0868551954627037, 0.05415680259466171, 0.013165426440536976, -0.007759019732475281, 0.05260412395000458, 0.1489412635564804, 0.06878580152988434, -0.050967875868082047, -0.09597412496805191, 0.2586798071861267, 0.420562744140625, -0.019015219062566757, 0.13509878516197205, 0.24971222877502441, -0.19406433403491974, 0.16788563132286072, -0.08863233774900436, -0.09813228994607925, 0.03556370735168457, 0.052820466458797455, -0.02067715860903263, -0.1253758668899536, 0.05254506319761276, 0.20161667466163635, -0.041496146470308304, -0.025091426447033882, -0.05297018587589264, -0.03860991448163986, 0.012577931396663189, -0.004018228501081467, 0.038185376673936844, 0.38745078444480896, -0.013108744286000729, 0.13846296072006226, -0.0709070935845375, -0.007374932058155537, 0.09742604196071625, 0.2030191421508789, -0.024133794009685516, 0.031615301966667175, 0.08030755072832108, -0.11835221201181412, -0.21777717769145966, 0.18287499248981476, -0.1118929535150528, 0.0348481610417366, -0.08059348165988922, -0.034120261669158936, 0.08569156378507614, -0.05552825331687927, 0.027706725522875786, 0.04206095635890961, -0.002224493306130171, 0.1541353464126587, 0.11454683542251587, 0.29037728905677795, -0.2528403401374817, 0.0038479778449982405, -0.1937652826309204, -0.04345894604921341, 0.1430726796388626, -0.1447068452835083, -0.033949971199035645, -0.23329229652881622, 0.2575511634349823, 0.21566124260425568, -0.008255858905613422, -0.08824928104877472, -0.033419687300920486, -0.0032775141298770905, -0.14604903757572174, -0.02265840582549572, -0.15889620780944824, 0.10273416340351105, -0.021570960059762, -0.06333466619253159, 0.057764049619436264, 0.034752074629068375, -0.010852562263607979, -0.07554411888122559, -0.19779418408870697, -0.10791857540607452, 0.2931060492992401, -0.08625739812850952, -0.06534954905509949, -0.07484416663646698, -0.07052408903837204, -0.21723178029060364, -0.1315920352935791, -0.08633647114038467, 0.019519060850143433, -0.18271954357624054, -0.027288950979709625, -0.0441596582531929, -0.14827311038970947, -0.03752007335424423, -0.03604412078857422, -0.01120107714086771, -0.11625439673662186, -0.018072981387376785, -0.21482698619365692, 0.04116607829928398, 0.044893305748701096, 0.078115314245224, 0.3058531880378723, 0.0021550669334828854, -0.1534832864999771, -0.13821271061897278, 0.14571580290794373, -0.3164304494857788, 0.0009788250317797065, -0.14995978772640228, -0.2697649896144867, -0.005020273383706808, -0.01966734416782856, 0.04055885970592499, 0.15062487125396729, -0.09469473361968994, -0.06466612219810486, -0.05555086210370064, 0.010063723661005497, -0.1148766577243805, 0.056845031678676605, -0.07359938323497772, -0.03621252253651619, 0.14279986917972565, 0.0018075070111081004, -0.24549128115177155, -0.11113832890987396, 0.056088998913764954, 0.05593091621994972, 0.02432200498878956, 0.13951192796230316, 0.03590534254908562, -0.20139861106872559, -0.03895781934261322, 0.04464052990078926, -0.0793089047074318, 0.04447793960571289, -0.05485951900482178, 0.12580350041389465, -0.0422515943646431, 0.13278275728225708, -0.04592815041542053, 0.10466787964105606, 0.19339072704315186, -0.1908484250307083, 0.08517634123563766, -0.35467827320098877, 0.049996133893728256, -0.2283606380224228, -0.12734881043434143, 0.2868037521839142, -0.18898910284042358, 0.29984667897224426, -0.0731126144528389, -0.1734694093465805, 0.22776898741722107, -0.020234405994415283, -0.12740525603294373, -0.03508888930082321, -0.023795796558260918, -0.05583145096898079, -0.14784549176692963, 0.009315947070717812, 0.05802159756422043, 0.15335118770599365, -0.025210311636328697, -0.3764539361000061, 0.12494370341300964, 0.11730067431926727, -0.11943673342466354, -0.10322882235050201, 0.040067799389362335, 0.055411893874406815, 0.3302811086177826, 0.14296989142894745, -0.10016127675771713, -0.31229454278945923, -0.09888645261526108, 0.07726100832223892, 0.33633774518966675, 0.005100983660668135, -0.16003626585006714, 0.1779341697692871, -0.0034222975373268127, -0.40548399090766907, 0.3091190457344055, 0.1429576277732849, -0.07203162461519241, 0.05272230878472328, -0.23106080293655396, -0.10547308623790741, -0.09870900213718414, 0.028322922065854073, 0.13436341285705566, -0.19140943884849548, 0.171819806098938, -0.17239569127559662, 0.018485544249415398, 0.01660764217376709, -0.1053440198302269, 0.26410651206970215, 0.05956773832440376, -0.1634504348039627, 0.27591025829315186, -0.04503830149769783, -0.11079882830381393, -0.18175019323825836, -0.17002873122692108, -0.002026863396167755, -0.07572685182094574, -0.03303920477628708, 0.18375682830810547, 0.18900641798973083, -0.02271721512079239, 0.04079008102416992, 0.025555146858096123, -0.03873095661401749, 0.016483129933476448, -0.192121684551239, -0.10824384540319443, -0.16454938054084778, 0.3810223639011383, 0.08109724521636963, -0.22922715544700623, -0.1739180088043213, 0.1774805188179016, -0.04708333685994148, 0.16298261284828186, 0.14877255260944366, 0.027343999594449997, -0.06303203105926514, 0.006675760727375746, -0.07179641723632812, 0.014139434322714806, -0.13246850669384003, 0.058174554258584976, -0.09052445739507675, -0.14310964941978455, -0.226003959774971, 0.03335384279489517, 0.0160196702927351, 0.16580098867416382, 0.17020858824253082, 0.007183746434748173, 0.053634826093912125, -0.1839541792869568, -0.12666372954845428, -0.19276036322116852, -0.39053022861480713, 0.04299279302358627, -0.05761426314711571, -0.07315921783447266, 0.06658831238746643, 0.08258569985628128, -0.016148412600159645, -0.014749542810022831, 0.12826940417289734, 0.044734109193086624, -0.08497218787670135, 0.012588641606271267, -0.2377617359161377, -0.14902997016906738, -0.05054542049765587, 0.2375037968158722, 0.1293822079896927, 0.03564423322677612, 0.19496256113052368, 0.15611734986305237, 0.05859603360295296, -0.41730865836143494, -0.2748435139656067, 0.07964755594730377, 0.22910599410533905, -0.17931890487670898, 0.04636380076408386, -0.09360559284687042, -0.06819000840187073, 0.2149420529603958, 0.39212551712989807, -0.09500525891780853, 0.03631743788719177, -0.08375141024589539, 0.1532086282968521, -0.0694926306605339, -0.13911698758602142, 0.18101632595062256, -0.05938270688056946, 0.13089968264102936, 0.11551841348409653, -0.04293343424797058, 0.18963727355003357, 0.023379061371088028, 0.14707748591899872, 0.16192366182804108, 0.07971282303333282, -0.020393535494804382, 0.11532603949308395, -0.00378071004524827, 0.13185228407382965, 0.2723037898540497, 0.13133205473423004, 0.20317520201206207, 0.10504231601953506, -0.11929722875356674, 0.013422280550003052, -0.015774527564644814, 0.045144349336624146, 0.12039607763290405, 0.1424674093723297, -0.10257191210985184, 0.2123786360025406, -0.08195193856954575, 0.06274447590112686, -0.0036602108739316463, 0.024218875914812088, 0.010025086812675, -0.010334417223930359, 0.5023624897003174, 0.048282377421855927, 0.05384787544608116, -0.1699732542037964, 0.09161882102489471, 0.03798498585820198, -0.22800910472869873, -0.008513462729752064, -0.10884362459182739, 0.11705619841814041, -0.14304417371749878, 0.0192257110029459, 0.1260395348072052, -0.326748788356781, 0.16227295994758606, -0.050365347415208817, 0.07643431425094604, -0.012641745619475842, -0.13182315230369568, -0.13210977613925934, 0.08350788056850433, 0.10935663431882858, 0.06726132333278656, 0.001952718710526824, -0.1987418681383133, 0.1992727518081665, 0.24928225576877594, -0.20172247290611267, -0.3754154443740845, 0.07473111897706985, -0.12811139225959778, -0.06422789394855499, 0.1322643905878067, 0.14955437183380127, 0.03901103511452675, 0.06286711990833282, 0.15209993720054626, -0.023827357217669487, -0.34965288639068604, -0.405002236366272, 0.28238311409950256, -0.003919730428606272, 0.18405413627624512, 0.0429193377494812, -0.024234818294644356, -0.10854977369308472, 0.018454570323228836, 0.20502686500549316, -0.07140398025512695, -0.13468416035175323, 0.05719791725277901, 0.08691689372062683, -0.42640921473503113, 0.17392568290233612, -0.2566872239112854, 0.10379939526319504, 0.11916965991258621, 0.1302219182252884, 0.09888385981321335, 0.13853174448013306, -0.10004346817731857, 0.2748493552207947, -0.043941378593444824, -0.11510413885116577, 0.029629115015268326, 0.05128942430019379, 0.22073855996131897, -0.1454925686120987, 0.1585758477449417, -0.2951214611530304, -0.19365695118904114, -0.2411014884710312, -0.2392766773700714, 0.20340779423713684, -0.24280253052711487, -0.15752483904361725, -0.0630391463637352, -0.23790457844734192, -0.18037904798984528, 0.06162114068865776, 0.20993945002555847, -0.03391630947589874, -0.07915355265140533, -0.1872469037771225, -0.22513672709465027, -0.027529390528798103, 0.3671238124370575, 0.03011382929980755, -0.09524116665124893, -0.253441721200943, 0.07550622522830963, 0.031378522515296936, -0.20553377270698547, -0.010548718273639679, 0.20224247872829437, 2.8990307328058407e-05, -0.03454781323671341, -0.010120096616446972, 0.17147965729236603, 0.05541123077273369, -0.15555144846439362, 0.07941652834415436, 0.3719932436943054, -0.11293341964483261, -0.07591649144887924, 0.024067347869277, 0.15707649290561676, -0.1299368441104889, -0.028513269498944283, 0.11272872984409332, 0.14367620646953583, 0.07782728970050812, 0.0047931969165802, 0.017992112785577774, -0.1747446209192276, 0.045673273503780365, 0.0021623405627906322, -0.40730151534080505, -0.06259670853614807, -0.09364186227321625, -0.0067406343296170235, -0.06561021506786346, 0.06667492538690567, 0.18601690232753754, 0.015834501013159752, -0.06734271347522736, 0.06225404888391495, -0.04048546776175499, 0.22765719890594482, -0.34080663323402405, -0.17574605345726013, -0.246986985206604, 0.05214697867631912, -0.2153623402118683, -0.05081135779619217, 0.35542574524879456, 0.017380693927407265, -0.44881755113601685, 0.007663676515221596, -0.09821496903896332, -0.21977092325687408, 0.05554501339793205, -0.006309090182185173, -0.21989093720912933, 0.183217853307724, -0.03315281867980957, -0.313466340303421, -0.13287188112735748, 0.21325042843818665, -0.05599294602870941, 0.2569844126701355, 0.07410836964845657, 0.03994002193212509, 0.025604525581002235, -0.05828208848834038, -0.21810534596443176, 0.3013596534729004, -0.01667405478656292, 0.24455854296684265, -0.1527881771326065, -0.04668782278895378, 0.11598550528287888, -0.14345493912696838, 0.04843856394290924, -0.007702131289988756, 0.5514916181564331, -0.04375879839062691, -0.3070155382156372, 0.13722458481788635, -0.08998925238847733, 0.2488812953233719, -0.07633186131715775, -0.07250253856182098, -0.041283879429101944, -0.09724711626768112, 0.048875950276851654, -0.08389512449502945, 0.14932073652744293, -0.03866428881883621, -0.20630298554897308, 0.21212638914585114, 0.22105970978736877, -0.19171622395515442, -0.030987730249762535, 0.1316327452659607, -0.17567922174930573, -0.139720156788826, -0.009538957849144936, 0.08561268448829651, -0.09673333913087845, 0.02907479554414749, -0.27439308166503906, -0.05659481883049011, 0.19472427666187286, -0.11805970221757889, 0.134858638048172, -0.153412327170372, -0.09398850053548813, -0.27185776829719543, -0.10900267213582993, -0.24370917677879333, -0.07195556163787842, 0.13077695667743683, 0.09380139410495758, -0.10948026180267334, 0.13169750571250916, 0.055490266531705856, -0.10337536036968231, 0.08524556457996368, -0.3458349406719208, -0.12306225299835205, 0.18658828735351562, -0.08222175389528275, -0.2207147181034088, 0.21230870485305786, 0.13828833401203156, 0.17192380130290985, 0.021478772163391113, -0.09893638640642166, -0.06538940221071243, 0.035874638706445694, 0.034436896443367004, -0.06742105633020401, -0.04777112603187561, 0.24162589013576508, 0.003076900728046894, 0.3324284255504608, 0.21126964688301086, -0.01590338721871376, 0.06172679364681244, -0.15454429388046265, -0.09185364842414856, -0.040581684559583664, -0.14372317492961884, 0.06504151970148087, -0.10801007598638535, -0.19411064684391022, 0.09981919080018997, -0.0386899895966053, 0.11901075392961502, -0.13407793641090393, 0.05363591015338898, -0.1468004584312439, 0.03488645702600479, -0.04963056743144989, -0.32465124130249023, -0.061509061604738235, -0.050253190100193024, 0.41769713163375854, 0.22452397644519806, -0.0030810313764959574, 0.0380822978913784, 0.05679943785071373, -0.19179216027259827, -0.2307678461074829, 0.040032971650362015, -0.005745853763073683, -0.04801710695028305, 0.09966626018285751, 0.20184853672981262, -0.23395396769046783, 0.45219141244888306, 0.06909612566232681, -0.03230687975883484, 0.11111006140708923, -0.1631155163049698, 0.13596317172050476, 0.26227614283561707, 0.059665143489837646, 0.07950640469789505, 0.35676079988479614, -0.0346943624317646, -0.0311927180737257, -0.009607435204088688, -0.035524338483810425, 0.09276367723941803, 0.03417249023914337, -0.17204220592975616, -0.16324517130851746, 0.31233057379722595, -0.11767435073852539, 0.011678297072649002, -0.11123128980398178, 0.029019031673669815, -0.07418319582939148, -0.006775772664695978, 0.037939224392175674, 0.013050892390310764, 0.43212154507637024, 0.007762550376355648, 0.003960177768021822, -0.229722797870636, 0.05461876839399338, -0.1509973704814911, -0.40201449394226074, 0.0352742038667202, -0.10930627584457397, 0.04283846169710159, 0.023593656718730927, 0.009414050728082657, 0.1891811639070511, -0.151728093624115, 7.200515392469242e-05, -0.05922263115644455, 0.10002399235963821, -0.02330474555492401, -0.3952711522579193, 0.13905780017375946, -0.057571250945329666, 0.13678716123104095, 0.12051955610513687, -0.07808659225702286, -0.12728017568588257, 0.00788147933781147, 0.0660562664270401, 0.025210214778780937, -0.15818831324577332, 0.145303875207901, 0.18541477620601654, 0.02493251860141754, -0.012549514882266521, 0.44882890582084656, 0.22319556772708893, 0.7049978971481323, -0.6893155574798584, -0.39071378111839294, 0.03128465265035629, 0.20039156079292297, 0.10214528441429138, 0.11919718980789185, 0.36582234501838684, -1.109519362449646, 0.12912963330745697, 0.1163109838962555, -0.5275430083274841, 0.07879545539617538, -0.04589997977018356, -0.24599479138851166, -0.5155375599861145, 0.22065702080726624, -0.3794817626476288, 0.06670185923576355, 0.33150163292884827, 0.0455646812915802, -0.1813414841890335, -0.11945895105600357, -0.017273850739002228, -0.08350257575511932, 0.1474318951368332, 0.032995421439409256, -0.177959144115448, 0.08671647310256958, -0.038541410118341446, -0.5750105977058411, -0.06640155613422394, -0.09383828938007355, -0.06698426604270935, 0.08438455313444138, -0.19429953396320343, -0.11400770395994186, -0.2587577998638153, -0.3537524938583374, 0.13486623764038086, -0.39637884497642517, -0.2943136394023895, -0.23375961184501648, 0.34831923246383667, 0.05469851940870285, 0.5041608214378357, -0.46264341473579407, -0.030326690524816513, 0.03513156250119209, 0.19359330832958221, 0.225636288523674, -0.1770116537809372, -0.6311582326889038, -0.05693807825446129, 0.2751958966255188, -0.37487873435020447, -0.41150087118148804, -0.5196707248687744, -0.011401577852666378, 0.2800454795360565, -0.17000927031040192, 0.16549937427043915, -0.04954049363732338, -0.26322659850120544, -0.1522984802722931, 0.22099153697490692, 0.2111741155385971, 0.27055594325065613, 0.1634587049484253, 0.09473872184753418, -0.15473397076129913, -0.34304457902908325, 0.11382907629013062, -0.04211573302745819, 0.19718165695667267, 0.05911319702863693, 0.06807112693786621, -0.5077477097511292, 0.2028011828660965, 0.04033510014414787, -0.06644643843173981, -0.19092077016830444, -0.13639086484909058, -0.20453673601150513, 0.18930481374263763, -0.2451508790254593, 0.15138614177703857, -0.23744072020053864, 0.3199915587902069, 0.7310444116592407, -0.27564966678619385, -0.42311590909957886, -0.3162255585193634, -0.3293427526950836, -0.16259746253490448, 0.2690231502056122, 0.14128625392913818, 0.3621930778026581, -0.5449919104576111, 0.10587122291326523, 0.3324826955795288, 0.2397705614566803, 0.029887253418564796, 0.40083059668540955, -0.3551812469959259, 0.28390827775001526, 0.11991816014051437, 0.09590300917625427, -0.5434168577194214, 0.30012714862823486, -0.12352434545755386, -0.17813733220100403, -0.1322331726551056, 0.29720476269721985, 0.09829472750425339, -0.1938222050666809, 0.10291935503482819, 0.1477314531803131, -0.16891713440418243, 0.07882420718669891, 0.026210693642497063, -0.08137118071317673, 0.18397977948188782, 0.2196531891822815, 0.12398353964090347, -0.10277349501848221, -0.33707621693611145, 0.18694338202476501, -0.4525068402290344, 0.25401657819747925, 0.49655526876449585, 0.1365036517381668, -0.26104339957237244, 0.20817717909812927, 0.08026763796806335, 0.18354123830795288, -0.0707135945558548, -0.20294497907161713, -0.04520120471715927, -0.15614072978496552, 0.034229688346385956, -0.15344297885894775, -0.24701020121574402, 0.21465431153774261, -0.14085063338279724, 0.028819788247346878, 0.03927493095397949, 0.14469338953495026, -0.14744065701961517, -0.05987650156021118, -0.10443174093961716, -0.11170869320631027, -0.11288153380155563, -0.4771917462348938, 0.18396402895450592, -0.025677422061562538, 0.07614283263683319, 0.06605660915374756, -0.12368914484977722, 0.23551885783672333, 0.17643126845359802, -0.12392377108335495, -0.19394196569919586, 0.10240518301725388, -0.11752057075500488, 0.20006228983402252, -0.27839595079421997, 0.013633313588798046, 0.2094423472881317, -0.1568543165922165, 0.23327694833278656, -0.11136779189109802, 0.5286943316459656, 0.0337030254304409, -0.32317453622817993, 0.20537787675857544, -0.385489821434021, -0.420210063457489, 0.3259561359882355, 0.2599543333053589, -0.09413465112447739, -0.4062064290046692, 0.3139009475708008, -0.32189902663230896, -0.33843639492988586, -0.12237254530191422, 0.043797556310892105, -0.22040127217769623, 0.2025267779827118, -0.3725256621837616, 0.13197170197963715, 0.08363120257854462, -0.1163117066025734, -0.331874281167984, -0.1885659098625183, -0.16403895616531372, 0.16463841497898102, -0.09928193688392639, -0.3528154194355011, -0.023615866899490356, 0.43787410855293274, 0.36069613695144653, -0.3116998076438904, 0.2937288284301758, -0.09280594438314438, -0.042521700263023376, 0.5141604542732239, 0.4005924165248871, 0.24359062314033508, 0.25306519865989685, 0.008064068853855133, 0.4453904330730438, -0.21708959341049194, -0.21217752993106842, 0.060826800763607025, -0.14896470308303833, -0.4111517667770386, -0.0055457656271755695, -0.19868974387645721, 0.39835745096206665, -0.2725335359573364, -0.6557920575141907, -0.13452798128128052, 0.20926356315612793, 0.06680909544229507, 0.2939087450504303, -0.24813808500766754, 0.0016920639900490642, -0.2519199252128601, -0.08582977205514908, -0.029987933114171028, 0.34861278533935547, 0.05379994586110115, -0.17997679114341736, -0.35296350717544556, -0.23274189233779907, -0.04684013873338699, 0.1104893758893013, 0.10708887130022049, -0.13496805727481842, 0.03517165035009384, 0.3788292706012726, -0.00807713158428669, -0.3353801369667053, 0.3150774836540222, 0.44270849227905273, -0.2608773112297058, 0.31124746799468994, -0.3732064664363861, -0.058942053467035294, 0.299862802028656, -0.034471917897462845, -0.08097878843545914, 0.3801153302192688, 0.003479492384940386, 0.22435492277145386, -0.23290808498859406, 0.15270672738552094, 0.01252483855932951, -0.25254079699516296, 0.4692894518375397, 0.289756715297699, -0.19297842681407928, 0.0398273766040802, -0.3574059009552002, -0.043030451983213425, 0.4589872658252716, -0.03918635845184326, 0.10645214468240738, 0.16356003284454346, -0.15697859227657318, 0.0514967255294323, 0.12221898883581161, 0.016947705298662186, 0.18726837635040283, -0.0029947063885629177, 0.10078562051057816, 0.06665436178445816, -0.12809689342975616, 0.1404004991054535, 0.07575435191392899, 0.09665092080831528, -0.10820475220680237, -0.030911149457097054, -0.13589690625667572, -0.0036358691286295652, -0.08916226774454117, 0.035483282059431076, 0.2753945291042328, -0.15382897853851318, 0.11818651854991913, -0.41133445501327515, -0.04253014549612999, -0.10953091084957123, -0.37900400161743164, -0.1265486776828766, 0.15702222287654877, 0.07064828276634216, -0.1626492738723755, 0.002726188628003001, 0.010138457641005516, 0.04390472546219826, 0.009652535431087017, -0.16701629757881165, 0.00035231997026130557, -0.22557023167610168, 0.17599818110466003, 0.11409135907888412, -0.25282415747642517, 0.20221485197544098, 0.1298946887254715, -0.07720645517110825, -0.0531749464571476, 0.14419594407081604, -0.15528061985969543, 0.18893572688102722, 0.03967760503292084, -0.19229167699813843, -0.011354455724358559, -0.021211352199316025, -0.20244185626506805, 0.09522950649261475, -0.046460915356874466, 0.12885944545269012, -0.21482057869434357, 0.031815219670534134, -0.24610742926597595, -0.06950314342975616, -0.05510282889008522, -0.28238630294799805, 0.2301599681377411, -0.026665663346648216, 0.12369624525308609, -0.2708248794078827, -0.05997603014111519, 0.05572336167097092, 0.2333662211894989, -0.12445740401744843, -0.2178601771593094, 0.1492941677570343, -0.02195361815392971, -0.11845523864030838, -0.12492183595895767, -0.07949348539113998, 0.07977399230003357, 0.03403054550290108, -0.03351316973567009, -0.1556960791349411, -0.04025304317474365, -0.12086387723684311, -0.1424040049314499, -0.07220064103603363, 0.0747399553656578, 0.19579990208148956, 0.07398463040590286, -0.4443751573562622, 0.04107825085520744, -0.13757823407649994, 0.05146340653300285, -0.011374802328646183, 0.006626664195209742, 0.19786103069782257, 0.11897113919258118, -0.092788465321064, 0.06949693709611893, -0.26819267868995667, -0.26421624422073364, -0.18491487205028534, -0.023684034124016762, -0.06766057759523392, -0.1360010802745819, -0.1518009752035141, 0.030095968395471573, 0.21558904647827148, 0.10246120393276215, -0.09720558673143387, 0.04689911752939224, -0.17996084690093994, -0.07196486741304398, -0.11952710151672363, -0.12910939753055573, -0.19962289929389954, -0.17515255510807037, -0.2579304873943329, -0.1186901181936264, -0.016042260453104973, 0.18118837475776672, -0.1360241025686264, -0.12310907244682312, -0.36745360493659973, -0.037283215671777725, 0.04095112532377243, 0.26747238636016846, 0.03129866346716881, -0.03125791996717453, 0.08787817507982254, 0.03018234856426716, -0.11982164531946182, -0.14843057096004486, 0.23498685657978058, -0.004197349306195974, -0.26165875792503357, -0.37672293186187744, -0.014880365692079067, 0.1765710413455963, -0.06847240775823593, 0.3871532678604126, 0.24190492928028107, 0.28035423159599304, 0.2505449950695038, -0.25506463646888733, -0.28153136372566223, 0.2278803288936615, -0.1289946436882019, 0.17064781486988068, -0.19462546706199646, -0.20156526565551758, 0.16776937246322632, -0.1807025969028473, 0.11969206482172012, 0.3024352192878723, 0.2445196956396103, 0.11381487548351288, 0.0789567083120346, 0.05288713797926903, 0.13433122634887695, 0.03570127859711647, -0.097527414560318, -0.04308260604739189, 0.17257827520370483, -0.2294151484966278, -0.3233284056186676, 0.0035982616245746613, 0.11042826622724533, 0.2570551633834839, -0.7914918065071106, 0.11705074459314346, 0.0803668349981308, -0.2199225276708603, 0.19857773184776306, 0.11806692183017731, 0.15932334959506989, 0.23725667595863342, 0.05999511852860451, 0.078823022544384, -0.06227654963731766, -0.23752202093601227, 0.19985787570476532, 0.1740409880876541, -0.1312294900417328, 0.1096576526761055, -0.16604001820087433, 0.025139138102531433, -0.03409247472882271, -0.0562676340341568, -0.03206198662519455, -0.13207732141017914, -0.22767409682273865, 0.05293222889304161, -0.19709493219852448, 0.07634294778108597, -0.11786164343357086, -0.027980778366327286, -0.09632498025894165, -0.4336855709552765, -0.12340842932462692, 0.04295456036925316, 0.10894853621721268, 0.11207754909992218, 0.05935458093881607, 0.08314952254295349, -0.14222270250320435, 0.08774883300065994, 0.08974632620811462, 0.09380514174699783, -0.022553490474820137, 0.12133798003196716, 0.1327478587627411, -0.18047623336315155, 0.1433977633714676, 0.3013187646865845, -0.2370087206363678, -0.14772777259349823, -0.2781319320201874, 0.18349842727184296, 0.2098405957221985, 0.09074748307466507, 0.039643917232751846, -0.10829140990972519, -0.2558249235153198, 0.06126484274864197, -0.21712937951087952, 0.06474484503269196, 0.01980035938322544, 0.17399848997592926, -0.2916431128978729, 0.2691073715686798, 0.11336749792098999, -0.09396287798881531, -0.10985429584980011, 0.050810907036066055, 0.511652410030365, -0.06919883191585541, -0.3321169912815094, 0.17263726890087128, 0.18722403049468994, 0.10639593750238419, 0.29442089796066284, 0.1793176233768463, 0.057739365845918655, -0.15118637681007385, 0.0026086473371833563, 0.11626142263412476, -0.12389887869358063, -0.3277132213115692, -0.029264386743307114, 0.023035366088151932, 0.12351242452859879, 0.007901365868747234, -0.1413658857345581, 0.05181831121444702, -0.16263799369335175, -0.03461816906929016, -0.14030510187149048, 0.06148036941885948, 0.08099990338087082, -0.19985568523406982, -0.045912276953458786, -0.06839360296726227, -0.2476758509874344, 0.017283428460359573, 0.16709618270397186, -0.015201987698674202, 0.17603348195552826, -0.37295734882354736, -0.010117677971720695, -0.028087079524993896, -0.09258684515953064, -0.09609720855951309, 0.056434374302625656, -0.12060482054948807, -0.17634811997413635, -0.09309659153223038, -0.1975172460079193, 0.07771503180265427, 0.008822028525173664, -0.36753490567207336, 0.07556036859750748, -0.029413068667054176, 0.5310252904891968, 0.0016401251778006554, -0.11409226804971695, -0.20120574533939362, 0.0486912801861763, 0.12316706031560898, -0.004576235543936491, 0.12966401875019073, 0.0723833367228508, -0.14320679008960724, -0.09092633426189423, 0.19889765977859497, -0.2802797555923462, -0.2645207941532135, 0.012050079181790352, -0.20758312940597534, 0.030553176999092102, 0.0037356268148869276, -0.15508073568344116, 0.05944957584142685, 0.19325366616249084, -0.1564023494720459, -0.0713789090514183, -0.07609248906373978, 0.08112596720457077, -0.14467363059520721, -0.3198123276233673, -0.07064724713563919, -0.019186966121196747, 0.12315810471773148, 0.09262911230325699, -0.03418288007378578, -0.14877943694591522, 0.040140461176633835, 0.11003725230693817, -0.06954445689916611, 0.1479940265417099, 0.01314026489853859, 0.20704597234725952, -0.16567547619342804, -0.0791935920715332, 0.011350424960255623, 0.2509956359863281, 0.02458306960761547, 0.20056886970996857, -0.14188064634799957, -0.12135842442512512, -0.04483770206570625, -0.22027826309204102, 0.12406837195158005, -0.01937592774629593, 0.14849306643009186, 0.12734316289424896, -0.08163177967071533, -0.3739089369773865, -0.08046868443489075, 0.1387568861246109, -0.060761213302612305, -0.1020798534154892, -0.10124317556619644, 0.05328994244337082, -0.18951040506362915, 