{"version": "0.5.1", "metadata": {"date": {"year": 2023, "month": 5, "day": 16, "hour": 8, "minute": 1, "second": 58}, "loudness": -12.73271369934082, "gain": 0.3049109403289823, "name": null, "modeled_by": null, "gear_type": null, "gear_make": null, "gear_model": null, "tone_type": null}, "architecture": "WaveNet", "config": {"layers": [{"input_size": 1, "condition_size": 1, "head_size": 8, "channels": 16, "kernel_size": 3, "dilations": [1, 2, 4, 8, 16, 32, 64, 128, 256, 512], "activation": "Tanh", "gated": false, "head_bias": false}, {"input_size": 16, "condition_size": 1, "head_size": 1, "channels": 8, "kernel_size": 3, "dilations": [1, 2, 4, 8, 16, 32, 64, 128, 256, 512], "activation": "Tanh", "gated": false, "head_bias": true}], "head": null, "head_scale": 0.02}, "weights": [0.17013198137283325, 0.2774176597595215, -1.1009401082992554, -0.717578113079071, -0.42207685112953186, 0.5436996817588806, -0.19012770056724548, 0.7787519693374634, -0.3084048628807068, 0.39666736125946045, -0.40498390793800354, -0.12906034290790558, -0.8247672915458679, -0.8848466277122498, -0.47377583384513855, -0.06028668209910393, 0.5032768845558167, 0.00813097320497036, -0.10441409051418304, 0.3732585906982422, 0.013972999528050423, 0.1369846910238266, -0.48997145891189575, 0.15427649021148682, -0.039559636265039444, -0.4373222589492798, 0.17544247210025787, -0.15408867597579956, -0.5461204648017883, -0.0008742170757614076, -0.07513131946325302, 0.5841414928436279, -0.12510083615779877, -0.02409203350543976, -0.5972965359687805, -0.09002792835235596, -0.10105231404304504, 0.5740835666656494, 0.02128198742866516, 0.09410448372364044, -0.5199034810066223, -0.00451776385307312, 0.01441995333880186, 0.3141622543334961, -0.1309901624917984, -0.04580366238951683, -0.389918714761734, 0.1293502300977707, -0.0792187750339508, -0.46561041474342346, 0.14507319033145905, 0.12107931077480316, -0.3848854601383209, 0.0655398815870285, 0.07759298384189606, -0.5441582798957825, 0.06782269477844238, -0.13244156539440155, -0.5679067373275757, -0.029763052240014076, 0.053173650056123734, 0.5617374777793884, -0.016748379915952682, -0.015061809681355953, 0.02272355556488037, -0.09723393619060516, 0.18287435173988342, -0.09783343225717545, -0.05517410859465599, 0.27317309379577637, 0.029450874775648117, 0.08077242970466614, -0.09408073127269745, 0.2572759985923767, 0.2617039084434509, -0.020999373868107796, 0.15662157535552979, 0.02661868743598461, -0.11739350855350494, -0.20406405627727509, -0.2831936180591583, 0.2662189304828644, 0.19103606045246124, -0.013218531385064125, -0.11593884229660034, -0.15899573266506195, -0.16764140129089355, 0.07380387932062149, 0.1543406993150711, 0.021123629063367844, -0.10382194072008133, -0.054659269750118256, -0.049613866955041885, 0.18827469646930695, -0.021515673026442528, 0.04371039941906929, -0.07009284943342209, 0.13722272217273712, 0.0170137882232666, -0.21572326123714447, 0.27081233263015747, 0.2374151647090912, -0.20275987684726715, 0.09799155592918396, 0.0075811888091266155, -0.14423787593841553, 0.011324777267873287, 0.024638520553708076, -0.1546839326620102, 0.021098027005791664, -0.23958180844783783, 0.18617579340934753, 0.011957264505326748, 0.09622114896774292, 0.11393197625875473, -0.03177943825721741, -0.05161743238568306, 0.04134988784790039, -0.06590323895215988, 0.04942117631435394, 0.01862635836005211, -0.07877149432897568, -0.04730190336704254, 0.03170952945947647, -0.22520846128463745, -0.07035211473703384, -0.06937067955732346, 0.02584003657102585, -0.07713799178600311, -0.09738288074731827, -0.16108424961566925, 0.038732171058654785, -0.112290158867836, 0.08619940280914307, 0.08565851300954819, 0.019128523766994476, -0.1220497265458107, 0.001807906897738576, 0.022556938230991364, 0.16846413910388947, 0.10348120331764221, 0.11175016313791275, 0.02815733291208744, -0.007344620767980814, -0.15435928106307983, -0.16075709462165833, 0.11257560551166534, -0.033532824367284775, -0.15842704474925995, -0.09370549768209457, -0.1726309210062027, -0.2160409688949585, -0.010953378863632679, 0.047701865434646606, -0.02207205630838871, -0.1293124109506607, 0.05952952429652214, 0.07059338688850403, 0.058469634503126144, -0.04912130907177925, -0.028124695643782616, 0.3757697641849518, -0.10406395047903061, -0.17933890223503113, 0.2683183252811432, -0.047445133328437805, -0.022009341046214104, -0.2285408079624176, -0.0695764496922493, 0.037547241896390915, -0.161050483584404, 0.0003593136207200587, 0.17605145275592804, -0.2591822147369385, -0.09418876469135284, 0.037435177713632584, 0.3061022460460663, -0.09907449036836624, 0.15785084664821625, -0.49773356318473816, 0.005498306825757027, -0.07780437916517258, 0.4007309675216675, -0.006872518453747034, 0.12386125326156616, -0.29537564516067505, -0.022414619103074074, -0.07400751113891602, 0.20233464241027832, 0.04317055270075798, 0.1618356555700302, -0.21739964187145233, -0.07369370758533478, 0.06718838214874268, -0.40715616941452026, -0.04729677364230156, -0.03366293013095856, -0.2368549406528473, -0.03365947678685188, 0.044198665767908096, -0.29780787229537964, 0.14027367532253265, -0.0542609728872776, -0.40117567777633667, -0.0411529541015625, 0.01205194927752018, 0.3629457652568817, 0.15498700737953186, -0.027542559430003166, 0.12004061043262482, -0.11797977238893509, -0.01731325313448906, 0.19043795764446259, -0.05891453102231026, -0.015827128663659096, -0.14944474399089813, -0.07462086528539658, -0.08867278695106506, -0.05081627517938614, -0.07857539504766464, -0.015889525413513184, -0.03933550789952278, 0.07078540325164795, -0.004012179560959339, 0.054535161703825, 0.04067273437976837, -0.06141484156250954, -0.19797638058662415, -0.015156730078160763, -0.00824670772999525, 0.1783498227596283, 0.09177469462156296, 0.05165702849626541, -0.005892493762075901, 0.1294744610786438, -0.08677610009908676, 0.24522997438907623, -0.13380098342895508, -0.05796262249350548, -0.12344501167535782, 0.07337787002325058, 0.12232795357704163, -0.2068430334329605, 0.02083815634250641, 0.061283573508262634, -0.31331494450569153, 0.13146646320819855, -0.12850286066532135, -0.1730586290359497, 0.006087420042604208, -0.07393314689397812, -0.14938192069530487, 0.1490868330001831, -0.09857526421546936, 0.06901463866233826, -0.034600626677274704, 0.26498618721961975, -0.10535118728876114, -0.2652331292629242, 0.3031482696533203, -0.1823188215494156, -0.03129604831337929, -0.32748833298683167, 0.21792037785053253, 0.16350293159484863, -0.4502796530723572, 0.07133911550045013, 0.15348312258720398, -0.29543250799179077, 0.14149154722690582, 0.0506112314760685, 0.35871925950050354, -0.25433751940727234, -0.1042189672589302, -0.5555827021598816, -0.0035571414045989513, 0.3010326623916626, 0.315796822309494, -0.12450878322124481, -0.07567247003316879, -0.5047457218170166, 0.01563296653330326, 0.034904394298791885, 0.5135053396224976, -0.09284824877977371, -0.010280530899763107, -0.49270424246788025, 0.1419783979654312, 0.1034778505563736, -0.4344463050365448, 0.019641060382127762, 0.17617486417293549, -0.3547513782978058, 0.10228321701288223, 0.07734707742929459, -0.5025875568389893, 0.2094365954399109, 0.013250143267214298, -0.37362512946128845, 0.053728606551885605, 0.05457308143377304, 0.5397779941558838, -0.107815682888031, -0.1774480938911438, 0.017916319891810417, -0.19202455878257751, 0.3540627956390381, -0.005546968430280685, -0.07212133705615997, 0.24940496683120728, -0.04916541650891304, 0.11118264496326447, -0.21347083151340485, 0.015101744793355465, 0.1825476586818695, -0.1704486459493637, -0.011216524988412857, 0.1454327553510666, -0.20398445427417755, -0.04689601808786392, -0.13781574368476868, 0.29139140248298645, -0.07785723358392715, 0.13623639941215515, -0.2331724464893341, 0.062204115092754364, -0.05217752233147621, 0.2850852906703949, 0.11661618947982788, 0.05240090936422348, -0.4300651550292969, -0.18892426788806915, -0.00021295655460562557, 0.3450446128845215, -0.03913745656609535, 0.1960321068763733, -0.1781422197818756, 0.19974514842033386, 0.25394219160079956, -0.17419308423995972, 0.03290342539548874, 0.08251652866601944, -0.1406552791595459, 0.1476236879825592, 0.048310860991477966, -0.14288240671157837, 0.12528425455093384, 0.21551592648029327, -0.36717668175697327, 0.0012492395471781492, -0.20939448475837708, 0.4918261468410492, 0.12865480780601501, -0.44046568870544434, -0.09076843410730362, 0.2532900273799896, -0.4263545870780945, 0.03826127201318741, -0.29274964332580566, 0.42779913544654846, -0.08563002943992615, -0.33374613523483276, 0.2772549092769623, 0.12953311204910278, -0.11632302403450012, 0.5277650952339172, 0.1463167369365692, 0.06655330210924149, -0.5091601610183716, -0.06361024081707001, -0.3044295608997345, 0.5725154280662537, 0.00021468581689987332, 0.12433275580406189, -0.5330837965011597, -0.10651297867298126, -0.11698917299509048, 0.6000365614891052, 0.18222270905971527, 0.2964704930782318, -0.2588399052619934, -0.06343603134155273, -0.14567111432552338, 0.5509176254272461, 0.10464389622211456, -0.05409814044833183, 0.49904540181159973, 0.14876648783683777, -0.24004024267196655, 0.45407822728157043, 0.03287220001220703, -0.23097187280654907, 0.3157106637954712, -0.05347133055329323, -0.31071725487709045, 0.5073125958442688, 0.14084266126155853, 0.2529478967189789, -0.5192857384681702, -0.1808900088071823, 0.04172847419977188, 0.046387143433094025, -0.13303227722644806, 0.1500541865825653, 0.15821757912635803, -0.11166288703680038, 0.11843957751989365, 0.009294533170759678, -0.04344772920012474, 0.0627196654677391, -0.1783670037984848, -0.01221392210572958, 0.10927056521177292, -0.0990152582526207, -0.10675890743732452, -0.04324086010456085, 0.05660553276538849, -0.03726939111948013, 0.021953562274575233, 0.044399943202733994, -0.0008451566100120544, -0.06916064023971558, 0.11049258708953857, 0.06748098134994507, 0.08676265925168991, -0.19995075464248657, -0.02194724790751934, -0.09682240337133408, 0.03450706601142883, 0.03662687912583351, -0.11319585889577866, -0.04422958195209503, 0.11775607615709305, 0.011157410219311714, -0.18447139859199524, -0.05870123580098152, 0.013186906464397907, -0.21288996934890747, 0.07344205677509308, -0.14786331355571747, -0.24008731544017792, -0.13561569154262543, -0.04039756953716278, -0.0007956042536534369, -0.1355198621749878, 0.14777277410030365, 0.015436512418091297, 0.0989883691072464, 0.07624039053916931, -0.062439996749162674, 0.3139965534210205, 0.08941667526960373, 0.14474031329154968, 0.18825094401836395, -0.09961219877004623, 0.11845124512910843, -0.11110161989927292, 0.05904793366789818, -0.11326923966407776, -0.16083328425884247, -0.1551414132118225, -0.06454436480998993, -0.09110157936811447, -0.09033840894699097, 0.05169212445616722, 0.19860295951366425, -0.01735760271549225, -0.13495521247386932, -0.2446618527173996, -0.03274780511856079, 0.06572806090116501, 0.25969070196151733, 0.05592987686395645, -0.057609666138887405, -0.07554122060537338, -0.1273268312215805, -0.12522099912166595, 0.18706649541854858, -0.08983463793992996, 0.04834564030170441, -0.2167350798845291, -0.08365453034639359, -0.12820900976657867, -0.040644221007823944, -0.024531124159693718, 0.11063098162412643, -0.02748861536383629, 0.06862447410821915, 0.0012696997728198767, -0.16340041160583496, -0.04717487096786499, 0.00447802571579814, -0.0491025447845459, -0.043556537479162216, 0.21979022026062012, 0.09411147981882095, 0.06077495962381363, -0.31383851170539856, 0.29758673906326294, 0.2320099025964737, -0.406818151473999, 0.1771276444196701, -0.01525017898529768, 0.35228127241134644, 0.03078083135187626, -0.17012770473957062, 0.31689950823783875, -0.031511422246694565, -0.14232642948627472, 0.3350929319858551, -0.11480948328971863, 0.20278030633926392, -0.3283627927303314, 0.03026663139462471, -0.10234486311674118, 0.36918315291404724, -0.15045325458049774, 0.1068546324968338, -0.19627350568771362, 0.06446441262960434, -0.10197285562753677, 0.25612008571624756, -0.04122589901089668, -0.004541075322777033, -0.37049463391304016, 0.012200232595205307, 0.0246803667396307, 0.2468622475862503, -0.07460945844650269, -0.19510067999362946, 0.4161399006843567, 0.0716698095202446, -0.2040877491235733, 0.15451377630233765, -0.18752282857894897, -0.0967898890376091, 0.24762028455734253, -0.17755109071731567, -0.15989117324352264, 0.30479755997657776, -0.15772628784179688, 0.17193560302257538, -0.3726252615451813, -0.035140927881002426, -0.0009008035412989557, 0.28338930010795593, 0.05735260620713234, -0.054673340171575546, 0.05600646510720253, 0.22085393965244293, -0.07117688655853271, -0.24811731278896332, 0.07203541696071625, -0.027307327836751938, -0.08326485753059387, -0.08450464904308319, 0.0302431583404541, -0.1486060917377472, 0.0025449946988373995, -0.05071729049086571, -0.013813522644340992, 0.011490883305668831, 0.008372706361114979, -0.05493464320898056, -0.22176803648471832, 0.07486964017152786, 0.0833006277680397, 0.055127955973148346, 0.18024985492229462, -0.040820084512233734, 0.015843313187360764, 0.02836802788078785, 0.082331083714962, -0.0029061678797006607, 0.053592752665281296, 0.007744753733277321, -0.14207440614700317, -0.06592047214508057, -0.041117846965789795, 0.056465864181518555, 0.022140758112072945, -0.23104636371135712, -0.20471534132957458, 0.10086320340633392, -0.12725746631622314, -0.15590952336788177, 0.09470854699611664, -0.05811912938952446, 0.029764041304588318, 0.0389368012547493, 0.03958941996097565, 0.0366884209215641, -0.19979682564735413, 0.055318668484687805, 0.33147549629211426, -0.04552029073238373, -0.24462293088436127, 0.3002040684223175, 0.25644388794898987, 0.24753515422344208, -0.29276683926582336, 0.0612042210996151, 0.014709974639117718, -0.03635745123028755, 0.05160970985889435, 0.07102061063051224, -0.08986279368400574, -0.17170123755931854, -0.2080167531967163, 0.16712145507335663, 0.09197168797254562, 0.03237159550189972, -0.10090421885251999, -0.17823801934719086, -0.07275661826133728, 0.2938295304775238, 0.19599075615406036, 0.15589460730552673, -0.07402253150939941, -0.09419840574264526, -0.19881153106689453, 0.3007546365261078, 0.15199007093906403, -0.004091885406523943, -0.22129568457603455, 0.00347530422732234, 0.2532530128955841, -0.20213130116462708, -0.020467132329940796, 0.10884574055671692, -0.07318677753210068, 0.15360791981220245, 0.16958220303058624, -0.16079622507095337, 0.16351567208766937, 0.09404867142438889, -0.23466259241104126, -0.21370939910411835, -0.30318695306777954, 0.29975053668022156, -0.09151280671358109, 0.10506441444158554, 0.054924074560403824, -0.06053861975669861, -0.07471060007810593, 0.08897233754396439, -0.017845166847109795, 0.09758555144071579, -0.07570748031139374, 0.03159727901220322, 0.05203888192772865, -0.019572285935282707, 0.18512767553329468, -0.11580855399370193, -0.07271301001310349, -0.126482754945755, 0.04716242104768753, 0.093104787170887, -0.018786711618304253, 0.020682157948613167, -0.0021686514373868704, -0.10114739835262299, 0.12446509301662445, -0.15683001279830933, 0.07264623045921326, 0.11528201401233673, 0.018969843164086342, 0.05055613070726395, -0.016810528934001923, 0.07950718700885773, -0.07486394792795181, -0.03472909331321716, 0.015395103022456169, 0.10398203879594803, 0.028326798230409622, 0.15690436959266663, 0.04689600691199303, -0.024447504431009293, 0.14463362097740173, 0.02722782827913761, 0.10550510138273239, -0.05472662299871445, 0.05102608725428581, -0.024602999910712242, 0.10595112293958664, 0.014680241234600544, -0.05677580088376999, -0.17314161360263824, 0.33201462030410767, -0.04693567380309105, -0.20545582473278046, 0.17029784619808197, 0.04423220083117485, -0.0920105054974556, -0.26275354623794556, -0.0893411710858345, 0.3265143930912018, -0.3765392601490021, 0.0844767615199089, 0.2451099306344986, -0.33977678418159485, 0.09187951683998108, 0.09853053092956543, 0.3003743886947632, -0.13716505467891693, -0.2502821087837219, -0.2722422778606415, 0.19729793071746826, 0.2036629319190979, 0.36151188611984253, -0.06638750433921814, -0.29575666785240173, -0.434435099363327, -0.04532312601804733, 0.38136476278305054, 0.2317640483379364, -0.027763668447732925, -0.18121489882469177, -0.18583200871944427, 0.18030454218387604, 0.3611238896846771, -0.37335458397865295, 0.04846836254000664, 0.15050166845321655, -0.3460007607936859, 0.08155643194913864, 0.3583966791629791, -0.3888354003429413, 0.1341169774532318, 0.15932844579219818, -0.3012721836566925, 0.16788218915462494, 0.20210836827754974, 0.26993852853775024, -0.165963813662529, -0.17749011516571045, 0.05732337385416031, -0.35873666405677795, 0.298452228307724, -0.0815654918551445, -0.38465774059295654, 0.19925475120544434, 0.10628299415111542, 0.22193306684494019, -0.13305364549160004, 0.11083636432886124, 0.35916489362716675, -0.2755865156650543, -0.03520442172884941, 0.2411937117576599, -0.3034740388393402, 0.03141056001186371, -0.1838587075471878, 0.31758105754852295, -0.03402043506503105, 0.35041069984436035, -0.2652316689491272, 0.12308415025472641, -0.3362089693546295, 0.09256087243556976, -0.00990411825478077, 0.39187103509902954, -0.3331022560596466, 0.1526588797569275, -0.23168553411960602, 0.08692999929189682, -0.04805406555533409, 0.41888242959976196, -0.3034024238586426, -0.07669978588819504, 0.32730165123939514, -0.3166751563549042, 0.06273413449525833, 0.34085777401924133, -0.1035047397017479, -0.10765339434146881, 0.42235663533210754, -0.28127363324165344, 0.1209866851568222, 0.14253324270248413, -0.32500889897346497, 0.17580845952033997, -0.334113210439682, 0.15932084619998932, -0.008480118587613106, 0.11569139361381531, -0.14428210258483887, 0.03403196483850479, -0.20451368391513824, 0.11819765716791153, 0.022127216681838036, 0.008789745159447193, 0.07702593505382538, 0.022772978991270065, -0.03229709342122078, 0.00619776314124465, -0.047953080385923386, 0.0037070377729833126, -0.05565623193979263, -0.1064210757613182, 0.4624055325984955, -0.28032466769218445, 0.8410921692848206, -0.7699359059333801, -0.033092960715293884, 0.798215925693512, 1.2502225637435913, -0.5766628384590149, 0.16937336325645447, 0.23770208656787872, -0.37876927852630615, -0.2775023579597473, 0.4374391734600067, -0.7386319041252136, -0.055696286261081696, 0.6327254176139832, -0.25836312770843506, 0.12030923366546631, 0.06519275158643723, 0.27461856603622437, 0.43771329522132874, -0.13461250066757202, -0.08962032943964005, -0.06869835406541824, -0.019569572061300278, -0.04297884181141853, -0.1750773936510086, -0.021903671324253082, 0.021956492215394974, -0.04720277711749077, 0.20025917887687683, -0.27323874831199646, 0.3211061358451843, -0.2608609199523926, -0.3032609224319458, 0.15942300856113434, 0.10963121801614761, -0.13544027507305145, -0.13132472336292267, 0.18716123700141907, -0.036838632076978683, -0.2081373631954193, 0.0252394899725914, 0.05897383391857147, -0.06311970204114914, 0.08373132348060608, 0.13792037963867188, 0.273002028465271, 0.17357125878334045, 0.0885343998670578, -0.1134231761097908, 0.10812940448522568, -0.2491781860589981, -0.14478160440921783, 0.22130727767944336, -0.22531327605247498, -0.030274083837866783, -0.35373347997665405, 0.2758810818195343, -0.35929134488105774, -0.033417560160160065, 0.32218286395072937, 0.2576279938220978, -0.15000887215137482, 0.39147743582725525, -0.1688038408756256, -0.06512221693992615, -0.13412699103355408, 0.00327154528349638, -0.038970720022916794, -0.08285266906023026, -0.06262264400720596, -0.2294766902923584, 0.051814354956150055, -0.09046850353479385, 0.1345708668231964, 0.20134718716144562, 0.21262481808662415, -0.31988584995269775, 0.05580611526966095, -0.18403246998786926, -0.3811059892177582, -0.3049669861793518, 0.3011026680469513, 0.22363194823265076, 0.11607200652360916, -0.06160739064216614, 0.07308896631002426, 0.16835664212703705, 0.11862953007221222, -0.2881638705730438, 0.26492443680763245, -0.03316892683506012, 0.17862443625926971, -0.062492284923791885, 0.035986416041851044, -0.22215791046619415, 0.030124638229608536, 0.08499794453382492, 0.00844841729849577, 0.15843196213245392, 0.20041219890117645, 0.4400733709335327, -0.043258849531412125, 0.07491449266672134, -0.034119609743356705, -0.06964138150215149, -0.13845548033714294, 0.11023611575365067, -0.02931423857808113, 0.029750961810350418, 0.40936440229415894, 0.1562344878911972, -0.1044827252626419, 0.18828999996185303, 0.3654654324054718, -0.1463020145893097, -0.32662540674209595, 0.02399628423154354, -0.18828247487545013, 0.04913698136806488, -0.455116868019104, -0.43704408407211304, -0.03921280801296234, 0.2274695783853531, -0.08373310416936874, -0.06769827008247375, -0.15946680307388306, 0.27875399589538574, 0.16258008778095245, 0.22041623294353485, -0.3753293752670288, -0.36157506704330444, 0.19388169050216675, 0.2019600123167038, 0.18898457288742065, 0.005284947343170643, -0.3152287006378174, 0.4679376482963562, -0.24342894554138184, 0.07841065526008606, -0.044210564345121384, -0.013278892263770103, 0.23150838911533356, -0.1134875938296318, 0.20420022308826447, -0.36461141705513, -0.40641188621520996, -0.17713209986686707, -0.2958436608314514, 0.2106322944164276, -0.35919860005378723, -0.3755398690700531, -0.2718279957771301, 0.4733353853225708, 0.0012499488657340407, 0.20945343375205994, 0.018415391445159912, -0.035804376006126404, 0.29056838154792786, -0.16602317988872528, 0.17212910950183868, 0.2919995188713074, -0.45632800459861755, -0.39623749256134033, 0.009443886578083038, 0.42630764842033386, -0.27621227502822876, 0.01931448094546795, 0.21128320693969727, 0.2498106062412262, 0.07142940908670425, 0.3657035827636719, 0.10423069447278976, -0.23393972218036652, 0.4316304922103882, 0.2405117303133011, 0.29853618144989014, -0.3310493528842926, 0.2079818993806839, -0.2250703126192093, -0.38604646921157837, 0.27214378118515015, -0.4616777002811432, 0.05429349094629288, -0.25861799716949463, -0.2294853925704956, -0.19230535626411438, 0.03182162716984749, 0.2121608555316925, -0.32414373755455017, 0.30590513348579407, -0.06557539850473404, -0.21907198429107666, 0.18193164467811584, 0.26430800557136536, 0.15536752343177795, -0.17276686429977417, -0.1601809859275818, -0.20539285242557526, 0.03934371471405029, -0.2557583153247833, -0.2604057490825653, -0.0681905746459961, -0.13763724267482758, 0.0857413038611412, -0.18418578803539276, -0.3652381896972656, 0.02397138997912407, -0.16837583482265472, 0.09955449402332306, 0.12933646142482758, 0.24309028685092926, -0.07736028730869293, -0.0458453968167305, 0.12264912575483322, 0.24990154802799225, -0.16622857749462128, -0.3182241916656494, 0.22435015439987183, 0.05096162110567093, -0.164372518658638, 0.03931596875190735, 0.1391470581293106, 0.03134426474571228, -0.2594771981239319, -0.12623949348926544, 0.28588488698005676, -0.0858636423945427, 0.04730972647666931, 0.20657330751419067, -0.11327987909317017, -0.04616258293390274, -0.15432149171829224, -0.1419689953327179, 0.1698373407125473, -0.20697647333145142, 0.022296588867902756, -0.08444596827030182, 0.039079513400793076, -0.2258930653333664, 0.28129953145980835, -0.038137197494506836, -0.1532241851091385, 0.004849609453231096, -0.1335369050502777, 0.46214622259140015, -0.1715065985918045, -0.294524610042572, 0.02754657156765461, 0.06119358539581299, -0.2220083475112915, 0.22542423009872437, 0.1727459877729416, -0.3668493628501892, 0.09461168944835663, 0.4853506088256836, 0.06087856367230415, 0.19681194424629211, -0.1916196048259735, -0.057423848658800125, 0.4148493707180023, -0.14690431952476501, 0.6129639744758606, -0.13668501377105713, -0.20946839451789856, 0.07268481701612473, -0.0979079082608223, -0.10811523348093033, 0.22424575686454773, 0.3874751031398773, -0.12294302880764008, 0.08539804071187973, -0.1639956533908844, 0.25447073578834534, -0.2569882869720459, -0.19681081175804138, -0.018742244690656662, 0.10895487666130066, 0.030082697048783302, 0.029350196942687035, -0.16172821819782257, 0.09853381663560867, -0.06638132780790329, -0.003824647981673479, 0.10364179313182831, -0.04046821966767311, -0.014194498769938946, 0.09607229381799698, -0.07998954504728317, -0.06249070540070534, 0.053275879472494125, -0.018448129296302795, 0.10265498608350754, -0.0008706699591130018, 0.058350820094347, -0.0080390814691782, -0.14350034296512604, -0.03820696100592613, -0.05378890782594681, -0.01849971152842045, -0.12668661773204803, -0.039997804909944534, 0.06004507467150688, 0.05455293133854866, 0.138215109705925, 0.045810092240571976, -0.06481555849313736, 0.06065419316291809, -0.057921331375837326, 0.11027837544679642, -0.12398279458284378, -0.05413354933261871, 0.24156454205513, 0.012879527173936367, -0.19795197248458862, 0.2036304622888565, 0.0179121270775795, 0.005914300214499235, 0.03253612667322159, 0.08541560918092728, -0.006140344310551882, -0.2307199388742447, -0.07032013684511185, -0.08621887862682343, -0.09620144218206406, -0.08083932101726532, -0.05133476108312607, 0.10578589141368866, -0.17820334434509277, -0.2025761902332306, 0.25968533754348755, 0.22155943512916565, 0.06333073228597641, -0.14732275903224945, -0.20381654798984528, 0.09453544020652771, -0.17234031856060028, 0.20077405869960785, -0.30753061175346375, -0.17286337912082672, -0.07187680900096893, 0.03247968107461929, 0.09076710790395737, 0.23505988717079163, -0.32852086424827576, -0.10448479652404785, -0.2441292256116867, -0.05477461963891983, -0.4334702491760254, 0.04237300157546997, -0.030029766261577606, -0.22578129172325134, -0.04958636686205864, 0.14354407787322998, -0.38512858748435974, 0.10997343063354492, 0.23748362064361572, 0.1095801368355751, 0.15358075499534607, -0.14723239839076996, -0.008885174989700317, -0.10583816468715668, 0.00983252190053463, -0.11783483624458313, -0.19839300215244293, -0.010448300279676914, -0.14710058271884918, 0.06553566455841064, -0.19824768602848053, -0.43997329473495483, 0.1017724946141243, -0.07068110257387161, -0.4081483483314514, -0.06944355368614197, 0.10656791925430298, 0.05281989276409149, 0.061178456991910934, -0.045545823872089386, -0.13625983893871307, -0.09936530888080597, -0.02114379219710827, 0.37230366468429565, -0.27126020193099976, 0.043682727962732315, -0.08953684568405151, 0.05794065073132515, 0.04212728887796402, 0.13164009153842926, -0.15635594725608826, 0.08786333352327347, 0.1626807451248169, -0.0012438121484592557, 0.10846970975399017, -0.08343610167503357, -0.11883467435836792, 0.20986653864383698, -0.20298457145690918, 0.03621026873588562, -0.14087851345539093, 0.003071027807891369, 0.08870332688093185, 0.2603393793106079, -0.440980464220047, -0.27549245953559875, -0.276006817817688, 0.03499861806631088, 0.13269129395484924, -0.03979542478919029, 0.0478411503136158, -0.025127612054347992, -0.08546474575996399, 0.18844042718410492, 0.005141995847225189, 0.010065744630992413, -0.19572287797927856, 0.0438305139541626, 0.31796708703041077, -0.2877180874347687, 0.12472467869520187, 0.2765016555786133, -0.1165236383676529, 0.026390474289655685, 0.15435345470905304, -0.09607578814029694, 0.06956123560667038, -0.12885983288288116, 0.15223930776119232, 0.1420210748910904, -0.19499324262142181, 0.18910697102546692, 0.08313685655593872, -0.13257502019405365, -0.25647878646850586, 0.0343964546918869, 0.10642310976982117, 0.30285120010375977, 0.15717358887195587, -0.1695442646741867, -0.3418934941291809, -0.14371949434280396, 0.09127745777368546, 0.1765495091676712, -0.1298682987689972, -0.030299969017505646, -0.06218769773840904, 0.060259055346250534, 0.09603840857744217, 0.39736682176589966, 0.017399992793798447, -0.0886949896812439, -0.2486284375190735, 0.11048121005296707, -0.0027002703864127398, 0.3182096481323242, -0.24410827457904816, 0.1952596753835678, -0.06331577897071838, 0.2978692054748535, 0.3913648724555969, 0.09336715191602707, -0.0001587566948728636, 0.009612377732992172, -0.33033487200737, 0.03111497312784195, -0.0893806666135788, -0.0018400399712845683, 0.16191215813159943, -0.13268393278121948, -0.08745744824409485, -0.24745984375476837, -0.15208223462104797, -0.43072569370269775, -0.1914096176624298, -0.01269183773547411, -0.01579538732767105, 0.1581575721502304, 0.056926943361759186, 0.2985425889492035, -0.04073348268866539, -0.11326928436756134, 0.09498490393161774, 0.07030827552080154, 0.010203603655099869, 0.3085736334323883, 0.06329066306352615, 0.04266224429011345, 0.1410742551088333, -0.31023314595222473, -0.17775405943393707, -0.10480950772762299, -0.2033933848142624, 0.129281684756279, 0.1229557991027832, -0.07513123750686646, -0.18976785242557526, 0.04936998710036278, 0.031223630532622337, -0.003971257247030735, -0.033271998167037964, -0.15842141211032867, -0.16185112297534943, -0.03552883490920067, 0.05279482901096344, 0.11933369934558868, 0.020406540483236313, -0.15584324300289154, -0.23264412581920624, -0.2319411188364029, -0.0110356155782938, 0.07927237451076508, -0.022698624059557915, -0.20403768122196198, -0.059041958302259445, 0.18924540281295776, -0.05239076912403107, -0.012426688335835934, 0.04318637773394585, -0.10866357386112213, 0.19803984463214874, 0.024143556132912636, -0.07615604251623154, -0.008780930191278458, -0.1870427429676056, -0.20301124453544617, 0.12286880612373352, -0.050769805908203125, -0.11515653133392334, -0.12741033732891083, -0.25938767194747925, -0.16251574456691742, -0.25701195001602173, 0.15695004165172577, 0.004101316910237074, -0.1677703559398651, -0.0620228610932827, 0.038204845041036606, -0.06560125201940536, -0.02480626106262207, 0.032932788133621216, -0.08942658454179764, -0.24500516057014465, -0.08593765646219254, 0.33141985535621643, -0.01697675511240959, 0.07737483829259872, 0.2735358774662018, -0.6555718779563904, -0.04703241214156151, 0.29705801606178284, 0.31751352548599243, 0.15391482412815094, 0.003611833555623889, 0.0822160392999649, 0.07564550638198853, 0.34594908356666565, 0.08007559180259705, 0.11754625290632248, 0.0860903263092041, -0.3712640702724457, 0.21354545652866364, 0.14053216576576233, -0.5010334849357605, 0.08346723765134811, -0.01362472865730524, -0.2292899340391159, 0.0335061252117157, -0.10432448983192444, -0.28947845101356506, 0.15596440434455872, -0.14214007556438446, -0.052795667201280594, -0.0002053581119980663, -0.13298888504505157, 0.5865161418914795, -0.10466356575489044, 0.14893606305122375, -0.0018718222854658961, -0.0037055492866784334, 0.09777161478996277, 0.16662272810935974, -0.0820436105132103, -0.043473441153764725, -0.08682853728532791, 0.1262369602918625, 0.10115131735801697, -0.05589038133621216, -0.07560582458972931, -0.1234838217496872, -0.0015646573156118393, -0.0669339969754219, 0.09810960292816162, 0.0032325726933777332, 0.15928079187870026, 0.05330513045191765, -0.3032790422439575, 0.022477535530924797, -0.07147988677024841, 0.07426925748586655, 0.09452793747186661, 0.06423765420913696, -0.10496752709150314, -0.08546846359968185, 0.06775736808776855, 0.014876767061650753, 0.04973682016134262, 0.03644920885562897, -0.288634717464447, -0.0078947264701128, -0.13846012949943542, -0.12893976271152496, -0.15076018869876862, -0.043635886162519455, -0.020196834579110146, 0.11096116900444031, -0.14033305644989014, -0.07385944575071335, -0.24267590045928955, -0.07489579916000366, -0.000783835886977613, 0.021259702742099762, -0.11358513683080673, 0.15941877663135529, 0.007291090674698353, -0.04971633478999138, 0.020771734416484833, 0.09989753365516663, -0.16064618527889252, -0.13283932209014893, -0.1628062129020691, -0.14014177024364471, 0.1680372953414917, 0.1866128295660019, -0.2651297152042389, -0.297974556684494, -0.30389249324798584, -0.17933915555477142, -0.2886834442615509, -0.2613372206687927, 0.08411640673875809, 0.043519195169210434, -0.03986215218901634, 0.16015872359275818, 0.1354445070028305, 0.10770672559738159, 0.08592844009399414, 0.20151516795158386, -0.09725723415613174, -0.1061648428440094, -0.055843815207481384, 0.2259468138217926, 0.14185652136802673, 0.28180626034736633, -0.16690661013126373, 0.11246543377637863, -0.016256220638751984, 0.024825353175401688, -0.13269338011741638, -0.19244475662708282, -0.10386736690998077, -0.26569855213165283, -0.28345027565956116, -0.1331658661365509, -0.09640346467494965, 0.11507795006036758, -0.0474003404378891, -0.11322571337223053, 0.20007231831550598, 0.21253180503845215, -0.03380867466330528, -0.15961802005767822, -0.07221821695566177, 0.6038896441459656, 0.2097981721162796, -0.12723024189472198, -0.3149896562099457, -0.29482394456863403, -0.2850010097026825, 0.1446162462234497, -0.0498468242585659, 0.0875619575381279, 0.08735362440347672, -0.18565264344215393, 0.11338288336992264, 0.4198325574398041, 0.06887254118919373, 0.1105038970708847, -0.14194680750370026, 0.22056704759597778, 0.046411141753196716, 0.5987545251846313, -0.17654038965702057, 0.03830752149224281, -0.6926939487457275, -0.2261987030506134, 0.12777312099933624, -0.1781901717185974, -0.14712834358215332, 0.01980709284543991, -0.21917612850666046, 0.054008230566978455, -0.09329062700271606, 0.3464571535587311, -0.337528795003891, -0.09106636792421341, 0.5494946837425232, -0.11598939448595047, 0.22463402152061462, 0.20126481354236603, 0.18373362720012665, 0.23932456970214844, 0.2743060290813446, -0.1055765450000763, 0.033970363438129425, -0.10995294898748398, -0.13816320896148682, 0.036603208631277084, -0.3504437208175659, -0.03820361942052841, 0.06650388985872269, 0.4185234010219574, -0.0002887877053581178, -0.17194169759750366, 0.00813918188214302, -0.07714968919754028, 0.15766650438308716, -0.08334715664386749, 0.23874253034591675, -0.058883488178253174, -0.06862732023000717, 0.21329712867736816, 0.2463928610086441, 0.3613949120044708, 0.04568647965788841, -0.11870461702346802, -0.3975712060928345, -0.2141452580690384, -0.025008302181959152, 0.18134669959545135, 0.19959907233715057, 0.0883852168917656, -0.5298594236373901, -0.21916598081588745, 0.2936834692955017, -0.18355314433574677, 0.2800738215446472, 0.014195026829838753, -0.5591819286346436, -0.08226914703845978, 0.1547297239303589, -0.30696144700050354, 0.4864673316478729, 0.10602052509784698, 0.40732505917549133, 0.1374683827161789, -0.0853084996342659, 0.20301522314548492, -0.11207424104213715, -0.13354040682315826, 0.012077413499355316, 0.1862482875585556, -0.08126771450042725, -0.316264808177948, 0.09686882793903351, 0.11582399904727936, 0.020273001864552498, -0.43834689259529114, 0.10576882213354111, -0.004003932233899832, 0.11551455408334732, -0.2109007090330124, -0.27010124921798706, 0.022340767085552216, -0.0005666589131578803, -0.0367455929517746, 0.028577690944075584, 0.07398354262113571, -0.26981931924819946, -0.15569975972175598, -0.16211077570915222, -0.20944960415363312, -0.17687909305095673, -0.3634790778160095, -0.2094741016626358, 0.2580246925354004, -0.02603849582374096, -0.07686325162649155, 0.19927151501178741, -0.12934914231300354, 0.08377492427825928, 0.46633288264274597, 0.2770226299762726, -0.05576370283961296, -0.014433383010327816, 0.13616028428077698, -0.018958916887640953, 0.05133038014173508, -0.09941435605287552, 0.1011091023683548, 0.05581659451127052, -0.5145298838615417, 0.03998666629195213, -0.04183428734540939, -0.30397897958755493, -0.1358536332845688, 0.00987887941300869, 0.02393067255616188, -0.1601523458957672, -0.17666763067245483, -0.09628404676914215, 0.01119282003492117, 0.11897246539592743, -0.16352371871471405, 0.009196245111525059, -0.23250161111354828, 0.5762491226196289, 0.018633609637618065, 0.07209751009941101, -0.02142813242971897, -0.04752594605088234, -0.010649595409631729, -0.3027832508087158, -0.03279898315668106, 0.12042386829853058, -0.067107193171978, 0.11935628205537796, 0.17329686880111694, 0.06147581338882446, -0.019811496138572693, 0.16367866098880768, -0.09295440465211868, -0.1064368411898613, 0.05688901245594025, 0.11692039668560028, -0.16852356493473053, -0.03138256445527077, 0.0004992570029571652, 0.0899975374341011, 0.06851543486118317, 0.09111794829368591, 0.25196516513824463, -0.18210497498512268, -0.1441403180360794, -0.05879809334874153, 0.12392795830965042, 0.0637841746211052, 0.05565131455659866, 0.11668255180120468, -0.026343151926994324, -0.18611444532871246, 0.15736626088619232, 0.13015687465667725, -0.02373499609529972, 0.20845027267932892, 0.20422206819057465, 0.07361102104187012, 0.0784834548830986, -0.09930139780044556, 0.28340819478034973, 0.06900855898857117, -0.08512219786643982, -0.14775808155536652, -0.052747562527656555, 0.027583403512835503, -0.16838589310646057, 0.11322666704654694, 0.04842968285083771, 0.12449003010988235, 0.16122810542583466, 0.09400459378957748, 0.27251937985420227, 0.0824802964925766, -0.2492823600769043, 0.0430852472782135, 0.006474236957728863, -0.09474003314971924, 0.29478690028190613, 0.09113403409719467, -0.00037419001455418766, -0.18348507583141327, -0.2143632471561432, 0.2432338148355484, -0.15810950100421906, -0.046759624034166336, 0.006682590581476688, -0.14135609567165375, -0.2033260613679886, 0.0649535283446312, 0.08463863283395767, 0.0340123325586319, -0.12644682824611664, -0.0672215074300766, -0.1615961492061615, -0.2839280962944031, 0.28220734000205994, 0.06882742792367935, -0.09121356159448624, 0.006223401520401239, -0.10170217603445053, 0.028510428965091705, 0.3759787678718567, 0.11497781425714493, 0.1893468052148819, 0.1252441704273224, 0.04960614815354347, -0.18129441142082214, 0.3430875241756439, -0.16600699722766876, -0.2767326533794403, 0.019736044108867645, 0.09509187191724777, 0.11270682513713837, 0.07044453918933868, -0.06487952917814255, -0.1463087946176529, -0.1274525374174118, 0.003710211021825671, -0.23395408689975739, -0.04966861382126808, -0.19435308873653412, 0.2527392506599426, 0.007808273658156395, 0.12991976737976074, 0.16445598006248474, -0.11007514595985413, 0.06406206637620926, 0.11389397829771042, -0.08533962815999985, 0.16231685876846313, 0.012580404058098793, 0.040436964482069016, 0.20752178132534027, 0.048601459711790085, 0.10416390746831894, 0.08194614946842194, 0.12905986607074738, -0.10323526710271835, -0.12254980951547623, 0.21134085953235626, 0.17967629432678223, 0.009878521785140038, 0.2338084876537323, -0.1385352611541748, 0.0752926617860794, 0.07793141901493073, -0.01594323292374611, 0.08669652789831161, -0.03920634835958481, -0.0737166777253151, 0.2383408546447754, 0.15974491834640503, -0.002958093537017703, 0.17599691450595856, 0.07244659960269928, -0.17557483911514282, -0.017813298851251602, 0.11160185933113098, -0.01199719775468111, -0.16105684638023376, 0.08461521565914154, -0.19009248912334442, 0.013028610497713089, -0.11481068283319473, -0.057138677686452866, 0.024975610896945, -0.11849420517683029, 0.11474588513374329, 0.16508938372135162, 0.026513596996665, -0.04689476639032364, -0.04066142067313194, -0.038244087249040604, -0.04365583509206772, 0.12489785999059677, -0.01552365068346262, 0.0609767884016037, -0.2678849697113037, -0.04035604000091553, 0.02447601407766342, 0.2092217057943344, 0.1459476351737976, -0.02869657799601555, -0.24541084468364716, 0.019634200260043144, 0.1571531891822815, -0.29455238580703735, -0.20668978989124298, -0.154122456908226, -0.3392464220523834, 0.0701984241604805, 0.2028888761997223, 0.15243889391422272, 0.03800470754504204, -0.004300334956496954, 0.27379903197288513, -0.005149611737579107, -0.015675999224185944, 0.1200345829129219, -0.0019011797849088907, 0.08756707608699799, 0.046248987317085266, -0.01613512635231018, 0.00307522458024323, -0.18729598820209503, -0.2786126732826233, 0.04687818884849548, -0.012847313657402992, 0.13096240162849426, -0.1765478253364563, 0.30803894996643066, -0.18699973821640015, 0.02424701116979122, -0.17241904139518738, 0.05042129382491112, 0.02822931669652462, 0.11180098354816437, 0.1085161566734314, 0.04981967434287071, 0.1799887716770172, 0.07994143664836884, -0.012047127820551395, 0.17055736482143402, -0.009558211080729961, 0.055376019328832626, -0.3840728998184204, -0.05467568337917328, -0.004803042858839035, 0.4535157382488251, -0.22499753534793854, -0.002959438832476735, -0.6164934635162354, 0.026888839900493622, -0.058999933302402496, -0.21075910329818726, -0.09241332858800888, -0.07935427129268646, -0.14393402636051178, 0.20854347944259644, 0.07352076470851898, 0.331851989030838, -0.14067526161670685, -0.03424815461039543, 0.4267069697380066, 0.03233888000249863, -0.03985784947872162, 0.15470026433467865, 0.07319553941488266, 0.07644373178482056, 0.32914096117019653, -0.11742475628852844, 0.1428394317626953, -0.21761828660964966, -0.03421979397535324, -0.1674940139055252, -0.057994578033685684, 0.2883790135383606, 0.15285423398017883, 0.277651846408844, -0.007748210337013006, -0.08636769652366638, -0.019666528329253197, 0.13881126046180725, 0.1335524618625641, 0.3658917248249054, -0.029505711048841476, -0.10863941162824631, 0.27283400297164917, 0.06276111304759979, 0.09964742511510849, 0.04963412880897522, 0.1623227894306183, -0.06532613188028336, -0.41260433197021484, 0.5441267490386963, 0.06912142038345337, -0.5738680958747864, 0.3873990774154663, -0.9767575860023499, -0.2420172095298767, -0.3637675344944, 0.6540787816047668, -0.7574422359466553, -0.42955487966537476, -0.8725175857543945, 0.5149050951004028, -1.2686790227890015, 0.49025097489356995, -0.7147703170776367, -0.17012320458889008, -0.006364856846630573, -0.013578320853412151, 0.09222543984651566, 0.2289859503507614, -0.024457959458231926, -0.2665395438671112, -0.06746597588062286, -0.19130106270313263, 0.028739068657159805, 0.021062612533569336, 0.10844632983207703, 0.08956946432590485, 0.21598048508167267, -0.19235409796237946, -0.07116100192070007, -0.2535507082939148, -0.1638193130493164, -0.08042741566896439, -0.24342083930969238, -0.03236991539597511, 0.14714552462100983, -0.03159879893064499, -0.24325761198997498, 0.16693374514579773, -0.07858329266309738, -0.003528391011059284, 0.06572698056697845, -0.029747113585472107, 0.1961153745651245, 0.1168636605143547, -0.06769164651632309, -0.2395472377538681, -0.20398657023906708, -0.017459003254771233, 0.26126107573509216, 0.2292753905057907, -0.08183644711971283, 0.045227453112602234, 0.10817356407642365, 0.019639967009425163, 0.029437122866511345, -0.37772926688194275, 0.017576968297362328, 0.010083033703267574, 0.17979511618614197, 0.03282556310296059, -0.013786934316158295, 0.03347467631101608, -0.04803357645869255, 0.00457153981551528, 0.04191547632217407, -0.2732902765274048, 0.018261827528476715, -0.09533500671386719, 9.203863010043278e-05, -0.22839054465293884, 0.03849765285849571, 0.26806917786598206, 0.5062863826751709, 0.33248239755630493, -0.5501279234886169, -0.21990591287612915, -0.05848505347967148, 0.21600556373596191, -0.027498487383127213, -0.11367391049861908, -0.04754158854484558, 0.21913881599903107, -0.04854007437825203, -0.033274952322244644, 0.2913404405117035, 0.3228459656238556, -0.06621876358985901, -0.11872317641973495, 0.34735095500946045, 0.1628335565328598, -0.2741865813732147, -0.14338795840740204, -0.10526777803897858, -0.20278999209403992, 0.0751757100224495, -0.22583025693893433, -0.03960822522640228, -0.24126295745372772, -0.2425878942012787, -0.03380778804421425, -0.17106957733631134, 0.16147589683532715, 0.05916783586144447, 0.015027089975774288, -0.06243167445063591, -0.14707815647125244, 0.10243014991283417, 0.12263741344213486, 0.14097559452056885, -0.053205933421850204, -0.25643134117126465, 0.3095897436141968, -0.3096303641796112, 0.2727707028388977, 0.3567934036254883, -0.4719606935977936, -0.23662835359573364, 0.09167252480983734, -0.09789524972438812, -0.18940672278404236, 0.29658567905426025, 0.194960817694664, 0.07872810959815979, -0.21978022158145905, 0.1228136420249939, 0.18139731884002686, 0.042463112622499466, -0.19653987884521484, 0.23091469705104828, -0.007421394344419241, -0.14496520161628723, -0.12479674071073532, 0.09558791667222977, -0.08594844490289688, 0.1336233913898468, -0.092794269323349, 0.15139342844486237, -0.3894467353820801, -0.09555903822183609, 0.07505474984645844, 0.06110159680247307, -0.07276643067598343, 0.12024036049842834, -0.18429411947727203, -0.18916743993759155, -0.13472971320152283, -0.09261966496706009, -0.007473394740372896, -0.1960071623325348, 0.016680816188454628, -0.026389846578240395, 0.21076838672161102, -0.12373467534780502, -0.035245802253484726, -0.0037124904338270426, -0.01770966686308384, 0.17912861704826355, -0.24328480660915375, -0.10027280449867249, -0.07711001485586166, 0.09001483768224716, 0.35389724373817444, -0.16451658308506012, 0.014797116629779339, -0.058033742010593414, -0.0825875774025917, -0.0009097524452954531, 0.18689270317554474, 0.2514599561691284, 0.3634267747402191, 0.03880353271961212, 0.07061692327260971, -0.10495657473802567, -0.04025725647807121, -0.13275091350078583, -0.00882198940962553, 0.1343090981245041, 0.11534088850021362, 0.0879400447010994, -0.14283974468708038, -0.10493242740631104, 0.23558206856250763, 0.02846730500459671, -0.1559864729642868, -0.05731663480401039, 0.2670334577560425, 0.13279001414775848, -0.12794698774814606, -0.05314503610134125, 0.12857021391391754, 0.13704223930835724, -0.3138957917690277, 0.12931595742702484, -0.14855827391147614, -0.2570037841796875, 0.03233166038990021, 0.04898977279663086, -0.23032647371292114, 0.16811902821063995, -0.23244816064834595, -0.0930926576256752, -0.16704854369163513, -0.36745792627334595, -0.05851109325885773, 0.04261193424463272, -0.05326260253787041, -0.08234651386737823, -0.2689608335494995, 0.39155203104019165, -0.23239611089229584, -0.06999420374631882, -0.005491629708558321, 0.2417781502008438, -0.3326196074485779, -0.1415790319442749, -0.273738294839859, -0.15981444716453552, -0.07044927775859833, -0.21260365843772888, -0.16749049723148346, 0.006927118171006441, -0.05473259836435318, -0.022951535880565643, -0.1556061953306198, -0.01675720326602459, 0.2608928978443146, -0.23409613966941833, -0.22919528186321259, -0.05613559111952782, 0.13473278284072876, 0.15594449639320374, -0.04305712878704071, 0.5016677975654602, 0.6164958477020264, 0.27236419916152954, 0.18993179500102997, -0.1917566955089569, 0.030735448002815247, 0.1717785894870758, 0.0007775741396471858, 0.0447213388979435, -0.08843248337507248, -0.11499346047639847, 0.10953117907047272, -0.07189565896987915, 0.07252047210931778, -0.011656680144369602, -0.17000658810138702, -0.22330401837825775, -0.09892548620700836, -0.06746508926153183, 0.13629725575447083, 0.09543740749359131, 0.06266604363918304, -0.16424740850925446, -0.05535896122455597, -0.010859848000109196, -0.25453221797943115, -0.07840084284543991, -0.11268536001443863, 0.38478267192840576, 0.030732981860637665, -0.07680365443229675, 0.2730587422847748, 0.24593353271484375, -0.2516271770000458, 0.2935200333595276, -0.3183344304561615, -0.26377221941947937, -0.0266753900796175, -0.04596531391143799, 0.019902467727661133, 0.00676066055893898, -0.1605834811925888, 0.013604288920760155, 0.141505166888237, 0.08043146878480911, 0.1010846495628357, 0.02195052243769169, 0.057312849909067154, -0.1427515596151352, 0.12495821714401245, -0.12529422342777252, -0.18081034719944, -0.018781030550599098, 0.03942697122693062, -0.046134285628795624, -0.06814367324113846, -0.01772153005003929, 0.13370627164840698, -0.24905353784561157, -0.10715524107217789, -0.07115839421749115, -0.03191361576318741, 0.11200645565986633, -0.14971600472927094, -0.04647286236286163, 0.17406593263149261, 0.24136853218078613, -0.09397909790277481, -0.14070044457912445, -0.00037749920738860965, -0.04456954076886177, -0.42421647906303406, 0.1768983155488968, -0.01788913644850254, 0.08444701135158539, -0.1330486685037613, -0.15921202301979065, -0.12379798293113708, 0.0655311718583107, 0.10688913613557816, -0.22979846596717834, -0.08441772311925888, 0.03008856810629368, -0.2993091940879822, 0.1823735237121582, -0.012376468628644943, -0.17611578106880188, -0.23227132856845856, -0.05216082185506821, -0.10613352805376053, -0.27281177043914795, 0.06708657741546631, -0.1752225160598755, 0.35391607880592346, 0.13554318249225616, -0.04856206849217415, -0.05009325593709946, -0.22677242755889893, 0.5761235356330872, -0.04747152701020241, -0.11165269464254379, -0.0881679579615593, -0.09165074676275253, 0.19661204516887665, -0.29937106370925903, 0.2079508900642395, -0.14338219165802002, -0.05937940627336502, 0.420382022857666, 0.04932955652475357, -0.05622599273920059, -0.3131832480430603, 0.06272034347057343, 0.15624770522117615, -0.40574583411216736, 0.03945452347397804, -0.04189228266477585, 0.18200312554836273, -0.10669086873531342, -0.12605848908424377, -0.4050410985946655, 0.17309588193893433, 0.29838305711746216, -0.47291281819343567, -0.1038866862654686, 0.05666074901819229, 0.17602477967739105, -0.1427820324897766, 0.3430863916873932, -0.08368116617202759, 0.246280238032341, 0.2166481614112854, 0.06553474813699722, -0.04311471804976463, -0.04733983054757118, 0.03855655714869499, -0.047948773950338364, 0.09865716844797134, 0.0975014716386795, 0.06398200243711472, -0.16366036236286163, 0.459695965051651, -0.1604541838169098, 0.08698727935552597, 0.12092141062021255, -0.04192131385207176, 0.09866046160459518, -0.48166149854660034, 0.01436538528650999, 0.17820242047309875, -0.0774265006184578, -0.22999973595142365, -0.0110473046079278, 0.1301524043083191, -0.09508934617042542, 0.03377919644117355, -0.0831575095653534, -0.03781408816576004, 0.06998752802610397, 0.22231362760066986, -0.01732132025063038, -0.1406862884759903, -0.12592768669128418, 0.055474258959293365, -0.18878328800201416, -0.17839637398719788, 0.015299880877137184, 0.11610669642686844, 0.5856321454048157, 0.0231050793081522, -0.19488030672073364, 0.051815059036016464, 0.0001359616726404056, 0.2868562936782837, -0.05907851457595825, 0.08198036998510361, -0.1850302666425705, 0.12890323996543884, -0.12393718212842941, -0.35735586285591125, -0.1320701539516449, -0.12961016595363617, -0.12962724268436432, -0.2904285192489624, -0.16416333615779877, -0.06712538003921509, 0.02782030962407589, -0.17306554317474365, 0.10249970108270645, 0.1803918182849884, 0.2191774696111679, 0.0960421934723854, -0.2301742285490036, -0.041142042726278305, 0.12563775479793549, 0.01776312105357647, -0.08559603244066238, 0.026920372620224953, -0.35219529271125793, -0.007695733569562435, -0.20118799805641174, 0.017727669328451157, -0.16041232645511627, 0.3053407669067383, -0.1283104419708252, -0.11948906630277634, 0.017517931759357452, 0.05714937299489975, -0.15506528317928314, 0.20086464285850525, 0.035136643797159195, -0.12533321976661682, -0.0662178248167038, -0.3338763415813446, 0.014349454082548618, 0.33000773191452026, -0.20220845937728882, -0.09501178562641144, -0.4660477936267853, 0.01819925755262375, 0.03742334991693497, -0.056923285126686096, -0.08378822356462479, -0.01992867700755596, -0.6900703310966492, -0.30147191882133484, -0.20924213528633118, 0.2535400092601776, 0.0383475124835968, 0.08456540107727051, 0.534050464630127, -0.25749361515045166, -0.1673881858587265, 0.21283455193042755, -0.0064193070866167545, 0.07257138192653656, 0.658435046672821, -0.654440701007843, -0.052434612065553665, -0.10881230235099792, 0.09725555777549744, -0.04105180501937866, -0.37861430644989014, -0.13807424902915955, 0.0123924994841218, -0.06885858625173569, -0.07588040083646774, 0.18058866262435913, 0.11499781906604767, 0.06488346308469772, -0.3290971517562866, -0.1177142933011055, 0.062135033309459686, -0.2102193385362625, -0.29793721437454224, 0.18345357477664948, 0.20023061335086823, -0.27013519406318665, 0.08548634499311447, 0.06166679412126541, 0.41082486510276794, 0.25154152512550354, -0.14298313856124878, -0.02005615457892418, 0.004615135956555605, -0.019157780334353447, -0.24152211844921112, -0.009357303380966187, -0.12925569713115692, -0.29059937596321106, -0.07136548310518265, 0.06916800886392593, -0.09382756799459457, 0.17305096983909607, 0.2929057478904724, 0.018837876617908478, 0.054022759199142456, 0.04303137958049774, -0.026163771748542786, 0.08809492737054825, -0.026307040825486183, 0.050224415957927704, 0.08233276009559631, 0.033986132591962814, 0.08988362550735474, 0.0224564541131258, 0.2606968283653259, -0.2844448983669281, -0.14464370906352997, 0.16677357256412506, -0.21636667847633362, -0.017772357910871506, 0.17280562222003937, 0.08358708024024963, 0.2216593474149704, -0.20365004241466522, 0.07329777628183365, 0.10278670489788055, 0.07227464020252228, -0.11515447497367859, 0.033389996737241745, 0.050986580550670624, -0.207378089427948, -0.028422348201274872, -0.03911847248673439, -0.12624044716358185, 0.03085711970925331, 0.04616718739271164, -0.09493551403284073, -0.18001936376094818, 0.056472428143024445, -0.2750091254711151, 0.36523833870887756, 0.06067635491490364, 0.031410012394189835, -0.38198259472846985, 0.048274822533130646, 0.12329931557178497, -0.10980384051799774, -0.115451380610466, -0.1360076516866684, 0.0077023934572935104, -0.13923446834087372, -0.0706317201256752, 0.29321813583374023, 0.07231663912534714, -0.001407712697982788, 0.11995923519134521, -0.09526833146810532, 0.0017558502731844783, 0.1702629178762436, -0.10536207258701324, -0.19084961712360382, -0.12046517431735992, 0.2078663855791092, 0.1289314329624176, -0.027798855677247047, -0.18019339442253113, 0.17190729081630707, -0.027229079976677895, -0.1469234973192215, -0.14544497430324554, -0.13040152192115784, -0.11335878819227219, 0.23896287381649017, -0.05054812878370285, -0.11534290760755539, -0.05450952798128128, 0.09712778031826019, -0.12517498433589935, -0.0022149751894176006, -0.07372024655342102, 0.16043224930763245, -0.0980721116065979, -0.013190746307373047, 0.04286828637123108, 0.16483063995838165, 0.11299752444028854, -0.02159087546169758, 0.030790507793426514, 0.05325322598218918, 0.027065662667155266, 0.2571249008178711, 0.000390343542676419, -0.03305554389953613, -0.24296782910823822, -0.15790687501430511, 0.11256685107946396, 0.11233446002006531, -0.005544265732169151, -0.09496511518955231, -0.3062675893306732, 0.03423738852143288, 0.05534204840660095, -0.1336667686700821, -0.02117617055773735, -0.05373600125312805, -0.18787641823291779, -0.21386848390102386, 0.023285217583179474, 0.02023533172905445, -0.008929028175771236, 0.06982481479644775, -0.4212550222873688, -0.05949370563030243, -0.038399890065193176, 0.19175754487514496, 0.03258221596479416, -0.019725169986486435, 0.18890300393104553, 0.3190481662750244, -0.052232809364795685, -0.14531950652599335, -0.08787345886230469, 0.17441610991954803, 0.01753002591431141, 0.1974124312400818, -0.03841707855463028, -0.3403012156486511, 0.13408836722373962, 0.1536022126674652, 0.10677815973758698, -0.21079491078853607, -0.12505801022052765, 0.03144776076078415, -0.03502399101853371, 0.02962423674762249, 0.02230295166373253, -0.19173982739448547, 0.04709459841251373, -0.3767835795879364, 0.2724394202232361, 0.0022252677008509636, -0.16164717078208923, 0.00028261385159567, -0.027952196076512337, -0.18427978456020355, 0.027175895869731903, -0.06456643342971802, 0.3148770332336426, -0.24343377351760864, -0.07705778628587723, 0.3287189304828644, 0.18683744966983795, -0.001609494793228805, 0.28951388597488403, 0.41632649302482605, 0.12059161067008972, 0.17316794395446777, -0.3583263158798218, -0.12712718546390533, 0.0996839851140976, -0.04510879889130592, 0.10173211246728897, -0.4992995262145996, -0.07439950853586197, -0.023803293704986572, -0.07189185172319412, -0.18145804107189178, -0.1425485461950302, 0.06065904349088669, -0.17200404405593872, 0.23813101649284363, 0.11407354474067688, -0.0005468545132316649, -0.10063636302947998, 0.01890212669968605, 0.003370466409251094, 0.052125148475170135, -0.1243889182806015, -0.18543419241905212, 0.042472559958696365, -0.09869073331356049, -0.031000344082713127, -0.1333438754081726, 0.24004113674163818, -0.2657511234283447, 0.10375551879405975, 0.01032694336026907, 0.18874074518680573, -0.14790813624858856, 0.32517290115356445, 0.03634481504559517, 0.20165035128593445, 0.06895516067743301, 0.051282141357660294, -0.1403025984764099, 0.2105119824409485, -0.1622982770204544, -0.1493293195962906, 0.16325993835926056, 0.10574094951152802, -0.0013424116186797619, -0.10844326764345169, 0.12564314901828766, -0.22339268028736115, 0.07201670110225677, -0.04770494997501373, 0.017550630494952202, 0.41663867235183716, 0.21028681099414825, 0.11045162379741669, -0.25202676653862, -0.02883090265095234, -0.06479524821043015, -0.034968648105859756, -0.17051297426223755, -0.1603202223777771, 0.1194547638297081, 0.1087874248623848, -0.07009433209896088, -0.1829303801059723, 0.0879908874630928, 0.032290760427713394, 0.06831465661525726, 0.08939037472009659, -0.05886572599411011, -0.05899779871106148, 0.023941388353705406, 0.20646241307258606, -0.0022084112279117107, -0.09747214615345001, 0.04727737605571747, -0.0860157236456871, 0.14096756279468536, -0.21589823067188263, 0.04079550877213478, -0.007831417955458164, -0.021604932844638824, -0.01753258891403675, -0.18673866987228394, -0.003371425438672304, 0.22101666033267975, -0.10143089294433594, 0.10157659649848938, -0.05125317722558975, 0.17245975136756897, 0.08882883191108704, -0.13435015082359314, 0.05601651966571808, -0.08577215671539307, 0.009654972702264786, -0.12134797871112823, 0.06361153721809387, -0.20233304798603058, -0.22756445407867432, 0.0024331931490451097, 0.01790255680680275, 0.1921641230583191, -0.11715662479400635, 0.047806013375520706, 0.13359497487545013, -0.10261845588684082, 0.40776118636131287, 0.05112738534808159, -0.07988468557596207, -0.12428292632102966, 0.1511119306087494, 0.08672596514225006, 0.15597860515117645, 0.011711875908076763, 0.2463793307542801, 0.09535811096429825, 0.0650281086564064, -0.055745188146829605, 0.40525829792022705, -0.014182433485984802, -0.09730377048254013, -0.27728262543678284, -0.06364046037197113, 0.018400728702545166, 0.4131045937538147, 0.15796144306659698, -0.15746182203292847, -0.5124999284744263, -0.013794658705592155, -0.03263294696807861, -0.20599354803562164, -0.014255547896027565, 0.0656856968998909, -0.5828955769538879, -0.14969217777252197, -0.13388977944850922, 0.06772604584693909, 0.008696017786860466, 0.15020997822284698, 0.4913538098335266, -0.26174357533454895, -0.021741097792983055, 0.34301674365997314, -0.003348748432472348, 0.017955254763364792, 0.3113720118999481, -0.17926330864429474, -0.05678095296025276, -0.3077813386917114, -0.027296846732497215, -0.25825783610343933, 0.02922922931611538, -0.06205238774418831, -0.05768010765314102, 0.21938520669937134, 0.006487652193754911, 0.12915019690990448, -0.08290483802556992, 0.05185785889625549, -0.0335359126329422, 0.3773075044155121, 0.13468271493911743, 0.17203696072101593, -0.25034698843955994, 0.11200417578220367, 0.05325022712349892, 0.11402358114719391, -0.07788678258657455, -0.0752924233675003, -0.26908716559410095, -0.08130540698766708, -0.021799122914671898, -0.04477142170071602, 0.4078212380409241, 0.016200844198465347, -0.29228535294532776, -0.011064593680202961, -0.03712916001677513, -0.3361988961696625, 0.10450462996959686, -0.0878918319940567, -0.7534303069114685, -0.015389103442430496, -0.09745986759662628, -0.11461548507213593, 0.026167860254645348, -0.03666171804070473, 0.4098488390445709, -0.17589932680130005, -0.12120124697685242, 0.3027766942977905, -0.06833194941282272, -0.01137846801429987, 0.09448198974132538, 0.11547275632619858, 0.16424605250358582, -0.18641071021556854, -0.11883251368999481, 0.07253867387771606, -0.018963610753417015, -0.149858295917511, -0.020179156213998795, -0.20963458716869354, 0.02667771652340889, 0.17874695360660553, 0.2702597379684448, 0.5463051795959473, -0.3129185736179352, 0.16738049685955048, 0.13141459226608276, 0.04135658219456673, 0.1318424642086029, 0.04816684499382973, -0.2678034007549286, -0.052645690739154816, 0.12551528215408325, 0.08067772537469864, -0.10457557439804077, 0.06649582087993622, 0.06661403924226761, -0.16668754816055298, 0.5088623762130737, -0.32309451699256897, 0.11327482014894485, -0.08608530461788177, 0.23454399406909943, 0.08895489573478699, -0.04396582767367363, -0.038828495889902115, -0.1718878149986267, 0.22480249404907227, -0.10889948904514313, 0.041121724992990494, 0.19923195242881775, 0.19655776023864746, -0.17168377339839935, -0.19774620234966278, 0.18390503525733948, -0.06778071820735931, -0.011222987435758114, -0.06997770816087723, 0.046981118619441986, 0.1638929545879364, 0.017804287374019623, 0.04559537395834923, -0.006994576193392277, -0.1685386300086975, 0.3192949593067169, 0.08625458925962448, 0.03585382550954819, -0.4403969645500183, -0.32268017530441284, -0.15620821714401245, 0.07509845495223999, 0.026001738384366035, -0.16774684190750122, -0.6241410374641418, -0.07385225594043732, -0.15028880536556244, 0.05425497889518738, -0.15099424123764038, -0.03283427655696869, -0.6251546144485474, 0.20743024349212646, 0.00045718264300376177, 0.009513036347925663, 0.06209404394030571, -0.04722652584314346, -0.5500312447547913, -0.019384266808629036, -0.0622892826795578, 0.5692775845527649, -0.24313215911388397, -0.20053063333034515, 0.45222312211990356, 0.14812709391117096, 0.09457240253686905, 0.43458065390586853, -0.00970121007412672, 0.09448102116584778, -0.5921568274497986, -0.039024222642183304, -0.11073125153779984, -0.8416606783866882, -0.13032296299934387, 0.014992997981607914, -0.5896385312080383, -0.11453212052583694, -0.011368006467819214, -0.2728060781955719, 0.285269170999527, 0.12797924876213074, -0.04641672223806381, -0.1003434956073761, -0.20034776628017426, 0.4248679280281067, -0.09659603238105774, -0.15983088314533234, -0.3907008469104767, 0.17921338975429535, 0.22504644095897675, 0.10827427357435226, 0.4827345907688141, 0.12821783125400543, 0.2089443802833557, 0.053161125630140305, 0.12365496903657913, -0.15650130808353424, 0.06060166656970978, 0.13782934844493866, -0.22255122661590576, 0.05912744998931885, 0.028704969212412834, 0.04321672394871712, 0.40645062923431396, -0.1606624722480774, -0.4803936779499054, 0.1356896460056305, 0.03850431740283966, 0.16622507572174072, -0.021665994077920914, -0.14318999648094177, 0.11515694856643677, 0.12979839742183685, 0.06930943578481674, -0.1520589143037796, 0.2373778223991394, 0.1171688586473465, -0.29205989837646484, 0.14047080278396606, 0.010503496043384075, -0.25987768173217773, 0.15753071010112762, -0.04748564213514328, -0.05082978308200836, -0.19231264293193817, -0.12771180272102356, -0.2614194452762604, 0.7655959129333496, 0.15322427451610565, 0.06013806164264679, -0.2869546413421631, 0.007957451976835728, 0.24086421728134155, 0.012607408687472343, -0.03942583128809929, -0.1827601045370102, -0.18230995535850525, -0.011421271599829197, -0.1586489975452423, -0.13093937933444977, 0.08059182018041611, -0.23670527338981628, -0.0059406086802482605, -0.09723049402236938, 0.07344288378953934, -0.03026665560901165, 0.14207671582698822, 0.03592104837298393, -0.01715117320418358, 0.22977949678897858, 0.4304564595222473, 0.08541787415742874, 0.04991593584418297, 0.25692230463027954, -0.3793743848800659, 0.07725958526134491, 0.2202737182378769, 0.3232588768005371, 0.1663474440574646, 0.16248220205307007, -0.02222251705825329, -0.01259205024689436, 0.30911824107170105, -0.08583556115627289, 0.12270991504192352, 0.2359633594751358, -0.07727494835853577, 0.08587240427732468, -0.0425335131585598, 0.19508883357048035, 0.21094457805156708, -0.19004061818122864, 0.13169501721858978, -0.0792536661028862, 0.19507353007793427, -0.23952049016952515, -0.1673218160867691, 0.23297294974327087, -0.1131458431482315, 0.11116364598274231, -0.2976224720478058, -0.05185995623469353, 0.1373482048511505, 0.1721055954694748, 0.09665466845035553, 0.03417457640171051, -0.07116340845823288, 0.09982480853796005, -0.0699128657579422, -0.048944707959890366, -0.1308407336473465, 0.1146523579955101, -0.11962896585464478, 0.125289648771286, 0.03543423116207123, -0.2234160304069519, 0.197234645485878, 0.01722067967057228, 0.028282562270760536, -0.26625856757164, -0.5510223507881165, 0.8212177753448486, 0.3775372803211212, -0.7954304814338684, 0.22652891278266907, -0.08270512521266937, 0.08893626928329468, 0.5715506076812744, -1.117236614227295, 0.8318696022033691, 0.6165046691894531, -0.1424075812101364, -0.4177250862121582, 0.3221357464790344, -0.7344735264778137, 0.07056854665279388, -0.30322620272636414, 0.1781238317489624, 0.08365748822689056, 0.12423225492238998, 0.29761067032814026, 0.4159701466560364, -0.0561710000038147, 0.1845041811466217, 0.32536277174949646, 0.2061500996351242, 0.1437748819589615, -0.4823216199874878, 0.0681314766407013, -0.5635531544685364, -0.08667152374982834, 0.4063321053981781, 0.011492330580949783, 0.016987301409244537, 0.599621057510376, 0.20220179855823517, 0.16391222178936005, 0.09573715180158615, -0.3361012935638428, -0.31291088461875916, -0.16066710650920868, 0.409260630607605, 0.24866798520088196, 0.08400696516036987, 0.354694128036499, -0.06883163750171661, -0.2883995473384857, 0.014062249101698399, -0.46034348011016846, 0.2873498499393463, -0.09909752756357193, 0.12401925027370453, 0.11561454087495804, 0.030460268259048462, -0.0871196985244751, -0.09793424606323242, 0.046596091240644455, -0.08104171603918076, 0.04733720421791077, 0.3006589710712433, -0.08597709238529205, -0.11500696837902069, 0.06876159459352493, 0.23756910860538483, -0.19714756309986115, 0.681442379951477, 0.16506969928741455, -0.17677392065525055, 0.11163589358329773, -0.39228522777557373, -0.1399395912885666, 0.31143423914909363, -0.2642747461795807, 0.07068053632974625, 0.3640997111797333, 0.790165364742279, 0.38472065329551697, 0.14985902607440948, -0.29370376467704773, 0.1057865098118782, -0.13550254702568054, 0.03812907636165619, -0.15236201882362366, 0.2537645101547241, -0.26700735092163086, 0.05952708050608635, -0.2500668466091156, 0.10722003877162933, -0.048882611095905304, -0.25219330191612244, 0.41992947459220886, -0.30512216687202454, -0.10743945091962814, -0.1235516145825386, -0.32879024744033813, -0.009676876477897167, 0.3055593967437744, -0.02900118939578533, 0.13861799240112305, 0.0680454671382904, -0.14963805675506592, 0.10302100330591202, 0.0018617752939462662, -0.07598821818828583, -0.11361934244632721, 0.07836493849754333, 0.3366446793079376, 0.07715194672346115, 0.17340423166751862, 0.202340230345726, 0.12859073281288147, 0.22570891678333282, 0.4110506772994995, -0.2102859914302826, 0.5049915313720703, 0.44999220967292786, -0.2341753989458084, 0.08677693456411362, -0.1159495860338211, -0.30471327900886536, 0.04684595391154289, 0.48803821206092834, 0.09072082489728928, 0.4322027266025543, 0.09432821720838547, 0.19778107106685638, 0.11023896932601929, 0.3722865581512451, 0.015369955450296402, -0.6897733807563782, 0.03479328751564026, 0.6535002589225769, -0.0142967589199543, 0.515424907207489, 0.0498584546148777, -0.08881621807813644, 0.3949945867061615, 0.07163843512535095, 0.4087766706943512, -0.45038700103759766, 0.1064002588391304, -0.26568448543548584, -0.258192777633667, -0.10394885390996933, 0.47094935178756714, -0.07285870611667633, 0.09295625239610672, 0.29520928859710693, -0.1170235201716423, -0.10128209739923477, 0.05614029988646507, -0.0423985980451107, -0.11156914383172989, -0.16094626486301422, 0.15666694939136505, -0.25258517265319824, 0.11720339208841324, 0.5045891404151917, 0.02739678882062435, 0.23523269593715668, -0.06009071320295334, -0.2770686149597168, 0.5296602845191956, -0.2957930862903595, 0.11230399459600449, -0.16454355418682098, -0.4696784019470215, -0.09336385875940323, 0.05702001601457596, 0.2645533084869385, 0.14608995616436005, 0.07870285212993622, 0.06817802041769028, -0.14060883224010468, -0.029818108305335045, 0.11075889319181442, -0.037635523825883865, 0.18913596868515015, -0.4021218717098236, 0.30474790930747986, -0.20664940774440765, -0.05207236483693123, 0.17113097012043, 0.22065503895282745, -0.013605010695755482, -0.1416272222995758, 0.013705284334719181, -0.1542120724916458, -0.24840983748435974, 0.23369310796260834, 0.01793009229004383, 0.1068626344203949, 0.28063279390335083, -0.1383366882801056, 0.3926998972892761, -0.07699275761842728, 0.16725695133209229, 0.16546939313411713, -0.0446837954223156, -0.06815007328987122, -0.14816676080226898, -0.019605819135904312, 0.3702152669429779, -0.3776584565639496, -0.04523944854736328, 0.14712867140769958, 0.1849905103445053, -0.28149688243865967, -0.35939228534698486, 0.37216728925704956, -0.02628299407660961, 0.23546268045902252, 0.196722149848938, -0.2626711130142212, -0.3683374226093292, 0.057033196091651917, 2.4598495656391606e-05, -0.0904073491692543, 0.08142832666635513, 0.1401887685060501, 0.25713372230529785, 0.20223675668239594, -0.30088281631469727, -0.15816666185855865, 0.4188898801803589, -0.09081651270389557, -0.28440412878990173, -0.17923860251903534, -0.33053910732269287, -0.08921555429697037, 0.15668748319149017, 0.14832726120948792, -0.1441516876220703, 0.0017336285673081875, -0.4786893427371979, -0.1791830062866211, 0.011974065564572811, 0.1179538294672966, 0.07875730842351913, 0.2760803997516632, 0.19216160476207733, -0.06523854285478592, 0.3270622193813324, -0.21999730169773102, -0.13831903040409088, 0.2515614628791809, -0.4203435778617859, 0.0650264099240303, 0.128182515501976, 0.5231108665466309, 0.4389287233352661, -0.05068892985582352, 0.1923217624425888, -0.5749944448471069, -0.18485984206199646, -0.12693077325820923, -0.021392367780208588, -0.2526826858520508, 0.08606535196304321, -0.1704748272895813, -0.08079574257135391, -0.004906653892248869, -0.23437818884849548, 0.30655285716056824, 0.4333135783672333, 0.09178607910871506, 0.3281421959400177, -0.12484182417392731, -0.15106339752674103, -0.04176407307386398, 0.12121731787919998, -0.00994198303669691, -0.14469300210475922, 0.07626429200172424, -0.03262338042259216, -0.14314058423042297, 0.1396520882844925, 0.08871197700500488, -0.05033164471387863, -0.1943775862455368, -0.24077941477298737, 0.1955379992723465, 0.1128840297460556, 0.08202588558197021, 0.2266770899295807, -0.12924964725971222, 0.029139773920178413, 0.18327094614505768, -0.022485163062810898, 0.12675361335277557, 0.00277049676515162, -0.1392589956521988, 0.07873021811246872, -0.1624123603105545, -0.12272369116544724, 0.1950790137052536, -0.11496537178754807, 0.08681576699018478, 0.3681079149246216, -0.09637251496315002, -0.13318969309329987, -0.010090758092701435, 0.3508027493953705, -0.13841845095157623, -0.2705477178096771, 0.02483547292649746, 0.015690257772803307, -0.037990689277648926, 0.012941458262503147, -0.010980182327330112, 0.13483798503875732, 0.10716061294078827, -0.11924822628498077, -0.11745613813400269, -0.055184632539749146, 0.013265026733279228, 0.06392456591129303, -0.1556495577096939, -0.007149384822696447, 0.24619102478027344, 0.0800071656703949, -0.01833818294107914, -0.25812551379203796, -0.029783712700009346, 0.008206847123801708, -0.2635136842727661, -0.337552934885025, -0.31782788038253784, 0.17575375735759735, -0.2557714879512787, 0.0801406055688858, 0.1204153299331665, -0.2555023729801178, -0.3161647915840149, 0.03456581011414528, -0.02059326134622097, 0.12604498863220215, 0.08203602582216263, 0.17767053842544556, -0.14376316964626312, -0.33998045325279236, -0.05635637789964676, 0.17980079352855682, 0.03076813742518425, -0.17848601937294006, 0.16689404845237732, -0.13786600530147552, 0.1679844856262207, 0.044699981808662415, 0.23240408301353455, 0.2980625331401825, -0.3720589578151703, -0.0404960922896862, -0.04606706276535988, 0.16482475399971008, -0.3301416337490082, -0.12203899770975113, -0.22609268128871918, 0.14434117078781128, -0.132163867354393, 0.5369547009468079, -0.0882563591003418, -0.0019980294164270163, 0.18941615521907806, -0.09508606046438217, 0.08096463233232498, 0.194012850522995, 0.13686448335647583, 0.10126635432243347, 0.029263727366924286, -0.11452100425958633, 0.027033332735300064, 0.029658503830432892, 0.05868013575673103, -0.021195759996771812, 0.3100520670413971, 0.011837359517812729, -0.13034452497959137, 0.33381640911102295, -0.09137779474258423, -0.031794968992471695, -0.33996108174324036, -0.011313645169138908, -0.1402558982372284, -0.05703098699450493, 0.018639035522937775, -0.025219930335879326, -0.0077157397754490376, 0.11030929535627365, 0.07550434023141861, -0.4981778860092163, 0.17264123260974884, 0.03966814652085304, 0.09551320970058441, -0.04148152470588684, 0.10327605158090591, 0.06525617837905884, 0.27246516942977905, -0.24909119307994843, -0.011534611694514751, -0.011164394207298756, -0.008766588754951954, 0.02351825311779976, 0.20893412828445435, 0.0019114684546366334, 0.10211726278066635, 0.11241491138935089, 0.05363988131284714, -0.30505672097206116, 0.023563755676150322, 0.11609479784965515, 0.12931181490421295, 0.02705875225365162, -0.1659870594739914, -0.2597406208515167, -0.057474084198474884, -0.0502653643488884, -0.020846400409936905, 0.030450351536273956, 0.024109845981001854, 0.04476603865623474, -0.18826588988304138, 0.14741544425487518, -0.0640873908996582, -0.021201439201831818, 0.07677549123764038, -0.4320811629295349, -0.006972713861614466, 0.15387669205665588, 0.6411160826683044, -0.04231632128357887, 0.009743761271238327, 0.2017679214477539, 0.007445004768669605, 0.12861360609531403, 0.010602636262774467, 0.1763031780719757, 0.07869254052639008, -0.3908892869949341, -0.07273565977811813, 0.03875191882252693, 0.11640371382236481, -0.031149957329034805, 0.07677919417619705, 0.2080710530281067, 0.14087502658367157, -0.002889071125537157, -0.2476491779088974, 0.13829539716243744, -0.0715087279677391, -0.027642223984003067, -0.09290026128292084, -0.02862013690173626, -0.07842956483364105, 0.05599371716380119, 0.057694509625434875, -0.16886933147907257, -0.20907889306545258, -0.12650920450687408, -0.12709276378154755, -0.028408458456397057, -0.20696526765823364, 0.1300617903470993, -0.09164410829544067, 0.10115548223257065, 0.052085451781749725, 0.026766983792185783, -0.2010067105293274, 0.022575851529836655, -0.17172250151634216, 0.15310370922088623, 0.11939995735883713, 0.190079003572464, -0.11547023057937622, -0.06068266183137894, -0.130946084856987, -0.1454223245382309, 0.29916855692863464, -0.08141909539699554, 0.14672894775867462, 0.048012882471084595, -0.004064397886395454, 0.020350705832242966, -0.12400379776954651, 0.0021664092782884836, -0.10299316048622131, 0.15358731150627136, 0.049129828810691833, 0.04135918244719505, -0.04531894996762276, -0.1253422349691391, -0.06765517592430115, -0.2038293480873108, 0.08359070122241974, -0.05971677601337433, 0.004745213780552149, 0.2325895130634308, -0.02920445054769516, -0.03398481383919716, -0.01685415580868721, 0.031212257221341133, 0.017490610480308533, 0.035843607038259506, 0.04081891104578972, 0.5002832412719727, -0.2626021206378937, -0.01112950500100851, 0.059654973447322845, -0.0784805566072464, -0.09319775551557541, 0.12524014711380005, 0.014642283320426941, 0.0028402351308614016, -0.04013393819332123, -0.07470738887786865, -0.043400440365076065, -0.11024516820907593, -0.05510412156581879, 0.008940137922763824, -0.2577216625213623, -0.16646698117256165, -0.0300043486058712, 0.2389063835144043, 0.020525256171822548, -0.15554159879684448, -0.31800809502601624, -0.057678576558828354, -0.0870051309466362, -0.19267113506793976, -0.08969045430421829, 0.029261484742164612, 0.2609352171421051, 0.017254091799259186, 0.07066744565963745, 0.5280227065086365, -0.03397013992071152, -0.049901332706213, -0.041234247386455536, -0.22009380161762238, -0.012364797294139862, -0.19379329681396484, 0.09514176845550537, 0.005477061029523611, -0.4101507365703583, -0.12752027809619904, -0.05547820404171944, -0.2341921329498291, 0.048116978257894516, 0.0006405308376997709, 0.005009655375033617, 0.09750191867351532, -0.04737076908349991, 0.4954654276371002, -0.08931294828653336, 0.0169423446059227, -0.10829273611307144, 0.006366621237248182, -0.013264425098896027, -0.1898377239704132, -0.1330689638853073, 0.11598192900419235, -0.09892458468675613, 0.05510604381561279, -0.002566003706306219, -0.04539980739355087, -0.23975969851016998, -0.02771022357046604, 0.0958835631608963, -0.10124148428440094, -0.027226094156503677, 0.24461615085601807, -0.05498436838388443, -0.04312858730554581, 0.13327333331108093, -0.06162499263882637, 0.3021562993526459, -0.08187637478113174, -0.11571522057056427, 0.08602851629257202, -0.3050616383552551, 0.49362826347351074, -0.0011509910691529512, 0.03852519765496254, 0.17659103870391846, -0.013455024920403957, -0.048688601702451706, -0.31022828817367554, -0.3366350829601288, -0.12335843592882156, -0.24540498852729797, 0.06598088145256042, -0.3825286328792572, 0.11787130683660507, 0.06926649808883667, 0.16610537469387054, 0.02349431999027729, 0.07107365876436234, -0.038857895880937576, 0.0077911317348480225, 0.18544399738311768, 0.1844528615474701, 0.07538551837205887, 0.06989219784736633, 0.14310583472251892, 0.11311054229736328, 0.12800855934619904, -0.2539595365524292, 0.1596846729516983, -0.07985138148069382, -0.1390807330608368, -0.12801025807857513, 0.014920980669558048, -0.0031760784331709146, -0.107398621737957, -0.14875714480876923, -0.0653814747929573, 0.4309130311012268, -0.3522265553474426, 0.29178720712661743, 0.24616070091724396, 0.00030837039230391383, 0.14962562918663025, -0.3565610945224762, -0.02126685157418251, -0.060435183346271515, -0.1551184356212616, -0.023008789867162704, 0.26775115728378296, 0.017642056569457054, -0.022230157628655434, -0.2033824920654297, 0.004489557351917028, -0.03822609409689903, 0.1568855345249176, -0.0004398951423354447, 0.09267581254243851, 0.17620739340782166, -0.024077169597148895, -0.20778128504753113, 0.24403388798236847, -0.06663240492343903, 0.07149158418178558, -0.02679266408085823, 0.06775356084108353, -0.14642369747161865, 0.023603782057762146, -0.1260957568883896, 0.020104870200157166, -0.37361663579940796, 0.0543581023812294, 0.2067636251449585, 0.0014604436000809073, 0.07570113986730576, -0.02105303667485714, -0.24385453760623932, -0.13596361875534058, 0.1319180130958557, -0.0676843523979187, 0.1750456690788269, 0.09660837799310684, -0.03239402174949646, 0.22517606616020203, 0.08975815027952194, 0.09145694971084595, 0.030752798542380333, 0.02247014455497265, -0.45952585339546204, -0.05586593970656395, -0.006917797029018402, 0.24742385745048523, -0.021184464916586876, -0.07998139411211014, -0.04179617390036583, 0.02048870362341404, 0.03277074173092842, -0.40848687291145325, -0.04760654643177986, -0.05778147280216217, -0.24888509511947632, 0.10036489367485046, 0.003327712183818221, -0.060269009321928024, 0.05403034761548042, 0.0666629821062088, -0.1348678171634674, 0.0331469401717186, -0.10017165541648865, 0.4664556384086609, 0.11896563321352005, 0.041066549718379974, -0.17618012428283691, 0.0448174774646759, -0.07972991466522217, -0.015060444362461567, -0.04060310870409012, -0.12621848285198212, -0.15325573086738586, 0.04053426533937454, -0.026275668293237686, 0.4193342328071594, -0.16094407439231873, 0.10521233081817627, 0.054681383073329926, 0.13144652545452118, -0.04081043601036072, -0.04552425071597099, -0.0751022920012474, 0.0394551046192646, 0.03474557399749756, -0.10034053027629852, 0.15538078546524048, -0.14320321381092072, 0.0050025819800794125, 0.11555572599172592, 0.09858650714159012, 0.014697987586259842, 0.12235662341117859, -0.4436449110507965, 0.06239282339811325, 0.006226223893463612, 0.2134859412908554, 0.023419257253408432, 0.0025973680894821882, -0.20677143335342407, 0.10899972915649414, -0.056218694895505905, -0.5601575970649719, 0.18556050956249237, 0.015699168667197227, 0.0634952187538147, -0.008132982067763805, 0.15894865989685059, 0.08330921828746796, 0.10039126127958298, 0.07184711843729019, 0.4719836115837097, -0.09121052920818329, -0.10986838489770889, 0.042397160083055496, 0.03350696712732315, -0.05201723054051399, -0.21103517711162567, 0.11864646524190903, -0.0674656331539154, -0.2698195278644562, -0.039813920855522156, -0.020854244008660316, 0.2570812404155731, -0.10020508617162704, -0.10581327229738235, 0.24093416333198547, 0.03475252538919449, -0.0930977389216423, -0.13580353558063507, -0.14548318088054657, -0.07596047967672348, 0.0831262543797493, 0.12917648255825043, 0.06842923164367676, -0.1379796415567398, -0.2330460399389267, 0.08895935118198395, 0.016027217730879784, 0.041423723101615906, -0.07581263035535812, -0.4031938314437866, -0.06668820232152939, 0.05705782771110535, 0.2135825753211975, 0.14978159964084625, 0.09434649348258972, -0.7348861694335938, -0.1410829722881317, 0.07764269411563873, -0.03130912408232689, -0.05504212900996208, -0.0019923336803913116, 0.3466167151927948, 0.027147581800818443, -0.13405823707580566, -0.21215060353279114, 0.13475674390792847, 0.03410301357507706, -0.4886246919631958, 0.008527136407792568, 0.13939136266708374, 0.3999145030975342, -0.023625243455171585, 0.1456419974565506, 0.14387834072113037, 0.12981800734996796, -0.004548944067209959, 0.21441802382469177, -0.1481844037771225, -0.20486879348754883, 0.09556835144758224, 0.07639435678720474, 0.07469499111175537, 0.09202823042869568, 0.13235540688037872, -0.038578540086746216, 0.2851405143737793, -0.2241365909576416, 0.09740081429481506, 0.05072299763560295, 0.06476137042045593, 0.02082989178597927, -0.060677070170640945, -0.006104453466832638, -0.07814938575029373, 0.1288851499557495, 0.02002701349556446, 0.10570157319307327, 0.1057039424777031, -0.00357225863263011, 0.007573333103209734, -0.015502207912504673, 0.0529806949198246, 0.09817340970039368, 0.180851548910141, -0.07336466759443283, 0.07670097798109055, -0.3961358368396759, 0.0554332472383976, -0.01143046747893095, -0.11240684986114502, 0.08188766986131668, -0.010676268488168716, -0.004101946018636227, 0.052953075617551804, -0.03978447988629341, 0.248043492436409, -0.18629734218120575, -0.012199833989143372, -0.034807998687028885, -0.1326930820941925, -0.05552826076745987, -0.17042098939418793, -0.022786816582083702, -0.07137780636548996, -0.41350674629211426, 0.10718100517988205, 0.0631880983710289, 0.14202715456485748, 0.08541049063205719, 0.029373129829764366, -0.21990057826042175, 0.03488852456212044, 0.1314385086297989, -0.04491919279098511, 0.12102895230054855, -0.07314631342887878, 0.2140289694070816, -0.07231742888689041, 0.11118295788764954, -0.010343119502067566, 0.04823353514075279, -0.07484352588653564, -0.3262661099433899, -0.08773799985647202, -0.07145071774721146, -0.06992309540510178, -0.017654279246926308, 0.12388686835765839, -0.05115978419780731, -0.1318507045507431, 0.09582888334989548, 0.1139812171459198, 0.14707712829113007, -0.004542731214314699, 0.34925639629364014, -0.10116321593523026, 0.034800250083208084, 0.04834486171603203, -0.27771198749542236, -0.0886763334274292, -0.25876107811927795, -0.1056109219789505, 0.14466701447963715, -0.3461759090423584, -0.04703010991215706, 0.010055599734187126, 0.029010102152824402, -0.06576094776391983, 0.021443894132971764, -0.05757022276520729, 0.06187649443745613, -0.055297140032052994, 0.5859982967376709, -0.12765750288963318, -0.06727349013090134, -0.09627046436071396, 0.05282527580857277, 0.11828453093767166, 0.07268411666154861, -0.03911108151078224, 0.026921775192022324, -0.4487961232662201, 0.2339114546775818, -0.06988393515348434, -0.2128440886735916, 0.021986259147524834, -0.03369710594415665, -0.10490519553422928, 0.05870652198791504, -0.11843394488096237, 0.22102698683738708, 0.15776760876178741, -0.08218444138765335, 0.14254644513130188, 0.09654559195041656, -0.01122710295021534, -0.1799914687871933, 0.08029188960790634, 0.0290666650980711, 0.14606033265590668, 0.12928694486618042, 0.060739994049072266, 0.06335856765508652, -0.007231526076793671, -0.13123847544193268, -0.013809120282530785, 0.03789668530225754, 0.031048059463500977, -0.2629472315311432, -0.0868043303489685, 0.1611882597208023, 0.2765977680683136, 0.11885026842355728, 0.018760738894343376, -0.27971288561820984, 0.2542302906513214, 0.02669193595647812, 0.1939231902360916, -0.13132928311824799, 0.02292991243302822, 0.06033670902252197, -0.1458299458026886, -0.11035341769456863, 0.06866061687469482, 0.24727259576320648, -0.012794377282261848, -0.12157795578241348, 0.07766248285770416, 0.04740969091653824, -0.4044153690338135, 0.05114264041185379, 0.024058498442173004, -0.3124881684780121, 0.0013556824997067451, -0.1866738200187683, -0.13586366176605225, -0.07309115678071976, -0.10144064575433731, -0.15049578249454498, 0.21648217737674713, 0.031224429607391357, 0.47679397463798523, 0.24473784863948822, 0.021304901689291, 0.2820154130458832, 0.24115075170993805, -0.05487596243619919, 0.021861637011170387, -0.09951380640268326, 0.09885210543870926, -0.0020506824366748333, 0.20463533699512482, 0.09416301548480988, -0.0081478301435709, -0.1304742991924286, -0.168467178940773, -0.295696884393692, -0.010589134879410267, -0.1939246654510498, -0.2790496349334717, 0.17714247107505798, 0.11333540081977844, -0.06614414602518082, 0.1257714331150055, -0.08808377385139465, -0.11884963512420654, 0.04266729950904846, -0.008172308094799519, 0.11431294679641724, 0.04596460610628128, 0.04663461819291115, 0.06342758238315582, -0.05016035959124565, -0.03618057444691658, -0.2613773047924042, -0.023608390241861343, -0.09690790623426437, -0.10742750018835068, 0.11904272437095642, -0.10732918977737427, -0.0065976707264781, 0.11696439236402512, 0.14521288871765137, 0.07534573972225189, -0.16731849312782288, 0.07581845670938492, 0.09071606397628784, -0.1573566198348999, 0.010696131736040115, -0.07510257512331009, -0.11242932826280594, -0.04498714953660965, -0.0065681166015565395, 0.017553018406033516, -0.24158117175102234, 0.13387338817119598, -0.05304177477955818, -0.11763766407966614, -0.4176316261291504, -0.2495431900024414, 0.15718497335910797, 0.21923978626728058, -0.005479725543409586, 0.07575539499521255, 0.1628311723470688, -0.014152041636407375, -0.12777097523212433, -0.18652664124965668, 0.10072114318609238, -0.061359163373708725, 0.16795389354228973, 0.07814083248376846, -0.13061374425888062, 0.04858902096748352, -0.16923892498016357, 0.09040791541337967, -0.2798956036567688, 0.23749101161956787, 0.2085247039794922, -0.1988878846168518, -0.007222043350338936, -0.0802857056260109, 0.12622462213039398, 0.09764568507671356, -0.048685815185308456, 0.024367472156882286, 0.2478644847869873, -0.08132912963628769, -0.027202945202589035, -0.045372772961854935, 0.06269147247076035, -0.0033181700855493546, -0.08445218205451965, 0.1877465844154358, -0.0918847993016243, -0.11119340360164642, -0.027515357360243797, 0.12607166171073914, 0.09294303506612778, 0.017004340887069702, -0.3417358100414276, 0.10640567541122437, -0.09308143705129623, 0.12123709172010422, 0.020589588209986687, -0.0958973616361618, -0.21887366473674774, 0.1737145334482193, 0.18121497333049774, 0.12511277198791504, -0.12210734188556671, 0.14245721697807312, 0.09871987253427505, -0.030783632770180702, 0.04990290850400925, 0.7839566469192505, 0.27536535263061523, 0.44462689757347107, -0.8964996337890625, -0.4630875587463379, 0.09028446674346924, 0.2592397630214691, -0.19634433090686798, 0.39747560024261475, 0.42717626690864563, -0.6333589553833008, 0.3446542024612427, -0.0832807794213295, -0.5725901126861572, 0.022848254069685936, -0.5374429821968079, -0.022324860095977783, -0.06267819553613663, -0.0968872606754303, -0.1989274024963379, 0.1606859266757965, 0.4448872208595276, 0.06523091346025467, -0.15696696937084198, 0.024564160034060478, 0.26208004355430603, -0.1020950973033905, -0.016500448808073997, 0.20096933841705322, 0.08155732601881027, 0.08831525593996048, -0.21225492656230927, -0.09601538628339767, -0.30774834752082825, 0.2522132098674774, -0.1042996346950531, -0.1516074538230896, -0.08075737953186035, -0.0037782040890306234, 0.028425399214029312, -0.17072413861751556, 0.032232239842414856, -0.15667295455932617, -0.056924983859062195, -0.08196799457073212, 0.2461649626493454, 0.06817692518234253, 0.2301158308982849, -0.010220805183053017, 0.18977442383766174, -0.2937264144420624, -0.015073888003826141, -0.2605281174182892, -0.13183729350566864, -0.10478564351797104, 0.04113204404711723, 0.06878954917192459, -0.2080358862876892, 0.09164533019065857, -0.1315682977437973, -0.2666320204734802, -0.17989477515220642, -0.3071620464324951, 0.09985684603452682, -0.16923780739307404, -0.16377174854278564, -0.13845977187156677, 0.06548647582530975, 0.5117506980895996, 0.960976779460907, 0.2427319437265396, 0.05652562156319618, -0.2055593729019165, -0.493792325258255, -0.07106872648000717, -0.5117912888526917, 0.2939552068710327, 0.1907130926847458, 0.12606090307235718, -0.35166892409324646, 0.11017005145549774, -0.05518662557005882, -0.3635944724082947, -0.029559150338172913, -0.12592503428459167, -0.06231333687901497, -0.015573889948427677, -0.02847185544669628, -0.3057349920272827, -0.06521574407815933, 0.07837428897619247, 0.16699177026748657, -0.17420925199985504, 0.1639413684606552, 0.0835534855723381, -0.00042877226951532066, -0.0641556829214096, 0.12074475735425949, -0.07517027854919434, 0.14985133707523346, -0.1078355684876442, 0.4601013958454132, -0.25719502568244934, -0.06999405473470688, -0.05296763777732849, -0.0753878504037857, -0.2703089714050293, 0.08180098235607147, 0.329154908657074, -0.06927153468132019, -0.4171716272830963, -0.1561756730079651, -0.14485079050064087, -0.19052505493164062, -0.23573100566864014, -0.05941391736268997, -0.07386497408151627, 0.12235600501298904, -0.04280336946249008, 0.10052091628313065, -0.04060228914022446, -0.11432968825101852, -0.099143847823143, -0.03668459504842758, 0.15919604897499084, 0.09270814061164856, 0.15173545479774475, -0.3884107172489166, -0.18721547722816467, -0.00688175531104207, -0.08153428882360458, 0.14278441667556763, -0.013054507784545422, -0.8203831911087036, -0.042506143450737, 0.29454612731933594, 0.2036430835723877, 0.385998398065567, -0.02679724618792534, 0.2543473243713379, -0.6841139793395996, 0.24860325455665588, 0.13494426012039185, 0.05928110331296921, -0.19639606773853302, -0.007041784469038248, 0.04852693900465965, 0.07618242502212524, 0.20966270565986633, 0.19071908295154572, -0.28895267844200134, -0.23497076332569122, 0.02053411677479744, -0.24517188966274261, -0.21899199485778809, -0.3138793110847473, 0.18724922835826874, 0.2418666034936905, -0.04820558801293373, -0.05431836098432541, -0.37807634472846985, 0.1734774112701416, 0.07708528637886047, 0.0028631268069148064, -0.11549369245767593, 0.2708030343055725, -0.6315661668777466, 0.07367364317178726, -0.1591544896364212, -0.1961946040391922, 0.186842679977417, -0.14954937994480133, 0.3739182949066162, -0.1222788617014885, 0.5385389924049377, 0.2305191606283188, -0.0683090016245842, 0.17891117930412292, -0.0031679910607635975, 0.06172127276659012, -0.3610247075557709, -0.030858319252729416, 0.0663691833615303, -0.16056998074054718, 0.04723544046282768, -0.17659448087215424, -0.3521963655948639, -0.12109284847974777, -0.298990398645401, -0.1620117723941803, 0.13797929883003235, -0.05498465895652771, 0.33189964294433594, 0.21960285305976868, -0.008862155489623547, 0.033438798040151596, -0.08127915114164352, 0.17485898733139038, 0.22392986714839935, -0.02674657292664051, -0.2939644157886505, 0.07635124027729034, 0.31664615869522095, 0.028487930074334145, 0.18764175474643707, 0.4341209828853607, -0.6268466711044312, -0.40753042697906494, 0.8256849646568298, 0.16988523304462433, 0.4690105617046356, -0.019495919346809387, 0.1425028294324875, 0.4331527054309845, 0.059669215232133865, -0.0664195641875267, 0.3595251739025116, -0.11991272866725922, -0.3611706495285034, -0.27160412073135376, -0.25264590978622437, 0.14569765329360962, -0.2578060030937195, -0.0992753803730011, -0.09513095766305923, 0.32837340235710144, 0.12940214574337006, 0.06834231317043304, 0.27898430824279785, 0.17572900652885437, -0.08228980749845505, -0.12603269517421722, 0.10994334518909454, 0.3612351417541504, 0.09124712646007538, -0.12442730367183685, -0.10544943064451218, -0.188900887966156, 0.005788662005215883, 0.2367531806230545, 0.21415385603904724, -0.04502213001251221, 0.06689786165952682, 0.15665040910243988, -0.09736860543489456, -0.12273603677749634, -0.2717757225036621, 0.09239531308412552, 0.025008874014019966, 0.1870659738779068, -0.3799435794353485, 0.039244040846824646, 0.04399664327502251, 0.09803587943315506, -0.0403628833591938, 0.08908674865961075, 0.32623228430747986, 0.239563450217247, -0.2304254174232483, -0.34321048855781555, 0.04325450584292412, -0.5170844197273254, 0.39067208766937256, -0.07443849742412567, -0.3777824640274048, 0.11132968962192535, -0.06831682473421097, 0.11577621847391129, 0.47242555022239685, -0.15819494426250458, 0.4063155949115753, 0.1487635225057602, -0.18453818559646606, -0.1272798627614975, 0.11789356172084808, -0.13768282532691956, 0.020712845027446747, -0.010455899871885777, -0.028125669807195663, -0.00044802791671827435, -0.1636466681957245, 0.0917196050286293, 0.1371304988861084, 0.047779977321624756, -0.0073607610538601875, -0.15476058423519135, -0.19349314272403717, -0.006480556912720203, 0.20002205669879913, -0.034319426864385605, -0.2164916843175888, -0.029164889827370644, -0.030672762542963028, -0.13919048011302948, 0.11867716163396835, 0.01574692502617836, -0.605328381061554, 0.005939200520515442, 0.07951057702302933, 0.059270184487104416, -0.3635769784450531, -0.03738940879702568, 0.20273205637931824, -0.0872965008020401, 0.02803988941013813, -0.14617574214935303, 0.12885144352912903, 0.21153046190738678, 0.11667483299970627, -0.05597800388932228, 0.08132102340459824, 0.028707534074783325, -0.0036990009248256683, -0.1886177808046341, -0.29701167345046997, 0.17633897066116333, 0.09612797945737839, 0.4122815728187561, 0.05632087588310242, 0.07702957838773727, -0.10023777931928635, -0.006139094475656748, -0.3398381769657135, -0.3351740837097168, 0.024922138080000877, 0.19694091379642487, 0.3247317671775818, 0.2021840363740921, 0.06411025673151016, 0.2199741154909134, 0.08417762815952301, -0.022112391889095306, -0.029315467923879623, -0.3038763403892517, 0.13073888421058655, -0.010951030068099499, -0.13198846578598022, -0.14380712807178497, -0.0362914577126503, 0.01666533574461937, -0.14284582436084747, 0.05900723487138748, -0.07599125057458878, -0.04517495632171631, 0.15453752875328064, -0.002359158592298627, 0.05693771690130234, -0.06799694895744324, 0.18729427456855774, 0.14827486872673035, 0.03220625966787338, -0.18432669341564178, -0.18812577426433563, 0.2685609757900238, -0.07794490456581116, -0.08685322850942612, -0.04050610959529877, 0.036163024604320526, 0.08610288798809052, -0.10408838838338852, 0.07224394381046295, 0.028647206723690033, 0.06273331493139267, 0.21746879816055298, 0.12670478224754333, -0.08585343509912491, -0.041606321930885315, -0.2055792659521103, -0.41535264253616333, -0.15585197508335114, 0.0704783946275711, 0.013147291727364063, -0.1473890095949173, -0.2150590866804123, 0.1274956464767456, 0.08528575301170349, -0.14930418133735657, -0.19088207185268402, -0.05678088590502739, -0.12805090844631195, -0.14613741636276245, -0.049334608018398285, -0.036074426025152206, -0.011824436485767365, -0.01347245555371046, 0.2351539582014084, -0.10543806105852127, 0.03672578185796738, 0.202682226896286, 0.04950319975614548, -0.11580344289541245, 0.21331755816936493, -0.25058722496032715, -0.015751877799630165, -0.07259775698184967, -0.10052988678216934, -0.056609299033880234, -0.11053606867790222, -0.2775754928588867, -0.12781882286071777, 0.4400644302368164, -0.22154738008975983, 0.02324202097952366, 0.05122985690832138, -0.19953855872154236, -0.14067231118679047, 0.044333573430776596, -0.05952901765704155, -0.14902329444885254, 0.007967633195221424, -0.07069145143032074, 0.24420012533664703, -0.20574265718460083, 0.16592518985271454, 0.11906629800796509, 0.3888184726238251, -0.0008205142803490162, -0.0632718950510025, -0.01281446311622858, -0.01820669323205948, 0.07784854620695114, 0.19401545822620392, 0.26242342591285706, 0.055666837841272354, 0.0323697030544281, 0.1459040641784668, 0.05285416916012764, 0.07427414506673813, 0.24429166316986084, -0.11251254379749298, -0.12103672325611115, 0.32335424423217773, -0.030042139813303947, 0.03595997393131256, -0.10210300981998444, 0.003735521575435996, 0.21451705694198608, -0.052936337888240814, 0.05276906117796898, 0.09252465516328812, -0.02735385112464428, 0.13216036558151245, -0.04435804858803749, -0.09288006275892258, 0.08656878769397736, -0.01766294799745083, 0.14661650359630585, 0.00019343526219017804, 0.010677858255803585, 0.0659787580370903, 0.10689840465784073, 0.0012551166582852602, -0.0770290344953537, 0.06831232458353043, -0.14191284775733948, -0.08454513549804688, 0.06929456442594528, -0.012582545168697834, -0.031213460490107536, -0.29457467794418335, 0.008879318833351135, 0.09465980529785156, -0.21911472082138062, 0.04002153500914574, 0.22759848833084106, -0.036367014050483704, -0.08237706869840622, -0.05567450448870659, 0.11566287279129028, 0.06878271698951721, 0.23423047363758087, -0.10732553899288177, 0.14455051720142365, 0.006367688532918692, -0.008467860519886017, 0.010927397757768631, 0.1660185009241104, 0.12387865036725998, 0.03883477300405502, 0.043508682399988174, -0.10699942708015442, -0.05626131221652031, -0.13000774383544922, 0.02336190827190876, -0.06631844490766525, 0.034000445157289505, 0.16204479336738586, -0.06084297224879265, 0.3589813709259033, -0.06695487350225449, 0.06099476292729378, 0.04018352925777435, -0.1346069872379303, 0.22802942991256714, 0.10155194997787476, 0.38850948214530945, 0.05549125000834465, -0.15703174471855164, -0.015662115067243576, -0.1320187896490097, -0.07219098508358002, -0.003756623947992921, 0.0995386466383934, 0.09807559102773666, -0.08389021456241608, -0.1036122515797615, 0.06582643836736679, -0.12461421638727188, 0.044328514486551285, 0.17942392826080322, 0.20979857444763184, 0.0007131544989533722, -0.26248887181282043, 0.2680020332336426, -0.021362917497754097, -0.16714374721050262, 0.10049217194318771, -0.02354944311082363, -0.3009035289287567, -0.15168116986751556, -0.08290863782167435, -0.06864271312952042, -0.10577396303415298, -0.06419975310564041, -0.1092054471373558, -0.030494051054120064, 0.017134912312030792, 0.14158667623996735, 0.0006032037199474871, -0.033561237156391144, -0.3435732424259186, -0.008597214706242085, -0.08073708415031433, 0.03874681144952774, 0.000963029742706567, 0.10438297688961029, -0.0692310482263565, -0.027174126356840134, 0.06652858108282089, -0.6571202278137207, 0.09200257062911987, 0.08277870714664459, 0.28837767243385315, -0.18482419848442078, -0.16963617503643036, -0.20477376878261566, -0.029939500615000725, -0.1045169085264206, -0.18536600470542908, -0.031332582235336304, 0.056456148624420166, 0.3162994682788849, 0.1042410284280777, 0.20210741460323334, -0.03175564110279083, 0.20583681762218475, 0.03759286180138588, -0.12250688672065735, -0.16255180537700653, -0.17628848552703857, -0.14666424691677094, -0.11282740533351898, -0.0012902721064165235, 0.23030921816825867, -0.13088737428188324, -0.04981042817234993, -0.2717128098011017, 0.057374756783246994, 0.02736339531838894, 0.15479832887649536, -0.045966774225234985, 0.10156648606061935, -0.07077182084321976, -0.10153938084840775, -0.08300663530826569, -0.061085935682058334, -0.09567446261644363, -0.14297491312026978, 0.2725217640399933, 0.037765443325042725, -0.13776253163814545, 0.034983228892087936, 0.0248348917812109, 0.096213199198246, 0.1802646815776825, -0.05405424162745476, 0.09832312166690826, -0.12319920212030411, -0.08429741114377975, -0.03258810192346573, -0.1782025843858719, -0.03680228814482689, -0.2916066646575928, 0.499559611082077, 0.14483784139156342, 0.052725572139024734, -0.06924975663423538, 0.006574990693479776, -0.08658954501152039, -0.06470570713281631, 0.009773115627467632, 0.07767250388860703, 0.14945600926876068, 0.06055450811982155, 0.05667091906070709, -0.15982432663440704, -0.04831641539931297, -0.12959818542003632, 0.07329805940389633, 0.08243931829929352, 0.2141120433807373, 0.04253013804554939, 0.010177751071751118, -0.16858109831809998, 0.34939080476760864, 