{"version": "0.5.1", "metadata": {"date": {"year": 2023, "month": 5, "day": 18, "hour": 12, "minute": 48, "second": 54}, "loudness": -11.240169525146484, "gain": 0.8276290550943151, "name": null, "modeled_by": null, "gear_type": null, "gear_make": null, "gear_model": null, "tone_type": null}, "architecture": "WaveNet", "config": {"layers": [{"input_size": 1, "condition_size": 1, "head_size": 8, "channels": 16, "kernel_size": 3, "dilations": [1, 2, 4, 8, 16, 32, 64, 128, 256, 512], "activation": "Tanh", "gated": false, "head_bias": false}, {"input_size": 16, "condition_size": 1, "head_size": 1, "channels": 8, "kernel_size": 3, "dilations": [1, 2, 4, 8, 16, 32, 64, 128, 256, 512], "activation": "Tanh", "gated": false, "head_bias": true}], "head": null, "head_scale": 0.02}, "weights": [-0.04612370580434799, 0.6712458729743958, -0.919990599155426, -0.8639768362045288, -0.38334617018699646, 0.37277349829673767, -0.012002124451100826, 0.9474594593048096, -0.057451002299785614, 0.22673563659191132, -0.14317633211612701, -0.34289467334747314, -1.0642523765563965, -0.5918884873390198, -0.4555263817310333, 0.023100655525922775, 0.033199798315763474, 0.07980769127607346, -0.10126010328531265, -0.03200439363718033, 0.1793087124824524, 0.028930485248565674, -0.06751281768083572, -0.02535155974328518, 0.059923332184553146, -0.019479701295495033, -0.00015939600416459143, -0.04769875109195709, -0.11439838260412216, -0.15457026660442352, 0.03978230431675911, 0.145933136343956, 0.024052739143371582, -0.16827459633350372, -0.10014136135578156, -0.15694749355316162, -0.02106751687824726, 0.15894433856010437, 0.19393205642700195, -0.0180832426995039, 0.03229651227593422, -0.13186956942081451, 0.17097148299217224, -0.12075699120759964, 0.0003513429837767035, -0.18287168443202972, 0.06871622800827026, -0.021379709243774414, 0.03389744833111763, -0.02181088924407959, -0.02236715890467167, 0.24634572863578796, 0.02068938873708248, -0.11299288272857666, 0.1805017739534378, -0.1157691478729248, -0.09714259952306747, -0.021138429641723633, -0.1272933930158615, -0.1954800933599472, 0.1612573117017746, 0.09730233252048492, -0.02673466131091118, -0.012908603996038437, 0.03134176507592201, -0.22654835879802704, -0.2942793071269989, -0.16638901829719543, 0.015463631600141525, 0.3597419857978821, 0.09412430971860886, 0.02606958895921707, -0.1584000438451767, 0.32232290506362915, 0.20281504094600677, -0.0902055874466896, 0.2214905023574829, -0.057642046362161636, -0.20893843472003937, -0.2816900908946991, -0.20001347362995148, 0.3607618808746338, 0.16666705906391144, -0.18593083322048187, -0.16375777125358582, -0.22750020027160645, -0.10039651393890381, 0.152772456407547, 0.20483559370040894, -0.06038052588701248, -0.1985730677843094, -0.11034281551837921, 0.047190070152282715, 0.2867805063724518, 0.03566884994506836, -0.04468541964888573, -0.15281124413013458, 0.21842855215072632, -0.04866764694452286, -0.31557774543762207, 0.3399273455142975, 0.1762041449546814, -0.2775368094444275, 0.1617349088191986, -0.06535360962152481, -0.2212681919336319, 0.08742938935756683, -0.041260212659835815, -0.23292039334774017, -0.1971723735332489, -0.12114303559064865, 0.20804686844348907, -0.11593136191368103, 0.12432321161031723, 0.11237464100122452, -0.18521589040756226, 0.10246152430772781, -0.1048925593495369, 0.07736802846193314, -0.1091766208410263, 0.16011059284210205, 0.06873179972171783, -0.2117576152086258, 0.1754826307296753, -0.06870236247777939, -0.21479180455207825, 0.07907332479953766, -0.14421680569648743, 0.07753334939479828, -0.24542969465255737, -0.02772427909076214, -0.046705640852451324, -0.08885953575372696, -0.0672195553779602, 0.24377809464931488, -0.12224210053682327, 0.12171398848295212, -0.07526218146085739, 0.20768237113952637, 0.012268072925508022, 0.2518680989742279, -0.03848590701818466, 0.20408250391483307, -0.1253073364496231, -0.011916378512978554, 0.010452796705067158, -0.028238188475370407, 0.12547479569911957, -0.014244158752262592, -0.253614604473114, -0.032485123723745346, -0.059249214828014374, -0.16412420570850372, 0.18920205533504486, 0.14372581243515015, -0.2712894380092621, 0.20553529262542725, -0.15152816474437714, 0.017780732363462448, -0.13591313362121582, 0.008798155002295971, -0.009163479320704937, -0.13906115293502808, -0.12523558735847473, -0.1946917474269867, 0.09810608625411987, -0.05948767811059952, 0.23054178059101105, -0.21930654346942902, -0.006016976665705442, 0.301942378282547, -0.150539368391037, 0.12377960234880447, 0.21469388902187347, -0.23174943029880524, 0.09887755662202835, -0.18189123272895813, 0.04314657673239708, 0.06212436035275459, -0.13300108909606934, -0.12602786719799042, -0.03451749309897423, -0.07152500748634338, 0.13250789046287537, 0.021732212975621223, 0.16207101941108704, -0.18633557856082916, -0.015085224062204361, -0.2694077789783478, 0.19394303858280182, 0.1070142388343811, 0.24689188599586487, -0.20813891291618347, -0.0077185058034956455, 0.05898430943489075, -0.19031548500061035, -0.07874491065740585, 0.22529453039169312, -0.17455175518989563, -0.002134498907253146, 0.17522995173931122, -0.0019340056460350752, -0.11115282773971558, 0.06789129972457886, -0.18388061225414276, 0.12032026052474976, -0.0746752992272377, 0.2714482843875885, 0.05292521044611931, -0.001550753484480083, -0.07973488420248032, -0.04982832446694374, -0.23553511500358582, 0.06628694385290146, 0.02666931413114071, 0.2765595316886902, -0.20508159697055817, -0.051173847168684006, 0.37291425466537476, -0.21252185106277466, 0.003929427359253168, 0.38554394245147705, -0.052601322531700134, -0.008455171249806881, -0.3700380325317383, 0.18349169194698334, -0.024152569472789764, 0.13606499135494232, -0.007677619345486164, -0.04612231254577637, -0.2537896931171417, 0.21557827293872833, -0.010757321491837502, 0.3078753352165222, -0.07322367280721664, -0.09657127410173416, -0.1636294722557068, 0.017561808228492737, -0.04416884109377861, 0.2701532542705536, -0.057658031582832336, 0.11495273560285568, 0.19450463354587555, -0.11414498835802078, 0.10038749128580093, 0.11750450730323792, 0.01205793023109436, -0.09763770550489426, 0.25100696086883545, -0.12347406148910522, -0.057618822902441025, 0.26514914631843567, 0.014503193087875843, -0.08114578574895859, -0.2268502116203308, 0.011601020582020283, -0.11756931245326996, 0.09188239276409149, 0.03303626924753189, -0.10846284031867981, 0.09210876375436783, -0.05241876468062401, 0.08124411851167679, -0.06890401244163513, 0.17817072570323944, -0.03977883234620094, -0.21831239759922028, 0.17285136878490448, 0.1367253065109253, -0.12618407607078552, 0.06967249512672424, -0.09055150300264359, 0.030833588913083076, -0.12122045457363129, -0.006651000585407019, -0.11331702023744583, 0.31102561950683594, -0.1013483926653862, 0.16015897691249847, -0.08898711204528809, 0.06918754428625107, -0.20432846248149872, 0.08621380478143692, 0.08749625086784363, 0.17557524144649506, -0.0348651260137558, -0.029952088370919228, -0.10735374689102173, 0.10868074744939804, 0.02104002609848976, -0.25248920917510986, 0.20172300934791565, 0.051841944456100464, -0.18154484033584595, 0.09287182241678238, -0.07797659933567047, -0.07089880108833313, 0.02514485828578472, 0.07269350439310074, -0.2175990790128708, 0.06843005120754242, -0.026738420128822327, -0.06291823834180832, -0.1600692719221115, 0.035870250314474106, -0.1346251219511032, 0.022315142676234245, 0.000737582566216588, 0.19956807792186737, -0.1189253032207489, -0.06564819067716599, -0.17032426595687866, 0.14280247688293457, 0.004451102577149868, -0.09040538221597672, 0.19261711835861206, -0.009472154080867767, -0.13237810134887695, 0.16424301266670227, -0.06167002022266388, 0.14328515529632568, -0.09634169191122055, -0.10338173061609268, -0.09470104426145554, 0.07950448244810104, 0.07410575449466705, 0.22898492217063904, -0.07790862768888474, 0.18204228579998016, -0.1400698572397232, 0.04037443548440933, -0.20015624165534973, 0.2631738483905792, -0.027230150997638702, -0.037731148302555084, -0.0672031119465828, 0.21540749073028564, 0.2214379608631134, -0.002769069978967309, 0.22564323246479034, 0.021294724196195602, -0.1972559094429016, 0.21178491413593292, 0.13982093334197998, -0.22589905560016632, 0.2297031134366989, 0.13162149488925934, -0.057380691170692444, 0.013535672798752785, -0.022196583449840546, -0.00594610208645463, 0.03501208871603012, -0.030086137354373932, 0.1164904460310936, -0.01273392140865326, 0.20417095720767975, -0.007241359446197748, 0.10730279237031937, -0.24835367500782013, -0.013770855031907558, -0.13916347920894623, -0.2889970541000366, -0.16200245916843414, 0.07266974449157715, -0.05692439153790474, 0.09981928765773773, 0.083118736743927, 0.006986307445913553, -0.06214709207415581, 0.008314226754009724, -0.1092088595032692, 0.12726262211799622, -0.1311696469783783, 0.07663527131080627, -0.0943547934293747, -0.04231926426291466, 0.02607194520533085, 0.11457666009664536, 0.09336524456739426, 0.23495736718177795, 0.15221528708934784, -0.015532038174569607, -0.0538565032184124, 0.10796263813972473, 0.024323832243680954, 0.01218739990144968, 0.041434694081544876, 0.05906572937965393, -0.19907110929489136, 0.021403362974524498, -0.0264840517193079, -0.17520271241664886, -0.12219642102718353, -0.11771941930055618, -0.25112444162368774, 0.057548459619283676, 0.06831559538841248, -0.02158651128411293, -0.20377229154109955, 0.033755768090486526, 0.10682598501443863, -0.004790102131664753, -0.08054298162460327, 0.08856145292520523, 0.23373813927173615, -0.17027448117733002, 0.1746770441532135, -0.07031477987766266, -0.0014256880385801196, 0.12194972485303879, -0.25920572876930237, 0.033084746450185776, 0.17191988229751587, -0.15890713036060333, -0.03680722042918205, -0.10456471890211105, 0.1251206398010254, -0.10408655554056168, -0.007997306063771248, -0.015261050313711166, -0.075444795191288, -0.1279997080564499, 0.184132382273674, 0.012709506787359715, 0.16535311937332153, -0.23541642725467682, 0.09902619570493698, -0.16407731175422668, 0.09117668122053146, -0.027379358187317848, -0.062432803213596344, -0.1046842709183693, 0.1854499876499176, 0.07037223875522614, -0.25765717029571533, 0.023814234882593155, 0.06926379352807999, -0.28889209032058716, 0.1237521544098854, -0.08920055627822876, -0.30926334857940674, -0.08018401265144348, 0.016552068293094635, -0.0698774978518486, -0.07075034826993942, 0.11424078792333603, 0.06347304582595825, 0.06176561489701271, -0.0779673308134079, -0.07676802575588226, 0.10267306119203568, 0.3944397270679474, 0.021727360785007477, -0.047663819044828415, -0.4163971543312073, 0.23707713186740875, 0.12315548211336136, -0.25123193860054016, 0.0019267320167273283, 0.07463238388299942, -0.4531378746032715, 0.06556614488363266, 0.14996862411499023, 0.19442103803157806, -0.08131390810012817, -0.04970215633511543, -0.024952134117484093, 0.1041751429438591, 0.07992171496152878, 0.27794739603996277, -0.05436614900827408, 0.026345865800976753, -0.18245908617973328, 0.1146613359451294, 0.17469920217990875, 0.1614203304052353, -0.2502235472202301, -0.05812177434563637, -0.3745083212852478, 0.1899867206811905, 0.015023590996861458, -0.3775412440299988, 0.01013234443962574, 0.20129233598709106, -0.3364578187465668, 0.2269306182861328, 0.20290902256965637, -0.23509153723716736, 0.12237526476383209, 0.07199175655841827, -0.346720427274704, 0.13958340883255005, 0.19152137637138367, 0.21933163702487946, 0.020628273487091064, -0.07817501574754715, -0.20712052285671234, -0.0998770073056221, 0.1617431938648224, 0.23340332508087158, 0.08115497976541519, -0.0048920526169240475, -0.035396549850702286, -0.1347135603427887, 0.2201969027519226, -0.182122603058815, -0.172446146607399, 0.16125738620758057, -0.13620762526988983, -0.15695945918560028, 0.06917079538106918, 0.18326713144779205, 0.16809655725955963, -0.17252884805202484, -0.006681221071630716, 0.043300267308950424, 0.09268262982368469, 0.11749257892370224, 0.300123929977417, -0.117543525993824, -0.006422029342502356, -0.18333996832370758, 0.21623586118221283, -0.019632169976830482, 0.10733890533447266, -0.19906434416770935, 0.04386205971240997, -0.22566886246204376, 0.11852563917636871, -0.15826460719108582, -0.06114044785499573, 0.26112478971481323, -0.21476440131664276, -0.3353034257888794, -0.010620864108204842, -0.10065402090549469, -0.2472660392522812, 0.011800589971244335, -0.15005777776241302, -0.18139587342739105, 0.03494049236178398, 0.1678229421377182, 0.08661511540412903, -0.14644648134708405, 0.051345184445381165, 0.15369774401187897, -0.06578202545642853, 0.03901461139321327, -0.20684581995010376, 0.14254334568977356, -0.1607230007648468, 0.021851135417819023, 0.14963620901107788, -0.11972653865814209, 0.18490636348724365, -0.008799203671514988, -0.06877879053354263, 0.1128740981221199, 0.08649680018424988, 0.05053913593292236, -0.2854275405406952, -0.07124235481023788, -0.1920214593410492, -0.01753302291035652, -0.23248569667339325, 0.1646551638841629, -0.18688926100730896, -0.029041992500424385, 0.01869671605527401, 0.15212620794773102, 0.05427620932459831, 0.1326606422662735, -0.17487922310829163, -0.07565142959356308, -0.04938517510890961, 0.25001201033592224, -0.0632101520895958, -0.18074189126491547, 0.20438848435878754, 0.12864606082439423, -0.06724594533443451, 0.03799498453736305, -0.12376156449317932, 0.003844959894195199, 0.13836213946342468, -0.07443023473024368, -0.005243994295597076, 0.20285116136074066, 0.11090952903032303, 0.2031693011522293, 0.0008062829729169607, -0.032373495399951935, -0.2504428029060364, 0.08636979013681412, 0.07088665664196014, 0.2114575356245041, -0.057970717549324036, 0.022232921794056892, -0.01825135387480259, 0.058421485126018524, -0.01755606383085251, -0.2066938281059265, -0.16960740089416504, 0.2436920553445816, -0.20335854589939117, -0.1263931393623352, 0.18948858976364136, 0.0744367465376854, -0.010562566109001637, -0.13411249220371246, -0.22544419765472412, -0.27871036529541016, 0.06753477454185486, 0.08868241310119629, 0.11997124552726746, 0.017422107979655266, -0.029638050124049187, -0.0041544754058122635, 0.2780134975910187, 0.1492074429988861, -0.01956946775317192, 0.007184642367064953, -0.09647352248430252, -0.18861068785190582, 0.08281733095645905, -0.23468546569347382, 0.06884872913360596, 0.09873891621828079, -0.28510957956314087, -0.08021102100610733, 0.19444827735424042, -0.10943996161222458, -0.01940370909869671, 0.12406498193740845, -0.09259966760873795, -0.09882023185491562, 0.05609339848160744, -0.0524197556078434, -0.14951810240745544, -0.07989627867937088, -0.11055025458335876, 0.053470369428396225, 0.08772275596857071, 0.09222576022148132, -0.23309582471847534, 0.17547330260276794, -0.16002660989761353, 0.2627124488353729, -0.1442042738199234, -0.11351578682661057, 0.22071796655654907, -0.09128636121749878, 0.032885558903217316, 0.02984580025076866, -0.1659836322069168, 0.02690368890762329, -0.10785931348800659, 0.18346168100833893, -0.060687534511089325, 0.19514180719852448, 0.07464205473661423, 0.04621667042374611, -0.035997893661260605, -0.07921992987394333, -0.10700497776269913, 0.21884050965309143, -0.11385435611009598, 0.20657111704349518, -0.16367676854133606, 0.1737407147884369, -0.2179790437221527, 0.10554463416337967, -0.06713744252920151, -0.05139341950416565, 0.18208305537700653, 0.057204753160476685, -0.0982721745967865, 0.13802222907543182, 0.06967740505933762, -0.11896711587905884, 0.2631436884403229, -0.1330184042453766, -0.10068770498037338, 0.12444739043712616, 0.020664773881435394, 0.13674628734588623, -0.11863284558057785, -0.13697394728660583, 0.10837801545858383, 0.017285218462347984, -0.011210384778678417, -0.15702120959758759, 0.24159452319145203, 0.11168178915977478, 0.07319757342338562, -0.2891888916492462, 0.11747033894062042, -0.04269726946949959, -0.11846470087766647, 0.040995754301548004, 0.006358432583510876, -0.08757410943508148, -0.09711223840713501, -0.04638839513063431, 0.048083070665597916, -0.053505633026361465, 0.03768647462129593, 0.03498430550098419, -0.11153902858495712, 0.02952941320836544, 0.1326874941587448, -0.08944230526685715, -0.014508720487356186, -0.21991053223609924, 0.22213587164878845, -0.11623714119195938, 0.1344333291053772, -0.005980290938168764, 0.16135916113853455, -0.012158763594925404, 0.14623115956783295, -0.021590059623122215, -0.15610188245773315, -0.04490327835083008, -0.02011704631149769, -0.11846763640642166, 0.15303461253643036, -0.04997115209698677, -0.05767655000090599, -0.049142610281705856, 0.04285062849521637, -0.02546682208776474, -0.000837010913528502, -0.019945183768868446, -0.02645687758922577, 0.1285795271396637, 0.03493642434477806, -0.06731172651052475, -0.09311649203300476, -0.036062952131032944, -0.3341236412525177, 0.26107436418533325, 0.047724805772304535, 0.17488537728786469, -0.18690799176692963, 0.055516671389341354, 0.31261685490608215, -0.3316563665866852, -0.07932627201080322, 0.17371518909931183, -0.3632024824619293, 0.06015873700380325, -0.11222639679908752, 0.3720354735851288, 0.004142390564084053, 0.15129996836185455, -0.13378366827964783, 0.18204368650913239, -0.2746562659740448, 0.15895040333271027, -0.02764519676566124, 0.2768123149871826, -0.3766140639781952, 0.1910436451435089, -0.16444222629070282, 0.14183498919010162, -0.0966017097234726, 0.31187406182289124, -0.3558827340602875, -0.10161953419446945, 0.2726806700229645, -0.37589389085769653, 0.008505505509674549, 0.2887517511844635, -0.16814227402210236, -0.15982362627983093, 0.3576832115650177, -0.3362785577774048, 0.07997625321149826, 0.07957723736763, -0.37903693318367004, 0.07199456542730331, -0.20034292340278625, 0.09308560937643051, -0.0444035604596138, -0.13547661900520325, -0.034020986407995224, -0.11588557064533234, -0.010510066524147987, 0.04559558629989624, -0.05007025599479675, 0.018882600590586662, 0.06004652753472328, 0.1183566078543663, 0.03560835123062134, 0.0274963416159153, -0.0045326389372348785, 0.03890753164887428, 0.006888518575578928, 0.02261926606297493, 0.37207502126693726, -0.22217269241809845, 0.7062602043151855, -0.6240401268005371, 0.08390553295612335, 0.7861687541007996, 0.9120044112205505, -0.5287493467330933, 0.13779433071613312, 0.010872973129153252, -0.5563849210739136, -0.36312001943588257, 0.17679235339164734, -0.6777323484420776, 0.15881380438804626, 0.6925705671310425, -0.025442125275731087, 0.257864773273468, -0.03187090903520584, 0.18062439560890198, 0.35611873865127563, -0.0654854103922844, 0.14512045681476593, -0.006803283933550119, -0.10380689054727554, 0.021364787593483925, -0.14730201661586761, -0.0941191241145134, 0.04656798765063286, 0.06470897793769836, 0.06274450570344925, 0.4352039694786072, 0.006785517558455467, -0.13114775717258453, -0.3517764210700989, 0.22362616658210754, 0.29505252838134766, -0.15297456085681915, -0.17495769262313843, 0.16407932341098785, -0.2140037715435028, 0.431702584028244, -0.12977004051208496, 0.1928315907716751, 0.09294801205396652, 0.09557792544364929, -0.05361177399754524, 0.6966328620910645, -0.06243496388196945, 0.25042015314102173, -0.11252912878990173, 0.2825510799884796, 0.08751970529556274, -0.2592887878417969, -0.03968268260359764, -0.24389514327049255, -0.09606752544641495, -0.3546009063720703, 0.009985426440834999, -0.07908835262060165, 0.0532689243555069, 0.3371262848377228, -0.06975069642066956, 0.003843257436528802, 0.234076127409935, -0.2883738577365875, -0.054249491542577744, -0.18030978739261627, -0.07498356699943542, 0.033582694828510284, 0.027467980980873108, 0.1508590131998062, -0.1897927075624466, 0.1306331604719162, 0.06888354569673538, 0.09066665172576904, 0.22890733182430267, 0.2391231507062912, -0.10799892246723175, -0.369099885225296, -0.034370142966508865, -0.47895348072052, -0.22024838626384735, 0.1445106714963913, 0.10966609418392181, 0.12611250579357147, 0.10817364603281021, 0.12953703105449677, 0.02264264039695263, 0.4848829507827759, -0.030221644788980484, 0.27323633432388306, 0.14815334975719452, 0.22187308967113495, -0.08877734839916229, -0.1796572059392929, -0.17571233212947845, -0.05214403197169304, 0.16865763068199158, -0.01087559200823307, 0.06353151053190231, 0.31687691807746887, 0.30120888352394104, 0.07555541396141052, 0.23645704984664917, 0.0290801040828228, -0.13132429122924805, -0.17641057074069977, -0.005742818582803011, -0.23804570734500885, 0.19986894726753235, 0.14950838685035706, 0.03596130758523941, 0.20058771967887878, 0.21526581048965454, 0.10207398980855942, -0.20121504366397858, -0.1858178824186325, 0.10191873461008072, -0.007349349092692137, 0.09884729981422424, -0.38009461760520935, -0.23926778137683868, 0.14511501789093018, 0.12865254282951355, -0.20561715960502625, 0.06899779289960861, -0.12270394712686539, 0.40881794691085815, -0.07693397998809814, 0.47341856360435486, -0.4135781526565552, -0.4895411729812622, 0.35877367854118347, 0.45457813143730164, 0.2623763978481293, 0.31649255752563477, 0.012179134413599968, 0.36913415789604187, -0.4009743630886078, 0.2617519199848175, -0.37972524762153625, 0.1462898850440979, 0.16368182003498077, -0.04108239710330963, 0.07954856008291245, -0.19075757265090942, -0.2295634001493454, 0.20652435719966888, -0.07919721305370331, -0.13181304931640625, -0.10327767580747604, -0.16836285591125488, -0.28956735134124756, -0.022662265226244926, 0.06231719255447388, 0.02505779266357422, -0.15766191482543945, 0.04179812967777252, 0.0882694199681282, -0.13114914298057556, -0.03453201800584793, 0.32224124670028687, -0.35074949264526367, -0.3778701722621918, 0.16693416237831116, 0.2777916491031647, -0.19844956696033478, 0.18350528180599213, 0.27065029740333557, 0.18991221487522125, -0.1440529227256775, 0.2783251404762268, -0.005028348416090012, -0.027518820017576218, 0.2843684256076813, 0.23805870115756989, 0.05073515325784683, -0.22580915689468384, 0.11699939519166946, -0.05804826691746712, -0.18257716298103333, 0.09739358723163605, 0.1417645961046219, -0.010649260133504868, 0.12392236292362213, -0.10586262494325638, 0.03597395122051239, 0.10904807597398758, 0.23245911300182343, 0.002934947144240141, 0.2766488492488861, -0.1334790736436844, 0.07797282189130783, -0.10357391834259033, 0.19919633865356445, 0.33156219124794006, -0.30228322744369507, -0.24384431540966034, -0.12788927555084229, -0.22572945058345795, -0.39247816801071167, -0.22851748764514923, 0.04253426194190979, -0.22200463712215424, 0.3899577856063843, -0.4166661500930786, -0.16206394135951996, -0.17790569365024567, 0.11562872678041458, -0.12270178645849228, 0.22336888313293457, 0.29524075984954834, -0.3131060004234314, -0.16957718133926392, 0.04483237490057945, 0.06781264394521713, -0.21885760128498077, -0.24393214285373688, 0.19721519947052002, 0.025731856003403664, 0.03721669688820839, -0.29354986548423767, 0.039046939462423325, 0.03040946088731289, -0.027433140203356743, 0.029778361320495605, 0.0011056585935875773, -0.22013700008392334, 0.2755560278892517, 0.306433767080307, -0.07542787492275238, 0.17674078047275543, -0.34338846802711487, -0.0011641927994787693, -0.18008995056152344, -0.22989270091056824, -0.2625778615474701, -0.05857745185494423, -0.019376344978809357, -0.11825239658355713, 0.22897982597351074, -0.08101712167263031, -0.10184206813573837, 0.1457979530096054, 0.027731982991099358, 0.16071811318397522, 0.21705307066440582, -0.24751783907413483, 0.13601051270961761, -0.011586558073759079, -0.10881328582763672, 0.17591673135757446, 0.20544619858264923, -0.2095201313495636, -0.07745082676410675, 0.15710553526878357, 0.0884995236992836, 0.23508167266845703, -0.14767055213451385, -0.16382168233394623, 0.23190602660179138, 0.10127925872802734, 0.10290888696908951, 0.017652427777647972, -0.2687307894229889, -0.04928078129887581, -0.2986660599708557, -0.00033934798557311296, 0.08505937457084656, 0.08167705684900284, 0.10071814805269241, 0.10222053527832031, -0.0900585725903511, 0.14312118291854858, -0.09460172802209854, -0.0659848228096962, -0.037611205130815506, 0.06622601300477982, -0.07930359989404678, -0.02222469635307789, -0.1016489639878273, 0.0305111613124609, 0.05822301283478737, 0.056372277438640594, 0.045363616198301315, 0.015394504182040691, 0.06551778316497803, -0.030836552381515503, 0.010639307089149952, 0.10024457424879074, 0.3623632490634918, 0.23047249019145966, 0.032412368804216385, -0.13332389295101166, -0.06921647489070892, 0.1968807429075241, -0.14919781684875488, -0.23514416813850403, 0.13232530653476715, 0.07611799985170364, -0.346261590719223, 0.26705700159072876, 0.1866731196641922, -0.028807882219552994, -0.14621354639530182, -0.2180134356021881, -0.15667299926280975, 0.20254828035831451, 0.042936090379953384, -0.051029082387685776, -0.3826476037502289, -0.10143424570560455, 0.05054868757724762, 0.07276412844657898, -0.08860991150140762, 0.061054397374391556, -0.2968207001686096, -0.0312856063246727, 0.017129184678196907, 0.18228928744792938, -0.24396581947803497, -0.1943792700767517, 0.16896304488182068, -0.19816352427005768, -0.052092328667640686, 0.11657968163490295, -0.2533741295337677, -0.012266337871551514, 0.09079249203205109, -0.1850297749042511, -0.0036319417413324118, 0.19968612492084503, 0.12041609734296799, -0.05192673206329346, -0.3152094781398773, 0.06723962724208832, 0.0554182305932045, 0.17393192648887634, 0.15613748133182526, 0.236451655626297, -0.06184697896242142, -0.13715551793575287, -0.1277313083410263, 0.25548839569091797, -0.2742175757884979, -0.17811116576194763, 0.032673001289367676, 0.030025538057088852, -0.3124779164791107, 0.2002248466014862, -0.08703986555337906, -0.0327627919614315, -0.18706651031970978, 0.07707333564758301, -0.1847362220287323, 0.07305657863616943, 0.12505242228507996, 0.015095776878297329, -0.14172141253948212, -0.1335839480161667, -0.07298974692821503, 0.09238963574171066, 0.1300942599773407, 0.14342164993286133, -0.27117693424224854, 0.11881434172391891, 0.07304786890745163, 0.09258303791284561, -0.13854703307151794, -0.16708192229270935, 0.2711683511734009, -0.14224380254745483, -0.15124274790287018, 0.14797507226467133, -0.014368708245456219, -0.06488972157239914, 0.11690384894609451, -0.11005354672670364, -0.19474077224731445, 0.11788059026002884, -0.06311830878257751, 0.18073362112045288, -0.24511542916297913, -0.2993059456348419, -0.08393101394176483, 0.15193913877010345, 0.07307664304971695, 0.00731067918241024, -0.0026322794146835804, -0.1962950974702835, 0.06255602091550827, 0.12410560250282288, 0.10226448625326157, -0.06189163401722908, -0.14103010296821594, 0.14938241243362427, -0.1458837240934372, 0.03787895292043686, 0.08332391828298569, 0.04066235572099686, 0.020519766956567764, -0.05199365317821503, -0.06862566620111465, -0.06096521392464638, 0.10165560245513916, -0.11285421252250671, 0.02483566291630268, -0.15963494777679443, -0.022280123084783554, 0.10514401644468307, 0.09084800630807877, 0.0273498073220253, -0.18826282024383545, -0.28452104330062866, -0.14169941842556, 0.251379132270813, -0.07131878286600113, -0.005906673613935709, 0.17356254160404205, -0.09252475947141647, -0.008229030296206474, 0.020706823095679283, -0.036555562168359756, 0.07989276945590973, 0.09070190787315369, -0.238292396068573, 0.050270166248083115, 0.13837337493896484, 0.0036870762705802917, 0.18412357568740845, 0.1490703672170639, 0.21368898451328278, -0.10759028792381287, -0.001574229565449059, 0.048650067299604416, 0.3166283667087555, 0.3769235908985138, 0.2919970154762268, -0.2004065364599228, -0.3108793795108795, 0.0633091926574707, 0.060244157910346985, -0.2855876386165619, -0.17260953783988953, -0.1411411315202713, -0.22039075195789337, -0.20685787498950958, 0.1525430828332901, 0.1207125261425972, 0.4606521427631378, 0.09717794507741928, 0.027263496071100235, -0.3463557958602905, 0.10281336307525635, 0.17436201870441437, 0.3342813551425934, -0.2346711903810501, -0.05644485354423523, -0.05233094096183777, -0.04443306103348732, 0.16378472745418549, 0.3592190742492676, 0.042212244123220444, -0.022616876289248466, 0.320607453584671, 0.007148792035877705, 0.013054393231868744, 0.30232930183410645, 0.05088592693209648, -0.2032492309808731, 0.15608684718608856, -0.2483183741569519, -0.15958450734615326, 0.0693913996219635, -0.09077762067317963, -0.03543337807059288, 0.058743447065353394, 0.1384063959121704, 0.15661948919296265, -0.3176673650741577, -0.09980964660644531, 0.04855359345674515, 0.2214444875717163, -0.06912390887737274, -0.12353237718343735, -0.1680098921060562, 0.1161603257060051, 0.021716581657528877, 0.013612774200737476, 0.10106053203344345, 0.11526160687208176, 0.09152592718601227, -0.1545068919658661, -0.16196464002132416, -0.10652142018079758, 0.03292860835790634, -0.13971254229545593, -0.09033676981925964, -0.029673181474208832, 0.11453002691268921, 0.08190787583589554, 0.07691352814435959, 0.03956880792975426, -0.018197517842054367, 0.08626418560743332, 0.06315476447343826, -0.010285093449056149, -0.12359201908111572, -0.044360458850860596, 0.2650855481624603, 0.05282999202609062, 0.09338940680027008, -0.1764625757932663, 0.12190237641334534, 0.18598023056983948, -0.2534361481666565, -0.11398298293352127, 0.1594729721546173, -0.25660279393196106, 0.11668471992015839, 0.18735367059707642, 0.009241540916264057, -0.09837454557418823, -0.06830859184265137, 0.07583578675985336, 0.06642421334981918, -0.05462164059281349, -0.011493880301713943, 0.18539150059223175, -0.08402954787015915, -0.2751357853412628, 0.27460652589797974, 0.11926514655351639, -0.027937648817896843, 0.06597636640071869, -0.07482516020536423, 0.12114604562520981, 0.2236882597208023, 0.0007697034161537886, -0.048505011945962906, 0.3371690511703491, -0.04022514820098877, 0.10746772587299347, -0.19014668464660645, 0.09097318351268768, -0.03150905296206474, -0.21138501167297363, -0.2454409897327423, 0.1288001984357834, -0.2320345789194107, 0.257409930229187, 0.04771806299686432, 0.2335485965013504, -0.20615363121032715, 0.20743970572948456, -0.18713119626045227, 0.11004722863435745, 0.2887125313282013, 0.29056552052497864, 0.046938974410295486, 0.14618520438671112, 0.04741862416267395, -0.034933529794216156, 0.10411815345287323, 0.23285631835460663, -0.049983084201812744, -0.1467108577489853, -0.24928784370422363, 0.02097884565591812, -0.06326400488615036, 0.2815284729003906, -0.24735088646411896, 0.11819101125001907, -0.038768500089645386, 0.21771474182605743, 0.051396336406469345, 0.23401273787021637, 0.18551748991012573, 0.22298000752925873, 0.16271008551120758, -0.046563804149627686, -0.11075568199157715, -0.04028034955263138, 0.15193383395671844, 0.00625576451420784, -0.026926377788186073, -0.11347353458404541, -0.17179597914218903, 0.08468323200941086, -0.10228532552719116, 0.24963052570819855, 0.06664403527975082, 0.11472383141517639, 0.05491474270820618, -0.044229310005903244, 0.1220720037817955, 0.028852125629782677, 0.0252729170024395, -0.058779869228601456, -0.014667580835521221, -0.016596738249063492, -0.04280844330787659, 0.1447257399559021, -0.008548231795430183, -0.016605081036686897, 0.0758342295885086, -0.12454498559236526, 0.10309410840272903, -0.15897123515605927, 0.08078344911336899, 0.01914195530116558, -0.019853854551911354, 0.14096732437610626, 0.1445450782775879, 0.023501627147197723, 0.07045097649097443, -0.06122647970914841, -0.2535427212715149, 0.024128330871462822, -0.012589529156684875, 0.012683822773396969, -0.006261924281716347, 0.03212394565343857, -0.30807793140411377, -0.20697733759880066, 0.22683341801166534, 0.2224825620651245, -0.19484226405620575, -0.3586703836917877, -0.25653374195098877, -0.09967252612113953, 0.33823302388191223, 0.043087590485811234, -0.029470209032297134, 0.27813130617141724, 0.10133791714906693, -0.32212865352630615, 0.11937050521373749, 0.2941756844520569, 0.0784604549407959, -0.3012208342552185, -0.10598494112491608, -0.1200747862458229, 0.29548487067222595, 0.1757487952709198, 0.08372929692268372, -0.28489387035369873, -0.11781209707260132, -0.2808963358402252, 0.36053332686424255, 0.2504104673862457, 0.28176626563072205, -0.26673653721809387, 0.029332701116800308, -0.37161463499069214, 0.17267198860645294, -0.15632647275924683, -0.19262751936912537, 0.3434597849845886, -0.2012813687324524, -0.12641379237174988, 0.20469799637794495, -0.2234364151954651, 0.03810596466064453, 0.12117581069469452, -0.0830211341381073, -0.1161365956068039, 0.31458204984664917, 0.11228708177804947, 0.21277771890163422, -0.07321836054325104, -0.014496637508273125, 0.2597341537475586, -0.2606680393218994, -0.5007143616676331, -0.12561184167861938, -0.19997328519821167, 0.17419250309467316, 0.23511658608913422, -0.035609010607004166, 0.27976304292678833, 0.2653336524963379, -0.2411758452653885, 0.2271241992712021, 0.4757618010044098, -0.24432283639907837, -0.18161486089229584, -0.15173591673374176, 0.1535457968711853, 0.007964244112372398, 0.05120309814810753, -0.1422201544046402, -0.1714315563440323, -0.29593369364738464, 0.24540472030639648, -0.033222854137420654, 0.04893215745687485, -0.036896802484989166, -0.034883543848991394, -0.1481999158859253, 0.03163420781493187, -0.11208861321210861, 0.2969636023044586, -0.4175228774547577, -0.010807729326188564, 0.18709661066532135, -0.09532655775547028, 0.039319317787885666, 0.3189229667186737, -0.1137903481721878, 0.06097757816314697, -0.1840255856513977, -0.1708981841802597, 0.09880344569683075, 0.18497781455516815, -0.1097884476184845, -0.0762438178062439, -0.21159426867961884, 0.05523253604769707, -0.014293257147073746, -0.04780682548880577, 0.014445872977375984, -0.6316491961479187, -0.31811434030532837, 0.13963916897773743, -0.005169054493308067, 0.04180825129151344, -0.05095667392015457, 0.1382511407136917, 0.23826266825199127, -0.03788691759109497, 0.1849193572998047, 0.09668883681297302, 0.031510937958955765, -0.16397283971309662, -0.10883143544197083, 0.12600763142108917, 0.10163548588752747, 0.03749454766511917, 0.009064832702279091, -0.1299276053905487, 0.01501233410090208, 0.20440426468849182, -0.08696888387203217, 0.07919589430093765, -0.10021016001701355, -0.09960880130529404, -0.0978560596704483, 0.08857231587171555, -0.30141374468803406, -0.21868044137954712, 0.2104697972536087, 0.04769827052950859, -0.007266790606081486, -0.07654359191656113, 0.028577107936143875, -0.049010422080755234, -0.13548418879508972, 0.0938006117939949, 0.23920105397701263, -0.15699036419391632, 0.04170436039566994, -0.06508981436491013, 0.05988640338182449, 0.022044455632567406, -0.030763771384954453, -0.14198143780231476, 0.3324131965637207, -0.010857827961444855, -0.013746539130806923, 0.11783707141876221, 0.03253493458032608, -0.08715859055519104, -0.12931539118289948, -0.03883836790919304, 0.1242506131529808, -0.6555080413818359, -0.010107033886015415, 0.08299879729747772, -0.6003231406211853, 0.12326426804065704, -0.03481397405266762, 0.29484525322914124, 0.015337979421019554, -0.07100938260555267, 0.0896802619099617, 0.10228028893470764, 0.07459506392478943, 0.09153921902179718, 0.053323790431022644, 0.013761408627033234, 0.06408816576004028, 0.02877475507557392, 0.22712342441082, -0.014855931513011456, -0.1690576672554016, -0.08272425085306168, 0.35105493664741516, -0.28033646941185, 0.1145300418138504, 0.06757848709821701, 0.07343252003192902, -0.005791513714939356, -0.13741274178028107, -0.04113968089222908, 0.07579346001148224, 0.10656306147575378, -0.03537655994296074, -0.07636285573244095, -0.23841428756713867, 0.06194644421339035, 0.04204743728041649, 0.23370803892612457, -0.20867499709129333, -0.03086007758975029, 0.2701355218887329, -0.13177010416984558, -0.0691460594534874, 0.4272425174713135, 0.07092568278312683, -0.1099647805094719, -0.16341480612754822, 0.03467800095677376, 0.2058008909225464, -0.12540626525878906, -0.03978119045495987, 0.07902403920888901, -0.027401192113757133, -0.15884268283843994, -0.07262960821390152, 0.03464816138148308, 0.22354915738105774, -0.0992007926106453, 0.05753802880644798, -0.0049599590711295605, 0.30431777238845825, 0.1093907430768013, 0.21917952597141266, -0.08193016052246094, 0.21869170665740967, -0.17660626769065857, 0.04552147164940834, -0.20014064013957977, 0.2217348963022232, -0.10963591188192368, 0.11347021907567978, -0.1256115883588791, -0.03189979866147041, -0.08369139581918716, -0.03995119407773018, 0.16478541493415833, -0.15162356197834015, -0.20938067138195038, 0.15269307792186737, -0.01753581501543522, 0.025322606787085533, -0.03250402212142944, -0.023469604551792145, -0.1563657522201538, -0.08626056462526321, -0.15732629597187042, 0.16209077835083008, 0.038686227053403854, -0.03855922818183899, -0.07462164759635925, -0.1533629298210144, 0.10333823412656784, -0.11130143702030182, 0.01617950201034546, 0.17920377850532532, 0.07377497851848602, -0.09125909209251404, 0.14246602356433868, 0.11217651516199112, 0.013202907517552376, 0.3193296194076538, 0.05952553078532219, -0.0018839274998754263, -0.13338682055473328, -0.0952983871102333, 0.15641933679580688, -0.16615454852581024, -0.16433626413345337, -0.16912122070789337, -0.16508695483207703, -0.03829517960548401, 0.11122796684503555, -0.11018650233745575, -0.029139462858438492, 0.016774777323007584, -0.08763063699007034, 0.0884106457233429, -0.07586093246936798, 0.16002769768238068, -0.010273940861225128, 0.059720203280448914, 0.16158688068389893, -0.22762693464756012, -0.08227375149726868, 0.13237856328487396, -0.12341579049825668, 0.05764762684702873, -0.06896169483661652, 0.1875348687171936, -0.1365787833929062, 0.21718822419643402, -0.08083650469779968, -0.00989009439945221, 0.05802535265684128, 0.1393655240535736, 0.014316387474536896, -0.10971599072217941, -0.17212869226932526, 0.03792827948927879, -0.12111392617225647, 0.0293908528983593, 0.1298978179693222, 0.26130515336990356, -0.11780284345149994, -0.022472592070698738, 0.16703397035598755, 0.011265420354902744, -0.08029450476169586, 0.16803984344005585, 0.08367566019296646, 0.09518617391586304, -0.2816377580165863, 0.014820278622210026, 0.0016178407240658998, -0.00997129175812006, 0.049437910318374634, -0.013524324633181095, -0.02705591917037964, 0.042491551488637924, 0.07692429423332214, 0.058054495602846146, -0.09952566027641296, -0.018933279439806938, -0.034858234226703644, -0.11199086159467697, 0.21368442475795746, -0.012781128287315369, -0.06917493045330048, -0.1305704265832901, 0.08658117800951004, 0.024339457973837852, -0.17453482747077942, 0.04522944241762161, -0.054542526602745056, -0.1359727680683136, 0.06857724487781525, 0.1452191323041916, -0.20634590089321136, 0.22319650650024414, -0.010960950516164303, -0.1781841367483139, -0.18454410135746002, -0.1457739621400833, 0.033632535487413406, -0.16095119714736938, 0.15497133135795593, 0.054556239396333694, -0.15248768031597137, 0.16628094017505646, 0.00019306692411191761, -0.19470033049583435, 0.09965764731168747, 0.04322291165590286, -0.16509321331977844, -0.10206687450408936, -0.012620135210454464, -0.1573343425989151, 0.062029704451560974, 0.024130702018737793, 0.26426124572753906, -0.08344101905822754, -0.08861617743968964, -0.03615637868642807, 0.11454939842224121, 0.0899670198559761, 0.16466403007507324, -0.026520980522036552, -0.12402894347906113, -0.033793140202760696, -0.04503801092505455, 0.019440528005361557, 0.06596998125314713, -0.12479793280363083, 0.07912586629390717, -0.10124475508928299, 0.2023925930261612, 0.2385869175195694, -0.025723522529006004, 0.11931302398443222, 0.03725463151931763, -0.10884226113557816, 0.04503646120429039, 0.05242239311337471, 0.04070943221449852, -0.08614732325077057, -0.15238113701343536, -0.35021132230758667, -0.006850881036370993, -0.10322587937116623, 0.26835116744041443, 0.009003353305161, 0.0475119948387146, -0.08437688648700714, 0.19051434099674225, -0.15290604531764984, -0.21708832681179047, 0.06313272565603256, 0.1377718299627304, 0.12660470604896545, 0.15070150792598724, -0.028235960751771927, 0.17700135707855225, 0.18357950448989868, -0.16771668195724487, -0.023303691297769547, 0.21138924360275269, -0.005481793079525232, -0.10472273081541061, -0.237237811088562, 0.12102971971035004, 0.013355852104723454, 0.017075495794415474, -0.30726057291030884, 0.042486514896154404, -0.23063737154006958, 0.010991961695253849, -0.15360227227210999, -0.01056507509201765, -0.15491867065429688, -0.0707889273762703, 0.05140316113829613, 0.2779443562030792, 0.005427921190857887, 0.2144128829240799, -0.15871024131774902, -0.02776728756725788, 0.06828448176383972, -0.15651293098926544, -0.02054411917924881, -0.027045009657740593, -0.06942936033010483, 0.1360762119293213, 0.08183351904153824, -0.16140364110469818, 0.0971892699599266, 0.061760153621435165, -0.04743964225053787, 0.1566556990146637, 0.11125446856021881, 0.21915650367736816, 0.19076663255691528, 0.0771930143237114, 0.016047369688749313, -0.033730823546648026, -0.13559909164905548, 0.04617882892489433, 0.10021888464689255, 0.043251968920230865, -0.021906426176428795, -0.0010859029134735465, 0.05215670168399811, -0.06089089810848236, 0.22166933119297028, 0.09439850598573685, 0.13353656232357025, -0.06469663977622986, -0.5722131133079529, 0.16113553941249847, 0.41477736830711365, -0.48658841848373413, 0.1921289712190628, -0.8528417348861694, -0.18237784504890442, -0.7249541878700256, 1.0783189535140991, -1.022558331489563, -0.48973384499549866, -0.8441128730773926, 0.0723537728190422, -0.7468451857566833, 0.40255090594291687, -0.7546546459197998, -0.12887512147426605, -0.024514302611351013, -0.11523036658763885, 0.37705087661743164, 0.020811283960938454, -0.2944367527961731, -0.32533004879951477, -0.19941550493240356, -0.31606239080429077, 0.12201607972383499, -0.10510054230690002, 0.1802700161933899, 0.3066968023777008, 0.2965978980064392, -0.22973352670669556, -0.032916776835918427, 0.25074756145477295, -0.05980389937758446, -0.08601947873830795, 0.07156987488269806, -0.32077735662460327, 0.10412675887346268, 0.1479499489068985, -0.2380770742893219, 0.07419506460428238, -0.6042752265930176, 0.5532710552215576, 0.15463517606258392, -0.008116206154227257, -0.1647791713476181, 0.10025634616613388, -0.09324774891138077, -0.024731185287237167, -0.20404835045337677, -0.03350706398487091, 0.2557069957256317, -0.009229147806763649, 0.175674170255661, -0.09982582181692123, 0.06926387548446655, -0.02607356756925583, 0.09302932769060135, -0.31337448954582214, -0.2130310833454132, 0.08026888221502304, 0.21345794200897217, 0.08601418882608414, 0.13484282791614532, 0.04720122739672661, 0.03814611956477165, -0.12075401842594147, -0.26102742552757263, -0.12674733996391296, 0.1300642043352127, 0.048962805420160294, 0.11789945513010025, -0.07660669088363647, 0.09491940587759018, 0.7808168530464172, 0.28539055585861206, -0.004106102976948023, -0.20744971930980682, 0.1739165186882019, 0.09861772507429123, 0.5149921774864197, 0.3162872791290283, 0.10655517131090164, -0.41911473870277405, 0.30233103036880493, -0.09483117610216141, 0.12442980706691742, 0.6644513607025146, 0.18435052037239075, -0.2213754653930664, 0.17044967412948608, 0.35058289766311646, -0.2564115524291992, -0.25174906849861145, -0.024757087230682373, -0.27914318442344666, -0.22035980224609375, -0.12818822264671326, -0.23114342987537384, -0.08917181193828583, 0.12052243202924728, -0.12668080627918243, 0.03735584020614624, -0.26093384623527527, 0.2394343763589859, 0.14447864890098572, 0.05432715266942978, -0.19145038723945618, -0.11809632182121277, -0.20123791694641113, 0.06147531419992447, 0.03348932042717934, -0.000967527215834707, -0.17067104578018188, 0.1610235720872879, -0.2958360016345978, 0.16146495938301086, 0.49557486176490784, 0.03290688991546631, -0.4385332465171814, 0.21297211945056915, -0.008537807501852512, 0.09579315036535263, 0.046736251562833786, -0.14693666994571686, -0.0514293797314167, 0.07204180210828781, 0.34722626209259033, 0.015925303101539612, 0.11672759801149368, 0.1431398093700409, 0.02906603366136551, 0.2392273247241974, -0.21068313717842102, 0.06919360905885696, 0.09876245260238647, -0.1320517361164093, 0.0956522524356842, -0.1814384162425995, 0.05918959900736809, -0.20102013647556305, -0.10710693150758743, 0.28050917387008667, -0.13187983632087708, 0.09617187082767487, 0.14194470643997192, -0.4993377923965454, 0.16347473859786987, -0.5618332028388977, 0.08167192339897156, -0.17685548961162567, -0.3221145272254944, 0.11342444270849228, 0.2872318625450134, 0.18353794515132904, -0.27586105465888977, 0.2864665389060974, 0.5442788004875183, -0.39448437094688416, 0.6181389689445496, -0.08975931257009506, 0.12578171491622925, -0.07752605527639389, 0.07056527584791183, 0.11651614308357239, -0.28906068205833435, 0.0997365415096283, -0.0752977579832077, -0.0030944354366511106, -0.15035824477672577, 0.15816685557365417, 0.26546910405158997, 0.19504906237125397, -0.0730670690536499, 0.12689249217510223, -0.30616068840026855, -0.11565916985273361, -0.061415959149599075, -0.18688100576400757, 0.20102041959762573, -0.05632105469703674, -0.3594861626625061, -0.29026949405670166, 0.11582378298044205, 0.04971027374267578, 0.451844722032547, -0.9159870147705078, 0.21325913071632385, 0.35571765899658203, 0.33816003799438477, -0.27918529510498047, 0.11560323089361191, 0.11212936788797379, 0.25300824642181396, -0.14799347519874573, -0.12695346772670746, -0.12475089728832245, -0.10609018057584763, 0.12183783203363419, 0.3176209330558777, -0.2212189882993698, 0.13933587074279785, 0.38501396775245667, -0.05255376547574997, -0.09329850226640701, -0.0673358291387558, 0.12363500893115997, -0.09699518978595734, -0.1357278972864151, -0.2623901963233948, -0.09833348542451859, 0.18080498278141022, 0.07308898866176605, -0.007145377341657877, -0.029707079753279686, 0.27637726068496704, -0.3367212414741516, -0.05320461839437485, -0.21397818624973297, -0.04197702556848526, 0.06931404024362564, -0.12001688033342361, 0.025792321190238, 0.01325509138405323, 0.041346319019794464, -0.016656212508678436, -0.2686251103878021, 0.34301066398620605, -0.36468327045440674, 0.267037034034729, 0.0129743916913867, -0.1500381976366043, 0.021513741463422775, 0.3560884892940521, 0.291309654712677, -0.19502955675125122, 0.2715736925601959, 0.29564446210861206, 0.06431147456169128, 0.124894879758358, 0.19812722504138947, 0.27640512585639954, 0.16035011410713196, -0.21205256879329681, -0.09672292321920395, -0.025845961645245552, 0.26828479766845703, 0.21899700164794922, -0.08695052564144135, 0.05426684767007828, 0.11213967204093933, 0.10792645066976547, -0.18986572325229645, 0.04655347391963005, 0.27716416120529175, 0.1598292887210846, 0.22664454579353333, 0.08133840560913086, -0.31890714168548584, 0.2992197871208191, -0.4294402599334717, 0.019805477932095528, -0.30690276622772217, 0.20349827408790588, 0.21380086243152618, -0.04806606099009514, 0.1495760828256607, 0.06531427800655365, 0.2081453800201416, 0.34416255354881287, -0.3436175286769867, -0.1511201411485672, 0.02747599221765995, -0.05004936084151268, -0.09295530617237091, -0.03848567605018616, -0.11067289113998413, 0.02072180062532425, 0.07679145783185959, 0.08580251038074493, 0.02437594160437584, 0.04690960422158241, 0.048177044838666916, -0.1030052900314331, 0.06110361963510513, -0.19454076886177063, -0.14526373147964478, -0.1035313680768013, -0.08585114777088165, -0.041176240891218185, -0.25178685784339905, -0.02854265086352825, -0.2192438542842865, -0.07356195151805878, 0.07850605994462967, 0.005135978106409311, 0.014677146449685097, -0.03666628152132034, 0.16840673983097076, -0.1803768128156662, 0.27925699949264526, -0.12354443222284317, -0.030491936951875687, 0.011793449521064758, 0.2706924378871918, -0.045450616627931595, -0.019128302112221718, 0.009864268824458122, 0.13642604649066925, -0.04277951642870903, 0.12257472425699234, -0.11995359510183334, -0.05141763761639595, 0.16976599395275116, -0.010380446910858154, 0.01464612502604723, 0.13188427686691284, -0.0012418434489518404, -0.00040976572199724615, 0.1505577266216278, -0.06354952603578568, 0.002227236982434988, -0.23777258396148682, 0.10720351338386536, -0.04108025133609772, -0.2006753534078598, -0.05437161400914192, -0.06036253646016121, 0.18139289319515228, -0.11736906319856644, 0.18394118547439575, -0.23096227645874023, -0.03709125146269798, 0.15075813233852386, 0.052377328276634216, 0.029115397483110428, -0.11332195997238159, -0.1954171508550644, -0.036241527646780014, -0.10075129568576813, 0.04160795360803604, 0.06612960994243622, 0.26953160762786865, 0.11522094160318375, 0.05210966244339943, 0.04134456440806389, -0.11960477381944656, -0.20824922621250153, 0.2279880791902542, 0.0005373219028115273, -0.007368670776486397, -0.055038679391145706, 0.09484486281871796, 0.008654291741549969, 0.3266195058822632, -0.07108904421329498, -0.01414499618113041, -0.24908459186553955, -0.10821191221475601, 0.039395712316036224, 0.10818755626678467, -0.05005288124084473, -0.26867538690567017, -0.0190759114921093, 0.1180361658334732, 0.15284962952136993, 0.1187000721693039, -0.037340257316827774, -0.13205841183662415, 0.03637098893523216, -0.12008190155029297, -0.13766397535800934, 0.01474763359874487, 0.06108374521136284, -0.12829698622226715, 0.1049036905169487, 0.054726336151361465, -0.17484869062900543, 0.08277851343154907, 0.10856076329946518, 0.03738025948405266, 0.27089110016822815, 0.016811328008770943, -0.12728528678417206, -0.3729712963104248, -0.03020063415169716, -0.1418929249048233, 0.302971214056015, 0.3434944748878479, 0.027703382074832916, 0.0873429924249649, 0.059545911848545074, 0.17446383833885193, -0.1596362292766571, -0.2986263036727905, -0.12224123626947403, 0.273078590631485, -0.41841205954551697, -0.0636097714304924, -0.059997495263814926, 0.2938683331012726, -0.0613669790327549, -0.02540929988026619, 0.1786128729581833, 0.10465789586305618, -0.045968152582645416, 0.10188059508800507, -0.014207957312464714, -0.03990795835852623, 0.029965272173285484, 0.021044448018074036, 0.04689297452569008, 0.13887982070446014, -0.1294434517621994, -0.2595101594924927, 0.16524405777454376, 0.0001375772408209741, 0.09611915796995163, -0.32045620679855347, 0.0651978924870491, 0.03778433799743652, -0.11975390464067459, 0.06248365715146065, -0.10822532325983047, 0.07584580779075623, 0.11201680451631546, 0.2624130845069885, -0.485872745513916, -0.15427535772323608, -0.23984567821025848, 0.04128560051321983, 0.15537594258785248, -0.1259247213602066, 0.04084552451968193, 0.07950785756111145, -0.5462680459022522, 0.07222221791744232, 0.38054803013801575, 0.16823753714561462, 0.1600956916809082, -0.17712150514125824, 0.05583123490214348, -0.07127450406551361, -0.09104948490858078, 0.01813804730772972, -0.17417728900909424, -0.04242720454931259, -0.16145627200603485, 0.05703543871641159, 0.12324435263872147, 0.17700152099132538, 0.05561235547065735, -0.17813825607299805, -0.07429911196231842, 0.06946171075105667, 0.19874238967895508, 0.05951560661196709, 0.07425424456596375, -0.025064392015337944, -0.16901728510856628, -0.04947706684470177, -0.03196941316127777, 0.038617562502622604, 0.02777366153895855, -0.12046917527914047, 0.2738734483718872, -0.1484881043434143, -0.14574290812015533, 0.15608149766921997, -0.08854552358388901, -0.11115893721580505, 0.15854257345199585, 0.007368545047938824, 0.026155488565564156, 0.09419803321361542, -0.0673295184969902, 0.03607121482491493, 0.013745519332587719, 0.15607695281505585, 0.08961569517850876, 0.19906122982501984, -0.25562798976898193, 0.3964395225048065, 0.24943807721138, -0.11049342155456543, -0.03982219099998474, 0.06373247504234314, 0.01593690738081932, -0.04377447068691254, -0.28383031487464905, 0.4028187096118927, -0.5801360011100769, -0.28714296221733093, 0.39458006620407104, -0.3836999833583832, 0.1822539120912552, 0.03819490224123001, 0.1448645144701004, -0.03714647889137268, -0.23007336258888245, 0.09341622143983841, -0.07914604246616364, -0.09346776455640793, 0.05528895929455757, 0.07838467508554459, -0.1879139542579651, 0.16632792353630066, 0.02594786137342453, 0.09822940081357956, 0.04826744645833969, 0.023679187521338463, -0.11790277808904648, 0.23258495330810547, -0.10708948969841003, 0.269912987947464, -0.28664708137512207, -0.12453503161668777, 0.11963256448507309, -0.02025827392935753, 0.008480014279484749, -0.1645800620317459, 0.15222156047821045, -0.09634857624769211, 0.0715724304318428, -0.11290298402309418, 0.07966909557580948, -0.14574353396892548, -0.0935693308711052, 0.260913223028183, 0.13236550986766815, -0.19770488142967224, -0.05822329968214035, -0.099999338388443, 0.2639658451080322, 0.135210782289505, -0.08380985260009766, -0.18998855352401733, -0.017163507640361786, -0.4699861705303192, 0.17892488837242126, -0.5204641819000244, -0.29009291529655457, 0.13221879303455353, -0.2096726894378662, 0.13464206457138062, 0.18108992278575897, 0.10600312054157257, 0.15493811666965485, -0.09080403298139572, -0.24599029123783112, -0.062234554439783096, 0.22250844538211823, 0.27094021439552307, -0.007204756606370211, -0.2675994038581848, -0.23319624364376068, 0.07247205078601837, 0.176234170794487, 0.22154976427555084, 0.048141639679670334, -0.17506933212280273, 0.16818808019161224, -0.12906843423843384, -0.07292643934488297, 0.2439933568239212, -0.1412486582994461, -0.216605082154274, 0.17139437794685364, 0.05083485320210457, -0.1115938052535057, -0.042950063943862915, -0.2835294008255005, -0.08969031274318695, 0.26922139525413513, -0.053003035485744476, -0.17493605613708496, -0.014780715107917786, 0.055848628282547, 0.004504206124693155, 0.01925521343946457, -0.1110406368970871, -0.09972269833087921, 0.0012388114118948579, -0.07986392825841904, -0.060409579426050186, -0.09232760220766068, 0.20184041559696198, 0.11778346449136734, -0.2009548544883728, -0.12725768983364105, -0.016639288514852524, 0.0979841947555542, -0.01505616120994091, 0.038710568100214005, -0.05279743671417236, 0.06076057255268097, 0.012412085197865963, 0.2296363115310669, 0.04468069598078728, -0.18050871789455414, -0.13457338511943817, 0.0245806984603405, 0.2071821093559265, 0.012081083841621876, 0.07616213709115982, -0.14785078167915344, -0.10013754665851593, 0.14190879464149475, -0.04249468445777893, -0.28151464462280273, 0.05398547276854515, -0.09067965298891068, -0.23306238651275635, -0.04055142030119896, 0.09645277261734009, 0.017151033505797386, -0.02228798344731331, 0.10286875069141388, -0.3992759585380554, 0.048631224781274796, -0.04814495891332626, 0.15848976373672485, -0.08903232216835022, 0.15028712153434753, 0.2533362805843353, 0.14616435766220093, 0.035732999444007874, 0.006201226729899645, -0.3184027671813965, 0.04716880992054939, 0.060434505343437195, 0.15220411121845245, -0.055441904813051224, 0.07277387380599976, -0.092521071434021, -0.12622779607772827, -0.46445971727371216, -0.03671162948012352, -0.07725701481103897, -0.03616809472441673, 0.27271348237991333, 0.05781114101409912, 0.030302368104457855, 0.02158123068511486, -0.02564874477684498, -0.20781727135181427, 0.09354343265295029, 0.008464031852781773, 0.11256998032331467, 0.03716682270169258, -0.18592585623264313, -0.17162960767745972, 0.134019136428833, -0.0707668736577034, 0.23405812680721283, -0.10334935784339905, -0.006793418899178505, 0.05433166027069092, -0.1993764340877533, -0.17366546392440796, 0.08879439532756805, 0.013775324448943138, 0.08443130552768707, 0.05100160464644432, -0.10045384615659714, -0.05864805728197098, -0.005958024878054857, -0.1152774915099144, -0.15521593391895294, -0.020017916336655617, -0.182265505194664, -0.19678495824337006, 0.02566792070865631, -0.21934905648231506, -0.11567742377519608, 0.09251420944929123, -0.3869750201702118, -0.32631659507751465, 0.23575784265995026, 0.09080571681261063, -0.17350447177886963, 0.10717907547950745, 0.2525596022605896, 0.03785581514239311, -0.042931437492370605, 0.17065982520580292, 0.14609332382678986, -0.23243844509124756, -0.1505633443593979, -0.07041244953870773, 0.20956838130950928, -0.18456289172172546, -0.1108454093337059, -0.17650140821933746, -0.0886945128440857, 0.1609390676021576, 0.201581209897995, -0.18836575746536255, -0.16447359323501587, -0.2382553517818451, 0.07653853297233582, 0.1980210691690445, 0.18466228246688843, -0.055616799741983414, -0.2528921663761139, 0.3693227469921112, 0.08867669850587845, -0.06352892518043518, 0.1008228063583374, 0.17091427743434906, -0.10325469076633453, 0.16563016176223755, -0.11002207547426224, -0.06953750550746918, 0.42310047149658203, 0.17185762524604797, 0.007024412043392658, 0.11164885759353638, -0.006079156883060932, -0.22890278697013855, 0.0200796015560627, -0.10509183257818222, 0.10077523440122604, 0.19171826541423798, 0.17455443739891052, 0.23794184625148773, -0.1959826797246933, -0.0047791083343327045, 0.19132740795612335, 0.042492639273405075, 0.04908283054828644, -0.09468834847211838, 0.3456510901451111, 0.2372487634420395, -0.06461883336305618, 0.0596349760890007, -0.19823482632637024, -0.1438414603471756, -0.38432541489601135, -0.057475607842206955, -0.0772513598203659, 0.21458517014980316, -0.18997026979923248, -0.21885345876216888, -0.27127605676651, -0.20347219705581665, 0.2257392555475235, 0.3501908779144287, -0.10399360209703445, -0.05806760489940643, -0.11609760671854019, -0.009282599203288555, 0.08778037875890732, -0.26123857498168945, 0.43718892335891724, -0.002103635109961033, -0.156033456325531, 0.11319207400083542, 0.07224252820014954, -0.25440916419029236, -0.19556240737438202, 0.1422378569841385, -0.18902581930160522, 0.33571022748947144, -0.20273961126804352, -0.010733134113252163, -0.026927748695015907, 0.12860769033432007, -0.007479522842913866, -0.08659272640943527, -0.19566425681114197, 0.05601976066827774, 0.25660261511802673, 0.0873979851603508, 0.13851313292980194, 0.0964648649096489, 0.02105545997619629, 0.010050646960735321, 0.0625661090016365, 0.06397143006324768, 0.10025276988744736, -0.005686762742698193, 0.2017030119895935, -0.05365736410021782, 0.03536077216267586, 0.02113461308181286, 0.24909329414367676, 0.16981464624404907, -0.11075709015130997, -0.03550846502184868, 0.08451376110315323, 0.11940416693687439, 0.09675569832324982, 0.15402203798294067, -0.0908515676856041, -0.13149964809417725, -0.044480834156274796, 0.12867560982704163, 0.059275832027196884, -0.0014178879791870713, -0.10005050897598267, 0.2508149743080139, -0.09845767915248871, 0.06832530349493027, 0.17094631493091583, -0.03132413327693939, -0.13553766906261444, 0.21167582273483276, -0.07571503520011902, -0.12869708240032196, -0.017003711313009262, 0.13929246366024017, -0.13618329167366028, 0.13194426894187927, 0.046300917863845825, 0.02443585731089115, -0.10399830341339111, 0.08099773526191711, 0.20716634392738342, 0.11960180848836899, -0.09990447759628296, -0.18904529511928558, -0.10798507928848267, -0.013575698249042034, 0.20134064555168152, -0.3988734483718872, -0.022020554170012474, 0.1526806503534317, 0.04092298075556755, -0.03757382184267044, -0.00172105198726058, 0.015029950998723507, -0.20787428319454193, -0.2319929450750351, -0.05869138613343239, 0.0549643449485302, 0.18859194219112396, 0.25128790736198425, -0.10188990086317062, -0.22036828100681305, -0.32285839319229126, 0.049503400921821594, -0.05202748626470566, 0.029381025582551956, -0.08628036826848984, -0.23649710416793823, -0.2281644493341446, -0.02567177638411522, 0.03146497160196304, -0.05629391595721245, -0.0027806549333035946, 0.24865636229515076, -0.131217822432518, 0.06464360654354095, 0.13389968872070312, -0.24602831900119781, -0.11241839081048965, 0.20658186078071594, -0.25981810688972473, -0.3262474834918976, 0.2030263990163803, -0.18197833001613617, -0.15197309851646423, -0.11752398312091827, -0.17795006930828094, -0.005763852037489414, 0.2706310451030731, 0.32216957211494446, 0.05275929719209671, -0.5754333734512329, -0.22957658767700195, -0.2257538139820099, 0.14221519231796265, -0.12081952393054962, -0.07829657196998596, 0.11677276343107224, 0.0117727629840374, -0.08820821344852448, -0.08550435304641724, 0.1481749713420868, 0.09574738144874573, -0.11419045180082321, -0.1936921328306198, 0.19127333164215088, 0.09473945945501328, 0.23667939007282257, -0.02492050640285015, -0.14300596714019775, -0.05754654109477997, -0.10928806662559509, 0.21834003925323486, 0.07376634329557419, 0.1361217498779297, -0.11882991343736649, -0.05793645605444908, 0.1349368542432785, 0.09873341023921967, -0.17820875346660614, -0.16354243457317352, 0.188667893409729, -0.26797112822532654, -0.04279773682355881, 0.06637831777334213, -0.043995022773742676, 0.11795587837696075, 0.1889650821685791, -0.20117636024951935, -0.1481332778930664, -0.1629229336977005, 0.09281860291957855, 0.10630454868078232, 0.2735564410686493, -0.2801891267299652, -0.04267945885658264, 0.2250119000673294, 0.09789159893989563, 0.05317866802215576, 0.07724408805370331, -0.0846656784415245, -0.0665789321064949, -0.00708519434556365, -0.07131390273571014, -0.025820676237344742, 0.11055199056863785, 0.004923301283270121, 0.13326489925384521, -0.11618871986865997, -0.01132191065698862, -0.10351502895355225, -0.11405757814645767, -0.05935196951031685, -0.029559148475527763, 0.28106489777565, 0.2003621608018875, 0.09520591795444489, -0.19324634969234467, -0.09075921028852463, 0.03243282064795494, 0.18509675562381744, 0.1345876008272171, -0.029476342722773552, 0.04263218119740486, -0.10494030267000198, 0.027738945558667183, 0.007003819104284048, -0.21703726053237915, 0.07076012343168259, 0.05751759931445122, -0.257249116897583, 0.045779403299093246, 0.1234779804944992, -0.1084325835108757, 0.04265280440449715, 0.10738007724285126, -0.01754879578948021, 0.05128950998187065, -0.107327401638031, -0.10681495070457458, -0.03627777472138405, 0.0891914889216423, -0.08213772624731064, 0.2274107038974762, 0.17051279544830322, -0.24090945720672607, -0.3063240647315979, 0.13153113424777985, -0.1024542823433876, -0.117579884827137, 0.2106073498725891, -0.17518121004104614, -0.1257610321044922, 0.05780936777591705, 0.005050706211477518, -0.14897456765174866, -0.19059300422668457, 0.18222753703594208, 0.07875142991542816, -0.15588857233524323, -0.10944509506225586, -0.04083838313817978, 0.08799876272678375, 0.11615791916847229, 0.11965843290090561, -0.1795000433921814, 0.052761007100343704, -0.0672706738114357, 0.18230615556240082, 0.1814023107290268, 0.16762864589691162, -0.07338133454322815, -0.014667506329715252, 0.12428200989961624, 0.10198133438825607, -0.2625943124294281, 0.004728857893496752, -0.03774885833263397, -0.269596129655838, -0.16697563230991364, 0.09500476717948914, -0.07016240060329437, -0.06950914114713669, 0.12442649900913239, 0.014848724007606506, -0.22072651982307434, -0.0064071775414049625, 0.10831905901432037, 0.20709598064422607, -0.028059395030140877, -0.02194182202219963, -0.2388930767774582, 0.22061340510845184, 0.10262029618024826, -0.06241796538233757, 0.1753988116979599, -0.20938286185264587, 0.07414926588535309, 0.19158333539962769, -0.035914141684770584, 0.25478628277778625, -0.000951496884226799, -0.08445309102535248, 0.4265665113925934, -0.07552503049373627, 0.2482650727033615, -0.19704648852348328, -0.10373130440711975, -0.0458318330347538, -0.04955406114459038, 0.12210297584533691, 0.16207477450370789, 0.020891722291707993, -0.015130068175494671, -0.11144090443849564, -0.11568708717823029, 0.12282145768404007, 0.04705636203289032, -0.04514290392398834, -0.1555284559726715, -0.1523454189300537, -0.24109533429145813, 0.19365110993385315, -0.27792033553123474, 0.3637329339981079, 0.16140203177928925, -0.2252439707517624, 0.25446492433547974, 0.0239783376455307, -0.14373326301574707, -0.011272020637989044, 0.07442708313465118, -0.052648767828941345, 0.298721045255661, -0.12654121220111847, -0.19515207409858704, -0.23554302752017975, 0.17743976414203644, 0.035081736743450165, -0.017914490774273872, -0.03436192497611046, -0.07588160037994385, 0.08684457838535309, -0.0011187370400875807, -0.12209751456975937, -0.08731378614902496, -0.015059036202728748, 0.0020243132021278143, 0.05533467233181, 0.024679046124219894, -0.10837122797966003, 0.05094793438911438, -0.05636386573314667, -0.04113774001598358, -0.16794495284557343, -0.546505868434906, 0.731105387210846, 0.46686747670173645, -0.3511970341205597, 0.22956408560276031, -0.15832538902759552, -0.11755701899528503, 0.5889447331428528, -0.8392560482025146, 1.1136655807495117, 0.4290178418159485, -0.05388793349266052, -0.3564721941947937, 0.18080675601959229, -0.7542610764503479, 0.05047260597348213, -0.02783716470003128, 0.052562423050403595, -0.07918588072061539, 0.0958239734172821, 0.14653265476226807, 0.10321653634309769, -0.2112272083759308, 0.5665773153305054, 0.16021063923835754, 0.44584572315216064, 0.2615249752998352, -0.4530326724052429, -0.005139733664691448, -0.2127961814403534, -0.17645128071308136, 0.09060496091842651, -0.21923016011714935, 0.3304276466369629, 0.29782700538635254, -0.045855049043893814, -0.00148659513797611, -0.07359863817691803, -0.19316159188747406, -0.7079718112945557, 0.19689470529556274, -0.007499475032091141, -0.07192358374595642, 0.2941794991493225, 0.25137725472450256, 0.19729207456111908, 0.012057693675160408, 0.048833128064870834, -0.1888873279094696, 0.03271927312016487, -0.279300719499588, 0.09882930666208267, -0.42742741107940674, 0.06692270189523697, -0.17119456827640533, -0.42100346088409424, 0.3719618022441864, -0.175804004073143, 0.4162146747112274, 0.21591328084468842, -0.1834457963705063, 0.066500224173069, 0.3141642212867737, 0.29686346650123596, 0.15047331154346466, 0.3465089201927185, 0.02094263769686222, 0.20219013094902039, 0.35330209136009216, -0.28564804792404175, 0.20979373157024384, 0.3319050073623657, -0.33282703161239624, 0.014287479221820831, 0.06852902472019196, -0.02130044810473919, 0.16208535432815552, 0.12055031210184097, -0.2445187121629715, 0.21629586815834045, -0.28168076276779175, 0.38748520612716675, -0.37799015641212463, -0.10590699315071106, -0.08614072948694229, 0.3185262978076935, -0.01853497140109539, -0.19989106059074402, -0.3527170419692993, -0.2519678473472595, 0.23973897099494934, 0.09818267077207565, -0.049480095505714417, 0.11031787842512131, -0.2560397982597351, -0.11672793328762054, -0.40532615780830383, 0.19130273163318634, -0.19294647872447968, 0.04240485653281212, -0.3271028697490692, 0.3694021999835968, -0.10805200785398483, -0.4024195671081543, 0.11570709943771362, -0.37368372082710266, 0.3477456271648407, 0.2909385859966278, 0.4306890070438385, 0.2882336974143982, 0.21339721977710724, 0.017754757776856422, 0.26485398411750793, -0.20014174282550812, 0.15382014214992523, 0.09118495881557465, -0.1292383372783661, 0.18948881328105927, 0.02270394377410412, -0.31365132331848145, 0.21218590438365936, 0.37616464495658875, -0.2037641406059265, 0.15206129848957062, -0.009889638051390648, 0.2034481167793274, 0.12845379114151, 0.3678365647792816, 0.15397751331329346, -0.18336813151836395, -0.17964978516101837, 0.197987362742424, -0.0677107572555542, 0.004062931519001722, -0.08722761273384094, 0.14679257571697235, -0.0056793540716171265, 0.1901557594537735, 0.17345879971981049, -0.16045506298542023, -0.0032586059533059597, 0.282596617937088, -0.03333257511258125, -0.09745727479457855, 0.2786548137664795, -0.009660143405199051, 0.020173318684101105, 0.03187871724367142, -0.21761886775493622, -0.2518007159233093, -0.06157999113202095, 0.014347538352012634, 0.2784990668296814, -0.0720643550157547, 0.39440208673477173, -0.3663980960845947, 0.02004063129425049, -0.010664612054824829, 0.14183050394058228, -0.003127465723082423, -0.1185387670993805, -0.20794783532619476, 0.1629648506641388, -0.06942298263311386, 0.1760547012090683, -0.20433154702186584, -0.21216104924678802, 0.078874871134758, -0.011532509699463844, 0.163602814078331, -0.15461453795433044, -0.16708336770534515, -0.1695002019405365, 0.1920730024576187, -0.11306975036859512, 0.26367348432540894, -0.3035268485546112, -0.04770389199256897, -0.2001664638519287, 0.07223885506391525, -0.4477813243865967, 0.1966913789510727, -0.19505102932453156, 0.08424276858568192, 0.4429803490638733, -0.16827929019927979, 0.19785510003566742, 0.27066245675086975, -0.05370740965008736, 0.026357896625995636, 0.3571529984474182, 0.28814658522605896, 0.09086636453866959, 0.024235352873802185, 0.13216720521450043, -0.33766448497772217, 0.36395010352134705, 0.14009016752243042, 0.2881483733654022, -0.2215413749217987, -0.36436113715171814, -0.07008757442235947, 0.12826740741729736, -0.28955018520355225, -0.06901237368583679, 0.09602299332618713, -0.10145152360200882, -0.21437954902648926, -0.2783438265323639, -0.09874117374420166, -0.17876605689525604, 0.13183093070983887, 0.1219807043671608, -0.038460128009319305, -0.12292414903640747, 0.12662503123283386, -0.05609200894832611, -0.3103349506855011, 0.16230031847953796, 0.10834740102291107, 0.3170962929725647, 0.19765605032444, -0.15504704415798187, -0.018844692036509514, 0.1617964655160904, 0.06136566027998924, -0.010426727123558521, -0.1420232653617859, -0.20544256269931793, 0.12467601150274277, -0.07519031316041946, -0.13536980748176575, 0.11938036233186722, 0.16030365228652954, -0.17651960253715515, 0.04364388436079025, 0.16999630630016327, -0.11440450698137283, 0.060860250145196915, 0.13118062913417816, 0.05933624133467674, 0.057291917502880096, -0.04346683248877525, -0.3249262273311615, -0.238864004611969, 0.18558943271636963, -0.2566588222980499, -0.03915160521864891, 0.36120179295539856, 0.4210871458053589, 0.3256261646747589, 0.156398743391037, 0.21509931981563568, 0.0715998113155365, -0.08886804431676865, -0.11047150194644928, 0.1875600516796112, -0.0584578737616539, -0.1879270076751709, 0.017327377572655678, 0.013735331594944, -0.09509746730327606, -0.25759992003440857, 0.444740891456604, 0.09601147472858429, 0.36720308661460876, 0.27089443802833557, -0.2020922601222992, -0.22054368257522583, -0.25793933868408203, 0.007923053577542305, 0.04649219289422035, -0.0005044890567660332, 0.041147664189338684, 0.10999749600887299, -0.05082305893301964, 0.05247839540243149, 0.05180687457323074, -0.028380664065480232, -0.11116784065961838, -0.16035421192646027, 0.00997147522866726, 0.07242448627948761, 0.0014697962906211615, 0.09340928494930267, -0.0018563349731266499, -0.045876335352659225, 0.19808940589427948, -0.1471618413925171, 0.3063766062259674, -0.1405688375234604, 0.0072640483267605305, 0.08897948265075684, 0.17119356989860535, 0.11619345098733902, -0.3125583231449127, 0.11393927782773972, -0.07659634202718735, 0.19850684702396393, -0.021758340299129486, -0.024158114567399025, -0.10188965499401093, -0.13769257068634033, -0.07418328523635864, 0.17330579459667206, 0.2336420714855194, 0.027894435450434685, -0.310089647769928, -0.3502991199493408, -0.04737194627523422, 0.23976536095142365, 0.20350982248783112, -0.03518153727054596, -0.20979677140712738, -0.14548738300800323, -0.011026480235159397, 0.1551254689693451, 0.018772201612591743, -0.05705299973487854, 0.0874260887503624, 0.22041372954845428, 0.055244337767362595, -0.22490240633487701, -0.10270920395851135, 0.038259610533714294, -0.24668189883232117, 0.24203920364379883, 0.04859919846057892, -0.25384801626205444, -0.14838765561580658, 0.12393831461668015, -0.28307273983955383, 0.16925707459449768, 0.004278616514056921, -0.04875550419092178, -0.14336180686950684, 0.3055272400379181, -0.04775696620345116, 0.19001136720180511, 0.04954620450735092, -0.1612681746482849, 0.11018974334001541, 0.016943706199526787, 0.002751660766080022, -0.376400887966156, 0.03987861052155495, 0.23872651159763336, 0.06101977825164795, 0.00047500646905973554, 0.1674147993326187, 0.20843656361103058, -0.09823846071958542, -0.000283975648926571, -0.19812972843647003, 0.1271253377199173, -0.17820297181606293, 0.0160804633051157, -0.23952576518058777, -0.08530963212251663, -0.08220398426055908, 0.22080747783184052, -0.12545526027679443, 0.05237353965640068, 0.03364136070013046, 0.13616715371608734, 0.005501500330865383, 0.25603818893432617, 0.0628330260515213, 0.028064768761396408, -0.10316262394189835, -0.17152637243270874, -0.06480634957551956, 0.10622921586036682, 0.09153357893228531, -0.19811248779296875, 0.2827686369419098, -0.1317673921585083, 0.23075547814369202, 0.2448960393667221, -0.04000571742653847, -0.12155947089195251, 0.14025230705738068, -0.1376086175441742, -0.23995447158813477, -0.46612778306007385, 0.11556635051965714, 0.10471434146165848, 0.0528113879263401, -0.024957820773124695, -0.23158638179302216, -0.4831424057483673, 0.3505277931690216, 0.12505583465099335, 0.18571485579013824, -0.4262561500072479, -0.22424723207950592, -0.17645354568958282, 0.14777664840221405, -0.3758890628814697, -0.18159270286560059, 0.13883376121520996, 0.49827903509140015, 0.1461574286222458, -0.02356095425784588, -0.12622274458408356, 0.11901544779539108, 0.22004951536655426, 0.12067566066980362, -0.15262193977832794, 0.05848020315170288, -0.06222919002175331, 0.1504863202571869, 0.06458713859319687, -0.03877701610326767, -0.38043099641799927, 0.12183036655187607, -0.06831822544336319, -0.12277959287166595, -0.23768287897109985, -0.18729349970817566, -0.2268303781747818, -0.28005552291870117, 0.03684862703084946, -0.21940989792346954, -0.08451976627111435, -0.3949381411075592, -0.5777487754821777, 0.40747731924057007, -0.016355181112885475, -0.138773575425148, 0.3654685318470001, -0.09770964831113815, 0.01537913829088211, -0.2270682156085968, 0.010561995208263397, 0.13855963945388794, 0.08322899788618088, 0.20888791978359222, -0.01382447313517332, -0.3293667435646057, 0.09381198137998581, 0.082083560526371, 0.15803854167461395, -0.0005450504249893129, -0.15467441082000732, 0.024851985275745392, -0.2348935902118683, -0.20559807121753693, 0.12159784138202667, 0.2702978551387787, 0.14353683590888977, -0.10220728814601898, -0.24862636625766754, -0.02584213763475418, 0.2662672698497772, 0.19522565603256226, -0.10788162797689438, -0.3182961940765381, -0.33802905678749084, 0.05926661938428879, 0.21635717153549194, 0.04832570627331734, 0.04486696794629097, -0.35209038853645325, 0.24982833862304688, 0.14660505950450897, 0.09784624725580215, 0.23136620223522186, -0.19390332698822021, -0.10286986082792282, 0.20973652601242065, 0.14132137596607208, -0.255377858877182, -0.23676182329654694, -0.01288068201392889, -0.1698165237903595, -0.1063336730003357, 0.03684459999203682, -0.29479169845581055, 0.06842402368783951, 0.03692718967795372, -0.016489306464791298, 0.27840113639831543, -0.22023630142211914, 0.07448199391365051, 0.004635540768504143, 0.4388396143913269, -0.018867913633584976, -0.20235218107700348, -0.30002713203430176, 0.008630716241896152, 0.07956670224666595, 0.11349029093980789, -0.025979114696383476, 0.06708314269781113, 0.050263017416000366, 0.14800816774368286, -0.05430660396814346, -0.02777334488928318, 0.01072038896381855, 0.10458920150995255, -0.09719822555780411, -0.0712590143084526, -0.1630907505750656, 0.19317984580993652, -0.08074656873941422, -0.04854603111743927, -0.25329744815826416, 0.038883108645677567, 0.07703925669193268, 0.20441533625125885, -0.059130702167749405, -0.18092148005962372, 0.10149742662906647, -0.09293507784605026, -0.23584222793579102, 0.22061488032341003, -0.14411337673664093, -0.10173231363296509, -0.016392739489674568, -0.016487475484609604, 0.01375807449221611, 0.3582274913787842, 0.19607868790626526, 0.015632279217243195, 0.06883874535560608, 0.0064452276565134525, -0.18990668654441833, -0.09636632353067398, 0.019176242873072624, 0.22409315407276154, -0.08169026672840118, -0.20933033525943756, -0.15308374166488647, 0.025332417339086533, 0.023078758269548416, -0.26933279633522034, 0.0450674332678318, -0.133596271276474, 0.17854540050029755, -0.2340938299894333, -0.22815276682376862, 0.0629248395562172, -0.245290145277977, -0.23935233056545258, -0.186553493142128, 0.1275509148836136, 0.12292604893445969, 0.17838206887245178, 0.008184519596397877, -0.22431614995002747, -0.2956511378288269, 0.06789905577898026, -0.003264893777668476, 0.19440679252147675, 0.11699207872152328, -0.08853032439947128, -0.11320208013057709, -0.1283400058746338, -0.19255255162715912, -0.20346134901046753, 0.037136755883693695, 0.18973670899868011, -0.23810793459415436, -0.18708640336990356, -0.13221067190170288, -0.1434425264596939, -0.12235458195209503, -0.03399797901511192, -0.08990965038537979, 0.10397057235240936, -0.07554253935813904, -0.08971946686506271, 0.13556398451328278, 0.15536080300807953, 0.3865404427051544, 0.0784958153963089, -0.2984693944454193, -0.17415925860404968, -0.0375068373978138, 0.1775798499584198, 0.07626860588788986, 0.27229923009872437, -0.20793460309505463, -0.018739046528935432, -0.25864261388778687, -0.13209325075149536, -0.04021558538079262, 0.09697312116622925, 0.17285622656345367, -0.2674362361431122, -0.11556809395551682, 0.2465306669473648, 0.0693608894944191, -0.00042450203909538686, -0.17557144165039062, 0.04496525600552559, -0.1109955832362175, 0.08573618531227112, 0.07164230942726135, 0.19290626049041748, -0.2097405344247818, -0.09360221028327942, -0.10501015931367874, 0.22030393779277802, 0.1612090915441513, 0.05609319359064102, -0.17906473577022552, 0.13455131649971008, -0.055216748267412186, -0.14481118321418762, 0.10441058874130249, -0.02529844641685486, -0.15109169483184814, 0.06305824965238571, 0.15976738929748535, -0.24458938837051392, 0.08069916814565659, 0.34597837924957275, -0.08560873568058014, 0.2961246073246002, 0.135864719748497, -0.2795373499393463, -0.04950521141290665, -0.20202212035655975, 0.003963065799325705, 0.010875933803617954, -0.04736229404807091, 0.2702316641807556, -0.07116390019655228, -0.15529674291610718, 0.1422898918390274, 0.08976313471794128, -0.013303829357028008, 0.03942159563302994, -0.07124722748994827, 0.12285947799682617, 0.001777533907443285, -0.21779975295066833, -0.050820063799619675, 0.02256208471953869, 0.10347563028335571, -0.11554068326950073, -0.0034071854315698147, -0.14768779277801514, 0.12021125853061676, 0.021848371252417564, 0.19406716525554657, -0.019471000880002975, -0.013315322808921337, -0.19521276652812958, -0.02469920925796032, 0.06279746443033218, 0.047066811472177505, -0.09234637022018433, -0.07957197725772858, 0.12199603021144867, -0.17490340769290924, 0.10185447335243225, 0.018063640221953392, -0.20784978568553925, 0.043276045471429825, 0.211030051112175, -0.18807144463062286, -0.08908814191818237, 0.0014641324523836374, -0.30693885684013367, -0.12165645509958267, 0.012685189954936504, -0.05214447155594826, -0.15370211005210876, -0.14532767236232758, 0.2889573574066162, 0.14968395233154297, 0.18296241760253906, 0.2242538183927536, -0.1618342250585556, -0.03702634945511818, -0.12921062111854553, 0.06850504130125046, -0.3584483861923218, -0.0911610797047615, 0.02620858885347843, 0.07009684294462204, 0.00043233466567471623, -0.07740531861782074, 0.01245787926018238, 0.02380945533514023, -0.23528634011745453, -0.1887315958738327, -0.021276144310832024, 0.030301762744784355, 0.09741564095020294, -0.07679016143083572, -0.1654859483242035, -0.05485856905579567, 0.003242860548198223, -0.014703167602419853, 0.17069797217845917, 0.1989290565252304, -0.13640600442886353, 0.12463323026895523, 0.025248372927308083, 0.025135856121778488, -0.08857419341802597, -0.012943240813910961, -0.020693212747573853, -0.09300024062395096, -0.297242134809494, -0.22745956480503082, -0.13842646777629852, 0.14266705513000488, 0.010757635347545147, 0.23027904331684113, 0.13001184165477753, -0.05181394889950752, 0.1015697568655014, -0.10767756402492523, 0.18317128717899323, 0.15854083001613617, 0.014721956104040146, 0.11242213845252991, -0.0012552221305668354, -0.2108505815267563, 0.12735533714294434, 0.22068184614181519, -0.011573261581361294, 0.12289445102214813, 0.3549828827381134, -0.042143452912569046, 0.15105439722537994, 0.09310361742973328, 0.2588293254375458, 0.3093869984149933, -0.23382754623889923, 0.032456524670124054, 0.06400644034147263, -0.13002516329288483, -0.2600579857826233, -0.07018304616212845, -0.171502947807312, 0.0500616617500782, 0.20122583210468292, 0.20906947553157806, -0.04745548591017723, -0.09149662405252457, -0.3720552921295166, 0.006917013321071863, 0.02259589359164238, 0.01422910112887621, 0.07502645999193192, 0.1823626458644867, 0.20174148678779602, -0.13563455641269684, -0.09978006035089493, 0.3243487477302551, 0.13313870131969452, -0.10778288543224335, 0.06258048117160797, -0.007888654246926308, -0.06457747519016266, 0.33861735463142395, 0.17210820317268372, 0.06869805604219437, 0.2537347674369812, 0.0030130038503557444, 0.05236179381608963, -0.32790297269821167, -0.35895639657974243, -0.12577253580093384, 0.3365851640701294, -0.024514134973287582, -1.6274256267934106e-05, -0.09548213332891464, 0.04193535074591637, 0.022322610020637512, 0.003320571966469288, 0.2506040632724762, -0.03579014539718628, 0.0804034173488617, -0.13569523394107819, -0.1456661820411682, 0.3427441418170929, -0.00217352039180696, -0.05071191489696503, -0.09383875876665115, 0.23681426048278809, 0.07322219014167786, 0.06370680779218674, -0.059477608650922775, -0.05853010341525078, -0.30182701349258423, 0.0009145635995082557, 0.07312379777431488, 0.14971387386322021, 0.10295416414737701, 0.02520555444061756, -0.02162049151957035, -0.025869762524962425, -0.2712295651435852, -0.21541206538677216, 0.1593218594789505, 0.07811795920133591, 0.020425425842404366, -0.23271501064300537, -0.0644703134894371, -0.158704936504364, -0.021839195862412453, 0.03940172865986824, 0.13155600428581238, 0.15145885944366455, -0.12075211852788925, -0.38696572184562683, -0.0937211811542511, -0.004185501951724291, -0.03883367031812668, 0.21489042043685913, 0.10858719050884247, -0.045062385499477386, 0.1704820841550827, -0.345946729183197, 0.09815294295549393, -0.12113894522190094, 0.03035423718392849, 0.21568845212459564, -0.15113702416419983, 0.047908540815114975, -0.010907354764640331, -0.3203468918800354, 0.1740754097700119, -0.14615195989608765, -0.08137481659650803, 0.0191552322357893, 0.12478622794151306, 0.006569645367562771, -0.19341935217380524, -0.07174751907587051, 0.03174963966012001, 0.3401370644569397, 0.0536118745803833, -0.03070060908794403, -0.14470794796943665, -0.29906129837036133, 0.16484861075878143, 0.1911098212003708, 0.19659146666526794, -0.10633394867181778, 0.1102319285273552, 0.325168639421463, -0.17517060041427612, -0.09425045549869537, 0.24399681389331818, -0.06728944927453995, -0.03025248646736145, 0.277974933385849, 0.007570680696517229, -0.07770825177431107, -0.02486279420554638, -0.5082735419273376, -0.27892860770225525, 0.19785460829734802, -0.04263034835457802, 0.08394579589366913, 0.009154325351119041, -0.1497044563293457, -0.0533561073243618, -0.15931670367717743, -0.03832798823714256, 0.17712222039699554, 0.14578773081302643, 0.06203247234225273, -0.2389044463634491, 0.04530634358525276, 0.09706015884876251, -0.08311380445957184, 8.426477143075317e-05, 0.2688163220882416, -0.054512348026037216, -0.014411194249987602, 0.02144235000014305, 0.05255795270204544, -0.021641915664076805, 0.08870472759008408, -0.17521512508392334, -0.0851050391793251, -0.10269065201282501, 0.20461860299110413, -0.06566604226827621, 0.12039825320243835, -0.31995689868927, -0.19572007656097412, -0.011362207122147083, 0.18209366500377655, -0.12967057526111603, -0.10388825088739395, -0.37204471230506897, 0.15677866339683533, 0.2613290250301361, 0.06632044911384583, 0.16905651986598969, 0.14230845868587494, -0.16684316098690033, 0.14697544276714325, 0.02448943257331848, -0.049972496926784515, -0.019027380272746086, 0.0552794449031353, -0.07311015576124191, 0.11681582033634186, 0.06939692795276642, -0.1528017520904541, 0.10136036574840546, 0.0003492394753266126, 0.3528996407985687, 0.06108167767524719, 0.012645184993743896, -0.009211529046297073, -0.08110718429088593, 0.049822401255369186, 0.591551661491394, -0.001976627390831709, -0.1578560471534729, -0.4099525213241577, 0.0913601964712143, 0.15549573302268982, 0.08512517064809799, 0.2267303317785263, 0.17227527499198914, 0.17731289565563202, -0.17591708898544312, -0.03460732102394104, 0.2549190819263458, 0.05856306850910187, 0.11614058911800385, -0.175940603017807, -0.06163832172751427, -0.057048697024583817, 0.29363155364990234, -0.006222552619874477, -0.0366784892976284, -0.1052197515964508, 0.10994045436382294, 0.1206783875823021, 0.9356973171234131, -0.16783642768859863, -0.2507750988006592, -0.15187260508537292, -0.05492157116532326, 0.012865042313933372, 0.11916876584291458, -0.061091888695955276, -0.18684278428554535, 0.24075719714164734, 0.02124057151377201, 0.0686570480465889, 0.6002478003501892, -0.0627833753824234, 0.052288927137851715, 0.29320788383483887, -0.28952229022979736, 0.015952158719301224, 0.31967559456825256, 0.26690852642059326, -0.1207522600889206, -0.07795275002717972, 0.044426944106817245, 0.22866150736808777, -0.050291795283555984, -0.1043395847082138, 0.05102416127920151, 0.2230425477027893, 0.2705710828304291, -0.020602310076355934, -0.1099964901804924, 0.402749240398407, -0.08095294237136841, -0.09797097742557526, -0.01713261567056179, -0.14918336272239685, -0.15408551692962646, 0.07082498073577881, -0.22468218207359314, 0.021847769618034363, -0.18469229340553284, 0.14267314970493317, 0.024307981133461, 0.05421969294548035, -0.2358759343624115, 0.10905442386865616, 0.0219715666025877, -0.06196864694356918, -0.09660594910383224, -0.08486806601285934, 0.31847745180130005, 0.04639944061636925, -0.21213921904563904, 1.1109178066253662, 0.3009413778781891, -0.19124555587768555, 0.27044597268104553, -0.06628823280334473, 0.11201661080121994, 0.07758279889822006, -0.10328102856874466, -0.19581356644630432, 0.04651160165667534, 0.029604198411107063, -0.01587827503681183, 0.11674565076828003, 0.0853775292634964, -0.23908473551273346, 0.12406197935342789, 0.09029138088226318, -0.026242803782224655, -0.18735434114933014, -0.1617569774389267, 0.15569035708904266, -0.1029382050037384, 0.15548181533813477, -0.08532192558050156, 0.0937047079205513, 0.1311047375202179, -0.3242587745189667, -0.01295799482613802, 0.13580572605133057, 0.19815488159656525, -0.02587183378636837, -0.18895114958286285, -0.21776504814624786, 0.1770268827676773, 0.0032540790271013975, 0.3065823018550873, -0.05265287682414055, -0.09432251006364822, -0.29932716488838196, 0.02694700099527836, 0.1600843369960785, 0.017264770343899727, 0.02004314586520195, -0.13364964723587036, 0.12834052741527557, -0.2379554808139801, -0.12639042735099792, -0.1459772139787674, -0.2971024513244629, 0.028637848794460297, 0.061951834708452225, -0.005208827089518309, -0.044708602130413055, 0.13005489110946655, -0.06704095751047134, 0.07039417326450348, 0.09690090268850327, 0.013542951084673405, 0.018732238560914993, -0.0436243936419487, -0.027715206146240234, 0.06709590554237366, -0.0758061408996582, 0.1127762496471405, 0.06564982235431671, -0.042923685163259506, -0.07097813487052917, -0.007759396918118, 0.1302051544189453, 0.019100502133369446, -0.03151221200823784, 0.03826667368412018, 0.01126020960509777, -0.02006366103887558, 0.14240795373916626, 0.9598308205604553, 0.0624929703772068, 0.7040396332740784, -0.7881349325180054, -0.472398579120636, -0.03210083767771721, 0.48664331436157227, 0.14181646704673767, 0.35372409224510193, 0.3914896845817566, -1.1616575717926025, 0.6332035660743713, 0.0459616519510746, -0.768293559551239, -0.04632509872317314, 0.00160472362767905, -0.26473119854927063, -0.09730558842420578, 0.41487225890159607, -0.22704032063484192, -0.022998226806521416, 0.012255101464688778, 0.09702251106500626, -0.2386230230331421, -0.26732075214385986, 0.09255627542734146, -0.0836407020688057, -0.039310041815042496, 0.028743676841259003, -0.26283225417137146, 0.2595362663269043, -0.3021916151046753, -0.09513571858406067, -0.35910895466804504, -0.1619085967540741, -0.21723172068595886, -0.10266273468732834, 0.4785740077495575, 0.10094000399112701, -0.14849476516246796, -0.22264635562896729, -0.31527748703956604, -0.28712427616119385, 0.008099989965558052, -0.08450897783041, 0.041901860386133194, 0.12130247056484222, 0.11060502380132675, -0.07246600836515427, -0.010024412535130978, -0.17771442234516144, -0.06766709685325623, -0.0888877585530281, 0.05813173949718475, -0.33597585558891296, 0.21027792990207672, 0.07259433716535568, -0.22215968370437622, -0.1119755357503891, -0.37429627776145935, -0.1957838088274002, 0.04536506533622742, -0.03591219708323479, -0.06827428936958313, -0.3064671754837036, 0.1400984525680542, 0.029916830360889435, 0.11675304174423218, 0.2362852245569229, 0.2535500228404999, 0.13665984570980072, -0.15426060557365417, -0.033518072217702866, -0.20490071177482605, -0.0772685557603836, -0.32143017649650574, 0.15909987688064575, 0.03732192516326904, 0.07561902701854706, -0.28901660442352295, -0.005952030885964632, 0.0836249589920044, -0.11063294112682343, 0.3741266429424286, -0.02807239629328251, 0.00835308525711298, 0.15507625043392181, -0.2304069697856903, 0.33453014492988586, 0.18464405834674835, -0.004400662146508694, -0.1775129735469818, -0.5050724744796753, -0.3959762156009674, -0.3462125360965729, -0.06590935587882996, -0.07758311182260513, -0.10609348118305206, 0.09214240312576294, 0.19478100538253784, -0.19844041764736176, 0.39652010798454285, -0.0929407849907875, 0.1686772257089615, 0.05808889493346214, -0.02109059877693653, -0.25198113918304443, 0.24820955097675323, -0.04942874610424042, 0.12503154575824738, -0.27318981289863586, 0.11690208315849304, -0.2290656715631485, -0.018956709653139114, 0.05926913395524025, 0.22693771123886108, -0.3664108216762543, -0.33254021406173706, 0.42612424492836, -0.061626240611076355, -0.1854962408542633, 0.2273256480693817, 0.045184776186943054, -0.09555194526910782, 0.06658687442541122, -0.16627196967601776, 0.3197113573551178, -0.47660982608795166, -0.22320595383644104, 0.16619619727134705, -0.1929042935371399, 0.01814347691833973, 0.12129469215869904, -0.18859025835990906, -0.14587168395519257, 0.02117583155632019, 0.040818534791469574, 0.04952717572450638, -0.15346035361289978, -0.2896464467048645, -0.21459119021892548, 0.053464729338884354, 0.16519995033740997, -0.16982105374336243, -0.42271286249160767, 0.16849921643733978, -0.036328475922346115, -0.1374823898077011, 0.16464035212993622, 0.10622071474790573, -0.26285791397094727, -0.11787711083889008, 0.0002519785484764725, -0.3730516731739044, 0.12963595986366272, -0.2859781086444855, 0.037975605577230453, 0.11802751570940018, 0.11390797793865204, -0.03797844797372818, 0.05242267996072769, 0.19605788588523865, 0.18589350581169128, 0.05456339940428734, -0.2169588953256607, 0.06582388281822205, -0.16668292880058289, -0.010645694099366665, -0.07973227649927139, -0.06817200779914856, 0.0842001810669899, -0.20427091419696808, 0.121488556265831, -0.08830810338258743, 0.3461841642856598, 0.010612457059323788, -0.30860623717308044, 0.09522178024053574, -0.1611795574426651, -0.6467755436897278, -0.1569974720478058, 0.22301216423511505, -0.02681034244596958, -0.21535611152648926, 0.28627365827560425, -0.058033332228660583, 0.019912535324692726, -0.06817420572042465, -0.21915695071220398, 0.0915343314409256, 0.08620742708444595, -0.29217442870140076, -0.0614902600646019, 0.09693001955747604, -0.10628080368041992, -0.13423220813274384, 0.08520646393299103, 0.08626080304384232, -0.2545682489871979, 0.2618674039840698, -0.007545123808085918, -0.025014689192175865, 0.517826497554779, 0.37926724553108215, -0.030614718794822693, 0.42792388796806335, -0.4066791832447052, 0.07709966599941254, -0.06263085454702377, 0.07647011429071426, 0.1628057360649109, 0.3545551896095276, -0.1589689701795578, 0.10455735772848129, -0.13067950308322906, 0.055790387094020844, 0.15116237103939056, 0.03490767627954483, -0.16415275633335114, 0.06142393499612808, -0.35238513350486755, -0.18378102779388428, -0.04890904203057289, -0.09029462188482285, -0.3523043990135193, -0.03684794157743454, 0.03137031942605972, 0.1723342090845108, -0.05297437682747841, 0.3413381576538086, -0.15704794228076935, 0.016572754830121994, -0.025575939565896988, 0.07452993839979172, 0.29834792017936707, -0.43385225534439087, -0.38862213492393494, -0.26625731587409973, -0.09627030789852142, -0.08680269122123718, 0.23562754690647125, -0.22860625386238098, 0.1365317851305008, -0.026505546644330025, -0.07396368682384491, -0.6294448375701904, 0.03634829446673393, 0.07861717790365219, -0.4959627091884613, 0.21601073443889618, -0.3414875268936157, 0.10855723917484283, 0.03459862247109413, 0.12181831896305084, 0.007355507463216782, -0.09906070679426193, -0.1476941853761673, 0.21864797174930573, 0.00034798082197085023, -0.20272964239120483, -0.3271147906780243, -0.7066305875778198, 0.40286993980407715, -0.198369562625885, -0.4674440324306488, 0.4397391676902771, -0.4987821578979492, -0.003511452116072178, 0.09322735667228699, -0.11739712953567505, 0.556490957736969, -0.06975919008255005, -0.09466835856437683, -0.022784622386097908, 0.07068663090467453, -0.023726245388388634, 0.022536776959896088, -0.009691719897091389, -0.0029410545248538256, 0.03445358946919441, 0.01632486842572689, 0.03302564471960068, 0.062412604689598083, 0.006258310284465551, 0.03894265741109848, -0.07315957546234131, -0.09299495816230774, -0.037815868854522705, 0.039055973291397095, 0.02590964175760746, 0.2175590544939041, 0.09684258699417114, 0.19165895879268646, -0.409974068403244, -0.03554363176226616, 0.20634785294532776, -0.1685190498828888, -0.05565325543284416, 0.022668631747364998, -0.06931637227535248, 0.44740185141563416, 0.18638639152050018, -0.08752242475748062, 0.27052611112594604, 0.002399829216301441, -0.14553183317184448, 0.11970939487218857, 0.1897081881761551, 0.23339848220348358, 0.393421471118927, 0.17386655509471893, -0.24437402188777924, -0.17487679421901703, -0.062406472861766815, 0.11831067502498627, 0.34533828496932983, -0.08378125727176666, -0.011234242469072342, 0.0615701824426651, 0.036380741745233536, -0.1851733922958374, -0.31627577543258667, -0.34202346205711365, -0.1547413319349289, -0.17005540430545807, 0.1256505697965622, 0.3898894190788269, -0.08078593760728836, 0.039745133370161057, -0.0064655388705432415, 0.09639807045459747, 0.10807100683450699, 0.20323479175567627, -0.17861270904541016, 0.20007790625095367, 0.29997876286506653, -0.03922835737466812, -0.05001429095864296, 0.09454842656850815, 0.2700052559375763, -0.07027197629213333, -0.172529935836792, -0.15481343865394592, -0.03274604305624962, 0.14911997318267822, 0.017051804810762405, -0.05003251135349274, -0.07818061858415604, 0.2211351841688156, 0.06039450317621231, -0.25420308113098145, 0.21124665439128876, 0.07145211845636368, -0.17047010362148285, -0.13436554372310638, 0.1339685320854187, 0.1983921229839325, 0.05043833330273628, -0.09896810352802277, -0.39029696583747864, -0.2375897318124771, 0.08689991384744644, 0.2469317615032196, 0.1610553115606308, 0.09202772378921509, -0.1182582676410675, 0.0396699421107769, -0.11949066817760468, 0.12376883625984192, -0.46291595697402954, -0.028883041813969612, 0.01746119000017643, -0.19367662072181702, -0.035545241087675095, 0.2642771899700165, -0.1710393726825714, 0.08289901167154312, 0.09938643872737885, 0.050814732909202576, -0.11145200580358505, -0.035509929060935974, -0.3294428288936615, -0.2696540057659149, 0.026199858635663986, 0.22411544620990753, 0.08827193081378937, -0.10621034353971481, 0.22175642848014832, 0.24609054625034332, 0.41583776473999023, -0.3158811628818512, -0.08702697604894638, 0.09960917383432388, -0.4483177959918976, -0.06076335534453392, -0.19561132788658142, -0.09267162531614304, 0.12494566291570663, 0.1414051204919815, 0.3368564546108246, 0.20896704494953156, 0.0009142238995991647, 0.2897835373878479, -0.18919391930103302, 0.09310971200466156, 0.18111643195152283, -0.23921747505664825, -0.5381116271018982, -0.22744640707969666, -0.27948302030563354, 0.08442279696464539, 0.3350197672843933, 0.11003795266151428, -0.09781672060489655, -0.010322649963200092, 0.02243364229798317, -0.03303854167461395, -0.8198416829109192, -0.2188543975353241, -0.24775482714176178, -0.5329437851905823, -0.007195393089205027, 0.3768024742603302, -0.13209795951843262, 0.07410294562578201, 0.17418649792671204, 0.12403109669685364, 0.32669776678085327, 0.024636806920170784, 0.11376531422138214, -0.14999458193778992, 0.3138933479785919, -0.09848585724830627, 0.42817509174346924, -0.17728812992572784, -0.00020823646627832204, 0.2809138596057892, 0.09478973597288132, 0.126586452126503, 0.260951429605484, -0.17539730668067932, 0.14823320508003235, 0.18167024850845337, 0.0117012495175004, 0.10851645469665527, 0.12051265686750412, 0.020335907116532326, 0.03665157034993172, -0.17058785259723663, 0.2769050896167755, 0.025824954733252525, 0.15012052655220032, 0.1078973114490509, 0.20746630430221558, -0.05153590068221092, -0.06298168748617172, 0.06303414702415466, 0.1908249408006668, -0.12502756714820862, -0.05046559497714043, -0.09785925596952438, 0.13489188253879547, 0.09058061242103577, 0.2411411851644516, -0.264491468667984, 0.14733512699604034, -0.391615629196167, -0.05800843611359596, 0.18139004707336426, 0.06726264208555222, -0.10002880543470383, 0.3303668200969696, 0.597028911113739, -0.32101255655288696, -0.2722609341144562, -0.14281119406223297, 0.30236971378326416, -0.04407186433672905, 0.2705385088920593, -0.03844110295176506, 0.15306465327739716, -0.0007974938489496708, 0.7595088481903076, 0.14057980477809906, 0.1657169610261917, 0.06410712748765945, 0.10236328095197678, 0.042390793561935425, 0.12105470150709152, 0.06910485029220581, -0.00013330562796909362, 0.803421139717102, 0.20742008090019226, 0.0940135046839714, -0.008045608177781105, 0.2891785502433777, 0.04474704712629318, -0.3182646632194519, -0.08025055378675461, -0.16385291516780853, 0.3508436679840088, 0.2650580406188965, -0.03060760721564293, -0.053756434470415115, -0.09245115518569946, -0.04431125149130821, 0.3281773328781128, 0.15381312370300293, 0.023428209125995636, 0.15974922478199005, -0.01036722119897604, -0.010094351135194302, -0.0834871232509613, 0.010854578576982021, -0.055128175765275955, -0.25028368830680847, -0.034380532801151276, 0.075298972427845, -0.027016112580895424, -0.07759658247232437, 0.1321473866701126, 0.3003608286380768, -0.1443561315536499, 0.006786573212593794, 0.041957248002290726, -0.15033867955207825, -0.022090880200266838, 0.3476235568523407, -0.022113339975476265, 0.04998834431171417, -0.21886791288852692, -0.07851868867874146, -0.0422370508313179, -0.08261408656835556, 0.018951646983623505, -0.11904338002204895, 0.03747570887207985, 0.05070572346448898, -0.11892885714769363, 0.06219640374183655, -0.15293096005916595, -0.06248585134744644, 0.23831301927566528, -0.1399877667427063, 0.1466750055551529, 0.008280583657324314, 0.07616566121578217, -0.24916107952594757, -0.0015775974607095122, -0.1094605103135109, 0.17419147491455078, -0.1073368713259697, -0.016580406576395035, -0.27927616238594055, 0.06537910550832748, -0.09591218084096909, 0.2787942588329315, -0.13621786236763, -0.023503435775637627, -0.0844554752111435, -0.013515392318367958, -0.07883422821760178, 0.2452954798936844, -0.20239219069480896, 0.10226491838693619, -0.050013694912195206, 0.12205713987350464, -0.1333019882440567, -0.25052377581596375, 0.06331942230463028, 0.23300926387310028, -0.03880912810564041, -0.04182440787553787, 0.13901516795158386, -0.024554427713155746, 0.10662659257650375, 0.17815524339675903, -0.09402411431074142, 0.16240617632865906, -0.04144374281167984, 0.024921441450715065, -0.18419134616851807, -0.026601050049066544, -0.13789968192577362, 0.24975480139255524, -0.12107209116220474, -0.25923773646354675, 0.06583655625581741, 0.06816010177135468, 0.5836169719696045, -0.27961602807044983, 0.08713320642709732, 0.3055163025856018, 0.0420389287173748, 0.09100096672773361, 0.1964689940214157, 0.02316383086144924, -0.07063296437263489, -0.035293880850076675, -0.03617851808667183, -0.13667403161525726, -0.14647194743156433, 0.30933743715286255, 0.04320305958390236, 0.1505163311958313, -0.08015988022089005, -0.05777925252914429, 0.06307747960090637, 0.2582000195980072, -0.15463359653949738, -0.3388668894767761, 0.23583923280239105, -0.09247894585132599, 0.2936374545097351, 0.3242962062358856, -0.022933905944228172, 0.10689040273427963, 