{"version": "0.5.1", "architecture": "WaveNet", "config": {"layers": [{"input_size": 1, "condition_size": 1, "head_size": 8, "channels": 16, "kernel_size": 3, "dilations": [1, 2, 4, 8, 16, 32, 64, 128, 256, 512], "activation": "Tanh", "gated": false, "head_bias": false}, {"input_size": 16, "condition_size": 1, "head_size": 1, "channels": 8, "kernel_size": 3, "dilations": [1, 2, 4, 8, 16, 32, 64, 128, 256, 512], "activation": "Tanh", "gated": false, "head_bias": true}], "head": null, "head_scale": 0.02}, "weights": [-0.01997308060526848, 0.4212614595890045, -0.80275958776474, -0.6026865839958191, -0.4131273627281189, 0.2945563793182373, 0.0013740330468863249, 0.8495147824287415, -0.016150644049048424, 0.30872946977615356, -0.22803479433059692, -0.01569461077451706, -0.8891298770904541, -0.6773753762245178, -0.37662288546562195, 0.08686155825853348, -0.1446254849433899, 0.23969627916812897, -0.1831953525543213, -0.23077882826328278, 0.2453497052192688, 0.1068224161863327, 0.12967868149280548, -0.08699639141559601, -0.0010341255692765117, 0.17230208218097687, -0.06503899395465851, -0.11513305455446243, 0.08070814609527588, -0.22275537252426147, -0.023917317390441895, -0.030124451965093613, 0.11240646243095398, -0.07299715280532837, 0.014085629023611546, -0.28360188007354736, -0.1237979307770729, -0.042609281837940216, 0.2579069435596466, 0.04740217328071594, 0.21462668478488922, -0.2051691710948944, 0.05350523442029953, -0.3051610589027405, 0.09213829040527344, -0.09218369424343109, 0.25472551584243774, -0.1053917407989502, -0.03381095826625824, -0.13305121660232544, -0.2368384599685669, -0.029002811759710312, 0.21890844404697418, -0.17386910319328308, 0.11838045716285706, 0.07692836970090866, -0.16829544305801392, -0.08975541591644287, 0.06306953728199005, -0.2596879303455353, 0.0963478535413742, -0.17285911738872528, 0.002654070034623146, -0.09366783499717712, 0.15670761466026306, -0.1746528148651123, 0.1956237107515335, 0.11211807280778885, -0.10009830445051193, 0.28985437750816345, -0.19933369755744934, 0.12730596959590912, -0.10692965984344482, 0.029566273093223572, 0.30032092332839966, -0.03776053339242935, -0.06006066873669624, 0.05503245070576668, -0.1518293023109436, -0.008390070870518684, -0.32552406191825867, 0.28278616070747375, 0.05380241200327873, -0.07831200957298279, -0.11449487507343292, 0.06465979665517807, -0.2086312621831894, 0.09774968028068542, 0.019826598465442657, 0.06836224347352982, -0.0882977768778801, 0.15882445871829987, -0.08290822058916092, 0.216029554605484, -0.2383890300989151, 0.07584970444440842, -0.10294768214225769, 0.029903555288910866, -0.034282028675079346, -0.20419470965862274, 0.04691239818930626, 0.2776910364627838, -0.22645390033721924, -0.12400548160076141, 0.04410894587635994, -0.1665518879890442, -0.20599566400051117, 0.059620924293994904, -0.17891241610050201, 0.1589469313621521, -0.1906035989522934, 0.2905641794204712, -0.20655782520771027, 0.12610389292240143, 0.07747789472341537, -0.2631702125072479, -0.028579851612448692, 0.041119106113910675, 0.15438897907733917, 0.022870805114507675, 0.032857734709978104, 0.14627917110919952, -0.07763593643903732, 0.04731115698814392, 0.006459307856857777, -0.08510144799947739, -0.04692389816045761, -0.21282070875167847, -0.046368688344955444, -0.0939268246293068, 0.030629707500338554, 0.005195659585297108, -0.208734393119812, -0.1479659527540207, 0.10891781747341156, 0.008434913121163845, 0.21341904997825623, 0.0474119707942009, 0.025478389114141464, -0.06256238371133804, 0.1338978409767151, 0.10933691263198853, 0.2805905342102051, -0.008947048336267471, -0.1357296109199524, -0.05076891556382179, 0.05937142297625542, -0.07880181819200516, 0.0650668740272522, -0.11911069601774216, -0.15926790237426758, 0.01660565286874771, -0.036854490637779236, 0.057771217077970505, 0.21523407101631165, -0.14151471853256226, 0.07591316848993301, -0.2599124610424042, -0.06382458657026291, -0.10762658715248108, 0.05365271493792534, 0.0947250947356224, -0.1090814396739006, -0.10169763118028641, 0.032256051898002625, -0.07457449287176132, -0.08120384067296982, 0.00649093696847558, -0.06199953705072403, -0.030317112803459167, 0.07651042193174362, 0.006517891306430101, 0.10426290333271027, -0.007503712549805641, -0.0740915909409523, 0.1189894750714302, 0.04481064900755882, -0.12409506738185883, 0.028201065957546234, -0.2188984453678131, 0.042656220495700836, -0.009427054785192013, 0.15823699533939362, -0.025665320456027985, -0.011530717834830284, -0.03818419575691223, 0.016395078971982002, 0.004946079570800066, -0.05282087251543999, 0.019309239462018013, 0.08845251053571701, 0.03885110467672348, -0.05037178099155426, -0.0392775721848011, -0.15706655383110046, -0.016901956871151924, -0.10286351293325424, -0.0009402056457474828, -0.018465187400579453, -0.023875873535871506, -0.04659166559576988, 0.1582116335630417, -0.1258741319179535, -0.15024752914905548, -0.024311767891049385, 0.10550641268491745, 0.006214424967765808, 0.10451381653547287, 0.0034476639702916145, 0.029588820412755013, -0.18381266295909882, 0.056506283581256866, 0.13210275769233704, -0.07612989097833633, -0.07765588909387589, -0.0869724228978157, -0.05565926432609558, -0.15145224332809448, 0.011284739710390568, -0.06175687536597252, -0.08625943213701248, 0.037388160824775696, 0.11184044182300568, 0.06787962466478348, -0.03084353543817997, 0.004300117027014494, -0.024056056514382362, 0.021574614569544792, 0.09318862110376358, 0.05851240083575249, 0.10983559489250183, 0.06377803534269333, -0.04464592784643173, 0.035258904099464417, 0.1257081776857376, -0.011394260451197624, 0.1759210228919983, -0.15523786842823029, -0.13012810051441193, -0.055989690124988556, 0.11404165625572205, 0.08244854211807251, -0.07653247565031052, 0.03751249238848686, -0.004796788562089205, -0.24754822254180908, 0.1581309586763382, -0.19411557912826538, -0.10225078463554382, 0.03429105505347252, -0.15736162662506104, -0.08936479687690735, 0.17410531640052795, 0.06125694513320923, 0.038755279034376144, -0.10778892040252686, -0.09775685518980026, 0.0013064349768683314, -0.1253686398267746, -0.03270469233393669, -0.13308116793632507, 0.09332408010959625, 0.006294773425906897, 0.1535125970840454, 0.04693873971700668, -0.11161434650421143, 0.006424640771001577, 0.04086877033114433, 0.05507252737879753, 0.0902128592133522, -0.06382536888122559, -0.01087395939975977, -0.1958455741405487, 0.02239004336297512, 0.04754050076007843, 0.0952012911438942, 0.31850096583366394, -0.027442142367362976, -0.0664108619093895, 0.04330962523818016, 0.03737267851829529, 0.023147083818912506, -0.05689793452620506, 0.16772276163101196, -0.037901271134614944, 0.11066015064716339, -0.10800888389348984, 0.09699205309152603, -0.02149370312690735, -0.02287406288087368, -0.05157627537846565, 0.01991376467049122, -0.020973684266209602, 0.042733874171972275, -0.03719579055905342, -0.15488645434379578, 0.14699165523052216, -0.10972003638744354, -0.00872551929205656, -0.002682250225916505, -0.06901566684246063, 0.11769093573093414, -0.10864950716495514, 0.014859718270599842, 0.034603241831064224, -0.21984469890594482, 0.12347344309091568, 0.0065450649708509445, -0.09595569223165512, 0.05605581775307655, -0.07516833394765854, 0.11850114911794662, -0.02774595469236374, -0.005182560533285141, 0.19690139591693878, 0.021890787407755852, -0.02678816393017769, 0.14925847947597504, -0.01121541578322649, -0.0462472178041935, -0.14667515456676483, 0.07916715741157532, -0.012829397805035114, 0.1903822124004364, 0.11774884164333344, 0.0817490816116333, -0.06347991526126862, 0.09455111622810364, 0.15615566074848175, 0.10037374496459961, -0.1620376706123352, -0.18459120392799377, -0.016885777935385704, 0.1546815186738968, -0.05405798554420471, 0.2000463902950287, 0.03642025962471962, 0.16329438984394073, 0.17166532576084137, -0.015813371166586876, 0.013254271820187569, 0.0922711193561554, 0.041923534125089645, 0.12742584943771362, 0.0571659617125988, 0.05348667502403259, 0.11085940897464752, 0.21729029715061188, -0.16535472869873047, 0.0391046404838562, -0.1607964038848877, 0.19682727754116058, 0.15277306735515594, -0.0022991534788161516, 0.052178941667079926, 0.36088964343070984, -0.13364720344543457, 0.0939222127199173, -0.40581366419792175, 0.11344339698553085, -0.12125671654939651, -0.4415707290172577, -0.033933259546756744, 0.09149685502052307, -0.22331668436527252, 0.21798305213451385, 0.09494174271821976, 0.16455593705177307, -0.1937737911939621, -0.011451253667473793, -0.06478480994701385, 0.2814713716506958, -0.01661110669374466, 0.2350899875164032, -0.22538119554519653, -0.06080034747719765, -0.001735828467644751, 0.2368907928466797, 0.1078726053237915, 0.40787020325660706, 0.04265747219324112, -0.015005527064204216, -0.22987206280231476, 0.21520444750785828, 0.032794591039419174, -0.02041211538016796, 0.022127186879515648, -0.013094328343868256, -0.3555096685886383, 0.15108723938465118, -0.007946133613586426, -0.3362591862678528, 0.0027070455253124237, -0.10246758162975311, -0.4183819890022278, 0.17557086050510406, 0.07789799571037292, 0.2980588972568512, -0.15349890291690826, 0.13028644025325775, 0.13446339964866638, -0.043583642691373825, -0.12005828320980072, 0.20287421345710754, 0.05197376757860184, -0.10049904137849808, 0.06998051702976227, 0.12077716737985611, -0.047660451382398605, 0.02218216098845005, -0.06482496857643127, -0.012800002470612526, 0.06115017458796501, 0.025830049067735672, -0.08943343162536621, 0.009065032936632633, -0.06297273933887482, -0.040366869419813156, -0.036779336631298065, 0.13180901110172272, -0.03344673663377762, -0.02153986692428589, -0.007695696782320738, 0.06408874690532684, 0.05907171964645386, -0.09309916943311691, -0.021209826692938805, -0.05163239687681198, -0.08583392202854156, 0.04138020798563957, -0.15740443766117096, 0.07976675033569336, 0.143551766872406, 0.10368900746107101, 0.06534015387296677, 0.06824863702058792, -0.034278325736522675, -0.09751098603010178, 0.07649683207273483, -0.19516144692897797, -0.12345308065414429, -0.13281655311584473, -0.09085867553949356, 0.11609850078821182, -0.12190872430801392, 0.20193754136562347, -0.07466243207454681, 0.006783362943679094, 0.08489830791950226, -0.3844200074672699, 0.26828739047050476, 0.1033300906419754, -0.16996747255325317, 0.10232073068618774, -0.12470536679029465, 0.42218390107154846, -0.041889738291502, 0.03930499404668808, 0.18420922756195068, -0.08908316493034363, -0.17930905520915985, 0.23951268196105957, -0.02618054859340191, -0.0836109146475792, -0.26064157485961914, 0.11587975919246674, 0.0572851300239563, 0.15206953883171082, -0.07060416787862778, -0.011744612827897072, -0.24098840355873108, 0.1880745142698288, -0.012660744599997997, 0.2232540398836136, 0.025713738054037094, -0.10690970718860626, -0.43035706877708435, 0.10883541405200958, -0.12060584127902985, 0.3607760965824127, -0.16295766830444336, 0.024410663172602654, 0.12048467993736267, 0.08554507046937943, -0.04601835831999779, 0.41242387890815735, 0.04222102463245392, 0.04804208502173424, 0.3062072694301605, -0.09453392773866653, -0.06931019574403763, 0.30888831615448, 0.014320139773190022, -0.014829076826572418, -0.10157506167888641, 0.10753024369478226, -0.10346657782793045, -0.05965912342071533, 0.37547993659973145, 0.05595002323389053, -0.2068071961402893, 0.24360282719135284, 0.1284528374671936, 0.14320015907287598, -0.03378919139504433, -0.019073184579610825, 0.10616220533847809, -0.09153615683317184, 0.018338359892368317, 0.11194607615470886, -0.19314123690128326, 0.03503330796957016, -0.09937915205955505, 0.1029181182384491, 0.05750509351491928, 0.03010670840740204, -0.2435384839773178, -0.05162310227751732, 0.014872685074806213, 0.1352701038122177, 0.1046198308467865, 0.0006573105929419398, -0.11734715849161148, -0.17615218460559845, -0.15695805847644806, 0.07504025101661682, 0.19296801090240479, 0.02510700933635235, -0.15099218487739563, 0.03167250379920006, 0.19828233122825623, 0.018115106970071793, -0.04773133620619774, -0.051948294043540955, -0.2585574686527252, 0.05756870284676552, 0.02401622384786606, -0.24891339242458344, 0.006749022752046585, 0.09359602630138397, -0.22110112011432648, -0.007796543650329113, -0.08566591888666153, 0.06820739805698395, 0.07924699038267136, 0.07788082957267761, -0.14130228757858276, 0.05588259920477867, -0.11271107196807861, 0.04677749425172806, -0.17650295794010162, -0.06790581345558167, 0.2330564558506012, -0.1336335986852646, 0.09686312824487686, 0.077869713306427, -0.08000407367944717, 0.029143275693058968, 0.17209529876708984, 0.058920811861753464, -0.19895607233047485, -0.17001496255397797, -0.20159485936164856, -0.040669944137334824, -0.09612997621297836, 0.18173810839653015, -0.09651023149490356, -0.11541063338518143, -0.03455324098467827, 0.031177286058664322, 0.16128458082675934, 0.140346959233284, -0.102997325360775, -0.18293803930282593, -0.05762415751814842, 0.1829105168581009, 0.030983993783593178, -0.0037971476558595896, 0.23738086223602295, 0.39554932713508606, -0.08336417376995087, -0.050987403839826584, -0.03943406417965889, -0.007961753755807877, 0.05644957348704338, 0.016182972118258476, -0.01051955297589302, 0.12230098992586136, 0.20007666945457458, 0.1610356718301773, -0.06156576797366142, -0.15290400385856628, 0.004039938095957041, -0.002045807894319296, 0.2212749421596527, 0.11044370383024216, -0.33385705947875977, 0.15099897980690002, 0.06864739209413528, 0.32036924362182617, -0.16202306747436523, -0.11929626017808914, 0.09158483147621155, 0.09913557767868042, -0.12997014820575714, 0.12735693156719208, 0.034804534167051315, -0.003985489718616009, -0.26514485478401184, 0.01660662144422531, -0.10409267246723175, -0.015678515657782555, -0.04099227488040924, 0.0013771872036159039, -0.14235618710517883, 0.15912291407585144, 0.020322049036622047, 0.1934681236743927, 0.019539181143045425, 0.07408380508422852, -0.27371200919151306, 0.16385309398174286, -0.04023062437772751, 0.043395012617111206, -0.0911155641078949, -0.1108093112707138, 0.24892450869083405, -0.13819873332977295, -0.19743646681308746, 0.18176208436489105, 0.054514750838279724, -0.029184458777308464, 0.23787085711956024, -0.025611188262701035, -0.01929541490972042, 0.14596232771873474, -0.0985906571149826, -0.007718351669609547, -0.23672717809677124, 0.15259568393230438, -0.05317065864801407, 0.06580249220132828, 0.20973114669322968, -0.010332871228456497, -0.1196388229727745, 0.20329664647579193, -0.06513351947069168, 0.13789287209510803, -0.19676874577999115, -0.02353701740503311, 0.0930100530385971, -0.14250962436199188, 0.1302189826965332, -0.08966953307390213, -0.2122933566570282, -0.07230668514966965, 0.014913325197994709, 0.21699368953704834, -0.03234727680683136, 0.101258784532547, -0.027962520718574524, -0.04799826443195343, 0.0898766741156578, -0.030887097120285034, -0.0010262259747833014, 0.14967288076877594, -0.06950832903385162, 0.1051606759428978, -0.05719582363963127, 0.1986103504896164, -0.13532894849777222, -0.01747986674308777, -0.124037005007267, -0.03636005520820618, -0.049633320420980453, -0.021704161539673805, -0.005134169477969408, 0.012091838754713535, 0.018584968522191048, -0.025189295411109924, 0.14183126389980316, -0.1803799271583557, -0.0029471388552337885, 0.0022681618575006723, -0.023702535778284073, 0.08117691427469254, -0.00986181478947401, 0.007815920747816563, 0.13874641060829163, 0.08241771161556244, -0.19013865292072296, 0.07109292596578598, 0.20174629986286163, -0.008588649332523346, -0.14528588950634003, -0.23503562808036804, 0.26418259739875793, -0.2571679949760437, -0.06263319402933121, 0.18385322391986847, -0.21618761122226715, -0.042503099888563156, 0.0425870344042778, 0.17791582643985748, -0.0023276612628251314, -0.18191663920879364, -0.05599886178970337, 0.05639814957976341, 0.02306128479540348, 0.24936838448047638, 0.08061615377664566, -0.23124024271965027, -0.20358368754386902, -0.2120445966720581, 0.2692161500453949, 0.11286661028862, 0.10567184537649155, -0.12310625612735748, -0.04425305128097534, 0.03758851811289787, 0.29601627588272095, -0.01782207563519478, 0.09547170251607895, 0.14950287342071533, -0.23753099143505096, -0.06419703364372253, 0.29700079560279846, -0.26854556798934937, -0.009478792548179626, 0.09068264812231064, -0.17926232516765594, 0.024364721029996872, 0.13573522865772247, 0.1684434711933136, -0.03508451208472252, -0.08369891345500946, 0.089199960231781, -0.26511138677597046, 0.17906856536865234, -0.05600593239068985, -0.29348939657211304, 0.01506611704826355, 0.06355110555887222, 0.13131138682365417, 0.04348892718553543, 0.07041281461715698, 0.26526325941085815, -0.09945274889469147, -0.0762171596288681, 0.12217479944229126, -0.14872829616069794, 0.05855513736605644, -0.05938698351383209, 0.14402951300144196, 0.0072724586352705956, 0.2177644520998001, -0.010488811880350113, 0.1622287631034851, -0.23212209343910217, -0.07791858166456223, -0.09934843331575394, 0.23277005553245544, -0.14137063920497894, 0.18984264135360718, -0.12363636493682861, -0.08003491908311844, -0.09667395800352097, 0.28680089116096497, -0.15096335113048553, -0.06936898827552795, 0.12662357091903687, -0.16125886142253876, 0.02667705900967121, 0.24608613550662994, 0.0672667920589447, -0.14738500118255615, 0.3142881989479065, -0.11165238916873932, 0.08941219002008438, 0.024381544440984726, -0.15876638889312744, 0.1612076461315155, -0.11455807834863663, 0.08746567368507385, -0.06774179637432098, -0.0538586750626564, -0.0641867071390152, -0.06963162124156952, 0.04385831952095032, 0.01828809268772602, -0.08952363580465317, -0.0718056783080101, 0.11656024307012558, 0.2913042902946472, -0.04693244397640228, 0.012255962006747723, -0.04611203446984291, -0.06858392804861069, -0.09176191687583923, 0.07528247684240341, 0.4302021563053131, -0.2655879259109497, 0.8305714130401611, -0.7780223488807678, -0.04776544123888016, 0.9116206765174866, 1.0758697986602783, -0.5511763095855713, 0.17963969707489014, 0.15746460855007172, -0.315586656332016, -0.44507139921188354, 0.3032594323158264, -0.622432291507721, 0.010977420024573803, 0.447331041097641, -0.07252181321382523, 0.1989952027797699, -0.05172735080122948, 0.13092026114463806, 0.2091159075498581, -0.03574255481362343, 0.20893025398254395, -0.05959640443325043, -0.01748599112033844, 0.0274039339274168, -0.022342756390571594, -0.013579563237726688, 0.3003651201725006, 0.023585082963109016, 0.2483646720647812, 0.039485231041908264, -0.10913100838661194, -0.005754280369728804, -0.2968558669090271, 0.15349267423152924, -0.030615106225013733, -0.07680502533912659, -0.1361924260854721, 0.09729918092489243, -0.08868677914142609, 0.41555657982826233, 0.08230306208133698, 0.10683951526880264, 0.17814934253692627, 0.010244547389447689, -0.006576551124453545, 0.40809154510498047, 0.37375134229660034, -0.015617672353982925, 0.236655130982399, 0.08976970613002777, -0.05202321708202362, -0.09057840704917908, 0.11995814740657806, -0.2609589397907257, 0.004479725379496813, -0.1389063149690628, 0.26784905791282654, -0.46554702520370483, -0.05737242102622986, 0.1515338122844696, 0.015755033120512962, -0.1271820366382599, 0.32041797041893005, -0.24176162481307983, 0.08879664540290833, -0.23004832863807678, 0.04762880504131317, 0.10756373405456543, 0.029886499047279358, -0.3286987841129303, -0.1394687443971634, 0.15316513180732727, -0.06294267624616623, -0.038572899997234344, 0.004357106518000364, 0.07451720535755157, -0.21219438314437866, -0.045091599225997925, -0.14308075606822968, -0.272662878036499, -0.26861676573753357, 0.2642693519592285, 0.15589655935764313, -0.029617803171277046, -0.1475895196199417, -0.15776371955871582, 0.0013197587104514241, 0.25808534026145935, -0.2441379874944687, 0.2499600499868393, -0.27776286005973816, 0.14046302437782288, -0.10439655929803848, 0.009863916784524918, -0.02996966615319252, -0.08359231799840927, 0.1630169153213501, 0.0730876699090004, 0.290136456489563, 0.3109475076198578, 0.18211480975151062, 0.22804082930088043, 0.18065471947193146, -0.2626808285713196, -0.18457189202308655, -0.11735198646783829, -0.042361970990896225, -0.15284258127212524, 0.311807781457901, -0.10844948142766953, -0.13648344576358795, 0.17261569201946259, 0.08335328847169876, 0.26448172330856323, -0.486984521150589, -0.39653342962265015, 0.08143255859613419, -0.03486572951078415, -0.10900730639696121, -0.28273820877075195, 0.04391123726963997, 0.29821646213531494, 0.2176891267299652, 0.03291747346520424, -0.22721366584300995, -0.026300763711333275, 0.2027771919965744, 0.18414615094661713, 0.2868908941745758, -0.16239820420742035, -0.2145528495311737, 0.188409224152565, 0.33498266339302063, 0.18512962758541107, 0.1083812266588211, -0.3975313901901245, 0.19226767122745514, -0.20944271981716156, 0.22406217455863953, -0.10399443656206131, -0.004641780164092779, 0.0009316532523371279, -0.022436385974287987, 0.01174086332321167, -0.11311858892440796, -0.23051780462265015, -0.0607396736741066, -0.09582331776618958, 0.13815778493881226, -0.15415562689304352, -0.26168906688690186, -0.3233070969581604, 0.3126975893974304, -0.0008589296485297382, 0.11792219430208206, -0.06173667311668396, -0.05798543244600296, 0.0019194198539480567, -0.19413723051548004, 0.2099841982126236, 0.2576896846294403, -0.29088449478149414, -0.3270319402217865, 0.13921456038951874, 0.329510360956192, -0.30477389693260193, 0.05671889707446098, 0.5585985779762268, 0.09722184389829636, 0.016899192705750465, 0.5012985467910767, 0.21994881331920624, -0.21570585668087006, 0.16312919557094574, 0.13490912318229675, 0.27752190828323364, -0.20442406833171844, 0.11918140947818756, -0.1121843159198761, -0.17523519694805145, 0.13757416605949402, -0.10730566829442978, 0.043374594300985336, -0.10558096319437027, -0.00879527349025011, -0.06044661998748779, 0.018753204494714737, 0.13087321817874908, -0.09260088950395584, 0.37117406725883484, 0.1733284443616867, -0.23560591042041779, 0.31962546706199646, 0.019973287358880043, 0.17382241785526276, -0.12426748871803284, -0.0573149174451828, -0.18733179569244385, 0.03534577786922455, -0.4509243667125702, -0.15346726775169373, -0.2367326021194458, -0.24704919755458832, -0.009315618313848972, -0.11489581316709518, -0.35628950595855713, 0.13859619200229645, -0.02512938156723976, 0.1831325739622116, -0.07666067034006119, 0.1774502843618393, 0.005426529794931412, 0.1791117787361145, 0.023375609889626503, 0.2871028780937195, 0.12288933992385864, 0.042886048555374146, -0.0025511151179671288, 0.2834891378879547, -0.2781568169593811, -0.122000552713871, 0.20622603595256805, -0.0778854489326477, -0.08190623670816422, -0.2206697165966034, 0.18570661544799805, -0.16247674822807312, 0.058933764696121216, 0.15263240039348602, 0.0009209508425556123, -0.10322947800159454, -0.030748149380087852, 0.004497326444834471, 0.11049797385931015, -0.21435412764549255, 0.012443756684660912, -0.3250540792942047, 0.28245994448661804, -0.1430925875902176, 0.25817951560020447, -0.08631110936403275, -0.11970669031143188, 0.09387506544589996, 0.04560977965593338, 0.11161060631275177, 0.17332784831523895, -0.2394057959318161, 0.20805718004703522, 0.09890398383140564, -0.11542011797428131, 0.13660605251789093, 0.1557244062423706, -0.2081766128540039, 0.03659898042678833, 0.23794403672218323, 0.11266231536865234, 0.3726736903190613, -0.1945812702178955, 0.00599663145840168, 0.3615292012691498, 0.32726427912712097, 0.1757199466228485, 0.006161887664347887, -0.3009698688983917, 0.009505032561719418, -0.3456270098686218, 0.24788087606430054, 0.07045453786849976, 0.13787081837654114, -0.13747628033161163, 0.12557478249073029, -0.25020670890808105, 0.19278733432292938, -0.26190680265426636, -0.25203177332878113, -0.09882666915655136, 0.18606162071228027, -0.05830499157309532, 0.05880240723490715, -0.163132444024086, 0.028068313375115395, -0.05186844989657402, 0.06643755733966827, 0.06316989660263062, -0.05044255033135414, 0.015581688843667507, 0.06800297647714615, -0.006230566650629044, -0.1296866238117218, 0.059292200952768326, -0.18943825364112854, 0.1546265184879303, -0.04248824343085289, -0.015289060771465302, 0.20749802887439728, -0.21623943746089935, -0.06824490427970886, 0.05494408309459686, -0.12603898346424103, -0.19402819871902466, 0.2132072150707245, 0.20949110388755798, -0.04231094941496849, -0.15460331737995148, -0.15184299647808075, -0.18675114214420319, 0.16561450064182281, 0.07349564135074615, 0.04127753525972366, -0.4015417993068695, 0.03559257090091705, 0.05591654032468796, -0.11270962655544281, -0.13356620073318481, 0.1573609858751297, -0.1571224480867386, -0.194660484790802, -0.09706384688615799, 0.20819780230522156, -0.05936771258711815, 0.10193286836147308, -0.10830046236515045, -0.13241718709468842, -0.03447171300649643, 0.18312042951583862, -0.1482933610677719, -0.007158820517361164, 0.06675664335489273, -0.16300073266029358, 0.029304824769496918, 0.22390003502368927, 0.2432480752468109, 0.08860209584236145, -0.24769671261310577, 0.034503038972616196, -0.058596644550561905, 0.01963011547923088, -0.20147879421710968, 0.11564929038286209, -0.04272310435771942, -0.1258075088262558, 0.11527383327484131, 0.25487056374549866, -0.2057642936706543, 0.06467662751674652, -0.10891664028167725, 0.007389220409095287, -0.13675306737422943, 0.08808581531047821, -0.19538317620754242, -0.3079833686351776, -0.07822202891111374, 0.2006281465291977, -0.2140071988105774, 0.08398617058992386, 0.06153098866343498, 0.051113102585077286, -0.0207546167075634, -0.16810868680477142, -0.13536930084228516, 0.03350940719246864, -0.32018911838531494, 0.07296104729175568, -0.9051380157470703, 0.03438330069184303, 0.1121591106057167, -0.013567997142672539, 0.12378491461277008, -0.22931058704853058, 0.2597968876361847, -0.058775946497917175, -0.15008294582366943, -0.08352086693048477, -0.006967479363083839, 0.12228140234947205, 0.017094483599066734, -0.09133037179708481, 0.1412685066461563, -0.08520948141813278, -0.028514448553323746, 0.1253954917192459, -0.14218784868717194, -0.19750915467739105, -0.11144480854272842, 0.1810695379972458, 0.16438207030296326, 0.18065667152404785, -0.317155659198761, 0.11698076874017715, 0.08557947725057602, -0.18557517230510712, 0.30482345819473267, 0.09733068943023682, -0.13285113871097565, 0.27117496728897095, 0.07426845282316208, -0.04097661375999451, -0.24016566574573517, -0.004410391673445702, 0.38523033261299133, 0.12819811701774597, -0.18221025168895721, -0.3785386383533478, -0.22711092233657837, -0.20496979355812073, 0.3416990637779236, 0.01831829734146595, -0.03275202959775925, -0.31311503052711487, 0.04067687690258026, -0.10313990712165833, -0.3791614770889282, 0.06403407454490662, -0.06679443269968033, -0.1892538070678711, -0.0025125325191766024, -0.1809881180524826, 0.3349131643772125, 0.18450461328029633, 0.062073614448308945, -0.25165361166000366, 0.09088273346424103, 0.00924062542617321, -0.17269472777843475, 0.0905447006225586, 0.1593058854341507, -0.13867856562137604, -0.271450936794281, 0.023698046803474426, 0.3540153205394745, -0.2179415225982666, -0.08666001260280609, 0.20212090015411377, 0.03537343069911003, 0.05899452790617943, 0.0640973448753357, 0.23594145476818085, -0.06224076822400093, -0.3753482401371002, 0.3775867819786072, 0.2664867341518402, -0.07249367982149124, 0.16933059692382812, 0.014711601659655571, -0.08478627353906631, -0.2697235941886902, 0.05508038401603699, 0.13871143758296967, 0.11933864653110504, 0.09897734224796295, -0.17309819161891937, -0.32248735427856445, -0.03451427072286606, 0.16237683594226837, 0.24572139978408813, -0.0711701363325119, -0.2358357161283493, 0.1353672593832016, -0.38036850094795227, 0.021092543378472328, 0.3267233669757843, -0.04657023027539253, -0.0979580283164978, -0.023634886369109154, 0.06947831064462662, 0.25187259912490845, 0.17470107972621918, 0.13926959037780762, -0.15754681825637817, 0.199746236205101, -0.14945365488529205, -0.23991918563842773, 0.19204938411712646, 0.00047738125431351364, 0.07395077496767044, -0.10809395462274551, 0.028228428214788437, 0.2085793912410736, -0.1037575751543045, 0.014842228032648563, -0.0067476327531039715, 0.0387871116399765, -0.004243042320013046, -0.02576444484293461, 0.0016527712577953935, 0.10099717974662781, -0.0632893517613411, -0.1309042125940323, 0.008945735171437263, 0.03070758283138275, -0.08372130990028381, -0.06836766749620438, -0.08466719090938568, -0.1802075207233429, 0.16354599595069885, -0.04428170993924141, 0.2518156170845032, -0.07224997878074646, 0.08381626009941101, 0.06258632987737656, 0.09621978551149368, 0.08266394585371017, 0.2267329841852188, 0.08365679532289505, -0.004146195016801357, 0.06721945852041245, -0.2736228108406067, -0.037373367697000504, 0.1716647893190384, -0.10036493092775345, 0.011036954820156097, -0.1366056352853775, 0.046607211232185364, -0.0016364778857678175, -0.14949572086334229, -0.11489907652139664, 0.09421864151954651, 0.09491871297359467, -0.03546493500471115, 0.0680745467543602, 0.08988051861524582, -0.1544993817806244, -0.06531467288732529, 0.0776020735502243, -0.004980068188160658, -0.13424184918403625, -0.13213002681732178, 0.010399474762380123, 0.012466865591704845, -0.18197152018547058, -0.11605051159858704, 0.04926880821585655, 0.1727222502231598, 0.04187497869133949, 0.2009367197751999, 0.011798570863902569, 0.019757816568017006, 0.06461653858423233, -0.06625513732433319, -0.11513233184814453, 0.008611227385699749, 0.0707368552684784, 0.013091924600303173, -0.10344582051038742, 0.23315124213695526, -0.1752287596464157, -0.037923961877822876, 0.08367674797773361, 0.03050106391310692, 0.04698044806718826, 0.22195911407470703, 0.10264749079942703, -0.0926058292388916, 0.07821936160326004, -0.06897510588169098, 0.164321169257164, 0.1716643124818802, 0.02728538028895855, 0.214602530002594, 0.18482311069965363, 0.16302406787872314, 0.07337339967489243, 0.09432125836610794, 0.07160980254411697, 0.21398496627807617, 0.0012781477998942137, -0.20531412959098816, 0.16870491206645966, 0.008778813295066357, 0.060784969478845596, 0.04754931852221489, -0.008123049512505531, 0.16401174664497375, 0.02193129062652588, 0.16851748526096344, -0.008419832214713097, 0.15579664707183838, -0.1361078917980194, 0.3518706262111664, -0.25146210193634033, -0.03838624060153961, 0.0644240453839302, 0.07023254781961441, 0.06187853217124939, 0.05100877210497856, -0.055499061942100525, -0.16412270069122314, 0.23239868879318237, -0.10896440595388412, 0.1800360530614853, -0.16532760858535767, 0.1602732539176941, 0.08403375744819641, -0.05601438507437706, -0.04853922501206398, -0.12968838214874268, -0.11678879708051682, 0.0323709174990654, -0.046647049486637115, -0.017400875687599182, -0.16836827993392944, -0.20220082998275757, 0.3340471386909485, -0.10344722121953964, 0.056364767253398895, 0.1318248063325882, -0.11084434390068054, 0.0570787638425827, -0.4098164737224579, 0.10885202139616013, 0.17794537544250488, 0.21783095598220825, 0.19113315641880035, -0.05842604860663414, 0.24114814400672913, -0.2120584100484848, -0.12308936566114426, 0.2813069224357605, -0.09762582182884216, -0.11232097446918488, -0.2944161295890808, 0.01833297684788704, -0.15004131197929382, 0.06854455173015594, -0.0013814682606607676, -0.05136239156126976, -0.2362421751022339, -0.13691186904907227, 0.012499147094786167, 0.08220645040273666, 0.22060002386569977, -0.16993927955627441, -0.16918042302131653, -0.06567705422639847, -0.06575541198253632, -0.27499711513519287, -0.07356421649456024, 0.23223741352558136, 0.05620366334915161, -0.10142168402671814, 0.10018397122621536, -0.053891684859991074, 0.10162876546382904, 0.10619033128023148, 0.06428621709346771, -0.09228677302598953, 0.13044747710227966, -0.08436603844165802, 0.07006589323282242, -0.037542540580034256, -0.00015600555343553424, -0.18775378167629242, 0.012583349831402302, -0.20707771182060242, 0.09759163856506348, 0.06279953569173813, 0.19337405264377594, 0.007577057462185621, -0.16536010801792145, -0.029812868684530258, 0.030696077272295952, -0.14456744492053986, -0.07430839538574219, -0.02902933396399021, -0.0736631453037262, -0.05688593164086342, 0.16335032880306244, 0.01808597892522812, 0.12927600741386414, -0.07424135506153107, 0.170793816447258, 0.1674920618534088, -0.00819107424467802, -0.16381309926509857, -0.13459724187850952, -0.21899324655532837, 0.22892285883426666, 0.07802896946668625, 0.2918032705783844, 0.19588243961334229, 0.04988107457756996, -0.00732777314260602, 0.15717186033725739, 0.20145757496356964, -0.012983960099518299, -0.0958821251988411, 0.020967505872249603, -0.0009198834886774421, 0.12490232288837433, 0.06750161200761795, -0.044159598648548126, -0.23445574939250946, -0.21821455657482147, 0.11975357681512833, 0.12799125909805298, -0.18592679500579834, 0.26387909054756165, -0.10813187062740326, -0.19209767878055573, -0.1193537563085556, 0.10113230347633362, 0.05722660943865776, -0.0814296156167984, 0.024720031768083572, -0.11400596052408218, 0.2557527422904968, 0.10391674190759659, 0.1811523139476776, 0.042511437088251114, 0.02082599326968193, -0.015864567831158638, -0.18413816392421722, 0.06571808457374573, 0.051933057606220245, 0.018344277516007423, -0.07247600704431534, -0.15602533519268036, -0.06571448594331741, 0.013127168640494347, -0.0994657427072525, -0.06945963948965073, 0.13498187065124512, 0.3476931154727936, 0.1469099372625351, -0.15754641592502594, -0.15856625139713287, -0.1618472784757614, 0.1776253581047058, 0.31860676407814026, 0.16326390206813812, 0.18066546320915222, 0.20680280029773712, -0.0029887352138757706, -0.1463705599308014, -0.1980632096529007, 0.08081354945898056, -0.01126611977815628, -0.09304489195346832, -0.014434712007641792, -0.07281908392906189, -0.019778290763497353, 0.22390244901180267, 0.07255475223064423, 0.07594118267297745, 0.032592110335826874, 0.12203961610794067, 0.06128393113613129, 0.0868188813328743, -0.008145675994455814, 0.14280660450458527, -0.006102493032813072, 0.11660129576921463, -0.22562365233898163, 0.2861242890357971, 0.0022336733527481556, -0.16139546036720276, -0.16282393038272858, -0.11321914941072464, 0.06851760298013687, -0.09323378652334213, 0.05231056734919548, -0.02799423411488533, -0.045014530420303345, -0.001293657231144607, -0.060822248458862305, 0.05211692303419113, -0.055220331996679306, 0.1338537633419037, -0.221649631857872, -0.1288595199584961, 0.00912837591022253, -0.04578882083296776, -0.022734548896551132, -0.03917301446199417, 0.18038541078567505, -0.19099389016628265, -0.08635933697223663, 0.025324376299977303, -0.05140941962599754, -0.05918951705098152, -0.07938790321350098, 0.13980518281459808, 0.15992417931556702, -0.014158064499497414, -0.07744451612234116, 0.14602172374725342, 0.20531004667282104, 0.024835100397467613, 0.1266387552022934, 0.03953531011939049, -0.10326186567544937, -0.1075105220079422, 0.06612256914377213, -0.1023184061050415, -0.2810308039188385, -0.07211609929800034, 0.03463539853692055, -0.09616746753454208, -0.005914260633289814, 0.08467169106006622, 0.16183903813362122, -0.1336476355791092, -0.06781010329723358, 0.04325550049543381, 0.06929141283035278, -0.024638287723064423, -0.11551359295845032, 0.09584091603755951, -0.04691411182284355, -0.014758527278900146, 0.01286132913082838, 0.060763973742723465, -0.052680980414152145, -0.0134297339245677, 0.19397486746311188, -0.03733683004975319, -0.03632344305515289, -0.07688336074352264, 0.2001405954360962, -0.16962508857250214, -0.1562822461128235, 0.13868755102157593, 0.2092812955379486, 0.00812163483351469, 0.08687561750411987, 0.05711045861244202, -0.07302802056074142, 0.14526471495628357, -0.17279450595378876, 0.0867905393242836, -0.09224686771631241, -0.06771300733089447, -0.25474563241004944, -0.0829894095659256, -0.013180346228182316, 0.1774086058139801, -0.02795468084514141, 0.12942832708358765, 0.01485336385667324, -0.1446523517370224, -0.0028571472503244877, -0.3001469671726227, 0.23528821766376495, 0.12071602791547775, -0.1713300496339798, 0.2245549112558365, -0.06951632350683212, 0.07652531564235687, -0.1923970729112625, 0.16513767838478088, -0.06046651676297188, 0.009885274805128574, 0.10698115825653076, 0.02655569091439247, 0.15434180200099945, -0.09027539938688278, 0.007632765453308821, 0.2892512381076813, -0.08559989929199219, 0.030580947175621986, -0.0897555872797966, 0.20018869638442993, -0.10243257135152817, 0.08549486100673676, -0.10818342864513397, 0.21472980082035065, 0.030116664245724678, 0.04373245686292648, 0.10379260778427124, 0.22831401228904724, -0.12497706711292267, 0.002358986996114254, 0.06214519590139389, -0.11002709716558456, 0.2550629675388336, -0.09575311094522476, -0.03079685941338539, -0.19408562779426575, -0.1377892941236496, 0.1943662017583847, 0.003843513783067465, -0.13467130064964294, 0.04615653306245804, -0.12248574197292328, 0.010947410017251968, 0.07529036700725555, -0.22754643857479095, 0.21382644772529602, 0.12271519750356674, 0.06480788439512253, 0.31298375129699707, -0.46085017919540405, 0.16359692811965942, 0.07131327688694, -0.013727020472288132, 0.029627438634634018, -0.12412998825311661, -0.2215312272310257, 0.03946433216333389, -0.17067928612232208, -0.03689439594745636, 0.0988236665725708, -0.02938472479581833, -0.06882922351360321, 0.2462751269340515, -0.13103240728378296, -0.05568050965666771, -0.04957440868020058, 0.151470348238945, -0.016949893906712532, -0.07858135551214218, -0.07948409765958786, 0.20061978697776794, 0.11190938949584961, -0.13182857632637024, 0.010484864003956318, 0.2022319734096527, -0.036821965128183365, 0.0037088284734636545, 0.024076631292700768, 0.026404714211821556, 0.03233419731259346, 0.101385697722435, 0.09963641315698624, 0.0977107435464859, -0.18051816523075104, 0.0723395124077797, -0.03574911504983902, 0.06503482162952423, 0.19034309685230255, -0.0833834707736969, -0.015571417286992073, -0.052014436572790146, 0.05278806760907173, 0.08457977324724197, 0.014706826768815517, 0.011045238003134727, 0.2563236355781555, -0.6560602188110352, 0.38613638281822205, 0.10697199404239655, -0.027752159163355827, -0.1749783307313919, -0.21914555132389069, 0.21317008137702942, 0.04978251829743385, 0.04236849024891853, 0.009985005483031273, 0.013387436047196388, 0.22360382974147797, 0.09613057971000671, -0.15439006686210632, 0.16761182248592377, -0.20291510224342346, -0.11924619972705841, -0.1772352010011673, -0.10333836078643799, 0.16206271946430206, 0.26836884021759033, -0.0763232409954071, 0.025611937046051025, -0.2947564125061035, 0.2207939624786377, -0.303643137216568, -0.019322792068123817, 0.2267828732728958, 0.08062729984521866, -0.3942839503288269, -0.25606781244277954, -0.18142427504062653, -0.3961822986602783, 0.20225754380226135, -0.11669012159109116, 0.25528332591056824, -0.306412935256958, -0.14896191656589508, -0.32679277658462524, 0.1722426563501358, 0.10306515544652939, 0.20416636765003204, -0.3755015432834625, -0.1349705308675766, -0.1640883982181549, -0.072726309299469, -0.16132760047912598, 0.13802564144134521, -0.154334157705307, -0.07005666941404343, -0.19102352857589722, 0.2441859245300293, -0.014026542194187641, 0.08092599362134933, -0.5981417894363403, -0.00557518657296896, 0.10803143680095673, 0.21561792492866516, 0.1947263777256012, -0.1427670419216156, 0.21346169710159302, 0.02500259317457676, -0.1683124154806137, 0.15814130008220673, -0.21292121708393097, 0.23371592164039612, -0.39285534620285034, -0.03506753593683243, -0.013171921484172344, 0.02839028462767601, -0.05163463577628136, 0.06311246007680893, 0.13388466835021973, 0.1562754511833191, -0.17986749112606049, 0.033153366297483444, -0.036741722375154495, 0.04154666140675545, 0.13472247123718262, -0.10208160430192947, -0.028660601004958153, 0.10818848758935928, 0.05044448375701904, 0.020972784608602524, -0.2679087221622467, -0.058440957218408585, -0.13036218285560608, 0.06441082060337067, -0.1915198564529419, -0.01484417449682951, -0.22074663639068604, -0.15324757993221283, -0.21983939409255981, -0.04249510169029236, -0.04829622432589531, -0.16766639053821564, 0.18749520182609558, 0.12607255578041077, -0.04535140097141266, 0.15396472811698914, -0.1264115869998932, -0.04272134602069855, -0.08046227693557739, 0.027579698711633682, 0.007797394413501024, -0.10257001966238022, 0.0764509066939354, -0.0236898772418499, 0.1947154849767685, -0.06999825686216354, -0.03373263403773308, -0.08024973422288895, 0.052513957023620605, 0.026987280696630478, 0.04653053730726242, 0.11925450712442398, 0.22442835569381714, 0.1417594999074936, -0.10970503091812134, -0.04920579120516777, -0.025304477661848068, 0.15309707820415497, 0.21667437255382538, 0.2114805430173874, -0.07618410140275955, -0.22949299216270447, 0.09485006332397461, 0.08528485149145126, 0.09661198407411575, 0.010927784256637096, 0.47191122174263, -0.08184322714805603, -0.7745859026908875, 0.28370898962020874, 0.5498541593551636, -0.444335013628006, 0.18850940465927124, -1.0672087669372559, -0.28460830450057983, -0.4945169687271118, 0.7870340347290039, -0.9105517864227295, -0.5336747765541077, -0.9230543971061707, 0.38425013422966003, -0.8012954592704773, 0.2949141561985016, -0.7646855115890503, -0.13060958683490753, -0.07792123407125473, -0.06557314842939377, -0.04586953669786453, 0.11373045295476913, 0.20448727905750275, -0.6044539213180542, 0.03473116084933281, -0.18210287392139435, -0.13574957847595215, 0.18822328746318817, 0.0660066083073616, -0.05435052886605263, -0.10318952798843384, -0.34614551067352295, -0.10380585491657257, 0.12474671751260757, -0.19343480467796326, -0.04761362448334694, -0.22488832473754883, -0.10060804337263107, 0.46369704604148865, -0.19185826182365417, 0.031215831637382507, 0.08975928276777267, -0.3883751332759857, 0.42746418714523315, -0.14520688354969025, -0.13606958091259003, 0.12613344192504883, 0.015623479150235653, 0.001863750396296382, 0.0455341674387455, -0.3482879102230072, -0.11191029101610184, 0.2989116311073303, 0.3419399559497833, 0.18074136972427368, -0.039743684232234955, 0.23653265833854675, -0.11226574331521988, -0.07257206737995148, 0.0033982188906520605, -0.422626793384552, -0.09037160873413086, 0.12082266062498093, 0.09120726585388184, -0.1959928721189499, 0.2399802953004837, -0.013895457610487938, -0.5722190141677856, -0.5052778124809265, -0.03393895551562309, 0.06470481306314468, -0.23897311091423035, 0.03544364497065544, -0.12105873972177505, -0.07201121002435684, 0.158689945936203, -0.011280329897999763, 0.17647719383239746, -0.1982571929693222, -0.023708075284957886, -0.08355899155139923, 0.8152157664299011, -0.16725493967533112, -0.6441194415092468, -0.4221683442592621, 0.08361899107694626, 0.2841215431690216, -0.05357156693935394, 0.3836837410926819, 0.09033627063035965, 0.019015304744243622, 0.048699069768190384, 0.26387447118759155, -0.40267354249954224, -0.05149286240339279, -0.14109958708286285, -0.2166236788034439, -0.23136697709560394, -0.1120714321732521, -0.16654808819293976, -0.37076959013938904, -0.07791566103696823, 0.05315641313791275, 0.21504199504852295, -0.24768269062042236, 0.2047966718673706, 0.3810996413230896, -0.2518540322780609, 0.2047566920518875, -0.11171012371778488, -0.06293202191591263, 0.6103610396385193, 0.23505684733390808, 0.0365779809653759, -0.15137505531311035, 0.24954046308994293, -0.08248458802700043, -0.25377556681632996, 0.3888913094997406, -0.2914524972438812, -0.18134362995624542, 0.057416945695877075, 0.0021934842225164175, -0.16822992265224457, 0.1231054812669754, -0.057783592492341995, 0.20004971325397491, -0.23334015905857086, 0.3277949392795563, -0.02280750684440136, -0.08553219586610794, 0.19622933864593506, 0.013035861775279045, 0.04992872476577759, -0.010018541477620602, -0.02217831090092659, -0.017091864719986916, -0.17585626244544983, 0.3075692355632782, -0.24473726749420166, -0.06170940026640892, -0.12454724311828613, 0.13236567378044128, 0.2659011781215668, 0.1536877155303955, -0.05784571170806885, 0.0224483460187912, -0.1395147293806076, -0.39989304542541504, -0.02477383054792881, 0.07173324376344681, 0.0005674600251950324, -0.04192638769745827, -0.31306004524230957, 0.17232263088226318, 0.2611967623233795, -0.014911241829395294, -0.3055920898914337, -0.07382594794034958, 0.06396625190973282, 0.17459097504615784, -0.16919825971126556, 0.2535422444343567, 0.1002393439412117, -0.06805897504091263, 0.042399968951940536, -0.267845094203949, 0.16998589038848877, -0.09786863625049591, -0.03675869479775429, 0.09590382874011993, 0.03356766328215599, 0.17409902811050415, 0.09307847172021866, 0.002753086155280471, 0.31639695167541504, -0.07748834788799286, -0.08128008991479874, -0.24852442741394043, -0.140086367726326, 0.14658264815807343, 0.13092032074928284, -0.08237884938716888, 0.03758678957819939, -0.0047770412638783455, 0.08279478549957275, 0.23997953534126282, -0.16580474376678467, 0.19399026036262512, -0.031147900968790054, 0.1299893856048584, -0.039531636983156204, -0.003862605430185795, 0.18227548897266388, 0.13361896574497223, -0.35438889265060425, -0.27292731404304504, 0.07902631163597107, 0.07064170390367508, -0.08625904470682144, 0.24295881390571594, -0.1995418220758438, 0.010430101305246353, 0.2838267982006073, -0.22284923493862152, -0.1460103541612625, -0.14959071576595306, -0.048868875950574875, -0.23623718321323395, -0.03988338261842728, -0.3205197751522064, -0.25998935103416443, 0.3180945813655853, 0.2025212049484253, 0.24438278377056122, -0.2121199667453766, 0.20064377784729004, -0.11684256047010422, -0.13563762605190277, -0.15357324481010437, -0.5745617151260376, 0.21993796527385712, 0.01541229523718357, -0.2733021080493927, -0.20805615186691284, 0.22331328690052032, 0.025975298136472702, -0.2151496410369873, 0.3424282968044281, -0.3201376497745514, 0.06853188574314117, 0.15913130342960358, -0.048941925168037415, 0.14333872497081757, 0.36531922221183777, 0.01064675860106945, 0.22701388597488403, 0.06897448003292084, 0.17131561040878296, 0.16836151480674744, -0.05761037766933441, 0.06379418820142746, -0.010757829993963242, 0.014137065969407558, 0.056581929326057434, -0.07828646898269653, -0.1192203238606453, 0.29970523715019226, -0.05494826287031174, 0.022422553971409798, 0.11180846393108368, -0.15197518467903137, 0.006717677228152752, 0.002685947809368372, 0.29905036091804504, 0.22832250595092773, 0.17877650260925293, 0.10107840597629547, -0.18070849776268005, -0.08415188640356064, 0.021373286843299866, -0.001260923221707344, 0.01188024040311575, -0.35037797689437866, 0.36620378494262695, 0.1255088597536087, -0.39408549666404724, 0.42926025390625, 0.08687862008810043, -0.3108183741569519, -0.04057682678103447, -0.49762189388275146, -0.43678709864616394, -0.07415641844272614, -0.18784503638744354, -0.048963528126478195, -0.04536118730902672, -0.19165566563606262, -0.11427664756774902, 0.27146151661872864, -0.028863709419965744, 0.03013196587562561, 0.11591117084026337, -0.03946704417467117, -0.23326611518859863, 0.1517205387353897, -0.3032802939414978, -0.2811615467071533, -0.004280192777514458, 0.2297113835811615, -0.23802417516708374, -0.15268248319625854, -0.210529163479805, 0.004704843740910292, -0.053255122154951096, 0.071689173579216, 0.07628179341554642, 0.06007876247167587, 0.4629209041595459, -0.009698048233985901, -0.12438847869634628, 0.21167932450771332, 0.21571393311023712, -0.07156764715909958, 0.24525444209575653, 0.9414512515068054, -0.1825457066297531, -0.29701775312423706, 0.06049732491374016, 0.05650898069143295, -0.1047782301902771, 0.18663328886032104, -0.20304732024669647, 0.03452524170279503, 0.4408075511455536, -0.059249743819236755, -0.14496926963329315, 0.3015911877155304, 0.17816756665706635, -0.24878491461277008, 0.05249316990375519, -0.02958388440310955, 0.2501547336578369, -0.11301542073488235, -0.05383731797337532, 0.08217231184244156, -0.5294651389122009, 0.036268264055252075, -0.21124222874641418, 0.159482941031456, -0.05898101255297661, -0.09791850298643112, 0.20359119772911072, -0.12352459877729416, 0.3385904133319855, -0.45547738671302795, -0.06883259862661362, -0.009339992888271809, -0.3147091269493103, 0.0682964101433754, -0.07547250390052795, -0.07474187016487122, -0.16518062353134155, 0.3205380439758301, 0.22791606187820435, 0.23524504899978638, 0.043286994099617004, -0.12346620857715607, 0.02579595521092415, 0.1719367355108261, -0.10941140353679657, 0.1080881655216217, 0.2989731431007385, 0.5576285123825073, -0.11189190298318863, -0.055524080991744995, -0.3167606294155121, 0.0814882144331932, -0.04290183261036873, -0.008974487893283367, -0.08689723163843155, 0.060774706304073334, -0.14088019728660583, -0.12083174288272858, 0.2577916383743286, 0.2034435123205185, 0.07139625400304794, 0.12176337838172913, -0.08584191650152206, -0.09881336987018585, 0.00040541973430663347, -0.12109141051769257, 0.06412719190120697, 0.1427750289440155, 0.12167376279830933, -0.14352582395076752, 0.014857707545161247, -0.005036404822021723, -0.11877027899026871, -0.04278767108917236, 0.16234193742275238, -0.058407414704561234, 0.22234366834163666, -0.19427108764648438, 0.11332730203866959, 0.2335994690656662, -0.003409578697755933, -0.20489779114723206, 0.16770115494728088, -0.10273729264736176, -0.1196301281452179, 0.18083500862121582, -0.21196739375591278, 0.1339285671710968, -0.006792740430682898, 0.0011519910767674446, 0.009494142606854439, -0.020761873573064804, -0.08002816885709763, 0.14192017912864685, -0.30996787548065186, -0.2263600081205368, -0.14760197699069977, 0.053521085530519485, 0.15906499326229095, 0.07829269766807556, -0.0649472326040268, -0.013707523234188557, -0.058854490518569946, 0.18849456310272217, 0.10779009759426117, 0.13085274398326874, -0.09953667223453522, -0.019985999912023544, -0.047351155430078506, -0.22686867415905, 0.0932624414563179, 0.06496857851743698, 0.0717654898762703, -0.006783721037209034, -0.1177423968911171, 0.5734791159629822, 0.09817913919687271, 0.12711158394813538, -0.17102883756160736, 0.029526470229029655, 0.20378218591213226, -0.12350098788738251, -0.25013765692710876, 0.026478242129087448, 0.0815073698759079, 0.019374853000044823, -0.0177945327013731, -0.05102637782692909, -0.20391474664211273, 0.28728824853897095, -0.15417544543743134, 0.2189924120903015, -0.02020389959216118, 0.21848581731319427, 0.33731696009635925, -0.2334892898797989, 0.1646701842546463, 0.2649792432785034, 0.14717575907707214, 0.13024038076400757, 0.053514815866947174, 0.01914157159626484, -0.10930857062339783, 0.3997551202774048, 0.056907977908849716, 0.08045691251754761, -0.03373464196920395, -0.17926311492919922, -0.08357121795415878, 0.011105086654424667, 0.06954514235258102, 0.024935785681009293, 0.1470068246126175, -0.008627336472272873, -0.2260543555021286, -0.08680765330791473, -0.3096669018268585, 0.1558251976966858, 0.15930397808551788, -0.04032672196626663, 0.2462882399559021, -0.001696702092885971, 0.03918943926692009, 0.22726128995418549, -0.15337350964546204, 0.1870049387216568, 0.2684900164604187, 0.1284206062555313, 0.05998753011226654, 0.10213035345077515, 0.15484941005706787, 0.04042818769812584, -0.013893388211727142, -0.17437897622585297, 0.1416788250207901, 0.20231053233146667, -0.08994133770465851, -0.13460403680801392, -0.0957820788025856, 0.002150440588593483, 0.23307453095912933, 0.013787401840090752, 0.13520042598247528, 0.006033752113580704, -0.25028377771377563, -0.07243111729621887, 0.042314592748880386, -0.389274001121521, -0.34327614307403564, 0.21170811355113983, -0.0609842985868454, 0.11811937391757965, -0.40702730417251587, -0.2514149248600006, -0.15648898482322693, 0.2113046646118164, 0.08194109052419662, 0.09533137083053589, -0.22409476339817047, -0.2957148253917694, -0.44928503036499023, 0.06630775332450867, 0.08004201948642731, 0.08484838902950287, 0.01220526173710823, -0.14829209446907043, -0.12325575202703476, 0.21574847400188446, -0.020182481035590172, 0.03635315224528313, -0.1613677740097046, 0.002136313123628497, 0.25706711411476135, 0.23255233466625214, -0.16194535791873932, -0.17952756583690643, 0.31951531767845154, -0.07409675419330597, -0.15660659968852997, 0.25097087025642395, 0.11029669642448425, -0.041220054030418396, -0.14974094927310944, 0.14279106259346008, -0.08031147718429565, -0.23535753786563873, 0.08128102123737335, -0.20848794281482697, -0.02756272442638874, -0.3584796190261841, -0.08980485051870346, 0.028882909566164017, 0.24287955462932587, -0.3277135193347931, 0.04002988710999489, 0.18859966099262238, -0.20825287699699402, 0.079186350107193, 0.22561770677566528, 0.0002352162409806624, -0.07663258165121078, -0.19884641468524933, 0.08839921653270721, 0.1711273044347763, -0.03925572708249092, -0.07151657342910767, 0.03756954148411751, 0.41588547825813293, -0.06841607391834259, 0.0005386572447605431, -0.12439721822738647, 0.0963318943977356, 0.0062633175402879715, -0.12688246369361877, 0.0032773208804428577, 0.07967805862426758, 0.18218760192394257, -0.032063938677310944, -0.0999072715640068, -0.11289457231760025, -0.1079649031162262, -0.12008421868085861, -0.1575753539800644, -0.02053367905318737, 0.14535972476005554, -0.15953828394412994, -0.09856123477220535, -0.03356759250164032, 0.2553694546222687, -0.10837743431329727, -0.1509975641965866, 0.07940560579299927, -0.02259235270321369, -0.22045859694480896, 0.026701495051383972, -0.11143060028553009, 0.16650526225566864, -0.11626224964857101, -0.025799985975027084, -0.04013160616159439, 0.09115312248468399, -0.13627156615257263, 0.41886794567108154, -0.09539095312356949, -0.12941832840442657, 0.47447067499160767, 0.11630982905626297, -0.13387562334537506, -0.4392888844013214, -0.13870613276958466, -0.05416107550263405, 0.09320098906755447, 0.17044422030448914, 0.06168114021420479, -0.5444350838661194, -0.05512924864888191, -0.15467849373817444, 0.33767080307006836, -0.05231410264968872, 0.04109788313508034, -0.17249983549118042, -0.3781774342060089, -0.07851044088602066, 0.09013094753026962, 0.09489909559488297, -0.019497931003570557, -0.13263261318206787, -0.08659661561250687, 0.19446447491645813, 0.22452540695667267, -0.20506441593170166, -0.16116763651371002, 0.288338303565979, -0.3306428790092468, -0.053352512419223785, 0.22695721685886383, 0.2727349102497101, -0.06963131576776505, -0.18093177676200867, -0.021516090258955956, 0.23417259752750397, -0.10995262861251831, 0.05951954051852226, 0.08037003874778748, 0.16811855137348175, 0.019692637026309967, 0.4204382598400116, 0.1273145079612732, -0.26838594675064087, -0.012744029052555561, -0.015108117833733559, -0.34156885743141174, 0.05709628760814667, -0.13571064174175262, 0.2927772104740143, -0.1429717242717743, 0.06176372617483139, -0.028660422191023827, -0.026938632130622864, 0.021459229290485382, 0.2317379117012024, -0.04875980317592621, -0.061583880335092545, -0.20847530663013458, -0.01689090020954609, -0.1894741952419281, 0.2122131735086441, 0.060683105140924454, -0.11732282489538193, 0.09498365968465805, -0.14653551578521729, -0.046982232481241226, -0.1413237303495407, 0.11548653244972229, -0.15089116990566254, -0.0893809050321579, 0.2591583728790283, 0.2737368941307068, -0.24130256474018097, -0.20608562231063843, -0.03216748684644699, 0.043175943195819855, -0.19617478549480438, -0.11873791366815567, -0.1630164235830307, 0.08006321638822556, -0.0034548123367130756, -0.07279686629772186, -0.08016284555196762, -0.2013007402420044, 0.18519693613052368, -0.15623636543750763, 0.062339965254068375, 0.2721099257469177, -0.10371281206607819, 0.10329639166593552, 0.0683831050992012, -0.0016703424043953419, -0.17949002981185913, -0.16070689260959625, -0.07627848535776138, -0.00762598030269146, -0.08995918929576874, -0.24579744040966034, -0.30687761306762695, 0.07781817764043808, 0.013163170777261257, 0.13207194209098816, 0.10410374402999878, -0.09212955832481384, -0.02682011015713215, 0.19679634273052216, -0.058184947818517685, 0.09753666073083878, 0.09268837422132492, 0.23081211745738983, 0.11560237407684326, -0.18409022688865662, -0.10512697696685791, -0.08100980520248413, 0.0865788534283638, 0.02777206338942051, -0.21163210272789001, 0.026488354429602623, 0.18254168331623077, -0.0833672434091568, -0.16429626941680908, -0.13952679932117462, 0.19994062185287476, -0.08519751578569412, -0.11415276676416397, 0.005731594283133745, 0.19729997217655182, 0.22570493817329407, -0.1076100543141365, -0.08741334080696106, -0.14915470778942108, -0.02656954526901245, 0.07523477077484131, 0.2269395887851715, 0.06325354427099228, 0.26018497347831726, 0.2641454041004181, 0.01821054518222809, -0.07584429532289505, -0.0893196240067482, -0.0356670543551445, 0.010512717999517918, -0.031144294887781143, 0.085966557264328, -0.6636520028114319, -0.09105315059423447, -0.21311025321483612, -0.10861846804618835, -0.0037126492243260145, -0.23244287073612213, -0.04875008016824722, 0.004962956067174673, -0.08771467953920364, -0.21768446266651154, -0.26078760623931885, 0.04816946014761925, 0.003740588203072548, -0.06649963557720184, 0.07497391104698181, 0.20361612737178802, 0.1076645478606224, -0.06075064465403557, -0.09655669331550598, 0.1127031147480011, 0.06479842960834503, 0.40711531043052673, -0.016499334946274757, -0.10995391011238098, 0.11990281194448471, -0.0017175161046907306, -0.021656503900885582, 0.05349573493003845, 0.21634146571159363, -0.16438832879066467, 0.12335946410894394, -0.09807801991701126, 0.031549252569675446, -0.2059309035539627, -0.0743926540017128, 0.32382237911224365, -0.142966628074646, 0.08232078701257706, -0.0376373715698719, 0.0567353330552578, -0.01074136421084404, 0.192017063498497, -0.2762073576450348, -0.21177558600902557, 0.19109462201595306, 0.06070827692747116, -0.43013402819633484, 0.07233873009681702, -0.11929386109113693, 0.03872731328010559, -0.2827133536338806, 0.12009603530168533, 0.07443046569824219, -0.3768421709537506, -0.02799735777080059, 0.24652892351150513, 0.08856992423534393, -0.09461673349142075, 0.06343618035316467, -0.152524933218956, -0.09719639271497726, 0.16106215119361877, -0.1315658986568451, 0.25865915417671204, 0.09555300325155258, -0.16346703469753265, -0.08745554089546204, -0.22762992978096008, 0.31478559970855713, 0.17300288379192352, -0.12980642914772034, 0.27570968866348267, 0.29986071586608887, -0.08729489147663116, -0.3415588140487671, 0.15476782619953156, 0.27623751759529114, -0.3922114968299866, -0.1577409952878952, -0.27536746859550476, 0.26309773325920105, 0.14929313957691193, -0.02380911260843277, 0.05437289550900459, -0.10704713314771652, -0.05556759238243103, 0.07899009436368942, -0.030023561790585518, -0.023200102150440216, 0.0863131508231163, -0.061008695513010025, -0.1454220414161682, -0.09704763442277908, 0.04999716579914093, -0.08220631629228592, 0.0037953255232423544, -0.1160385012626648, 0.22027108073234558, 0.04125727713108063, -0.06784752756357193, 0.0632040724158287, 0.1767846643924713, 0.1864822953939438, 0.030376635491847992, -0.1383134424686432, -0.1266433745622635, -0.017424289137125015, -0.12390753626823425, -0.2633971571922302, 0.15420080721378326, -0.030024101957678795, -0.17789265513420105, -0.11329444497823715, 0.014855295419692993, 0.27390608191490173, -0.10202053189277649, -0.009309973567724228, -0.1647576093673706, 0.10299309343099594, 0.05359051749110222, -0.20979690551757812, -0.13320057094097137, 0.19724580645561218, -0.22452308237552643, -0.15669216215610504, 0.1926184892654419, 0.1987670212984085, -0.08237076550722122, -0.16652967035770416, 0.010010338388383389, -0.1730157732963562, 0.2717519998550415, -0.08822096139192581, 0.08356986939907074, -0.13087470829486847, 0.09593470394611359, 0.18799631297588348, -0.2696411907672882, 0.032924458384513855, -0.09055915474891663, 0.09980689734220505, 0.1114170178771019, 0.023759029805660248, 0.08731682598590851, -0.2738347351551056, 0.18189319968223572, 0.1049572080373764, -0.11698801815509796, 0.09071432799100876, -0.12813811004161835, 0.10349100083112717, 0.12009492516517639, 0.08458610624074936, 0.006710791029036045, -0.17287097871303558, 0.051606420427560806, -0.3586253225803375, 0.0211339071393013, -0.10241369158029556, 0.2273726463317871, 0.31016120314598083, 0.04838968813419342, 0.15155871212482452, -0.07190107554197311, 0.1733434498310089, 0.18054431676864624, -0.13389062881469727, -0.07220154255628586, 0.23234032094478607, 0.29818981885910034, 0.07466679066419601, 0.053799036890268326, 0.387013703584671, -0.10926658660173416, 0.2409217208623886, -0.19426262378692627, 0.12131865322589874, -0.48242437839508057, -0.10521797090768814, 0.08480320125818253, -0.4268532693386078, 0.040742840617895126, 0.039287541061639786, -0.4572405219078064, 0.30227357149124146, 0.0656365156173706, -0.32082417607307434, -0.18795481324195862, 0.25806307792663574, -0.22542151808738708, -0.029474671930074692, 0.05049853399395943, 0.4786919355392456, -0.45628365874290466, 0.0869712308049202, -0.17836414277553558, 0.015299812890589237, -0.19022154808044434, 0.1659238040447235, 0.10735918581485748, 0.02306024543941021, 0.11826413124799728, -0.15940815210342407, 0.013280527666211128, 0.34419769048690796, -0.1483328640460968, 0.3709712326526642, 0.05069575086236, -0.06808260828256607, -0.30558180809020996, -0.148790642619133, 0.12301438301801682, 0.16270245611667633, -0.7582640647888184, 0.39276236295700073, -0.06913690268993378, 0.17915970087051392, 0.0965123400092125, -0.2627742290496826, 0.13934852182865143, -0.06910265237092972, -0.19330230355262756, -0.30634409189224243, -0.04584013298153877, 0.1648872345685959, 0.35736820101737976, 0.3097293972969055, 0.14873963594436646, 0.20857609808444977, -0.20734649896621704, -0.004838341381400824, -0.23050549626350403, 0.7144064903259277, 0.29620033502578735, -0.16504164040088654, -0.23202501237392426, -0.17651726305484772, -0.37399742007255554, -0.15851466357707977, -0.18465431034564972, 0.19933199882507324, -0.7455600500106812, -0.23292115330696106, 0.362676203250885, 0.3462902009487152, 0.1400614082813263, 0.6924043893814087, 0.14279130101203918, 0.050195127725601196, 0.3965703547000885, -0.12379566580057144, 0.10443387925624847, 0.09959299117326736, -0.6053969860076904, -0.35895994305610657, 0.05937972292304039, 0.1941266804933548, 0.23207350075244904, -0.22603511810302734, 0.3053971230983734, -0.23400996625423431, -0.2837326228618622, -0.3379114270210266, -0.2446812391281128, -0.2748860716819763, -0.07990342378616333, 0.14648708701133728, -0.016070589423179626, -0.21004053950309753, 0.08731537312269211, -0.07830667495727539, 0.36597156524658203, -0.14687998592853546, -0.11507880687713623, 0.06713727116584778, 0.23754145205020905, 0.024723971262574196, 0.17756985127925873, -0.0010716622928157449, 0.12074518203735352, 0.2885783314704895, -0.18301913142204285, -0.28343871235847473, 0.3572160303592682, 0.46338823437690735, -0.11395922303199768, 0.2523469030857086, 0.10554063320159912, -0.0663466677069664, -0.21946841478347778, -0.041593022644519806, 0.09148100763559341, 0.019020328298211098, -0.026377664878964424, -0.03123873472213745, -0.05630294606089592, -0.048393938690423965, -0.15269921720027924, -0.028087832033634186, 0.010723902843892574, 0.1250631958246231, -0.06822022795677185, -0.21347150206565857, 0.10992816090583801, -0.17093220353126526, -0.0866757482290268, -0.33116769790649414, 0.160914346575737, 0.354971706867218, 0.29889538884162903, 0.28268197178840637, -0.1385570615530014, 0.05788237601518631, 0.04561226814985275, -0.20640231668949127, 0.3295135200023651, -0.04842317849397659, -0.1823314130306244, -0.2834646701812744, -0.1020275354385376, 0.3017508387565613, 0.1980394423007965, -0.033310435712337494, 0.1574835330247879, -0.20671585202217102, 0.03413572907447815, 0.03095073811709881, -0.008200002834200859, 0.010073677636682987, 0.36096465587615967, -0.13846418261528015, 0.028901848942041397, -0.014335517771542072, -0.37412574887275696, 0.06390924006700516, -0.07291360944509506, 0.05284162238240242, -0.17946289479732513, -0.36106881499290466, 0.5909008979797363, 0.3773379623889923, -0.782110869884491, 0.017236389219760895, -0.6235977411270142, -0.07743681222200394, 0.4026874601840973, -0.6699908971786499, 1.321962833404541, 0.5802772045135498, 0.11880282312631607, -0.03812779113650322, -0.13203933835029602, -0.6480527520179749, 0.3700779378414154, -0.27772966027259827, 0.24780452251434326, -0.26409220695495605, 0.07944177836179733, 0.38371741771698, 0.19771789014339447, -0.008047828450798988, 0.2996191680431366, -0.04403446987271309, 0.31153199076652527, 0.3272929787635803, -0.2648003101348877, -0.005989571567624807, -0.08184846490621567, -0.2931366562843323, 0.5168785452842712, 0.008419724181294441, -0.03618454933166504, 0.267774373292923, 0.2990199327468872, 0.08928632736206055, 0.11166323721408844, -0.32577329874038696, -0.42962226271629333, 0.1608165055513382, 0.1475427895784378, -0.2529132664203644, 0.19359833002090454, 0.39516064524650574, -0.08218510448932648, 0.17836743593215942, 0.17782659828662872, -0.32490333914756775, -0.0558340810239315, -0.1364259421825409, 0.15982463955879211, -0.16034963726997375, 0.011312347836792469, 0.08899511396884918, -0.1859341412782669, -0.2171989232301712, -0.20307016372680664, 0.12918347120285034, 0.24208109080791473, -0.11989796161651611, -0.2841440439224243, -0.14793844521045685, 0.38784030079841614, 0.02046024799346924, 0.23733346164226532, -0.0680416002869606, 0.04918255656957626, 0.31484848260879517, 0.2679688632488251, 0.21057221293449402, 0.2532232105731964, -0.12266428768634796, 0.19059507548809052, 0.2669890522956848, 0.06195709481835365, -0.11830250173807144, 0.3776840269565582, -0.5557793378829956, -0.3450470566749573, -0.4160468578338623, 0.18941114842891693, -0.45557036995887756, 0.24821649491786957, -0.2594345808029175, 0.6595086455345154, 0.21374884247779846, 0.3811648488044739, -0.09841059148311615, -0.5308466553688049, -0.13435202836990356, -0.4579381048679352, -0.22249212861061096, 0.966867983341217, -0.1810905635356903, -0.4482976198196411, -0.22371205687522888, -0.023848317563533783, -0.2324497550725937, -0.05121041461825371, -0.5002307891845703, -0.06890134513378143, 0.19907023012638092, 0.10027484595775604, 0.15299472212791443, 0.10805192589759827, -0.2519954741001129, -0.18055158853530884, 0.3437964618206024, 0.46248871088027954, 0.8811548352241516, 0.5178600549697876, 0.2979857623577118, -0.07136674970388412, 0.20665498077869415, 0.4075718820095062, -0.05034545436501503, 0.20747806131839752, -0.18042758107185364, -0.40080487728118896, 0.22385774552822113, 0.2229914516210556, -0.2182251513004303, 0.30644598603248596, 0.14354652166366577, -0.2684849500656128, 0.09944739937782288, 0.7168511152267456, 0.08102219551801682, -0.2061229944229126, 0.06188138946890831, 0.1962568163871765, -0.2985978126525879, 0.047100380063056946, 0.05489132180809975, 0.0019751766230911016, 0.11063995212316513, -0.2984575629234314, 0.18797069787979126, 0.11530540138483047, 0.30183324217796326, -0.4445387125015259, 0.12166973948478699, -0.3043713867664337, -0.09704303741455078, 0.051474880427122116, -0.03196755424141884, 0.15932732820510864, -0.3440109193325043, -0.08695517480373383, 0.2994508743286133, 0.1143384799361229, 0.08914453536272049, -0.4673446714878082, -0.018039671704173088, -0.5131173133850098, 0.017465582117438316, 0.3458598256111145, 0.019077857956290245, -0.0016150526935234666, -0.013725335709750652, -0.1269516795873642, 0.1389494240283966, -0.04424896463751793, 0.19777223467826843, -0.5300440788269043, -0.20203416049480438, -0.054853279143571854, 0.05232842639088631, 0.2895808219909668, -0.08897919207811356, -0.01603866182267666, -0.24128763377666473, 0.11041783541440964, -0.19092373549938202, 0.18818897008895874, -0.21576909720897675, -0.10948504507541656, -0.21376746892929077, 0.2590939402580261, -0.15427909791469574, 0.37309297919273376, -0.02095792256295681, 0.2368611991405487, -0.06198032572865486, -0.5202641487121582, 0.0160597562789917, -0.05286158248782158, -0.17638607323169708, 0.12675292789936066, -0.04178796708583832, 0.044454269111156464, 0.019438890740275383, -0.0773952379822731, 0.0382971316576004, -0.04259442165493965, 0.2842505872249603, 0.4667152762413025, 0.2183029055595398, -0.06626401841640472, -0.34290358424186707, -0.1536736637353897, 0.263474702835083, -0.24883314967155457, 0.03550858050584793, 0.2403082400560379, -0.0052651651203632355, -0.4396473467350006, -0.08591748774051666, 0.08970050513744354, -0.17873971164226532, 0.2933500409126282, 0.23118704557418823, -0.1908109039068222, -0.43717455863952637, 0.13424046337604523, 0.1254872977733612, -0.036247074604034424, -0.06550943106412888, -0.1488790214061737, -0.11354555189609528, 0.5139475464820862, -0.5341580510139465, -0.5737637281417847, 0.21329419314861298, -0.21558989584445953, -0.07819204777479172, -0.10037314891815186, -0.2709919512271881, 0.23545973002910614, 0.008728379383683205, -0.022624848410487175, -0.004845935385674238, 0.15454809367656708, -0.478268563747406, 0.0028829150833189487, 0.2987194061279297, -0.01154117751866579, 0.16723130643367767, 0.41217994689941406, 0.19924727082252502, -0.1291348934173584, 0.1504301130771637, -0.1185838058590889, -0.04893997311592102, 0.03155955299735069, -0.34253770112991333, 0.03752889856696129, 0.1733889877796173, 0.13833566009998322, 0.09252062439918518, 0.012163527309894562, 0.08528298139572144, -0.1384345293045044, -0.22951346635818481, -0.2506939172744751, -0.08249101787805557, -0.06857309490442276, -0.35967594385147095, -0.08585899323225021, -0.17868798971176147, -0.04936361312866211, 0.03531172126531601, 0.29424118995666504, 0.14464223384857178, 0.19193372130393982, 0.14314597845077515, -0.3195982277393341, 0.07054321467876434, 0.10563274472951889, 0.0600748173892498, 0.04490973427891731, -0.13535639643669128, -0.009545659646391869, 0.16766756772994995, 0.06780403107404709, 0.337810754776001, -0.05768303573131561, -0.49768027663230896, -0.14807161688804626, 0.05663193017244339, 0.0057520377449691296, -0.058004703372716904, 0.5149927735328674, 0.13321395218372345, -0.09929408878087997, -0.0685378685593605, 0.2964184284210205, 0.015112842433154583, -0.11289744824171066, -0.15131638944149017, 0.05516056716442108, 0.30253368616104126, -0.14075426757335663, -0.10646364092826843, 0.0471990630030632, 0.09335587918758392, 0.05489283800125122, -0.06454629451036453, -0.04167170077562332, -0.13001000881195068, -0.1253695785999298, 0.06597531586885452, 0.09298922121524811, 0.07352902740240097, 0.012728596106171608, -0.026516616344451904, 0.14733359217643738, 0.01014531496912241, 0.04839547723531723, -0.2546423673629761, -0.14580152928829193, -0.03420701622962952, 0.035887397825717926, -0.06154528632760048, 0.25009337067604065, 0.056406471878290176, -0.2815116345882416, -0.21107321977615356, 0.18736562132835388, 0.12733367085456848, -0.15669240057468414, -0.3051610291004181, -0.46378377079963684, 0.01657593809068203, -0.1472155600786209, -0.0941569060087204, 0.02665521949529648, 0.1269184648990631, -0.18376901745796204, -0.11276423931121826, 0.0821433737874031, 0.18847191333770752, 0.07606737315654755, -0.11562605947256088, -0.13184770941734314, 0.10722286999225616, 0.0021994702983647585, 0.18728293478488922, -0.11927975714206696, -0.32456114888191223, 0.09594263136386871, -0.06616071611642838, 0.07903876900672913, -0.16854585707187653, 0.08146566152572632, 0.22703535854816437, -0.0557059720158577, -0.09508923441171646, 0.23618383705615997, 0.014075998216867447, -0.2107744961977005, 0.08523035049438477, -0.040046755224466324, 0.1359194964170456, -0.18380607664585114, -0.1416250616312027, -0.17009080946445465, -0.4129927456378937, 0.07721442729234695, 0.04424264281988144, 0.0033858853857964277, 0.07751688361167908, 0.18523408472537994, 0.14108037948608398, -0.00425996957346797, -0.11303611844778061, -0.022770069539546967, 0.026637129485607147, -0.07225018739700317, -0.021715950220823288, -0.26570644974708557, -0.06288650631904602, 0.26047226786613464, -0.06959573179483414, 0.09960305690765381, -0.28267529606819153, 0.20685628056526184, 0.10721564292907715, -0.03682321682572365, -0.171575129032135, 0.025105038657784462, -0.016275595873594284, -0.253479540348053, -0.16482430696487427, 0.15076689422130585, 0.248008131980896, 0.04627427086234093, -0.2971661388874054, -0.028607163578271866, 0.02901146560907364, 0.016788536682724953, -0.20682357251644135, 0.04715768247842789, 0.00994281005114317, 0.05972473695874214, -0.01735377497971058, -0.28634902834892273, 0.028096726164221764, -0.2745139002799988, 0.07172301411628723, 0.14580987393856049, 0.11647799611091614, -0.271059513092041, -0.23964624106884003, -0.14401210844516754, 0.5971313118934631, 0.03145255148410797, 0.25596100091934204, -0.1905602216720581, 0.06635364890098572, -0.09039625525474548, 0.04017050564289093, 0.0972614735364914, 0.13385656476020813, -0.31769850850105286, -0.181938037276268, -0.09415113925933838, 0.07629799842834473, -0.04570245370268822, 0.02438451535999775, -0.094914011657238, 0.062123943120241165, 0.015232757665216923, -0.24833592772483826, 0.18888258934020996, -0.10761458426713943, -0.1997777223587036, -0.16253848373889923, -0.009314986877143383, 0.21586306393146515, 0.15589123964309692, 0.19077427685260773, -0.08025108277797699, -0.1068614050745964, 0.07254596054553986, 0.22075095772743225, 0.060498952865600586, -0.013289373368024826, 0.05323164165019989, 0.1743289679288864, 0.1756616234779358, -0.012547523714601994, 0.01717974618077278, 0.26617833971977234, -0.18758973479270935, -0.06701644510030746, -0.06583335250616074, -0.13503354787826538, 0.07261441648006439, 0.016107305884361267, 0.14948029816150665, 0.20783138275146484, -0.218734011054039, 0.11841753125190735, -0.07566483318805695, -0.09356151521205902, -0.15595421195030212, -0.1775790899991989, -0.10827203094959259, 0.11307244747877121, -0.056643296033144, 0.2836410701274872, 0.07088697701692581, 0.1473497599363327, 0.1964356005191803, -0.006371204741299152, 0.12405271828174591, 0.05881759896874428, -0.1494292914867401, -0.06217865273356438, 0.12677976489067078, 0.03144651651382446, -0.2659415602684021, 0.044336557388305664, -0.01365961879491806, 0.025347765535116196, 0.035022299736738205, -0.16854460537433624, 0.2731708288192749, 0.0800359845161438, 0.08491507917642593, 0.03307851403951645, -0.0311029851436615, 0.009138720110058784, -0.03453977033495903, 0.593248724937439, -0.07418689876794815, 0.18740689754486084, -0.020355913788080215, 0.1561799794435501, 0.20690852403640747, -0.19326692819595337, -0.14081358909606934, -0.06051528826355934, 0.26124945282936096, 0.6277053952217102, -0.033136311918497086, -0.015197700820863247, 0.0991862490773201, 0.01709175296127796, 0.9018325209617615, 0.0004738209245260805, -0.04701482132077217, -0.006214406341314316, -0.27221983671188354, -0.5270422101020813, -0.13216087222099304, 0.027134427800774574, 0.11247048527002335, 0.17271725833415985, -0.12769772112369537, 0.015417749062180519, -0.20932604372501373, -0.23225077986717224, -0.09637676179409027, -0.1642724871635437, -0.2999306917190552, -0.10967177897691727, -0.12806273996829987, -0.0016089774435386062, -0.0644475668668747, -0.04335559904575348, 0.07466846704483032, 0.0038241050206124783, -0.2662854492664337, -0.08103665709495544, -0.2103058099746704, -0.20887701213359833, 0.038819991052150726, 0.008363707922399044, -0.03890997916460037, -0.0824117437005043, 0.21391914784908295, 0.21219101548194885, -0.05951286479830742, -0.20920635759830475, -0.1363515555858612, -0.08356078714132309, 0.32430410385131836, -0.40239834785461426, 0.017981328070163727, -0.25655463337898254, 0.0595567487180233, 0.6840344071388245, 0.06098118796944618, 0.03176044672727585, -0.08066682517528534, -0.13208694756031036, 0.3380205035209656, 0.10723128169775009, -0.09468360990285873, 0.2122301310300827, -0.08361106365919113, -0.05258481204509735, 0.4365054965019226, -0.1885165423154831, 0.15594223141670227, -0.12079231441020966, -0.33820560574531555, -0.017439013347029686, -0.14713983237743378, 0.2543666958808899, 0.2544352412223816, 0.2661198377609253, -0.23685960471630096, 0.13197803497314453, -0.03802168741822243, -0.1801559180021286, 0.11350883543491364, 0.054934825748205185, -0.2382795363664627, -0.0973241776227951, 0.009351368993520737, 0.2090059369802475, 0.26815107464790344, 0.11342567205429077, -0.22973594069480896, -0.15629889070987701, -0.08914250880479813, 0.12040726840496063, -0.08906839787960052, 0.1306132674217224, 0.09103419631719589, -0.030277781188488007, -0.036638982594013214, -0.2964572310447693, 0.015165423043072224, 0.16115878522396088, -0.10390036553144455, -0.0042845504358410835, -0.010036122985184193, 0.25239962339401245, -0.2421368807554245, -0.1729593724012375, 0.030399415642023087, 0.16916027665138245, -0.2968822121620178, -0.05392111465334892, -0.1648550182580948, 0.23817670345306396, 0.03875621035695076, -0.10817483812570572, 0.05543142557144165, 0.11967432498931885, -0.02422136813402176, 0.10296591371297836, 0.1604764461517334, 0.09550653398036957, -0.12608519196510315, -0.22702240943908691, 0.37318119406700134, 0.18198327720165253, 0.09944335371255875, -0.24630214273929596, 0.0073816911317408085, 0.03535458445549011, -0.22615234553813934, 0.15255193412303925, 0.18086592853069305, 0.20829926431179047, 0.004890189506113529, -0.28427854180336, 0.02424406073987484, -0.15332581102848053, -0.27033621072769165, -0.045212291181087494, 0.03326798230409622, 0.4096062183380127, -0.09096980839967728, 0.14989425241947174, 0.14688941836357117, -0.022298283874988556, 0.127980038523674, -0.11731548607349396, -0.08809256553649902, 0.5889175534248352, -0.23203948140144348, -0.12533718347549438, -0.27884215116500854, -0.4280528426170349, -0.08432663232088089, -0.1751365214586258, 0.2604687213897705, 0.3211664855480194, 0.11968196928501129, -0.27707749605178833, -0.012188526801764965, 0.3011457324028015, -0.008664562366902828, -0.07753274589776993, -0.1783314347267151, 0.07377897202968597, -0.08152823895215988, 0.33026543259620667, 0.022663485258817673, 0.15788458287715912, -0.006094320677220821, -0.07960324734449387, -0.0009069704101420939, 0.13833901286125183, 0.06541840732097626, -0.11470317840576172, -0.09818044304847717, 0.21888715028762817, -0.1512821912765503, -0.031468916684389114, 0.2143976390361786, 0.12118706107139587, -0.10856527835130692, -0.1342393159866333, -0.24708841741085052, 0.0720236748456955, 0.1756272315979004, 0.2595515847206116, -0.038453299552202225, -0.11221059411764145, 0.017654865980148315, -0.3287876844406128, 0.017952561378479004, -0.22364015877246857, -0.12827812135219574, 0.025365974754095078, -0.2132367193698883, -0.5052580237388611, 0.256112277507782, -0.09817548096179962, 0.18298935890197754, 0.20400312542915344, 0.09370250254869461, -0.0337563119828701, -0.23834995925426483, -0.018935685977339745, 0.1555362343788147, 0.20065619051456451, 0.15407110750675201, -0.25309595465660095, 0.11314079165458679, 0.2173694521188736, 0.3375963866710663, -0.15576621890068054, 0.09119000285863876, -0.42598843574523926, -0.10428173094987869, -0.04470719397068024, -0.11750424653291702, 0.038375239819288254, 0.05565875396132469, -0.2386266589164734, -0.2667207419872284, 0.0850762277841568, 0.13748778402805328, -0.11825515329837799, 0.22759798169136047, 0.05060543492436409, -0.1748223453760147, -0.11356695741415024, -0.059524912387132645, 0.2605540454387665, -0.12927748262882233, 0.14050796627998352, 0.23627661168575287, 0.16147635877132416, -0.03527118265628815, -0.32573339343070984, -0.019539427012205124, 0.05470084771513939, -0.07627243548631668, 0.04882776737213135, -0.05705200508236885, 0.2086649388074875, -0.1242789551615715, -0.20183351635932922, 0.6089103817939758, 0.08761988580226898, 0.194436177611351, 0.12698499858379364, 0.07788817584514618, -0.03388524800539017, -0.17018327116966248, -0.1255410760641098, 0.3851608335971832, -0.03635033592581749, 0.03019389882683754, -0.05512021854519844, 0.17650119960308075, 0.07038400322198868, -0.08969830721616745, -0.19755981862545013, -0.15421877801418304, -0.030049730092287064, -0.02293982170522213, -0.2915850579738617, -0.185526043176651, 0.1399860680103302, -0.007629741448909044, -0.30321186780929565, -0.12410932779312134, 0.05266925320029259, 0.10089467465877533, -0.295956015586853, 0.14912785589694977, 0.06619888544082642, -0.4029753804206848, -0.023881612345576286, -0.010935564525425434, 0.2699061334133148, -0.11974583566188812, -0.17277957499027252, 0.09884830564260483, 0.045918527990579605, -0.09783356636762619, -0.0680052861571312, -0.06670340895652771, 0.07304275780916214, 0.09455236792564392, -0.09942558407783508, 0.06572896987199783, -0.04319092258810997, -0.18042899668216705, -0.12804938852787018, 0.012093352153897285, 0.11057671159505844, 0.014927002601325512, -0.09254514425992966, 0.18600815534591675, 0.060615237802267075, -0.22077560424804688, 0.12055980414152145, 0.18006213009357452, 0.25331658124923706, 0.130086749792099, 0.10572053492069244, -0.027826368808746338, 0.07128047198057175, 0.0550333671271801, -0.0035866964608430862, 0.08220504224300385, 0.16117236018180847, -0.1140289306640625, -0.1760987788438797, 0.08254488557577133, -0.01607017032802105, -0.06267613917589188, 0.05438390001654625, 0.37586382031440735, 0.09179331362247467, -0.08790889382362366, -0.14268450438976288, -0.006115204654633999, 0.006326395086944103, -0.051596175879240036, -0.024289319291710854, -0.018889043480157852, 0.040031448006629944, -0.19268962740898132, 0.04220913350582123, 0.16996313631534576, 0.16660496592521667, 0.1299922913312912, -0.18880623579025269, 0.08907639980316162, -0.01551544014364481, 0.04225945845246315, -0.15792693197727203, -0.06428372114896774, 0.1613861322402954, -0.09432455152273178, -0.1369582861661911, 0.1621638834476471, -0.19325120747089386, -0.15192575752735138, -0.18359872698783875, 0.07711660116910934, -0.04418891295790672, -0.2632911205291748, -0.3299727439880371, -0.40201815962791443, -0.05818898230791092, -0.02508181892335415, -0.051463063806295395, -0.03962527588009834, -0.09783231467008591, 0.003453183453530073, 0.016665784642100334, 0.2807471454143524, -0.16212384402751923, -0.015726512297987938, -0.044898077845573425, -0.09230529516935349, 0.13944974541664124, -0.01232303399592638, 0.2097376435995102, -0.06258893013000488, 0.2955276370048523, 0.002455586101859808, -0.08154574036598206, 0.10876456648111343, -0.09599973261356354, -0.1351962685585022, -0.08508466929197311, -0.06846973299980164, 0.18470579385757446, -0.11652214080095291, 0.056619349867105484, -0.0632466971874237, 0.14154741168022156, -0.23610171675682068, 0.051200903952121735, -0.020256709307432175, -0.18636967241764069, 0.008612461388111115, -0.3083346486091614, 0.02369273640215397, -0.13667330145835876, -0.5697740316390991, 0.4199771285057068, 0.1091383621096611, 0.5295354723930359, 0.5350403785705566, 0.04473187029361725, -0.005788886919617653, -0.1496313214302063, -0.14575991034507751, 0.14835737645626068, -0.3104702830314636, 0.043209243565797806, -0.23320575058460236, 0.3638851046562195, -0.051045600324869156, 0.10354610532522202, -0.004235954023897648, -0.013963324017822742, -0.12563757598400116, 0.06816213577985764, 0.02548706717789173, -0.3823690116405487, 0.16686716675758362, 0.2668476402759552, 0.03803296014666557, 0.09011891484260559, -0.2431134134531021, 0.39142441749572754, -0.044023461639881134, 0.09899622946977615, 0.0607091449201107, -0.1939433217048645, -0.03378549590706825, 0.10309038311243057, 0.3253622055053711, 0.08351392298936844, 0.18606066703796387, -0.08111696690320969, -0.05920254811644554, -0.06372212618589401, 0.05751923471689224, 0.05829137563705444, -0.16979141533374786, 0.306213915348053, 0.07662779092788696, 0.1745224893093109, -0.05073707178235054, -0.21266180276870728, 0.11650965362787247, -0.09945396333932877, -0.008026760071516037, -0.014331867918372154, -0.18806946277618408, 0.3598485589027405, -0.21727818250656128, 0.07424593716859818, 0.2546953558921814, -0.12782953679561615, 0.5196412801742554, -0.22802844643592834, -0.156678706407547, 0.0655447319149971, 0.15730784833431244, -0.07261212170124054, -0.0651773065328598, 0.26313522458076477, -0.12225423008203506, 0.1962263435125351, 0.16909202933311462, 0.22638991475105286, -0.1161879301071167, -0.22523847222328186, -0.024280749261379242, -0.2567991614341736, 0.15538820624351501, -0.18408162891864777, -0.05910542979836464, 0.27420464158058167, -0.21962347626686096, -0.01794375292956829, 0.1878632754087448, 0.19215862452983856, 0.01109721977263689, 0.03960493206977844, 0.009301803074777126, 0.00326844141818583, 0.08716490864753723, -0.14837399125099182, 0.05966949090361595, 0.11913628876209259, 0.011993580497801304, -0.08568459004163742, 0.27392256259918213, -0.026379570364952087, 0.0273674875497818, 0.13692452013492584, -0.04364120215177536, 0.12093044072389603, -0.19291231036186218, 0.08697476983070374, -0.08441996574401855, -0.45599374175071716, 0.0027906971517950296, -0.05334578454494476, 0.24846702814102173, 0.2816062867641449, -0.131829172372818, 0.9994653463363647, -0.19172602891921997, -0.025053564459085464, -0.2316679209470749, -0.23083090782165527, -0.03858340531587601, -0.07245943695306778, -0.009319297969341278, -0.006000317167490721, 0.1920638382434845, 0.3094109296798706, 0.007667213212698698, -0.11534148454666138, 0.18550360202789307, 0.024910535663366318, -0.8130427598953247, -0.18055473268032074, 0.131368488073349, -0.11450270563364029, -0.16319680213928223, 0.06861136853694916, 0.27518269419670105, 0.05745445564389229, 0.003644694807007909, -0.22583937644958496, -0.011015896685421467, 0.19527359306812286, 0.05060071870684624, -0.10003558546304703, 0.3423616588115692, 0.1583901047706604, -0.15670862793922424, 0.09980545192956924, -0.16374576091766357, 0.20579460263252258, 0.2204824984073639, 0.09017718583345413, -0.07850649952888489, 0.5165008902549744, -0.03708945959806442, 0.012177708558738232, -0.08399631828069687, 0.1758740246295929, 0.03610086441040039, 0.10026957839727402, -0.012342420406639576, 0.01747773215174675, 0.0077720158733427525, -0.13697700202465057, 0.1687970906496048, 0.12408950924873352, 0.0070782620459795, -0.16176515817642212, -0.23974807560443878, 0.07384931296110153, -0.07855982333421707, 0.4343569576740265, 0.0007148908916860819, 0.078684963285923, -0.07409444451332092, -0.1615663319826126, 0.06882470846176147, 0.08413742482662201, -0.0653751790523529, -0.12558580935001373, 0.14294321835041046, 0.19037102162837982, 0.042535413056612015, 0.19372834265232086, 0.08995627611875534, -0.04168229550123215, -0.0880839079618454, 0.05015060305595398, -0.024983469396829605, -0.05817003920674324, -0.08922738581895828, 0.0727623701095581, 0.30875903367996216, -0.18268753588199615, 0.028205307200551033, -0.18355438113212585, 0.12677782773971558, 0.27816152572631836, -0.026270879432559013, -0.06444424390792847, -0.0038359989412128925, 0.1560235172510147, -0.1831008940935135, 0.30082735419273376, 0.5812491774559021, 0.1589001566171646, 0.817509651184082, -0.9281455874443054, -0.5601902008056641, 0.1991134136915207, 0.2583199739456177, -0.08788235485553741, 0.20920971035957336, 0.1503986120223999, -0.9673779010772705, 0.25524774193763733, 0.41504329442977905, -0.8530508279800415, 0.011900137178599834, -0.2146148532629013, -0.17166940867900848, -0.10959016531705856, 0.42844656109809875, -0.18935039639472961, 0.028894346207380295, 0.19808802008628845, -0.39050883054733276, -0.15118038654327393, -0.31102073192596436, 0.08635886758565903, -0.16764846444129944, 0.1431576907634735, 0.26688680052757263, -0.4020427465438843, -0.006154546979814768, 0.08705227822065353, -0.2229262888431549, -0.10535886138677597, 0.19648486375808716, -0.052918657660484314, 0.23203755915164948, 0.020673377439379692, 0.14210811257362366, -0.2773672342300415, -0.1285780966281891, -0.03210078924894333, 0.03282191976904869, 0.19661873579025269, -0.22157703340053558, 0.17956103384494781, 0.27161651849746704, 0.16603514552116394, -0.3242289125919342, 0.2703448534011841, -0.24995730817317963, -0.16470648348331451, -0.03169984370470047, -0.147113636136055, -0.15985307097434998, 0.15996694564819336, 0.28898561000823975, -0.19784627854824066, 0.16826429963111877, -0.13268603384494781, 0.08776722848415375, 0.17854836583137512, -0.007647025864571333, 0.17245109379291534, 0.5501676201820374, -0.05393429100513458, -0.4746413826942444, 0.08852355182170868, -0.014738590456545353, 0.2730129659175873, 0.7394532561302185, 0.1258726269006729, -0.5153986811637878, -0.3519808351993561, -0.46926766633987427, -0.2237783819437027, -0.03726336359977722, 0.3617149293422699, 0.1953572928905487, -0.5481825470924377, 0.1843368113040924, -0.00919361412525177, 0.1384224146604538, -0.2259577065706253, 0.06979010999202728, 0.04629720002412796, -0.10111599415540695, -0.2528097629547119, 0.40587475895881653, 0.17336244881153107, 0.08919248729944229, 0.40552496910095215, -0.30769798159599304, -0.13602998852729797, -0.016341309994459152, -0.25824686884880066, -0.40808290243148804, 0.3657737076282501, 0.3975079655647278, -0.15704816579818726, -0.08507299423217773, 0.08430983871221542, -0.404645711183548, -0.16706153750419617, 0.24994629621505737, 0.17415492236614227, -0.08080576360225677, 0.5615508556365967, 0.03840099275112152, -0.25981155037879944, -0.34322816133499146, -0.026933932676911354, -0.3989531993865967, -0.007892673835158348, -0.16294705867767334, 0.1759369820356369, -0.18489782512187958, -0.2428315281867981, 0.38104701042175293, 0.24059072136878967, -0.3169293701648712, 0.28203722834587097, 0.17668232321739197, -0.007239973172545433, 0.0477050244808197, 0.05748813599348068, 0.009259597398340702, -0.028436703607439995, -0.006348859053105116, 0.08811149001121521, 0.22736844420433044, 0.3684501051902771, 0.4626174569129944, -0.1209675595164299, -0.3079666793346405, 0.04343881458044052, 0.1457827389240265, 0.1742279976606369, 0.07751008123159409, 0.037610430270433426, -0.05610032007098198, -0.21395638585090637, 0.014014957472682, 0.36133426427841187, -0.2826584279537201, -0.47589319944381714, -0.08587845414876938, 0.05778660625219345, 0.28262466192245483, 0.06356482207775116, -0.023921476677060127, -0.43044427037239075, 0.14570482075214386, -0.04628249257802963, 0.011667278595268726, -0.15113218128681183, -0.16155193746089935, 0.37050101161003113, 0.21913498640060425, 0.08719276636838913, -0.13157342374324799, 0.4564763307571411, 0.1933276653289795, -0.14916296303272247, -0.2506781816482544, 0.11844392120838165, -0.23827102780342102, 0.12117072194814682, -0.311294287443161, -0.0737667828798294, 0.14713576436042786, 0.10866133123636246, 0.23525170981884003, -0.22514551877975464, 0.18003956973552704, -0.02989579737186432, -0.2842819094657898, 0.1354636400938034, -0.2457161396741867, -0.17320138216018677, -0.06431233137845993, 0.0972290188074112, 0.0209942813962698, -0.24514879286289215, 0.36663493514060974, 0.07242313027381897, 0.05021847411990166, 0.0067853424698114395, -0.24709144234657288, 0.1081458330154419, 0.17066939175128937, -0.043836887925863266, 0.4936428368091583, 0.08500179648399353, -0.3992646038532257, -0.21412384510040283, 0.14162781834602356, -0.1333206743001938, 0.1835562139749527, -0.07131507247686386, -0.01679583080112934, 0.024411819875240326, 0.013154000975191593, -0.02745305374264717, -0.22955508530139923, 0.09006156772375107, -0.17028690874576569, -0.128195658326149, 0.39852339029312134, 0.19270087778568268, 0.23552507162094116, 2.0938288798788562e-05, -0.06295865029096603, -0.028986943885684013, -0.2094724029302597, 0.06456335633993149, 0.2968175709247589, 0.17454059422016144, -0.37455132603645325, -0.30301347374916077, -0.14905279874801636, 0.09658525139093399, -0.1343642622232437, -0.33487558364868164, -0.49570682644844055, 0.05611656606197357, -0.10354803502559662, 0.13257038593292236, -0.04094259440898895, 0.05984398350119591, 0.08024141192436218, 0.0588931068778038, 0.028179850429296494, 0.25117701292037964, 0.34225109219551086, -0.12336096167564392, -0.4433896541595459, -0.07463789731264114, 0.10418292880058289, -0.05920274928212166, 0.23839496076107025, -0.19113783538341522, 0.08904033899307251, 0.5310547351837158, -0.17855675518512726, -0.19829867780208588, 0.3128713369369507, 0.27139100432395935, -0.2766782343387604, 0.007569462060928345, -0.18927398324012756, -0.33994102478027344, 0.053013239055871964, 0.04812213405966759, 0.0010238593677058816, 0.30649474263191223, 0.28195860981941223, -0.02750450186431408, -0.19111458957195282, -0.31501662731170654, -0.16813065111637115, -0.21123552322387695, -0.01664905622601509, -0.23975618183612823, -0.06598100066184998, 0.18069647252559662, -0.2419740855693817, 0.05688546225428581, -0.09110541641712189, -0.3313242495059967, 0.023432541638612747, 0.16090235114097595, -0.17519952356815338, -0.2563299834728241, 0.023880356922745705, 0.005042444448918104, 0.0022347718477249146, 0.31673696637153625, -0.07057937234640121, -0.5871664881706238, -0.380794495344162, 0.24743729829788208, 0.03742747753858566, 0.04448799416422844, 0.3003159761428833, -0.1978226900100708, -0.1349889487028122, -0.14953753352165222, 0.06765502691268921, -0.07626067847013474, 0.13527218997478485, 0.24222256243228912, -0.014779917895793915, 0.03918544575572014, 0.2635924816131592, 0.0978056862950325, -0.0458710677921772, -0.10068217664957047, 0.03023410774767399, 0.10336260497570038, 0.21647456288337708, -0.12345102429389954, -0.4116242527961731, 0.17464615404605865, 0.07211315631866455, 0.01168168243020773, 0.1452024281024933, 0.12597988545894623, -0.0873505249619484, 0.48298823833465576, 0.2309698462486267, -0.13374128937721252, -0.03938532993197441, -0.5248873233795166, 0.020051781088113785, 0.10625741630792618, -0.018515555188059807, 0.17196284234523773, 0.15569588541984558, 0.018133681267499924, -0.07003118842840195, 0.12486863136291504, 0.032153017818927765, -0.16407053172588348, -0.15290074050426483, 0.02059442549943924, -0.048848796635866165, 0.0728023499250412, -0.10922221094369888, -0.08719059079885483, 0.18088234961032867, -0.1554415076971054, 0.022960877045989037, -0.22355982661247253, 0.06024063006043434, -0.20899663865566254, 0.14241540431976318, 0.1079472005367279, -0.2534430921077728, 0.053123507648706436, 0.003042299998924136, 0.07062643766403198, -0.2473401129245758, -0.15481354296207428, 0.049294501543045044, 0.09220899641513824, 0.08511890470981598, 0.2980659008026123, 0.2059706747531891, 0.22141723334789276, -0.28615960478782654, -0.2965649664402008, -0.11720791459083557, -0.6839746832847595, -0.22575297951698303, 0.022229481488466263, 0.22170390188694, -0.11123951524496078, 0.011441371403634548, -0.6797419786453247, 0.18401485681533813, -0.02068990282714367, -0.42323362827301025, -0.0725928321480751, -0.08233053237199783, 0.3629036545753479, -0.11844173073768616, -0.21447695791721344, 0.07578930258750916, -0.08620290458202362, -0.08654890954494476, -0.5164098739624023, -0.09706202894449234, -0.28196263313293457, 0.09126166999340057, -0.22756679356098175, -0.03922301158308983, 0.4245995879173279, 0.06655602157115936, -0.10946685075759888, 0.049972109496593475, 0.3818906247615814, 0.06565523147583008, -0.3202129304409027, -0.17896714806556702, -0.1767810881137848, 0.13935914635658264, 0.05598600208759308, 0.15445105731487274, -0.07877110689878464, 0.2817705273628235, -0.00116730947047472, 0.01158659253269434, -0.43203216791152954, 0.12661942839622498, 0.19971369206905365, -0.0233564805239439, -0.10877711325883865, -0.06566458940505981, 0.06324531137943268, -0.0469108447432518, 0.005815618671476841, 0.04096866399049759, -0.12942492961883545, -0.21400703489780426, -0.07282696664333344, -0.17865049839019775, -0.1383136361837387, 0.05526396259665489, -0.06471968442201614, -0.22449113428592682, 0.06677305698394775, -0.25165796279907227, -0.12755095958709717, 0.1452348232269287, 0.10448780655860901, -0.01789512299001217, -0.22763638198375702, 0.1103200912475586, 0.2249327003955841, -0.2044224739074707, -0.0749315619468689, 0.09818050265312195, 0.26501062512397766, 0.05144243687391281, -0.1535792052745819, -0.0797785148024559, -0.04724765196442604, 0.07026974111795425, -0.23390012979507446, -0.17721159756183624, 0.08117499202489853, -0.251824289560318, -0.2528061866760254, 0.22502674162387848, 0.2000110000371933, -0.05827099457383156, -0.13070088624954224, 0.2455323189496994, 0.41298937797546387, 0.00940138939768076, -0.10863849520683289, -0.02419983595609665, 0.1537237912416458, -0.055420733988285065, -0.011723865754902363, 0.04812062159180641, -0.019990941509604454, -0.11316651850938797, 0.029061563313007355, 0.1397901326417923, 0.007142381276935339, -0.0219733826816082, 0.0627710372209549, -0.2066672146320343, 0.15365739166736603, -0.02834285795688629, -0.22933964431285858, 0.06743135303258896, -0.12633615732192993, 0.024014251306653023, -0.17738564312458038, 0.09709171950817108, 0.1510363072156906, -0.17018212378025055, -0.27718988060951233, -0.05592329055070877, 0.08206568658351898, -0.04445488005876541, -0.0062448084354400635, -0.10907138884067535, 0.11755787581205368, 0.0704687237739563, -0.30645978450775146, 0.06797956675291061, -0.025824403390288353, 0.1706540882587433, -0.352325975894928, -0.04304955154657364, 0.0678769126534462, -0.17095239460468292, 0.04078974574804306, 0.16823332011699677, 0.07199303805828094, 0.12342052161693573, -0.14367997646331787, 0.15742051601409912, 0.07682576030492783, -0.024914316833019257, -0.08971276134252548, 0.04318445548415184, 0.0769941657781601, 0.008323444984853268, 0.12063242495059967, 0.3251791298389435, 0.12271381169557571, -0.05418013408780098, 0.029327724128961563, 0.18482865393161774, 0.02868431992828846, -0.22423358261585236, -0.09819944202899933, 0.05178692564368248, -0.17819620668888092, 0.03384213149547577, 0.1283426582813263, 0.6814982295036316, 0.23412370681762695, 0.11483357846736908, 0.09355536848306656, -0.007581653539091349, 0.0849987119436264, -0.25258341431617737, -0.04684844985604286, -0.24788381159305573, -0.041780710220336914, -0.28982099890708923, 0.014549490064382553, 0.14904427528381348, 0.12282722443342209, 0.11518563330173492, -0.15012390911579132, -0.09197317063808441, 0.0350356288254261, -0.15384352207183838, -0.12530511617660522, -0.1211647316813469, 0.2823439836502075, -0.2944963574409485, -0.014497707597911358, 0.12213802337646484, 0.10280492901802063, 0.13699468970298767, -0.2244395911693573, 0.15075914561748505, 0.030338501557707787, -0.2059147208929062, -0.23459406197071075, -0.2535872459411621, -0.032824307680130005, -0.08331216871738434, 0.05481338128447533, 0.38427114486694336, -0.07507402449846268, -0.02185230515897274, 0.3300148844718933, 0.23969228565692902, -0.028711725026369095, -0.2943347096443176, -0.06999474763870239, 0.18661896884441376, -0.14493151009082794, 0.0942029133439064, 0.19952236115932465, -0.18930445611476898, -0.10991470515727997, 0.06434574723243713, -0.04717990756034851, 0.16648143529891968, 0.1071341335773468, -0.1410987377166748, -0.22457081079483032, 0.030442949384450912, 0.14677660167217255, 0.04747312143445015, -0.07288482785224915, -0.07404941320419312, 0.09160524606704712, 0.0584360770881176, -0.232993021607399, 0.026068000122904778, 0.17564664781093597, -0.2993795871734619, -0.01571282558143139, -0.006695690099149942, 0.22925034165382385, -0.12851859629154205, 0.06617344170808792, 0.27527281641960144, 0.10177028924226761, 0.06877076625823975, -0.33278688788414, -0.02965189702808857, -0.1610172986984253, -0.07399158179759979, -0.391577810049057, -0.3185150921344757, 0.25855156779289246, -0.13558772206306458, 0.1163259744644165, -0.22739194333553314, 0.3415555953979492, 0.29747456312179565, 0.08611956983804703, 0.10664445161819458, 0.04269732907414436, -0.07370716333389282, 0.11803804337978363, 0.505305290222168, 0.23776808381080627, -0.39589470624923706, 0.049254581332206726, 0.11401338875293732, 0.027064736932516098, -0.12371703237295151, -0.25501149892807007, -0.1224268227815628, 0.2030228227376938, -0.05604374781250954, -0.09943847358226776, 0.11655208468437195, 0.3041788637638092, -0.12526340782642365, 0.17813977599143982, 0.1846679449081421, 0.12900590896606445, -0.004795861430466175, -0.2321450263261795, 0.07609410583972931, -0.05098805949091911, 0.08893085271120071, -0.12042787671089172, -0.032706353813409805, 0.10341186821460724, -0.009552597999572754, 0.0008678000885993242, 0.3019699454307556, 0.05466979742050171, 0.11390626430511475, -0.2740834653377533, 