{"version": "0.5.1", "architecture": "WaveNet", "config": {"layers": [{"input_size": 1, "condition_size": 1, "head_size": 8, "channels": 16, "kernel_size": 3, "dilations": [1, 2, 4, 8, 16, 32, 64, 128, 256, 512], "activation": "Tanh", "gated": false, "head_bias": false}, {"input_size": 16, "condition_size": 1, "head_size": 1, "channels": 8, "kernel_size": 3, "dilations": [1, 2, 4, 8, 16, 32, 64, 128, 256, 512], "activation": "Tanh", "gated": false, "head_bias": true}], "head": null, "head_scale": 0.02}, "weights": [-0.008606807328760624, 0.41427749395370483, -0.8303449749946594, -0.7525803446769714, -0.4520360827445984, 0.15051499009132385, 0.0010098214261233807, 0.8556414842605591, -0.04044818505644798, 0.18077057600021362, -0.35772478580474854, -0.03948363661766052, -0.9327740669250488, -0.6501531004905701, -0.47841930389404297, 0.03815728425979614, -0.15533722937107086, 0.09492180496454239, -0.04308943450450897, -0.20734402537345886, 0.10053489357233047, 0.2447187453508377, 0.10951096564531326, 0.05697518587112427, -0.14032623171806335, 0.15337924659252167, 0.07922476530075073, -0.2504636347293854, 0.05556083470582962, -0.08526843786239624, -0.1721464991569519, -0.02320881374180317, -0.04716871306300163, 0.048800792545080185, 0.14447398483753204, -0.0842856764793396, -0.1273087114095688, -0.019633345305919647, 0.11219775676727295, 0.18575847148895264, 0.1983107179403305, -0.07461360841989517, -0.041573911905288696, -0.27219468355178833, -0.0516221821308136, 0.04234200716018677, 0.238584503531456, 0.03871488198637962, -0.1710350215435028, 0.05769476667046547, -0.006638991646468639, -0.02614162489771843, 0.1978829950094223, -0.02956022322177887, -0.019001031294465065, 0.057434260845184326, -0.021353531628847122, -0.22504252195358276, 0.04274584352970123, -0.12046214938163757, -0.04569964110851288, -0.12941156327724457, -0.07880450040102005, 0.10805689543485641, 0.21173246204853058, -0.2963249981403351, 0.2314022332429886, 0.16434356570243835, -0.1778285801410675, 0.30524101853370667, -0.2585409879684448, 0.20706523954868317, -0.12253668159246445, -0.029993098229169846, 0.38338154554367065, -0.05270109698176384, -0.11484544724225998, 0.13832560181617737, -0.16562651097774506, 0.04687581583857536, -0.39734816551208496, 0.3029264807701111, -0.029471950605511665, 0.008306846022605896, -0.23067471385002136, 0.12408966571092606, -0.28753766417503357, 0.1138913705945015, -0.06580263376235962, 0.1766909658908844, -0.12395023554563522, 0.21310606598854065, -0.15157635509967804, 0.22723622620105743, -0.29813337326049805, 0.1628197282552719, -0.11917003989219666, -0.11682623624801636, 0.10282040387392044, -0.2495892196893692, -0.011482923291623592, 0.3579396903514862, -0.24045132100582123, -0.1819090098142624, 0.12219307571649551, -0.1806897222995758, -0.25991377234458923, 0.15187034010887146, -0.1864028424024582, 0.16594478487968445, -0.3235612213611603, 0.2777801752090454, -0.21245619654655457, 0.28547391295433044, -0.03828253969550133, -0.23981301486492157, 0.11406023055315018, -0.0714338943362236, 0.13035058975219727, -0.12212453782558441, 0.14516842365264893, 0.11949606984853745, -0.22452856600284576, 0.15916629135608673, -0.013822772540152073, -0.23140926659107208, 0.06264094263315201, -0.18672038614749908, 0.10312696546316147, -0.20182226598262787, 0.08348982036113739, -0.11462648212909698, -0.14169292151927948, -0.12019017338752747, 0.257620245218277, -0.1062735915184021, 0.16470050811767578, -0.1143495962023735, 0.16048772633075714, -0.03405606746673584, 0.2752430737018585, -0.005700934678316116, 0.25419268012046814, -0.16238246858119965, -0.026188915595412254, -0.0006662071100436151, -0.06262360513210297, 0.04147772863507271, 0.040602028369903564, -0.2631184458732605, -0.04442371055483818, -0.008090238086879253, -0.18102727830410004, 0.17238140106201172, 0.1966215968132019, -0.28320950269699097, 0.19258062541484833, -0.2477223128080368, 0.09657340496778488, -0.2030039280653, 0.06814979016780853, 0.003429328789934516, -0.04722164198756218, -0.056978318840265274, -0.028991613537073135, 0.03688522428274155, -0.12246355414390564, 0.06859371066093445, -0.17212969064712524, -0.06933923065662384, 0.13977164030075073, -0.1028585359454155, 0.05808210000395775, 0.054025184363126755, -0.18434500694274902, 0.15632052719593048, -0.02579662762582302, -0.023679666221141815, -0.016624880954623222, -0.1639610379934311, 0.020843420177698135, 0.028708908706903458, 0.09265819191932678, 0.08474467694759369, -0.0326538048684597, 0.02538175880908966, -0.10882826894521713, 0.04429757967591286, -0.11970707029104233, 0.13292169570922852, 0.051629453897476196, 0.10913443565368652, -0.15395355224609375, -0.03624524176120758, -0.08739151060581207, -0.10086565464735031, -0.14345374703407288, 0.060981232672929764, -0.12963677942752838, -0.06469755619764328, 0.017397021874785423, 0.04672662913799286, -0.17140664160251617, -0.09529253095388412, -0.13910403847694397, 0.16620080173015594, -0.038565173745155334, 0.2054510861635208, 0.07719588279724121, -0.0704236701130867, -0.15374131500720978, 0.049498774111270905, -0.029985692352056503, -0.07304266095161438, -0.0730459913611412, 0.07351725548505783, -0.06069562956690788, -0.14538568258285522, 0.17294935882091522, -0.06438758969306946, -0.09444364160299301, 0.18550588190555573, 0.09424097090959549, 0.06647461652755737, -0.18617893755435944, 0.010014132596552372, -0.08815446496009827, 0.05570373311638832, 0.07502065598964691, 0.05202765390276909, -0.05365528166294098, 0.06726770102977753, -0.02946404553949833, 0.19535093009471893, 0.15742084383964539, 0.0032399988267570734, 0.03710838034749031, -0.129576176404953, -0.1260031759738922, 0.1036112979054451, 0.10924352705478668, 0.1007268950343132, 0.06360665708780289, 0.09239249676465988, 0.0006504859775304794, -0.0864349901676178, 0.15337426960468292, -0.18971361219882965, 0.05745169520378113, 0.028402574360370636, -0.15380661189556122, 0.06951195746660233, 0.16744479537010193, 0.04082782194018364, -0.13246053457260132, -0.12213858217000961, -0.09422865509986877, 0.008523051626980305, -0.13768801093101501, -0.038576800376176834, -0.13533572852611542, 0.07057604938745499, 0.012778055854141712, 0.1575874537229538, 0.07226067036390305, -0.1069125384092331, 0.009281936101615429, 0.06538595259189606, 0.05533847212791443, 0.08484967052936554, -0.05047909542918205, -0.019292421638965607, -0.1972649246454239, -0.0025999960489571095, 0.042908985167741776, 0.08096515387296677, 0.3198411166667938, -0.03149843215942383, -0.06692371517419815, 0.019636692479252815, 0.006561472080647945, 0.008640245534479618, -0.037343770265579224, 0.1784663200378418, -0.013352789916098118, 0.10826671868562698, -0.10120411217212677, 0.09867721050977707, 0.0017913676565513015, -0.036354511976242065, -0.007193407043814659, 0.09024491161108017, -0.015063588507473469, 0.04554567113518715, -0.012000834569334984, -0.14708289504051208, 0.15021048486232758, -0.08302673697471619, -0.0016419657040387392, 0.0013412595726549625, -0.04543270543217659, 0.09823639690876007, -0.13458719849586487, -0.015661291778087616, -0.21752390265464783, -0.028374282643198967, 0.17058975994586945, -0.24119924008846283, 0.046991296112537384, 0.09919626265764236, 0.17943786084651947, -0.015142646618187428, -0.06052354723215103, 0.24371042847633362, 0.062201496213674545, -0.013706141151487827, 0.23518450558185577, 0.017310140654444695, -0.04523010551929474, -0.2815001606941223, 0.00934775359928608, 0.13480201363563538, 0.06884507089853287, -0.052498709410429, -0.06263533979654312, -0.17526544630527496, 0.07313830405473709, 0.12729302048683167, 0.38102129101753235, -0.03381483629345894, -0.19538426399230957, -0.4321274757385254, 0.12005152553319931, 0.18450738489627838, 0.20368963479995728, 0.06626462936401367, 0.005382633302360773, 0.3300633132457733, 0.05516400188207626, -0.0758405551314354, 0.2682444453239441, -0.03916119411587715, 0.011707737110555172, 0.37983113527297974, -0.07757323235273361, 0.021911386400461197, 0.3764219284057617, 0.0953458696603775, -0.19065040349960327, -0.30183395743370056, -0.10222509503364563, 0.17464236915111542, 0.11046857386827469, 0.04551112279295921, 0.11107969284057617, 0.20960195362567902, -0.06337356567382812, 0.15687456727027893, -0.2461668998003006, 0.050299402326345444, -0.18005836009979248, -0.2853850722312927, -0.09695113450288773, 0.03243900090456009, -0.07972380518913269, 0.140125572681427, 0.01989205740392208, 0.0072213513776659966, -0.12175916135311127, 0.05150257423520088, -0.08781828731298447, 0.20364952087402344, -0.08216622471809387, 0.07609441876411438, -0.15858910977840424, -0.00021972523245494813, 0.004392209928482771, 0.1507304161787033, 0.03460380434989929, 0.27678295969963074, 0.1382661610841751, 0.07117674499750137, -0.07589458674192429, 0.15166273713111877, -0.03005477972328663, 0.05630132183432579, 0.13728521764278412, 0.05666910856962204, -0.19683963060379028, 0.08593359589576721, -0.06714305281639099, -0.17791204154491425, -0.06340551376342773, -0.16303808987140656, -0.2622929811477661, 0.11068978905677795, 0.015887141227722168, 0.1373770833015442, -0.09300701320171356, 0.19635915756225586, 0.09731467068195343, -0.004743771627545357, -0.16099420189857483, 0.14822392165660858, 0.08235480636358261, -0.1454106718301773, 0.1229591965675354, 0.09358996152877808, -0.0008841156377457082, 0.0699920654296875, -0.09572254121303558, 0.031007172539830208, 0.11271430552005768, -0.007390530779957771, -0.048624202609062195, -0.04142399877309799, -0.02800929732620716, -0.07878882437944412, 0.0244663767516613, 0.12213145196437836, -0.018478194251656532, -0.07482726871967316, 0.021401165053248405, 0.01658518612384796, 0.10756798088550568, -0.10598231852054596, 0.053797751665115356, -0.0985618382692337, -0.04458382725715637, 0.003211061004549265, -0.10986120253801346, 0.04613370820879936, 0.18542912602424622, 0.025404509156942368, -0.08008485287427902, 0.011542980559170246, 0.018352169543504715, -0.12548084557056427, 0.12273058295249939, -0.1413246989250183, -0.15161439776420593, -0.08554936945438385, -0.035051897168159485, 0.09215112775564194, -0.07521043717861176, 0.13834209740161896, -0.06916262954473495, -0.04645892232656479, 0.1338014006614685, -0.3019728660583496, 0.20515042543411255, 0.13915474712848663, -0.10438593477010727, 0.06641581654548645, -0.16880542039871216, 0.35296323895454407, -0.005126522853970528, -0.003988249693065882, 0.11684846878051758, -0.05390310287475586, -0.2157902717590332, 0.17960406839847565, 0.02046605758368969, -0.04234369844198227, -0.19138365983963013, 0.08152778446674347, 0.057258639484643936, 0.21376393735408783, 0.04827527701854706, 0.031099162995815277, -0.1696149855852127, 0.154510036110878, -0.016367774456739426, 0.19138069450855255, 0.02042972855269909, -0.07207813113927841, -0.35717904567718506, 0.07500182837247849, -0.1629546731710434, 0.29631203413009644, -0.12383189052343369, -0.1028885468840599, 0.1262998878955841, 0.09423205256462097, -0.08867154270410538, 0.3434247672557831, 0.07778237015008926, 0.0047438726760447025, 0.23523063957691193, -0.05930124223232269, -0.11359384655952454, 0.24462398886680603, 0.05364890769124031, 0.015163718722760677, -0.0670313760638237, 0.05202937126159668, -0.0036101059522479773, -0.10868392139673233, 0.39707520604133606, 0.16985295712947845, -0.21387088298797607, 0.2475200593471527, 0.01986783556640148, 0.15543419122695923, -0.03972526267170906, -0.13065454363822937, 0.11515463888645172, -0.09987609088420868, -0.09791816771030426, 0.11585216224193573, -0.20859847962856293, 0.1442309319972992, -0.10738810896873474, 0.10810428112745285, 0.06459800899028778, 0.20646968483924866, -0.12660761177539825, 0.0636865422129631, 0.009419785812497139, 0.14696301519870758, 0.00424479553475976, 0.04271966218948364, -0.09888771921396255, -0.05028664693236351, -0.14929459989070892, 0.08746480941772461, 0.07893366366624832, 0.03475429117679596, -0.16750141978263855, -0.1177230179309845, 0.1973285675048828, 0.026702191680669785, -0.15916146337985992, -0.04399527236819267, -0.2670654058456421, -0.05262843891978264, 0.03341241553425789, -0.25451910495758057, -0.10532474517822266, 0.10126718133687973, -0.23594318330287933, 0.10390633344650269, -0.08406054228544235, 0.14255455136299133, 0.12255478650331497, 0.09906262159347534, -0.2249380201101303, 0.07803752273321152, -0.0784754827618599, -0.06488803774118423, -0.20056983828544617, -0.10677378624677658, 0.34425872564315796, -0.15639261901378632, 0.05918975546956062, 0.1884956955909729, -0.0999225601553917, -0.0011330757988616824, 0.293692022562027, 0.08497888594865799, -0.1612514853477478, -0.27444642782211304, -0.253976047039032, -0.04310113191604614, -0.05347665026783943, 0.202875554561615, -0.06023572012782097, -0.2272193282842636, -0.010791006498038769, 0.05214142054319382, 0.2663886547088623, 0.14563462138175964, -0.08314203470945358, -0.2998875677585602, -0.08316973596811295, 0.14721734821796417, 0.1438770592212677, -0.18169496953487396, 0.09038244187831879, 0.3413486182689667, -0.10631798207759857, -0.08928604423999786, 0.07084920257329941, -0.03185791149735451, 0.018183285370469093, 0.12515738606452942, -0.037044454365968704, 0.08274493366479874, 0.3122551441192627, 0.19722220301628113, -0.02076135203242302, -0.2738959789276123, -0.10799124836921692, 0.08495069295167923, 0.17849452793598175, -0.016803406178951263, -0.25998619198799133, 0.11327023059129715, 0.20009146630764008, 0.24927693605422974, -0.12142650038003922, 0.00771489879116416, 0.01916542463004589, 0.13644951581954956, 0.013864424079656601, 0.06724311411380768, 0.08647894859313965, -0.1268777996301651, -0.18732991814613342, -0.008902698755264282, -0.038953572511672974, -0.07567580789327621, 0.015547539107501507, -0.12823188304901123, -0.06862183660268784, 0.12360447645187378, 0.11870817095041275, 0.12782342731952667, 0.10218080878257751, -0.06636616587638855, -0.20877408981323242, 0.114667609333992, 0.08812597393989563, -0.029215145856142044, -0.05290140211582184, -0.07548142224550247, 0.2012799084186554, -0.04837959259748459, -0.0658421516418457, 0.11202337592840195, 0.09443090856075287, 0.10018563270568848, 0.16491322219371796, 0.012863418087363243, 0.11973030865192413, 0.08549518138170242, -0.05439361184835434, -0.18644078075885773, -0.2151244580745697, 0.08612173795700073, -0.08736449480056763, 0.050982631742954254, 0.16625437140464783, -0.0491839163005352, -0.13770098984241486, 0.15903356671333313, -0.026985546573996544, 0.15473665297031403, -0.15143577754497528, 0.017555946484208107, 0.11219102889299393, -0.09731699526309967, 0.1804368644952774, -0.05797944590449333, -0.1538984328508377, -0.10834582149982452, -0.0034329271875321865, 0.17391572892665863, -0.1148400530219078, 0.02702322229743004, -0.0735897570848465, -0.08804945647716522, 0.07166596502065659, -0.07522795349359512, 0.018187368288636208, 0.13231872022151947, -0.0879785567522049, 0.04674610495567322, -0.09642783552408218, 0.13786281645298004, -0.09312990307807922, 0.005824924446642399, -0.0752357468008995, 0.04666328430175781, 0.03699920326471329, 0.0457606166601181, 0.034720975905656815, 0.0308250579982996, 0.064219631254673, 0.01284908689558506, 0.16011039912700653, -0.1355348825454712, 0.038762569427490234, 0.024012168869376183, 0.02562858723104, 0.04105779901146889, -0.03470258042216301, -0.04790741577744484, 0.27929243445396423, -0.0927361249923706, -0.16646045446395874, 0.1668742597103119, 0.03950396552681923, 0.05053145810961723, -0.24660396575927734, -0.0742601528763771, 0.20412413775920868, -0.3610280752182007, 0.09684944897890091, 0.12578944861888885, -0.3281223177909851, 0.10625622421503067, -0.02964906208217144, 0.271735817193985, -0.16268396377563477, -0.12622636556625366, -0.13432320952415466, 0.17646880447864532, 0.012369952164590359, 0.35382938385009766, -0.08125638961791992, -0.17258328199386597, -0.31939199566841125, -0.03418561816215515, 0.27625933289527893, 0.22315309941768646, -0.03645551949739456, -0.04746714234352112, -0.15405641496181488, 0.19367513060569763, 0.2353888750076294, -0.2746487259864807, 0.10434632003307343, 0.053327564150094986, -0.3402020037174225, 0.09534018486738205, 0.2370571494102478, -0.36828070878982544, 0.15084637701511383, 0.030934292823076248, -0.2855498790740967, 0.18195396661758423, 0.0755782425403595, 0.2799527645111084, -0.17607688903808594, -0.017726387828588486, 0.007005457300692797, -0.32524192333221436, 0.23593857884407043, -0.1355348527431488, -0.35246893763542175, 0.0745871365070343, 0.1420060247182846, 0.19051851332187653, -0.015565765090286732, 0.14902184903621674, 0.3256610929965973, -0.16037268936634064, 0.015921100974082947, 0.1960461437702179, -0.19435587525367737, -0.01947888918220997, -0.12098640948534012, 0.2053809016942978, -0.020949142053723335, 0.23523806035518646, -0.13207542896270752, 0.08199111372232437, -0.2917591333389282, -0.01602737419307232, -0.005159295164048672, 0.2816179096698761, -0.2479185163974762, 0.09198304265737534, -0.19236399233341217, -0.032993052154779434, -0.01643010973930359, 0.35031160712242126, -0.21027612686157227, -0.04393923282623291, 0.22567127645015717, -0.21319495141506195, 0.1059686690568924, 0.305875301361084, 0.007112207356840372, -0.06866798549890518, 0.3731124997138977, -0.1715528964996338, 0.16874060034751892, 0.08930093795061111, -0.2162904292345047, 0.07754784822463989, -0.20518502593040466, 0.1341024786233902, -0.11025013029575348, -0.16744452714920044, -0.11615590751171112, -0.08235467225313187, 0.03723495453596115, 0.010716254822909832, -0.17457212507724762, -0.014344652183353901, 0.13514889776706696, 0.1767347902059555, -0.1030229851603508, 0.005806220229715109, -0.06839582324028015, -0.10321040451526642, -0.11692766100168228, 0.23487786948680878, 0.5676313042640686, -0.24998028576374054, 0.7127205729484558, -0.662885308265686, -0.04207916557788849, 0.8865917921066284, 1.1065561771392822, -0.49162089824676514, 0.1320848912000656, 0.12527012825012207, -0.30986955761909485, -0.5540796518325806, 0.262302041053772, -0.6668074727058411, 0.0705079585313797, 0.5082803964614868, -0.0035100611858069897, 0.49784722924232483, -0.11592244356870651, 0.09393089264631271, 0.24044783413410187, 0.08491145819425583, 0.2471792995929718, -0.06354162842035294, -0.10497228056192398, 0.2601275146007538, 0.3316740095615387, -0.12752434611320496, 0.39626771211624146, 0.1190161183476448, 0.1909029334783554, 0.09911996126174927, -0.01659473218023777, -0.13344579935073853, -0.30652916431427, 0.19207778573036194, 0.02416929043829441, -0.08047613501548767, -0.1973501294851303, 0.1069958359003067, -0.08382610231637955, 0.22730234265327454, 0.08459421247243881, 0.0996650755405426, 0.12660838663578033, -0.01824221946299076, -0.07683844864368439, 0.41354721784591675, 0.04019276425242424, 0.05509139597415924, 0.09703785926103592, 0.14621953666210175, -0.030601851642131805, -0.01994234323501587, 0.029252348467707634, 0.021419312804937363, 0.041332095861434937, -0.15465199947357178, 0.19853781163692474, -0.33465930819511414, 0.004912928212434053, 0.158970907330513, 0.15045490860939026, 0.094754658639431, 0.15934982895851135, -0.1416679322719574, 0.009847820736467838, -0.07808706164360046, 0.1320318579673767, 0.014081140048801899, -0.013374382629990578, -0.08088130503892899, -0.17870169878005981, 0.11989295482635498, -0.11796308308839798, 0.09795284271240234, 0.08613739907741547, 0.18689194321632385, -0.09134705364704132, 0.08360535651445389, -0.38020753860473633, -0.15259972214698792, -0.3894973695278168, 0.31082984805107117, -0.05412036553025246, -0.0968795120716095, -0.1582779437303543, -0.18845753371715546, -0.1542525738477707, 0.4011714458465576, -0.1832108348608017, 0.45946693420410156, 0.16152667999267578, 0.41003745794296265, -0.19479960203170776, 0.3216201364994049, -0.17413033545017242, -0.07344785332679749, 0.020748894661664963, 0.13558194041252136, 0.35020262002944946, 0.1679980605840683, 0.18701906502246857, 0.16756673157215118, 0.18415598571300507, -0.21821735799312592, -0.3206142783164978, 0.030706722289323807, -0.08393969386816025, -0.13579341769218445, 0.2981381416320801, -0.26528218388557434, -0.10564041882753372, 0.19180142879486084, 0.1686118096113205, 0.2136325240135193, -0.2965501844882965, -0.4066453278064728, 0.009476179257035255, 0.10458462685346603, 0.023240147158503532, -0.4549099802970886, -0.15863686800003052, 0.3062606155872345, 0.09694001078605652, -0.12339416146278381, 0.020828519016504288, -0.17491577565670013, 0.3470197916030884, 0.39096423983573914, 0.3664821684360504, -0.1675737351179123, -0.2032613605260849, 0.2433299422264099, 0.3653706908226013, 0.1927935779094696, 0.06022324040532112, -0.25701218843460083, 0.46441948413848877, -0.3179754912853241, 0.24179063737392426, -0.11220572888851166, -0.04260387644171715, -0.008395642973482609, 0.07255721837282181, 0.10255125164985657, -0.09985476732254028, -0.2938009798526764, -0.055185381323099136, -0.029834238812327385, 0.13701169192790985, -0.07428459823131561, -0.22598111629486084, -0.14272935688495636, 0.3588978350162506, -0.022214272990822792, 0.1464628279209137, -0.10500068962574005, -0.059012845158576965, 0.2339925616979599, -0.1659712940454483, -0.00538152689114213, 0.15944823622703552, -0.19239374995231628, -0.22980442643165588, -0.007824866101145744, 0.19768458604812622, -0.25538337230682373, 0.027569586411118507, 0.09184421598911285, 0.06298164278268814, 0.07720763981342316, 0.24135352671146393, 0.16382591426372528, -0.257480263710022, 0.07445257902145386, 0.09196155518293381, 0.2829492688179016, -0.3560657203197479, 0.19224630296230316, -0.17438945174217224, -0.22825121879577637, 0.022562898695468903, -0.14262931048870087, -0.019944697618484497, -0.10415102541446686, 0.008914228528738022, 0.016119519248604774, -0.019990073516964912, 0.20144122838974, -0.19234958291053772, 0.6175329089164734, 0.221369206905365, -0.14088958501815796, 0.40470460057258606, -0.04584408551454544, -0.12161625921726227, -0.26715731620788574, 0.43845537304878235, -0.5005830526351929, 0.08615134656429291, -0.4112119972705841, -0.24531857669353485, -0.3362157940864563, -0.14011919498443604, 0.041407808661460876, -0.5126656293869019, -0.005189987365156412, -0.016325518488883972, -0.1657681167125702, 0.19660739600658417, -0.019558442756533623, 0.1655975729227066, -0.13332071900367737, 0.1147608682513237, 0.07564684748649597, 0.270946204662323, -0.12779758870601654, -0.24693499505519867, 0.1041049212217331, 0.03565097972750664, -0.24772177636623383, -0.020477386191487312, 0.14306640625, 0.05997045710682869, -0.15391667187213898, -0.047479044646024704, 0.0627688467502594, -0.1948511004447937, 0.26335421204566956, 0.29384028911590576, 0.09283489733934402, -0.010553850792348385, -0.13147225975990295, 0.17195850610733032, -0.04748937860131264, -0.1811174899339676, -0.07293608784675598, -0.315095454454422, 0.394293874502182, -0.20484507083892822, 0.2464032769203186, -0.11321058124303818, -0.1360754519701004, 0.015499771572649479, 0.0064499047584831715, 0.18733631074428558, 0.13858522474765778, -0.3060677945613861, 0.23994578421115875, 0.03989154100418091, -0.07702243328094482, 0.27689749002456665, 0.29430386424064636, -0.2916475534439087, 0.14495190978050232, 0.17398099601268768, 0.0843924805521965, 0.22656621038913727, -0.03351128473877907, 0.11663248389959335, 0.27707239985466003, -0.03582580015063286, 0.2399182915687561, -0.014295853674411774, -0.15486730635166168, -0.05937400087714195, -0.20685525238513947, 0.00320080341771245, 0.06869345903396606, 0.17095667123794556, -0.10501278936862946, 0.2160021811723709, -0.27474120259284973, 0.15855558216571808, -0.28687047958374023, -0.39524754881858826, 0.05105097219347954, 0.14908675849437714, -0.16366158425807953, 0.007028671912848949, -0.14358128607273102, 0.020973196253180504, 0.025230662897229195, 0.10691795498132706, 0.011639110743999481, -0.06703418493270874, 0.011084919795393944, 0.12350071966648102, 0.161138117313385, -0.0026607068721204996, -0.08314196020364761, -0.17280693352222443, 0.0673585757613182, -0.17403213679790497, -0.06958625465631485, 0.2504555284976959, -0.3819008469581604, -0.16829290986061096, 0.028288688510656357, -0.27699288725852966, -0.23463663458824158, 0.16677531599998474, 0.27226993441581726, -0.05293891578912735, -0.1567203402519226, -0.21733222901821136, -0.27276065945625305, 0.11201654374599457, 0.09863978624343872, -0.003621487645432353, -0.44146639108657837, -0.17638202011585236, 0.012223223224282265, 0.12535078823566437, -0.2714439034461975, 0.06295286864042282, -0.07979074865579605, -0.2781672775745392, -0.09386405348777771, 0.2087768316268921, -0.21238656342029572, -0.0074263098649680614, 0.2397780418395996, -0.09568016231060028, -0.00485518854111433, 0.23841889202594757, -0.20826402306556702, 0.026795076206326485, 0.1039268895983696, -0.26478785276412964, 0.06239653006196022, 0.1942952275276184, 0.2523876428604126, 0.025110866874456406, -0.31830936670303345, -0.11317014694213867, 0.19085927307605743, 0.2293538898229599, -0.4269787669181824, 0.07185662537813187, -0.016934622079133987, 0.04142913967370987, 0.05515676364302635, 0.2978881895542145, -0.19608080387115479, 0.011273701675236225, -0.10674348473548889, -0.055990710854530334, -0.14731714129447937, 0.06436541676521301, 0.03242664411664009, -0.24859654903411865, -0.08105117082595825, 0.28447425365448, -0.33108261227607727, 0.09022507816553116, -0.06179376691579819, 0.01793736405670643, -0.05014362931251526, -0.2593972980976105, 0.05701955407857895, -0.05792664363980293, -0.076717309653759, 0.06749001890420914, -0.17436276376247406, -0.09246886521577835, 0.1147383600473404, 0.013336789794266224, 0.08245205134153366, -0.27555912733078003, 0.03073834627866745, 0.1871490329504013, -0.2136751264333725, 0.0231703482568264, -0.10020472854375839, 0.10285432636737823, -0.0040846895426511765, -0.2789497971534729, 0.05460963770747185, 0.019060540944337845, -0.10306146740913391, 0.13382773101329803, -0.19830720126628876, -0.23667453229427338, -0.3756890296936035, 0.04280344396829605, 0.16705907881259918, 0.24825789034366608, -0.12261291593313217, 0.0872865617275238, 0.12791143357753754, -0.11958649754524231, 0.29564252495765686, 0.17672865092754364, -0.07743992656469345, 0.2926177382469177, 0.19428618252277374, 0.04849608615040779, -0.17641262710094452, -0.03969895467162132, 0.26636332273483276, 0.03000759892165661, -0.13223738968372345, -0.2998649775981903, -0.15639814734458923, -0.2733677923679352, 0.31237515807151794, -0.014486577361822128, -0.0340384915471077, -0.23457510769367218, -0.10520428419113159, -0.10249512642621994, -0.2140338271856308, 0.008142712526023388, -0.05036155506968498, -0.08838437497615814, -0.02736624889075756, -0.3417060673236847, -0.20956458151340485, 0.08754101395606995, 0.08160096406936646, -0.23488537967205048, 0.03896584361791611, 0.009625136852264404, -0.10641957819461823, 0.0149008147418499, 0.0964573547244072, -0.0196380652487278, -0.19627507030963898, -0.02328001707792282, 0.30195537209510803, -0.12705543637275696, -0.11839021742343903, 0.0483207106590271, 0.11332093179225922, -0.029099470004439354, -0.05582977831363678, 0.2104383409023285, -0.11763336509466171, -0.3286823630332947, 0.24744608998298645, 0.18372555077075958, -0.16328412294387817, 0.20507510006427765, -0.005638413596898317, -0.12176121771335602, -0.2918701767921448, 0.07176785171031952, 0.17537322640419006, 0.10053139925003052, 0.13665123283863068, -0.07463116943836212, -0.30836114287376404, 0.05258553475141525, 0.18202516436576843, 0.2759248614311218, -0.05985860899090767, -0.11029527336359024, 0.202569380402565, -0.19259504973888397, -0.14557835459709167, 0.33225134015083313, -0.08856433629989624, -0.14993013441562653, -0.35834023356437683, 0.6925229430198669, -0.05564073473215103, 0.07089002430438995, 0.13216853141784668, -0.13372205197811127, 0.24587979912757874, -0.09848321974277496, -0.2600182294845581, 0.21042481064796448, -0.044778406620025635, -0.04151906818151474, -0.13708117604255676, 0.07237976044416428, 0.24053142964839935, 0.023913254961371422, 0.2638890743255615, -0.2546180486679077, 0.14956361055374146, 0.2877005338668823, -0.04961134120821953, -0.1329842507839203, 0.05653728172183037, -0.02340744435787201, -0.16815441846847534, 0.07423765957355499, 0.09087762236595154, 0.006617703475058079, 0.08385195583105087, -0.08687319606542587, -0.03429847210645676, -0.03519243374466896, -0.06264540553092957, 0.1785224974155426, -0.26178792119026184, 0.1582440882921219, -0.0019892454147338867, 0.037809502333402634, 0.07647500187158585, 0.04491036757826805, 0.2755281925201416, -0.08335714042186737, -0.19689136743545532, -0.178693488240242, 0.024614481255412102, 0.10101084411144257, 0.0776127278804779, -0.018412278965115547, -0.7179802656173706, -0.5594573020935059, 0.25887131690979004, -0.2569040358066559, -0.1540060192346573, 0.1361151933670044, -0.04689977318048477, 0.061331287026405334, 0.11568530648946762, 0.02238677255809307, 0.10429280251264572, -0.02272397093474865, 0.07424557954072952, -0.09995148330926895, -0.11945335566997528, -0.17133089900016785, -0.031163092702627182, 0.05796993896365166, -0.1806836724281311, 0.08886168152093887, 0.03957142308354378, -0.04432672634720802, -0.00958507414907217, 0.1003902480006218, -0.006097682286053896, 0.06071849167346954, 0.0694037675857544, -0.16980887949466705, 0.003911318723112345, -0.032858479768037796, 0.1292475461959839, -0.03686279058456421, -0.1079641729593277, 0.017786316573619843, -0.25965309143066406, -0.20641204714775085, 0.19347263872623444, -0.04709158465266228, 0.17577454447746277, -0.00473608635365963, 0.01598668284714222, -0.010275132022798061, 0.2738587260246277, -0.007383514661341906, 0.03897705301642418, 0.007569813169538975, 0.04855349659919739, 0.15631040930747986, 0.41144323348999023, -0.07285506278276443, 0.17308330535888672, 0.057906944304704666, 0.11720658093690872, 0.07282735407352448, -0.06919147819280624, -0.18823523819446564, 0.11617238819599152, -0.08356833457946777, 0.1152370423078537, -0.09189154952764511, 0.06123341992497444, 0.055812254548072815, 0.09342915564775467, -0.10598631203174591, 0.14615947008132935, 0.37089818716049194, -0.1268412172794342, 0.3378932774066925, -0.19441622495651245, 0.10639123618602753, -0.00790239404886961, -0.01207671407610178, 0.12033235281705856, 0.020187368616461754, -0.1709265410900116, -0.034642934799194336, 0.24078397452831268, -0.10907166451215744, 0.1339496225118637, -0.1548820286989212, 0.23973645269870758, 0.32255417108535767, -0.23452331125736237, -0.27264800667762756, -0.3525959551334381, 0.01867133192718029, 0.11522983014583588, 0.006035798694938421, 0.04833240434527397, -0.047128550708293915, -0.17081370949745178, 0.1167316660284996, -0.2157445102930069, 0.16084229946136475, 0.14732524752616882, -0.08285130560398102, -0.08523167669773102, -0.21759633719921112, -0.17985422909259796, 0.47991618514060974, 0.015022668987512589, 0.054588884115219116, 0.030306397005915642, 0.2533239424228668, -0.20330765843391418, -0.05520670861005783, 0.27493152022361755, -0.08570682257413864, -0.26532623171806335, -0.17107051610946655, 0.07238311320543289, 0.13454829156398773, 0.2308107167482376, 0.1446288526058197, 0.053202126175165176, -0.11897287517786026, -0.027100713923573494, -0.18893563747406006, -0.0028334627859294415, 0.18069703876972198, -0.1772063821554184, -0.16360120475292206, -0.09469150006771088, -0.1331644505262375, -0.27590230107307434, -0.09874937683343887, 0.20687341690063477, 0.03334195539355278, -0.11123886704444885, -0.05382656678557396, -0.06350866705179214, 0.07227393239736557, 0.11944270879030228, 0.047234270721673965, -0.09522166103124619, 0.09108483046293259, -0.13696244359016418, 0.212007075548172, 0.23666182160377502, 0.20572076737880707, 0.12522833049297333, 0.01992139220237732, -0.19578087329864502, 0.0923115462064743, 0.06310518831014633, 0.09827181696891785, 0.03077031299471855, -0.14784927666187286, -0.046449024230241776, -0.0008614534744992852, -0.15043170750141144, -0.036474354565143585, -0.04493754357099533, -0.016409873962402344, 0.0038681316655129194, 0.1776527464389801, 0.0031555972527712584, 0.1087343618273735, -0.06040887534618378, -0.19932079315185547, 0.3979070484638214, -0.07813475281000137, -0.29633045196533203, 0.0479777455329895, -0.014304417185485363, 0.08807738870382309, 0.011382912285625935, 0.1618158519268036, 0.16177450120449066, 0.03870595619082451, -0.06349722295999527, 0.08915741741657257, 0.1546165496110916, 0.1023266464471817, 0.0666891559958458, -0.07489442825317383, -0.07358166575431824, 0.23332640528678894, -0.28587859869003296, -0.07590318471193314, -0.12604089081287384, 0.12444043904542923, 0.043792057782411575, -0.29828178882598877, 0.177810400724411, 0.2619055509567261, -0.110235795378685, 0.16939674317836761, -0.1658790558576584, -0.15810538828372955, 0.07740386575460434, -0.030222749337553978, 0.2696722149848938, -0.32772430777549744, -0.2511517107486725, 0.100721575319767, -0.08658763766288757, -0.005543404724448919, -0.1857757717370987, 0.008531301282346249, -0.13369490206241608, -0.17112956941127777, 0.05429257079958916, 0.10450084507465363, 0.09999077022075653, 0.03001374565064907, -0.1519567370414734, 0.04790496826171875, 0.02642689272761345, -0.04129819944500923, 0.03848046436905861, 0.23566095530986786, 0.05085919052362442, -0.16568520665168762, -0.16281335055828094, -0.17900224030017853, 0.055644869804382324, 0.2061561644077301, 0.043118707835674286, 0.21242231130599976, 0.1572301834821701, -0.03758533298969269, -0.12618373334407806, -0.15105080604553223, 0.20874632894992828, -0.03458152338862419, -0.14790205657482147, -0.06603310257196426, -0.1420639008283615, -0.005407225340604782, 0.2508046627044678, -0.03122185729444027, 0.1455594003200531, -0.06016536429524422, -0.08407249301671982, -0.01353404950350523, 0.02944391407072544, -0.02255888655781746, 0.10783560574054718, -0.06639207154512405, 0.097000852227211, -0.07622098177671432, 0.2104949951171875, -0.049294475466012955, -0.12536625564098358, -0.08331666886806488, -0.08863689005374908, 0.037307966500520706, -0.06622201204299927, -0.009840492159128189, -0.08841754496097565, -0.0887049213051796, -0.03594103828072548, -0.05126631259918213, 0.06737358868122101, 0.11429985612630844, 0.3677354156970978, -0.05413816496729851, -0.09404736757278442, 0.11494942754507065, 0.07017782330513, -0.08846699446439743, 0.029998570680618286, 0.08908672630786896, -0.19583925604820251, -0.03586668521165848, 0.03142194822430611, -0.039557650685310364, 0.005559883546084166, -0.10135949403047562, 0.1308237463235855, 0.028102822601795197, -0.11504217237234116, 4.180211908533238e-05, 0.02684188075363636, 0.09371883422136307, 0.02472406066954136, 0.13247263431549072, 0.13358035683631897, -0.003923045936971903, 0.12351693212985992, 0.16469773650169373, -0.12568606436252594, -0.2316437065601349, 0.07371889799833298, 0.020471662282943726, 0.029655424878001213, 0.03291752561926842, -0.21626847982406616, -0.07634720206260681, -0.2573821246623993, -0.05169333517551422, 0.026346158236265182, -0.028099749237298965, -0.07427482306957245, 0.002376912161707878, 0.15177273750305176, 0.017580170184373856, 0.13877835869789124, 0.19497860968112946, 0.024053072556853294, -0.10793245583772659, 0.04501643776893616, 0.09392733871936798, -0.029256785288453102, -0.1463129073381424, 0.021971462294459343, -0.005442012567073107, -0.17068161070346832, -0.1014738529920578, 0.06885948032140732, 0.07026185840368271, 0.11302559822797775, 0.10284435749053955, 0.034483496099710464, 0.07213903218507767, 0.03970469906926155, -0.06595531105995178, -0.06235148385167122, 0.05422179773449898, 0.09592883288860321, -0.2731204926967621, -0.2879112660884857, 0.07030919939279556, 0.07648971676826477, 0.21125122904777527, -0.0063334121368825436, 0.21323050558567047, -0.043422944843769073, -0.18425610661506653, -0.23787347972393036, 0.07279733568429947, -0.18765795230865479, -0.03382954001426697, 0.02084246836602688, -0.15809239447116852, -0.06437066942453384, 0.2594759166240692, -0.16780558228492737, -0.016038062050938606, -0.12233303487300873, 0.11747917532920837, 0.15583598613739014, 0.006583765614777803, -0.20974017679691315, 0.0687502846121788, -0.014130759052932262, -0.18822063505649567, -0.06537944078445435, 0.136834517121315, 0.12870003283023834, 0.09358279407024384, -0.06875724345445633, -0.02080904319882393, 0.1992724984884262, -0.0031132760923355818, -0.10796999931335449, 0.19804075360298157, 0.09364619106054306, -0.1806117296218872, 0.04682435095310211, 0.028565101325511932, -0.14594483375549316, 0.2869844138622284, 0.006139034405350685, -0.1768295168876648, -0.22743873298168182, -0.11913561820983887, 0.25876137614250183, -0.08914723247289658, 0.07141954451799393, -0.023501966148614883, -0.17206570506095886, -0.13205158710479736, 0.18626314401626587, 0.12114764004945755, 0.07840756326913834, 0.05170833319425583, 0.020298508927226067, -0.09827705472707748, -0.2606721818447113, 0.2681540548801422, 0.1301671862602234, -0.10223320126533508, 0.08521409332752228, 0.01679675653576851, -0.054153721779584885, 0.052082359790802, -0.02232821099460125, 0.011006399989128113, 0.12827317416667938, -0.00522565608844161, -0.1698755919933319, 0.2525976002216339, -0.10642927139997482, -0.13769890367984772, -0.08694536238908768, 0.047719065099954605, 0.10953915864229202, -0.1008203774690628, -0.10786259919404984, 0.004585464484989643, 0.13194692134857178, 0.24184082448482513, 0.05521130934357643, -0.023960018530488014, -0.3688361942768097, -0.13382330536842346, 0.02048450894653797, 0.01860424131155014, 0.04406639561057091, 0.019711531698703766, 0.1484801024198532, 0.05573635175824165, -0.10416119545698166, 0.08127759397029877, 0.04806562140583992, -0.0986129641532898, 0.04877816513180733, -0.25689607858657837, 0.1530190110206604, 0.015856221318244934, 0.15010444819927216, 0.006005849223583937, -0.13259905576705933, -0.03539483621716499, 0.1299641728401184, -0.07289426773786545, 0.15057870745658875, 0.030783412978053093, -0.018367288634181023, -0.21475118398666382, 0.1020953580737114, 0.02973582036793232, 0.12803708016872406, -0.13943186402320862, -0.07686056196689606, -0.08422312885522842, 0.08604885637760162, -0.008424578234553337, -0.15345707535743713, -0.024738820269703865, -0.11419994384050369, -0.3109619617462158, 0.041082095354795456, -0.07025144249200821, 0.30017349123954773, 0.04884642735123634, -0.09351437538862228, 0.13967329263687134, -0.25363603234291077, 0.3493311107158661, -0.20276960730552673, -0.05524641275405884, 0.17844471335411072, -0.0008527697646059096, -0.22990167140960693, -0.16963288187980652, -0.1289902627468109, -0.18123161792755127, 0.24537590146064758, -0.1061246395111084, 0.2130783200263977, -0.30003196001052856, 0.05317597836256027, -0.011278808116912842, 0.1386226862668991, -0.0503116175532341, -0.07461805641651154, -0.2754688262939453, -0.050652921199798584, 0.04413110390305519, 0.05575452744960785, -0.13597114384174347, -0.31621137261390686, -0.10200158506631851, -0.14891596138477325, -0.04258693382143974, 0.34214434027671814, 0.001241306308656931, -0.05654887109994888, -0.6878572702407837, -0.03607781231403351, 0.3727661073207855, 0.11818492412567139, 0.11345618218183517, -0.07485143095254898, 0.21662627160549164, -0.07222998887300491, -0.18309210240840912, 0.29620346426963806, -0.15368057787418365, 0.07413002848625183, -0.34924831986427307, 0.08039876818656921, -0.18498674035072327, 0.21869081258773804, 0.04240671917796135, -0.04270973056554794, 0.17487052083015442, -0.1313147246837616, 0.14070452749729156, 0.0031689079478383064, -0.021950731053948402, 0.09666718542575836, 0.0013470142148435116, -0.22373954951763153, -0.0827907845377922, 0.1166195347905159, -0.11935609579086304, -0.12551400065422058, -0.20495250821113586, 0.11095359921455383, -0.017728079110383987, 0.05158315226435661, -0.29213568568229675, 0.16078290343284607, -0.24321654438972473, -0.017189839854836464, -0.14650210738182068, -0.0447399728000164, -0.06839907169342041, -0.021778540685772896, 0.1531749963760376, 0.048388782888650894, 0.10121048986911774, 0.1850435584783554, -0.2546015977859497, 0.3156684339046478, -0.3444446921348572, 0.10906285047531128, 0.042432285845279694, -0.12249287217855453, 0.042198605835437775, 0.2067292332649231, 0.12250149250030518, -0.16620120406150818, 0.11194594949483871, -0.010515156202018261, -0.13401375710964203, 0.09035509079694748, 0.009010321460664272, 0.2230810672044754, 0.3082611858844757, 0.12413517385721207, -0.19337673485279083, -0.008519765920937061, -0.05516218766570091, 0.14039529860019684, 0.1881301999092102, 0.23985274136066437, -0.12305264919996262, -0.1430552452802658, 0.06786470860242844, 0.043040234595537186, 0.0877738744020462, -0.05026473104953766, 0.29588937759399414, 0.0216849222779274, -0.6812363862991333, 0.19193297624588013, 0.4755859971046448, -0.43169283866882324, 0.11925037205219269, -0.8580583930015564, -0.21165788173675537, -0.42756059765815735, 0.8190165758132935, -0.9218646883964539, -0.5300227403640747, -1.0101680755615234, 0.38933098316192627, -0.6633964776992798, 0.287786602973938, -0.5972208976745605, -0.2152603417634964, -0.07561379671096802, -0.05321349576115608, 0.02449045516550541, 0.2948668301105499, 0.029885409399867058, -0.39689287543296814, 0.027736175805330276, -0.045110221952199936, -0.0459209606051445, 0.14069442451000214, 0.09726046025753021, -0.03710496798157692, -0.0494135245680809, -0.3218343257904053, -0.05176093429327011, 0.04256405308842659, -0.18163003027439117, 0.07608339935541153, -0.07374889403581619, 0.0630016177892685, 0.11143680661916733, -0.057137154042720795, -0.25462791323661804, 0.11106280982494354, -0.1739717572927475, 0.03681609034538269, 0.06677871197462082, 0.006165235303342342, 0.11276659369468689, 0.1700121909379959, 0.04417702183127403, -0.08712995052337646, -0.3537079989910126, -0.1977824568748474, 0.475501149892807, -0.1289612352848053, 0.21589793264865875, -0.060679491609334946, 0.28630536794662476, 0.12973418831825256, -0.12553782761096954, -0.05675892531871796, -0.3257128596305847, -0.10672283172607422, 0.14430619776248932, 0.06181685999035835, -0.0044030132703483105, 0.05584311485290527, 0.055756501853466034, -0.4032439589500427, 0.002442118478938937, -0.15172623097896576, -0.4057058095932007, -0.21200472116470337, 0.052601225674152374, -0.1110285073518753, -0.16753140091896057, 0.25938573479652405, 0.11296186596155167, 0.24457082152366638, -0.2221127301454544, -0.04906192049384117, -0.17495232820510864, 0.7203513979911804, -0.04429082199931145, -0.536328136920929, -0.3609490990638733, 0.10610459744930267, 0.14341029524803162, -0.10332878679037094, 0.30433642864227295, 0.04552295058965683, 0.014074493199586868, 0.003463313216343522, 0.13044510781764984, -0.5199462175369263, -0.06273024529218674, -0.10915771126747131, -0.1399029791355133, -0.20885512232780457, 0.015006800182163715, -0.1417333036661148, -0.3133264183998108, -0.0954081192612648, 0.13256171345710754, -0.07679619640111923, -0.17792730033397675, 0.15353403985500336, 0.21907204389572144, -0.11969593167304993, 0.009849675931036472, -0.17460405826568604, -0.22076110541820526, 0.11590715497732162, 0.05884196236729622, 0.10165952146053314, -0.003520586062222719, 0.4003443717956543, -0.2187199890613556, -0.26520097255706787, 0.28471019864082336, -0.1439044028520584, -0.2931998670101166, 0.32654064893722534, -0.004524235147982836, -0.18848271667957306, 0.08636072278022766, 0.09852053225040436, 0.13715605437755585, -0.12771651148796082, 0.3537014424800873, 0.2870030701160431, -0.1154782846570015, 0.06443998962640762, 0.4977894723415375, -0.002867325907573104, -0.0499434620141983, 0.15237191319465637, -0.035065725445747375, 0.025629781186580658, 0.24419696629047394, -0.2722965180873871, 0.14337682723999023, 0.43213513493537903, 0.27861669659614563, 0.2985406219959259, 0.19567686319351196, -0.06256946176290512, 0.1442696750164032, -0.12768520414829254, -0.260393351316452, 0.31709274649620056, 0.05688757449388504, 0.06817339360713959, -0.2195291817188263, -0.13541236519813538, 0.13392630219459534, 0.2626613676548004, -0.2673843801021576, -0.20981252193450928, 0.09285787492990494, 0.05802997201681137, 0.46085304021835327, -0.2836141586303711, 0.09234500676393509, 0.1769961416721344, 0.0752875804901123, 0.1074632927775383, -0.034462954849004745, 0.2145230919122696, -0.10864407569169998, 0.09885496646165848, 0.12338504940271378, 0.02655562199652195, 0.3120298981666565, 0.07752270996570587, 0.022073285654187202, 0.13450416922569275, 0.026476871222257614, -0.12575048208236694, -0.12669725716114044, -0.09720851480960846, 0.20044788718223572, 0.17323535680770874, -0.18282856047153473, 0.058203741908073425, -0.028981035575270653, 0.06612470000982285, 0.2773256301879883, -0.17402470111846924, -0.08201085776090622, 0.05754922702908516, 0.13967813551425934, 0.0025712884962558746, 0.18335917592048645, -0.11622258275747299, 0.2538745701313019, -0.2540719509124756, 0.05300267040729523, 0.40452444553375244, 0.18023371696472168, 0.10258312523365021, 0.21532763540744781, 0.4457511007785797, 0.08171877264976501, 0.41172030568122864, -0.08781412243843079, -0.021978991106152534, -0.09077280014753342, 0.18912741541862488, -0.08232537657022476, -0.3021354675292969, -0.15922591090202332, -0.26492220163345337, 0.24136203527450562, -0.31179600954055786, 0.06475812941789627, -0.25036749243736267, 0.13946376740932465, 0.10252653062343597, -0.1392635852098465, -0.02644461952149868, -0.02943730540573597, 0.13398043811321259, -0.13797135651111603, -0.3035578429698944, -0.16241854429244995, 0.1269109845161438, -0.03960897773504257, -0.1699400693178177, 0.3188237249851227, 0.05182407423853874, 0.02067955955862999, 0.15478557348251343, -0.004213682375848293, 0.04587874561548233, 0.2237289696931839, 0.019907420501112938, -0.11810097098350525, 0.13919343054294586, 0.2398638129234314, 0.12618747353553772, 0.12118782848119736, 0.023128610104322433, 0.1406843215227127, 0.05226286128163338, 0.047860708087682724, -0.3142867088317871, -0.08309214562177658, 0.2842392027378082, -0.060088880360126495, -0.1007392406463623, 0.08571392297744751, -0.14331001043319702, 0.12747114896774292, 0.009945057332515717, 0.22847884893417358, 0.38736000657081604, 0.11400014162063599, 0.19713596999645233, -0.11135151237249374, -0.2984921932220459, 0.06265944242477417, -0.2683013081550598, 0.11790328472852707, -0.49011698365211487, 0.35755446553230286, 0.3924943506717682, -0.2980184257030487, 0.24450093507766724, -0.1820681393146515, -0.22854644060134888, 0.1646985411643982, -0.7410235404968262, -0.22844745218753815, 0.09283047914505005, -0.24714811146259308, -0.0075680348090827465, -0.04419862478971481, -0.2710694968700409, 0.054795969277620316, 0.06372448056936264, -0.10624735802412033, 0.08597249537706375, 0.015740152448415756, -0.012385845184326172, -0.24567179381847382, 0.2481369823217392, -0.3135569095611572, -0.3336704969406128, -0.10384434461593628, 0.19113121926784515, -0.4080371856689453, -0.14176017045974731, -0.32335954904556274, 0.06514988094568253, 0.029017765074968338, -0.08162256330251694, -0.2404576689004898, 0.11222248524427414, 0.11587540060281754, -0.2283823937177658, -0.18355265259742737, 0.28046467900276184, 0.19339515268802643, -0.1604589819908142, 0.14483290910720825, 0.06081252172589302, -0.11058556288480759, -0.22462594509124756, 0.20753604173660278, 0.0650658831000328, -0.2604699432849884, 0.01954852044582367, -0.09923989325761795, -0.05167219787836075, 0.37602484226226807, 0.038154296576976776, -0.318682461977005, 0.07625467330217361, -0.01772509329020977, -0.3067631721496582, 0.13681048154830933, -0.013759639114141464, 0.3321214020252228, 0.0314144641160965, -0.17484308779239655, 0.13289260864257812, -0.4965045750141144, 0.07356873154640198, -0.2542678415775299, 0.18167129158973694, -0.04531076177954674, -0.1223616674542427, 0.26370760798454285, -0.052190616726875305, 0.3387981951236725, -0.4358595907688141, -0.09346959739923477, 0.05169462785124779, -0.12069015204906464, 0.2137453258037567, 0.3016453981399536, 0.3358272612094879, 0.060571298003196716, 0.5965402722358704, 0.10600457340478897, -0.06656785309314728, -0.11930534243583679, 0.10865191370248795, -0.09360776841640472, 0.0035816116724163294, -0.08249020576477051, -0.014411013573408127, -0.04919179901480675, 0.15748216211795807, 0.032612062990665436, 0.34497302770614624, 0.012624240480363369, 0.27831265330314636, 0.16789135336875916, 0.08445441722869873, 0.09425142407417297, -0.13468444347381592, -0.23750965297222137, -0.3358554244041443, 0.26230719685554504, 0.3626407980918884, 0.26750561594963074, 0.30655622482299805, 0.07483694702386856, 0.014517629519104958, -0.2829051911830902, -0.16367506980895996, -0.06506923586130142, -0.02894783765077591, -0.13645018637180328, -0.1765098124742508, 0.19708850979804993, 0.13973921537399292, -0.07453560084104538, 0.058534879237413406, 0.26340436935424805, 0.05087805539369583, 0.19753378629684448, -0.05992565304040909, 0.12554854154586792, 0.12320835143327713, 0.13716591894626617, -0.1573026329278946, -0.019182970747351646, -0.15349194407463074, -0.021539324894547462, -0.13933239877223969, -0.16345250606536865, 0.030754970386624336, -0.2214093655347824, -0.2554396986961365, -0.09417262673377991, -0.09109655022621155, -0.15035411715507507, 0.04885273799300194, 0.16452030837535858, 0.07917149364948273, -0.049342118203639984, 0.1414734125137329, 0.21270793676376343, 0.13211281597614288, -0.013163710944354534, -0.006875127088278532, 0.0643395483493805, 0.1482866108417511, 0.15505295991897583, 0.10384044051170349, -0.060163963586091995, -0.005041583441197872, 0.08371288329362869, -0.1774352788925171, 0.24804513156414032, 0.1519462764263153, -0.028042741119861603, -0.13158884644508362, -0.2925267815589905, 0.13753286004066467, 0.21990233659744263, 0.020352747291326523, -0.17371326684951782, 0.00165559200104326, 0.19357174634933472, 0.02013227716088295, -0.2790578007698059, 0.1319766342639923, -0.11693774908781052, -0.003168322378769517, -0.10852380841970444, -0.0894770473241806, -0.12465637177228928, 0.32494208216667175, 0.006893530488014221, 0.1884893774986267, -0.06116325035691261, 0.13215875625610352, 0.30868664383888245, -0.005239876918494701, 0.15481723845005035, 0.2291124016046524, 0.016428068280220032, 0.03858380392193794, 0.0980931892991066, 0.049288395792245865, -0.13369619846343994, -0.11384191364049911, 0.19373339414596558, 0.1324981451034546, -0.014677678234875202, -0.27469927072525024, -0.06279008835554123, -0.05144455283880234, 0.03578466922044754, 0.01806463487446308, 0.03910370543599129, -0.08915922045707703, -0.05990638583898544, -0.14143937826156616, -0.3352236747741699, 0.15061132609844208, 0.12485408037900925, -0.077461838722229, -0.1109820008277893, 0.08564034104347229, -0.0896884948015213, 0.07280300557613373, -0.018069004639983177, 0.4189321994781494, 0.25326716899871826, 0.046487580984830856, 0.01173813920468092, 0.16409005224704742, 0.0663803368806839, -0.010368434712290764, -0.1824725717306137, -0.1156587079167366, 0.1658407747745514, 0.18393710255622864, -0.10263801366090775, -0.15511654317378998, -0.11198509484529495, 0.05442211031913757, 0.18785333633422852, 0.0850771814584732, 0.11145904660224915, 0.2361563891172409, -0.2247953563928604, 0.06345298141241074, 0.14521484076976776, -0.3131701648235321, -0.20378601551055908, 0.16443128883838654, 0.13434216380119324, 0.16508716344833374, -0.24418582022190094, -0.32084399461746216, -0.18648120760917664, 0.15609803795814514, -0.05325689911842346, -0.12689337134361267, -0.20328104496002197, -0.06070689111948013, -0.328760027885437, 0.17746245861053467, 0.03930659592151642, 0.0932430773973465, 0.14889292418956757, -0.23096606135368347, -0.16550607979297638, 0.22986429929733276, 0.08692825585603714, -0.043262265622615814, 0.0679161325097084, -0.062278516590595245, 0.21681854128837585, -0.002029725816100836, -0.2078302800655365, -0.2019229233264923, 0.32177823781967163, -0.11062631011009216, -0.198682963848114, 0.2711247205734253, 0.17765524983406067, -0.006995389237999916, -0.16187553107738495, 0.298910915851593, 0.1541426181793213, -0.25516918301582336, 0.06575506180524826, -0.03671500086784363, 0.07784207910299301, -0.1124509871006012, -0.3634807765483856, -0.2415037900209427, 0.20665238797664642, -0.1970851719379425, -0.07222668081521988, 0.490940660238266, 0.08781559765338898, -0.05156353861093521, 0.005708235315978527, 0.026253489777445793, 0.11180030554533005, -0.07396867126226425, 0.12228399515151978, 0.14940939843654633, -0.4478245675563812, -0.25656628608703613, 0.15813954174518585, 0.21258024871349335, 0.09332437813282013, -0.11688235402107239, -0.20159785449504852, 0.07311732321977615, 0.22734403610229492, -0.012128444388508797, 0.14041857421398163, 0.1392858922481537, 0.1333015114068985, 0.31042933464050293, -0.00024567291256971657, 0.11762453615665436, -0.34987902641296387, -0.4889020025730133, -0.16767817735671997, 0.020163701847195625, 0.16205082833766937, -0.14119544625282288, -0.11161772906780243, 0.14725945889949799, 0.25253826379776, 0.026471002027392387, -0.21529346704483032, -0.011165782809257507, -0.05246754735708237, -0.12253963202238083, -0.08556973934173584, -0.14345014095306396, 0.1620427668094635, -0.09443872421979904, -0.11953635513782501, 0.20537923276424408, -0.17433814704418182, -0.08682876080274582, 0.5862966179847717, 0.024079926311969757, -0.17282767593860626, 0.758924663066864, 0.0338507816195488, 0.08912739902734756, -0.33591529726982117, -0.10902868211269379, -0.04086897522211075, 0.10776298493146896, 0.12722061574459076, 0.054207079112529755, -0.539901077747345, -0.13236594200134277, -0.0688886046409607, 0.3603472113609314, -0.2219351828098297, 0.061482854187488556, -0.05439750477671623, -0.34270310401916504, -0.05642937496304512, 0.15808509290218353, 0.07917700707912445, -0.1913037747144699, -0.10768280178308487, -0.1903546005487442, 0.07730450481176376, 0.3703552782535553, -0.1933092176914215, -0.16568464040756226, 0.2668609023094177, -0.2985212206840515, -0.052338700741529465, 0.21044568717479706, 0.28047579526901245, -0.030548861250281334, -0.12084517627954483, 0.09614112228155136, 0.6190634369850159, -0.05856331065297127, 0.13205522298812866, -0.011214414611458778, 0.13644054532051086, -0.5414906144142151, 0.3305489718914032, 0.2174944430589676, -0.1495991200208664, -0.1683925837278366, -0.08186516910791397, -0.2431100606918335, -0.043346505612134933, -0.15144120156764984, 0.1371936798095703, 0.1728527843952179, 0.0005950391641817987, 0.09740406274795532, 0.06768340617418289, 0.16640569269657135, 0.30190446972846985, 0.10540417581796646, 0.02558949403464794, -0.2503410577774048, -0.2542514204978943, -0.2524678707122803, 0.04928089678287506, 0.06883981823921204, -0.015158969908952713, 0.12708789110183716, -0.06517839431762695, 0.05310631915926933, -0.14255087077617645, -0.14474396407604218, -0.12272008508443832, -0.258531779050827, 0.359188973903656, 0.12934494018554688, -0.14357376098632812, -0.15697433054447174, 0.10463780909776688, 0.024231037124991417, -0.23769962787628174, -0.01779646798968315, -0.1304859071969986, 0.2751099765300751, -0.046233680099248886, 0.3924402892589569, 0.1416274607181549, -0.15578506886959076, 0.2029111236333847, -0.12216071784496307, 0.09799383580684662, -0.7764789462089539, 0.33336275815963745, 0.09465118497610092, -0.06530946493148804, -0.04560990259051323, -0.02940695732831955, -0.2581555247306824, -0.08595306426286697, -0.04521580785512924, 0.05149250850081444, 0.17381685972213745, -0.16629762947559357, 0.17880357801914215, 0.250912070274353, 0.2797667682170868, 0.3191832900047302, -0.14781318604946136, -0.014213424175977707, -0.15560820698738098, -0.21011705696582794, -0.04795928671956062, 0.13832198083400726, 0.29736781120300293, 0.33851027488708496, -0.09379764646291733, 0.019266903400421143, 0.008636937476694584, -0.2322506159543991, 0.591744601726532, -0.0912216380238533, -0.7688001394271851, 0.47205132246017456, 0.1328919231891632, -0.2210913896560669, -0.14037948846817017, 0.2535635530948639, -0.04464530199766159, -0.09870348125696182, 0.06053510308265686, 0.3668292462825775, 0.45945897698402405, -0.0672464519739151, -0.16367769241333008, -0.2356293797492981, -0.001441408647224307, 0.24734234809875488, 0.36883345246315, 0.20297186076641083, 0.34300556778907776, 0.04280282184481621, 0.08065875619649887, 0.09274116158485413, 0.0110442154109478, -0.11014921963214874, 0.16902419924736023, -0.04293331503868103, 0.03796893358230591, -0.22193551063537598, 0.034991052001714706, 0.034971609711647034, -0.19790975749492645, -0.005223564337939024, -0.14124813675880432, 0.019397521391510963, 0.039780884981155396, -0.11618668586015701, 0.04806654900312424, -0.31860190629959106, -0.001969467382878065, 0.13642290234565735, 0.09002844244241714, 0.21338778734207153, 0.17886771261692047, 0.03398006036877632, -0.03923703357577324, 0.06559959053993225, 0.1575799435377121, 0.03653166443109512, -0.17000815272331238, -0.3275558352470398, -0.15045228600502014, 0.16580729186534882, 0.02577389031648636, -0.027555381879210472, 0.06586393713951111, 0.29470720887184143, -0.11062201857566833, 0.12214875966310501, -0.1418292075395584, -0.010074409656226635, -0.03500305488705635, -0.1321583092212677, 0.15814220905303955, 0.061579108238220215, 0.1295785903930664, -0.0068731470964848995, 0.18609276413917542, 0.2446521371603012, -0.14159083366394043, 0.09085455536842346, -0.00846997369080782, -0.07406088709831238, 0.27804407477378845, -0.37585964798927307, 0.07179731875658035, -0.09113119542598724, -0.08722037076950073, 0.16394361853599548, 0.001529079396277666, 0.1608426868915558, -0.1664489358663559, 0.018849199637770653, 0.17974123358726501, -0.0334026999771595, 0.05197134613990784, -0.037605348974466324, -0.15427882969379425, -0.0964379832148552, 0.2697164714336395, 0.07115229219198227, 0.1498199999332428, 0.07872863113880157, -0.06984741985797882, -0.1664760559797287, 0.19024650752544403, 0.28202760219573975, 0.10195554792881012, -0.07154729962348938, 0.007794769946485758, 0.19981041550636292, -0.013444996438920498, -0.24450695514678955, -0.09333514422178268, 0.24205246567726135, -0.32056552171707153, 0.10286735743284225, -0.3730454742908478, 0.07098539918661118, 0.042673755437135696, -0.030477141961455345, 0.042630717158317566, -0.0531257763504982, -0.08596156537532806, 0.13419531285762787, 0.03433578833937645, -0.05958515778183937, 0.12452876567840576, -0.026074565947055817, -0.08358369767665863, -0.009351800195872784, 0.14118216931819916, -0.13601839542388916, -0.04805872216820717, -0.05270892009139061, -0.08580001443624496, -0.0429551936686039, -0.11091235280036926, 0.08783705532550812, 0.18170487880706787, 0.14053840935230255, 0.018559638410806656, -0.06206634268164635, -0.18601123988628387, 0.05075051262974739, -0.09965568780899048, -0.15819735825061798, 0.04655550420284271, 0.09339815378189087, -0.14191916584968567, -0.0984361320734024, 0.006901763845235109, 0.2096903771162033, -0.19951856136322021, -0.1791190505027771, 0.01740717887878418, -0.09193338453769684, -0.16807547211647034, -0.11310359835624695, -0.08347870409488678, 0.21642524003982544, -0.16365142166614532, -0.17805075645446777, 0.22360864281654358, 0.1007470190525055, -0.07685340940952301, -0.20808815956115723, -0.08460184931755066, -0.07332499325275421, 0.378728985786438, 0.13031765818595886, 0.173029363155365, -0.13192756474018097, 0.08880675584077835, -0.13946564495563507, -0.03807225450873375, 0.03858160972595215, 0.007648797705769539, 0.10395649075508118, 0.14471296966075897, 0.025883756577968597, 0.11560289561748505, -0.0533672571182251, -0.0588076114654541, 0.05163206905126572, 0.009928778745234013, 0.11543036252260208, -0.11649703234434128, -0.0009500881424173713, -0.10167048871517181, -0.1259019523859024, -0.011536474339663982, -0.19324934482574463, 0.04130029305815697, -0.11105355620384216, 0.35180535912513733, -0.09629277884960175, 0.2346028834581375, 0.24136485159397125, 0.0097896046936512, 0.0745638757944107, 0.038152214139699936, 0.07894809544086456, 0.15095777809619904, -0.13900452852249146, 0.07514852285385132, 0.23468169569969177, 0.18319152295589447, -0.02638654224574566, 0.004197751171886921, 0.32061776518821716, -0.3051844537258148, 0.1645204871892929, -0.2052810937166214, 0.18440350890159607, -0.049172740429639816, -0.20571519434452057, 0.06730242818593979, 0.018942147493362427, -0.13516223430633545, -0.09322793036699295, 0.3766111135482788, 0.25112485885620117, -0.24613624811172485, -0.419356107711792, -0.1319982260465622, 0.024059448391199112, -0.6928557753562927, -0.040102314203977585, 0.025915998965501785, -0.1965944916009903, 0.010202690958976746, 0.000540524662937969, -0.252946138381958, -0.07909110933542252, -0.1367141157388687, 0.4818318784236908, 0.029364317655563354, -0.12484416365623474, 0.04652458056807518, 0.13445916771888733, 0.21604245901107788, 0.06549607962369919, -0.17526580393314362, 0.08802784979343414, 0.030412442982196808, -0.16908878087997437, -0.20587870478630066, 0.2218792587518692, -0.3338966965675354, 0.25963568687438965, -0.10273417830467224, 0.30159997940063477, 0.05167079716920853, 0.20364883542060852, -0.006733554415404797, -0.22403444349765778, -0.025197207927703857, -0.03767162933945656, -0.14819872379302979, -0.07865042984485626, -0.28080374002456665, 0.02459070086479187, 0.1527666598558426, 0.3902941644191742, 0.10923562943935394, 0.07600633800029755, 0.03729657083749771, 0.13148775696754456, 0.13526590168476105, 0.41374287009239197, 0.2962799370288849, -0.24934448301792145, -0.007141579408198595, -0.1750991940498352, -0.5046664476394653, 0.18082192540168762, -0.29627200961112976, 0.040643926709890366, -0.11274117231369019, -0.06160717085003853, 0.13037800788879395, 0.1022983118891716, 0.07994383573532104, 0.09913219511508942, -0.18631231784820557, 0.05825359746813774, -0.17182865738868713, -0.0247256588190794, 0.08376800268888474, 0.19985245168209076, -0.1755855679512024, -0.012248421087861061, 0.029577452689409256, 0.12576118111610413, 0.12650053203105927, -0.09908097982406616, 0.41634002327919006, -0.31493884325027466, 0.18048761785030365, 0.1778680831193924, -0.08917843550443649, -0.03705252334475517, -0.10108297318220139, 0.06874015927314758, 0.05661121383309364, -0.12545080482959747, 0.1180923730134964, -0.08480386435985565, 0.21943636238574982, -0.16191232204437256, -0.10187729448080063, 0.007911885157227516, 0.2822180688381195, 0.10405505448579788, 0.08468044549226761, 0.033750440925359726, -0.20074363052845, 0.08183324337005615, 0.1807291954755783, -0.15318341553211212, 0.09281548857688904, 0.20635314285755157, -0.07033330202102661, 0.1858331859111786, 0.15135759115219116, 0.013654869981110096, -0.031189095228910446, -0.014351789839565754, 0.0920051634311676, 0.06358104199171066, -0.05137095972895622, 0.0170721635222435, 0.028787685558199883, 0.04607567563652992, 0.07673408091068268, 0.006681784987449646, -0.09064268320798874, -0.09050057083368301, -0.04636916145682335, -0.2580399811267853, 0.05728669837117195, -0.17000098526477814, -0.06215335801243782, -0.10067814588546753, 0.14034457504749298, 0.21646152436733246, -0.2611788511276245, 0.14478643238544464, 0.1956837773323059, 0.015749039128422737, 0.04776309058070183, -0.2120160162448883, 0.3576420843601227, 0.037797391414642334, -0.16959309577941895, -0.24251945316791534, -0.15467514097690582, 0.35987263917922974, 0.17115840315818787, -0.22083784639835358, 0.18721793591976166, -0.20999889075756073, 0.05669675022363663, -0.10364217311143875, 0.0015881072031334043, -0.17644499242305756, -0.030796336010098457, -0.149147167801857, 0.012129228562116623, 0.0678439736366272, -0.31437110900878906, 0.2360786646604538, -0.07649337500333786, -0.02062930352985859, -0.13713900744915009, -0.29279032349586487, 0.6597000360488892, 0.35431039333343506, -0.7094050645828247, -0.22077932953834534, -0.5590890049934387, -0.1703338623046875, 0.33519479632377625, -0.6262298822402954, 1.1710975170135498, 0.6385981440544128, 0.07864338904619217, -0.09367773681879044, -0.10732587426900864, -0.6000203490257263, 0.05034339055418968, -0.41913020610809326, 0.27087610960006714, -0.4043255150318146, 0.17856669425964355, 0.15191245079040527, 0.20185460150241852, 0.17027020454406738, 0.4206109642982483, -0.18652454018592834, 0.14651945233345032, 0.3489575684070587, -0.538761556148529, 0.054361842572689056, -0.07551287859678268, -0.3868081271648407, 0.4159458875656128, 0.16308575868606567, -0.012326398864388466, 0.22211748361587524, 0.12542788684368134, 0.22160117328166962, 0.03824322670698166, -0.3038088083267212, -0.43847671151161194, 0.18484951555728912, 0.07759421318769455, -0.3020106554031372, 0.19669261574745178, 0.2434416264295578, 0.08603742718696594, -0.04991249367594719, -0.17247192561626434, 0.0024959538131952286, 0.028417183086276054, -0.11803371459245682, -0.01380264200270176, 0.27451491355895996, 0.026861753314733505, -0.20533695816993713, -0.2281074821949005, -0.15262314677238464, 0.2892444133758545, 0.19676068425178528, 0.36498913168907166, -0.42358899116516113, -0.32409557700157166, -0.24443401396274567, 0.35562464594841003, -0.016739634796977043, 0.23228894174098969, -0.0409979447722435, -0.012188921682536602, 0.4377894401550293, 0.26818349957466125, 0.21277198195457458, 0.19720683991909027, -0.08234100788831711, 0.583767294883728, 0.2213577926158905, 0.16167347133159637, -0.09098898619413376, 0.07825793325901031, -0.3667423129081726, -0.12442194670438766, -0.40252286195755005, 0.4202059209346771, -0.45256680250167847, 0.3756090998649597, 0.0742107704281807, 0.5924133658409119, 0.28590697050094604, 0.4817904233932495, -0.25654706358909607, -0.5256057977676392, 0.2538019120693207, -0.5611758828163147, -0.2565578520298004, 0.5237937569618225, -0.3969170153141022, -0.07304294407367706, 0.07245676219463348, 0.09411270171403885, -0.05730978026986122, -0.2347014844417572, -0.27845290303230286, 0.022830769419670105, 0.06595510989427567, 0.010178574360907078, -0.003722068388015032, -0.0097988685593009, 0.19123481214046478, 0.10636114329099655, 0.17008626461029053, 0.12168627232313156, 0.17695043981075287, 0.4629986584186554, 0.3422926366329193, -0.12020967155694962, 0.14450062811374664, 0.16501478850841522, -0.07516077160835266, 0.1016755923628807, -0.1895950734615326, -0.3976742625236511, 0.2476578801870346, 0.27708595991134644, -0.2676388621330261, 0.2513880729675293, 0.26063159108161926, -0.08347238600254059, 0.19927573204040527, 0.8215727210044861, 0.19565357267856598, -0.3371562957763672, -0.0453563816845417, 0.27455419301986694, -0.08340861648321152, 0.1546383500099182, -0.1854107826948166, -0.13402432203292847, 0.11835253983736038, -0.1904141902923584, 0.16707804799079895, 0.061354346573352814, 0.19009196758270264, -0.15138398110866547, -0.21662646532058716, -0.1901489645242691, 0.1161089688539505, 0.000860396190546453, 0.05667761713266373, 0.3140987157821655, 0.17556025087833405, 0.21977666020393372, 0.17474964261054993, -0.05921012908220291, 0.009227696806192398, -0.12589655816555023, 0.19292432069778442, -0.4177531898021698, -0.015647046267986298, -0.020434534177184105, 0.009303548373281956, 0.14852046966552734, -0.043442435562610626, -0.255412757396698, 0.2037600725889206, 0.02223171852529049, 0.11406373977661133, -0.41241684556007385, -0.2291245013475418, -0.13354353606700897, 0.06565378606319427, -0.0735417976975441, -0.14820782840251923, 0.018273618072271347, -0.026001080870628357, 0.234878808259964, -0.04501916095614433, 0.22277304530143738, -0.22171714901924133, 0.08826681226491928, -0.27101948857307434, 0.36660733819007874, -0.11079674959182739, 0.35434648394584656, 0.1438724547624588, 0.35323846340179443, -0.01885981298983097, -0.3716617226600647, 0.0396936796605587, -0.18898320198059082, -0.16220273077487946, 0.16185066103935242, 0.04439632594585419, -0.08081649988889694, -0.04552546888589859, -0.016621895134449005, 0.1874673217535019, 0.05403967574238777, 0.05134180560708046, 0.3628897964954376, 0.23166780173778534, -0.058308813720941544, -0.3266841769218445, -0.10377874225378036, 0.12514539062976837, -0.2691548764705658, -0.08566810190677643, 0.23654623329639435, 0.20667894184589386, -0.619398832321167, -0.2578389346599579, 0.12470614910125732, -0.21509425342082977, 0.051275283098220825, 0.608790934085846, -0.44174638390541077, -0.20967277884483337, 0.2925419509410858, -0.0018706218106672168, -0.11365856975317001, 0.2559815049171448, -0.17676614224910736, -0.3350850045681, 0.20871824026107788, -0.6573871374130249, -0.2749667465686798, 0.06442342698574066, 0.06148352101445198, -0.05967390164732933, -0.08108261227607727, -0.14064554870128632, 0.35805633664131165, 0.06595228612422943, 0.10864782333374023, -0.03725793957710266, 0.21602986752986908, -0.3010643422603607, -0.1073603481054306, 0.30252811312675476, -0.1240655928850174, -0.00788864679634571, 0.49113208055496216, 0.39807939529418945, -0.16929800808429718, 0.08455457538366318, -0.11804395914077759, 0.2192140817642212, 0.06751451641321182, -0.4181745648384094, -0.03469463065266609, 0.3174658715724945, 0.2414768487215042, 0.09137122333049774, 0.040874503552913666, 0.050890784710645676, -0.09708250313997269, -0.2417924851179123, 0.052346523851156235, -0.3173048496246338, 0.025781920179724693, -0.30983495712280273, -0.12096589803695679, 0.033034514635801315, 0.10450148582458496, -0.2824990451335907, 0.031052391976118088, 0.003777936799451709, 0.3528125584125519, 0.5343227386474609, -0.1379321813583374, -0.1102273166179657, -0.3716033101081848, -0.1270284354686737, 0.08281456679105759, -0.11328443884849548, 0.05290404334664345, 0.16356156766414642, -0.14201956987380981, 0.1760614961385727, -0.07070781290531158, -0.4476054906845093, -0.19910793006420135, -0.09876172244548798, 0.0591152124106884, 0.01698600873351097, 0.5704606175422668, 0.08441709727048874, -0.06423774361610413, -0.09959784895181656, 0.0816405862569809, -0.07041726261377335, 0.005882658530026674, -0.06558192521333694, -0.01085915882140398, 0.04597729444503784, 0.15914437174797058, 0.11757169663906097, 0.014694221317768097, -0.07381263375282288, -0.09763667732477188, 0.07250034809112549, 0.0873393714427948, -0.31836771965026855, -0.1642991602420807, 0.08054036647081375, -0.017968272790312767, 0.05175189673900604, 0.14647068083286285, -0.052942708134651184, -0.05123120918869972, 0.13288746774196625, 0.5087853670120239, -0.06473615020513535, 0.00015516867279075086, -0.025210469961166382, -0.17531360685825348, 0.0057289451360702515, 0.1574634462594986, 0.012411144562065601, -0.20514722168445587, -0.2044171392917633, 0.1141027882695198, 0.05625844746828079, 0.028912115842103958, -0.12286379188299179, -0.38130807876586914, -0.19504941999912262, -0.07932306826114655, 0.2211853265762329, 0.2000458687543869, 0.019122449681162834, -0.07686411589384079, -0.08366775512695312, -0.15146657824516296, 0.12853334844112396, -0.040240269154310226, -0.04317422956228256, -0.03807900473475456, 0.1755884438753128, 0.07178158313035965, 0.3021407127380371, -0.04343938082456589, -0.19255422055721283, 0.19821582734584808, -0.1820656806230545, 0.06269297748804092, -0.208657905459404, 0.10912266373634338, 0.26177215576171875, 0.11068542301654816, 0.11442895233631134, 0.24264085292816162, -0.10790140181779861, -0.20860768854618073, 0.0965849757194519, -0.08583462238311768, 0.048108313232660294, -0.14277519285678864, 0.5984690189361572, 0.18430596590042114, 0.37698355317115784, -0.011789043433964252, -0.0012620168272405863, -0.22379714250564575, 0.08917153626680374, 0.22283801436424255, 0.070344939827919, 0.16319029033184052, 0.052615340799093246, -0.08641152828931808, -0.06497035920619965, 0.009815485216677189, -0.10494612157344818, -0.19391731917858124, 0.008168037980794907, -0.0753716230392456, -0.14808762073516846, 0.03103293478488922, -0.35105881094932556, 0.19978004693984985, 0.08104784041643143, -0.08779880404472351, -0.14688925445079803, 0.027375854551792145, 0.14237132668495178, -0.22285053133964539, -0.1392132192850113, 0.11380000412464142, 0.1643492877483368, 0.00939758587628603, -0.2702232599258423, 0.04806412383913994, 0.09979008883237839, 0.0951799675822258, -0.022064829245209694, 0.028970446437597275, -0.08109643310308456, 0.11565663665533066, -0.014897795394062996, -0.11142899841070175, -0.2504515051841736, -0.18512748181819916, 0.15500730276107788, 0.0949380174279213, 0.08692143857479095, -0.23872025310993195, -0.29857337474823, -0.13013657927513123, 0.33438852429389954, 0.04501928389072418, 0.4765603840351105, -0.15880587697029114, 0.16885589063167572, -0.02157571353018284, -0.06168939173221588, 0.10756400227546692, 0.08654394745826721, -0.4320813715457916, -0.17004536092281342, -0.062152568250894547, -0.02358170971274376, -0.20631639659404755, -0.13019588589668274, -0.24495384097099304, 0.001046187593601644, 0.06604402512311935, -0.13050352036952972, 0.2058011293411255, -0.09386829286813736, -0.16204501688480377, -0.17852169275283813, 0.02482188120484352, 0.18495215475559235, 0.1578005850315094, 0.2116047590970993, -0.10960794240236282, -0.12461554259061813, 0.034893013536930084, 0.26449793577194214, 0.06954723596572876, 0.010168464854359627, -0.060935504734516144, 0.026509007439017296, 0.11795099824666977, -0.1982278823852539, 0.06661316752433777, 0.25267061591148376, -0.21453873813152313, 0.14074541628360748, -0.1463211178779602, -0.02900138683617115, 0.05152199789881706, -0.027473246678709984, 0.1777982860803604, 0.4653240144252777, 0.21949923038482666, 0.2490682601928711, -0.22200492024421692, 0.25555744767189026, -0.1218041405081749, -0.2365456074476242, -0.060795724391937256, 0.09837953746318817, -0.11548741161823273, 0.3856557607650757, 0.14919084310531616, 0.10345584154129028, 0.25429004430770874, -0.046970438212156296, 0.10334982722997665, 0.15061156451702118, -0.20792406797409058, -0.05414886400103569, 0.17314115166664124, 0.038072891533374786, -0.2921217381954193, 0.05313843488693237, 0.015256499871611595, 0.08229348063468933, -0.008817936293780804, -0.20570015907287598, 0.139943465590477, 0.04082415625452995, -0.24704524874687195, 0.06823155283927917, -0.08080147951841354, 0.09773362427949905, -0.15355589985847473, 0.0838315412402153, -0.09726828336715698, 0.028696194291114807, -0.03109789453446865, -0.2541314959526062, 0.10715515911579132, -0.14017604291439056, -0.27499714493751526, -0.10451436787843704, 0.2539340853691101, 0.1394895613193512, -0.09727831929922104, -0.16407257318496704, 0.13452516496181488, 0.18681401014328003, 0.060224369168281555, -0.034455958753824234, -0.21465441584587097, 0.06764782220125198, -0.327325701713562, -0.14773645997047424, -0.03260507062077522, 0.11123531311750412, -0.12946900725364685, -0.19645589590072632, -0.11174412816762924, 0.0010618079686537385, 0.22285854816436768, -0.17522504925727844, -0.019347701221704483, -0.0018126685172319412, -0.1664588302373886, 0.03336968272924423, -0.019449373707175255, 0.07217315584421158, -0.05940147116780281, -0.13570977747440338, 0.04032330587506294, 0.11880797147750854, -0.05932885780930519, -0.08384546637535095, -0.2043488472700119, -0.13521717488765717, 0.034115370362997055, 0.026628734543919563, -0.002542514121159911, -0.24126186966896057, 0.14123620092868805, 0.009177223779261112, -0.31370455026626587, -0.17113177478313446, -0.22372926771640778, -0.35628482699394226, -0.0011944654397666454, -0.41780340671539307, 0.03523442521691322, -0.27367252111434937, -0.17147985100746155, 0.20962290465831757, 0.07002309709787369, -0.017374973744153976, -0.1457601934671402, -0.3627487123012543, 0.47216761112213135, -0.3024211823940277, 0.02901485003530979, 0.23202453553676605, 0.05910230427980423, 0.11848708242177963, 0.30333518981933594, -0.09111560136079788, 0.06982745230197906, -0.2625107765197754, -0.28272536396980286, -0.062165845185518265, -0.055206622928380966, 0.23257963359355927, 0.16952453553676605, 0.2924589216709137, -0.18871818482875824, 0.16072054207324982, -0.057668235152959824, -0.23059475421905518, 0.12886394560337067, 0.02477283403277397, -0.2437107115983963, -0.12610602378845215, 0.01839938759803772, 0.14166127145290375, 0.24591125547885895, 0.07967783510684967, -0.20101511478424072, -0.15027637779712677, -0.04214317724108696, 0.1315353661775589, 0.03560424596071243, 0.14247708022594452, 0.08964642137289047, -0.01972144842147827, -0.10282055288553238, -0.19197900593280792, 0.021540705114603043, 0.03143792226910591, -0.13929560780525208, 0.028058135882019997, -0.08812275528907776, 0.015333273448050022, -0.17437763512134552, -0.10906247049570084, 0.0036741921212524176, 0.19619695842266083, -0.2416984736919403, -0.4007315933704376, -0.19066357612609863, 0.2130514234304428, 0.07300953567028046, -0.07984030991792679, -0.016397129744291306, 0.07992735505104065, -0.03811202198266983, 0.07938415557146072, 0.079666867852211, 0.02195454016327858, -0.09460850059986115, -0.12241844832897186, 0.16173410415649414, -0.007322268560528755, 0.03229554370045662, -0.30170348286628723, 0.002850374672561884, 0.00636290293186903, -0.17705558240413666, 0.13386228680610657, 0.1282610148191452, 0.2319285273551941, 0.015817904844880104, -0.2430710792541504, 0.042382702231407166, -0.07520265132188797, -0.2297055572271347, 0.017340445891022682, 0.04866368696093559, 0.38037919998168945, -0.15672925114631653, -0.036433178931474686, 0.404589980840683, -0.026005787774920464, 0.2453957498073578, -0.007884940132498741, 0.03619188815355301, 0.517548143863678, -0.24894031882286072, 0.045586392283439636, -0.2054203897714615, -0.2670363187789917, -0.025232935324311256, -0.10716062039136887, 0.26623213291168213, 0.10401752591133118, 0.009200022555887699, -0.20273926854133606, -0.034003954380750656, 0.41956964135169983, 0.04163346439599991, -0.11751842498779297, -0.1605582982301712, 0.09571803361177444, -0.055827099829912186, 0.39613646268844604, 0.020025070756673813, 0.09546414017677307, 0.042053382843732834, -0.13702723383903503, 0.10487771034240723, -0.058293312788009644, 0.07882944494485855, -0.04705442115664482, -0.07755008339881897, 0.1113983765244484, -0.14462773501873016, -0.04001980647444725, 0.23510323464870453, 0.09543705731630325, -0.12915943562984467, -0.178736612200737, -0.23517924547195435, 0.06657422333955765, 0.1787000447511673, 0.2106003314256668, -0.05549081414937973, -0.1466875523328781, -0.02326556108891964, -0.14333747327327728, -0.09862362593412399, -0.19929999113082886, -0.10842330008745193, -0.22017470002174377, -0.24042098224163055, -0.33319830894470215, 0.21340055763721466, -0.1449122279882431, 0.1374470293521881, 0.07486100494861603, 0.06569553911685944, -0.06732036918401718, -0.2699556350708008, -0.2950863242149353, 0.011988889425992966, -0.15687675774097443, 0.10723579674959183, -0.29182159900665283, 0.08402914553880692, 0.1968575268983841, 0.24963246285915375, -0.14164070785045624, 0.1321765035390854, -0.406574010848999, -0.10667484253644943, 0.05255616083741188, -0.08853009343147278, 0.11189591884613037, -0.13232555985450745, 0.16424942016601562, -0.09448752552270889, 0.05236753821372986, 0.042659368366003036, -0.06771137565374374, 0.2222932130098343, 0.08310458809137344, -0.20291544497013092, -0.1322663277387619, -0.07611145079135895, 0.2188417613506317, -0.20134221017360687, 0.23276826739311218, 0.4387212097644806, 0.3053494691848755, -0.019972361624240875, -0.035344887524843216, -0.2203408181667328, -0.232060045003891, 0.12931904196739197, -0.3677372932434082, -0.26642656326293945, 0.5673890113830566, -0.5155174136161804, 0.06120068207383156, 0.2751515507698059, -0.004812031053006649, 0.17387837171554565, -0.13476216793060303, 0.05840802192687988, -0.025853537023067474, -0.029508031904697418, -0.3655076324939728, 0.622586190700531, 0.14437934756278992, -0.11234903335571289, -0.1268167644739151, -0.14666947722434998, -0.11769960820674896, -0.2165706753730774, -0.31577160954475403, -0.3396623134613037, 0.13840781152248383, -0.04947105422616005, -0.38505467772483826, -0.17022867500782013, -0.1558893322944641, 0.08837978541851044, -0.5413086414337158, 0.4031743109226227, 0.19505859911441803, 0.2626591920852661, -0.46169522404670715, 0.16340762376785278, 0.13543739914894104, -0.2190234214067459, -0.1737309843301773, -0.0017205992480739951, 0.21523897349834442, 0.21055421233177185, -0.22049902379512787, 0.07732308655977249, 0.0799984335899353, 0.07988326996564865, 0.08106035739183426, 0.20314183831214905, 0.07308071106672287, -0.050522543489933014, 0.3496561050415039, 0.13145744800567627, -0.1106734499335289, 0.725170910358429, -0.35159096121788025, -0.06509821861982346, -0.1367437243461609, -0.022555891424417496, 0.083758644759655, -0.023477066308259964, 0.18941645324230194, -0.08039267361164093, 0.18281355500221252, -0.09906409680843353, 0.3078479468822479, 0.6420679688453674, 0.0883539617061615, 0.02166173793375492, -0.09708494693040848, 0.016686923801898956, -0.11608491092920303, 0.5959144234657288, -0.3134997487068176, -0.12550859153270721, 0.14630958437919617, -0.25431138277053833, -0.10801610350608826, 0.28071239590644836, 0.15987680852413177, 0.1361793875694275, -0.10464224219322205, 0.04693283885717392, 0.08149369806051254, 0.06679119914770126, 0.2603098154067993, 0.020923050120472908, -0.013105278834700584, -0.0590662807226181, 0.007456149440258741, -0.14507755637168884, 0.06162401661276817, 0.14862018823623657, 0.1537611186504364, 0.07359951734542847, -0.19691422581672668, 0.21311160922050476, -0.042511191219091415, -0.2542544901371002, -0.023105906322598457, -0.002825438976287842, 0.09248558431863785, -0.1273801326751709, -0.2373383790254593, 0.118260957300663, -0.2071705162525177, -0.1219218447804451, 0.011901740916073322, 0.0520506352186203, -0.05789484456181526, -0.2804376184940338, -0.17200683057308197, 0.29760968685150146, 0.0915578156709671, 0.1642342507839203, 0.02702370099723339, 0.03639878332614899, -0.07633163034915924, 0.0720965638756752, 0.008578017354011536, 0.28068289160728455, -0.22187869250774384, -0.038959696888923645, 0.025746336206793785, -0.041150063276290894, 0.09697569161653519, 0.12298280000686646, 0.14298009872436523, 0.08138515055179596, 0.2581230103969574, -0.01727202534675598, 0.0052229296416044235, 0.07796642184257507, -0.0887063592672348, -0.20079311728477478, -0.03852203115820885, -0.06413403898477554, 0.14871883392333984, 0.18441174924373627, 0.0592472106218338, -0.1395672857761383, -0.14424429833889008, -0.048355914652347565, 0.07627180963754654, 0.06965339183807373, -0.01995938830077648, -0.1259797364473343, -0.02003997005522251, -0.019341083243489265, -0.07467684894800186, 0.10254731774330139, 0.11497481167316437, -0.07606618851423264, 0.2633797526359558, -0.015272979624569416, -0.1626771241426468, -0.2210739552974701, 0.0772719606757164, 0.03432486578822136, 0.5049440264701843, 0.19691121578216553, 0.06985390186309814, -0.21720914542675018, 0.02092675492167473, -0.11211330443620682, -0.12717971205711365, 0.07076931744813919, 0.11669895797967911, -0.2084278166294098, 0.08923127502202988, -0.024933021515607834, 0.004218613263219595, 0.025205127894878387, 0.009273337200284004, 0.08691240102052689, -0.21986445784568787, -0.25809815526008606, 0.015926122665405273, 0.07475707679986954, 0.2050955891609192, -0.15115603804588318, 0.018752191215753555, 0.14251065254211426, 0.3332356810569763, 0.11461867392063141, -0.06008494645357132, 0.15680938959121704, -0.03452478349208832, -0.0086057772859931, -0.055450402200222015, 0.13679981231689453, 0.08365817368030548, -0.10125216096639633, 0.006880604196339846, -0.0695246085524559, 0.1778944879770279, -0.02203560434281826, -0.28418803215026855, 0.12650731205940247, -0.10188403725624084, -0.014309744350612164, 0.19747821986675262, 0.05321921780705452, -0.0025152552407234907, -0.18872465193271637, 0.07459364831447601, 0.23982276022434235, -0.3970724940299988, 0.04547525569796562, -0.2349926382303238, -0.3347349464893341, 0.05469696968793869, -0.09878933429718018, -0.13468265533447266, -0.1387181580066681, 0.14763635396957397, -0.08338320255279541, -0.007952474988996983, 0.1767812818288803, 0.15792354941368103, -0.04699503630399704, -0.1166253462433815, 0.14390386641025543, -0.10396271198987961, -0.3397175669670105, -0.13609138131141663, -0.059468500316143036, 0.22714221477508545, -0.18893776834011078, -0.05464513972401619, 0.17633645236492157, 0.15427692234516144, 0.07865800708532333, 0.020871004089713097, 0.13016299903392792, -1.5506333511439152e-05, 0.07681524753570557, -0.13736918568611145, 0.14600850641727448, 0.05336675047874451, 0.10477912425994873, 0.03737790137529373, -0.03175206482410431, 0.05527690425515175, -0.12353343516588211, 0.02448224276304245, 0.07985921949148178, -0.08427279442548752, -0.11669211834669113, 0.20078139007091522, -0.2546122372150421, 0.0521189384162426, 0.007587499916553497, -0.02215186320245266, 0.16884267330169678, 0.0465104915201664, 0.5296589732170105, 0.02250826172530651, -0.30338355898857117, -0.08331472426652908, 0.07576240599155426, -0.18532338738441467, 0.24588941037654877, 0.04875529929995537, -0.008534613065421581, 0.5043022036552429, 0.08135426789522171, 0.20178823173046112, -0.18800519406795502, -0.09363210946321487, 0.23618164658546448, 0.22903987765312195, -0.07331061363220215, -0.1928994357585907, 0.16399765014648438, 0.03606325015425682, -0.20506109297275543, 0.15432427823543549, -0.06048456206917763, 0.10015984624624252, -0.11188732087612152, -0.015872839838266373, 0.04933886229991913, 0.17935298383235931, 0.05322613567113876, -0.11977334320545197, 0.14022600650787354, 0.13933825492858887, -0.10100357979536057, -0.020163744688034058, -0.36504265666007996, 0.11567067354917526, 0.11545547097921371, -0.2549363672733307, -0.0302631426602602, 0.2303374707698822, -0.08913234621286392, -0.04007166996598244, -0.1267099380493164, 0.08569119870662689, -0.02377239055931568, 0.01650957763195038, -0.01430539321154356, 0.12017760425806046, 0.22315916419029236, -0.309993714094162, 0.09950603544712067, 0.5011046528816223, -0.022716110572218895, -0.22671708464622498, -0.1055552214384079, 0.07508639246225357, -0.1117824912071228, 0.3859722316265106, -0.041767559945583344, 0.10909748822450638, -0.001245400053448975, -0.11023043841123581, 0.07768215984106064, -0.05972050875425339, 0.12016855180263519, -0.14749033749103546, 0.20562438666820526, 0.18577826023101807, -0.008520461618900299, 0.1866898089647293, 0.06994285434484482, 0.03983267769217491, -0.10422816872596741, 0.032375093549489975, 0.08218211680650711, -0.0662057101726532, -0.08293972909450531, 0.003245264058932662, 0.14429627358913422, -0.10450810939073563, -0.07213848829269409, -0.11402050405740738, 0.1192515417933464, 0.39405062794685364, 0.08054352551698685, -0.005184403620660305, 0.014487436041235924, 0.0887046605348587, 0.00416372949257493, 0.3598226308822632, 0.4442017674446106, 0.19337213039398193, 0.6302758455276489, -0.8514125943183899, -0.45242074131965637, 0.15733282268047333, 0.3913253843784332, -0.03580041602253914, 0.28980258107185364, 0.07354455441236496, -1.5464425086975098, 0.1649109274148941, 0.09274448454380035, -0.6570695042610168, -0.09360003471374512, -0.13092313706874847, -0.002880386309698224, -0.31310826539993286, 0.39227867126464844, -0.457555890083313, 0.15123942494392395, 0.3451850712299347, -0.09852493554353714, -0.07213900983333588, -0.2016673982143402, -0.05881974473595619, -0.06671050190925598, 0.07811610400676727, 0.11500392854213715, -0.12660105526447296, 0.05208408087491989, -0.139317587018013, -0.19411471486091614, 0.0927058607339859, 0.09740198403596878, -0.09500310570001602, -0.025724109262228012, 0.009538396261632442, 0.20767036080360413, -0.1953698843717575, -0.21076074242591858, -0.01955644227564335, -0.05765324458479881, -0.02201404981315136, 0.02096237987279892, 0.0652233213186264, 0.22204560041427612, 0.1862087845802307, -0.1110759750008583, 0.3451085388660431, -0.3756380081176758, -0.10208319872617722, -0.45496341586112976, -0.15214495360851288, -0.09632790833711624, 0.19282828271389008, 0.1919255405664444, -0.07431180775165558, -0.13677190244197845, -0.22026708722114563, -0.01529274508357048, 0.06802655011415482, 0.1494418829679489, 0.2844109833240509, -0.038030244410037994, -0.16328665614128113, -0.4332844316959381, 0.30057230591773987, 0.1486492156982422, 0.11737571656703949, 0.7515482902526855, 0.28196507692337036, -0.5332570672035217, -0.19474293291568756, -0.17247538268566132, -0.22223514318466187, 0.48493948578834534, 0.11155611276626587, -0.046608805656433105, -0.20601345598697662, 0.3383725881576538, 0.017011312767863274, 0.01337213534861803, -0.2627659738063812, 0.15931716561317444, 0.0689605176448822, -0.022185178473591805, -0.3810228705406189, 0.496597021818161, 0.14527767896652222, 0.2199864685535431, 0.3332555592060089, -0.47439369559288025, -0.13595251739025116, -0.08416850864887238, -0.28756776452064514, -0.23014670610427856, 0.1537839025259018, 0.20611713826656342, 0.21698349714279175, -0.05930183827877045, 0.0659702867269516, 0.08531142771244049, 0.04298953339457512, -0.15324252843856812, -0.038899216800928116, -0.33394384384155273, 0.4184216856956482, -0.022097721695899963, 0.1624121069908142, -0.3655809164047241, -0.038974106311798096, -0.06320787966251373, -0.13887760043144226, -0.01892966404557228, 0.06282339245080948, -0.11268613487482071, -0.28035110235214233, 0.10401950776576996, 0.0010520537616685033, -0.21753427386283875, 0.15878230333328247, 0.26157233119010925, 0.015102867968380451, -0.039894796907901764, -0.022851714864373207, 0.15655532479286194, -0.03193143010139465, 0.0308196023106575, 0.17842932045459747, 0.08608227968215942, 0.3049817979335785, 0.3180118203163147, -0.3553295433521271, -0.37536346912384033, 0.007744106464087963, 0.10932323336601257, 0.2505530118942261, 0.12248234450817108, 0.12437526136636734, -0.09873630106449127, 0.11936748027801514, 0.1626170426607132, 0.3559592068195343, 0.1834527999162674, 0.2598644495010376, -0.3235374093055725, 0.3441152572631836, 0.3604235053062439, -0.047146666795015335, -0.003035415429621935, -0.36666977405548096, -0.020460542291402817, 0.21921028196811676, 0.15129849314689636, -0.4470352530479431, 0.2966986894607544, 0.34747231006622314, 0.20387662947177887, 0.23833894729614258, -0.06227560341358185, 0.347745805978775, 0.39787837862968445, -0.10185542702674866, -0.26999515295028687, 0.058200523257255554, -0.33264172077178955, 0.03512394800782204, -0.18457522988319397, -0.07738588750362396, 0.05486459657549858, -0.1790177971124649, 0.02769964188337326, -0.23379521071910858, 0.13337312638759613, 0.08188199251890182, 0.03681432455778122, 0.2892720699310303, -0.14620473980903625, -0.21577295660972595, -0.10118497163057327, 0.1776430606842041, 0.14240874350070953, -0.36417365074157715, 0.34191733598709106, 0.07147811353206635, 0.17242488265037537, -0.020960170775651932, -0.1914396435022354, 0.05426507070660591, 0.38355058431625366, -0.08797241002321243, 0.09708886593580246, 0.18094725906848907, -0.23941956460475922, -0.295148640871048, 0.22281065583229065, -0.06954562664031982, 0.17081381380558014, -0.03000723570585251, -0.10651468485593796, 0.05941787734627724, 0.28076475858688354, 0.06822723150253296, 0.00018752506002783775, 0.13330340385437012, -0.08931250125169754, -0.20327810943126678, -0.012110140174627304, 0.06503471732139587, 0.4216937720775604, -0.019138608127832413, -0.17677554488182068, 0.14448681473731995, -0.089556485414505, 0.07467329502105713, 0.11392281949520111, 0.0965733751654625, -0.3324424922466278, -0.2038055658340454, -0.1421426683664322, 0.1360955536365509, -0.25316423177719116, -0.33397358655929565, -0.0998111218214035, 0.2952888607978821, 0.1525534689426422, 0.18130838871002197, -0.06512300670146942, 0.09138879925012589, -0.25216954946517944, -0.004640792962163687, 0.12063515186309814, 0.30302783846855164, 0.18932878971099854, -0.20239894092082977, -0.645892858505249, -0.5704928636550903, 0.055968813598155975, 0.04186871275305748, 0.19309385120868683, -0.05498115345835686, 0.026577431708574295, 0.5031551122665405, -0.15498527884483337, -0.3541381061077118, 0.17456792294979095, 0.21738652884960175, -0.35768255591392517, 0.06882161647081375, -0.25455808639526367, -0.1641739159822464, 0.17631788551807404, 0.13064289093017578, -0.0036222361959517, 0.28329360485076904, 0.05145423114299774, -0.037926506251096725, -0.21415627002716064, -0.249395951628685, 0.3225867450237274, -0.11480940133333206, 0.06924273818731308, -0.1424017995595932, -0.12815387547016144, -0.09268637001514435, -0.025930965319275856, 0.11258111149072647, 0.06776533275842667, 0.03562651574611664, -0.053823426365852356, -0.06789971888065338, 0.017405850812792778, -0.1967587172985077, 0.03717432916164398, -0.04536343365907669, 0.016769487410783768, 0.1874978095293045, -0.15301857888698578, -0.34276631474494934, -0.5097200274467468, 0.13824371993541718, 0.050652626901865005, -0.006883341819047928, 0.33635324239730835, -0.22901961207389832, -0.1370255947113037, -0.11535602807998657, -0.0431353822350502, -0.08970452845096588, 0.1674814671278, 0.17196929454803467, 0.26298174262046814, -0.17768536508083344, 0.056128766387701035, 0.14192724227905273, -0.23006008565425873, -0.3037368953227997, -0.20716559886932373, -0.16258300840854645, 0.10037966072559357, -0.038706760853528976, -0.5969579815864563, 0.10006896406412125, 0.10866165906190872, 0.10631392151117325, 0.12892945110797882, -0.02270621992647648, -0.10248523205518723, 0.1409788578748703, 0.0913432240486145, 0.05999090149998665, -0.11610070616006851, -0.17329122126102448, -0.16762255132198334, 0.0986490249633789, -0.08141825348138809, 0.1964247226715088, 0.1906803548336029, 0.07406366616487503, -0.21346415579319, -0.2738521695137024, -0.23014989495277405, 0.09717350453138351, -0.034937888383865356, 0.34748217463493347, 1.048641324043274, 0.2860659062862396, -0.06658706814050674, -0.19999273121356964, 0.23236991465091705, 0.05854753404855728, 0.021838141605257988, -0.1707569807767868, -0.07445398718118668, -0.13680048286914825, 0.09661583602428436, -0.04410479962825775, -0.04734913632273674, -0.1435488760471344, -0.02311895415186882, 0.11588337272405624, -0.3166100084781647, -0.07497432827949524, 0.0451173298060894, -0.1977347731590271, 0.08280287683010101, -0.12172769010066986, 0.5286329984664917, 0.15203049778938293, -0.0809851810336113, 0.10029532760381699, -0.13705533742904663, -0.044593263417482376, -0.3188819885253906, 0.1096472516655922, 0.18985708057880402, -0.35403943061828613, -0.07973696291446686, -0.18036924302577972, -0.16626586019992828, 0.14775440096855164, -0.031376294791698456, -0.20242765545845032, -0.020291438326239586, 0.05293067544698715, 0.16249939799308777, 0.10352833569049835, 0.24913375079631805, 0.09322428703308105, -0.0850362703204155, -0.3649352192878723, 0.30517810583114624, -0.3075011670589447, 0.04340441897511482, -0.13039793074131012, -0.04411127418279648, 0.12405897676944733, -0.11186035722494125, -0.02145025134086609, 0.02423924021422863, -0.05382091924548149, -0.1505020260810852, -0.27054551243782043, -0.21685932576656342, -0.16370616853237152, 0.18483136594295502, -0.11260499060153961, 0.23180849850177765, 0.0185895636677742, 0.11777307838201523, 0.010474290698766708, 0.044607918709516525, -0.21712835133075714, 0.18446291983127594, 0.32526177167892456, -0.034632232040166855, -0.2508338391780853, -0.12468914687633514, -0.1488364338874817, -0.1608980894088745, 0.06318850070238113, -0.05222328007221222, -0.08243860304355621, -0.24988873302936554, 0.11408985406160355, -0.2003752440214157, -0.247297003865242, 0.18008935451507568, 0.019811777397990227, 0.22536300122737885, 0.10154213011264801, -0.07725667953491211, -0.20152661204338074, 0.14891767501831055, 0.36733368039131165, -0.011439730413258076, -0.1828477829694748, 0.20264467597007751, 0.4400278627872467, -0.061472587287425995, -0.24735258519649506, 0.07846733927726746, 0.2626868784427643, 0.13085706532001495, -0.2681286334991455, 0.035431861877441406, -0.08539044857025146, -0.0016514887101948261, -0.011142827570438385, -0.294272780418396, 0.1975110024213791, -0.20741449296474457, -0.15907758474349976, -0.030292058363556862, 0.15398278832435608, 0.010288887657225132, -0.019706565886735916, 0.2873580753803253, 0.3214966058731079, 0.11491643637418747, 0.42684781551361084, 0.04666239395737648, 0.20826122164726257, -0.6112774610519409, -0.006908623035997152, -0.2776670455932617, -0.12306004762649536, 0.09802060574293137, -0.03616851195693016, 0.1982678472995758, -0.10282436013221741, 0.20847712457180023, 0.11969555914402008, -0.05116361752152443, -0.08363915234804153, 0.21649564802646637, -0.09487363696098328, 0.27726396918296814, -0.12966971099376678, -0.08265221118927002, -0.0338907316327095, -0.15984651446342468, 0.013646106235682964, 0.021936025470495224, -0.038188423961400986, 0.20112314820289612, 0.21952643990516663, -0.345935583114624, 0.04874754697084427, -0.31463730335235596, -0.0781528502702713, -0.08705589920282364, -0.09904761612415314, 0.28791409730911255, 0.06451711058616638, 0.27328547835350037, 0.054889194667339325, 0.09001333266496658, -0.003251206362619996, -0.1869887113571167, 0.06651756167411804, 0.2742980718612671, 0.054309021681547165, 0.08107776939868927, -0.23726758360862732, 0.24397432804107666, 0.0637296587228775, -0.04224691540002823, -0.3064553439617157, 0.15052977204322815, -0.05764886364340782, 0.05214639753103256, 0.03423837199807167, 0.36345791816711426, 0.13330309092998505, -0.08319519460201263, -0.046986863017082214, 0.16767632961273193, 0.02567294053733349, -0.2808178663253784, 0.0313713476061821, -0.016124079003930092, -0.23179380595684052, -0.06911592930555344, 0.1615300327539444, 0.286099910736084, 0.21605567634105682, 0.22897811233997345, 0.1056368425488472, 0.05528012290596962, 0.15969471633434296, -0.1485786736011505, 0.016172749921679497, -0.09132177382707596, 0.09397406876087189, -0.11384911835193634, 0.014612291008234024, 0.2725008726119995, 0.1485331654548645, 0.044526152312755585, -0.15183700621128082, 0.04265870898962021, -0.012536137364804745, -0.24445194005966187, -0.1626947671175003, -0.09392309933900833, 0.20225390791893005, -0.28533515334129333, 0.036084264516830444, 0.01888033002614975, 0.04415353015065193, 0.10268275439739227, -0.18109454214572906, 0.1687229871749878, -0.05602334812283516, -0.1944727599620819, -0.29502102732658386, -0.20338459312915802, -0.23763760924339294, -0.09590056538581848, -0.08508610725402832, 0.17135028541088104, -0.22878830134868622, -0.24007342755794525, 0.3126660883426666, 0.17718450725078583, -0.011919016018509865, -0.30227798223495483, -0.06998834013938904, 0.055926110595464706, 0.0628894492983818, 0.02087290957570076, -0.020191125571727753, -0.020804543048143387, 0.015236422419548035, 0.1635223627090454, -0.15651240944862366, 0.247229665517807, 0.10698853433132172, -0.24577166140079498, -0.2252751588821411, 0.1583343744277954, 0.07605545222759247, -0.027696505188941956, -0.09610287100076675, -0.19097457826137543, 0.12133871763944626, 0.001798977144062519, -0.2541418671607971, 0.060646966099739075, 0.1852596402168274, -0.27830031514167786, -0.06372018903493881, -0.013753908686339855, 0.18758833408355713, -0.240897998213768, 0.011819654144346714, 0.14427024126052856, 0.10039722174406052, -0.1123453751206398, -0.12049029767513275, 0.14080125093460083, -0.03803788870573044, 0.09086423367261887, -0.5454000234603882, -0.48720061779022217, 0.13632291555404663, -0.07425414770841599, 0.3972606956958771, -0.03112654946744442, 0.16148120164871216, -0.19171452522277832, 0.4963918924331665, 0.18573303520679474, 0.2250574380159378, 0.07083814591169357, 0.24099251627922058, 0.4440661370754242, 0.2724594473838806, -0.2580053210258484, -0.3559376299381256, 0.05652996897697449, -0.07762331515550613, -0.14070159196853638, -0.4636814594268799, -0.07709836214780807, 0.2841399013996124, 0.040369804948568344, -0.197764053940773, 0.4939708113670349, 0.22844184935092926, 0.18797503411769867, 0.24722544848918915, -0.0434291809797287, 0.17117416858673096, 0.11540006846189499, -0.24432966113090515, 0.05048471689224243, -0.13574866950511932, 0.014984767884016037, -0.08922525495290756, 0.030135687440633774, 0.105967216193676, 0.01349882036447525, 0.04519261419773102, 0.1811562329530716, 0.08079615980386734, 0.06476978212594986, -0.2743004262447357, -0.017675746232271194, -0.11736688017845154, 0.028809674084186554, 0.018480829894542694, -0.2155233472585678, 0.0028703028801828623, 