{"version": "0.5.1", "architecture": "WaveNet", "config": {"layers": [{"input_size": 1, "condition_size": 1, "head_size": 8, "channels": 16, "kernel_size": 3, "dilations": [1, 2, 4, 8, 16, 32, 64, 128, 256, 512], "activation": "Tanh", "gated": false, "head_bias": false}, {"input_size": 16, "condition_size": 1, "head_size": 1, "channels": 8, "kernel_size": 3, "dilations": [1, 2, 4, 8, 16, 32, 64, 128, 256, 512], "activation": "Tanh", "gated": false, "head_bias": true}], "head": null, "head_scale": 0.02}, "weights": [0.02201991342008114, 0.28445398807525635, -0.807995080947876, -0.6080251336097717, -0.2275875061750412, 0.15416491031646729, -0.003937749657779932, 0.8600382208824158, -0.02979358844459057, 0.1693052351474762, -0.35468578338623047, -0.00671126414090395, -0.8565018177032471, -0.6730425357818604, -0.4219208061695099, -0.010445866733789444, 0.04422927647829056, 0.1032651960849762, -0.304309219121933, -0.006190142594277859, 0.13916334509849548, 0.014568216167390347, -0.09316323697566986, 0.019492240622639656, 0.08747031539678574, -0.046032968908548355, 0.04277865216135979, -0.02241835556924343, -0.1427580565214157, -0.11350078880786896, 0.06415566802024841, 0.183894082903862, -0.00539893563836813, -0.1772044450044632, -0.11127324402332306, -0.20342856645584106, 0.03076023794710636, 0.18654178082942963, 0.1526535004377365, -0.04101648926734924, -0.012455482967197895, -0.13197052478790283, 0.16950345039367676, -0.079997219145298, -0.020494913682341576, -0.18691551685333252, 0.03808460012078285, 0.005714674945920706, 0.058698467910289764, -0.09595098346471786, -0.02235354855656624, 0.18844649195671082, -0.00661151297390461, -0.07045082002878189, 0.20468775928020477, -0.1461748331785202, -0.060400981456041336, 0.0020280308090150356, -0.16053667664527893, -0.1599666029214859, 0.1774710863828659, 0.03985213488340378, -0.06827759742736816, -0.11616311967372894, -0.020338835194706917, -0.012208668515086174, 0.1555485874414444, -0.1099773719906807, 0.04825956001877785, 0.21362987160682678, 0.028223738074302673, -0.02255527675151825, -0.02950664795935154, 0.2555418014526367, 0.15391555428504944, 0.03746289387345314, 0.15867029130458832, -0.10031908005475998, -0.07969517260789871, -0.2283734381198883, -0.16393662989139557, 0.21218936145305634, 0.23470693826675415, -0.10314812511205673, -0.047080148011446, -0.1643277108669281, -0.05378479138016701, 0.0195784829556942, 0.17928041517734528, -0.06613833457231522, -0.05162021145224571, -0.058496419340372086, 0.07452329248189926, 0.14326104521751404, -0.01264621876180172, -0.0742463767528534, -0.025635024532675743, 0.10714617371559143, -0.10003628581762314, -0.1777835190296173, 0.27452194690704346, 0.12808482348918915, -0.14845557510852814, 0.10248251259326935, -0.10821131616830826, -0.09140724688768387, 0.0240597203373909, -0.08691183477640152, -0.09847100079059601, -0.12684626877307892, -0.12365171313285828, 0.129947692155838, -0.18445168435573578, 0.24475102126598358, -0.04194838926196098, -0.1721818745136261, 0.10875839740037918, -0.054010841995477676, 0.06437069177627563, -0.11671574413776398, 0.11966748535633087, 0.05682957544922829, -0.21812355518341064, 0.135187566280365, -0.08365602791309357, -0.22123587131500244, 0.041352927684783936, -0.126119464635849, 0.09206251800060272, -0.18733415007591248, 0.07114354521036148, -0.08734069019556046, -0.019840026274323463, -0.053111884742975235, 0.25364094972610474, -0.07841484993696213, 0.10390501469373703, -0.12137433141469955, 0.13864043354988098, 0.029713841155171394, 0.2704511284828186, 0.01405998133122921, 0.1937069594860077, -0.1508861780166626, -0.05295466259121895, -0.030208472162485123, 0.004730238579213619, 0.02040921524167061, -0.02707708440721035, -0.26093024015426636, -0.07274895161390305, -0.0738072320818901, -0.17804954946041107, 0.1468590795993805, 0.12733671069145203, -0.2832738757133484, 0.1582343727350235, -0.18413487076759338, 0.040251072496175766, -0.166008859872818, 0.02942707948386669, 0.06308621913194656, 0.015589624643325806, -0.14470452070236206, -0.012303718365728855, 0.0374734066426754, -0.03755234181880951, 0.044908683747053146, -0.17008927464485168, 0.012479977682232857, 0.1151304841041565, -0.1024620532989502, 0.1428263932466507, 0.033368226140737534, -0.18510131537914276, 0.07310889661312103, -0.0008712724666111171, -0.02269117534160614, 0.06368473172187805, -0.15318815410137177, -0.04264182969927788, -0.05669722706079483, 0.11560175567865372, 0.08102859556674957, 0.04485821723937988, 0.0045473878271877766, -0.1119101345539093, -0.036437489092350006, -0.09650547802448273, 0.1324036419391632, 0.13012473285198212, 0.0765671357512474, -0.15521042048931122, 0.001525225699879229, -0.10486673563718796, -0.09118612855672836, -0.05785619840025902, 0.03967716544866562, -0.12544836103916168, 0.020356634631752968, -0.006476606708019972, 0.048657119274139404, -0.087124764919281, -0.11496859043836594, -0.12931489944458008, 0.06917106360197067, -0.031980689615011215, 0.1631833165884018, 0.1318901777267456, -0.11890943348407745, -0.11016292124986649, 0.13539350032806396, -0.016521597281098366, -0.03049124963581562, -0.1572941690683365, 0.06591465324163437, -0.10218342393636703, -0.23130366206169128, 0.1633680760860443, -0.10559113323688507, -0.16040129959583282, 0.1885044127702713, 0.06738757342100143, 0.1620277315378189, -0.17194703221321106, 0.06702587008476257, -0.22383633255958557, 0.01179280411452055, -0.03157419711351395, 0.1366826891899109, -0.046351272612810135, 0.11043622344732285, -0.13374076783657074, 0.1823146492242813, 0.10428599268198013, 0.07186480611562729, 0.030125688761472702, -0.1038493663072586, -0.20956513285636902, 0.09974189102649689, 0.06692879647016525, -0.03309231624007225, -0.04557685926556587, -0.002916969358921051, -0.08500934392213821, -0.09652885794639587, 0.11089347302913666, -0.27568480372428894, 0.05044980347156525, -0.012359946966171265, -0.235134094953537, 0.06282240897417068, 0.12630002200603485, 0.11441903561353683, -0.12325701862573624, -0.0498831681907177, -0.25125908851623535, 0.06750901788473129, -0.08509696274995804, -0.1750059723854065, -0.06656339019536972, 0.1260053962469101, 0.14950262010097504, 0.09090954065322876, 0.004834688268601894, 0.02960057742893696, -0.05777818337082863, 0.0014007858699187636, 0.19645364582538605, 0.024131527170538902, -0.09958484768867493, -0.15592534840106964, -0.1294863224029541, 0.06974257528781891, 0.10985803604125977, -0.05420966446399689, 0.20006047189235687, -0.17161135375499725, -0.0011736064916476607, 0.0879676565527916, 0.12940357625484467, -0.07912859320640564, -0.1132085770368576, 0.027207449078559875, 0.032142069190740585, 0.1464451104402542, 0.04096924513578415, 0.03762320429086685, -0.0652524083852768, 0.04375673457980156, -0.10222495347261429, 0.02709428407251835, 0.12079038470983505, -0.021409980952739716, -0.07834254950284958, -0.011376405134797096, 0.08229504525661469, -0.15071694552898407, 0.1378272920846939, -0.061597973108291626, -0.11120771616697311, -0.019486449658870697, -0.053704358637332916, 0.05371210724115372, -0.1670209765434265, -0.011414564214646816, 0.14802613854408264, -0.18779301643371582, 0.08499583601951599, 0.03191554918885231, 0.11694014817476273, -0.06449349224567413, -0.011280795559287071, 0.18679839372634888, 0.01600806601345539, 0.038091689348220825, 0.15681584179401398, -0.03291865438222885, 0.012004593387246132, -0.2452443540096283, 0.037921495735645294, 0.06713247299194336, 0.1641271859407425, 0.01030031405389309, 0.06562879681587219, -0.11284977942705154, 0.12262669205665588, 0.07831534743309021, 0.35457900166511536, -0.07607363909482956, -0.152301624417305, -0.37708425521850586, 0.16298694908618927, 0.12699352204799652, 0.14465799927711487, 0.02081827074289322, 0.054022159427404404, 0.22809521853923798, -0.0035207257606089115, -0.07872559875249863, 0.205368310213089, -0.0887567400932312, 0.06114760786294937, 0.3208925127983093, -0.12715202569961548, 0.06980908662080765, 0.30795812606811523, 0.04252561181783676, -0.1447540670633316, -0.1886136531829834, -0.0337698869407177, 0.150486022233963, -0.016769172623753548, 0.13132350146770477, 0.02175513654947281, 0.11557638645172119, 0.04298654943704605, 0.10265087336301804, -0.1535884141921997, -0.056031785905361176, -0.12487158179283142, -0.19378572702407837, -0.20507606863975525, 0.0872843936085701, 0.03362710028886795, 0.05122189596295357, 0.09454525262117386, -0.07590848207473755, -0.0067437984980642796, 0.008602133020758629, -0.12300944328308105, -0.010584184899926186, -0.16614164412021637, -0.01665663532912731, -0.050552889704704285, -0.05383112654089928, 0.08960467576980591, 0.038234204053878784, 0.08771339058876038, 0.1642492264509201, 0.22354832291603088, -0.004238990601152182, 0.0215892530977726, 0.04906829074025154, 0.02930564060807228, 0.09997690469026566, -0.009892478585243225, 0.06261244416236877, -0.10578388720750809, -0.022433878853917122, -0.014012571424245834, -0.0858406350016594, -0.16995368897914886, -0.10717830061912537, -0.1650887280702591, 0.006533447653055191, 0.07288406789302826, -0.0033383124973624945, -0.0254325233399868, 0.10460129380226135, 0.1164846122264862, -0.025201749056577682, -0.16314402222633362, 0.1914231926202774, 0.06603183597326279, -0.14288608729839325, 0.07577648013830185, 0.10791857540607452, -0.012553599663078785, 0.02383248321712017, -0.08171205222606659, 0.021529847756028175, 0.0738716796040535, 0.012224449776113033, -0.048433780670166016, -0.00017213146202266216, -0.04999057203531265, -0.07213959842920303, -0.01854613795876503, 0.11547435075044632, 0.016893545165657997, -0.02782721444964409, 0.0067404271103441715, 0.029121585190296173, 0.052413664758205414, -0.10304438322782516, 0.043653763830661774, -0.06616868078708649, -0.07258331030607224, -0.002565477043390274, -0.15660017728805542, 0.0617319755256176, 0.1715284138917923, 0.033340781927108765, -0.06264273822307587, 0.0022458843886852264, -0.028841115534305573, -0.11128450185060501, 0.11232730746269226, -0.19002138078212738, -0.1377999186515808, -0.09647712111473083, -0.08214686065912247, 0.10531400889158249, -0.08799155056476593, 0.19614000618457794, -0.038307178765535355, 0.02682393603026867, -0.044692765921354294, -0.32090818881988525, 0.34629303216934204, -0.022686315700411797, -0.10626214742660522, 0.20306730270385742, 0.007069871295243502, 0.37124526500701904, -0.12902629375457764, 0.16914352774620056, 0.13315673172473907, -0.17891542613506317, -0.05450185760855675, 0.17528758943080902, -0.11498003453016281, -0.21642345190048218, -0.20034290850162506, 0.21595200896263123, 0.10186005383729935, 0.129350945353508, -0.21739579737186432, -0.14890135824680328, -0.1910058856010437, 0.2785870432853699, 0.1610383242368698, 0.20801255106925964, -0.11563500761985779, -0.2337975651025772, -0.3632172644138336, 0.20654737949371338, 0.013689156621694565, 0.3146466314792633, -0.24702532589435577, 0.02401214838027954, 0.031618259847164154, -0.035144682973623276, 0.08772671967744827, 0.363198459148407, -0.044704124331474304, 0.18195714056491852, 0.2557130753993988, -0.18323083221912384, 0.06512799859046936, 0.26499244570732117, -0.06841309368610382, -0.1333850771188736, -0.013583693653345108, 0.24683153629302979, -0.10016734898090363, 0.03593418002128601, 0.3309950530529022, 0.0805610939860344, -0.11281494051218033, 0.21052902936935425, 0.10169408470392227, 0.04817431420087814, -0.00787610188126564, -0.04189083352684975, 0.010867209173738956, -0.06762991845607758, -0.01164320856332779, 0.008656511083245277, -0.16992227733135223, 0.05690497159957886, -0.006874517537653446, 0.07034039497375488, 0.1872960776090622, 0.11125799268484116, -0.08805600553750992, -0.02201460860669613, 0.11410420387983322, 0.11006556451320648, 0.10263010114431381, -0.05836797505617142, -0.06012463942170143, -0.14649763703346252, -0.0544012077152729, 0.04418989270925522, 0.16996589303016663, -0.06769952178001404, -0.12323382496833801, 0.07850391417741776, 0.18946444988250732, 0.11279501765966415, -0.07434765994548798, -0.14955328404903412, -0.23451398313045502, 0.03241012245416641, -0.07229196280241013, -0.22340409457683563, -0.020865032449364662, -0.006339394487440586, -0.20153667032718658, 0.00519441906362772, 0.024517077952623367, 0.06713428348302841, 0.05560620501637459, 0.2206328809261322, -0.09887368977069855, 0.0037650561425834894, 0.012409473769366741, 0.08135044574737549, -0.12381879985332489, -0.20209909975528717, 0.20821024477481842, -0.08225228637456894, -0.0357004776597023, 0.050232723355293274, -0.02597021497786045, -0.09565426409244537, 0.14484281837940216, 0.005139507818967104, -0.06570860743522644, -0.1424265205860138, -0.16939322650432587, -0.06826465576887131, -0.1375492960214615, 0.12599968910217285, 0.03695020452141762, -0.0906289741396904, 0.0796794444322586, -0.021324070170521736, 0.14836975932121277, 0.08087888360023499, 0.019853942096233368, -0.15145988762378693, -0.010295471176505089, 0.04217338562011719, 0.005962233524769545, -0.12506861984729767, 0.06688275933265686, 0.19669638574123383, -0.028790192678570747, -0.1822735220193863, -0.06423619389533997, 0.04548707231879234, -0.07678525894880295, -0.009798954240977764, 0.040736474096775055, -0.01096316147595644, 0.17923276126384735, 0.10317594558000565, 0.035455748438835144, -0.14529970288276672, -0.15161152184009552, 0.12562762200832367, 0.27663639187812805, -0.03622113913297653, -0.19998982548713684, 0.23820656538009644, 0.21509692072868347, 0.18303455412387848, -0.24835343658924103, 0.026465224102139473, -0.04300618916749954, 0.011651530861854553, 0.017144955694675446, -0.008120479062199593, -0.04667451232671738, -0.15519116818904877, -0.12854957580566406, 0.10949619859457016, 0.1543966829776764, 0.0255204439163208, 0.04508979991078377, -0.14591673016548157, -0.004613474477082491, 0.24863585829734802, 0.17961923778057098, 0.09904876351356506, 0.0037645800039172173, -0.0738804042339325, -0.138081893324852, 0.24776512384414673, 0.1178278997540474, -0.0844273492693901, -0.16674283146858215, -0.0771200880408287, 0.12999854981899261, -0.19245198369026184, -0.050962306559085846, 0.04693074896931648, -0.03262384608387947, 0.11832267791032791, 0.10086128115653992, -0.11322471499443054, 0.131553053855896, 0.017662188038229942, -0.18262161314487457, -0.2407957762479782, -0.2036004215478897, 0.1503501683473587, -0.11640413105487823, 0.07245893031358719, 0.2204892933368683, -0.0844540223479271, -0.11384821683168411, 0.21425418555736542, 0.011739418841898441, 0.13092723488807678, -0.198520690202713, 0.056918371468782425, 0.09001776576042175, -0.14668835699558258, 0.20253512263298035, -0.09422659873962402, -0.21713103353977203, -0.15250450372695923, 0.017054764553904533, 0.21641197800636292, -0.005220073740929365, 0.08109111338853836, -0.09710443764925003, -0.1270897537469864, 0.09533864259719849, -0.028923382982611656, 0.07408465445041656, 0.12366020679473877, -0.13332441449165344, 0.030941160395741463, -0.05215659365057945, 0.20704245567321777, -0.05419646203517914, -0.020212123170495033, -0.11999776214361191, 0.046296559274196625, 0.028110099956393242, 0.009209111332893372, 0.07369514554738998, 0.007907266728579998, 0.01638171635568142, 0.05413069576025009, 0.13695770502090454, -0.18367403745651245, 0.07320226728916168, -0.0021607025992125273, -0.023008741438388824, 0.01671447791159153, -0.025900747627019882, -0.04231111705303192, 0.1446971297264099, 0.05218063294887543, -0.11351475119590759, 0.0433008074760437, 0.1674327850341797, 0.06616225093603134, -0.12345576286315918, -0.20522908866405487, 0.17924460768699646, -0.23897606134414673, -0.035764727741479874, 0.10228051245212555, -0.18654504418373108, -0.00824179407209158, -0.037821684032678604, 0.16045789420604706, -0.02557111531496048, -0.09562309831380844, -0.08101397752761841, 0.037312980741262436, -0.011567331850528717, 0.2288658171892166, 0.05181942135095596, -0.14562946557998657, -0.222725972533226, -0.17767105996608734, 0.2512003481388092, 0.0822216048836708, 0.0683814063668251, -0.047379020601511, -0.028757570311427116, 0.062043167650699615, 0.2049705982208252, -0.14299330115318298, -0.03585970774292946, 0.04283738508820534, -0.21726688742637634, -0.036718595772981644, 0.21205966174602509, -0.24922482669353485, 0.018533555790781975, 0.0068454924039542675, -0.15559644997119904, 0.052150335162878036, 0.05047118663787842, 0.08544819056987762, -0.06844674795866013, 0.001116337487474084, -0.025983130559325218, -0.25549307465553284, 0.21139952540397644, -0.18040192127227783, -0.3244442641735077, 0.06054013967514038, 0.19435174763202667, 0.16862475872039795, 0.006458529271185398, 0.20074649155139923, 0.3041277825832367, -0.13918150961399078, 0.05092890188097954, 0.15110354125499725, -0.18953366577625275, -0.0755859836935997, -0.0960908830165863, 0.18437187373638153, 0.061013344675302505, 0.23518399894237518, -0.11737792938947678, 0.028501180931925774, -0.27077245712280273, -0.040137480944395065, 0.0623675100505352, 0.2670372426509857, -0.22744213044643402, 0.062389224767684937, -0.15015342831611633, -0.03473275899887085, 0.03774599730968475, 0.32583871483802795, -0.18501117825508118, 0.01606566645205021, 0.1822449117898941, -0.16330765187740326, 0.15921272337436676, 0.28630587458610535, 0.030750317499041557, -0.014460289850831032, 0.35299816727638245, -0.15058450400829315, 0.21931040287017822, 0.06642751395702362, -0.1926371306180954, 0.04915749654173851, -0.12561796605587006, 0.1377304345369339, -0.06077805161476135, -0.021521728485822678, -0.12216053903102875, -0.10386247932910919, 0.028729069977998734, -0.07399307936429977, -0.06693170964717865, -0.042140789330005646, 0.23642680048942566, 0.42685312032699585, -0.14649038016796112, 0.028273504227399826, -0.11753904074430466, -0.1674790382385254, -0.10935358703136444, 0.2565133273601532, 0.34378117322921753, -0.3480361998081207, 0.7433426380157471, -0.6705353260040283, -0.0010228744940832257, 0.9540895223617554, 1.0578720569610596, -0.5440415143966675, 0.14518725872039795, 0.24482259154319763, -0.3407878577709198, -0.4186771512031555, 0.3943796157836914, -0.6203849911689758, 0.09649834781885147, 0.4836759567260742, 0.06265635788440704, -0.17082396149635315, 0.06279650330543518, -0.028634076938033104, 0.5944323539733887, 0.08437515050172806, 0.06771540641784668, 0.049518682062625885, 0.11289919912815094, 0.0059508634731173515, -0.08423681557178497, -0.0743781104683876, 0.08052882552146912, -0.14292877912521362, 0.4338442385196686, -0.2274901568889618, -0.07787247002124786, 0.06954517960548401, -0.3037128746509552, 0.2279159426689148, -0.14809110760688782, -0.14463254809379578, -0.1456528753042221, -0.009865902364253998, -0.18007846176624298, 0.20202213525772095, 0.06099085509777069, 0.08693268150091171, 0.12873993813991547, 0.07604861259460449, -0.09615226089954376, 0.41658535599708557, 0.06228083744645119, 0.0746455118060112, 0.04341397061944008, 0.15212032198905945, -0.15718023478984833, -0.10807759314775467, 0.005357582587748766, -0.06502659618854523, -0.02194547839462757, -0.048965923488140106, 0.24991905689239502, -0.30080610513687134, 0.08781324326992035, 0.25244924426078796, 0.04539927840232849, 0.041062697768211365, 0.23078052699565887, -0.045687247067689896, 0.23474368453025818, -0.24321748316287994, -0.2095651775598526, 0.20600393414497375, 0.5905590653419495, -0.12062699347734451, -0.09479321539402008, 0.4584183394908905, 0.1777699887752533, -0.050771914422512054, 0.13502782583236694, 0.15689730644226074, -0.21842531859874725, -0.024954406544566154, -0.03670518472790718, -0.16927383840084076, -0.13251198828220367, 0.19148138165473938, 0.0864112600684166, 0.19736018776893616, 0.18171611428260803, -0.05695349723100662, 0.011552899144589901, 0.35571688413619995, 0.00771775096654892, 0.10421392321586609, 0.0912843719124794, 0.18669740855693817, -0.13205571472644806, 0.18287231028079987, -0.2597871422767639, -0.03915924206376076, 0.06578747183084488, -0.026786532253026962, 0.3557048439979553, 0.39782264828681946, 0.504623293876648, 0.03382815420627594, 0.2653708755970001, -0.04706382006406784, -0.21487662196159363, -0.2047562301158905, 0.21713607013225555, -0.21070991456508636, 0.07240179926156998, 0.05550665035843849, -0.11937825381755829, 0.22144293785095215, 0.1480627954006195, 0.20814166963100433, -0.4653809666633606, -0.4589192867279053, 0.05293131247162819, 0.17336007952690125, 0.08727813512086868, -0.6227207183837891, -0.11264746636152267, 0.3801530599594116, -0.1853208839893341, -0.14784175157546997, 0.028789112344384193, -0.40079399943351746, 0.18314893543720245, 0.10827360302209854, 0.27949395775794983, -0.19262108206748962, -0.18896929919719696, 0.22760270535945892, 0.3701987564563751, 0.029870513826608658, 0.12855316698551178, -0.3558520972728729, 0.29155540466308594, -0.26166775822639465, 0.3286544978618622, -0.12934230268001556, -0.1302790492773056, 0.04272710159420967, 0.009707199409604073, -0.1262073814868927, -0.259838730096817, -0.20214983820915222, 0.16543933749198914, -0.08201809227466583, -0.3112497329711914, 0.09772676974534988, -0.260977566242218, -0.012081732973456383, 0.14523696899414062, 0.08878122270107269, -0.05023384466767311, -0.10207061469554901, 0.17048022150993347, 0.12009630352258682, -0.21601243317127228, 0.10922446101903915, 0.22957491874694824, -0.2265842854976654, -0.26938337087631226, 0.017435980960726738, 0.19752390682697296, -0.23819224536418915, -0.0005981474532745779, 0.2509028911590576, 0.022992560639977455, 0.03125336021184921, 0.19569630920886993, 0.1602293998003006, -0.2703620195388794, 0.07817021012306213, 0.06301425397396088, 0.28539034724235535, -0.3252932131290436, 0.1525307148694992, -0.1889714002609253, -0.2559414505958557, -0.007739344146102667, -0.1172400712966919, -0.00026422308292239904, 0.02400830201804638, -0.09645046293735504, -0.05125989019870758, -0.07494049519300461, 0.19624227285385132, -0.11383520811796188, 0.4285852909088135, -0.08757678419351578, -0.11151963472366333, -0.00034475879510864615, -0.0012507825158536434, 0.11902598291635513, -0.07562645524740219, -0.12696382403373718, -0.2163376659154892, 0.04488876834511757, -0.3684442937374115, -0.15478646755218506, -0.15582260489463806, 0.05124399811029434, 0.1001470535993576, -0.17893514037132263, -0.12923899292945862, 0.012978107668459415, -0.1362346112728119, 0.17917749285697937, -0.05517559498548508, 0.09895553439855576, 0.07584688812494278, 0.2056093066930771, -0.048617199063301086, 0.29447081685066223, 0.38285350799560547, -0.09826266765594482, -0.022128060460090637, 0.2614819407463074, -0.2107710987329483, -0.1365012377500534, 0.3026134967803955, 0.025765150785446167, -0.1262771189212799, -0.07765994966030121, 0.1319415420293808, -0.2293713390827179, 0.20437027513980865, 0.33150967955589294, 0.11910663545131683, -0.10627667605876923, 0.032074496150016785, 0.26764121651649475, -0.04092203453183174, -0.03128190338611603, 0.022845078259706497, -0.2643345594406128, 0.28577038645744324, -0.25405967235565186, 0.3413507342338562, -0.14271308481693268, -0.05173724517226219, -0.07842123508453369, 0.011094908230006695, 0.1534661203622818, -0.007868856191635132, -0.3167867660522461, 0.34966447949409485, 0.08275827765464783, -0.10072589665651321, 0.2323264181613922, 0.29815298318862915, -0.3393481969833374, 0.16153523325920105, 0.2859407365322113, 0.024769999086856842, 0.3195470869541168, -0.04469913989305496, -0.06570586562156677, 0.27511274814605713, 0.31237274408340454, 0.1482853889465332, -0.11246122419834137, -0.5121134519577026, 0.13135892152786255, -0.2051687091588974, 0.27512606978416443, 0.16295497119426727, 0.18521808087825775, -0.20610883831977844, 0.32697731256484985, -0.3429030179977417, 0.1759767383337021, -0.17714115977287292, -0.40458956360816956, 0.08141381293535233, 0.32457634806632996, -0.06128958612680435, 0.04204676300287247, -0.14904522895812988, 0.050170354545116425, 0.05042758584022522, 0.20598222315311432, 0.01721154898405075, -0.05629941076040268, -0.18269245326519012, 0.22538036108016968, 0.017446912825107574, -0.05314731225371361, -0.08384735882282257, -0.10908427834510803, 0.05486219748854637, -0.19951993227005005, 0.03473731130361557, 0.1701635718345642, -0.2932692766189575, 0.0023886782582849264, 0.05734863504767418, -0.3137662708759308, -0.08014322817325592, 0.1037382259964943, 0.36407405138015747, -0.11644934862852097, -0.0018910943763330579, 0.06364880502223969, 0.027945278212428093, -0.39944207668304443, 0.2198188453912735, -0.2772296965122223, -0.2679673433303833, -0.29601332545280457, 0.1624121218919754, -0.1637880802154541, -0.048810169100761414, -0.10773322731256485, 0.1850966364145279, -0.3326275050640106, 0.03813011199235916, 0.13686130940914154, 0.08139771223068237, -0.16027984023094177, -0.14502236247062683, -0.21431034803390503, 0.21416530013084412, 0.15875235199928284, -0.2627570629119873, 0.1355099081993103, 0.00794829148799181, -0.2978706359863281, 0.09444301575422287, 0.2308422178030014, 0.2835339605808258, -0.2289971560239792, -0.2857917547225952, -0.03609665110707283, 0.1356428563594818, 0.17143605649471283, -0.07940754294395447, -0.38279691338539124, -0.011883924715220928, 0.1882169544696808, 0.04235036298632622, 0.2666556239128113, -0.2046830654144287, 0.036064352840185165, -0.19652380049228668, 0.14219871163368225, -0.3727460205554962, 0.08578328788280487, -0.3306427597999573, -0.008396932855248451, -0.07014970481395721, -0.15705113112926483, 0.42914098501205444, -0.14744675159454346, -0.1311206817626953, 0.14542345702648163, -0.08729482442140579, 0.12898707389831543, -0.29602378606796265, 0.11880595982074738, 0.07493405789136887, -0.08801372349262238, -0.3048178553581238, 0.268443763256073, -0.15853580832481384, 0.05945820361375809, -0.37121328711509705, -0.0022692051716148853, -0.15601113438606262, 0.11724214255809784, -0.07482508569955826, 0.16214346885681152, 0.2342805117368698, 0.04855501651763916, 0.14099135994911194, 0.2503378689289093, -0.18145005404949188, 0.11654961109161377, -0.30789220333099365, 0.26675134897232056, -0.2714894711971283, -0.251489520072937, -0.17498160898685455, 0.07494454085826874, 0.28225237131118774, 0.24058984220027924, -0.10443192720413208, 0.10425223410129547, 0.10582862049341202, -0.1275034248828888, 0.32516539096832275, 0.13509047031402588, -0.05777869001030922, 0.3374594748020172, 0.13888250291347504, 0.03887910023331642, -0.2189396321773529, -0.04067464917898178, 0.28187957406044006, -0.042367078363895416, -0.4864789843559265, -0.447975754737854, -0.1950271874666214, -0.17225460708141327, 0.38200193643569946, 0.08497775346040726, 0.021069327369332314, -0.2869713604450226, -0.033979810774326324, -0.049800049513578415, 0.04976583644747734, 0.040115006268024445, -0.05813395977020264, -0.0967145636677742, -0.07775398343801498, -0.11583296209573746, 0.16788583993911743, 0.18419283628463745, 0.061290498822927475, -0.264295369386673, 0.11180367320775986, 0.02207782305777073, -0.09628351032733917, 0.12340697646141052, 0.18529881536960602, 0.026423485949635506, -0.2223961055278778, 0.09486108273267746, 0.3522743582725525, -0.22166414558887482, -0.09953128546476364, 0.13857673108577728, -0.007801870349794626, -0.007357324007898569, 0.0232906062155962, 0.21399202942848206, -0.2013390213251114, -0.2979111075401306, 0.2040068805217743, 0.17511092126369476, -0.10213221609592438, 0.13460658490657806, -0.13498125970363617, -0.06000610068440437, -0.22409942746162415, 0.23025357723236084, 0.07458078861236572, -0.055324964225292206, 0.22523975372314453, -0.2203296720981598, -0.307982474565506, 0.30072924494743347, 0.08251184970140457, 0.2861637771129608, -0.392069935798645, 0.1458638310432434, 0.13267940282821655, -0.014839029870927334, -0.23838526010513306, 0.28788143396377563, -0.24576929211616516, -0.08041068911552429, -0.20057536661624908, 0.08956339210271835, 0.11439386010169983, 0.31837522983551025, -0.013251718133687973, -0.032308194786310196, 0.22718720138072968, -0.25218433141708374, -0.20108860731124878, 0.16235922276973724, -0.07793527841567993, -0.013168061152100563, -0.15595896542072296, 0.2746581733226776, 0.1065998449921608, -0.03113587759435177, 0.008585069328546524, 0.02120215818285942, 0.03324361890554428, 0.12186676263809204, -0.08464253693819046, -0.06615692377090454, 0.11560429632663727, 0.011717944405972958, -0.2634718418121338, 0.07736612111330032, 0.08139687031507492, -0.07013586163520813, -0.04528346657752991, -0.1485626995563507, -0.14829136431217194, 0.10121632367372513, -0.13520289957523346, 0.2019166797399521, -0.2716762125492096, 0.31243449449539185, -0.05806080624461174, 0.1957785189151764, 0.09934137761592865, 0.379862517118454, 0.04100821539759636, -0.047191817313432693, -0.38138508796691895, -0.0553392618894577, -0.1390349268913269, 0.14174088835716248, -0.051204077899456024, -0.0004736289265565574, -0.018255755305290222, 0.05685623735189438, 0.14128229022026062, -0.11014129966497421, -0.15461865067481995, 0.09196045249700546, 0.030834581702947617, 0.002201664261519909, 0.06864609569311142, -0.04419282078742981, -0.03765677288174629, -0.11939357221126556, 0.0680687353014946, 0.029548566788434982, -0.025476813316345215, 0.08695702254772186, -0.009530563838779926, 0.13959883153438568, -0.18144382536411285, 0.11568176001310349, -0.23992061614990234, -0.13509629666805267, 0.05282049626111984, 0.04169418290257454, -0.02204427681863308, 0.12033241987228394, 0.08135078847408295, -0.20111560821533203, 0.07904792577028275, -0.22011275589466095, 0.26229536533355713, -0.17092983424663544, 0.14535658061504364, -0.0712110847234726, -0.10151823610067368, 0.023094957694411278, 0.20636732876300812, -0.41680973768234253, 0.2794545292854309, -0.04184388369321823, 0.29422834515571594, -0.18930873274803162, 0.2440006583929062, -0.19359362125396729, -0.005706078838557005, -0.03601231053471565, 0.2086864411830902, -0.03397282585501671, 0.23483867943286896, -0.19818109273910522, 0.27228304743766785, 0.10629971325397491, 0.4241046905517578, 0.17077016830444336, -0.14242802560329437, -0.013586975634098053, 0.007128814235329628, -0.10042665153741837, 0.20266489684581757, -0.18469393253326416, 0.03815094754099846, -0.2557115852832794, 0.15632741153240204, 0.0570899099111557, 0.16370688378810883, 0.4409834146499634, -0.11076170206069946, 0.059569183737039566, -0.28462210297584534, 0.19192828238010406, -0.06283310055732727, -0.0898464173078537, 0.20264464616775513, -0.08774783462285995, -0.33262529969215393, -0.14672420918941498, -0.012993386015295982, -0.1802051067352295, 0.012196878902614117, 0.11664003133773804, 0.44273197650909424, 0.23179778456687927, -0.22554120421409607, -0.3313249349594116, -0.19372209906578064, 0.10678154975175858, 0.05877155438065529, -0.019285568967461586, -0.1714247465133667, 0.061414144933223724, 0.08947906643152237, 0.11742469668388367, -0.5154134631156921, 0.19388706982135773, -0.05655911564826965, -0.15076744556427002, -0.3974890112876892, 0.012600794434547424, 0.157487154006958, 0.413068562746048, 0.17811094224452972, 0.25151440501213074, 0.1741992086172104, 0.06407496333122253, -0.27706941962242126, 0.16404388844966888, 0.16436059772968292, -0.15562665462493896, -0.3029097020626068, -0.16398003697395325, -0.01331266388297081, -0.040045011788606644, 0.09561661630868912, -0.013008235953748226, 0.010189061984419823, -0.08803801238536835, 0.016818761825561523, -0.2720649540424347, -0.10378386080265045, 0.16028833389282227, -0.18417981266975403, -0.29478922486305237, 0.009814104065299034, -0.10580327361822128, -0.24761617183685303, -0.01365854125469923, 0.33763381838798523, 0.043152954429388046, -0.11278348416090012, -0.1844739019870758, -0.15871529281139374, -0.15052253007888794, 0.1886405497789383, 0.05592234805226326, -0.120354063808918, -0.13129854202270508, -0.15887326002120972, 0.14770711958408356, 0.18600554764270782, 0.10405399650335312, 0.14305195212364197, -0.07134561240673065, -0.25381842255592346, 0.07210217416286469, 0.037915199995040894, 0.12031957507133484, -0.13059939444065094, -0.23088622093200684, -0.16586993634700775, -0.01574915461242199, -0.27624011039733887, -0.1487809121608734, -0.054589759558439255, -0.13635414838790894, -0.10029926151037216, 0.1683335155248642, 0.03756377473473549, 0.06286689639091492, -0.12485302239656448, 0.1321704089641571, 0.003487544832751155, -0.1040964275598526, -0.09462875872850418, -0.06595116853713989, -0.09943041205406189, 0.1792573779821396, 0.19595804810523987, 0.16795052587985992, -0.0005586904007941484, 0.11029040068387985, 0.03946491703391075, 0.14106938242912292, 0.1632336527109146, 0.034990258514881134, -0.2591632902622223, -0.08740059286355972, -0.039502404630184174, 0.2446456104516983, 0.2984963655471802, 0.20143724977970123, -0.32435843348503113, -0.17546670138835907, 0.16028493642807007, 0.33535563945770264, -0.10487183183431625, -0.0063947089947760105, -0.44939395785331726, 0.06848075985908508, -0.09286186099052429, 0.1139293983578682, 0.07557456195354462, -0.057767681777477264, 0.23528555035591125, -0.03621572256088257, 0.17793084681034088, 0.016766954213380814, 0.11783520877361298, -0.058477599173784256, -0.02073252759873867, 0.007180953864008188, -0.147231325507164, -0.017191067337989807, 0.03816835582256317, 0.040321238338947296, 0.009164930321276188, 0.001606216887012124, 0.06861609220504761, 0.02576705440878868, 0.054649073630571365, 0.16337986290454865, -0.010513450019061565, 0.12257049232721329, 0.025129735469818115, -0.023427912965416908, -0.06581869721412659, -0.23025427758693695, 0.14005540311336517, 0.4215084910392761, -0.24645905196666718, 0.18037381768226624, 0.11013016849756241, -0.16099736094474792, -0.13489753007888794, 0.01972278021275997, 0.21702483296394348, -0.12696224451065063, -0.5923001170158386, -0.10808467864990234, -0.16091494262218475, 0.06855923682451248, 0.25380223989486694, -0.07432156801223755, -0.07334257662296295, 0.04550611227750778, 0.07379849255084991, 0.11465287953615189, -0.1426050066947937, 0.001091530080884695, 0.0295095257461071, -0.08367379009723663, -0.12581461668014526, -0.3634083569049835, 0.16519573330879211, 0.03634803369641304, 0.04987338185310364, -0.14481142163276672, -0.024533066898584366, 0.07636374980211258, -0.22972634434700012, 0.07780018448829651, -0.046577002853155136, -0.10907639563083649, -0.14626599848270416, -0.09719666093587875, 0.007435610517859459, 0.08567917346954346, 0.2568650543689728, -0.02633589319884777, -0.22417601943016052, -0.06868265569210052, -0.23846431076526642, -0.052487388253211975, -0.09025775641202927, 0.07305033504962921, -0.18585403263568878, -0.032370470464229584, -0.00670444592833519, -0.11513081192970276, -0.17900283634662628, -0.26903367042541504, 0.2406928837299347, 0.29473650455474854, 0.045909393578767776, -0.0888672024011612, 0.1697414070367813, 0.5335534811019897, 0.03693287819623947, 0.28962084650993347, 0.05812644213438034, -0.06945925205945969, -0.19151347875595093, 0.058338463306427, -0.08757329732179642, -0.008557400666177273, -0.1373281329870224, 0.049766503274440765, -0.19189557433128357, -0.11751020699739456, 0.029033366590738297, 0.005452592391520739, -0.13107235729694366, 0.11117089539766312, -0.005451774690300226, 0.11693522334098816, 0.007002792786806822, -0.14568929374217987, 0.01418310310691595, -0.004883055109530687, -0.07196474075317383, -0.13466405868530273, -0.027125196531414986, -0.0523335300385952, -0.006310947705060244, 0.2829408347606659, -0.026542561128735542, -0.030988752841949463, -0.24868512153625488, 0.08583058416843414, -0.1544342190027237, -0.16420137882232666, 0.2659262418746948, 0.11057531833648682, 0.04733279347419739, 0.1460513472557068, 0.09665895253419876, -0.11734569817781448, 0.14210325479507446, -0.09395717084407806, 0.04211811348795891, -0.10745814442634583, 0.028811441734433174, 0.15339069068431854, -0.05522121489048004, -0.10379854589700699, 0.09555443376302719, -0.22195374965667725, 0.04376155883073807, 0.1852356344461441, 0.15347513556480408, -0.1027967557311058, -0.6042340397834778, -0.006453192792832851, 0.03773343935608864, -0.17609959840774536, 0.25257977843284607, -0.02703689970076084, 0.17987525463104248, -0.08053435385227203, -0.01623905822634697, 0.010486559942364693, 0.20449542999267578, 0.219306081533432, 0.023281382396817207, 0.1721581071615219, -0.03449789434671402, -0.09085258096456528, 0.21614353358745575, -0.025802144780755043, 0.02324899472296238, -0.21846620738506317, 0.06902896612882614, -0.04812698811292648, 0.08857166022062302, -0.11489453911781311, -0.06581481546163559, 0.015034293755888939, -0.12030971795320511, 0.3019864857196808, 0.2684212028980255, 0.1423591673374176, 0.02641352079808712, -0.013825981877744198, -0.013366663828492165, 0.05126992613077164, -0.08355764299631119, -0.1708879917860031, 0.01262832060456276, -0.11267384141683578, 0.093246690928936, 0.5087310075759888, 0.15958532691001892, 0.5168958902359009, 0.08834097534418106, -0.006133665330708027, 0.1228836178779602, -0.30726826190948486, 0.09091263264417648, 0.05634813755750656, -0.00966549664735794, -0.00535202119499445, -0.18258430063724518, 0.07550042122602463, 0.15051278471946716, 0.03219673037528992, 0.19524791836738586, -0.16202282905578613, -0.0017234646948054433, 0.05124879255890846, -0.07212577015161514, 0.12156388908624649, 0.10922913253307343, 0.1086803749203682, 0.044758401811122894, 0.1334226280450821, 0.004120850004255772, 0.03715522587299347, 0.16869844496250153, 0.14764225482940674, 0.07251598685979843, -0.09958066791296005, -0.134782075881958, 0.1036766842007637, 0.0252165999263525, 0.14914868772029877, 0.08254595845937729, 0.05194792151451111, -0.17497989535331726, -0.05844488739967346, 0.04139295220375061, 0.18106712400913239, 0.03846616670489311, 0.016663558781147003, 0.13384662568569183, 0.15262417495250702, -0.11243320256471634, 0.028715360909700394, -0.03365166485309601, 0.001359518151730299, 0.049322254955768585, -0.08791618794202805, 0.08907656371593475, -0.001108683878555894, 0.025904159992933273, 0.0480896458029747, -0.08507122099399567, 0.1210903748869896, 0.05355611816048622, -0.10042164474725723, 0.10232777148485184, -0.035318803042173386, -0.001273039379157126, -0.146070197224617, -0.0038007418625056744, -0.035026323050260544, 0.012831687927246094, -0.14315441250801086, -0.029881566762924194, -0.06777693331241608, 0.04620859771966934, 0.09292156249284744, -0.21347467601299286, -0.04410865902900696, -0.05775066837668419, -0.17955881357192993, -0.00085196562577039, -0.07367736846208572, 0.13201522827148438, -0.0902961939573288, 0.006359495688229799, 0.16395318508148193, 0.018515653908252716, 0.18645285069942474, -0.38000187277793884, 0.04199820011854172, 0.21761339902877808, -0.13764110207557678, -0.06980513781309128, -0.048874981701374054, -0.134652778506279, -0.01457049697637558, 0.11957400292158127, -0.2842777967453003, 0.016681008040905, -0.27379724383354187, 0.18883968889713287, -0.24511854350566864, 0.19546109437942505, 0.1728188395500183, -0.13216686248779297, -0.2539452314376831, 0.12601400911808014, 0.23678936064243317, 0.06815210729837418, -0.052856214344501495, -0.0736292153596878, -0.22423021495342255, -0.2048395872116089, 0.10865631699562073, 0.2816288471221924, -0.16085606813430786, -0.07476453483104706, -0.022318925708532333, 0.34247153997421265, 0.22895315289497375, 0.23107323050498962, 0.013499489054083824, 0.02699730359017849, 0.10996585339307785, -0.20923630893230438, 0.056237172335386276, 0.16967470943927765, -0.37407806515693665, -0.12128431349992752, -0.2581901550292969, 0.25879013538360596, -0.3450722396373749, -0.21179702877998352, -0.2845231890678406, 0.31211990118026733, 0.24243491888046265, 0.23086906969547272, -0.01681058295071125, 0.05033228173851967, 0.03290589153766632, 0.2094699591398239, 0.255241721868515, -0.01529347337782383, 0.265106737613678, 0.3085673749446869, 0.17810669541358948, -0.2404167354106903, -0.3170647621154785, -0.08313583582639694, -0.05659661069512367, 0.1299653798341751, -0.0900256410241127, 0.03681262210011482, -0.20373834669589996, -0.07626437395811081, -0.10445916652679443, -0.06654664129018784, 0.009969138540327549, -0.09879462420940399, 0.08801370859146118, 0.12544666230678558, 0.009698746725916862, 0.14897222816944122, -0.12899193167686462, 0.032666511833667755, 0.06844726204872131, 0.28904086351394653, -0.22094528377056122, -0.21962310373783112, -0.10986437648534775, -0.007625789847224951, 0.12151485681533813, -0.13233910501003265, 0.04652778059244156, -0.05106585472822189, 0.013297192752361298, 0.09101138263940811, 0.19463695585727692, 0.2756621837615967, 0.262067973613739, 0.21801967918872833, -0.14311900734901428, 0.08033689111471176, -0.02815849520266056, 0.25275325775146484, 0.3081486225128174, 0.17052443325519562, -0.14010895788669586, -0.07244999706745148, 0.1681600958108902, 0.11358844488859177, 0.17840558290481567, -0.06050126999616623, 0.16612912714481354, -0.3034029006958008, -0.5360119342803955, 0.11666261404752731, 0.6066439151763916, -0.40650469064712524, 0.1465347409248352, -0.8715289831161499, -0.15156236290931702, -0.42307114601135254, 0.8390719294548035, -0.7795065641403198, -0.52155601978302, -1.0117924213409424, 0.08647627383470535, -0.730374813079834, 0.3529525101184845, -0.7776944041252136, -0.282443106174469, -0.1306103765964508, 0.03159445524215698, 0.21745650470256805, 0.12927033007144928, -0.24965506792068481, -0.7359350323677063, 0.01615453138947487, -0.044138599187135696, -0.11710629612207413, 0.1383793205022812, 0.010246739722788334, 0.061550356447696686, 0.046141814440488815, -0.26763445138931274, -0.33641743659973145, 0.08723461627960205, -0.0031286790035665035, 0.03244687616825104, -0.12130140513181686, -0.23349562287330627, 0.29367485642433167, 0.22255544364452362, -0.35578617453575134, 0.12166913598775864, -0.14817172288894653, 0.014215441420674324, 0.2380407154560089, 0.14150530099868774, 0.05232818052172661, 0.2757895588874817, 0.3322058916091919, -0.11352233588695526, -0.2927575409412384, -0.0205624308437109, -0.1652105450630188, 0.0864398404955864, 0.23178446292877197, 0.03288520872592926, 0.1675737053155899, -0.23568253219127655, -0.14021849632263184, -0.06628730148077011, -0.04210924729704857, -0.019123423844575882, 0.10610764473676682, 0.06545877456665039, -0.09263908863067627, 0.28353604674339294, 0.034223172813653946, -0.3250174820423126, -0.18937329947948456, -0.012805602513253689, 0.06099029257893562, -0.08357453346252441, -0.00885816290974617, -0.05468396097421646, -0.003282292513176799, 0.08890935033559799, -0.03646435961127281, 0.1862986981868744, -0.19052350521087646, -0.014508780092000961, 0.1189408153295517, 0.5517194867134094, -0.18095673620700836, -0.37450310587882996, -0.36109936237335205, 0.3727512061595917, 0.18754640221595764, 0.11682151257991791, 0.25682932138442993, 0.061918243765830994, -0.018847810104489326, -0.034965626895427704, 0.19791896641254425, 0.0007244546432048082, -0.21021157503128052, -0.0514138825237751, -0.11308392137289047, -0.3036036491394043, -0.10725662112236023, -0.1259094923734665, 0.02956199087202549, -0.057223230600357056, -0.13355456292629242, 0.04219020903110504, -0.23365099728107452, 0.2766577899456024, 0.30522966384887695, -0.1160760447382927, -0.06351041793823242, -0.20244558155536652, -0.10389422625303268, 0.18577849864959717, 0.09765639156103134, 0.1611832082271576, -0.027638999745249748, 0.3993520736694336, -0.17477232217788696, -0.0761483758687973, 0.34533441066741943, 0.03949602693319321, -0.3371169865131378, 0.3364671468734741, 0.06893475353717804, -0.2745612859725952, 0.36115533113479614, -0.1976434737443924, 0.14875607192516327, -0.011433565989136696, 0.39189860224723816, 0.3689917027950287, -0.09950457513332367, -0.09157442301511765, -0.021698838099837303, -0.07752585411071777, 0.023492740467190742, 0.16984602808952332, -0.07957778126001358, 0.043849192559719086, 0.23925046622753143, -0.37335899472236633, 0.080375537276268, -0.11001555621623993, 0.1814650148153305, 0.2785176932811737, 0.1914459466934204, -0.06637391448020935, 0.3324706256389618, -0.18216420710086823, 0.1534939706325531, -0.29028868675231934, -0.15004085004329681, -0.07404295355081558, -0.0011439374648034573, 0.20531222224235535, -0.11379816383123398, 0.3201231062412262, -0.10336769372224808, -0.11733901500701904, 0.14104853570461273, -0.14355064928531647, 0.12270278483629227, -0.3360775411128998, 0.19880828261375427, 0.16742856800556183, 0.18655972182750702, 0.08991485089063644, -0.08037976920604706, 0.22359412908554077, -0.16745898127555847, 0.1477174013853073, 0.1213129460811615, 0.05522254854440689, 0.38575366139411926, 0.2299683690071106, 0.05396023392677307, 0.37365224957466125, -0.04195152223110199, -0.16295766830444336, -0.10893718898296356, -0.08213762938976288, 0.07194054871797562, 0.07254396378993988, -0.05966934934258461, 0.0638156533241272, 0.020949747413396835, 0.016517959535121918, 0.25775277614593506, -0.057707369327545166, 0.15924997627735138, -0.03929046541452408, 0.04241374507546425, 0.06204008683562279, 0.022241108119487762, 0.09129434078931808, 0.31147316098213196, -0.323119580745697, 0.36686214804649353, -0.008379492908716202, -0.3548077344894409, -0.09993143379688263, 0.10974779725074768, 0.09287391602993011, 0.2872028946876526, 0.15823671221733093, -0.16192086040973663, -0.1727922260761261, 0.00031440536258742213, 0.029794219881296158, -0.2088664174079895, -0.19477307796478271, -0.25659069418907166, -0.042262282222509384, 0.2444971203804016, 0.09363535791635513, -0.12982754409313202, -0.34555232524871826, 0.031668949872255325, 0.005772183183580637, -0.13771817088127136, -0.21484383940696716, -0.3197573125362396, 0.11826209723949432, -0.21699225902557373, -0.24594956636428833, -0.19183923304080963, 0.1074584349989891, -0.010355697944760323, -0.16721197962760925, 0.1822192221879959, -0.24090449512004852, 0.054354675114154816, 0.133418008685112, 0.04626934602856636, -0.1752137988805771, 0.18725800514221191, 0.08537561446428299, -0.12790590524673462, -0.08475832641124725, 0.1650133579969406, 0.1460343301296234, -0.07277905195951462, 0.02538369596004486, 0.21965612471103668, 0.08345530182123184, 0.043685268610715866, -0.10064452141523361, -0.13651564717292786, 0.3015080392360687, -0.11437356472015381, 0.03799119591712952, 0.15093636512756348, -0.1539732664823532, 0.04838255047798157, -0.10452946275472641, 0.21006609499454498, 0.2688288688659668, 0.27108344435691833, 0.33922243118286133, -0.32655858993530273, -0.4004365801811218, 0.17258234322071075, 0.05810436233878136, -0.25567981600761414, -0.3552626669406891, 0.1475675404071808, 0.17466790974140167, -0.1305057406425476, 0.22725583612918854, 0.03478841483592987, -0.2165140062570572, 0.23899684846401215, -0.32560762763023376, -0.3700161278247833, 0.10368900001049042, -0.29972007870674133, -0.04652392119169235, 0.0049339039251208305, -0.37045276165008545, 0.1010480672121048, 0.25207942724227905, -0.07176373898983002, 0.16660244762897491, 0.08588948100805283, -0.0009289489244110882, -0.16393794119358063, 0.3089485764503479, -0.38048055768013, -0.28508150577545166, -0.2725676894187927, 0.09475015103816986, -0.38889601826667786, -0.15938697755336761, 0.053689584136009216, -0.04029982537031174, -0.1101781576871872, -0.16200654208660126, -0.21266083419322968, -0.11698582023382187, -0.08039194345474243, 0.060090579092502594, 0.013294576667249203, -0.0617806650698185, 0.3059071898460388, 0.045462775975465775, 0.37064656615257263, -0.17147932946681976, 0.03793485090136528, -0.2279237061738968, -0.17378544807434082, -0.08530261367559433, 0.23410895466804504, -0.08298128843307495, -0.17622010409832, -0.2510707378387451, 0.43893513083457947, 0.09142570197582245, 0.3717529773712158, 0.038334693759679794, -0.010405045934021473, -0.11079543083906174, -0.06271595507860184, -0.23508548736572266, -0.22140219807624817, 0.08465097099542618, -0.01861116848886013, -0.1578146517276764, -0.6439089179039001, 0.3727164566516876, -0.1252795308828354, 0.20978844165802002, -0.17137488722801208, 0.15146489441394806, 0.13688187301158905, -0.247288778424263, 0.09562230855226517, -0.2749006450176239, -0.012233279645442963, 0.033306680619716644, -0.18057921528816223, 0.2755238711833954, -0.20103377103805542, 0.14509955048561096, -0.32320791482925415, 0.13738195598125458, 0.06428099423646927, 0.03177478536963463, 0.031873129308223724, 0.0534793920814991, 0.01789327897131443, 0.15303635597229004, 0.11955779045820236, 0.06406024098396301, -0.11597774177789688, 0.029073486104607582, 0.030773987993597984, 0.14069931209087372, -0.1442916840314865, -0.12013240903615952, -0.3709389865398407, -0.15713846683502197, -0.08936373889446259, -0.03809020295739174, -0.0638568252325058, -0.25242871046066284, 0.1558498740196228, 0.24623996019363403, 0.06733153015375137, 0.16218091547489166, 0.11959332972764969, -0.09569257497787476, 0.08896851539611816, -0.20412711799144745, 0.05773869901895523, -0.08325542509555817, 0.3335484266281128, 0.2997286021709442, -0.017412718385457993, -0.05514398217201233, -0.1786864846944809, -0.07937175035476685, 0.19810225069522858, -0.04695901647210121, 0.17261777818202972, -0.09206680208444595, 0.12336931377649307, 0.09065824747085571, 0.06381240487098694, -0.2019093930721283, -0.01914128288626671, -0.13861680030822754, -0.04648585245013237, 0.07963362336158752, -0.08954895287752151, 0.2127092182636261, 0.19098998606204987, -0.05843833461403847, -0.0675961822271347, 0.16610652208328247, -0.16441191732883453, 0.004695012234151363, 0.08024290949106216, 0.06033966317772865, -0.1092701405286789, -0.025815732777118683, 0.09289319068193436, 0.251846581697464, 0.10350053757429123, 0.08174259960651398, -0.06368226557970047, 0.1986456960439682, 0.14758622646331787, 0.12195243686437607, -0.09542626142501831, 0.049980636686086655, 0.0944746807217598, -0.28489595651626587, 0.028415581211447716, 0.09509412199258804, 0.004734904505312443, 0.1503198891878128, -0.07740528136491776, 0.3770565986633301, 0.007461736910045147, -0.0525844544172287, -0.1317770928144455, 0.008666886016726494, 0.1280495673418045, -0.03935591131448746, -0.2702917158603668, 0.07717348635196686, -0.07961507886648178, 0.0007937546470202506, -0.13753141462802887, -0.0487075075507164, -0.285904198884964, 0.22931236028671265, -0.028639428317546844, 0.35425037145614624, 0.00992851797491312, 0.03728993982076645, 0.19873885810375214, -0.25121504068374634, 0.08417221158742905, 0.09903125464916229, -0.05900558456778526, 0.10034341365098953, 0.07109055668115616, 0.021870147436857224, 0.025306174531579018, -0.05770440027117729, 0.27422773838043213, 0.04517754167318344, 0.12493818998336792, -0.1482783406972885, -0.029017247259616852, 0.13165611028671265, 0.28186166286468506, -0.07429855316877365, -0.01717657782137394, -0.13425731658935547, -0.14669378101825714, -0.061833254992961884, -0.17999395728111267, 0.13967488706111908, 0.22652313113212585, -0.08846843987703323, 0.2326880246400833, -0.034901443868875504, -0.0008447389118373394, 0.15511472523212433, -0.45449015498161316, -0.49733835458755493, 0.2688066363334656, 0.19779521226882935, 0.07434561103582382, 0.13804303109645844, 0.22771090269088745, 0.06260288506746292, 0.03071618638932705, -0.0691322535276413, 0.2042980194091797, 0.11587073653936386, -0.00450114905834198, 0.036860041320323944, -0.16310060024261475, -0.016542503610253334, 0.05420604720711708, 0.02051601931452751, 0.3494201600551605, 0.15238995850086212, 0.05092482641339302, 0.17013143002986908, -0.07165903598070145, -0.04309432953596115, -0.0034104562364518642, -0.013804853893816471, -0.02437417022883892, -0.10080000758171082, -0.1760432869195938, -0.1816537231206894, -0.05055832490324974, 0.11121053248643875, -0.009735528379678726, -0.33655616641044617, -0.2324206382036209, 0.004116555210202932, -0.2194984406232834, 0.04498394951224327, -0.014219489879906178, -0.028999829664826393, -0.08128024637699127, -0.11864105612039566, -0.006525120232254267, 0.11764118820428848, 0.0780472531914711, -0.11126086115837097, -0.443194180727005, -0.25093525648117065, 0.17481635510921478, 0.4173946678638458, -0.09694871306419373, -0.16746576130390167, 0.03984889015555382, -0.054302725940942764, -0.1487918347120285, 0.21406811475753784, 0.111685611307621, -0.08153311908245087, -0.15741725265979767, 0.3948894739151001, -0.07592374831438065, -0.16100740432739258, -0.07425674051046371, 0.1846967488527298, 0.2125951498746872, -0.05112733319401741, 0.5295668244361877, 0.17942960560321808, -0.04285507649183273, -0.13313648104667664, -0.11844893544912338, -0.10540242493152618, -0.035016097128391266, -0.2158358246088028, 0.08983521163463593, -0.2133912742137909, 0.0039034781511873007, -0.32165250182151794, 0.26359134912490845, 0.21723444759845734, 0.4078236520290375, 0.07170966267585754, 0.06766383349895477, -0.05815339833498001, -0.1547868251800537, -0.0688660517334938, -0.5017783641815186, -0.21084848046302795, 0.08994919061660767, -0.2407909631729126, 0.23765471577644348, 0.25903066992759705, 0.09469353407621384, -0.6391564607620239, 0.17596985399723053, -0.02471664547920227, -0.19489224255084991, -0.020993540063500404, -0.1319781243801117, 0.22823849320411682, 0.34793367981910706, -0.145003080368042, 0.01618838869035244, 0.22630658745765686, 0.4621809720993042, 0.0034756052773445845, -0.09590599685907364, -0.26216843724250793, 0.09742093831300735, 0.04932774603366852, 0.3196336627006531, -0.18156807124614716, -0.032763343304395676, 0.07719658315181732, -0.10355614125728607, -0.07122611999511719, 0.1754331737756729, 0.20061467587947845, 0.0537264421582222, 0.3514799475669861, -0.02065730281174183, 0.03141048923134804, -0.41756343841552734, -0.06156374514102936, 0.2014687955379486, 0.18674300611019135, -0.2343619465827942, -0.20807309448719025, 0.2462710738182068, -0.1348639875650406, 0.06715492159128189, -0.06800555437803268, 0.07160180807113647, 0.0951143205165863, 0.005814871285110712, 0.03827109560370445, -0.0032981180120259523, 0.015384810045361519, 0.042849984019994736, -0.09891510754823685, -0.26651033759117126, 0.36477258801460266, 0.0970064252614975, -0.7923853397369385, 0.18537364900112152, 0.10453875362873077, 0.1349763125181198, 0.03421500325202942, 0.13926175236701965, -0.032584141939878464, -0.04252718761563301, 0.05774244666099548, 0.12205467373132706, 0.03190824016928673, 0.026297951117157936, -0.10754380375146866, 0.5851064324378967, 0.04867596551775932, 0.2554396092891693, -0.12056903541088104, 0.1056683361530304, 0.04297778755426407, -0.06546328961849213, -0.06643933057785034, -0.25623753666877747, -0.35565340518951416, 0.00043498381273820996, -0.2637476921081543, -0.2049890011548996, -0.20693480968475342, -0.08694654703140259, 0.18573780357837677, -0.016314100474119186, 0.07489512860774994, -0.12612588703632355, 0.12377095967531204, 0.076283760368824, -0.06258679181337357, 0.0018925141775980592, 0.2000201940536499, -0.019433217123150826, -0.2569820284843445, -0.0751829594373703, -0.20084209740161896, -0.1461084932088852, 0.25575655698776245, -0.18243780732154846, 0.0839298740029335, -0.13718505203723907, 0.1570626199245453, -0.13623420894145966, 0.1251155138015747, 0.3053481876850128, 0.26816070079803467, 0.07932137697935104, -0.24930724501609802, 0.10694973170757294, 0.2013424187898636, -0.22544287145137787, -0.035609327256679535, -0.24920275807380676, 0.22776202857494354, 0.09097998589277267, -0.1707659512758255, 0.08716335147619247, -0.07607264071702957, 0.19591408967971802, -0.2622634768486023, 0.05486061051487923, -0.028178608044981956, -0.10147639364004135, 0.008196776732802391, -0.09594026952981949, 0.0483814999461174, 0.058814000338315964, -0.3359442353248596, -0.22587259113788605, -0.11961330473423004, -0.039973676204681396, -0.0025954260490834713, -0.08118291199207306, 0.3042762875556946, -0.2016955465078354, 0.10214786976575851, 0.028778383508324623, -0.25069329142570496, 0.0297527052462101, 0.17265214025974274, 0.033227335661649704, 0.17500385642051697, 0.135771706700325, 0.007645878475159407, 0.0753747969865799, 0.05301039665937424, -0.1209155023097992, -0.1293560266494751, -0.08847932517528534, 0.42401328682899475, 0.025409454479813576, -0.30569806694984436, 0.6654012799263, -0.4188036322593689, -0.007268184330314398, -0.1280902922153473, 0.1525985151529312, 0.19002942740917206, -0.07413334399461746, -0.04085743427276611, -0.02190309576690197, 0.1962776482105255, -0.05772686377167702, -0.09008714556694031, -0.2328222244977951, -0.027227845042943954, 0.1576606184244156, 0.27940091490745544, 0.08987147361040115, 0.03555638715624809, -0.025120338425040245, 0.0012377636739984155, -0.16560572385787964, -0.022467201575636864, -0.05991022661328316, -0.08957405388355255, 0.07266423851251602, 0.12945204973220825, -0.05883818492293358, -0.025062108412384987, 0.15212740004062653, -0.20454417169094086, -0.0212007537484169, -0.3812738060951233, -0.04040117189288139, -0.26883938908576965, -0.004076851066201925, -0.2036786675453186, -0.1317969411611557, -0.1330820769071579, 0.24421201646327972, -0.03278360515832901, 0.014815051108598709, 0.13894261419773102, 0.10129909962415695, -0.1393095999956131, -0.04476124048233032, 0.1747230440378189, -0.08267251402139664, -0.21307046711444855, -0.3079223930835724, -0.19562415778636932, 0.07122710347175598, -0.005343278869986534, -0.06473822146654129, 0.052268750965595245, 0.2585647404193878, -0.14991596341133118, 0.14181247353553772, -0.09528586268424988, 0.05351274460554123, 0.11590990424156189, -0.33240824937820435, 0.034164056181907654, -0.11488562077283859, 0.3168643116950989, 0.180198535323143, -0.11049261689186096, 0.08724415302276611, 0.018326932564377785, -0.01434861309826374, 0.13143734633922577, -0.0219708401709795, 0.08053220063447952, -0.00432138005271554, -0.07828957587480545, 0.17274388670921326, 0.026264680549502373, 0.10695098340511322, -0.1884669065475464, 0.23340848088264465, -0.20671232044696808, 0.06379486620426178, 0.28321945667266846, -0.08621788024902344, -0.17862652242183685, -0.006653051823377609, -0.1314084529876709, -0.1279846727848053, 0.19427645206451416, 0.21418823301792145, -0.07106418162584305, 0.08004933595657349, 0.03101111389696598, 0.1643354296684265, -0.3007681965827942, 0.06322912871837616, 0.37945666909217834, -0.5066497325897217, 0.09735821187496185, -0.034528136253356934, -0.01587364636361599, -0.13773027062416077, -0.20721890032291412, 0.2780144214630127, -0.1628217250108719, 0.14938411116600037, -0.3495181202888489, -0.04488351568579674, 0.13135650753974915, -0.15630744397640228, -0.00538353156298399, -0.1348935067653656, -0.04070159047842026, 0.08786046504974365, -0.09841975569725037, -0.07675078511238098, 0.22181764245033264, -0.14006558060646057, 0.22625981271266937, -0.009914638474583626, -0.007084714714437723, 0.2337784469127655, -0.05266780033707619, 0.13484865427017212, -0.0921250581741333, -0.11059754341840744, -0.1310654878616333, 0.12057486921548843, 0.18881657719612122, 0.18369440734386444, -0.1038614809513092, -0.28012675046920776, -0.26851922273635864, 0.06561080366373062, 0.006086339708417654, -0.2240924835205078, 0.07901906222105026, 0.23344410955905914, -0.21298502385616302, -0.08873029798269272, 0.028547590598464012, 0.09666284918785095, -0.2534288465976715, 0.002232051221653819, -0.0002843512629624456, 0.08246605843305588, 0.10034466534852982, -0.24501466751098633, -0.10211645811796188, 0.24186083674430847, -0.24695301055908203, -0.20013806223869324, 0.17932675778865814, 0.06370534002780914, -0.16768616437911987, -0.30033090710639954, -0.1703038215637207, -0.28215426206588745, 0.1970100849866867, 0.15777865052223206, 0.13718178868293762, -0.1562555730342865, -0.018746642395853996, -0.25258341431617737, -0.134053036570549, 0.06670331954956055, 0.031435154378414154, 0.07256031036376953, 0.04681016877293587, 0.11873085796833038, 0.19841070473194122, 0.013349861837923527, -0.04103983938694, 0.08893993496894836, -0.11576299369335175, 0.10881705582141876, -0.18741078674793243, 0.10135851055383682, -0.1266935020685196, 0.07377990335226059, 0.004211669322103262, -0.05375434830784798, 0.07199452072381973, -0.01267390325665474, 0.0447724387049675, -0.22600965201854706, 0.16572169959545135, 0.1674463301897049, -0.07968296110630035, 0.0653066635131836, 0.031698644161224365, 0.1200588271021843, 0.03110114298760891, -0.05642823129892349, -0.1449303925037384, 0.21875949203968048, 0.2070871740579605, -0.01003210712224245, 0.09715640544891357, 0.21788592636585236, -0.25598037242889404, 0.14525869488716125, -0.16182106733322144, 0.15558980405330658, 0.07510651648044586, -0.6429556608200073, 0.0441436767578125, 0.04124704375863075, 0.21343491971492767, -0.11147666722536087, 0.056884560734033585, 0.11011652648448944, -0.21623313426971436, -0.1150258481502533, -0.015694310888648033, 0.19495779275894165, 0.010955072939395905, 0.2579283118247986, 0.10927381366491318, -0.01854335330426693, -0.10247288644313812, 0.09171438217163086, -0.1853393167257309, 0.045380957424640656, -0.1299959123134613, -0.1938837468624115, 0.1392739862203598, -0.09697052836418152, -0.1607409417629242, 0.19532355666160583, -0.09624756127595901, 0.057973433285951614, 0.23807597160339355, 0.22806231677532196, 0.021387185901403427, 0.11172689497470856, -0.26295292377471924, -0.0261093582957983, -0.025671398267149925, 0.0441351942718029, 0.16123977303504944, -0.7707911729812622, 0.06563211232423782, 0.04787823185324669, 0.31373390555381775, -0.23895907402038574, -0.10989558696746826, 0.19472849369049072, -0.16169285774230957, -0.0433826707303524, -0.41606882214546204, 0.034604594111442566, -0.1232893243432045, 0.5020184516906738, 0.17607839405536652, 0.2704784870147705, -0.20652401447296143, 0.02505262941122055, 0.13597042858600616, -0.11785414069890976, 0.09522000700235367, -0.21637225151062012, -0.3818672001361847, 0.009214387275278568, -0.30679160356521606, -0.49803176522254944, -0.11938262730836868, 0.1827000230550766, 0.09239529073238373, -0.20969782769680023, 0.14056116342544556, -0.17647963762283325, -0.14557737112045288, 0.125185027718544, -0.30764880776405334, 0.08060599118471146, -0.05059000477194786, -0.19551457464694977, 0.03770410642027855, 0.37560853362083435, -0.19426743686199188, -0.08830926567316055, 0.15761274099349976, -0.05569720268249512, 0.046136412769556046, -0.2862550914287567, 0.23669898509979248, -0.1434869021177292, -0.2395126223564148, 0.1529735028743744, -0.03989493474364281, 0.11811435967683792, -0.2423008680343628, 0.039893995970487595, 0.2870624363422394, -0.20711278915405273, 0.03652637451887131, -0.2911447286605835, 0.20415034890174866, -0.10197943449020386, -0.028632106259465218, 0.07843222469091415, 0.26079604029655457, 0.05254421383142471, 0.0008879483211785555, -0.02408767119050026, 0.005629229824990034, 0.1774568110704422, -0.0043182470835745335, -0.11148776859045029, 0.18930061161518097, 0.2290407121181488, 0.02577543817460537, 0.24157492816448212, 0.09401801973581314, -0.13101258873939514, -0.16884566843509674, 0.02930396795272827, 0.11998496949672699, -0.030750282108783722, -0.08858732879161835, -0.33749955892562866, -0.22510458528995514, 0.05673946440219879, 0.11628207564353943, 0.01704735867679119, -0.07001634687185287, 0.10225395858287811, -0.0004416958836372942, -0.15400564670562744, 0.12866628170013428, -0.0968085452914238, -0.08511374145746231, -0.06428305804729462, 0.19507770240306854, 0.27937766909599304, -0.14473624527454376, 0.3472411334514618, 0.016621321439743042, 0.10919258743524551, 0.11455827206373215, -0.17151735723018646, 0.2507528066635132, -0.03317590057849884, -0.1675737500190735, -0.16212591528892517, -0.08740206807851791, 0.3000520169734955, 0.061623260378837585, 0.01036399882286787, 0.30567941069602966, -0.26860323548316956, 0.10921620577573776, -0.10214343667030334, -0.06683459132909775, -0.2912624776363373, 0.21201689541339874, -0.2980296015739441, -0.015242026187479496, 0.1193535104393959, -0.30585265159606934, 0.06303679943084717, 0.02288595587015152, -0.06178463250398636, 0.032564371824264526, -0.4189683794975281, 0.6143665313720703, 0.5354552268981934, -0.7837444543838501, -0.08721154183149338, -0.28693342208862305, -0.2100955992937088, 0.3858366906642914, -0.6080175042152405, 1.2463350296020508, 0.5870708227157593, 0.2766363024711609, -0.19132140278816223, 0.017433885484933853, -0.6369348764419556, 0.16692115366458893, -0.28824782371520996, 0.21554596722126007, -0.1799878031015396, 0.1396857500076294, 0.31419578194618225, -0.06215636804699898, -0.10239608585834503, 0.20445044338703156, -0.06869132816791534, 0.27181580662727356, 0.3705180883407593, -0.28539225459098816, -0.13871146738529205, -0.2710641622543335, -0.2783166766166687, 0.2506931722164154, -0.11192046105861664, 0.0018604451324790716, 0.033221255987882614, 0.1910628378391266, 0.012108515948057175, -0.1525132656097412, -0.2219170480966568, -0.19722536206245422, 0.20622403919696808, -0.05962207168340683, -0.2990594208240509, 0.13049083948135376, 0.34985271096229553, 0.16435809433460236, 0.10396795719861984, 0.23776179552078247, -0.6630515456199646, -0.03683531656861305, 0.06718502193689346, -0.012791943736374378, -0.286422461271286, -0.09426593780517578, -0.2220182716846466, -0.1792122721672058, 0.1860290914773941, -0.09694238007068634, 0.18568304181098938, 0.3217492401599884, -0.3437131345272064, -0.20936794579029083, -0.03570127487182617, 0.14058735966682434, -0.13018164038658142, 0.2263263612985611, -0.054323408752679825, 0.007817522622644901, 0.3572481870651245, -0.36248645186424255, 0.4664015471935272, 0.05584946274757385, -0.07367372512817383, -0.11118817329406738, 0.18491731584072113, -0.18982389569282532, -0.23944836854934692, 0.5337705016136169, -0.444475382566452, -0.19770245254039764, -0.17718984186649323, 0.2552189528942108, -0.49170926213264465, 0.10972490161657333, 0.04078807681798935, 0.3889809846878052, 0.3081531822681427, 0.41173282265663147, -0.15777407586574554, -0.44823670387268066, 0.13991890847682953, -0.4118236303329468, -0.40152284502983093, 0.5087652802467346, 0.04367772117257118, -0.11084741353988647, 0.012086564674973488, -0.022802650928497314, -0.08140700310468674, -0.05071279779076576, 0.09518208354711533, -0.07697778940200806, 0.23230431973934174, -0.03137814998626709, -0.19342130422592163, -0.14943918585777283, -0.037221841514110565, -0.0926814004778862, 0.2324678599834442, 0.44157668948173523, 0.20608462393283844, 0.16622398793697357, -0.014813929796218872, -0.15396183729171753, 0.10019635409116745, 0.2285556197166443, -0.09154926240444183, 0.13777683675289154, -0.12070858478546143, -0.29346469044685364, 0.3061428964138031, 0.07401861995458603, -0.2343912124633789, 0.06130493804812431, 0.25916698575019836, 0.08781106024980545, -0.01609168015420437, 0.2678840756416321, 0.050134722143411636, -0.2960111200809479, 0.013162876479327679, -0.017170030623674393, -0.401689738035202, 0.21687810122966766, -0.12503847479820251, 0.2482050657272339, 0.28208816051483154, -0.12359139323234558, 0.07232119888067245, 0.20811748504638672, 0.23391754925251007, 0.01198593620210886, 0.36281755566596985, -0.297552227973938, 0.21763746440410614, 0.10891346633434296, -0.009716751053929329, 0.29283714294433594, 0.23436196148395538, -0.16871055960655212, 0.2650860846042633, -0.25291284918785095, -0.11754172295331955, 0.11747828871011734, 0.5117126107215881, -0.4365692138671875, -0.13195128738880157, -0.18395653367042542, 0.004806516692042351, 0.15481038391590118, 0.005127585958689451, -0.27862247824668884, 0.27839717268943787, 0.06508153676986694, 0.25839078426361084, -0.21056994795799255, -0.06615542620420456, -0.08372355997562408, 0.10010703653097153, 0.017252061516046524, -0.32248973846435547, 0.08869016170501709, 0.1424197554588318, 0.46938633918762207, 0.03222118690609932, 0.052878763526678085, -0.06421222537755966, 0.022967249155044556, -0.3687145411968231, 0.08717048913240433, -0.14953330159187317, 0.1293741911649704, 0.0857023298740387, 0.2966249883174896, -0.07862919569015503, -0.2752045691013336, -0.021714309230446815, -0.13230878114700317, -0.19252456724643707, 0.155975803732872, 0.3168196380138397, 0.06698552519083023, 0.07402610778808594, -0.030904855579137802, 0.0013946306426078081, 0.05861014872789383, 0.3868010640144348, 0.11582128703594208, -0.039739083498716354, -0.36405739188194275, -0.35233211517333984, -0.06945300102233887, 0.2645868957042694, -0.241628035902977, -0.3076125383377075, 0.058821599930524826, -0.16126291453838348, -0.3659053146839142, -0.2857048809528351, 0.09242066740989685, 0.08227068930864334, 0.2741307020187378, 0.23974531888961792, -0.46775567531585693, -0.14015540480613708, -0.07246586680412292, -0.1306566596031189, 0.016483958810567856, 0.12864679098129272, -0.27005136013031006, -0.05506806820631027, 0.15031887590885162, -0.4809061288833618, -0.2912040650844574, 0.233382448554039, -0.09898004680871964, -0.04808686301112175, -0.03976481035351753, -0.14596854150295258, 0.08460552245378494, -0.0940825492143631, -0.11343956738710403, -0.008537429384887218, 0.2508075535297394, -0.31849831342697144, -0.05399202182888985, 0.29803574085235596, -0.0833614394068718, -0.004403321072459221, 0.16085955500602722, 0.12361553311347961, -0.16256508231163025, 0.16571056842803955, -0.10073250532150269, -0.19003967940807343, 0.051187001168727875, -0.3570903241634369, 0.04686237871646881, 0.2678186893463135, 0.12134090065956116, 0.20677976310253143, 0.04409170150756836, 0.16109362244606018, -0.2645004987716675, -0.16625070571899414, 0.10137784481048584, -0.17006036639213562, -0.010272128507494926, -0.25180551409721375, -0.0707634910941124, -0.11651086062192917, -0.062012072652578354, -0.40363916754722595, 0.11477578431367874, 0.09633300453424454, 0.41913041472435, 0.40452247858047485, -0.07172437012195587, 0.06959708780050278, -0.24825532734394073, -0.008300748653709888, 0.1667822003364563, 0.0007351032691076398, -0.17079196870326996, 0.4028185307979584, -0.0632534921169281, 0.35974588990211487, 0.007345159072428942, -0.42769643664360046, -0.15119236707687378, -0.002710889093577862, 0.07599029690027237, 0.1363975703716278, 0.37413862347602844, 0.05831756070256233, -0.16264399886131287, -0.3071276545524597, 0.2117120325565338, -0.08024822920560837, -0.11978667229413986, -0.12286936491727829, -0.026201581582427025, 0.17014527320861816, -0.004270660225301981, -0.01593288965523243, 0.1126815602183342, 0.12330712378025055, 0.08221375942230225, 0.0027755291666835546, 0.09544605016708374, -0.08787032961845398, -0.1364203244447708, 0.23432917892932892, 0.03019721247255802, 0.017000913619995117, -0.019270941615104675, -0.06556136906147003, 0.06513617932796478, -0.1390441358089447, -0.06442572921514511, 0.012477532029151917, -0.08386176824569702, -0.16083267331123352, -0.08301102370023727, -0.06006457656621933, 0.04426532983779907, 0.08924529701471329, -0.27776849269866943, -0.10920791327953339, 0.20027711987495422, 0.04061318561434746, -0.16507889330387115, -0.30627620220184326, -0.11322662979364395, -0.0641484260559082, -0.1850801408290863, 0.008185267448425293, 0.032374098896980286, -0.001022233860567212, -0.22883398830890656, -0.20268873870372772, -0.09844864904880524, 0.1601448953151703, -0.04992181062698364, -0.129752516746521, 0.0329475924372673, 0.10806726664304733, -0.012914900667965412, 0.17932270467281342, -0.03151446953415871, -0.22602346539497375, 0.15029072761535645, -0.009516672231256962, -0.19251716136932373, -0.21196621656417847, -0.21309654414653778, 0.22404834628105164, 0.09966210275888443, -0.21781496703624725, 0.2560652196407318, -0.06878029555082321, -0.24149806797504425, 0.16271470487117767, -0.167057603597641, 0.19896948337554932, -0.19823004305362701, 0.3213885724544525, 0.08297031372785568, -0.1683623045682907, 0.10079928487539291, -0.3283998370170593, -0.15907931327819824, -0.07636753469705582, 0.23107877373695374, 0.03593907505273819, -0.0375128798186779, 0.06029786914587021, -0.0668470710515976, 0.05823196470737457, -0.10886777192354202, -0.057274360209703445, -0.1554633378982544, -0.1707085818052292, -0.009046399034559727, -0.17099614441394806, 0.0915125235915184, -0.19432634115219116, 0.15486381947994232, 0.17982257902622223, -0.056590884923934937, 0.10327234119176865, 0.07523712515830994, -0.006662904750555754, -0.27395835518836975, -0.13879121840000153, 0.07922252267599106, 0.23152144253253937, -0.00012068606883985922, -0.1917986273765564, -0.034742243587970734, -0.07742683589458466, 0.0288116242736578, -0.02686224691569805, 0.08160072565078735, -0.23935548961162567, 0.10075847059488297, 0.005866087507456541, -0.2692544162273407, -0.17969489097595215, -0.11973883956670761, 0.0750153511762619, 0.15529225766658783, 0.06923526525497437, -0.1701563596725464, -0.10853204131126404, -0.04813956841826439, 0.5366723537445068, 0.34241634607315063, 0.1654234379529953, -0.32241472601890564, 0.16127106547355652, -0.11584774404764175, 0.09184110164642334, 0.18276698887348175, 0.1142050102353096, -0.2934797406196594, -0.13265439867973328, -0.009630830958485603, 0.06480324268341064, -0.10618749260902405, 0.03666331246495247, -0.15788483619689941, -0.03092510998249054, -0.03519821539521217, -0.16342343389987946, 0.18296664953231812, -0.18313179910182953, -0.11656145006418228, -0.27082717418670654, 0.10218585282564163, 0.19047310948371887, 0.18206851184368134, 0.20651176571846008, -0.17263495922088623, -0.17905916273593903, 0.004007617477327585, 0.2454405426979065, 0.03942723572254181, 0.08432569354772568, 0.033586516976356506, 0.027695130556821823, 0.2535337209701538, -0.08828268945217133, 0.059645507484674454, 0.3268114924430847, -0.18740059435367584, 0.07394695281982422, -0.12241135537624359, -0.005164570175111294, -0.017072532325983047, -0.052007514983415604, 0.1490170955657959, 0.10138852149248123, -0.1707942932844162, 0.05085645988583565, -0.05983962118625641, 0.05157947540283203, -0.31432726979255676, -0.19555838406085968, -0.03135782852768898, 0.24443328380584717, -0.20782670378684998, 0.26000091433525085, 0.1551988571882248, 0.17010459303855896, 0.14719784259796143, -0.11616551131010056, 0.0859794095158577, 0.30801907181739807, -0.16607224941253662, -0.08307730406522751, 0.09130557626485825, 0.06758006662130356, -0.3080090880393982, 0.03615650534629822, 0.04878244176506996, 0.13485637307167053, 0.01931028813123703, -0.29965314269065857, 0.009661007672548294, 0.019771022722125053, 0.05788257345557213, 0.19332578778266907, 0.020054670050740242, -0.016214042901992798, -0.0679120123386383, 0.2790306508541107, -0.23473219573497772, 0.08773808926343918, -0.08088761568069458, 0.10983360558748245, 0.16731388866901398, -0.15177036821842194, -0.013702049851417542, -0.16949093341827393, -0.11978323012590408, 0.1869235336780548, 0.08742473274469376, -0.06293749809265137, -0.06818285584449768, -0.22604234516620636, 0.09578223526477814, -0.2211480438709259, 0.1890970766544342, -0.05294013023376465, 0.14020100235939026, -0.08561776578426361, -0.04600713402032852, -0.039528507739305496, 0.24234037101268768, -0.055846355855464935, -0.14736278355121613, -0.11698618531227112, -0.188777357339859, 0.1151961088180542, -0.16231128573417664, -0.0167275071144104, -0.03501875326037407, -0.04794368892908096, -0.116367407143116, -0.05861290171742439, 0.052930500358343124, -0.048516761511564255, -0.010719764977693558, -0.1626797467470169, -0.0184478759765625, 0.1080138236284256, -0.19679510593414307, -0.18226023018360138, -0.025117985904216766, 0.048592209815979004, 0.13102731108665466, -0.20751698315143585, 0.10286164283752441, 0.10148205608129501, 0.10126637667417526, -0.07038696110248566, 0.16812098026275635, -0.17850078642368317, 0.20098555088043213, -0.19089390337467194, 0.03465401381254196, -0.23497210443019867, -0.07058143615722656, 0.019904060289263725, 0.09231670945882797, 0.14159730076789856, -0.0890171155333519, -0.17332807183265686, -0.008521178737282753, 0.16215308010578156, 0.2967870235443115, 0.054197486490011215, -0.6386430263519287, 0.001885686768218875, 0.27855321764945984, -0.14092934131622314, 0.07521937787532806, -0.08424100279808044, -0.1943330615758896, -0.004286250565201044, -0.1036292314529419, 0.20683802664279938, 0.05482722073793411, 0.06750386208295822, -0.26651009917259216, 0.08811450749635696, -0.05423533543944359, -0.2286335825920105, 0.08825667947530746, 0.1018618568778038, -0.22593101859092712, -0.10512537509202957, -0.007564219180494547, 0.17560510337352753, 0.2906847298145294, 0.1333204209804535, -0.16703583300113678, -0.15917499363422394, -0.0953739657998085, 0.13085418939590454, -0.08217836916446686, 0.12650424242019653, 0.15428568422794342, 0.0035020585637539625, -0.13093151152133942, -0.17879453301429749, -0.0053915525786578655, 0.006528091616928577, -0.14737366139888763, -0.05604005604982376, -0.08610355854034424, -0.03960005193948746, -0.24522650241851807, -0.15802960097789764, 0.015524541959166527, 0.33486035466194153, 0.14528709650039673, 0.14705991744995117, -0.1493261754512787, -0.030303312465548515, -0.0005361611838452518, -0.08755668997764587, -0.032695915549993515, 0.10991872847080231, -0.04432010278105736, 0.014673937112092972, 0.11717961728572845, 0.04371604695916176, -0.12720580399036407, -0.21538738906383514, 0.2727629542350769, -0.17717182636260986, -0.027597296983003616, -0.18613669276237488, 0.057932253926992416, 0.01894092932343483, -0.18022792041301727, 0.11475134640932083, 0.16400732100009918, 0.26182782649993896, 0.07290173321962357, -0.20529469847679138, 0.10946392267942429, -0.0543370358645916, -0.1638144552707672, -0.0711621418595314, -0.08021152764558792, 0.29495882987976074, -0.21460674703121185, -0.1530393809080124, 0.23563380539417267, -0.012752234004437923, 0.15637095272541046, -0.13674573600292206, -0.030654245987534523, 0.2888399660587311, -0.3382207453250885, 0.0505206324160099, -0.1266074776649475, -0.24464717507362366, -0.11191357672214508, -0.2079140841960907, 0.18643319606781006, -0.09021064639091492, -0.38552188873291016, -0.06004557013511658, -0.04488741606473923, 0.287641316652298, 0.2191353738307953, -0.14623868465423584, -0.18421365320682526, 0.17959654331207275, -0.20436887443065643, 0.022392623126506805, -0.03582391142845154, 0.09496765583753586, -0.03450625017285347, -0.04816298559308052, 0.15454019606113434, 0.05044950544834137, 0.13139817118644714, -0.038237638771533966, -0.10361087322235107, 0.17754556238651276, -0.19174914062023163, -0.14056091010570526, 0.1717904657125473, 0.13052257895469666, -0.05316613242030144, -0.13613556325435638, -0.260826051235199, 0.07776486128568649, 0.23841768503189087, 0.27921923995018005, 0.0030119456350803375, -0.12359721213579178, 0.11121824383735657, -0.1708465814590454, -0.05243557319045067, -0.06011686101555824, -0.14156971871852875, 0.18894511461257935, -0.15182343125343323, -0.29144784808158875, 0.33470264077186584, -0.09853789210319519, 0.148267924785614, 0.1608908772468567, 0.13489402830600739, -0.01531858928501606, -0.22680994868278503, 0.08496183156967163, 0.38991180062294006, -0.09582025557756424, -0.07715963572263718, -0.48390287160873413, -0.1638127714395523, 0.20753540098667145, 0.24910196661949158, -0.2860211730003357, 0.2334275096654892, -0.25646474957466125, -0.10558874905109406, -0.019303128123283386, -0.0329359695315361, 0.06012574955821037, 0.05313324183225632, -0.09600281715393066, -0.030336732044816017, 0.015615226700901985, 0.08801762759685516, -0.20190656185150146, 0.2354869842529297, 0.10104912519454956, -0.19100421667099, -0.1877812147140503, -0.09782321006059647, 0.27853038907051086, -0.1227911114692688, 0.2635473608970642, 0.4337688088417053, 0.1637037843465805, -0.11128581315279007, -0.21976236999034882, 0.30258968472480774, 0.12580189108848572, 0.2211463749408722, 0.2249627709388733, 0.05485887452960014, -0.007277484517544508, -0.19658944010734558, -0.3491753041744232, 0.17273883521556854, -0.007400577422231436, 0.09182188659906387, -0.13153332471847534, 0.15476199984550476, -0.08556385338306427, -0.027944141998887062, 0.29371991753578186, 0.5725632309913635, 0.32828018069267273, -0.03877858445048332, -0.04611188918352127, 0.07771039754152298, 0.012936138547956944, -0.023615147918462753, -0.5143672227859497, 0.01910446397960186, 0.09652689099311829, -0.11257754266262054, -0.32829245924949646, -0.32641535997390747, -0.11676788330078125, 0.18433532118797302, 0.15534605085849762, 0.1475764811038971, -0.10149502754211426, 0.08369117975234985, -0.267934650182724, 0.2295837104320526, 0.2875882387161255, -0.0836215391755104, -0.16259801387786865, -0.0388607457280159, 0.3238726258277893, 0.02257830835878849, -0.1373715102672577, 0.11079610139131546, 0.08736393600702286, 0.005296944174915552, -0.029435034841299057, -0.0675508975982666, -0.027436651289463043, -0.07430490106344223, 0.15030673146247864, 0.1935419738292694, 0.03713568300008774, -0.04254021495580673, -0.11681540310382843, 0.02378908172249794, 0.024951672181487083, 0.08132251352071762, 0.29244163632392883, 0.2220853567123413, 0.16735827922821045, -0.16235136985778809, -0.17938002943992615, -0.12026134133338928, -0.011839346028864384, -0.024695539847016335, 0.1270546168088913, -0.2183692753314972, -0.11819615215063095, 0.025662556290626526, -0.12564197182655334, 0.21189139783382416, 0.14113640785217285, -0.2041778415441513, -0.17861825227737427, 0.012851674109697342, -0.005002475343644619, 0.06270574033260345, 0.059689443558454514, 0.18628594279289246, 0.1506907194852829, 0.0047881449572741985, -0.006974772550165653, 0.06116330251097679, 0.15131579339504242, -0.09876599907875061, -0.18198789656162262, -0.15350012481212616, 0.023671433329582214, -0.1896711140871048, 0.09874864667654037, 0.20543938875198364, 0.1951662003993988, 0.050993748009204865, -0.25639164447784424, 0.031634487211704254, -0.1139092743396759, -0.11346235871315002, -0.17042310535907745, -0.12310883402824402, 0.1974610835313797, -0.13116367161273956, -0.08308885246515274, 0.12085096538066864, -0.18522746860980988, -0.17339284718036652, 0.19590412080287933, 0.18565772473812103, -0.0475243404507637, -0.24229010939598083, -0.3135754466056824, -0.18269193172454834, 0.04759393259882927, 0.04559630528092384, -0.24145931005477905, 0.04339967295527458, 0.027271676808595657, 0.05537896603345871, 0.008095390163362026, 0.34051284193992615, -0.07107400894165039, -0.0910879448056221, -0.12886486947536469, -0.1336643099784851, 0.14518620073795319, -0.06854303181171417, 0.12517008185386658, -0.11952253431081772, 0.31669938564300537, -0.005898856092244387, -0.0364534892141819, 0.07277093827724457, -0.13998882472515106, -0.2375357449054718, -0.2455298751592636, -0.14091302454471588, 0.15579341351985931, -0.11661713570356369, 0.14065702259540558, -0.01062084548175335, 0.12158292531967163, -0.1948111653327942, -0.09845070540904999, 0.05621372535824776, -0.24582165479660034, -0.01415350753813982, -0.31326955556869507, 0.3410217761993408, -0.10944000631570816, -0.4439830780029297, 0.7749108076095581, 0.22130011022090912, 0.30522796511650085, 0.24055825173854828, -0.2689289152622223, 0.07573132961988449, -0.10033798962831497, -0.11571755260229111, 0.9194825887680054, 0.10131509602069855, -0.040973320603370667, -1.005652904510498, -0.32277190685272217, 0.05045091360807419, 0.17428618669509888, -0.09702517837285995, -0.062603659927845, -0.05043096840381622, 0.31989043951034546, 0.020692292600870132, -0.3171427249908447, 0.06485990434885025, 0.09530660510063171, -0.07736667990684509, 0.06513604521751404, 0.005302987992763519, 0.2747211754322052, -0.03924262896180153, 0.10618322342634201, 0.08999522775411606, -0.11604621261358261, 0.00998470839112997, 0.008477898314595222, 0.22718781232833862, 0.1559412032365799, 0.16119253635406494, -0.04629775136709213, -0.024716051295399666, -0.08535163104534149, 0.08061650395393372, 0.12594479322433472, -0.1900581270456314, 0.06773588061332703, 0.22434136271476746, 0.006812633015215397, -0.015027758665382862, -0.2235558182001114, 0.14765052497386932, 0.04079711437225342, -0.11042819172143936, 0.13564766943454742, 0.10230547934770584, -0.003947539255023003, -0.2634463906288147, 0.018363993614912033, 0.2547798156738281, -0.10708106309175491, -0.002736656926572323, 0.20652064681053162, -0.0708434209227562, 0.09364360570907593, 0.024658843874931335, -0.10605747997760773, -0.16065964102745056, 0.24505963921546936, -0.09460238367319107, 0.004752804059535265, 0.20576603710651398, 0.24903886020183563, -0.010776940733194351, -0.1795126050710678, -0.0002467940212227404, -0.15682417154312134, -0.12882472574710846, -0.17131511867046356, -0.06739507615566254, 0.21060004830360413, -0.19358809292316437, -0.10170632600784302, 0.2716563045978546, 0.21306556463241577, 0.1405239999294281, 0.030476052314043045, 0.17880086600780487, -0.00469769025221467, 0.18617568910121918, -0.1762995421886444, 0.02311982400715351, 0.029406562447547913, -0.035593435168266296, 0.14816974103450775, 0.14734673500061035, 0.028941161930561066, 0.12751658260822296, -0.13421301543712616, -0.12150315940380096, -0.0893443301320076, -0.21745668351650238, 0.12673014402389526, -0.3618113398551941, -0.2516498863697052, 0.022064579650759697, -0.058480750769376755, 0.1364748179912567, -0.1971028596162796, 0.3204638957977295, -0.06269073486328125, -0.009606978856027126, 0.16857890784740448, 0.0502224899828434, -0.3202122747898102, -0.028596965596079826, -0.2104942351579666, -0.08053872734308243, -0.0825483575463295, 0.09177740663290024, 0.22948387265205383, -0.289753258228302, -0.1600608229637146, 0.08925582468509674, -0.14299440383911133, -0.10310502350330353, -0.025584207847714424, 0.28727033734321594, 0.17730379104614258, -0.10206763446331024, 0.20595122873783112, 0.10719715058803558, 0.07089642435312271, 0.047486815601587296, 0.007984495721757412, 0.006502993404865265, 0.19633589684963226, 0.005121161229908466, -0.1748979091644287, 0.008116669952869415, 0.2393975704908371, -0.17135761678218842, -0.06616152822971344, 0.0037101549096405506, 0.08584238588809967, 0.08104420453310013, -0.03588591888546944, -0.04222198575735092, 0.27406492829322815, -0.24028554558753967, -0.048178378492593765, -0.14037877321243286, -0.11567934602499008, -0.05793192982673645, -0.087229423224926, 0.04356517270207405, 0.10423746705055237, -0.08897356688976288, -0.1369832456111908, -0.3966084420681, 0.06958010047674179, 0.2342110276222229, -0.1772557646036148, -0.18206390738487244, 0.23653759062290192, -0.22590072453022003, 0.17538471519947052, 0.009624617174267769, 0.11056783050298691, -0.0789567157626152, -0.24348028004169464, -0.1635676920413971, -0.00010767361527541652, 0.053081903606653214, -0.16720779240131378, 0.08160006254911423, 0.3008144795894623, -0.0012450831709429622, 0.10117711871862411, 0.2718205749988556, 0.10640697181224823, 0.029986798763275146, -0.007640155032277107, 0.013220489956438541, -0.018194468691945076, 0.034229982644319534, 0.026993071660399437, 0.10979393869638443, -0.2720143496990204, 0.020218251273036003, -0.011452854610979557, 0.11083333194255829, 0.39110878109931946, 0.1793932169675827, 0.10054092854261398, 0.012079915963113308, -0.011017732322216034, 0.2614987790584564, 0.2489074170589447, 0.7685486078262329, 0.07633307576179504, 1.0550246238708496, -0.9532720446586609, -0.5406253933906555, 0.1250755339860916, 0.2806524932384491, -0.10202177613973618, 0.3269750773906708, 0.4052181839942932, -0.9245110750198364, 0.580702543258667, 0.3857910633087158, -0.7384271621704102, -0.09815414994955063, -0.32044294476509094, -0.07572583854198456, -0.3147227466106415, 0.4603022634983063, -0.4130863845348358, 0.07173509895801544, 0.24686788022518158, -0.14980654418468475, -0.1738944798707962, -0.12776106595993042, -0.17816030979156494, -0.07604523003101349, 0.16865947842597961, 0.26040124893188477, -0.3451478183269501, 0.041859667748212814, -0.06533133238554001, -0.16559480130672455, -0.1783599555492401, 0.14123648405075073, -0.045923519879579544, -0.02649306133389473, 0.0326748751103878, 0.22007417678833008, -0.016503626480698586, -0.1707744598388672, 0.178481325507164, -0.1272595077753067, 0.1464797556400299, 0.10757169127464294, 0.18734842538833618, 0.1843722015619278, 0.11320149153470993, -0.2438795119524002, 0.050902049988508224, 0.07463180273771286, -0.21263769268989563, 0.062745600938797, 0.004972063470631838, -0.37132811546325684, 0.08711849898099899, 0.22979941964149475, 0.3045903146266937, -0.028454910963773727, -0.19442786276340485, 0.14891380071640015, 0.012552261352539062, 0.050617191940546036, 0.18084290623664856, -0.0005581305013038218, 0.024510405957698822, -0.21248799562454224, -0.10738886147737503, -0.02228417433798313, 0.37153294682502747, 0.24202662706375122, 0.007993372157216072, -0.22606892883777618, -0.3556750416755676, 0.08473127335309982, -0.26001858711242676, 0.07376156747341156, 0.13815556466579437, 0.03446698188781738, -0.2887621223926544, 0.131748765707016, -0.06389263272285461, -0.11523046344518661, -0.3205682337284088, 0.0811130702495575, -0.008763165213167667, -0.10646126419305801, -0.4309980571269989, 0.754137396812439, 0.2150774449110031, 0.16990838944911957, 0.24662627279758453, -0.33600085973739624, -0.19167731702327728, -0.07069937884807587, -0.1787339299917221, -0.2910202145576477, 0.09590070694684982, 0.22052280604839325, 0.20453299582004547, 0.18480750918388367, -0.16900207102298737, -0.19040222465991974, 0.17348900437355042, 0.05506253242492676, -0.03501551225781441, -0.03014948219060898, 0.43797925114631653, 0.20328398048877716, -0.0023159135598689318, -0.45350393652915955, 0.09464196115732193, -0.2885848879814148, 0.01965385116636753, -0.2715655565261841, 0.21558398008346558, 0.02986016497015953, -0.19363272190093994, 0.24677342176437378, 0.07841439545154572, -0.3020385503768921, 0.08064861595630646, 0.10887663811445236, 0.02171957492828369, -0.21194379031658173, 0.14309778809547424, -0.056112777441740036, -0.08517996221780777, -0.2108355611562729, 0.0669572651386261, -0.05944453924894333, 0.2553315758705139, 0.40652644634246826, -0.19287338852882385, -0.10128635168075562, 0.26170581579208374, 0.10865309834480286, 0.17395243048667908, -0.08930669724941254, 0.1599319577217102, -0.1921452283859253, -0.02195725031197071, 0.3992471992969513, 0.2367008626461029, -0.38769322633743286, 0.1643696278333664, 0.0807671993970871, -0.15625008940696716, 0.1490592658519745, 0.09286415576934814, -0.34462928771972656, -0.20502595603466034, 0.17605876922607422, -0.056119248270988464, 0.04497943073511124, 0.056157436221838, 0.1908053755760193, -0.039448242634534836, -0.02658996172249317, -0.08907603472471237, 0.044006187468767166, 0.25286343693733215, 0.1751784235239029, -0.012640969827771187, -0.3646969795227051, 0.023274580016732216, -0.062223125249147415, -0.044924840331077576, -0.2578476369380951, -0.017034607008099556, 0.22158783674240112, -0.016106659546494484, 0.22800026834011078, -0.2510959208011627, 0.32063111662864685, 0.16950322687625885, -0.19884923100471497, 0.14765523374080658, -0.24466340243816376, -0.19932430982589722, -0.05604276806116104, 0.07203642278909683, 0.012614278122782707, -0.30874064564704895, 0.34102997183799744, 0.03853209316730499, -0.1107725277543068, 0.0009600932244211435, -0.22287435829639435, 0.05130421742796898, 0.08305995166301727, -0.07994683086872101, 0.36691519618034363, 0.20531274378299713, -0.35068997740745544, 0.004368054214864969, -0.1484493762254715, -0.1441204845905304, 0.16475960612297058, 0.04587900638580322, -0.21456319093704224, 0.09005001932382584, 0.11319153010845184, 0.07245369255542755, -0.09807666391134262, 0.23681217432022095, -0.12204977124929428, -0.14356374740600586, 0.3470657169818878, 0.07429244369268417, 0.3146950602531433, -0.02219308353960514, -0.15867488086223602, 0.013523791916668415, -0.176919087767601, -0.09073113650083542, 0.39074280858039856, -0.1463877111673355, -0.3175709545612335, -0.09664187580347061, -0.11184672266244888, -0.11216999590396881, -0.020096447318792343, -0.04856179282069206, -0.3952518105506897, -0.02341802790760994, 0.007966641336679459, 0.30302631855010986, 0.17597706615924835, 0.10640966147184372, -0.2317970097064972, -0.002873692661523819, -0.034683212637901306, 0.23490643501281738, 0.2274339646100998, -0.11910242587327957, -0.1891629695892334, -0.23235678672790527, -0.14958149194717407, 0.06355941295623779, 0.22626620531082153, -0.018401451408863068, 0.019531985744833946, 0.40823352336883545, -0.04414418339729309, -0.25727379322052, 0.24772456288337708, 0.21738897264003754, -0.35652315616607666, 0.1241534948348999, -0.294269323348999, -0.1574646234512329, 0.018663570284843445, 0.3109676241874695, -0.05355959013104439, 0.15374398231506348, -0.13151931762695312, 0.04998011887073517, -0.21755856275558472, -0.2686525285243988, -0.033436864614486694, -0.07795491069555283, 0.07571202516555786, -0.11084645241498947, 0.055047325789928436, 0.17571628093719482, -0.1538676917552948, 0.014382841996848583, 0.04557332769036293, -0.06360656023025513, 0.3978833258152008, 0.09046341478824615, 0.01787940040230751, -0.3140070140361786, -0.15589168667793274, 0.2112254798412323, 0.008510548621416092, 0.2509253919124603, -0.005881619639694691, -0.28357580304145813, -0.24781697988510132, 0.2112785428762436, 0.037789445370435715, 0.1237483099102974, 0.434915691614151, -0.2662888169288635, -0.1411258429288864, -0.14504536986351013, 0.20717240869998932, -0.07734885066747665, 0.4126194715499878, -0.04566282778978348, 0.2928622364997864, -0.37273460626602173, 0.13594019412994385, 0.23047775030136108, -0.26868483424186707, -0.2382460981607437, -0.42825615406036377, -0.19989556074142456, 0.025722648948431015, 0.08650631457567215, 0.6410467028617859, 0.2710358798503876, 0.11266186088323593, 0.6429048180580139, 0.0882440060377121, 0.18538805842399597, -0.07782144844532013, 0.21746908128261566, 0.32660093903541565, 0.11173082143068314, -0.01432295236736536, 0.04526625946164131, 0.14580191671848297, 0.0021563225891441107, 0.3700673282146454, 0.10467600077390671, 0.13089461624622345, 0.4472324252128601, 0.10128641128540039, 0.11798737198114395, -0.22217364609241486, -0.06468833982944489, -0.03962220624089241, 0.15995903313159943, 0.5793260335922241, 0.01501480769366026, 0.05834048613905907, 0.022594338282942772, 0.08726339042186737, -0.021168136969208717, -0.6126667857170105, 0.051795754581689835, 0.06080349162220955, 0.3123510479927063, 0.002774809719994664, -0.10235454142093658, -0.2710595726966858, -0.07899956405162811, -0.11720429360866547, 0.23525117337703705, -0.3615693747997284, -0.20073896646499634, 0.03216537833213806, -0.041323572397232056, 0.32467401027679443, -0.1696247011423111, 0.04299740865826607, 0.3147713840007782, -0.32601428031921387, 0.003814192023128271, -0.1263287365436554, -0.3490949869155884, -0.2664549648761749, 0.10180605202913284, 0.2794266939163208, -0.2053254246711731, -0.11393946409225464, 0.0584196001291275, -0.17480303347110748, 0.14644646644592285, 0.01585596799850464, -0.15656951069831848, -0.1996854543685913, 0.26752859354019165, -0.1246868446469307, -0.131728395819664, 0.05475259944796562, -0.05706438049674034, 0.03766913712024689, -0.30707910656929016, 0.12636663019657135, -0.09541206061840057, -0.17722129821777344, -0.12057957798242569, -0.13177116215229034, 0.273598313331604, 0.024927480146288872, 0.09049584716558456, 0.17454354465007782, 0.05371043086051941, 0.015707166865468025, -0.29263246059417725, -0.11317317187786102, -0.027821926400065422, 0.15450142323970795, 0.0981794223189354, 0.11037951707839966, -0.006327408365905285, -0.040031611919403076, -0.08390436321496964, -0.13626959919929504, -0.10994619131088257, -0.020711757242679596, 0.207633376121521, -0.0527719110250473, -0.14002852141857147, -0.2382064014673233, 0.07908345013856888, 0.07348384708166122, 0.23631568253040314, 0.031440217047929764, -0.08368165791034698, -0.17640338838100433, -0.02028203383088112, -0.1345115602016449, -0.2770288586616516, 0.18136556446552277, 0.06724373251199722, -0.3331542909145355, 0.11797218024730682, -0.11328696459531784, -0.172513946890831, 0.3088377118110657, 0.18550164997577667, -0.12003899365663528, -0.15864534676074982, 0.052910760045051575, 0.25854942202568054, -0.025027764961123466, 0.22180652618408203, 0.17334170639514923, 0.24482475221157074, 0.11071713268756866, -0.12170860916376114, 0.09760752320289612, 0.013450082391500473, 0.10476052016019821, -0.11814520508050919, -0.21159283816814423, 0.11163415759801865, -0.18213509023189545, -0.09987367689609528, 0.24277815222740173, 0.04471030458807945, -0.04380527883768082, -0.05047956854104996, 0.2529163062572479, 0.061191122978925705, -0.051123421639204025, 0.014577019959688187, -0.09283258020877838, -0.2019427865743637, -0.05096361041069031, 0.04739096760749817, 0.255577951669693, 0.19231106340885162, 0.27185097336769104, 0.39209604263305664, 0.21074116230010986, -0.07084701955318451, 0.02403244562447071, 0.22716104984283447, 0.22045393288135529, 0.3774194121360779, 0.1972070187330246, -0.16575616598129272, -0.31463849544525146, 0.034225210547447205, -0.09402412921190262, -0.12283439189195633, 0.00835392251610756, -0.007961397990584373, 0.08306006342172623, -0.2429392784833908, 0.14575684070587158, -0.08525323867797852, -0.030693551525473595, -0.0017148556653410196, 0.23168706893920898, 0.16114845871925354, 0.20960482954978943, -0.30934953689575195, 0.14009064435958862, 0.10915807634592056, 0.2741296589374542, 0.08318255841732025, 0.25166741013526917, 0.34007343649864197, -0.131942480802536, -0.04353534057736397, 0.3141278326511383, 0.06822623312473297, 0.18000084161758423, -0.21060551702976227, 0.1581316739320755, 0.147101491689682, -0.09619393199682236, -0.15255706012248993, -0.0026280947495251894, 0.1259317845106125, 0.08838589489459991, 0.07401952147483826, 0.5067369937896729, 0.11655299365520477, -0.2294522225856781, 0.0956992581486702, 0.20456701517105103, 0.07780218124389648, -0.27709051966667175, 0.13583311438560486, 0.10736066102981567, -0.10327859967947006, 0.1972299963235855, 0.11405763030052185, 0.15223543345928192, 0.09024032205343246, 0.1898021399974823, 0.00014734909927938133, 0.027182571589946747, 0.20007146894931793, -0.21301867067813873, -0.022109419107437134, -0.20660969614982605, 0.05758603289723396, -0.20272833108901978, 0.007779799401760101, 0.13322126865386963, 0.12677738070487976, 0.0982782393693924, -0.23693010210990906, 0.04986458271741867, 0.053094491362571716, -0.3323146402835846, -0.16425545513629913, -0.06322260946035385, 0.3243962824344635, -0.23952646553516388, -0.07634738087654114, 0.10584427416324615, 0.03557875379920006, 0.13688911497592926, -0.1906537264585495, 0.18360289931297302, 0.11062639206647873, -0.22339150309562683, -0.03297039121389389, -0.0480804517865181, 0.034612465649843216, -0.1345670074224472, 0.017176823690533638, 0.3391271233558655, -0.1339779794216156, -0.32591772079467773, 0.24223557114601135, 0.2120005339384079, 0.03524595871567726, -0.3591097295284271, -0.08737487345933914, 0.07018879055976868, -0.13750968873500824, 0.17971903085708618, -0.018742013722658157, -0.09904665499925613, -0.041804198175668716, 0.0486050508916378, -0.22935600578784943, 0.22558970749378204, 0.163679838180542, -0.2078753262758255, -0.32525429129600525, 0.04700705409049988, 0.12976299226284027, -0.01808216981589794, -0.022012004628777504, 0.049150314182043076, 0.053082164376974106, 0.01972724311053753, -0.26366138458251953, 0.05299758538603783, 0.2591732442378998, -0.36768922209739685, -0.12572310864925385, 0.01833091489970684, 0.20373041927814484, -0.13954798877239227, -0.4111001193523407, -0.17684759199619293, -0.05579650402069092, 0.1275298297405243, 0.02698701247572899, -0.2713679075241089, -0.1912127286195755, 0.09854218363761902, 0.14880794286727905, 0.15168496966362, 0.09327830374240875, 0.07001582533121109, -0.6928337812423706, -0.01317418459802866, -0.21554864943027496, -0.5090312361717224, 0.2194044291973114, -0.11762890219688416, 0.23765073716640472, 0.00539831817150116, -0.21056313812732697, -0.07005149126052856, -0.1448863297700882, -0.3341694474220276, -0.554802417755127, 0.22038498520851135, -0.0816098153591156, 0.23359735310077667, 0.10328557342290878, -0.23227182030677795, -0.05098867416381836, 0.09546554088592529, 0.36040446162223816, 0.16975687444210052, -0.10931915044784546, -0.08694210648536682, 0.08711855113506317, 0.027184374630451202, -0.2576484680175781, -0.026455819606781006, 0.019225673750042915, -0.047973088920116425, 0.3186074197292328, -0.026898227632045746, 0.22294208407402039, -0.2611474096775055, -0.20142598450183868, 0.0914863795042038, 0.015472615137696266, 0.2872162163257599, 0.11137784272432327, 0.1536429226398468, -0.0683407187461853, 